{"learner":{"attributes":{"best_iteration":"21","best_score":"-0.846154"},"feature_names":[],"feature_types":[],"gradient_booster":{"model":{"gbtree_model_param":{"num_parallel_tree":"1","num_trees":"432"},"iteration_indptr":[0,6,12,18,24,30,36,42,48,54,60,66,72,78,84,90,96,102,108,114,120,126,132,138,144,150,156,162,168,174,180,186,192,198,204,210,216,222,228,234,240,246,252,258,264,270,276,282,288,294,300,306,312,318,324,330,336,342,348,354,360,366,372,378,384,390,396,402,408,414,420,426,432],"tree_info":[0,1,2,3,4,5,0,1,2,3,4,5,0,1,2,3,4,5,0,1,2,3,4,5,0,1,2,3,4,5,0,1,2,3,4,5,0,1,2,3,4,5,0,1,2,3,4,5,0,1,2,3,4,5,0,1,2,3,4,5,0,1,2,3,4,5,0,1,2,3,4,5,0,1,2,3,4,5,0,1,2,3,4,5,0,1,2,3,4,5,0,1,2,3,4,5,0,1,2,3,4,5,0,1,2,3,4,5,0,1,2,3,4,5,0,1,2,3,4,5,0,1,2,3,4,5,0,1,2,3,4,5,0,1,2,3,4,5,0,1,2,3,4,5,0,1,2,3,4,5,0,1,2,3,4,5,0,1,2,3,4,5,0,1,2,3,4,5,0,1,2,3,4,5,0,1,2,3,4,5,0,1,2,3,4,5,0,1,2,3,4,5,0,1,2,3,4,5,0,1,2,3,4,5,0,1,2,3,4,5,0,1,2,3,4,5,0,1,2,3,4,5,0,1,2,3,4,5,0,1,2,3,4,5,0,1,2,3,4,5,0,1,2,3,4,5,0,1,2,3,4,5,0,1,2,3,4,5,0,1,2,3,4,5,0,1,2,3,4,5,0,1,2,3,4,5,0,1,2,3,4,5,0,1,2,3,4,5,0,1,2,3,4,5,0,1,2,3,4,5,0,1,2,3,4,5,0,1,2,3,4,5,0,1,2,3,4,5,0,1,2,3,4,5,0,1,2,3,4,5,0,1,2,3,4,5,0,1,2,3,4,5,0,1,2,3,4,5,0,1,2,3,4,5,0,1,2,3,4,5,0,1,2,3,4,5,0,1,2,3,4,5,0,1,2,3,4,5,0,1,2,3,4,5,0,1,2,3,4,5,0,1,2,3,4,5,0,1,2,3,4,5,0,1,2,3,4,5,0,1,2,3,4,5,0,1,2,3,4,5,0,1,2,3,4,5,0,1,2,3,4,5],"trees":[{"base_weights":[4.6656034E-3,-5.7874013E-2,1.9411763E0,-3.75E-2,2.5609756E-1],"categories":[],"categories_nodes":[],"categories_segments":[],"categories_sizes":[],"default_left":[0,0,0,0,0],"id":0,"left_children":[1,-1,3,-1,-1],"loss_changes":[4.1481388E1,0E0,1.31626625E1,0E0,0E0],"parents":[2147483647,0,0,2,2],"right_children":[2,-1,4,-1,-1],"split_conditions":[5.3488165E-1,-5.7874013E-2,1.11784575E-5,-3.75E-2,2.5609756E-1],"split_indices":[72,0,6,0,0],"split_type":[0,0,0,0,0],"sum_hessian":[3.4722225E1,2.7222223E1,7.5000005E0,1.6666667E0,5.8333335E0],"tree_param":{"num_deleted":"0","num_feature":"148","num_nodes":"5","size_leaf_vector":"1"}},{"base_weights":[4.6656034E-3,2.3493974E-1,-3.3217993E-1,1.1590909E0,-5.7874013E-2,-3.488372E-2,1.8571429E-1],"categories":[],"categories_nodes":[],"categories_segments":[],"categories_sizes":[],"default_left":[0,0,0,0,0,0,0],"id":1,"left_children":[1,-1,3,5,-1,-1,-1],"loss_changes":[2.899428E1,0E0,1.2477684E1,5.7939444E0,0E0,0E0,0E0],"parents":[2147483647,0,0,2,2,3,3],"right_children":[2,-1,4,6,-1,-1,-1],"split_conditions":[1.8214032E-1,2.3493974E-1,5.2736694E-1,3.2422948E-1,-5.7874013E-2,-3.488372E-2,1.8571429E-1],"split_indices":[5,0,87,45,0,0,0],"split_type":[0,0,0,0,0,0,0],"sum_hessian":[3.4722225E1,3.6111112E0,3.1111113E1,3.888889E0,2.7222223E1,1.388889E0,2.5E0],"tree_param":{"num_deleted":"0","num_feature":"148","num_nodes":"7","size_leaf_vector":"1"}},{"base_weights":[-2.3328174E-2,1.3220338E0,-3.1491715E-1,-3.9622642E-2,2.13253E-1,6.9230765E-1,-4.658385E-1,-3.9622642E-2,1.744186E-1,6.315789E-2,-5.37797E-1,1.5789472E-2,-5.756208E-2],"categories":[],"categories_nodes":[],"categories_segments":[],"categories_sizes":[],"default_left":[0,0,0,0,0,0,0,0,0,0,0,0,0],"id":2,"left_children":[1,3,5,-1,-1,7,9,-1,-1,-1,11,-1,-1],"loss_changes":[1.4429899E1,9.974518E0,4.9081917E0,0E0,0E0,5.652783E0,2.4586487E0,0E0,0E0,0E0,7.6773405E-1,0E0,0E0],"parents":[2147483647,0,0,1,1,2,2,5,5,6,6,10,10],"right_children":[2,4,6,-1,-1,8,10,-1,-1,-1,12,-1,-1],"split_conditions":[3.7084086E-5,2.7172196E-1,1.9970846E-1,-3.9622642E-2,2.13253E-1,1.7867957E-1,1.5384616E-1,-3.9622642E-2,1.744186E-1,6.315789E-2,1.9077834E-1,1.5789472E-2,-5.756208E-2],"split_indices":[42,2,20,0,0,20,105,0,0,0,8,0,0],"split_type":[0,0,0,0,0,0,0,0,0,0,0,0,0],"sum_hessian":[3.4722225E1,5.555556E0,2.9166668E1,1.9444445E0,3.6111112E0,3.3333335E0,2.5833334E1,1.9444445E0,1.388889E0,1.1111112E0,2.4722223E1,1.1111112E0,2.3611113E1],"tree_param":{"num_deleted":"0","num_feature":"148","num_nodes":"13","size_leaf_vector":"1"}},{"base_weights":[4.6656034E-3,5.5029577E-1,-5.665635E-2,1.6829267E0,-9.012877E-2,-3.488372E-2,2.265306E-1,8.823529E-1,-4.4262296E-1,1.744186E-1,-3.488372E-2,-5.337423E-2,1.5789472E-2],"categories":[],"categories_nodes":[],"categories_segments":[],"categories_sizes":[],"default_left":[0,0,0,0,0,0,0,0,0,0,0,0,0],"id":3,"left_children":[1,3,-1,5,7,-1,-1,9,11,-1,-1,-1,-1],"loss_changes":[1.1445674E1,1.3772419E1,0E0,8.875811E0,4.8278294E0,0E0,0E0,4.6169634E0,6.405828E-1,0E0,0E0,0E0,0E0],"parents":[2147483647,0,0,1,1,3,3,4,4,7,7,8,8],"right_children":[2,4,-1,6,8,-1,-1,10,12,-1,-1,-1,-1],"split_conditions":[1.5345371E-1,8.0741507E-1,-5.665635E-2,5.7906415E-2,3.5601962E-1,-3.488372E-2,2.265306E-1,2.164297E-1,2.2942843E-1,1.744186E-1,-3.488372E-2,-5.337423E-2,1.5789472E-2],"split_indices":[76,22,0,2,20,0,0,2,1,0,0,0,0],"split_type":[0,0,0,0,0,0,0,0,0,0,0,0,0],"sum_hessian":[3.4722225E1,1.7777779E1,1.6944445E1,5.8333335E0,1.1944445E1,1.388889E0,4.4444447E0,2.777778E0,9.166667E0,1.388889E0,1.388889E0,8.055556E0,1.1111112E0],"tree_param":{"num_deleted":"0","num_feature":"148","num_nodes":"13","size_leaf_vector":"1"}},{"base_weights":[4.6656034E-3,-4.7609943E-1,1.8260869E0,-5.780933E-2,7.4999996E-2,-3.488372E-2,2.3628317E-1],"categories":[],"categories_nodes":[],"categories_segments":[],"categories_sizes":[],"default_left":[0,0,0,0,0,0,0],"id":4,"left_children":[1,3,5,-1,-1,-1,-1],"loss_changes":[3.215048E1,4.0671024E0,9.774153E0,0E0,0E0,0E0,0E0],"parents":[2147483647,0,0,1,1,2,2],"right_children":[2,4,6,-1,-1,-1,-1],"split_conditions":[1E0,5.6557375E-1,5.01315E-1,-5.780933E-2,7.4999996E-2,-3.488372E-2,2.3628317E-1],"split_indices":[125,1,32,0,0,0,0],"split_type":[0,0,0,0,0,0,0],"sum_hessian":[3.4722225E1,2.8055557E1,6.666667E0,2.638889E1,1.6666667E0,1.388889E0,5.277778E0],"tree_param":{"num_deleted":"0","num_feature":"148","num_nodes":"7","size_leaf_vector":"1"}},{"base_weights":[4.6656034E-3,2.2173913E0,-5.793499E-2,1.5789472E-2,2.5423726E-1],"categories":[],"categories_nodes":[],"categories_segments":[],"categories_sizes":[],"default_left":[0,0,0,0,0],"id":5,"left_children":[1,3,-1,-1,-1],"loss_changes":[4.7447266E1,4.7298584E0,0E0,0E0,0E0],"parents":[2147483647,0,0,1,1],"right_children":[2,4,-1,-1,-1],"split_conditions":[8.4068656E-2,3.890311E-1,-5.793499E-2,1.5789472E-2,2.5423726E-1],"split_indices":[2,0,0,0,0],"split_type":[0,0,0,0,0],"sum_hessian":[3.4722225E1,6.666667E0,2.8055557E1,1.1111112E0,5.555556E0],"tree_param":{"num_deleted":"0","num_feature":"148","num_nodes":"5","size_leaf_vector":"1"}},{"base_weights":[2.1683692E-3,-5.7159405E-2,1.5990608E0,-3.6911417E-2,2.0404135E-1],"categories":[],"categories_nodes":[],"categories_segments":[],"categories_sizes":[],"default_left":[0,0,0,0,0],"id":6,"left_children":[1,-1,3,-1,-1],"loss_changes":[3.3648125E1,0E0,9.185093E0,0E0,0E0],"parents":[2147483647,0,0,2,2],"right_children":[2,-1,4,-1,-1],"split_conditions":[5.3488165E-1,-5.7159405E-2,1.11784575E-5,-3.6911417E-2,2.0404135E-1],"split_indices":[72,0,6,0,0],"split_type":[0,0,0,0,0],"sum_hessian":[3.4726692E1,2.601984E1,8.706854E0,1.624813E0,7.082041E0],"tree_param":{"num_deleted":"0","num_feature":"148","num_nodes":"5","size_leaf_vector":"1"}},{"base_weights":[5.8208373E-3,1.9249569E-1,-3.2159522E-1,1.030489E0,-5.7157457E-2,-3.4158275E-2,1.5933517E-1],"categories":[],"categories_nodes":[],"categories_segments":[],"categories_sizes":[],"default_left":[0,0,0,0,0,0,0],"id":7,"left_children":[1,-1,3,5,-1,-1,-1],"loss_changes":[2.2975105E1,0E0,1.1151356E1,4.585586E0,0E0,0E0,0E0],"parents":[2147483647,0,0,2,2,3,3],"right_children":[2,-1,4,6,-1,-1,-1],"split_conditions":[1.8214032E-1,1.9249569E-1,5.2736694E-1,3.2422948E-1,-5.7157457E-2,-3.4158275E-2,1.5933517E-1],"split_indices":[5,0,87,45,0,0,0],"split_type":[0,0,0,0,0,0,0],"sum_hessian":[3.4578636E1,4.3284373E0,3.02502E1,4.232926E0,2.6017273E1,1.3456972E0,2.887229E0],"tree_param":{"num_deleted":"0","num_feature":"148","num_nodes":"7","size_leaf_vector":"1"}},{"base_weights":[-1.9924052E-2,1.148282E0,-3.03477E-1,-3.8993303E-2,1.7771277E-1,6.3957256E-1,-4.555574E-1,-3.888765E-2,1.5314469E-1,-5.676533E-2,2.8588405E-1,-3.7123907E-2,8.832755E-2],"categories":[],"categories_nodes":[],"categories_segments":[],"categories_sizes":[],"default_left":[0,0,0,0,0,0,0,0,0,0,0,0,0],"id":8,"left_children":[1,3,5,-1,-1,7,9,-1,-1,-1,11,-1,-1],"loss_changes":[1.2102407E1,7.599107E0,4.499881E0,0E0,0E0,4.7148995E0,2.3110023E0,0E0,0E0,0E0,1.9218469E0,0E0,0E0],"parents":[2147483647,0,0,1,1,2,2,5,5,6,6,10,10],"right_children":[2,4,6,-1,-1,8,10,-1,-1,-1,12,-1,-1],"split_conditions":[3.7084086E-5,2.7172196E-1,1.9970846E-1,-3.8993303E-2,1.7771277E-1,1.7867957E-1,4.1551247E-1,-3.888765E-2,1.5314469E-1,-5.676533E-2,6.506434E-1,-3.7123907E-2,8.832755E-2],"split_indices":[42,2,20,0,0,20,113,0,0,0,87,0,0],"split_type":[0,0,0,0,0,0,0,0,0,0,0,0,0],"sum_hessian":[3.448375E1,6.139613E0,2.8344137E1,1.8918629E0,4.2477503E0,3.4909983E0,2.4853138E1,1.8832918E0,1.6077063E0,2.1792763E1,3.0603766E0,1.6376019E0,1.4227749E0],"tree_param":{"num_deleted":"0","num_feature":"148","num_nodes":"13","size_leaf_vector":"1"}},{"base_weights":[4.505724E-3,5.030225E-1,-5.5911418E-2,1.4205205E0,-8.374724E-2,-3.4232065E-2,1.8533482E-1,8.0599594E-1,-4.3295437E-1,1.5434544E-1,-3.4458406E-2,1.7695026E-2,-5.272159E-2],"categories":[],"categories_nodes":[],"categories_segments":[],"categories_sizes":[],"default_left":[0,0,0,0,0,0,0,0,0,0,0,0,0],"id":9,"left_children":[1,3,-1,5,7,-1,-1,9,11,-1,-1,-1,-1],"loss_changes":[1.0297015E1,1.0585857E1,0E0,6.4634132E0,4.326816E0,0E0,0E0,3.89022E0,6.5926874E-1,0E0,0E0,0E0,0E0],"parents":[2147483647,0,0,1,1,3,3,4,4,7,7,8,8],"right_children":[2,4,-1,6,8,-1,-1,10,12,-1,-1,-1,-1],"split_conditions":[1.5345371E-1,8.0741507E-1,-5.5911418E-2,5.7906415E-2,4.480168E-1,-3.4232065E-2,1.8533482E-1,2.164297E-1,5.150245E-1,1.5434544E-1,-3.4458406E-2,1.7695026E-2,-5.272159E-2],"split_indices":[76,22,0,2,29,0,0,2,86,0,0,0,0],"split_type":[0,0,0,0,0,0,0,0,0,0,0,0,0],"sum_hessian":[3.4646606E1,1.844218E1,1.6204428E1,6.6394844E0,1.1802695E1,1.3500483E0,5.289436E0,2.9579852E0,8.84471E0,1.5945249E0,1.3634603E0,1.0665488E0,7.7781615E0],"tree_param":{"num_deleted":"0","num_feature":"148","num_nodes":"13","size_leaf_vector":"1"}},{"base_weights":[3.958511E-3,-4.6641E-1,1.5264436E0,-5.709855E-2,6.8861455E-2,-3.422706E-2,1.9187348E-1],"categories":[],"categories_nodes":[],"categories_segments":[],"categories_sizes":[],"default_left":[0,0,0,0,0,0,0],"id":10,"left_children":[1,3,5,-1,-1,-1,-1],"loss_changes":[2.625322E1,3.7768726E0,6.9994392E0,0E0,0E0,0E0,0E0],"parents":[2147483647,0,0,1,1,2,2],"right_children":[2,4,6,-1,-1,-1,-1],"split_conditions":[1E0,5.6557375E-1,5.01315E-1,-5.709855E-2,6.8861455E-2,-3.422706E-2,1.9187348E-1],"split_indices":[125,1,32,0,0,0,0],"split_type":[0,0,0,0,0,0,0],"sum_hessian":[3.4665737E1,2.7013596E1,7.6521406E0,2.5234524E1,1.7790732E0,1.3497925E0,6.302348E0],"tree_param":{"num_deleted":"0","num_feature":"148","num_nodes":"7","size_leaf_vector":"1"}},{"base_weights":[3.3806057E-3,1.8143191E0,-5.723104E-2,1.3166778E-2,2.0540145E-1],"categories":[],"categories_nodes":[],"categories_segments":[],"categories_sizes":[],"default_left":[0,0,0,0,0],"id":11,"left_children":[1,3,-1,-1,-1],"loss_changes":[3.8235317E1,3.2974129E0,0E0,0E0,0E0],"parents":[2147483647,0,0,1,1],"right_children":[2,4,-1,-1,-1],"split_conditions":[8.4068656E-2,9.2032534E-1,-5.723104E-2,1.3166778E-2,2.0540145E-1],"split_indices":[2,5,0,0,0],"split_type":[0,0,0,0,0],"sum_hessian":[3.4679134E1,7.8461437E0,2.6832993E1,1.1715096E0,6.6746345E0],"tree_param":{"num_deleted":"0","num_feature":"148","num_nodes":"5","size_leaf_vector":"1"}},{"base_weights":[-6.03648E-5,-5.6461513E-2,1.3617513E0,-3.6280658E-2,1.700428E-1],"categories":[],"categories_nodes":[],"categories_segments":[],"categories_sizes":[],"default_left":[0,0,0,0,0],"id":12,"left_children":[1,-1,3,-1,-1],"loss_changes":[2.8061314E1,0E0,6.864563E0,0E0,0E0],"parents":[2147483647,0,0,2,2],"right_children":[2,-1,4,-1,-1],"split_conditions":[5.3488165E-1,-5.6461513E-2,1.11784575E-5,-3.6280658E-2,1.700428E-1],"split_indices":[72,0,6,0,0],"split_type":[0,0,0,0,0],"sum_hessian":[3.4499268E1,2.48025E1,9.696769E0,1.5800142E0,8.116755E0],"tree_param":{"num_deleted":"0","num_feature":"148","num_nodes":"5","size_leaf_vector":"1"}},{"base_weights":[6.7727324E-3,1.6300781E-1,-3.114009E-1,9.264098E-1,-5.645894E-2,-3.3407714E-2,1.3933226E-1],"categories":[],"categories_nodes":[],"categories_segments":[],"categories_sizes":[],"default_left":[0,0,0,0,0,0,0],"id":13,"left_children":[1,-1,3,5,-1,-1,-1],"loss_changes":[1.8724667E1,0E0,1.0028463E1,3.719532E0,0E0,0E0,0E0],"parents":[2147483647,0,0,2,2,3,3],"right_children":[2,-1,4,6,-1,-1,-1],"split_conditions":[1.8214032E-1,1.6300781E-1,5.2736694E-1,3.2422948E-1,-5.645894E-2,-3.3407714E-2,1.3933226E-1],"split_indices":[5,0,87,45,0,0,0],"split_type":[0,0,0,0,0,0,0],"sum_hessian":[3.427068E1,4.940626E0,2.9330055E1,4.5290513E0,2.4801003E1,1.3010931E0,3.2279584E0],"tree_param":{"num_deleted":"0","num_feature":"148","num_nodes":"7","size_leaf_vector":"1"}},{"base_weights":[-1.7175712E-2,1.0129659E0,-2.9258606E-1,-3.83435E-2,1.521486E-1,5.9211767E-1,-4.4542742E-1,-3.811795E-2,1.3583885E-1,-5.603875E-2,2.7083623E-1,8.214024E-2,-3.660162E-2],"categories":[],"categories_nodes":[],"categories_segments":[],"categories_sizes":[],"default_left":[0,0,0,0,0,0,0,0,0,0,0,0,0],"id":14,"left_children":[1,3,5,-1,-1,7,9,-1,-1,-1,11,-1,-1],"loss_changes":[1.0265292E1,6.006034E0,4.1176314E0,0E0,0E0,3.9692514E0,2.1998758E0,0E0,0E0,0E0,1.7432026E0,0E0,0E0],"parents":[2147483647,0,0,1,1,2,2,5,5,6,6,10,10],"right_children":[2,4,6,-1,-1,8,10,-1,-1,-1,12,-1,-1],"split_conditions":[3.7084086E-5,2.7172196E-1,1.9970846E-1,-3.83435E-2,1.521486E-1,1.7867957E-1,4.1551247E-1,-3.811795E-2,1.3583885E-1,-5.603875E-2,3.6363635E-2,8.214024E-2,-3.660162E-2],"split_indices":[42,2,20,0,0,20,113,0,0,0,41,0,0],"split_type":[0,0,0,0,0,0,0,0,0,0,0,0,0],"sum_hessian":[3.4137478E1,6.6364717E0,2.7501005E1,1.8372755E0,4.7991962E0,3.6278083E0,2.3873196E1,1.8194027E0,1.8084055E0,2.0759007E1,3.11419E0,1.5148236E0,1.5993665E0],"tree_param":{"num_deleted":"0","num_feature":"148","num_nodes":"13","size_leaf_vector":"1"}},{"base_weights":[4.4740015E-3,4.6264076E-1,-5.5170245E-2,1.231199E0,-7.8580864E-2,-3.3550125E-2,1.5723218E-1,7.375788E-1,-4.2338052E-1,1.3700649E-1,-3.3859055E-2,-5.1998597E-2,1.7913548E-2],"categories":[],"categories_nodes":[],"categories_segments":[],"categories_sizes":[],"default_left":[0,0,0,0,0,0,0,0,0,0,0,0,0],"id":15,"left_children":[1,3,-1,5,7,-1,-1,9,11,-1,-1,-1,-1],"loss_changes":[9.27729E0,8.398104E0,0E0,4.96686E0,3.872276E0,0E0,0E0,3.2694607E0,6.477773E-1,0E0,0E0,0E0,0E0],"parents":[2147483647,0,0,1,1,3,3,4,4,7,7,8,8],"right_children":[2,4,-1,6,8,-1,-1,10,12,-1,-1,-1,-1],"split_conditions":[1.5345371E-1,8.0741507E-1,-5.5170245E-2,5.7906415E-2,3.5601962E-1,-3.3550125E-2,1.5723218E-1,2.164297E-1,8.2479763E-1,1.3700649E-1,-3.3859055E-2,-5.1998597E-2,1.7913548E-2],"split_indices":[76,22,0,2,20,0,0,2,56,0,0,0,0],"split_type":[0,0,0,0,0,0,0,0,0,0,0,0,0],"sum_hessian":[3.4405365E1,1.8957085E1,1.5448282E1,7.3065763E0,1.1650508E1,1.3093779E0,5.9971986E0,3.1218247E0,8.528683E0,1.7942276E0,1.3275973E0,7.4682274E0,1.0604554E0],"tree_param":{"num_deleted":"0","num_feature":"148","num_nodes":"13","size_leaf_vector":"1"}},{"base_weights":[3.5356032E-3,-4.566131E-1,1.3107367E0,-5.6400765E-2,6.3716106E-2,-3.3501234E-2,1.6147968E-1],"categories":[],"categories_nodes":[],"categories_segments":[],"categories_sizes":[],"default_left":[0,0,0,0,0,0,0],"id":16,"left_children":[1,3,5,-1,-1,-1,-1],"loss_changes":[2.190426E1,3.5238957E0,5.2850857E0,0E0,0E0,0E0,0E0],"parents":[2147483647,0,0,1,1,2,2],"right_children":[2,4,6,-1,-1,-1,-1],"split_conditions":[1E0,5.6557375E-1,5.01315E-1,-5.6400765E-2,6.3716106E-2,-3.3501234E-2,1.6147968E-1],"split_indices":[125,1,32,0,0,0,0],"split_type":[0,0,0,0,0,0,0],"sum_hessian":[3.4420643E1,2.5940134E1,8.480509E0,2.4061913E1,1.8782223E0,1.3066056E0,7.1739035E0],"tree_param":{"num_deleted":"0","num_feature":"148","num_nodes":"7","size_leaf_vector":"1"}},{"base_weights":[2.3469434E-3,1.5365498E0,-5.653903E-2,1.2303944E-2,1.717202E-1],"categories":[],"categories_nodes":[],"categories_segments":[],"categories_sizes":[],"default_left":[0,0,0,0,0],"id":17,"left_children":[1,3,-1,-1,-1],"loss_changes":[3.1724152E1,2.3006668E0,0E0,0E0,0E0],"parents":[2147483647,0,0,1,1],"right_children":[2,4,-1,-1,-1],"split_conditions":[8.4068656E-2,3.890311E-1,-5.653903E-2,1.2303944E-2,1.717202E-1],"split_indices":[2,0,0,0,0],"split_type":[0,0,0,0,0],"sum_hessian":[3.442428E1,8.837137E0,2.5587143E1,1.1919363E0,7.6452007E0],"tree_param":{"num_deleted":"0","num_feature":"148","num_nodes":"5","size_leaf_vector":"1"}},{"base_weights":[-2.184653E-3,-5.5785794E-2,1.1882452E0,-3.561587E-2,1.4621171E-1],"categories":[],"categories_nodes":[],"categories_segments":[],"categories_sizes":[],"default_left":[0,0,0,0,0],"id":18,"left_children":[1,-1,3,-1,-1],"loss_changes":[2.3856916E1,0E0,5.3755455E0,0E0,0E0],"parents":[2147483647,0,0,2,2],"right_children":[2,-1,4,-1,-1],"split_conditions":[5.3488165E-1,-5.5785794E-2,1.11784575E-5,-3.561587E-2,1.4621171E-1],"split_indices":[72,0,6,0,0],"split_type":[0,0,0,0,0],"sum_hessian":[3.4063328E1,2.358542E1,1.0477909E1,1.5329456E0,8.944963E0],"tree_param":{"num_deleted":"0","num_feature":"148","num_nodes":"5","size_leaf_vector":"1"}},{"base_weights":[7.5128917E-3,1.4151636E-1,-3.0167952E-1,8.402088E-1,-5.5781674E-2,-3.2636672E-2,1.2361594E-1],"categories":[],"categories_nodes":[],"categories_segments":[],"categories_sizes":[],"default_left":[0,0,0,0,0,0,0],"id":19,"left_children":[1,-1,3,5,-1,-1,-1],"loss_changes":[1.5576095E1,0E0,9.056678E0,3.0726328E0,0E0,0E0,0E0],"parents":[2147483647,0,0,2,2,3,3],"right_children":[2,-1,4,6,-1,-1,-1],"split_conditions":[1.8214032E-1,1.4151636E-1,5.2736694E-1,3.2422948E-1,-5.5781674E-2,-3.2636672E-2,1.2361594E-1],"split_indices":[5,0,87,45,0,0,0],"split_type":[0,0,0,0,0,0,0],"sum_hessian":[3.380688E1,5.444213E0,2.8362667E1,4.778641E0,2.3584024E1,1.2554606E0,3.5231805E0],"tree_param":{"num_deleted":"0","num_feature":"148","num_nodes":"7","size_leaf_vector":"1"}},{"base_weights":[-1.4717094E-2,9.056223E-1,-2.8214213E-1,-3.7678547E-2,1.3305986E-1,5.4978305E-1,-4.3541285E-1,-3.7321467E-2,1.2168183E-1,-5.5331625E-2,2.5644305E-1,-3.622577E-2,7.704131E-2],"categories":[],"categories_nodes":[],"categories_segments":[],"categories_sizes":[],"default_left":[0,0,0,0,0,0,0,0,0,0,0,0,0],"id":20,"left_children":[1,3,5,-1,-1,7,9,-1,-1,-1,11,-1,-1],"loss_changes":[8.788094E0,4.884763E0,3.761847E0,0E0,0E0,3.37223E0,2.0902743E0,0E0,0E0,0E0,1.6022882E0,0E0,0E0],"parents":[2147483647,0,0,1,1,2,2,5,5,6,6,10,10],"right_children":[2,4,6,-1,-1,8,10,-1,-1,-1,12,-1,-1],"split_conditions":[3.7084086E-5,2.7172196E-1,1.9970846E-1,-3.7678547E-2,1.3305986E-1,1.7867957E-1,4.1551247E-1,-3.7321467E-2,1.2168183E-1,-5.5331625E-2,6.506434E-1,-3.622577E-2,7.704131E-2],"split_indices":[42,2,20,0,0,20,113,0,0,0,87,0,0],"split_type":[0,0,0,0,0,0,0,0,0,0,0,0,0],"sum_hessian":[3.3668118E1,7.0430636E0,2.6625053E1,1.7812783E0,5.261785E0,3.7396915E0,2.288536E1,1.7536284E0,1.9860632E0,1.9724272E1,3.16109E0,1.5683445E0,1.5927455E0],"tree_param":{"num_deleted":"0","num_feature":"148","num_nodes":"13","size_leaf_vector":"1"}},{"base_weights":[4.4451556E-3,4.2839417E-1,-5.444927E-2,1.0854094E0,-7.3054604E-2,-3.2848116E-2,1.3648699E-1,6.77909E-1,-4.1320896E-1,1.23211145E-1,-3.333216E-2,-5.1275056E-2,1.8753577E-2],"categories":[],"categories_nodes":[],"categories_segments":[],"categories_sizes":[],"default_left":[0,0,0,0,0,0,0,0,0,0,0,0,0],"id":21,"left_children":[1,3,-1,5,7,-1,-1,9,11,-1,-1,-1,-1],"loss_changes":[8.380988E0,6.7719083E0,0E0,3.947607E0,3.4623942E0,0E0,0E0,2.7994606E0,6.4603746E-1,0E0,0E0,0E0,0E0],"parents":[2147483647,0,0,1,1,3,3,4,4,7,7,8,8],"right_children":[2,4,-1,6,8,-1,-1,10,12,-1,-1,-1,-1],"split_conditions":[1.5345371E-1,8.0741507E-1,-5.444927E-2,5.7906415E-2,3.5601962E-1,-3.2848116E-2,1.3648699E-1,2.164297E-1,9.4002086E-1,1.23211145E-1,-3.333216E-2,-5.1275056E-2,1.8753577E-2],"split_indices":[76,22,0,2,20,0,0,2,55,0,0,0,0],"split_type":[0,0,0,0,0,0,0,0,0,0,0,0,0],"sum_hessian":[3.4010624E1,1.9313923E1,1.4696699E1,7.856077E0,1.1457846E1,1.2675714E0,6.5885057E0,3.2624168E0,8.195429E0,1.9663408E0,1.2960759E0,7.1561513E0,1.0392779E0],"tree_param":{"num_deleted":"0","num_feature":"148","num_nodes":"13","size_leaf_vector":"1"}},{"base_weights":[3.297423E-3,-4.4689512E-1,1.1500212E0,-5.5716712E-2,5.8712583E-2,-3.2824844E-2,1.3977788E-1],"categories":[],"categories_nodes":[],"categories_segments":[],"categories_sizes":[],"default_left":[0,0,0,0,0,0,0],"id":22,"left_children":[1,3,5,-1,-1,-1,-1],"loss_changes":[1.8585032E1,3.2753892E0,4.1756124E0,0E0,0E0,0E0,0E0],"parents":[2147483647,0,0,1,1,2,2],"right_children":[2,4,6,-1,-1,-1,-1],"split_conditions":[1E0,5.6557375E-1,5.01315E-1,-5.5716712E-2,5.8712583E-2,-3.2824844E-2,1.3977788E-1],"split_indices":[125,1,32,0,0,0,0],"split_type":[0,0,0,0,0,0,0],"sum_hessian":[3.400478E1,2.4856604E1,9.148174E0,2.2877974E1,1.978631E0,1.2665144E0,7.8816595E0],"tree_param":{"num_deleted":"0","num_feature":"148","num_nodes":"7","size_leaf_vector":"1"}},{"base_weights":[1.5515524E-3,1.3365631E0,-5.5867326E-2,1.0922367E-2,1.4845759E-1],"categories":[],"categories_nodes":[],"categories_segments":[],"categories_sizes":[],"default_left":[0,0,0,0,0],"id":23,"left_children":[1,3,-1,-1,-1],"loss_changes":[2.6903135E1,1.769392E0,0E0,0E0,0E0],"parents":[2147483647,0,0,1,1],"right_children":[2,4,-1,-1,-1],"split_conditions":[8.4068656E-2,9.2032534E-1,-5.5867326E-2,1.0922367E-2,1.4845759E-1],"split_indices":[2,5,0,0,0],"split_type":[0,0,0,0,0],"sum_hessian":[3.3972862E1,9.632626E0,2.4340237E1,1.2236778E0,8.408948E0],"tree_param":{"num_deleted":"0","num_feature":"148","num_nodes":"5","size_leaf_vector":"1"}},{"base_weights":[-4.2068837E-3,-5.5130202E-2,1.0563613E0,-3.4923777E-2,1.2865835E-1],"categories":[],"categories_nodes":[],"categories_segments":[],"categories_sizes":[],"default_left":[0,0,0,0,0],"id":24,"left_children":[1,-1,3,-1,-1],"loss_changes":[2.056517E1,0E0,4.3528414E0,0E0,0E0],"parents":[2147483647,0,0,2,2],"right_children":[2,-1,4,-1,-1],"split_conditions":[5.3488165E-1,-5.5130202E-2,1.11784575E-5,-3.4923777E-2,1.2865835E-1],"split_indices":[72,0,6,0,0],"split_type":[0,0,0,0,0],"sum_hessian":[3.3439335E1,2.2376553E1,1.1062783E1,1.4841976E0,9.578586E0],"tree_param":{"num_deleted":"0","num_feature":"148","num_nodes":"5","size_leaf_vector":"1"}},{"base_weights":[8.1063695E-3,6.9672513E-1,-5.4845583E-2,1.2934445E0,-4.8008047E-2,4.4470366E-2,1.3697648E-1],"categories":[],"categories_nodes":[],"categories_segments":[],"categories_sizes":[],"default_left":[0,0,0,0,0,0,0],"id":25,"left_children":[1,3,-1,5,-1,-1,-1],"loss_changes":[1.3488406E1,1.1663803E1,0E0,8.430481E-2,0E0,0E0,0E0],"parents":[2147483647,0,0,1,1,3,3],"right_children":[2,4,-1,6,-1,-1,-1],"split_conditions":[5.565771E-1,7.8789264E-1,-5.4845583E-2,4.9677584E-1,-4.8008047E-2,4.4470366E-2,1.3697648E-1],"split_indices":[4,105,0,9,0,0,0],"split_type":[0,0,0,0,0,0,0],"sum_hessian":[3.3196922E1,1.4725561E1,1.8471361E1,9.705239E0,5.020322E0,1.3639426E0,8.341296E0],"tree_param":{"num_deleted":"0","num_feature":"148","num_nodes":"7","size_leaf_vector":"1"}},{"base_weights":[-1.2445777E-2,8.189661E-1,-2.7212286E-1,-3.6981907E-2,1.1831623E-1,2.8680262E-1,-4.966743E-1,-3.9905876E-2,5.9621537E-1,1.8943338E-2,-5.4503378E-2,-3.652231E-2,1.0453137E-1],"categories":[],"categories_nodes":[],"categories_segments":[],"categories_sizes":[],"default_left":[0,0,0,0,0,0,0,0,0,0,0,0,0],"id":26,"left_children":[1,3,5,-1,-1,7,9,-1,11,-1,-1,-1,-1],"loss_changes":[7.581036E0,4.0573597E0,3.4961166E0,0E0,0E0,1.9976847E0,7.4788094E-1,0E0,3.0222723E0,0E0,0E0,0E0,0E0],"parents":[2147483647,0,0,1,1,2,2,5,5,6,6,8,8],"right_children":[2,4,6,-1,-1,8,10,-1,12,-1,-1,-1,-1],"split_conditions":[3.7084086E-5,2.7172196E-1,4.5054945E-1,-3.6981907E-2,1.1831623E-1,5.8756196E-1,4.045905E-2,-3.9905876E-2,2.4249202E-1,1.8943338E-2,-5.4503378E-2,-3.652231E-2,1.0453137E-1],"split_indices":[42,2,105,0,0,45,9,0,5,0,0,0,0],"split_type":[0,0,0,0,0,0,0,0,0,0,0,0,0],"sum_hessian":[3.308163E1,7.360768E0,2.5720863E1,1.7225845E0,5.6381836E0,7.292373E0,1.842849E1,2.1769955E0,5.1153774E0,1.0213085E0,1.740718E1,1.6881393E0,3.4272382E0],"tree_param":{"num_deleted":"0","num_feature":"148","num_nodes":"13","size_leaf_vector":"1"}},{"base_weights":[4.4458346E-3,3.9850554E-1,-5.3735625E-2,-4.7869753E-2,6.9170916E-1,1.2085732E-1,1.3608709E-1,-2.230268E-1,9.553725E-2,6.061997E-2,-4.8147436E-2],"categories":[],"categories_nodes":[],"categories_segments":[],"categories_sizes":[],"default_left":[0,0,0,0,0,0,0,0,0,0,0],"id":27,"left_children":[1,3,-1,-1,5,-1,7,9,-1,-1,-1],"loss_changes":[7.5744042E0,5.61201E0,0E0,0E0,4.3723207E0,0E0,2.7846088E0,1.7679272E0,0E0,0E0,0E0],"parents":[2147483647,0,0,1,1,4,4,6,6,7,7],"right_children":[2,4,-1,-1,6,-1,8,10,-1,-1,-1],"split_conditions":[1.5345371E-1,1.2006319E-1,-5.3735625E-2,-4.7869753E-2,8.0741507E-1,1.2085732E-1,3.15E-1,3.5535932E-1,9.553725E-2,6.061997E-2,-4.8147436E-2],"split_indices":[76,2,0,0,22,0,68,10,0,0,0],"split_type":[0,0,0,0,0,0,0,0,0,0,0],"sum_hessian":[3.3473923E1,1.9532305E1,1.3941618E1,4.734635E0,1.479767E1,7.057398E0,7.740273E0,5.887437E0,1.8528361E0,1.079222E0,4.8082147E0],"tree_param":{"num_deleted":"0","num_feature":"148","num_nodes":"11","size_leaf_vector":"1"}},{"base_weights":[3.2083506E-3,-4.3714252E-1,1.0252612E0,-5.5054825E-2,5.4607475E-1,-3.2066517E-2,1.233282E-1,1.6337533E-2,6.610085E-2],"categories":[],"categories_nodes":[],"categories_segments":[],"categories_sizes":[],"default_left":[0,0,0,0,0,0,0,0,0],"id":28,"left_children":[1,3,5,-1,7,-1,-1,-1,-1],"loss_changes":[1.5946463E1,3.0623136E0,3.3823242E0,0E0,2.6750088E-2,0E0,0E0,0E0,0E0],"parents":[2147483647,0,0,1,1,2,2,4,4],"right_children":[2,4,6,-1,8,-1,-1,-1,-1],"split_conditions":[1E0,5.6557375E-1,5.01315E-1,-5.5054825E-2,7.034916E-1,-3.2066517E-2,1.233282E-1,1.6337533E-2,6.610085E-2],"split_indices":[125,1,32,0,24,0,0,0,0],"split_type":[0,0,0,0,0,0,0,0,0],"sum_hessian":[3.3435886E1,2.3767822E1,9.668063E0,2.1704454E1,2.0633693E0,1.2217369E0,8.446326E0,1.0358226E0,1.0275466E0],"tree_param":{"num_deleted":"0","num_feature":"148","num_nodes":"9","size_leaf_vector":"1"}},{"base_weights":[8.1789197E-4,1.1851983E0,-5.521467E-2,9.586436E-3,1.312177E-1],"categories":[],"categories_nodes":[],"categories_segments":[],"categories_sizes":[],"default_left":[0,0,0,0,0],"id":29,"left_children":[1,3,-1,-1,-1],"loss_changes":[2.314969E1,1.4303579E0,0E0,0E0,0E0],"parents":[2147483647,0,0,1,1],"right_children":[2,4,-1,-1,-1],"split_conditions":[8.4068656E-2,3.890311E-1,-5.521467E-2,9.586436E-3,1.312177E-1],"split_indices":[2,0,0,0,0],"split_type":[0,0,0,0,0],"sum_hessian":[3.3348125E1,1.0250179E1,2.3097946E1,1.2532942E0,8.996885E0],"tree_param":{"num_deleted":"0","num_feature":"148","num_nodes":"5","size_leaf_vector":"1"}},{"base_weights":[-5.9745032E-3,-5.449751E-2,9.5466536E-1,-3.4067106E-2,1.1527993E-1],"categories":[],"categories_nodes":[],"categories_segments":[],"categories_sizes":[],"default_left":[0,0,0,0,0],"id":30,"left_children":[1,-1,3,-1,-1],"loss_changes":[1.7941097E1,0E0,3.5895672E0,0E0,0E0],"parents":[2147483647,0,0,2,2],"right_children":[2,-1,4,-1,-1],"split_conditions":[5.3488165E-1,-5.449751E-2,1.11784575E-5,-3.4067106E-2,1.1527993E-1],"split_indices":[72,0,6,0,0],"split_type":[0,0,0,0,0],"sum_hessian":[3.2644875E1,2.1188835E1,1.1456041E1,1.4243953E0,1.0031646E1],"tree_param":{"num_deleted":"0","num_feature":"148","num_nodes":"5","size_leaf_vector":"1"}},{"base_weights":[7.3984396E-3,6.431462E-1,-5.4192066E-2,1.1578774E0,-4.7145113E-2,4.1643232E-2,1.2212632E-1],"categories":[],"categories_nodes":[],"categories_segments":[],"categories_sizes":[],"default_left":[0,0,0,0,0,0,0],"id":31,"left_children":[1,3,-1,5,-1,-1,-1],"loss_changes":[1.2046256E1,9.716072E0,0E0,1.8902779E-2,0E0,0E0,0E0],"parents":[2147483647,0,0,1,1,3,3],"right_children":[2,4,-1,6,-1,-1,-1],"split_conditions":[5.565771E-1,7.8789264E-1,-5.4192066E-2,4.9677584E-1,-4.7145113E-2,4.1643232E-2,1.2212632E-1],"split_indices":[4,105,0,9,0,0,0],"split_type":[0,0,0,0,0,0,0],"sum_hessian":[3.2495903E1,1.498379E1,1.7512114E1,1.0223606E1,4.7601843E0,1.4013492E0,8.822257E0],"tree_param":{"num_deleted":"0","num_feature":"148","num_nodes":"7","size_leaf_vector":"1"}},{"base_weights":[-1.1082967E-2,7.49215E-1,-2.6330873E-1,-3.6257472E-2,1.0683852E-1,2.6315692E-1,-4.8785594E-1,5.5063707E-1,-3.9483454E-2,1.9024914E-2,-5.381338E-2,-3.578817E-2,9.483428E-1,1.6059732E-2,1.12257734E-1],"categories":[],"categories_nodes":[],"categories_segments":[],"categories_sizes":[],"default_left":[0,0,0,0,0,0,0,0,0,0,0,0,0,0,0],"id":32,"left_children":[1,3,5,-1,-1,7,9,11,-1,-1,-1,-1,13,-1,-1],"loss_changes":[6.609866E0,3.4355483E0,3.1842165E0,0E0,0E0,1.8022645E0,7.3212767E-1,2.5971122E0,0E0,0E0,0E0,0E0,4.5382118E-1,0E0,0E0],"parents":[2147483647,0,0,1,1,2,2,5,5,6,6,7,7,12,12],"right_children":[2,4,6,-1,-1,8,10,12,-1,-1,-1,-1,14,-1,-1],"split_conditions":[3.7084086E-5,2.7172196E-1,4.5054945E-1,-3.6257472E-2,1.0683852E-1,2.8336352E-1,5E-3,2.4249202E-1,-3.9483454E-2,1.9024914E-2,-5.381338E-2,-3.578817E-2,1.8799368E-1,1.6059732E-2,1.12257734E-1],"split_indices":[42,2,105,0,0,3,63,5,0,0,0,0,2,0,0],"split_type":[0,0,0,0,0,0,0,0,0,0,0,0,0,0,0],"sum_hessian":[3.243954E1,7.5900435E0,2.4849497E1,1.6625981E0,5.9274454E0,7.3784027E0,1.7471096E1,5.2484713E0,2.1299314E0,1.0138053E0,1.645729E1,1.6284882E0,3.619983E0,1.0037191E0,2.6162639E0],"tree_param":{"num_deleted":"0","num_feature":"148","num_nodes":"15","size_leaf_vector":"1"}},{"base_weights":[5.378255E-3,3.7422895E-1,-5.303215E-2,-4.6976786E-2,6.388052E-1,1.0842358E-1,1.3303798E-1,-2.1422625E-1,8.7560885E-2,5.753675E-2,-4.740235E-2],"categories":[],"categories_nodes":[],"categories_segments":[],"categories_sizes":[],"default_left":[0,0,0,0,0,0,0,0,0,0,0],"id":33,"left_children":[1,3,-1,-1,5,-1,7,9,-1,-1,-1],"loss_changes":[6.874067E0,4.8988605E0,0E0,0E0,3.483519E0,0E0,2.4260466E0,1.6508496E0,0E0,0E0,0E0],"parents":[2147483647,0,0,1,1,4,4,6,6,7,7],"right_children":[2,4,-1,-1,6,-1,8,10,-1,-1,-1],"split_conditions":[1.5345371E-1,1.2006319E-1,-5.303215E-2,-4.6976786E-2,8.0741507E-1,1.0842358E-1,3.15E-1,2.0740318E-1,8.7560885E-2,5.753675E-2,-4.740235E-2],"split_indices":[76,2,0,0,22,0,68,17,0,0,0],"split_type":[0,0,0,0,0,0,0,0,0,0,0],"sum_hessian":[3.2784584E1,1.9594446E1,1.319014E1,4.4913893E0,1.5103056E1,7.422391E0,7.6806655E0,5.7180967E0,1.9625685E0,1.1149089E0,4.603188E0],"tree_param":{"num_deleted":"0","num_feature":"148","num_nodes":"11","size_leaf_vector":"1"}},{"base_weights":[3.726254E-3,-4.2698178E-1,9.246109E-1,-5.439825E-2,5.132676E-1,-3.1428047E-2,1.1050243E0,1.5097611E-2,6.253921E-2,1.17662586E-1,3.849679E-2],"categories":[],"categories_nodes":[],"categories_segments":[],"categories_sizes":[],"default_left":[0,0,0,0,0,0,0,0,0,0,0],"id":34,"left_children":[1,3,5,-1,7,-1,9,-1,-1,-1,-1],"loss_changes":[1.376577E1,2.8812375E0,2.8190174E0,0E0,3.281027E-2,0E0,5.6128502E-2,0E0,0E0,0E0,0E0],"parents":[2147483647,0,0,1,1,2,2,4,4,6,6],"right_children":[2,4,6,-1,8,-1,10,-1,-1,-1,-1],"split_conditions":[1E0,5.6557375E-1,5.01315E-1,-5.439825E-2,7.034916E-1,-3.1428047E-2,2.8003377E-1,1.5097611E-2,6.253921E-2,1.17662586E-1,3.849679E-2],"split_indices":[125,1,32,0,24,0,62,0,0,0,0],"split_type":[0,0,0,0,0,0,0,0,0,0,0],"sum_hessian":[3.2711258E1,2.2652681E1,1.0058577E1,2.0520628E1,2.1320534E0,1.1842662E0,8.8743105E0,1.0584719E0,1.0735813E0,7.4949474E0,1.3793627E0],"tree_param":{"num_deleted":"0","num_feature":"148","num_nodes":"11","size_leaf_vector":"1"}},{"base_weights":[4.911422E-4,1.068358E0,-5.4578464E-2,8.902786E-3,1.1789552E-1],"categories":[],"categories_nodes":[],"categories_segments":[],"categories_sizes":[],"default_left":[0,0,0,0,0],"id":35,"left_children":[1,3,-1,-1,-1],"loss_changes":[2.0162657E1,1.1619806E0,0E0,0E0,0E0],"parents":[2147483647,0,0,1,1],"right_children":[2,4,-1,-1,-1],"split_conditions":[8.4068656E-2,3.890311E-1,-5.4578464E-2,8.902786E-3,1.1789552E-1],"split_indices":[2,0,0,0,0],"split_type":[0,0,0,0,0],"sum_hessian":[3.2564022E1,1.0697229E1,2.1866793E1,1.2686242E0,9.428605E0],"tree_param":{"num_deleted":"0","num_feature":"148","num_nodes":"5","size_leaf_vector":"1"}},{"base_weights":[-7.910555E-3,-5.3890746E-2,8.730431E-1,-3.3202987E-2,1.047614E-1],"categories":[],"categories_nodes":[],"categories_segments":[],"categories_sizes":[],"default_left":[0,0,0,0,0],"id":36,"left_children":[1,-1,3,-1,-1],"loss_changes":[1.577774E1,0E0,3.0169992E0,0E0,0E0],"parents":[2147483647,0,0,2,2],"right_children":[2,-1,4,-1,-1],"split_conditions":[5.3488165E-1,-5.3890746E-2,1.11784575E-5,-3.3202987E-2,1.047614E-1],"split_indices":[72,0,6,0,0],"split_type":[0,0,0,0,0],"sum_hessian":[3.1722923E1,2.003503E1,1.1687895E1,1.3647772E0,1.0323117E1],"tree_param":{"num_deleted":"0","num_feature":"148","num_nodes":"5","size_leaf_vector":"1"}},{"base_weights":[6.593852E-3,5.985605E-1,-5.355954E-2,1.0511076E-1,-4.6281334E-2],"categories":[],"categories_nodes":[],"categories_segments":[],"categories_sizes":[],"default_left":[0,0,0,0,0],"id":37,"left_children":[1,3,-1,-1,-1],"loss_changes":[1.0807219E1,8.215658E0,0E0,0E0,0E0],"parents":[2147483647,0,0,1,1],"right_children":[2,4,-1,-1,-1],"split_conditions":[5.565771E-1,7.8789264E-1,-5.355954E-2,1.0511076E-1,-4.6281334E-2],"split_indices":[4,105,0,0,0],"split_type":[0,0,0,0,0],"sum_hessian":[3.1672916E1,1.5091702E1,1.6581213E1,1.0587214E1,4.5044885E0],"tree_param":{"num_deleted":"0","num_feature":"148","num_nodes":"5","size_leaf_vector":"1"}},{"base_weights":[-9.402202E-3,6.901627E-1,-2.543996E-1,-3.5511997E-2,9.741496E-2,2.4529453E-1,-4.7916725E-1,5.1197857E-1,-3.8803916E-2,1.9285372E-2,-5.3150594E-2,-3.5046674E-2,8.689284E-1,1.0307576E-1,1.4163128E-2],"categories":[],"categories_nodes":[],"categories_segments":[],"categories_sizes":[],"default_left":[0,0,0,0,0,0,0,0,0,0,0,0,0,0,0],"id":38,"left_children":[1,3,5,-1,-1,7,9,11,-1,-1,-1,-1,13,-1,-1],"loss_changes":[5.7772484E0,2.942356E0,2.9183164E0,0E0,0E0,1.617119E0,7.193847E-1,2.2565613E0,0E0,0E0,0E0,0E0,4.1568208E-1,0E0,0E0],"parents":[2147483647,0,0,1,1,2,2,5,5,6,6,7,7,12,12],"right_children":[2,4,6,-1,-1,8,10,12,-1,-1,-1,-1,14,-1,-1],"split_conditions":[3.7084086E-5,2.7172196E-1,4.5054945E-1,-3.5511997E-2,9.741496E-2,2.8336352E-1,4.045905E-2,2.4249202E-1,-3.8803916E-2,1.9285372E-2,-5.3150594E-2,-3.5046674E-2,7.463844E-1,1.0307576E-1,1.4163128E-2],"split_indices":[42,2,105,0,0,3,9,5,0,0,0,0,4,0,0],"split_type":[0,0,0,0,0,0,0,0,0,0,0,0,0,0,0],"sum_hessian":[3.1683468E1,7.746659E0,2.3936808E1,1.6014938E0,6.145165E0,7.398173E0,1.6538635E1,5.3408585E0,2.0573146E0,1.0010161E0,1.553762E1,1.5687298E0,3.7721286E0,2.7442644E0,1.0278642E0],"tree_param":{"num_deleted":"0","num_feature":"148","num_nodes":"15","size_leaf_vector":"1"}},{"base_weights":[5.9278808E-3,3.5226196E-1,-5.2346624E-2,-4.610323E-2,5.9310246E-1,9.842603E-1,1.294152E-1,1.05900526E-1,3.501534E-2,-2.0624758E-1,8.068899E-2,5.5230316E-2,-4.6721954E-2],"categories":[],"categories_nodes":[],"categories_segments":[],"categories_sizes":[],"default_left":[0,0,0,0,0,0,0,0,0,0,0,0,0],"id":39,"left_children":[1,3,-1,-1,5,7,9,-1,-1,11,-1,-1,-1],"loss_changes":[6.2354736E0,4.298439E0,0E0,0E0,2.8274755E0,4.084301E-2,2.1234434E0,0E0,0E0,1.5549159E0,0E0,0E0,0E0],"parents":[2147483647,0,0,1,1,4,4,5,5,6,6,9,9],"right_children":[2,4,-1,-1,6,8,10,-1,-1,12,-1,-1,-1],"split_conditions":[1.5345371E-1,1.2006319E-1,-5.2346624E-2,-4.610323E-2,8.0741507E-1,8.58002E-1,3.15E-1,1.05900526E-1,3.501534E-2,3.5535932E-1,8.068899E-2,5.5230316E-2,-4.6721954E-2],"split_indices":[76,2,0,0,22,86,68,0,0,10,0,0,0],"split_type":[0,0,0,0,0,0,0,0,0,0,0,0,0],"sum_hessian":[3.2003372E1,1.9548906E1,1.2454465E1,4.2574973E0,1.5291409E1,7.6854367E0,7.605972E0,6.2756276E0,1.4098091E0,5.551152E0,2.0548196E0,1.1352017E0,4.415951E0],"tree_param":{"num_deleted":"0","num_feature":"148","num_nodes":"13","size_leaf_vector":"1"}},{"base_weights":[4.9434644E-3,-4.168727E-1,8.4619224E-1,-5.3766187E-2,4.8406154E-1,-3.0748645E-2,1.006411E0,1.0047068E-1,-3.2091152E-2,1.0745783E-1,3.4289643E-2],"categories":[],"categories_nodes":[],"categories_segments":[],"categories_sizes":[],"default_left":[0,0,0,0,0,0,0,0,0,0,0],"id":40,"left_children":[1,3,5,-1,7,-1,9,-1,-1,-1,-1],"loss_changes":[1.2015505E1,2.7153387E0,2.39931E0,0E0,1.6607624E0,0E0,9.113693E-2,0E0,0E0,0E0,0E0],"parents":[2147483647,0,0,1,1,2,2,4,4,6,6],"right_children":[2,4,6,-1,8,-1,10,-1,-1,-1,-1],"split_conditions":[1E0,5.6557375E-1,5.01315E-1,-5.3766187E-2,1.851369E-1,-3.0748645E-2,1.599974E-1,1.0047068E-1,-3.2091152E-2,1.0745783E-1,3.4289643E-2],"split_indices":[125,1,32,0,9,0,64,0,0,0,0],"split_type":[0,0,0,0,0,0,0,0,0,0,0],"sum_hessian":[3.186649E1,2.156027E1,1.0306219E1,1.9366943E1,2.1933272E0,1.1446724E0,9.161547E0,1.1812115E0,1.0121157E0,7.7462034E0,1.4153434E0],"tree_param":{"num_deleted":"0","num_feature":"148","num_nodes":"11","size_leaf_vector":"1"}},{"base_weights":[-2.2661121E-4,9.7352827E-1,-5.3965796E-2,8.068319E-3,1.07314706E-1],"categories":[],"categories_nodes":[],"categories_segments":[],"categories_sizes":[],"default_left":[0,0,0,0,0],"id":41,"left_children":[1,3,-1,-1,-1],"loss_changes":[1.7683119E1,9.808407E-1,0E0,0E0,0E0],"parents":[2147483647,0,0,1,1],"right_children":[2,4,-1,-1,-1],"split_conditions":[8.4068656E-2,9.2032534E-1,-5.3965796E-2,8.068319E-3,1.07314706E-1],"split_indices":[2,5,0,0,0],"split_type":[0,0,0,0,0],"sum_hessian":[3.166438E1,1.1001066E1,2.0663313E1,1.2859058E0,9.71516E0],"tree_param":{"num_deleted":"0","num_feature":"148","num_nodes":"5","size_leaf_vector":"1"}},{"base_weights":[-9.714353E-3,-5.3297438E-2,8.0625814E-1,-3.2335605E-2,9.6302845E-2],"categories":[],"categories_nodes":[],"categories_segments":[],"categories_sizes":[],"default_left":[0,0,0,0,0],"id":42,"left_children":[1,-1,3,-1,-1],"loss_changes":[1.3957334E1,0E0,2.5740957E0,0E0,0E0],"parents":[2147483647,0,0,2,2],"right_children":[2,-1,4,-1,-1],"split_conditions":[5.3488165E-1,-5.3297438E-2,1.11784575E-5,-3.2335605E-2,9.6302845E-2],"split_indices":[72,0,6,0,0],"split_type":[0,0,0,0,0],"sum_hessian":[3.0683146E1,1.8906054E1,1.1777092E1,1.305762E0,1.047133E1],"tree_param":{"num_deleted":"0","num_feature":"148","num_nodes":"5","size_leaf_vector":"1"}},{"base_weights":[5.0894255E-3,5.5847824E-1,-5.2944865E-2,9.6065116E-1,-4.5416556E-2,3.4336563E-2,1.0164292E-1],"categories":[],"categories_nodes":[],"categories_segments":[],"categories_sizes":[],"default_left":[0,0,0,0,0,0,0],"id":43,"left_children":[1,3,-1,5,-1,-1,-1],"loss_changes":[9.693793E0,6.991896E0,0E0,5.8732986E-2,0E0,0E0,0E0],"parents":[2147483647,0,0,1,1,3,3],"right_children":[2,4,-1,6,-1,-1,-1],"split_conditions":[5.565771E-1,7.8789264E-1,-5.2944865E-2,4.9677584E-1,-4.5416556E-2,3.4336563E-2,1.0164292E-1],"split_indices":[4,105,0,9,0,0,0],"split_type":[0,0,0,0,0,0,0],"sum_hessian":[3.077104E1,1.5096926E1,1.5674113E1,1.0842253E1,4.254673E0,1.4915419E0,9.350711E0],"tree_param":{"num_deleted":"0","num_feature":"148","num_nodes":"7","size_leaf_vector":"1"}},{"base_weights":[-7.7317767E-3,6.3998353E-1,-2.4581106E-1,-3.473734E-2,8.957774E-1,2.3081973E-1,-4.7064942E-1,9.828519E-2,3.180379E-2,-3.8080655E-2,4.8023626E-1,1.8980265E-2,-5.2505143E-2,-3.4471568E-2,8.093913E-1,9.482945E-2,1.4188036E-2],"categories":[],"categories_nodes":[],"categories_segments":[],"categories_sizes":[],"default_left":[0,0,0,0,0,0,0,0,0,0,0,0,0,0,0,0,0],"id":44,"left_children":[1,3,5,-1,7,9,11,-1,-1,-1,13,-1,-1,-1,15,-1,-1],"loss_changes":[5.0680823E0,2.5429602E0,2.6815019E0,0E0,5.4543972E-2,1.4591486E0,6.9760966E-1,0E0,0E0,0E0,2.0127983E0,0E0,0E0,0E0,3.1632495E-1,0E0,0E0],"parents":[2147483647,0,0,1,1,2,2,4,4,5,5,6,6,10,10,14,14],"right_children":[2,4,6,-1,8,10,12,-1,-1,-1,14,-1,-1,-1,16,-1,-1],"split_conditions":[3.7084086E-5,2.7172196E-1,4.5054945E-1,-3.473734E-2,7.1009773E-1,5.8756196E-1,1.0913082E-4,9.828519E-2,3.180379E-2,-3.8080655E-2,1.7867957E-1,1.8980265E-2,-5.2505143E-2,-3.4471568E-2,6.544113E-2,9.482945E-2,1.4188036E-2],"split_indices":[42,2,105,0,45,45,41,0,0,0,20,0,0,0,6,0,0],"split_type":[0,0,0,0,0,0,0,0,0,0,0,0,0,0,0,0,0],"sum_hessian":[3.084517E1,7.836683E0,2.3008486E1,1.5388284E0,6.2978544E0,7.366267E0,1.564222E1,4.8636265E0,1.434228E0,1.9811777E0,5.3850894E0,1.000998E0,1.4641221E1,1.5223621E0,3.8627274E0,2.8491929E0,1.0135345E0],"tree_param":{"num_deleted":"0","num_feature":"148","num_nodes":"17","size_leaf_vector":"1"}},{"base_weights":[7.1104304E-3,3.3348396E-1,-5.1656332E-2,-4.5215648E-2,5.543894E-1,1.7918001E-1,9.677823E-2,5.514713E-1,-4.5199387E-2,-2.9673502E-2,7.706425E-1,1.2666929E-2,9.049354E-2],"categories":[],"categories_nodes":[],"categories_segments":[],"categories_sizes":[],"default_left":[0,0,0,0,0,0,0,0,0,0,0,0,0],"id":45,"left_children":[1,3,-1,-1,5,7,-1,9,-1,-1,11,-1,-1],"loss_changes":[5.660835E0,3.7895918E0,0E0,0E0,2.3649654E0,2.55347E0,0E0,1.4590387E0,0E0,0E0,3.6424804E-1,0E0,0E0],"parents":[2147483647,0,0,1,1,4,4,5,5,7,7,10,10],"right_children":[2,4,-1,-1,6,8,-1,10,-1,-1,12,-1,-1],"split_conditions":[1.5345371E-1,1.2006319E-1,-5.1656332E-2,-4.5215648E-2,2E-2,3.6377795E-2,9.677823E-2,8.433037E-1,-4.5199387E-2,-2.9673502E-2,7.3848337E-1,1.2666929E-2,9.049354E-2],"split_indices":[76,2,0,0,66,41,0,21,0,0,5,0,0],"split_type":[0,0,0,0,0,0,0,0,0,0,0,0,0],"sum_hessian":[3.1113186E1,1.9391096E1,1.172209E1,4.0259943E0,1.5365102E1,8.805954E0,6.559147E0,5.6183224E0,3.1876318E0,1.0809773E0,4.5373454E0,1.118249E0,3.4190962E0],"tree_param":{"num_deleted":"0","num_feature":"148","num_nodes":"13","size_leaf_vector":"1"}},{"base_weights":[5.89028E-3,-4.0693447E-1,7.797936E-1,-5.3153556E-2,4.5972398E-1,-3.0049557E-2,9.2414314E-1,5.6862023E-2,1.2869477E-2,3.0555999E-2,9.8983146E-2],"categories":[],"categories_nodes":[],"categories_segments":[],"categories_sizes":[],"default_left":[0,0,0,0,0,0,0,0,0,0,0],"id":46,"left_children":[1,3,5,-1,7,-1,9,-1,-1,-1,-1],"loss_changes":[1.0518492E1,2.5638683E0,2.063251E0,0E0,4.347968E-2,0E0,1.1794281E-1,0E0,0E0,0E0,0E0],"parents":[2147483647,0,0,1,1,2,2,4,4,6,6],"right_children":[2,4,6,-1,8,-1,10,-1,-1,-1,-1],"split_conditions":[1E0,5.6557375E-1,5.01315E-1,-5.3153556E-2,3.049221E-1,-3.0049557E-2,7.320399E-4,5.6862023E-2,1.2869477E-2,3.0555999E-2,9.8983146E-2],"split_indices":[125,1,32,0,0,0,57,0,0,0,0],"split_type":[0,0,0,0,0,0,0,0,0,0,0],"sum_hessian":[3.092989E1,2.0479597E1,1.0450292E1,1.8243395E1,2.2362032E0,1.1042833E0,9.346008E0,1.1425971E0,1.0936061E0,1.439739E0,7.9062696E0],"tree_param":{"num_deleted":"0","num_feature":"148","num_nodes":"11","size_leaf_vector":"1"}},{"base_weights":[-7.6165237E-4,8.969849E-1,-5.337103E-2,7.0814914E-3,9.895971E-2],"categories":[],"categories_nodes":[],"categories_segments":[],"categories_sizes":[],"default_left":[0,0,0,0,0],"id":47,"left_children":[1,3,-1,-1,-1],"loss_changes":[1.56242895E1,8.607063E-1,0E0,0E0,0E0],"parents":[2147483647,0,0,1,1],"right_children":[2,4,-1,-1,-1],"split_conditions":[8.4068656E-2,3.890311E-1,-5.337103E-2,7.0814914E-3,9.895971E-2],"split_indices":[2,0,0,0,0],"split_type":[0,0,0,0,0],"sum_hessian":[3.0655289E1,1.1164963E1,1.9490326E1,1.3032899E0,9.861673E0],"tree_param":{"num_deleted":"0","num_feature":"148","num_nodes":"5","size_leaf_vector":"1"}},{"base_weights":[-1.1471187E-2,-5.2722376E-2,7.5088507E-1,-3.1445112E-2,8.937414E-2],"categories":[],"categories_nodes":[],"categories_segments":[],"categories_sizes":[],"default_left":[0,0,0,0,0],"id":48,"left_children":[1,-1,3,-1,-1],"loss_changes":[1.2408661E1,0E0,2.2201223E0,0E0,0E0],"parents":[2147483647,0,0,2,2],"right_children":[2,-1,4,-1,-1],"split_conditions":[5.3488165E-1,-5.2722376E-2,1.11784575E-5,-3.1445112E-2,8.937414E-2],"split_indices":[72,0,6,0,0],"split_type":[0,0,0,0,0],"sum_hessian":[2.9552309E1,1.7811096E1,1.1741212E1,1.2462511E0,1.0494961E1],"tree_param":{"num_deleted":"0","num_feature":"148","num_nodes":"5","size_leaf_vector":"1"}},{"base_weights":[4.3914746E-3,5.2615863E-1,-5.234189E-2,8.896084E-1,-4.454784E-2,3.2390144E-2,9.40223E-2],"categories":[],"categories_nodes":[],"categories_segments":[],"categories_sizes":[],"default_left":[0,0,0,0,0,0,0],"id":49,"left_children":[1,3,-1,5,-1,-1,-1],"loss_changes":[8.7428875E0,6.032649E0,0E0,3.7607193E-2,0E0,0E0,0E0],"parents":[2147483647,0,0,1,1,3,3],"right_children":[2,4,-1,6,-1,-1,-1],"split_conditions":[5.565771E-1,7.8789264E-1,-5.234189E-2,4.9677584E-1,-4.454784E-2,3.2390144E-2,9.40223E-2],"split_indices":[4,105,0,9,0,0,0],"split_type":[0,0,0,0,0,0,0],"sum_hessian":[2.9746794E1,1.4960608E1,1.4786185E1,1.0949333E1,4.0112753E0,1.5068629E0,9.44247E0],"tree_param":{"num_deleted":"0","num_feature":"148","num_nodes":"7","size_leaf_vector":"1"}},{"base_weights":[-5.4735187E-3,5.9819824E-1,-2.3733984E-1,-3.400628E-2,8.3239305E-1,2.136907E-1,-4.6307874E-1,9.1688395E-2,2.8683318E-2,-4.2720027E-2,6.964813E-1,1.8808916E-2,-5.2024763E-2,5.1639895E-3,8.884296E-2],"categories":[],"categories_nodes":[],"categories_segments":[],"categories_sizes":[],"default_left":[0,0,0,0,0,0,0,0,0,0,0,0,0,0,0],"id":50,"left_children":[1,3,5,-1,7,9,11,-1,-1,-1,13,-1,-1,-1,-1],"loss_changes":[4.471116E0,2.2314556E0,2.4469995E0,0E0,7.745743E-2,2.8893945E0,6.817603E-1,0E0,0E0,0E0,5.925305E-1,0E0,0E0,0E0,0E0],"parents":[2147483647,0,0,1,1,2,2,4,4,5,5,6,6,10,10],"right_children":[2,4,6,-1,8,10,12,-1,-1,-1,14,-1,-1,-1,-1],"split_conditions":[3.7084086E-5,2.7172196E-1,2.8336352E-1,-3.400628E-2,8.0356693E-1,2.4249202E-1,1.2800416E-1,9.1688395E-2,2.8683318E-2,-4.2720027E-2,1.8799368E-1,1.8808916E-2,-5.2024763E-2,5.1639895E-3,8.884296E-2],"split_indices":[42,2,3,0,5,5,53,0,0,0,2,0,0,0,0],"split_type":[0,0,0,0,0,0,0,0,0,0,0,0,0,0,0],"sum_hessian":[2.9928799E1,7.866965E0,2.2061834E1,1.4811085E0,6.385856E0,7.3766074E0,1.4685226E1,4.9401464E0,1.44571E0,3.2188363E0,4.157771E0,1.000397E0,1.368483E1,1.2448351E0,2.9129362E0],"tree_param":{"num_deleted":"0","num_feature":"148","num_nodes":"15","size_leaf_vector":"1"}},{"base_weights":[6.498651E-3,3.1484058E-1,-5.1010627E-2,-4.4350963E-2,5.184995E-1,8.389411E-1,1.18088186E-1,2.9611528E-2,9.0292685E-2,5.632144E-1,-2.9098085E-1,-4.7698338E-4,8.632646E-2,-4.244783E-2,1.1649882E-2],"categories":[],"categories_nodes":[],"categories_segments":[],"categories_sizes":[],"default_left":[0,0,0,0,0,0,0,0,0,0,0,0,0,0,0],"id":51,"left_children":[1,3,-1,-1,5,7,9,-1,-1,11,13,-1,-1,-1,-1],"loss_changes":[5.1292796E0,3.3423223E0,0E0,0E0,1.9983602E0,4.232073E-2,1.698966E0,0E0,0E0,7.502239E-1,3.2429558E-1,0E0,0E0,0E0,0E0],"parents":[2147483647,0,0,1,1,4,4,5,5,6,6,9,9,10,10],"right_children":[2,4,-1,-1,6,8,10,-1,-1,12,14,-1,-1,-1,-1],"split_conditions":[1.5345371E-1,1.2006319E-1,-5.1010627E-2,-4.4350963E-2,8.0741507E-1,1.0218978E-2,4.1882433E-2,2.9611528E-2,9.0292685E-2,1.807963E-2,7.9985857E-1,-4.7698338E-4,8.632646E-2,-4.244783E-2,1.1649882E-2],"split_indices":[76,2,0,0,22,131,73,0,0,75,4,0,0,0,0],"split_type":[0,0,0,0,0,0,0,0,0,0,0,0,0,0,0],"sum_hessian":[3.0192463E1,1.9151947E1,1.1040515E1,3.8051763E0,1.5346771E1,7.916305E0,7.4304667E0,1.4281731E0,6.488132E0,3.3779492E0,4.0525174E0,1.5078139E0,1.8701353E0,3.0210512E0,1.0314661E0],"tree_param":{"num_deleted":"0","num_feature":"148","num_nodes":"15","size_leaf_vector":"1"}},{"base_weights":[7.1734786E-3,-3.9692897E-1,7.25431E-1,-5.2555293E-2,4.3428162E-1,-2.9297624E-2,8.572085E-1,1.1716402E-2,5.4275967E-2,2.8385347E-2,9.179389E-2],"categories":[],"categories_nodes":[],"categories_segments":[],"categories_sizes":[],"default_left":[0,0,0,0,0,0,0,0,0,0,0],"id":52,"left_children":[1,3,5,-1,7,-1,9,-1,-1,-1,-1],"loss_changes":[9.264693E0,2.4134018E0,1.7930126E0,0E0,4.9462855E-2,0E0,1.02525234E-1,0E0,0E0,0E0,0E0],"parents":[2147483647,0,0,1,1,2,2,4,4,6,6],"right_children":[2,4,6,-1,8,-1,10,-1,-1,-1,-1],"split_conditions":[1E0,5.6557375E-1,5.01315E-1,-5.2555293E-2,7.034916E-1,-2.9297624E-2,8.748626E-3,1.1716402E-2,5.4275967E-2,2.8385347E-2,9.179389E-2],"split_indices":[125,1,32,0,24,0,129,0,0,0,0],"split_type":[0,0,0,0,0,0,0,0,0,0,0],"sum_hessian":[2.9927685E1,1.9438606E1,1.04890785E1,1.7152159E1,2.2864485E0,1.0615911E0,9.427487E0,1.1129612E0,1.1734874E0,1.4463651E0,7.981123E0],"tree_param":{"num_deleted":"0","num_feature":"148","num_nodes":"11","size_leaf_vector":"1"}},{"base_weights":[-1.3033736E-3,8.3285296E-1,-5.2789975E-2,6.6397376E-3,9.189488E-2],"categories":[],"categories_nodes":[],"categories_segments":[],"categories_sizes":[],"default_left":[0,0,0,0,0],"id":53,"left_children":[1,3,-1,-1,-1],"loss_changes":[1.3863642E1,7.449951E-1,0E0,0E0,0E0],"parents":[2147483647,0,0,1,1],"right_children":[2,4,-1,-1,-1],"split_conditions":[8.4068656E-2,3.890311E-1,-5.2789975E-2,6.6397376E-3,9.189488E-2],"split_indices":[2,0,0,0,0],"split_type":[0,0,0,0,0],"sum_hessian":[2.956018E1,1.1214402E1,1.834578E1,1.311365E0,9.903037E0],"tree_param":{"num_deleted":"0","num_feature":"148","num_nodes":"5","size_leaf_vector":"1"}},{"base_weights":[-1.3475115E-2,-5.217445E-2,7.042802E-1,-3.0562002E-2,8.362195E-2],"categories":[],"categories_nodes":[],"categories_segments":[],"categories_sizes":[],"default_left":[0,0,0,0,0],"id":54,"left_children":[1,-1,3,-1,-1],"loss_changes":[1.1081783E1,0E0,1.9346089E0,0E0,0E0],"parents":[2147483647,0,0,2,2],"right_children":[2,-1,4,-1,-1],"split_conditions":[5.3488165E-1,-5.217445E-2,1.11784575E-5,-3.0562002E-2,8.362195E-2],"split_indices":[72,0,6,0,0],"split_type":[0,0,0,0,0],"sum_hessian":[2.8369368E1,1.6768238E1,1.1601129E1,1.1884017E0,1.0412727E1],"tree_param":{"num_deleted":"0","num_feature":"148","num_nodes":"5","size_leaf_vector":"1"}},{"base_weights":[3.2896076E-3,4.9801102E-1,-5.1765837E-2,8.298671E-1,-4.3675162E-2,3.0562628E-2,8.768185E-2],"categories":[],"categories_nodes":[],"categories_segments":[],"categories_sizes":[],"default_left":[0,0,0,0,0,0,0],"id":55,"left_children":[1,3,-1,5,-1,-1,-1],"loss_changes":[7.903772E0,5.240863E0,0E0,2.617836E-2,0E0,0E0,0E0],"parents":[2147483647,0,0,1,1,3,3],"right_children":[2,4,-1,6,-1,-1,-1],"split_conditions":[5.565771E-1,7.8789264E-1,-5.1765837E-2,4.9677584E-1,-4.3675162E-2,3.0562628E-2,8.768185E-2],"split_indices":[4,105,0,9,0,0,0],"split_type":[0,0,0,0,0,0,0],"sum_hessian":[2.8667276E1,1.4726344E1,1.3940933E1,1.0950834E1,3.77551E0,1.5174134E0,9.43342E0],"tree_param":{"num_deleted":"0","num_feature":"148","num_nodes":"7","size_leaf_vector":"1"}},{"base_weights":[-3.3001455E-3,5.103683E-1,-2.5643137E-1,-4.117646E-2,8.8135E-2,2.7883124E-1,-5.2200265E-2,-4.1305315E-2,7.9669364E-2],"categories":[],"categories_nodes":[],"categories_segments":[],"categories_sizes":[],"default_left":[0,0,0,0,0,0,0,0,0],"id":56,"left_children":[1,3,5,-1,-1,7,-1,-1,-1],"loss_changes":[4.026828E0,3.8610346E0,3.0933762E0,0E0,0E0,3.0266237E0,0E0,0E0,0E0],"parents":[2147483647,0,0,1,1,2,2,5,5],"right_children":[2,4,6,-1,-1,8,-1,-1,-1],"split_conditions":[2.3179494E-2,2.7172196E-1,2.60385E-1,-4.117646E-2,8.8135E-2,2.4249202E-1,-5.2200265E-2,-4.1305315E-2,7.9669364E-2],"split_indices":[44,2,3,0,0,5,0,0,0],"split_type":[0,0,0,0,0,0,0,0,0],"sum_hessian":[2.8962992E1,9.225617E0,1.9737375E1,2.6151989E0,6.610419E0,6.52872E0,1.3208654E1,2.8814194E0,3.6473007E0],"tree_param":{"num_deleted":"0","num_feature":"148","num_nodes":"9","size_leaf_vector":"1"}},{"base_weights":[6.8871956E-3,2.99101E-1,-5.0366607E-2,-4.3487314E-2,4.88064E-1,1.5743089E-1,8.3288334E-2,4.9072117E-1,-4.3814138E-2,1.8429724E-2,7.984593E-2,-3.348727E-2,4.0642675E-2],"categories":[],"categories_nodes":[],"categories_segments":[],"categories_sizes":[],"default_left":[0,0,0,0,0,0,0,0,0,0,0,0,0],"id":57,"left_children":[1,3,-1,-1,5,7,-1,9,-1,11,-1,-1,-1],"loss_changes":[4.6586103E0,2.9645736E0,0E0,0E0,1.7218385E0,2.1067247E0,0E0,9.4196665E-1,0E0,6.323971E-1,0E0,0E0,0E0],"parents":[2147483647,0,0,1,1,4,4,5,5,7,7,9,9],"right_children":[2,4,-1,-1,6,8,-1,10,-1,12,-1,-1,-1],"split_conditions":[1.5345371E-1,1.2006319E-1,-5.0366607E-2,-4.3487314E-2,2E-2,3.6377795E-2,8.3288334E-2,8.0551624E-1,-4.3814138E-2,6.4526606E-1,7.984593E-2,-3.348727E-2,4.0642675E-2],"split_indices":[76,2,0,0,66,41,0,4,0,30,0,0,0],"split_type":[0,0,0,0,0,0,0,0,0,0,0,0,0],"sum_hessian":[2.9216114E1,1.8844612E1,1.0371502E1,3.5918205E0,1.5252792E1,8.530147E0,6.7226458E0,5.5822787E0,2.9478679E0,2.6204746E0,2.9618042E0,1.4432234E0,1.1772513E0],"tree_param":{"num_deleted":"0","num_feature":"148","num_nodes":"13","size_leaf_vector":"1"}},{"base_weights":[8.314662E-3,-3.8710022E-1,6.790509E-1,-5.1983375E-2,4.1108516E-1,-2.8621275E-2,8.0128866E-1,8.626095E-2,-3.1902317E-2,8.607067E-2,2.5615146E-2],"categories":[],"categories_nodes":[],"categories_segments":[],"categories_sizes":[],"default_left":[0,0,0,0,0,0,0,0,0,0,0],"id":58,"left_children":[1,3,5,-1,7,-1,9,-1,-1,-1,-1],"loss_changes":[8.190709E0,2.2735345E0,1.580265E0,0E0,1.373152E0,0E0,1.1722422E-1,0E0,0E0,0E0,0E0],"parents":[2147483647,0,0,1,1,2,2,4,4,6,6],"right_children":[2,4,6,-1,8,-1,10,-1,-1,-1,-1],"split_conditions":[1E0,5.6557375E-1,5.01315E-1,-5.1983375E-2,1.851369E-1,-2.8621275E-2,2.8003377E-1,8.626095E-2,-3.1902317E-2,8.607067E-2,2.5615146E-2],"split_indices":[125,1,32,0,9,0,62,0,0,0,0],"split_type":[0,0,0,0,0,0,0,0,0,0,0],"sum_hessian":[2.8891693E1,1.8442358E1,1.0449334E1,1.6111794E1,2.3305655E0,1.0237486E0,9.425586E0,1.327878E0,1.0026873E0,7.9772162E0,1.4483693E0],"tree_param":{"num_deleted":"0","num_feature":"148","num_nodes":"11","size_leaf_vector":"1"}},{"base_weights":[-2.0259125E-3,7.792241E-1,-5.2236754E-2,6.0801296E-3,8.611136E-2],"categories":[],"categories_nodes":[],"categories_segments":[],"categories_sizes":[],"default_left":[0,0,0,0,0],"id":59,"left_children":[1,3,-1,-1,-1],"loss_changes":[1.2365926E1,6.631398E-1,0E0,0E0,0E0],"parents":[2147483647,0,0,1,1],"right_children":[2,4,-1,-1,-1],"split_conditions":[8.4068656E-2,9.2032534E-1,-5.2236754E-2,6.0801296E-3,8.611136E-2],"split_indices":[2,5,0,0,0],"split_type":[0,0,0,0,0],"sum_hessian":[2.8417929E1,1.1161834E1,1.7256096E1,1.320395E0,9.841439E0],"tree_param":{"num_deleted":"0","num_feature":"148","num_nodes":"5","size_leaf_vector":"1"}},{"base_weights":[-1.4834622E-2,-5.161759E-2,6.6448605E-1,-2.967465E-2,7.876345E-2],"categories":[],"categories_nodes":[],"categories_segments":[],"categories_sizes":[],"default_left":[0,0,0,0,0],"id":60,"left_children":[1,-1,3,-1,-1],"loss_changes":[9.916541E0,0E0,1.6984401E0,0E0,0E0],"parents":[2147483647,0,0,2,2],"right_children":[2,-1,4,-1,-1],"split_conditions":[5.3488165E-1,-5.161759E-2,1.11784575E-5,-2.967465E-2,7.876345E-2],"split_indices":[72,0,6,0,0],"split_type":[0,0,0,0,0],"sum_hessian":[2.7110252E1,1.5736681E1,1.1373571E1,1.1315573E0,1.0242014E1],"tree_param":{"num_deleted":"0","num_feature":"148","num_nodes":"5","size_leaf_vector":"1"}},{"base_weights":[2.5822576E-3,4.727058E-1,-5.1172167E-2,7.7817523E-1,-4.2800214E-2,2.8875602E-2,8.22348E-2],"categories":[],"categories_nodes":[],"categories_segments":[],"categories_sizes":[],"default_left":[0,0,0,0,0,0,0],"id":61,"left_children":[1,3,-1,5,-1,-1,-1],"loss_changes":[7.1350403E0,4.5740967E0,0E0,1.905775E-2,0E0,0E0,0E0],"parents":[2147483647,0,0,1,1,3,3],"right_children":[2,4,-1,6,-1,-1,-1],"split_conditions":[5.565771E-1,7.8789264E-1,-5.1172167E-2,4.9677584E-1,-4.2800214E-2,2.8875602E-2,8.22348E-2],"split_indices":[4,105,0,9,0,0,0],"split_type":[0,0,0,0,0,0,0],"sum_hessian":[2.7509241E1,1.4414174E1,1.3095067E1,1.0865313E1,3.548862E0,1.5234101E0,9.341903E0],"tree_param":{"num_deleted":"0","num_feature":"148","num_nodes":"7","size_leaf_vector":"1"}},{"base_weights":[-2.2239196E-3,4.8179218E-1,-2.4922411E-1,-4.0279623E-2,8.225636E-2,2.6625884E-1,-5.1554937E-2,-4.0447656E-2,7.435E-2],"categories":[],"categories_nodes":[],"categories_segments":[],"categories_sizes":[],"default_left":[0,0,0,0,0,0,0,0,0],"id":62,"left_children":[1,3,5,-1,-1,7,-1,-1,-1],"loss_changes":[3.5769386E0,3.3791938E0,2.85611E0,0E0,0E0,2.6713395E0,0E0,0E0,0E0],"parents":[2147483647,0,0,1,1,2,2,5,5],"right_children":[2,4,6,-1,-1,8,-1,-1,-1],"split_conditions":[2.3179494E-2,2.7172196E-1,2.60385E-1,-4.0279623E-2,8.225636E-2,2.4249202E-1,-5.1554937E-2,-4.0447656E-2,7.435E-2],"split_indices":[44,2,3,0,0,5,0,0,0],"split_type":[0,0,0,0,0,0,0,0,0],"sum_hessian":[2.7915136E1,9.110949E0,1.8804188E1,2.4831285E0,6.6278205E0,6.405787E0,1.2398401E1,2.726423E0,3.679364E0],"tree_param":{"num_deleted":"0","num_feature":"148","num_nodes":"9","size_leaf_vector":"1"}},{"base_weights":[7.1908366E-3,2.8502548E-1,-4.9719404E-2,-4.262374E-2,4.6165487E-1,5.685085E-1,-3.3990536E-2,2.5739765E-1,8.31745E-2,5.2378094E-1,-3.914243E-2,-3.9135604E-3,7.459473E-2],"categories":[],"categories_nodes":[],"categories_segments":[],"categories_sizes":[],"default_left":[0,0,0,0,0,0,0,0,0,0,0,0,0],"id":63,"left_children":[1,3,-1,-1,5,7,-1,9,-1,11,-1,-1,-1],"loss_changes":[4.228378E0,2.6389928E0,0E0,0E0,1.5681431E0,9.7656107E-1,0E0,1.6069806E0,0E0,8.0185175E-1,0E0,0E0,0E0],"parents":[2147483647,0,0,1,1,4,4,5,5,7,7,9,9],"right_children":[2,4,-1,-1,6,8,-1,10,-1,12,-1,-1,-1],"split_conditions":[1.5345371E-1,1.2006319E-1,-4.9719404E-2,-4.262374E-2,8.9531505E-1,2E-2,-3.3990536E-2,3.6377795E-2,8.31745E-2,7.3848337E-1,-3.914243E-2,-3.9135604E-3,7.459473E-2],"split_indices":[76,2,0,0,26,66,0,41,0,5,0,0,0],"split_type":[0,0,0,0,0,0,0,0,0,0,0,0,0],"sum_hessian":[2.8162218E1,1.843978E1,9.722437E0,3.387122E0,1.5052658E1,1.3538613E1,1.5140446E0,7.1115355E0,6.427078E0,5.1782503E0,1.9332856E0,1.6985005E0,3.4797497E0],"tree_param":{"num_deleted":"0","num_feature":"148","num_nodes":"13","size_leaf_vector":"1"}},{"base_weights":[9.1805635E-3,-3.7736687E-1,6.366183E-1,-5.1404078E-2,3.9090815E-1,7.641133E-2,-1.0343757E-2,4.9375083E-2,9.99352E-3],"categories":[],"categories_nodes":[],"categories_segments":[],"categories_sizes":[],"default_left":[0,0,0,0,0,0,0,0,0],"id":64,"left_children":[1,3,5,-1,7,-1,-1,-1,-1],"loss_changes":[7.2199583E0,2.1367135E0,1.1492791E0,0E0,5.097294E-2,0E0,0E0,0E0,0E0],"parents":[2147483647,0,0,1,1,2,2,4,4],"right_children":[2,4,6,-1,8,-1,-1,-1,-1],"split_conditions":[1E0,5.6557375E-1,5.1E-1,-5.1404078E-2,3.049221E-1,7.641133E-2,-1.0343757E-2,4.9375083E-2,9.99352E-3],"split_indices":[125,1,54,0,0,0,0,0,0],"split_type":[0,0,0,0,0,0,0,0,0],"sum_hessian":[2.7778261E1,1.7435364E1,1.0342897E1,1.5083049E1,2.3523145E0,8.795178E0,1.5477192E0,1.2231157E0,1.1291989E0],"tree_param":{"num_deleted":"0","num_feature":"148","num_nodes":"9","size_leaf_vector":"1"}},{"base_weights":[-2.3477757E-3,7.329888E-1,-5.1677257E-2,5.196886E-3,8.129626E-2],"categories":[],"categories_nodes":[],"categories_segments":[],"categories_sizes":[],"default_left":[0,0,0,0,0],"id":65,"left_children":[1,3,-1,-1,-1],"loss_changes":[1.10467005E1,6.1249876E-1,0E0,0E0,0E0],"parents":[2147483647,0,0,1,1],"right_children":[2,4,-1,-1,-1],"split_conditions":[8.4068656E-2,3.890311E-1,-5.1677257E-2,5.196886E-3,8.129626E-2],"split_indices":[2,0,0,0,0],"split_type":[0,0,0,0,0],"sum_hessian":[2.7201445E1,1.1021731E1,1.6179714E1,1.3316689E0,9.6900625E0],"tree_param":{"num_deleted":"0","num_feature":"148","num_nodes":"5","size_leaf_vector":"1"}},{"base_weights":[-1.6222565E-2,-5.1078808E-2,6.3015795E-1,-2.8793408E-2,7.461857E-2],"categories":[],"categories_nodes":[],"categories_segments":[],"categories_sizes":[],"default_left":[0,0,0,0,0],"id":66,"left_children":[1,-1,3,-1,-1],"loss_changes":[8.897458E0,0E0,1.5012193E0,0E0,0E0],"parents":[2147483647,0,0,2,2],"right_children":[2,-1,4,-1,-1],"split_conditions":[5.3488165E-1,-5.1078808E-2,1.11784575E-5,-2.8793408E-2,7.461857E-2],"split_indices":[72,0,6,0,0],"split_type":[0,0,0,0,0],"sum_hessian":[2.5825727E1,1.4749899E1,1.1075829E1,1.0764686E0,9.99936E0],"tree_param":{"num_deleted":"0","num_feature":"148","num_nodes":"5","size_leaf_vector":"1"}},{"base_weights":[1.8322924E-3,4.5045516E-1,-5.0596684E-2,7.3389614E-1,-4.1922115E-2,2.7311197E-2,7.761194E-2],"categories":[],"categories_nodes":[],"categories_segments":[],"categories_sizes":[],"default_left":[0,0,0,0,0,0,0],"id":67,"left_children":[1,3,-1,5,-1,-1,-1],"loss_changes":[6.4515986E0,4.01357E0,0E0,1.5706062E-2,0E0,0E0,0E0],"parents":[2147483647,0,0,1,1,3,3],"right_children":[2,4,-1,6,-1,-1,-1],"split_conditions":[5.565771E-1,7.8789264E-1,-5.0596684E-2,4.9677584E-1,-4.1922115E-2,2.7311197E-2,7.761194E-2],"split_indices":[4,105,0,9,0,0,0],"split_type":[0,0,0,0,0,0,0],"sum_hessian":[2.6319586E1,1.4033979E1,1.2285606E1,1.070212E1,3.3318596E0,1.5252525E0,9.1768675E0],"tree_param":{"num_deleted":"0","num_feature":"148","num_nodes":"7","size_leaf_vector":"1"}},{"base_weights":[-1.0173961E-3,4.558459E-1,-2.4185732E-1,-3.9454013E-2,7.717801E-2,2.562997E-1,-5.092609E-2,-3.9590713E-2,6.997242E-2],"categories":[],"categories_nodes":[],"categories_segments":[],"categories_sizes":[],"default_left":[0,0,0,0,0,0,0,0,0],"id":68,"left_children":[1,3,5,-1,-1,7,-1,-1,-1],"loss_changes":[3.1737144E0,2.9797046E0,2.6461058E0,0E0,0E0,2.377054E0,0E0,0E0,0E0],"parents":[2147483647,0,0,1,1,2,2,5,5],"right_children":[2,4,6,-1,-1,8,-1,-1,-1],"split_conditions":[2.3179494E-2,2.7172196E-1,2.60385E-1,-3.9454013E-2,7.717801E-2,2.4249202E-1,-5.092609E-2,-3.9590713E-2,6.997242E-2],"split_indices":[44,2,3,0,0,5,0,0,0],"split_type":[0,0,0,0,0,0,0,0,0],"sum_hessian":[2.6841852E1,8.957367E0,1.7884485E1,2.3589854E0,6.5983815E0,6.261397E0,1.1623089E1,2.5774856E0,3.6839113E0],"tree_param":{"num_deleted":"0","num_feature":"148","num_nodes":"9","size_leaf_vector":"1"}},{"base_weights":[7.182956E-3,2.7244332E-1,-4.9097743E-2,-4.1777134E-2,4.3866736E-1,5.395414E-1,-3.3172432E-2,2.4637334E-1,7.835763E-2,4.9734834E-1,-3.8123775E-2,-3.6959343E-3,7.066514E-2],"categories":[],"categories_nodes":[],"categories_segments":[],"categories_sizes":[],"default_left":[0,0,0,0,0,0,0,0,0,0,0,0,0],"id":69,"left_children":[1,3,-1,-1,5,7,-1,9,-1,11,-1,-1,-1],"loss_changes":[3.8446815E0,2.3594856E0,0E0,0E0,1.4048548E0,8.320813E-1,0E0,1.4446523E0,0E0,7.111627E-1,0E0,0E0,0E0],"parents":[2147483647,0,0,1,1,4,4,5,5,7,7,9,9],"right_children":[2,4,-1,-1,6,8,-1,10,-1,12,-1,-1,-1],"split_conditions":[1.5345371E-1,1.2006319E-1,-4.9097743E-2,-4.1777134E-2,8.9531505E-1,2E-2,-3.3172432E-2,3.6377795E-2,7.835763E-2,7.3848337E-1,-3.8123775E-2,-3.6959343E-3,7.066514E-2],"split_indices":[76,2,0,0,26,66,0,41,0,5,0,0,0],"split_type":[0,0,0,0,0,0,0,0,0,0,0,0,0],"sum_hessian":[2.7082756E1,1.7968168E1,9.114587E0,3.1936834E0,1.4774486E1,1.3328874E1,1.4456121E0,6.9677916E0,6.361082E0,5.1256514E0,1.8421403E0,1.6744761E0,3.4511752E0],"tree_param":{"num_deleted":"0","num_feature":"148","num_nodes":"13","size_leaf_vector":"1"}},{"base_weights":[1.02036E-2,-3.673808E-1,5.98453E-1,-5.083816E-2,3.6980304E-1,7.19136E-2,-1.0159075E-2,8.818378E-3,4.74643E-2],"categories":[],"categories_nodes":[],"categories_segments":[],"categories_sizes":[],"default_left":[0,0,0,0,0,0,0,0,0],"id":70,"left_children":[1,3,5,-1,7,-1,-1,-1,-1],"loss_changes":[6.37012E0,2.0053766E0,1.0197296E0,0E0,5.812052E-2,0E0,0E0,0E0,0E0],"parents":[2147483647,0,0,1,1,2,2,4,4],"right_children":[2,4,6,-1,8,-1,-1,-1,-1],"split_conditions":[1E0,5.6557375E-1,5.1E-1,-5.083816E-2,7.034916E-1,7.19136E-2,-1.0159075E-2,8.818378E-3,4.74643E-2],"split_indices":[125,1,54,0,24,0,0,0,0],"split_type":[0,0,0,0,0,0,0,0,0],"sum_hessian":[2.6689682E1,1.6484262E1,1.020542E1,1.4098099E1,2.3861632E0,8.68151E0,1.5239099E0,1.1467937E0,1.2393695E0],"tree_param":{"num_deleted":"0","num_feature":"148","num_nodes":"9","size_leaf_vector":"1"}},{"base_weights":[-2.625718E-3,6.926863E-1,-5.1132966E-2,4.8691332E-3,7.7010565E-2],"categories":[],"categories_nodes":[],"categories_segments":[],"categories_sizes":[],"default_left":[0,0,0,0,0],"id":71,"left_children":[1,3,-1,-1,-1],"loss_changes":[9.891664E0,5.5168295E-1,0E0,0E0,0E0],"parents":[2147483647,0,0,1,1],"right_children":[2,4,-1,-1,-1],"split_conditions":[8.4068656E-2,3.890311E-1,-5.1132966E-2,4.8691332E-3,7.7010565E-2],"split_indices":[2,0,0,0,0],"split_type":[0,0,0,0,0],"sum_hessian":[2.5964256E1,1.0817246E1,1.5147011E1,1.3356742E0,9.481572E0],"tree_param":{"num_deleted":"0","num_feature":"148","num_nodes":"5","size_leaf_vector":"1"}},{"base_weights":[-1.7615508E-2,-5.055232E-2,6.002446E-1,-2.7920363E-2,7.1044676E-2],"categories":[],"categories_nodes":[],"categories_segments":[],"categories_sizes":[],"default_left":[0,0,0,0,0],"id":72,"left_children":[1,-1,3,-1,-1],"loss_changes":[8.000449E0,0E0,1.3345308E0,0E0,0E0],"parents":[2147483647,0,0,2,2],"right_children":[2,-1,4,-1,-1],"split_conditions":[5.3488165E-1,-5.055232E-2,1.11784575E-5,-2.7920363E-2,7.1044676E-2],"split_indices":[72,0,6,0,0],"split_type":[0,0,0,0,0],"sum_hessian":[2.4532558E1,1.3809433E1,1.0723126E1,1.0233006E0,9.699825E0],"tree_param":{"num_deleted":"0","num_feature":"148","num_nodes":"5","size_leaf_vector":"1"}},{"base_weights":[1.0642898E-3,4.307145E-1,-5.0032195E-2,6.955273E-1,-4.104041E-2,2.5857856E-2,7.364241E-2],"categories":[],"categories_nodes":[],"categories_segments":[],"categories_sizes":[],"default_left":[0,0,0,0,0,0,0],"id":73,"left_children":[1,3,-1,5,-1,-1,-1],"loss_changes":[5.8409986E0,3.5375335E0,0E0,1.4640808E-2,0E0,0E0,0E0],"parents":[2147483647,0,0,1,1,3,3],"right_children":[2,4,-1,6,-1,-1,-1],"split_conditions":[5.565771E-1,7.8789264E-1,-5.0032195E-2,4.9677584E-1,-4.104041E-2,2.5857856E-2,7.364241E-2],"split_indices":[4,105,0,9,0,0,0],"split_type":[0,0,0,0,0,0,0],"sum_hessian":[2.511403E1,1.3600435E1,1.1513596E1,1.0475487E1,3.1249483E0,1.523272E0,8.952215E0],"tree_param":{"num_deleted":"0","num_feature":"148","num_nodes":"7","size_leaf_vector":"1"}},{"base_weights":[-2.8723394E-5,4.3266237E-1,-2.3498574E-1,-3.8637124E-2,7.278081E-2,2.4667597E-1,-5.0307482E-2,-3.873527E-2,6.6052645E-2],"categories":[],"categories_nodes":[],"categories_segments":[],"categories_sizes":[],"default_left":[0,0,0,0,0,0,0,0,0],"id":74,"left_children":[1,3,5,-1,-1,7,-1,-1,-1],"loss_changes":[2.8210895E0,2.641848E0,2.4462988E0,0E0,0E0,2.119224E0,0E0,0E0,0E0],"parents":[2147483647,0,0,1,1,2,2,5,5],"right_children":[2,4,6,-1,-1,8,-1,-1,-1],"split_conditions":[2.3179494E-2,2.7172196E-1,2.60385E-1,-3.8637124E-2,7.278081E-2,2.4249202E-1,-5.0307482E-2,-3.873527E-2,6.6052645E-2],"split_indices":[44,2,3,0,0,5,0,0,0],"split_type":[0,0,0,0,0,0,0,0,0],"sum_hessian":[2.5749144E1,8.7654505E0,1.6983694E1,2.2400882E0,6.5253625E0,6.101435E0,1.0882258E1,2.4349942E0,3.666441E0],"tree_param":{"num_deleted":"0","num_feature":"148","num_nodes":"9","size_leaf_vector":"1"}},{"base_weights":[7.203392E-3,2.611745E-1,-4.8483487E-2,-4.0928904E-2,4.1834107E-1,5.14133E-1,-3.235424E-2,2.3648345E-1,7.421244E-2,4.7382036E-1,-3.7115585E-2,-3.4685829E-3,6.7217454E-2],"categories":[],"categories_nodes":[],"categories_segments":[],"categories_sizes":[],"default_left":[0,0,0,0,0,0,0,0,0,0,0,0,0],"id":75,"left_children":[1,3,-1,-1,5,7,-1,9,-1,11,-1,-1,-1],"loss_changes":[3.4985206E0,2.1150486E0,0E0,0E0,1.2634912E0,7.144668E-1,0E0,1.301734E0,0E0,6.3388133E-1,0E0,0E0,0E0],"parents":[2147483647,0,0,1,1,4,4,5,5,7,7,9,9],"right_children":[2,4,-1,-1,6,8,-1,10,-1,12,-1,-1,-1],"split_conditions":[1.5345371E-1,1.2006319E-1,-4.8483487E-2,-4.0928904E-2,8.9531505E-1,2E-2,-3.235424E-2,3.6377795E-2,7.421244E-2,7.3848337E-1,-3.7115585E-2,-3.4685829E-3,6.7217454E-2],"split_indices":[76,2,0,0,26,66,0,41,0,5,0,0,0],"split_type":[0,0,0,0,0,0,0,0,0,0,0,0,0],"sum_hessian":[2.5983034E1,1.7446846E1,8.536188E0,3.008516E0,1.443833E1,1.3059126E1,1.3792038E0,6.8068924E0,6.252234E0,5.053343E0,1.7535497E0,1.649576E0,3.4037666E0],"tree_param":{"num_deleted":"0","num_feature":"148","num_nodes":"13","size_leaf_vector":"1"}},{"base_weights":[1.1230211E-2,-3.5742813E-1,5.6486124E-1,-5.0283093E-2,3.5024422E-1,-1.045962E-2,6.8421364E-2,4.5425564E-2,7.897251E-3],"categories":[],"categories_nodes":[],"categories_segments":[],"categories_sizes":[],"default_left":[0,0,0,0,0,0,0,0,0],"id":76,"left_children":[1,3,5,-1,7,-1,-1,-1,-1],"loss_changes":[5.6292872E0,1.8816314E0,9.518244E-1,0E0,6.046912E-2,0E0,0E0,0E0,0E0],"parents":[2147483647,0,0,1,1,2,2,4,4],"right_children":[2,4,6,-1,8,-1,-1,-1,-1],"split_conditions":[1E0,5.6557375E-1,7.6445295E-3,-5.0283093E-2,3.7852833E-1,-1.045962E-2,6.8421364E-2,4.5425564E-2,7.897251E-3],"split_indices":[125,1,132,0,18,0,0,0,0],"split_type":[0,0,0,0,0,0,0,0,0],"sum_hessian":[2.5591728E1,1.5574914E1,1.0016814E1,1.3160361E1,2.4145527E0,1.5343206E0,8.482493E0,1.2577593E0,1.1567932E0],"tree_param":{"num_deleted":"0","num_feature":"148","num_nodes":"9","size_leaf_vector":"1"}},{"base_weights":[-2.7313633E-3,6.5786844E-1,-5.06017E-2,4.0107328E-3,7.353582E-2],"categories":[],"categories_nodes":[],"categories_segments":[],"categories_sizes":[],"default_left":[0,0,0,0,0],"id":77,"left_children":[1,3,-1,-1,-1],"loss_changes":[8.884581E0,5.237551E-1,0E0,0E0,0E0],"parents":[2147483647,0,0,1,1],"right_children":[2,4,-1,-1,-1],"split_conditions":[8.4068656E-2,9.2032534E-1,-5.06017E-2,4.0107328E-3,7.353582E-2],"split_indices":[2,5,0,0,0],"split_type":[0,0,0,0,0],"sum_hessian":[2.4721653E1,1.0557283E1,1.4164369E1,1.3458136E0,9.211471E0],"tree_param":{"num_deleted":"0","num_feature":"148","num_nodes":"5","size_leaf_vector":"1"}},{"base_weights":[-1.8938432E-2,-5.003177E-2,5.739342E-1,-8.160784E-3,6.75999E-2],"categories":[],"categories_nodes":[],"categories_segments":[],"categories_sizes":[],"default_left":[0,0,0,0,0],"id":78,"left_children":[1,-1,3,-1,-1],"loss_changes":[7.205961E0,0E0,8.131707E-1,0E0,0E0],"parents":[2147483647,0,0,2,2],"right_children":[2,-1,4,-1,-1],"split_conditions":[5.3488165E-1,-5.003177E-2,3.5398447E-5,-8.160784E-3,6.75999E-2],"split_indices":[72,0,33,0,0],"split_type":[0,0,0,0,0],"sum_hessian":[2.3242796E1,1.2913706E1,1.0329091E1,1.4185365E0,8.910554E0],"tree_param":{"num_deleted":"0","num_feature":"148","num_nodes":"5","size_leaf_vector":"1"}},{"base_weights":[3.5369312E-4,4.1305843E-1,-4.9471408E-2,6.619359E-1,-4.0154766E-2,2.4504295E-2,7.0198834E-2],"categories":[],"categories_nodes":[],"categories_segments":[],"categories_sizes":[],"default_left":[0,0,0,0,0,0,0],"id":79,"left_children":[1,3,-1,5,-1,-1,-1],"loss_changes":[5.292671E0,3.1298277E0,0E0,1.4969349E-2,0E0,0E0,0E0],"parents":[2147483647,0,0,1,1,3,3],"right_children":[2,4,-1,6,-1,-1,-1],"split_conditions":[5.565771E-1,7.8789264E-1,-4.9471408E-2,4.9677584E-1,-4.0154766E-2,2.4504295E-2,7.0198834E-2],"split_indices":[4,105,0,9,0,0,0],"split_type":[0,0,0,0,0,0,0],"sum_hessian":[2.3904097E1,1.312681E1,1.0777287E1,1.0198418E1,2.928393E0,1.5178323E0,8.680585E0],"tree_param":{"num_deleted":"0","num_feature":"148","num_nodes":"7","size_leaf_vector":"1"}},{"base_weights":[8.7767217E-4,4.6019349E-1,-2.0393363E-1,-2.9423371E-2,6.240941E-1,1.7147774E-1,-4.2340893E-1,6.856957E-2,2.0338899E-2,-3.2949474E-2,3.4916273E-1,-4.9017046E-2,1.5113816E-2,-2.9349402E-2,5.593881E-2],"categories":[],"categories_nodes":[],"categories_segments":[],"categories_sizes":[],"default_left":[0,0,0,0,0,0,0,0,0,0,0,0,0,0,0],"id":80,"left_children":[1,3,5,-1,7,9,11,-1,-1,-1,13,-1,-1,-1,-1],"loss_changes":[2.5067914E0,1.1996975E0,1.5913193E0,0E0,4.379058E-2,7.837433E-1,5.313182E-1,0E0,0E0,0E0,9.7896004E-1,0E0,0E0,0E0,0E0],"parents":[2147483647,0,0,1,1,2,2,4,4,5,5,6,6,10,10],"right_children":[2,4,6,-1,8,10,12,-1,-1,-1,14,-1,-1,-1,-1],"split_conditions":[3.7084086E-5,2.7172196E-1,4.5054945E-1,-2.9423371E-2,5.5416725E-3,5.8756196E-1,9.8415E-2,6.856957E-2,2.0338899E-2,-3.2949474E-2,1.7867957E-1,-4.9017046E-2,1.5113816E-2,-2.9349402E-2,5.593881E-2],"split_indices":[42,2,105,0,66,45,146,0,0,0,20,0,0,0,0],"split_type":[0,0,0,0,0,0,0,0,0,0,0,0,0,0,0],"sum_hessian":[2.4649664E1,7.217214E0,1.743245E1,1.1461846E0,6.0710297E0,6.512147E0,1.0920302E1,4.746197E0,1.3248322E0,1.4813086E0,5.0308385E0,9.915046E0,1.0052564E0,1.1424102E0,3.8884282E0],"tree_param":{"num_deleted":"0","num_feature":"148","num_nodes":"15","size_leaf_vector":"1"}},{"base_weights":[7.2231228E-3,2.503506E-1,-4.7854487E-2,-4.0110644E-2,3.9969993E-1,4.9101838E-1,-3.1535592E-2,2.260865E-1,7.065389E-2,4.506032E-1,-3.6116928E-2,-6.3390504E-3,6.250101E-2],"categories":[],"categories_nodes":[],"categories_segments":[],"categories_sizes":[],"default_left":[0,0,0,0,0,0,0,0,0,0,0,0,0],"id":81,"left_children":[1,3,-1,-1,5,7,-1,9,-1,11,-1,-1,-1],"loss_changes":[3.1758392E0,1.9020298E0,0E0,0E0,1.1384697E0,6.252961E-1,0E0,1.1698052E0,0E0,5.748335E-1,0E0,0E0,0E0],"parents":[2147483647,0,0,1,1,4,4,5,5,7,7,9,9],"right_children":[2,4,-1,-1,6,8,-1,10,-1,12,-1,-1,-1],"split_conditions":[1.5345371E-1,1.2006319E-1,-4.7854487E-2,-4.0110644E-2,8.9531505E-1,2E-2,-3.1535592E-2,3.6377795E-2,7.065389E-2,7.6464045E-1,-3.6116928E-2,-6.3390504E-3,6.250101E-2],"split_indices":[76,2,0,0,26,66,0,41,0,4,0,0,0],"split_type":[0,0,0,0,0,0,0,0,0,0,0,0,0],"sum_hessian":[2.4875896E1,1.690137E1,7.974527E0,2.8377032E0,1.4063665E1,1.2748848E1,1.3148174E0,6.6380053E0,6.110843E0,4.970432E0,1.6675736E0,1.4205309E0,3.5499008E0],"tree_param":{"num_deleted":"0","num_feature":"148","num_nodes":"13","size_leaf_vector":"1"}},{"base_weights":[1.2161374E-2,-3.472487E-1,5.340527E-1,-4.9736407E-2,3.3452395E-1,6.4917856E-1,-1.1158718E-2,4.399508E-2,6.9423052E-3,2.1590622E-2,6.946254E-2],"categories":[],"categories_nodes":[],"categories_segments":[],"categories_sizes":[],"default_left":[0,0,0,0,0,0,0,0,0,0,0],"id":82,"left_children":[1,3,5,-1,7,9,-1,-1,-1,-1,-1],"loss_changes":[4.9671226E0,1.7734038E0,8.7447643E-1,0E0,6.535888E-2,3.3230066E-2,0E0,0E0,0E0,0E0,0E0],"parents":[2147483647,0,0,1,1,2,2,4,4,5,5],"right_children":[2,4,6,-1,8,10,-1,-1,-1,-1,-1],"split_conditions":[1E0,5.6557375E-1,5.5416725E-3,-4.9736407E-2,3.049221E-1,1.5355329E-1,-1.1158718E-2,4.399508E-2,6.9423052E-3,2.1590622E-2,6.946254E-2],"split_indices":[125,1,66,0,0,8,0,0,0,0,0],"split_type":[0,0,0,0,0,0,0,0,0,0,0],"sum_hessian":[2.4492329E1,1.4702095E1,9.790234E0,1.2270757E1,2.4313385E0,8.304037E0,1.4861965E0,1.2676517E0,1.163687E0,1.3342795E0,6.969758E0],"tree_param":{"num_deleted":"0","num_feature":"148","num_nodes":"11","size_leaf_vector":"1"}},{"base_weights":[-2.8230846E-3,6.2675476E-1,-5.007688E-2,3.5159867E-3,7.039321E-2],"categories":[],"categories_nodes":[],"categories_segments":[],"categories_sizes":[],"default_left":[0,0,0,0,0],"id":83,"left_children":[1,3,-1,-1,-1],"loss_changes":[7.990189E0,4.892621E-1,0E0,0E0,0E0],"parents":[2147483647,0,0,1,1],"right_children":[2,4,-1,-1,-1],"split_conditions":[8.4068656E-2,3.890311E-1,-5.007688E-2,3.5159867E-3,7.039321E-2],"split_indices":[2,0,0,0,0],"split_type":[0,0,0,0,0],"sum_hessian":[2.3486246E1,1.0257938E1,1.3228309E1,1.3517576E0,8.90618E0],"tree_param":{"num_deleted":"0","num_feature":"148","num_nodes":"5","size_leaf_vector":"1"}},{"base_weights":[-2.0241857E-2,-4.9578167E-2,5.5093014E-1,-8.098467E-3,6.495144E-2],"categories":[],"categories_nodes":[],"categories_segments":[],"categories_sizes":[],"default_left":[0,0,0,0,0],"id":84,"left_children":[1,-1,3,-1,-1],"loss_changes":[6.5237417E0,0E0,7.334268E-1,0E0,0E0],"parents":[2147483647,0,0,2,2],"right_children":[2,-1,4,-1,-1],"split_conditions":[7.449185E-1,-4.9578167E-2,8.2440877E-1,-8.098467E-3,6.495144E-2],"split_indices":[83,0,105,0,0],"split_type":[0,0,0,0,0],"sum_hessian":[2.2012718E1,1.2083975E1,9.928744E0,1.364023E0,8.564721E0],"tree_param":{"num_deleted":"0","num_feature":"148","num_nodes":"5","size_leaf_vector":"1"}},{"base_weights":[-1.02350496E-4,3.9792374E-1,-4.8932437E-2,6.3364255E-1,-3.9297253E-2,2.3256065E-2,6.734184E-2],"categories":[],"categories_nodes":[],"categories_segments":[],"categories_sizes":[],"default_left":[0,0,0,0,0,0,0],"id":85,"left_children":[1,3,-1,5,-1,-1,-1],"loss_changes":[4.81655E0,2.7917194E0,0E0,1.712513E-2,0E0,0E0,0E0],"parents":[2147483647,0,0,1,1,3,3],"right_children":[2,4,-1,6,-1,-1,-1],"split_conditions":[5.565771E-1,7.8789264E-1,-4.8932437E-2,4.9677584E-1,-3.9297253E-2,2.3256065E-2,6.734184E-2],"split_indices":[4,105,0,9,0,0,0],"split_type":[0,0,0,0,0,0,0],"sum_hessian":[2.2735426E1,1.2639046E1,1.009638E1,9.8902E0,2.748846E0,1.5100745E0,8.380125E0],"tree_param":{"num_deleted":"0","num_feature":"148","num_nodes":"7","size_leaf_vector":"1"}},{"base_weights":[2.0470351E-3,3.959442E-1,-2.2292091E-1,-3.731101E-2,6.636509E-2,2.3167892E-1,-4.9206544E-2,-3.7139755E-2,6.016176E-2],"categories":[],"categories_nodes":[],"categories_segments":[],"categories_sizes":[],"default_left":[0,0,0,0,0,0,0,0,0],"id":86,"left_children":[1,3,5,-1,-1,7,-1,-1,-1],"loss_changes":[2.2713401E0,2.1655428E0,2.1108043E0,0E0,0E0,1.7291366E0,0E0,0E0,0E0],"parents":[2147483647,0,0,1,1,2,2,5,5],"right_children":[2,4,6,-1,-1,8,-1,-1,-1],"split_conditions":[2.3179494E-2,2.7172196E-1,2.60385E-1,-3.731101E-2,6.636509E-2,2.4249202E-1,-4.9206544E-2,-3.7139755E-2,6.016176E-2],"split_indices":[44,2,3,0,0,5,0,0,0],"split_type":[0,0,0,0,0,0,0,0,0],"sum_hessian":[2.3635725E1,8.315712E0,1.5320013E1,2.0455713E0,6.2701406E0,5.7489405E0,9.571073E0,2.184238E0,3.5647025E0],"tree_param":{"num_deleted":"0","num_feature":"148","num_nodes":"9","size_leaf_vector":"1"}},{"base_weights":[6.2739337E-3,2.3976427E-1,-4.7258187E-2,-3.924976E-2,3.8153142E-1,4.6908277E-1,-3.0796168E-2,2.160483E-1,6.741684E-2,4.2795962E-1,-3.511292E-2,-3.8791508E-3,6.147259E-2],"categories":[],"categories_nodes":[],"categories_segments":[],"categories_sizes":[],"default_left":[0,0,0,0,0,0,0,0,0,0,0,0,0],"id":87,"left_children":[1,3,-1,-1,5,7,-1,9,-1,11,-1,-1,-1],"loss_changes":[2.8861582E0,1.7035186E0,0E0,0E0,1.0298343E0,5.502708E-1,0E0,1.0487078E0,0E0,5.375196E-1,0E0,0E0,0E0],"parents":[2147483647,0,0,1,1,4,4,5,5,7,7,9,9],"right_children":[2,4,-1,-1,6,8,-1,10,-1,12,-1,-1,-1],"split_conditions":[1.5345371E-1,1.2006319E-1,-4.7258187E-2,-3.924976E-2,8.9531505E-1,2E-2,-3.0796168E-2,3.6377795E-2,6.741684E-2,7.3848337E-1,-3.511292E-2,-3.8791508E-3,6.147259E-2],"split_indices":[76,2,0,0,26,66,0,41,0,5,0,0,0],"split_type":[0,0,0,0,0,0,0,0,0,0,0,0,0],"sum_hessian":[2.3800058E1,1.6334597E1,7.465461E0,2.6678314E0,1.3666766E1,1.2410553E1,1.2562132E0,6.47507E0,5.9354825E0,4.8925514E0,1.5825188E0,1.6246519E0,3.2678993E0],"tree_param":{"num_deleted":"0","num_feature":"148","num_nodes":"13","size_leaf_vector":"1"}},{"base_weights":[1.3604245E-2,-3.3738536E-1,5.0928456E-1,-4.920846E-2,3.1932294E-1,-1.0869217E-2,6.236626E-1,6.1691934E-3,4.248203E-2,2.1106897E-2,6.6442095E-2],"categories":[],"categories_nodes":[],"categories_segments":[],"categories_sizes":[],"default_left":[0,0,0,0,0,0,0,0,0,0,0],"id":88,"left_children":[1,3,5,-1,7,-1,9,-1,-1,-1,-1],"loss_changes":[4.4191337E0,1.6702415E0,8.1129384E-1,0E0,6.745395E-2,0E0,1.152277E-2,0E0,0E0,0E0,0E0],"parents":[2147483647,0,0,1,1,2,2,4,4,6,6],"right_children":[2,4,6,-1,8,-1,10,-1,-1,-1,-1],"split_conditions":[1E0,5.6557375E-1,7.6445295E-3,-4.920846E-2,7.034916E-1,-1.0869217E-2,5.075497E-1,6.1691934E-3,4.248203E-2,2.1106897E-2,6.6442095E-2],"split_indices":[125,1,132,0,24,0,32,0,0,0,0],"split_type":[0,0,0,0,0,0,0,0,0,0,0],"sum_hessian":[2.3412815E1,1.3893923E1,9.518892E0,1.1447858E1,2.446065E0,1.49441E0,8.024483E0,1.1710532E0,1.2750118E0,1.2769135E0,6.747569E0],"tree_param":{"num_deleted":"0","num_feature":"148","num_nodes":"11","size_leaf_vector":"1"}},{"base_weights":[-3.0009001E-3,6.0013396E-1,-4.9575552E-2,2.8003152E-3,6.782719E-2],"categories":[],"categories_nodes":[],"categories_segments":[],"categories_sizes":[],"default_left":[0,0,0,0,0],"id":89,"left_children":[1,3,-1,-1,-1],"loss_changes":[7.219451E0,4.693992E-1,0E0,0E0,0E0],"parents":[2147483647,0,0,1,1],"right_children":[2,4,-1,-1,-1],"split_conditions":[8.4068656E-2,9.2032534E-1,-4.9575552E-2,2.8003152E-3,6.782719E-2],"split_indices":[2,5,0,0,0],"split_type":[0,0,0,0,0],"sum_hessian":[2.2290678E1,9.924774E0,1.2365905E1,1.3558128E0,8.568961E0],"tree_param":{"num_deleted":"0","num_feature":"148","num_nodes":"5","size_leaf_vector":"1"}},{"base_weights":[-2.119753E-2,-4.9068578E-2,5.302596E-1,-7.6279934E-3,6.253183E-2],"categories":[],"categories_nodes":[],"categories_segments":[],"categories_sizes":[],"default_left":[0,0,0,0,0],"id":90,"left_children":[1,-1,3,-1,-1],"loss_changes":[5.903966E0,0E0,6.533816E-1,0E0,0E0],"parents":[2147483647,0,0,2,2],"right_children":[2,-1,4,-1,-1],"split_conditions":[8.242015E-1,-4.9068578E-2,4.4354644E-1,-7.6279934E-3,6.253183E-2],"split_indices":[105,0,2,0,0],"split_type":[0,0,0,0,0],"sum_hessian":[2.0798832E1,1.1293881E1,9.5049515E0,1.3145794E0,8.1903715E0],"tree_param":{"num_deleted":"0","num_feature":"148","num_nodes":"5","size_leaf_vector":"1"}},{"base_weights":[-7.9640927E-4,3.8325503E-1,-4.8384592E-2,6.0730404E-1,-3.843838E-2,2.2065466E-2,6.46951E-2],"categories":[],"categories_nodes":[],"categories_segments":[],"categories_sizes":[],"default_left":[0,0,0,0,0,0,0],"id":91,"left_children":[1,3,-1,5,-1,-1,-1],"loss_changes":[4.372649E0,2.4919572E0,0E0,1.9012451E-2,0E0,0E0,0E0],"parents":[2147483647,0,0,1,1,3,3],"right_children":[2,4,-1,6,-1,-1,-1],"split_conditions":[5.565771E-1,7.8789264E-1,-4.8384592E-2,4.9677584E-1,-3.843838E-2,2.2065466E-2,6.46951E-2],"split_indices":[4,105,0,9,0,0,0],"split_type":[0,0,0,0,0,0,0],"sum_hessian":[2.1570646E1,1.2131787E1,9.438859E0,9.552568E0,2.5792189E0,1.4990308E0,8.053537E0],"tree_param":{"num_deleted":"0","num_feature":"148","num_nodes":"7","size_leaf_vector":"1"}},{"base_weights":[2.6281916E-3,-3.5393238E-1,2.3590945E-1,7.875852E-3,-4.7127586E-2,3.9545357E-1,-3.848142E-2,-2.4981306E-1,6.221917E-1,-3.6591608E-2,4.31792E-3,6.6621736E-2,1.2784141E-2],"categories":[],"categories_nodes":[],"categories_segments":[],"categories_sizes":[],"default_left":[0,0,0,0,0,0,0,0,0,0,0,0,0],"id":92,"left_children":[1,3,5,-1,-1,7,-1,9,11,-1,-1,-1,-1],"loss_changes":[2.0430765E0,5.3050005E-1,1.6219504E0,0E0,0E0,1.9549755E0,0E0,1.488657E-1,1.1915302E-1,0E0,0E0,0E0,0E0],"parents":[2147483647,0,0,1,1,2,2,5,5,7,7,8,8],"right_children":[2,4,6,-1,-1,8,-1,10,12,-1,-1,-1,-1],"split_conditions":[7.8190094E-1,4.5054945E-1,6.961241E-1,7.875852E-3,-4.7127586E-2,1.9905214E-1,-3.848142E-2,1.05166666E-1,7.864215E-1,-3.6591608E-2,4.31792E-3,6.6621736E-2,1.2784141E-2],"split_indices":[90,105,130,0,0,2,0,73,4,0,0,0,0],"split_type":[0,0,0,0,0,0,0,0,0,0,0,0,0],"sum_hessian":[2.2558628E1,8.717344E0,1.3841285E1,1.9298944E0,6.7874494E0,1.1299816E1,2.541468E0,2.9117095E0,8.388107E0,1.9070975E0,1.0046121E0,7.3829393E0,1.0051677E0],"tree_param":{"num_deleted":"0","num_feature":"148","num_nodes":"13","size_leaf_vector":"1"}},{"base_weights":[5.8457153E-3,2.3036097E-1,-4.6641495E-2,-3.840926E-2,3.657662E-1,4.4973436E-1,-2.9962389E-2,2.0658067E-1,6.460306E-2,4.0869716E-1,-3.418992E-2,-6.9727898E-3,5.7188123E-2],"categories":[],"categories_nodes":[],"categories_segments":[],"categories_sizes":[],"default_left":[0,0,0,0,0,0,0,0,0,0,0,0,0],"id":93,"left_children":[1,3,-1,-1,5,7,-1,9,-1,11,-1,-1,-1],"loss_changes":[2.6215353E0,1.5332901E0,0E0,0E0,9.2978704E-1,4.8870778E-1,0E0,9.481753E-1,0E0,4.9147522E-1,0E0,0E0,0E0],"parents":[2147483647,0,0,1,1,4,4,5,5,7,7,9,9],"right_children":[2,4,-1,-1,6,8,-1,10,-1,12,-1,-1,-1],"split_conditions":[1.5345371E-1,1.2006319E-1,-4.6641495E-2,-3.840926E-2,8.9531505E-1,2E-2,-2.9962389E-2,3.6377795E-2,6.460306E-2,7.6464045E-1,-3.418992E-2,-6.9727898E-3,5.7188123E-2],"split_indices":[76,2,0,0,26,66,0,41,0,4,0,0,0],"split_type":[0,0,0,0,0,0,0,0,0,0,0,0,0],"sum_hessian":[2.2711199E1,1.5740362E1,6.970836E0,2.5106597E0,1.3229702E1,1.2035056E1,1.1946464E0,6.2926693E0,5.742387E0,4.7844424E0,1.5082268E0,1.3625131E0,3.4219294E0],"tree_param":{"num_deleted":"0","num_feature":"148","num_nodes":"13","size_leaf_vector":"1"}},{"base_weights":[1.4932191E-2,-3.272809E-1,4.8569205E-1,-4.8674267E-2,3.0576965E-1,5.974521E-1,-1.1823731E-2,5.7704076E-3,4.074374E-2,1.8961817E-2,6.411233E-2],"categories":[],"categories_nodes":[],"categories_segments":[],"categories_sizes":[],"default_left":[0,0,0,0,0,0,0,0,0,0,0],"id":94,"left_children":[1,3,5,-1,7,9,-1,-1,-1,-1,-1],"loss_changes":[3.919095E0,1.5734905E0,7.609465E-1,0E0,6.359586E-2,3.5086155E-2,0E0,0E0,0E0,0E0,0E0],"parents":[2147483647,0,0,1,1,2,2,4,4,5,5],"right_children":[2,4,6,-1,8,10,-1,-1,-1,-1,-1],"split_conditions":[1E0,5.6557375E-1,5.5416725E-3,-4.8674267E-2,7.034916E-1,1.5355329E-1,-1.1823731E-2,5.7704076E-3,4.074374E-2,1.8961817E-2,6.411233E-2],"split_indices":[125,1,66,0,24,8,0,0,0,0,0],"split_type":[0,0,0,0,0,0,0,0,0,0,0],"sum_hessian":[2.2340364E1,1.3112891E1,9.227474E0,1.0659054E1,2.4538379E0,7.7955875E0,1.4318861E0,1.1690277E0,1.2848103E0,1.2707102E0,6.5248775E0],"tree_param":{"num_deleted":"0","num_feature":"148","num_nodes":"11","size_leaf_vector":"1"}},{"base_weights":[-3.1207479E-3,5.757287E-1,-4.9070906E-2,2.6538929E-3,6.535116E-2],"categories":[],"categories_nodes":[],"categories_segments":[],"categories_sizes":[],"default_left":[0,0,0,0,0],"id":95,"left_children":[1,3,-1,-1,-1],"loss_changes":[6.522051E0,4.3408728E-1,0E0,0E0,0E0],"parents":[2147483647,0,0,1,1],"right_children":[2,4,-1,-1,-1],"split_conditions":[8.4068656E-2,9.2032534E-1,-4.9070906E-2,2.6538929E-3,6.535116E-2],"split_indices":[2,5,0,0,0],"split_type":[0,0,0,0,0],"sum_hessian":[2.110718E1,9.56781E0,1.153937E1,1.353382E0,8.214428E0],"tree_param":{"num_deleted":"0","num_feature":"148","num_nodes":"5","size_leaf_vector":"1"}},{"base_weights":[-2.220215E-2,-4.8597325E-2,5.1382154E-1,-7.3007806E-3,6.045116E-2],"categories":[],"categories_nodes":[],"categories_segments":[],"categories_sizes":[],"default_left":[0,0,0,0,0],"id":96,"left_children":[1,-1,3,-1,-1],"loss_changes":[5.378108E0,0E0,5.792856E-1,0E0,0E0],"parents":[2147483647,0,0,2,2],"right_children":[2,-1,4,-1,-1],"split_conditions":[7.449185E-1,-4.8597325E-2,8.2440877E-1,-7.3007806E-3,6.045116E-2],"split_indices":[83,0,105,0,0],"split_type":[0,0,0,0,0],"sum_hessian":[1.9629782E1,1.0574248E1,9.055533E0,1.2382364E0,7.817297E0],"tree_param":{"num_deleted":"0","num_feature":"148","num_nodes":"5","size_leaf_vector":"1"}},{"base_weights":[-1.9598838E-3,3.691438E-1,-4.784299E-2,5.826782E-1,-3.7572727E-2,2.0723293E-2,6.2319394E-2],"categories":[],"categories_nodes":[],"categories_segments":[],"categories_sizes":[],"default_left":[0,0,0,0,0,0,0],"id":97,"left_children":[1,3,-1,5,-1,-1,-1],"loss_changes":[3.9670928E0,2.225483E0,0E0,2.596116E-2,0E0,0E0,0E0],"parents":[2147483647,0,0,1,1,3,3],"right_children":[2,4,-1,6,-1,-1,-1],"split_conditions":[5.565771E-1,7.8789264E-1,-4.784299E-2,4.9677584E-1,-3.7572727E-2,2.0723293E-2,6.2319394E-2],"split_indices":[4,105,0,9,0,0,0],"split_type":[0,0,0,0,0,0,0],"sum_hessian":[2.0436985E1,1.1615434E1,8.82155E0,9.196728E0,2.418707E0,1.4913913E0,7.705336E0],"tree_param":{"num_deleted":"0","num_feature":"148","num_nodes":"7","size_leaf_vector":"1"}},{"base_weights":[2.6630885E-3,-4.5351826E-2,1.7777753E-1,-2.8307557E-1,4.2691842E-1,3.050136E-2,-4.4397127E-2,-3.1186659E-2,5.5739605E-1,1.8138898E-3,6.1664915E-1,6.6318505E-2,1.2224357E-2],"categories":[],"categories_nodes":[],"categories_segments":[],"categories_sizes":[],"default_left":[0,0,0,0,0,0,0,0,0,0,0,0,0],"id":98,"left_children":[1,-1,3,5,7,-1,-1,-1,9,-1,11,-1,-1],"loss_changes":[1.8846238E0,0E0,2.0769858E0,7.5799096E-1,1.2782569E0,0E0,0E0,0E0,3.1141806E-1,0E0,1.2752676E-1,0E0,0E0],"parents":[2147483647,0,0,2,2,3,3,4,4,8,8,10,10],"right_children":[2,-1,4,6,8,-1,-1,-1,10,-1,12,-1,-1],"split_conditions":[1.78515E-1,-4.5351826E-2,5.374823E-1,4.54241E-1,5.686302E-1,3.050136E-2,-4.4397127E-2,-3.1186659E-2,1.9905214E-1,1.8138898E-3,8.32034E-1,6.6318505E-2,1.2224357E-2],"split_indices":[2,0,4,8,88,0,0,0,2,0,5,0,0],"split_type":[0,0,0,0,0,0,0,0,0,0,0,0,0],"sum_hessian":[2.1582745E1,5.54581E0,1.6036934E1,5.5796547E0,1.0457279E1,1.0061945E0,4.57346E0,1.3609836E0,9.096295E0,1.0298495E0,8.066445E0,7.060499E0,1.0059465E0],"tree_param":{"num_deleted":"0","num_feature":"148","num_nodes":"13","size_leaf_vector":"1"}},{"base_weights":[6.0995957E-3,2.2295763E-1,-4.6048988E-2,-3.756523E-2,3.5265142E-1,4.3373254E-1,-2.9205501E-2,2.0007578E-1,6.216347E-2,3.928593E-1,-3.3246536E-2,-4.204757E-3,5.7054322E-2],"categories":[],"categories_nodes":[],"categories_segments":[],"categories_sizes":[],"default_left":[0,0,0,0,0,0,0,0,0,0,0,0,0],"id":99,"left_children":[1,3,-1,-1,5,7,-1,9,-1,11,-1,-1,-1],"loss_changes":[2.3976274E0,1.3869293E0,0E0,0E0,8.478688E-1,4.3135643E-1,0E0,8.612325E-1,0E0,4.6318066E-1,0E0,0E0,0E0],"parents":[2147483647,0,0,1,1,4,4,5,5,7,7,9,9],"right_children":[2,4,-1,-1,6,8,-1,10,-1,12,-1,-1,-1],"split_conditions":[1.5345371E-1,1.2006319E-1,-4.6048988E-2,-3.756523E-2,8.9531505E-1,2E-2,-2.9205501E-2,3.6377795E-2,6.216347E-2,7.3848337E-1,-3.3246536E-2,-4.204757E-3,5.7054322E-2],"split_indices":[76,2,0,0,26,66,0,41,0,5,0,0,0],"split_type":[0,0,0,0,0,0,0,0,0,0,0,0,0],"sum_hessian":[2.1681107E1,1.5158161E1,6.5229445E0,2.3615985E0,1.2796563E1,1.1657681E1,1.1388814E0,6.1165376E0,5.541144E0,4.683406E0,1.4331318E0,1.5798513E0,3.1035547E0],"tree_param":{"num_deleted":"0","num_feature":"148","num_nodes":"13","size_leaf_vector":"1"}},{"base_weights":[1.6588919E-2,-3.1714654E-1,4.646608E-1,-4.8148893E-2,2.9432663E-1,-1.1412691E-2,5.776718E-1,3.9477736E-2,5.2832454E-3,1.8813228E-2,6.1634816E-2],"categories":[],"categories_nodes":[],"categories_segments":[],"categories_sizes":[],"default_left":[0,0,0,0,0,0,0,0,0,0,0],"id":100,"left_children":[1,3,5,-1,7,-1,9,-1,-1,-1,-1],"loss_changes":[3.483494E0,1.4863365E0,7.153866E-1,0E0,6.295627E-2,0E0,1.1685371E-2,0E0,0E0,0E0,0E0],"parents":[2147483647,0,0,1,1,2,2,4,4,6,6],"right_children":[2,4,6,-1,8,-1,10,-1,-1,-1,-1],"split_conditions":[1E0,5.6557375E-1,7.6445295E-3,-4.8148893E-2,3.049221E-1,-1.1412691E-2,5.075497E-1,3.9477736E-2,5.2832454E-3,1.8813228E-2,6.1634816E-2],"split_indices":[125,1,132,0,0,0,32,0,0,0,0],"split_type":[0,0,0,0,0,0,0,0,0,0,0],"sum_hessian":[2.1309652E1,1.238052E1,8.929132E0,9.925477E0,2.4550421E0,1.4570345E0,7.4720974E0,1.2855732E0,1.1694689E0,1.2045363E0,6.267561E0],"tree_param":{"num_deleted":"0","num_feature":"148","num_nodes":"11","size_leaf_vector":"1"}},{"base_weights":[-3.269153E-3,-4.9101766E-2,5.502759E-1,6.334943E-2,2.4965699E-3],"categories":[],"categories_nodes":[],"categories_segments":[],"categories_sizes":[],"default_left":[0,0,0,0,0],"id":101,"left_children":[1,-1,3,-1,-1],"loss_changes":[5.9306374E0,0E0,4.3409705E-1,0E0,0E0],"parents":[2147483647,0,0,2,2],"right_children":[2,-1,4,-1,-1],"split_conditions":[9.202693E-1,-4.9101766E-2,3.7852833E-1,6.334943E-2,2.4965699E-3],"split_indices":[5,0,18,0,0],"split_type":[0,0,0,0,0],"sum_hessian":[1.9965315E1,1.0673484E1,9.291832E0,7.8433623E0,1.4484699E0],"tree_param":{"num_deleted":"0","num_feature":"148","num_nodes":"5","size_leaf_vector":"1"}},{"base_weights":[-2.3203593E-2,-4.807337E-2,4.970487E-1,-6.8565244E-3,5.8491893E-2],"categories":[],"categories_nodes":[],"categories_segments":[],"categories_sizes":[],"default_left":[0,0,0,0,0],"id":102,"left_children":[1,-1,3,-1,-1],"loss_changes":[4.879641E0,0E0,5.179479E-1,0E0,0E0],"parents":[2147483647,0,0,2,2],"right_children":[2,-1,4,-1,-1],"split_conditions":[5.3488165E-1,-4.807337E-2,3.5398447E-5,-6.8565244E-3,5.8491893E-2],"split_indices":[72,0,33,0,0],"split_type":[0,0,0,0,0],"sum_hessian":[1.8496164E1,9.88174E0,8.614425E0,1.1878732E0,7.426552E0],"tree_param":{"num_deleted":"0","num_feature":"148","num_nodes":"5","size_leaf_vector":"1"}},{"base_weights":[-2.8394004E-3,3.5638404E-1,-4.7300696E-2,5.60877E-1,-3.672138E-2,1.955498E-2,6.0210343E-2],"categories":[],"categories_nodes":[],"categories_segments":[],"categories_sizes":[],"default_left":[0,0,0,0,0,0,0],"id":103,"left_children":[1,3,-1,5,-1,-1,-1],"loss_changes":[3.6035914E0,1.9963577E0,0E0,3.0299425E-2,0E0,0E0,0E0],"parents":[2147483647,0,0,1,1,3,3],"right_children":[2,4,-1,6,-1,-1,-1],"split_conditions":[5.565771E-1,7.8789264E-1,-4.7300696E-2,4.9677584E-1,-3.672138E-2,1.955498E-2,6.0210343E-2],"split_indices":[4,105,0,9,0,0,0],"split_type":[0,0,0,0,0,0,0],"sum_hessian":[1.9338171E1,1.1099668E1,8.238503E0,8.829326E0,2.2703416E0,1.4777331E0,7.3515925E0],"tree_param":{"num_deleted":"0","num_feature":"148","num_nodes":"7","size_leaf_vector":"1"}},{"base_weights":[3.2721786E-3,-4.4705983E-2,1.7352898E-1,-2.7377075E-1,4.1013005E-1,2.7066195E-2,-4.345601E-2,-3.0302031E-2,5.344155E-1,1.304427E-3,5.9335023E-1,6.357557E-2,2.1511884E-2],"categories":[],"categories_nodes":[],"categories_segments":[],"categories_sizes":[],"default_left":[0,0,0,0,0,0,0,0,0,0,0,0,0],"id":104,"left_children":[1,-1,3,5,7,-1,-1,-1,9,-1,11,-1,-1],"loss_changes":[1.7315688E0,0E0,1.8452059E0,6.6600984E-1,1.146649E0,0E0,0E0,0E0,2.9408503E-1,0E0,4.425764E-3,0E0,0E0],"parents":[2147483647,0,0,2,2,3,3,4,4,8,8,10,10],"right_children":[2,-1,4,6,8,-1,-1,-1,10,-1,12,-1,-1],"split_conditions":[1.78515E-1,-4.4705983E-2,5.374823E-1,1.599623E-2,5.686302E-1,2.7066195E-2,-4.345601E-2,-3.0302031E-2,1.9905214E-1,1.304427E-3,8.283692E-1,6.357557E-2,2.1511884E-2],"split_indices":[2,0,4,61,88,0,0,0,2,0,5,0,0],"split_type":[0,0,0,0,0,0,0,0,0,0,0,0,0],"sum_hessian":[2.057227E1,5.1979113E0,1.5374357E1,5.264535E0,1.0109822E1,1.0445057E0,4.2200294E0,1.2869868E0,8.822836E0,1.020066E0,7.8027697E0,6.403927E0,1.3988427E0],"tree_param":{"num_deleted":"0","num_feature":"148","num_nodes":"13","size_leaf_vector":"1"}},{"base_weights":[5.9358184E-3,2.1549425E-1,-4.5440834E-2,-3.6728136E-2,3.4016803E-1,4.1880155E-1,-2.8458506E-2,3.572629E-2,5.0836223E-1,-3.117015E-2,3.716984E-2,5.914836E-2,-7.014345E-3],"categories":[],"categories_nodes":[],"categories_segments":[],"categories_sizes":[],"default_left":[0,0,0,0,0,0,0,0,0,0,0,0,0],"id":105,"left_children":[1,3,-1,-1,5,7,-1,9,11,-1,-1,-1,-1],"loss_changes":[2.186051E0,1.2549514E0,0E0,0E0,7.7409303E-1,4.019568E-1,0E0,5.122585E-1,5.1510644E-1,0E0,0E0,0E0,0E0],"parents":[2147483647,0,0,1,1,4,4,5,5,7,7,8,8],"right_children":[2,4,-1,-1,6,8,-1,10,12,-1,-1,-1,-1],"split_conditions":[1.5345371E-1,1.2006319E-1,-4.5440834E-2,-3.6728136E-2,8.9531505E-1,5E-2,-2.8458506E-2,7.8E-1,7.9329926E-1,-3.117015E-2,3.716984E-2,5.914836E-2,-7.014345E-3],"split_indices":[76,2,0,0,26,57,0,53,138,0,0,0,0],"split_type":[0,0,0,0,0,0,0,0,0,0,0,0,0],"sum_hessian":[2.0645594E1,1.4552754E1,6.0928383E0,2.221699E0,1.2331056E1,1.1245334E1,1.0857223E0,2.3959818E0,8.849352E0,1.2134237E0,1.1825581E0,7.717977E0,1.1313744E0],"tree_param":{"num_deleted":"0","num_feature":"148","num_nodes":"13","size_leaf_vector":"1"}},{"base_weights":[1.7779337E-2,3.072561E-1,-4.682716E-2,5.567839E-1,-2.3660654E-1,-1.171136E-3,6.2592936E-1,-4.384133E-2,2.6808346E-2,1.804341E-2,6.697389E-2],"categories":[],"categories_nodes":[],"categories_segments":[],"categories_sizes":[],"default_left":[0,0,0,0,0,0,0,0,0,0,0],"id":106,"left_children":[1,3,-1,5,7,-1,9,-1,-1,-1,-1],"loss_changes":[3.1408935E0,2.0253801E0,0E0,3.9504814E-1,6.3598096E-1,0E0,5.1142693E-2,0E0,0E0,0E0,0E0],"parents":[2147483647,0,0,1,1,3,3,4,4,6,6],"right_children":[2,4,-1,6,8,-1,10,-1,-1,-1,-1],"split_conditions":[2.0276555E-1,2.3044363E-1,-4.682716E-2,2.2831801E-2,9.2388606E-1,-1.171136E-3,2E-2,-4.384133E-2,2.6808346E-2,1.804341E-2,6.697389E-2],"split_indices":[2,58,0,58,21,0,61,0,0,0,0],"split_type":[0,0,0,0,0,0,0,0,0,0,0],"sum_hessian":[2.0300673E1,1.2953703E1,7.3469696E0,8.863371E0,4.0903325E0,1.051212E0,7.812159E0,3.015763E0,1.0745695E0,1.1577461E0,6.6544127E0],"tree_param":{"num_deleted":"0","num_feature":"148","num_nodes":"11","size_leaf_vector":"1"}},{"base_weights":[-3.4053016E-3,5.37235E-1,-4.811034E-2,2.7777376E-3,6.1347093E-2],"categories":[],"categories_nodes":[],"categories_segments":[],"categories_sizes":[],"default_left":[0,0,0,0,0],"id":107,"left_children":[1,3,-1,-1,-1],"loss_changes":[5.3894906E0,3.6327744E-1,0E0,0E0,0E0],"parents":[2147483647,0,0,1,1],"right_children":[2,4,-1,-1,-1],"split_conditions":[8.4068656E-2,9.2032534E-1,-4.811034E-2,2.7777376E-3,6.1347093E-2],"split_indices":[2,5,0,0,0],"split_type":[0,0,0,0,0],"sum_hessian":[1.8867455E1,8.792175E0,1.0075279E1,1.3220093E0,7.470166E0],"tree_param":{"num_deleted":"0","num_feature":"148","num_nodes":"5","size_leaf_vector":"1"}},{"base_weights":[-2.3914702E-2,-4.7599047E-2,4.8097908E-1,-7.022819E-3,5.678759E-2],"categories":[],"categories_nodes":[],"categories_segments":[],"categories_sizes":[],"default_left":[0,0,0,0,0],"id":108,"left_children":[1,-1,3,-1,-1],"loss_changes":[4.429385E0,0E0,4.801104E-1,0E0,0E0],"parents":[2147483647,0,0,2,2],"right_children":[2,-1,4,-1,-1],"split_conditions":[7.449185E-1,-4.7599047E-2,8.2440877E-1,-7.022819E-3,5.678759E-2],"split_indices":[83,0,105,0,0],"split_type":[0,0,0,0,0],"sum_hessian":[1.7402802E1,9.211861E0,8.190942E0,1.1415626E0,7.0493793E0],"tree_param":{"num_deleted":"0","num_feature":"148","num_nodes":"5","size_leaf_vector":"1"}},{"base_weights":[-3.3630133E-3,3.448897E-1,-4.6748366E-2,5.4132843E-1,-3.58666E-2,1.8625043E-2,5.8304995E-2],"categories":[],"categories_nodes":[],"categories_segments":[],"categories_sizes":[],"default_left":[0,0,0,0,0,0,0],"id":109,"left_children":[1,3,-1,5,-1,-1,-1],"loss_changes":[3.2767944E0,1.7956786E0,0E0,3.1509638E-2,0E0,0E0,0E0],"parents":[2147483647,0,0,1,1,3,3],"right_children":[2,4,-1,6,-1,-1,-1],"split_conditions":[5.565771E-1,7.8789264E-1,-4.6748366E-2,4.9677584E-1,-3.58666E-2,1.8625043E-2,5.8304995E-2],"split_indices":[4,105,0,9,0,0,0],"split_type":[0,0,0,0,0,0,0],"sum_hessian":[1.8275753E1,1.0587971E1,7.687783E0,8.457223E0,2.130747E0,1.4637622E0,6.993461E0],"tree_param":{"num_deleted":"0","num_feature":"148","num_nodes":"7","size_leaf_vector":"1"}},{"base_weights":[4.1019623E-3,-4.400728E-2,1.6905664E-1,-2.6422995E-1,3.9379793E-1,2.6353264E-2,-4.2776734E-2,-2.9586209E-2,5.138033E-1,1.1957813E-3,5.7126445E-1,6.1307646E-2,2.0599797E-2],"categories":[],"categories_nodes":[],"categories_segments":[],"categories_sizes":[],"default_left":[0,0,0,0,0,0,0,0,0,0,0,0,0],"id":110,"left_children":[1,-1,3,5,7,-1,-1,-1,9,-1,11,-1,-1],"loss_changes":[1.5829563E0,0E0,1.6364008E0,6.282494E-1,1.0428107E0,0E0,0E0,0E0,2.6807857E-1,0E0,4.0216446E-3,0E0,0E0],"parents":[2147483647,0,0,2,2,3,3,4,4,8,8,10,10],"right_children":[2,-1,4,6,8,-1,-1,-1,10,-1,12,-1,-1],"split_conditions":[1.78515E-1,-4.400728E-2,5.374823E-1,2.6888173E-2,5.686302E-1,2.6353264E-2,-4.2776734E-2,-2.9586209E-2,1.9905214E-1,1.1957813E-3,8.283692E-1,6.1307646E-2,2.0599797E-2],"split_indices":[2,0,4,113,88,0,0,0,2,0,5,0,0],"split_type":[0,0,0,0,0,0,0,0,0,0,0,0,0],"sum_hessian":[1.9589407E1,4.8532314E0,1.4736176E1,4.972948E0,9.763227E0,1.0317774E0,3.9411707E0,1.2298695E0,8.533358E0,1.0008024E0,7.532555E0,6.150115E0,1.38244E0],"tree_param":{"num_deleted":"0","num_feature":"148","num_nodes":"13","size_leaf_vector":"1"}},{"base_weights":[5.8697583E-3,2.0803155E-1,-4.4820696E-2,-3.591394E-2,3.2796383E-1,4.041668E-1,-2.7729997E-2,4.671261E-1,-6.035497E-3,-8.191754E-3,5.445933E-1,9.47424E-3,6.0357507E-2],"categories":[],"categories_nodes":[],"categories_segments":[],"categories_sizes":[],"default_left":[0,0,0,0,0,0,0,0,0,0,0,0,0],"id":111,"left_children":[1,3,-1,-1,5,7,-1,9,-1,-1,11,-1,-1],"loss_changes":[1.9919062E0,1.137747E0,0E0,0E0,7.070606E-1,3.751793E-1,0E0,4.938743E-1,0E0,0E0,1.9189143E-1,0E0,0E0],"parents":[2147483647,0,0,1,1,4,4,5,5,7,7,10,10],"right_children":[2,4,-1,-1,6,8,-1,10,-1,-1,12,-1,-1],"split_conditions":[1.5345371E-1,1.2006319E-1,-4.4820696E-2,-3.591394E-2,8.9531505E-1,8.7663335E-1,-2.7729997E-2,9.178936E-2,-6.035497E-3,-8.191754E-3,5E-2,9.47424E-3,6.0357507E-2],"split_indices":[76,2,0,0,26,22,0,81,0,0,57,0,0],"split_type":[0,0,0,0,0,0,0,0,0,0,0,0,0],"sum_hessian":[1.968331E1,1.3994573E1,5.6887364E0,2.0945816E0,1.1899991E1,1.0864405E1,1.0355865E0,9.56271E0,1.3016953E0,1.1753124E0,8.387397E0,1.2743431E0,7.1130543E0],"tree_param":{"num_deleted":"0","num_feature":"148","num_nodes":"13","size_leaf_vector":"1"}},{"base_weights":[1.8260757E-2,-4.6846922E-2,2.9396462E-1,4.666926E-1,-3.748441E-2,-1.1970813E-2,5.559016E-1,6.1981775E-2,-2.763764E-4],"categories":[],"categories_nodes":[],"categories_segments":[],"categories_sizes":[],"default_left":[0,0,0,0,0,0,0,0,0],"id":112,"left_children":[1,-1,3,5,-1,-1,7,-1,-1],"loss_changes":[2.8644288E0,0E0,1.7444272E0,6.5468836E-1,0E0,0E0,3.5648966E-1,0E0,0E0],"parents":[2147483647,0,0,2,2,3,3,6,6],"right_children":[2,-1,4,6,-1,-1,8,-1,-1],"split_conditions":[5.6622523E-1,-4.6846922E-2,7.597716E-5,5.3487635E-1,-3.748441E-2,-1.1970813E-2,1.7535545E-1,6.1981775E-2,-2.763764E-4],"split_indices":[25,0,144,90,0,0,2,0,0],