tree
version=v4
num_class=6
num_tree_per_iteration=6
label_index=0
max_feature_idx=147
objective=multiclass num_class:6
feature_names=Column_0 Column_1 Column_2 Column_3 Column_4 Column_5 Column_6 Column_7 Column_8 Column_9 Column_10 Column_11 Column_12 Column_13 Column_14 Column_15 Column_16 Column_17 Column_18 Column_19 Column_20 Column_21 Column_22 Column_23 Column_24 Column_25 Column_26 Column_27 Column_28 Column_29 Column_30 Column_31 Column_32 Column_33 Column_34 Column_35 Column_36 Column_37 Column_38 Column_39 Column_40 Column_41 Column_42 Column_43 Column_44 Column_45 Column_46 Column_47 Column_48 Column_49 Column_50 Column_51 Column_52 Column_53 Column_54 Column_55 Column_56 Column_57 Column_58 Column_59 Column_60 Column_61 Column_62 Column_63 Column_64 Column_65 Column_66 Column_67 Column_68 Column_69 Column_70 Column_71 Column_72 Column_73 Column_74 Column_75 Column_76 Column_77 Column_78 Column_79 Column_80 Column_81 Column_82 Column_83 Column_84 Column_85 Column_86 Column_87 Column_88 Column_89 Column_90 Column_91 Column_92 Column_93 Column_94 Column_95 Column_96 Column_97 Column_98 Column_99 Column_100 Column_101 Column_102 Column_103 Column_104 Column_105 Column_106 Column_107 Column_108 Column_109 Column_110 Column_111 Column_112 Column_113 Column_114 Column_115 Column_116 Column_117 Column_118 Column_119 Column_120 Column_121 Column_122 Column_123 Column_124 Column_125 Column_126 Column_127 Column_128 Column_129 Column_130 Column_131 Column_132 Column_133 Column_134 Column_135 Column_136 Column_137 Column_138 Column_139 Column_140 Column_141 Column_142 Column_143 Column_144 Column_145 Column_146 Column_147
feature_infos=[0:0.99940476496228225] [0:1] [0:0.99956325138458124] [0:0.99938630309905374] [0:0.99717114568599707] [0:1] [0:1] [0.087333799860040529:1] [0:1] [0:0.92452556859336532] [0:1] [0:0.99940476496228225] [0:0.99940476496228225] [0:1] [0:1] [0:0.99956325138458124] [0:0.99956325138458124] [0:0.99942025209613383] [0:0.83377089997436549] [0:0.99942547652106306] [0:0.95342575350363612] [0:1] [0.013151567080457602:0.99774094757444476] [0:1] [0:1] [0:0.82781462549888496] [0:0.95880156994768317] [0:0.8366248059758461] [0:0.94161073667969908] [0:0.89165697588572035] [0:0.7650629138051378] [0:0.85036474202163059] [0:0.81346726188736085] [0:1] [0:1] [0:1] [0:0.99999999999999989] [0:1] [0:1] [0:1] [0:1] [0:1] [0:1] [0:1] [0:1] [0.087947882736152394:0.9804560260586257] [0.026578073089694954:0.97674418604650981] [0.083881578947369917:0.98519736842104066] [0.06478405315614566:0.97729789590254512] [0.087593721916590539:0.98699880951196661] [0.026737768496417402:0.97995769147320289] [0.083001254822860915:0.99197348956352016] [0.063782457564521167:0.98422632734649085] [0:1] [0:1] [0:1] [0:1] [0:1] [0:1] [0:1] [0:0.99166666666666692] [0:1] [0:1] [0:1] [0:1] [0:1] [0:1] [0:1] [0:1] [0:1] [0:0.99964187161146978] [0:1] [0:0.99963778169764683] [0:1] [0:0.82009511915976585] [0:0.99999999999999989] [0:0.99999999999999989] [0:1] [0.0057619047021364288:0.99999999999999978] [0:1] [0:0.99999999999999989] [0:1] [0:1] [0.01329418961442369:1] [0:1] [0:1] [0:0.97008104841418386] [0:1] [0:0.99999999999999989] [0:1] [0.051590550036289928:1] [0:1] [0:1] [0:1] [0:0.99999999999999989] [0:1] [0:1] [0:0.99948082270186012] [0:0.91000005000000006] [0:0.99759745876271233] [0:0.94238019348872493] [0:0.87465495033305674] [0:0.86842105263157909] [0:0.87324258983729219] [0:0.86438505303166613] [0:1] [0:1] [0:1] [0:0.99999999999999956] [0:1] [0:1] [0:1] [0:1] [0:1] [0:1] [0:1] [0:0.99999999999999989] [0.039682539682539764:1] [0.016000000000000014:1] [0.031872509960159334:0.99999999999999978] [0.025299600532623367:0.99999999999999978] [0:0.87735349754080372] [0:0.87735349754080372] [0:0.87735349754080372] [0:0.87735349754080372] [0:1] [0:1] [0:1] [0:1] [0:1] [0:1] [0:1] [0:0.99999999999999989] [0:0.84033050335066728] [0:0.87799589620753959] [0:0.7919942329405345] [0:0.8011351618367919] [0:0.72677595628415315] [0:1] [0:0.78612716763005808] [0:0.9495708154506437] [0:0.79166666666666663] [0:0.85009871921653912] [0:0.79166674999999986] [0:0.66666666666666663] [0:0.70208871798177075] [0:0.1069137109783363] [0:0.99956325138458124]
tree_sizes=555 660 650 649 657 663 1193 1189 1192 1293 1192 1203 1303 1201 1296 1193 1195 1307 1207 1306 1287 1189 1200 1208 1206 1199 1308 1409 1408 1097 1209 1289 1509 1511 1401 1317 1310 1303 1189 1524 1513 1304 1207 1204 1511 1404 1413 1210

Tree=0
num_leaves=4
num_cat=0
split_feature=83 106 2
split_gain=69.6287 24.9989 3.55271e-15
threshold=0.69051505839816485 0.81190584466538451 0.27646129541864145
decision_type=2 2 2
left_child=2 -2 -1
right_child=1 -3 -4
leaf_value=-1.9841118148481729 -1.7456350041874289 -0.7917277615444529 -1.9841118148481729
leaf_weight=10.902527719736105 1.6773119568824757 3.1868927180767059 5.1996670663356772
leaf_count=65 10 19 31
internal_value=-1.78379 -1.12066 -1.98411
internal_weight=20.9664 4.8642 16.1022
internal_count=125 29 96
is_linear=0
shrinkage=1


Tree=1
num_leaves=5
num_cat=0
split_feature=90 60 57 2
split_gain=49.7772 22.2632 2.14629 3.55271e-15
threshold=0.97294797302319869 1.0000000180025095e-35 0.83620568827249819 0.091007472357460303
decision_type=2 2 2 2
left_child=1 -1 3 -3
right_child=-2 2 -4 -5
leaf_value=-1.30274949867462 -0.79172776154445268 -1.9841118148481727 -1.7456350041874289 -1.9841118148481729
leaf_weight=2.3482367396354737 1.8450431525707234 4.1932798922061947 1.6773119568824757 10.902527719736097
leaf_count=14 11 25 10 65
internal_value=-1.78379 -1.87952 -1.96026 -1.98411
internal_weight=20.9664 19.1214 16.7731 15.0958
internal_count=125 114 100 90
is_linear=0
shrinkage=1


Tree=2
num_leaves=5
num_cat=0
split_feature=44 15 3 69
split_gain=22.0688 36.0378 9.55894 14.9608
threshold=0.023018318797220289 0.26698262243285947 0.25695667896468805 0.30108545186450625
decision_type=2 2 2 2
left_child=1 -1 3 -2
right_child=2 -3 -4 -5
leaf_value=-2.0309941501352387 -1.2418527897031524 -0.87949196093331683 -2.0309941501352391 -2.0309941501352387
leaf_weight=2.0966400802135494 1.7740800678730004 2.2579200863838196 11.934720456600187 2.0966400802135468
leaf_count=13 11 14 74 13
internal_value=-1.83258 -1.43392 -1.94242 -1.6693
internal_weight=20.16 4.35456 15.8054 3.87072
internal_count=125 27 98 24
is_linear=0
shrinkage=1


Tree=3
num_leaves=5
num_cat=0
split_feature=76 22 29 15
split_gain=20.0477 26.9124 9.09429 1.70341
threshold=0.15166213863695238 0.79034273941185018 0.44672069764514527 0.16666666666666669
decision_type=2 2 2 2
left_child=1 -1 -3 -4
right_child=-2 2 3 -5
leaf_value=-1.1055130387296428 -1.9841118148481729 -1.387919788196313 -1.9841118148481729 -1.7456350041874289
leaf_weight=3.1868927180767077 10.231602936983107 1.6773119568824766 4.193279892206192 1.6773119568824766
leaf_count=19 61 10 25 10
internal_value=-1.78379 -1.59286 -1.79863 -1.91598
internal_weight=20.9664 10.7348 7.5479 5.87059
internal_count=125 64 45 35
is_linear=0
shrinkage=1


Tree=4
num_leaves=5
num_cat=0
split_feature=126 18 1 1
split_gain=53.803 14.9105 4.33594 1.77636e-15
threshold=0.98886044556869923 0.37845055013260487 0.40983606557377056 0.0033504726063936035
decision_type=2 2 2 2
left_child=2 -2 3 -1
right_child=1 -3 -4 -5
leaf_value=-1.9841118148481727 -1.6263965988570568 -0.86625176487593547 -1.6589161639471584 -1.9841118148481729
leaf_weight=9.2252157628536278 1.6773119568824757 2.6836991310119629 1.8450431525707234 5.5351294577121726
leaf_count=55 10 16 11 33
internal_value=-1.78379 -1.15862 -1.94798 -1.98411
internal_weight=20.9664 4.36101 16.6054 14.7603
internal_count=125 26 99 88
is_linear=0
shrinkage=1


Tree=5
num_leaves=5
num_cat=0
split_feature=38 145 77 0
split_gain=49.1721 49.0982 0.530676 1.77636e-15
threshold=1.0000000180025095e-35 1.0000000180025095e-35 0.10701085942757775 0.61460033891963173
decision_type=2 2 2 2
left_child=2 -2 -1 -4
right_child=1 -3 3 -5
leaf_value=-1.8648734095178008 -1.9841118148481729 -0.7917277615444529 -1.9841118148481729 -1.9841118148481729
leaf_weight=1.6773119568824792 2.3482367396354666 3.3546239137649536 10.231602936983107 3.3546239137649527
leaf_count=10 14 20 61 20
internal_value=-1.78379 -1.28271 -1.97101 -1.98411
internal_weight=20.9664 5.70286 15.2635 13.5862
internal_count=125 34 91 81
is_linear=0
shrinkage=1


Tree=6
num_leaves=10
num_cat=0
split_feature=72 35 77 67 5 90 99 147 30
split_gain=33.898 3.23819 0.000954551 0.000459259 0.000330432 0.000402827 0.000234226 0.00027865 7.52827e-05
threshold=0.52339827219800816 0.0017027036463807641 0.63757679742213735 0.7150052309329803 0.92029732272603237 0.95017640320159347 0.39539485247529227 0.20932069510268567 0.51820207620099734
decision_type=2 2 2 2 2 2 2 2 2
left_child=2 -2 3 4 5 6 7 -1 -6
right_child=1 -3 -4 -5 8 -7 -8 -9 -10
leaf_value=-0.1948137139324882 0.15040367047045186 0.45121250562331228 -0.19634058932992196 -0.19400853326265333 -0.18757576679821958 -0.18799177547302132 -0.19048108497664965 -0.19098232925958544 -0.18955848493617758
leaf_weight=1.7703631520271321 2.057545192539691 4.7043503522872925 1.5116347968578328 1.7248353362083424 1.1853704005479815 1.2010283842682836 2.2252178266644478 1.329497657716274 2.1651991754770279
leaf_count=12 10 17 10 12 10 10 17 10 17
internal_value=-0.00405179 0.359681 -0.191613 -0.190997 -0.190472 -0.1913 -0.192047 -0.19317 -0.188857
internal_weight=19.875 6.7619 13.1131 11.6015 9.87668 6.52611 5.32508 3.09986 3.35057
internal_count=125 27 98 88 76 49 39 22 27
is_linear=0
shrinkage=0.2


Tree=7
num_leaves=10
num_cat=0
split_feature=4 107 98 96 98 92 7 61 7
split_gain=22.9512 20.9238 1.51789 0.0052038 0.000543565 0.000251013 0.000144614 0.00012261 4.61874e-05
threshold=0.57223945495336814 0.81320184448361943 0.18366017640839585 0.061689701069395024 0.33396148852885077 0.47623291813226393 0.57531961464765946 0.14768642946464425 0.54666319648177719
decision_type=2 2 2 2 2 2 2 2 2
left_child=1 2 -1 -2 7 -6 -7 -5 -3
right_child=3 8 -4 4 5 6 -8 -9 -10
leaf_value=0.36961130717127011 -0.20241099161666348 -0.19145024952823092 0.57414526403836652 -0.19457355879921046 -0.19226079606633487 -0.1879142635547211 -0.19034439167565004 -0.19204570508165156 -0.19302290073654638
leaf_weight=3.4648714214563388 2.1079382002353659 1.6015144437551501 2.497456893324852 1.7555268406867965 1.6490163952112196 1.6794972345232961 2.3501845300197601 1.3637147992849348 1.4000036567449567
leaf_count=13 13 12 11 12 12 14 18 10 10
internal_value=0.00138824 0.238482 0.455285 -0.193486 -0.191347 -0.190182 -0.189332 -0.193468 -0.192184
internal_weight=19.8697 8.96385 5.96233 10.9059 8.79794 5.6787 4.02968 3.11924 3.00152
internal_count=125 46 24 79 66 44 32 22 22
is_linear=0
shrinkage=0.2


Tree=8
num_leaves=10
num_cat=0
split_feature=42 20 46 116 104 58 64 4 52
split_gain=13.8758 5.91891 3.33331 2.58291 0.00151085 0.00072632 0.000164385 4.50655e-05 7.70253e-06
threshold=1.0000000180025095e-35 0.19979363422976559 0.61129568106311905 0.40117576322918153 0.35475678967269331 0.013300711525639828 0.20940288621232669 0.94827148738949318 0.66073062341142985
decision_type=2 2 2 2 2 2 2 2 2
left_child=2 -2 -1 4 -3 -6 -7 8 -8
right_child=1 3 -4 -5 5 6 7 -9 -10
leaf_value=0.46273965710434323 0.19495935067458095 -0.19592350562973346 0.10668673794057 0.043946737959566641 -0.19353092831244331 -0.1899618553232128 -0.18846720239135017 -0.18681443207195667 -0.18784360559451674
leaf_weight=2.5375951677560833 2.4160388559103003 1.7216989547014225 1.7961874380707739 2.3064250573515883 1.4287509918212871 2.3133579790592194 2.3322715014219288 1.1511465460062025 1.1999126225709913
leaf_count=10 13 12 10 13 10 18 19 10 10
internal_value=0.000259463 -0.0915218 0.315169 -0.1471 -0.190525 -0.189422 -0.188583 -0.187901 -0.188255
internal_weight=19.2034 14.8696 4.33378 12.4536 10.1471 8.42544 6.99669 4.68333 3.53218
internal_count=125 105 20 92 79 67 57 39 29
is_linear=0
shrinkage=0.2


Tree=9
num_leaves=11
num_cat=0
split_feature=90 99 87 25 25 118 89 133 134 0
split_gain=12.2197 6.4927 11.3085 2.18396 1.63257 0.0045438 0.000878035 0.000189719 8.1707e-05 1.17807e-05
threshold=0.46904306226038517 0.37412069253095431 0.65656054686583143 0.70790952375250416 0.37996302180418601 0.29004525359728295 0.49508479809691008 0.21997536851954322 0.7274150681615329 0.51910828025477718
decision_type=2 2 2 2 2 2 2 2 2 2
left_child=-1 2 -2 5 7 6 -3 -4 9 -8
right_child=1 3 4 -5 -6 -7 8 -9 -10 -11
leaf_value=0.47652737814206764 0.40689527050279123 -0.19526341239802936 -0.18883288168603243 0.072321692058584255 0.034159062062048808 -0.20149258329286623 -0.18879292767182856 -0.19209460690981156 -0.19116869803585701 -0.1896579567158202
leaf_weight=1.9808437824249292 2.8446439057588595 1.7891639471054057 1.4890967458486559 1.4320950284600247 2.3679708540439606 2.7709112241864204 1.2411990165710456 1.3691572993993757 1.3316394016146658 1.2783534824848173
leaf_count=9 13 12 12 9 12 18 10 10 10 10
internal_value=0.00515886 -0.0469621 0.0860083 -0.155989 -0.0886511 -0.19486 -0.191602 -0.190395 -0.189902 -0.189232
internal_weight=19.8951 17.9142 8.07087 9.84336 5.22622 8.41127 5.64036 2.85825 3.85119 2.51955
internal_count=125 116 47 69 34 60 42 22 30 20
is_linear=0
shrinkage=0.2


Tree=10
num_leaves=10
num_cat=0
split_feature=109 54 15 102 21 85 15 146 102
split_gain=23.6616 4.39106 2.37081 3.5237 0.00920995 0.000784138 0.000276475 5.61256e-05 4.34367e-05
threshold=0.75603711125498185 0.41448328357043318 0.13905432395265441 0.3711428293303673 0.91993894209608207 0.61064988041005808 0.26698262243285947 0.033985023574182885 0.51522598826623689
decision_type=2 2 2 2 2 2 2 2 2
left_child=2 -2 3 -1 5 -4 -7 -8 -9
right_child=1 -3 4 -5 -6 6 7 8 -10
leaf_value=0.24731915860766099 0.46241225185338869 0.12732624603051873 -0.19443694277360615 -0.19434971990826466 -0.20846252730286607 -0.19255943330391437 -0.19035485641148761 -0.18811703616887407 -0.18958651962224271
leaf_weight=1.3465328291058569 3.6230327785015097 2.7528706789016724 2.3187387958168966 1.5592189803719518 1.4403830617666233 1.5206494182348249 1.9519421011209486 1.328456796705723 2.0404910296201706
leaf_count=9 14 13 16 11 9 11 15 11 16
internal_value=0.000180595 0.317735 -0.149726 0.0103208 -0.193596 -0.191258 -0.190181 -0.189501 -0.189007
internal_weight=19.8823 6.3759 13.5064 2.90575 10.6007 9.16028 6.84154 5.32089 3.36895
internal_count=125 27 98 20 78 69 53 42 27
is_linear=0
shrinkage=0.2


Tree=11
num_leaves=10
num_cat=0
split_feature=147 0 68 147 140 138 14 19 45
split_gain=36.6327 1.35106 0.000785276 0.000375244 0.000236637 0.000140647 0.00011068 4.04644e-05 2.42895e-05
threshold=0.091007472357460303 0.40978770814491944 0.3902925046659465 0.22353870458135863 0.52451604223051307 0.64882814366908781 0.0095689936252298675 0.34716975471698125 0.5012594569533021
decision_type=2 2 2 2 2 2 2 2 2
left_child=1 -1 3 4 -2 -4 7 -5 -9
right_child=2 -3 5 6 -6 -7 -8 8 -10
leaf_value=0.2662453757913027 -0.19412348286755921 0.45682262183640354 -0.19293550189254474 -0.18867049238453826 -0.19089828023263331 -0.19571497907684698 -0.19131408666394434 -0.18921686423780423 -0.19031998686652055
leaf_weight=2.3237826079130199 1.5923986360430702 4.1369316279888153 1.4057269245386117 2.0974015742540359 2.1233734488487244 1.5109508931636808 1.4712677747011182 1.5092118680477145 1.6952643245458601
leaf_count=10 11 15 10 17 16 10 11 12 13
internal_value=-0.00293277 0.388276 -0.191473 -0.190665 -0.19228 -0.194375 -0.189779 -0.189353 -0.1898
internal_weight=19.8663 6.46071 13.4056 10.4889 3.71577 2.91668 6.77315 5.30188 3.20448
internal_count=125 25 100 80 27 20 53 42 25
is_linear=0
shrinkage=0.2


Tree=12
num_leaves=11
num_cat=0
split_feature=105 69 72 92 4 79 116 20 60 43
split_gain=21.8472 1.00637 0.00312843 0.000472031 0.000329027 0.000212225 0.000121002 6.8949e-05 4.92346e-05 7.64358e-06
threshold=0.82418866106097977 0.56816781439374264 0.48565848615730794 0.80743695498605561 0.51520509193776542 0.32810248163840933 0.33702710727201252 0.37178186995797058 0.1880624424242211 0.046698231529160368
decision_type=2 2 2 2 2 2 2 2 2 2
left_child=2 -2 3 5 -5 6 -1 -6 9 -8
right_child=1 -3 -4 4 7 -7 8 -9 -10 -11
leaf_value=-0.18484440290064219 0.16041124594737455 0.32231901536214619 -0.19567624278628193 -0.18394483569563708 -0.18908888551944927 -0.18655738905972724 -0.18168057112560612 -0.18703121776095838 -0.18383276076312358 -0.18249302072377116
leaf_weight=1.684889473021032 2.2873792275786391 4.6723959147930145 1.3132819905877102 1.0062966272234919 1.495867505669594 1.1345039159059522 0.90513385832309745 1.1538242474198339 1.0084810480475423 0.94866775721311569
leaf_count=16 12 16 9 10 12 10 10 10 10 10
internal_value=-0.0064657 0.269107 -0.186536 -0.185251 -0.187024 -0.18411 -0.1835 -0.188193 -0.182708 -0.182096
internal_weight=17.6107 6.95978 10.6509 9.33766 3.65599 5.68168 4.54717 2.64969 2.86228 1.8538
internal_count=125 28 97 88 32 56 46 22 30 20
is_linear=0
shrinkage=0.2


Tree=13
num_leaves=10
num_cat=0
split_feature=5 88 0 59 100 86 25 98 2
split_gain=14.4237 9.42772 0.00562933 0.0021276 0.000858054 0.000181606 0.000134782 7.23242e-05 6.54018e-05
threshold=0.18064209470609288 0.5147447773408419 0.23864526396513996 1.0000000180025095e-35 0.36620737088199778 0.75689282658064705 0.70790952375250416 0.35581164937012832 0.35679858516909196
decision_type=2 2 2 2 2 2 2 2 2
left_child=-1 -2 -3 -4 5 -5 7 -6 -9
right_child=1 2 3 4 6 -7 -8 8 -10
leaf_value=0.34354570035021048 0.18731866131453784 -0.20265935649132305 -0.19416207865645796 -0.18613662058576369 -0.18218396883077795 -0.18931277449192738 -0.18590192877543446 -0.18476546654251316 -0.18287349868398736
leaf_weight=3.8539461493492153 3.5876855850219718 0.93780345469713111 1.2396996393799771 1.2187340483069404 1.4933487549424169 1.7599630355834959 0.98676834255456913 1.5848853737115862 1.3562475293874738
leaf_count=13 18 6 9 11 16 14 9 15 14
internal_value=0.000493649 -0.0928414 -0.187867 -0.186428 -0.185286 -0.188013 -0.183788 -0.183317 -0.183893
internal_weight=18.0191 14.1651 10.5775 9.63965 8.39995 2.9787 5.42125 4.43448 2.94113
internal_count=125 112 94 88 79 25 54 45 29
is_linear=0
shrinkage=0.2


Tree=14
num_leaves=11
num_cat=0
split_feature=105 142 55 111 54 114 37 39 133 2
split_gain=7.60519 5.28875 3.84713 4.53284 1.33202 0.0101272 0.000344496 0.000108199 6.70238e-05 2.18521e-05
threshold=0.42307692307692274 0.75000000000000011 0.70486672905767211 0.42065625596150574 0.068285578124942362 0.35338374380449633 1.0000000180025095e-35 0.022559298891156276 0.53224593595470626 0.16666666666666669
decision_type=2 2 2 2 2 2 2 2 2 2
left_child=2 4 -1 -4 -2 6 8 9 -6 -8
right_child=1 -3 3 -5 5 -7 7 -9 -10 -11
leaf_value=0.31874961365788579 0.0097835694027320272 0.26331871767431653 -0.20040602105101801 0.2626844020628728 -0.18456959582770371 -0.2009204068022771 -0.18122645183843253 -0.18411259245638253 -0.18674040251795357 -0.18237661741060357
leaf_weight=3.4134325981140163 1.6548987179994563 1.3960784822702397 1.792513079941273 1.600268021225929 1.1361450552940371 1.7565755322575567 1.2393806129693992 1.2239665091037748 1.1395159363746641 1.4152394235134123
leaf_count=14 11 5 12 8 11 13 14 12 10 15
internal_value=0.00278498 -0.100319 0.168841 0.0180192 -0.153391 -0.187526 -0.183703 -0.182557 -0.185657 -0.18184
internal_weight=17.768 10.9618 6.80621 3.39278 9.56572 7.91082 6.15425 3.87859 2.27566 2.65462
internal_count=125 91 34 20 86 75 62 41 21 29
is_linear=0
shrinkage=0.2


Tree=15
num_leaves=10
num_cat=0
split_feature=76 33 131 133 120 43 80 76 42
split_gain=9.17095 7.31691 3.94694 2.9089 0.47805 0.000970568 0.000173272 0.000240439 6.14126e-05
threshold=0.15166213863695238 1.0000000180025095e-35 0.010184427313026687 0.54046475295402796 0.29665647799616013 0.50084110096477663 0.51208862732899207 0.19517940216532179 0.041501068810444429
decision_type=2 2 2 2 2 2 2 2 2
left_child=1 2 -1 -4 -3 6 7 -2 -8
right_child=5 4 3 -5 -6 -7 8 -9 -10
leaf_value=0.026503939668735377 -0.18335791656844758 -0.20751882711048719 0.14695756316077521 0.43682189167175878 -0.053926155124693467 -0.19158520415781632 -0.18281518694363252 -0.18736196103644198 -0.18462921977535118
leaf_weight=3.1742577105760592 0.9875922948122019 1.944068938493728 2.5279476642608643 3.0625157952308655 1.3902238830924032 0.91425561159849156 1.8312769904732706 1.5280632674694059 1.2601983919739721
leaf_count=18 10 12 11 11 12 7 19 13 12
internal_value=0.00563944 0.108687 0.204616 0.305748 -0.143479 -0.185543 -0.184558 -0.18579 -0.183555
internal_weight=18.6204 12.099 8.76472 5.59046 3.33429 6.52139 5.60713 2.51566 3.09148
internal_count=125 64 40 22 24 61 54 23 31
is_linear=0
shrinkage=0.2


Tree=16
num_leaves=10
num_cat=0
split_feature=110 1 18 111 44 12 90 68 106
split_gain=14.5975 5.22923 3.42477 0.0102587 0.000516311 0.000240139 0.000555596 0.000164795 3.53613e-05
threshold=0.76131917563760132 0.53014852136805368 0.37845055013260487 0.66951560601801552 0.15778081424264223 0.40438515151260707 0.95017640320159347 0.64916666666666678 0.81688090888042786
decision_type=2 2 2 2 2 2 2 2 2
left_child=1 3 -2 4 5 6 -1 8 -7
right_child=2 -3 -4 -5 -6 7 -8 -9 -10
leaf_value=-0.18804457719322876 0.036840123912180708 0.22830481846877812 0.33568811515699021 -0.20716720926358156 -0.18873788942708755 -0.18179830259910912 -0.18312717148956459 -0.18574123045978483 -0.18340206776458398
leaf_weight=2.2581200078129773 2.3381483852863303 1.3738362789154042 4.4592396020889282 0.988981172442437 1.801044203341007 0.91037759929895479 1.5498714596033094 1.1025493964552877 1.3889456167817114
leaf_count=19 12 8 15 6 15 10 16 10 14
internal_value=0.00101341 -0.137566 0.232891 -0.187831 -0.185709 -0.184952 -0.186043 -0.183731 -0.182767
internal_weight=18.1711 11.3737 6.79739 9.99989 9.01091 7.20986 3.80799 3.40187 2.29932
internal_count=125 98 27 90 84 69 35 34 24
is_linear=0
shrinkage=0.2


Tree=17
num_leaves=11
num_cat=0
split_feature=2 3 82 83 109 22 9 40 2 53
split_gain=22.6793 0.926389 0.000304375 0.000247261 0.000239662 0.000142257 0.000129632 8.53852e-05 6.69776e-05 5.45055e-06
threshold=0.091007472357460303 0.35919664552063862 0.67450918497233769 0.1382169506384974 0.29315487841382548 0.39924040880541251 0.35404896421845583 0.010292523857224657 0.16901726560736854 0.98000347570711865
decision_type=2 2 2 2 2 2 2 2 2 2
left_child=1 -1 3 8 7 9 -6 -5 -2 -4
right_child=2 -3 5 4 6 -7 -8 -9 -10 -11
leaf_value=0.18164242994491728 -0.18551895621073813 0.33354268086644956 -0.18253419486373257 -0.18722863748278759 -0.18665670540733403 -0.18571215057144305 -0.18378751157641948 -0.18945724776792033 -0.1832946986959062 -0.18319090487176773
leaf_weight=2.5259767621755627 1.0851874426007255 4.4093293994665146 0.9481612443923958 1.517536520957947 1.6963734775781634 1.0953539982438085 1.0018675699830053 1.257477670907974 1.0809244737029073 1.0829300209879873
leaf_count=10 10 15 10 13 15 10 10 10 11 11
internal_value=-0.00383798 0.278218 -0.185537 -0.186218 -0.186934 -0.183875 -0.185591 -0.188239 -0.184409 -0.182884
internal_weight=17.7011 6.93531 10.7658 7.63937 5.47326 3.12645 2.69824 2.77501 2.16611 2.03109
internal_count=125 25 100 69 48 31 25 23 21 21
is_linear=0
shrinkage=0.2


Tree=18
num_leaves=10
num_cat=0
split_feature=84 146 102 92 138 137 89 120 70
split_gain=14.6149 1.0744 0.000876 0.000368629 0.000335753 0.000190948 0.00014317 9.98299e-05 3.88489e-05
threshold=0.74242625152782449 0.066048708917195317 0.53195488721804518 0.80743695498605561 0.21923074561261138 0.50631195631347348 0.52517271463127602 0.27119406250688921 1.0000000180025095e-35
decision_type=2 2 2 2 2 2 2 2 2
left_child=2 -2 3 5 -5 6 -1 -6 -7
right_child=1 -3 -4 4 7 8 -8 -9 -10
leaf_value=-0.18268216691292349 0.094195482007198225 0.2687758600747806 -0.18700230481972813 -0.17919669698888202 -0.18268082960611248 -0.17936020565695243 -0.17967778397382356 -0.18542775246005996 -0.17753821127199426
leaf_weight=1.1411858573555931 2.0389421954751024 4.5715057253837585 1.1337438002228735 0.76364427059888873 1.0328731313347819 0.85553032159805287 1.4288390614092348 1.0852610915899275 1.033699035644531
leaf_count=12 11 17 10 10 11 11 18 10 15
internal_value=-0.00796697 0.214928 -0.181828 -0.181029 -0.182792 -0.17989 -0.181012 -0.184088 -0.178363
internal_weight=15.0852 6.61045 8.47478 7.34103 2.88178 4.45925 2.57002 2.11813 1.88923
internal_count=125 28 97 87 31 56 30 21 26
is_linear=0
shrinkage=0.2


Tree=19
num_leaves=11
num_cat=0
split_feature=5 87 60 10 3 65 92 58 56 21
split_gain=9.10447 8.56553 0.00802637 0.00382323 0.000620776 0.000189836 7.45276e-05 6.09857e-05 2.66116e-05 3.57417e-06
threshold=0.18064209470609288 0.53163787807846985 0.0025000000000000001 0.9533924216404418 0.35563770772780795 1.0000000180025095e-35 0.80743695498605561 0.29379733756803822 0.56114879500454562 0.83113013112986123
decision_type=2 2 2 2 2 2 2 2 2 2
left_child=-1 -2 -3 4 6 -6 -4 8 -7 -9
right_child=1 2 3 -5 5 7 -8 9 -10 -11
leaf_value=0.27528214732341988 0.19681821176043041 -0.20098996632860203 -0.18218361677868108 -0.1946464427834062 -0.1817455336905652 -0.17876556191311951 -0.18434074585592145 -0.17808969534688504 -0.1803666963264704 -0.17746572434388277
leaf_weight=3.664170354604722 3.1912665441632262 1.0865513607859592 1.0989201888442042 0.93591680377721775 1.1435227468609808 0.8297064006328585 1.5362958237528799 0.79150402545928933 0.83116640895605087 0.68499196320772171
leaf_count=13 15 8 12 7 13 11 15 11 10 10
internal_value=-0.000998799 -0.0844575 -0.184879 -0.18265 -0.181026 -0.17954 -0.183441 -0.178735 -0.179567 -0.1778
internal_weight=15.794 12.1298 8.93858 7.85202 6.91611 4.28089 2.63522 3.13737 1.66087 1.4765
internal_count=125 112 97 89 82 55 27 42 21 21
is_linear=0
shrinkage=0.2


Tree=20
num_leaves=11
num_cat=0
split_feature=90 7 15 3 62 68 62 54 146 18
split_gain=4.75948 4.19707 4.67854 1.49109 2.21666 1.31759 0.0053713 0.000315875 7.52311e-05 3.38369e-06
threshold=0.76729123625799511 0.86018194541637538 0.19352290679304898 0.25695667896468805 0.018179837348872834 0.15669850080356454 0.02454193053840301 0.98981684757019572 0.07600421185433294 0.37664378277819149
decision_type=2 2 2 2 2 2 2 2 2 2
left_child=5 2 -2 -4 -5 -1 -7 8 9 -8
right_child=1 -3 3 4 -6 6 7 -9 -10 -11
leaf_value=0.032361322372873882 -0.11196592793404002 -0.18904776998938722 0.39550010713657091 0.3057115098522411 0.01665892695605228 -0.19368255534648571 -0.17703744402642463 -0.18281539794244003 -0.17955851469337658 -0.17763106486583824
leaf_weight=1.4769794419407869 2.0180065780878049 1.7622919753193844 1.7477504611015318 2.3714514672756195 1.9207461401820181 1.5050219744443891 0.85943254083395071 0.76002477109432209 0.95473550260066975 0.69444325566291809
leaf_count=11 16 16 6 8 13 12 13 8 12 10
internal_value=0.00370401 0.0905382 0.151684 0.239772 0.176361 -0.132719 -0.183796 -0.179243 -0.178161 -0.177303
internal_weight=16.0709 9.82025 8.05795 6.03995 4.2922 6.25064 4.77366 3.26864 2.50861 1.55388
internal_count=125 59 43 27 21 66 55 43 35 23
is_linear=0
shrinkage=0.2


Tree=21
num_leaves=10
num_cat=0
split_feature=73 8 116 131 68 64 75 68 8
split_gain=6.38053 5.41464 3.35074 2.69933 0.482101 0.00123424 0.000137802 0.000124471 6.55251e-05
threshold=0.1494874165471228 0.57569391186602048 0.33702710727201252 0.010184427313026687 0.46479883549221584 0.038333333333333337 0.18922675623799159 0.37211773395515246 0.8463394633702056
decision_type=2 2 2 2 2 2 2 2 2
left_child=1 3 -3 -1 -4 -2 -7 8 -8
right_child=5 2 4 -5 -6 6 7 -9 -10
leaf_value=0.036773370379638258 -0.18820700093736561 0.17374371270252587 -0.21053870216958354 0.31129146362132726 -0.062789385710469506 -0.18247270234004576 -0.17815421623593691 -0.18190368797876086 -0.18047659566348231
leaf_weight=2.2091743573546427 1.0451543629169453 1.7614287957549093 2.5242311879992489 4.0767362639307976 1.3589600622653959 1.025772921741009 1.3709682151675231 0.80062424391508091 0.75280438363552082
leaf_count=14 10 9 15 16 13 11 19 9 9
internal_value=0.00767629 0.0871338 -0.0550506 0.214812 -0.158832 -0.182095 -0.180478 -0.179779 -0.178977
internal_weight=16.9259 11.9305 5.64462 6.28591 3.88319 4.99532 3.95017 2.9244 2.12377
internal_count=125 67 37 30 28 58 48 37 28
is_linear=0
shrinkage=0.2


Tree=22
num_leaves=10
num_cat=0
split_feature=110 13 77 125 2 91 10 146 105
split_gain=9.47525 3.78407 2.18845 0.00396006 0.000527806 0.000155836 9.68244e-05 0.00016905 2.78272e-05
threshold=0.76131917563760132 0.53014852136805368 0.10701085942757775 0.76445084372214411 0.20932069510268567 0.50100903003878372 0.58457673568818525 0.066048708917195317 0.56827278304790119
decision_type=2 2 2 2 2 2 2 2 2
left_child=1 3 -2 4 -1 -6 8 -8 -7
right_child=2 -3 -4 -5 5 6 7 -9 -10
leaf_value=-0.18472370669629845 0.0064850689362640785 0.15576038984099033 0.26108707811349507 -0.19504382876437043 -0.18222175663454379 -0.17758669196317267 -0.1818637717264171 -0.17856649706879668 -0.17926792947426792
leaf_weight=1.3985871523618714 1.9093379825353611 1.5836655795574186 4.6133964359760284 0.94530440121889103 1.3804137632250784 0.68274808675050713 1.5390875190496447 1.0437562763690946 0.93047484010457993
leaf_count=14 10 8 17 8 15 10 17 14 12
internal_value=0.000932683 -0.126465 0.18656 -0.182896 -0.18125 -0.180378 -0.179772 -0.180531 -0.178556
internal_weight=16.0268 9.50404 6.52273 7.92037 6.97507 5.57648 4.19607 2.58284 1.61322
internal_count=125 98 27 90 82 68 53 31 22
is_linear=0
shrinkage=0.2


Tree=23
num_leaves=10
num_cat=0
split_feature=4 114 9 58 1 65 119 106 4
split_gain=13.0233 2.76558 0.000266641 0.000150147 0.000163281 5.92263e-05 7.16303e-05 4.33271e-05 1.31389e-06
threshold=0.88265431657547866 0.35310759444620116 0.11324187431796655 0.013300711525639828 0.0033504726063936035 0.12151219231094736 0.15620542559909448 0.57569583016590997 0.71039603960396047
decision_type=2 2 2 2 2 2 2 2 2
left_child=2 -2 -1 -4 5 6 -5 -6 -7
right_child=1 -3 3 4 7 8 -8 -9 -10
leaf_value=-0.18354422283795899 0.27090799515258007 0.0034010423181140936 -0.18232102849609699 -0.18124302774686113 -0.18235864764699289 -0.17820174775621961 -0.17857516739729343 -0.18041159346958291 -0.17855147507239705
leaf_weight=1.3592257052659986 5.0486798584461212 2.2281230613589287 1.3843166083097456 0.88137825578451179 1.0242109969258306 1.0168025121092794 0.74100760370492935 0.82570939511060704 0.74418327957391728
leaf_count=14 18 13 15 10 11 14 10 10 10
internal_value=-0.00448705 0.188999 -0.180993 -0.180469 -0.179979 -0.179153 -0.180025 -0.18149 -0.17835
internal_weight=15.2536 7.2768 7.97683 6.61761 5.23329 3.38337 1.62239 1.84992 1.76099
internal_count=125 31 94 80 65 44 20 21 24
is_linear=0
shrinkage=0.2


Tree=24
num_leaves=10
num_cat=0
split_feature=105 69 84 137 137 26 9 100 121
split_gain=11.1557 0.438005 0.00313367 0.000212178 0.000127344 0.00017385 0.000159746 6.00725e-05 3.78937e-05
threshold=0.82418866106097977 0.56816781439374264 0.88550712091828565 0.50631195631347348 0.13661202185792351 0.5977715991523701 0.12612743177621541 0.37670623476164705 0.42446398692962967
decision_type=2 2 2 2 2 2 2 2 2
left_child=2 -2 3 4 -1 -6 -7 -5 -8
right_child=1 -3 -4 7 5 6 8 -9 -10
leaf_value=-0.17633016863715306 0.12296039084943147 0.23917440715806337 -0.19248373457171641 -0.17754041063488016 -0.18155684107771275 -0.18065449733667988 -0.17663717275275787 -0.17513889969177848 -0.17840815500740281
leaf_weight=0.7172623686492442 1.9954538643360136 3.7074793130159378 0.6668872758746146 0.72393878176808335 0.96390864998102221 0.90005519986152682 1.074129346758127 0.98155448585748672 0.87857568636536587
leaf_count=12 12 16 5 11 11 11 17 18 12
internal_value=-0.00850647 0.198511 -0.179453 -0.17806 -0.178775 -0.179235 -0.17845 -0.176158 -0.177434
internal_weight=12.6092 5.70293 6.90631 6.23942 4.53393 3.81667 2.85276 1.70549 1.95271
internal_count=125 28 97 92 63 51 40 29 29
is_linear=0
shrinkage=0.2


Tree=25
num_leaves=10
num_cat=0
split_feature=4 106 82 77 55 5 4 97 100
split_gain=7.65449 5.47039 0.364514 0.00217759 0.000854119 0.000419257 0.000119281 8.7539e-05 3.09925e-05
threshold=0.57223945495336814 0.80581863656196373 0.56664726218419526 0.66685311450587081 0.92436531651297782 0.92029732272603237 0.81612446958981621 0.39491714652910603 0.38314613637858091
decision_type=2 2 2 2 2 2 2 2 2
left_child=1 2 -1 -3 5 6 7 -2 -7
right_child=4 3 -4 -5 -6 8 -8 -9 -10
leaf_value=0.27247722226780352 -0.17972069745231142 -0.19265911105822911 0.17315115203271114 -0.17805268785997597 -0.18488800984010406 -0.17464899155149161 -0.18118518429329755 -0.17713861812370879 -0.17650941696656947
leaf_weight=2.6781485378742218 1.2627551890909678 0.64296570420265187 3.2977260649204254 1.1184898503124712 0.93097047135233868 0.8359933942556379 1.1262055113911627 0.89917779341340054 0.62665661796927452
leaf_count=10 16 5 14 17 10 16 13 14 10
internal_value=-0.00307766 0.126364 0.217665 -0.183384 -0.179349 -0.178263 -0.179516 -0.178647 -0.175446
internal_weight=13.4191 7.73733 5.97587 1.76146 5.68176 4.75079 3.28814 2.16193 1.46265
internal_count=125 46 24 22 79 69 43 30 26
is_linear=0
shrinkage=0.2


Tree=26
num_leaves=11
num_cat=0
split_feature=42 105 5 130 44 114 60 18 67 20
split_gain=3.83572 2.68051 1.18924 1.06156 0.802114 0.00418366 0.000256769 0.000161365 4.43557e-05 1.30408e-05
threshold=1.0000000180025095e-35 0.42307692307692274 0.65448664832048209 0.08844663590013388 0.014571356902337155 0.35338374380449633 0.016828825326630173 0.37359735966726543 0.35863848556896671 0.43869778264990883
decision_type=2 2 2 2 2 2 2 2 2 2
left_child=3 2 -2 -1 -3 6 -6 -8 -9 -10
right_child=1 4 -4 -5 5 -7 7 8 9 -11
leaf_value=0.032802825671576157 0.13644936010481287 0.082914801501295224 -0.086529507773653591 0.23747352775326935 -0.18036439237956114 -0.19060901502900171 -0.17873666967047583 -0.17663039811804357 -0.17420918143911673 -0.17534172749142118
leaf_weight=1.6330491155385978 2.6376837193965894 0.50992838293313969 1.5013392344117162 2.6726056113839149 0.73392227664589915 1.167163126170635 0.77521710097789798 0.8180278763175014 0.74487416818737961 0.89571825042366982
leaf_count=9 13 4 12 11 9 12 11 13 15 16
internal_value=0.00254147 -0.0666846 0.0555687 0.159846 -0.156325 -0.180083 -0.176987 -0.176221 -0.175427 -0.174828
internal_weight=14.0895 9.78387 4.13902 4.30565 5.64485 5.13492 3.96776 3.23384 2.45862 1.64059
internal_count=125 105 25 20 80 76 64 55 44 31
is_linear=0
shrinkage=0.2


Tree=27
num_leaves=12
num_cat=0
split_feature=33 21 74 138 10 114 78 138 44 26 0
split_gain=3.97238 4.1795 2.41003 2.36768 0.758764 0.00967485 0.000588496 0.000567975 0.000487951 5.78567e-05 4.8409e-05
threshold=1.0000000180025095e-35 0.68883623463563126 0.10688514882583804 0.6607142857142857 0.78350404957684017 0.36500563349354037 0.43012929056985022 0.67821026092931325 0.096331895583122787 0.19529621744957618 0.52767234978372335
decision_type=2 2 2 2 2 2 2 2 2 2 2
left_child=1 6 3 -3 5 7 -1 10 -9 -8 -2
right_child=4 2 -4 -5 -6 -7 9 8 -10 -11 -12
leaf_value=-0.18419819297288142 -0.17723614302594859 0.15454318023478811 0.2643407698304544 -0.13265046059940089 0.028125022213373898 -0.20362255912282623 -0.17553900403602629 -0.17816770095329534 -0.18499489943315356 -0.17819697079192062 -0.17478663706917297
leaf_weight=0.71228872984647695 0.65370431542396701 3.0843584686517698 3.5252863466739655 1.8292274847626684 0.8154647797346114 0.82866545021533955 0.56083341687917687 0.83076944574713685 0.84432720392942429 0.78761935606598854 0.63739241287112236
leaf_count=8 10 15 13 13 8 5 10 12 8 11 12
internal_value=0.00785004 0.0758022 0.138158 0.0476269 -0.146905 -0.184517 -0.179548 -0.179179 -0.181609 -0.177091 -0.176027
internal_weight=15.1099 10.4996 8.43887 4.91359 4.61032 3.79486 2.06074 2.96619 1.6751 1.34845 1.2911
internal_count=125 70 41 28 55 47 29 42 20 21 22
is_linear=0
shrinkage=0.2


Tree=28
num_leaves=12
num_cat=0
split_feature=26 109 35 47 109 146 15 91 82 77 78
split_gain=7.04941 2.43611 2.09187 1.32164 0.0145308 0.00486517 0.000228498 0.000128665 7.81721e-05 5.73878e-05 1.12283e-06
threshold=0.81125413842556915 0.75603711125498185 0.061224489795918373 0.64884868421052044 0.66948434703034143 0.096741792598842247 0.20932069510268567 0.50100903003878372 0.90815028813566501 0.53137988549075543 0.78137612496045727
decision_type=2 2 2 2 2 2 2 2 2 2 2
left_child=2 -2 4 -3 5 6 -1 -8 9 -9 -11
right_child=1 3 -4 -5 -6 -7 7 8 -10 10 -12
leaf_value=-0.18065911650607325 -0.071289795719580717 0.078983560151125135 0.1143810218371081 0.28472063720735874 -0.20985314219409551 -0.19552832225201505 -0.17926399979940236 -0.17703412970719146 -0.17851687464410426 -0.17477955634814549 -0.17516920829327098
leaf_weight=0.9107132852077483 1.594977907836437 1.960914760828018 1.1148752421140669 3.4399658292531967 0.76169347763061512 0.72110755741596211 0.84743113443255458 0.96869053691625673 0.5743250511586665 0.63695975765585877 0.55232537537813187
leaf_count=12 18 10 6 13 5 5 11 15 8 12 10
internal_value=0.00346102 0.145887 -0.137111 0.210023 -0.184051 -0.180279 -0.177831 -0.177111 -0.176443 -0.175891 -0.174961
internal_weight=14.084 6.99586 7.08812 5.40088 5.97325 5.21155 4.49045 3.57973 2.7323 2.15798 1.18929
internal_count=125 41 84 23 78 73 68 56 45 37 22
is_linear=0
shrinkage=0.2


Tree=29
num_leaves=9
num_cat=0
split_feature=15 3 9 41 41 15 1 64
split_gain=10.8956 0.848855 0.000281853 0.000193899 0.000142078 5.42464e-05 5.50975e-05 5.05837e-05
threshold=0.091007472357460303 0.35919664552063862 0.11324187431796655 0.91667909956836591 0.1294791624693139 0.43838862559241709 0.0033504726063936035 0.15724851921175195
decision_type=2 2 2 2 2 2 2 2
left_child=1 -1 -2 4 5 6 7 -4
right_child=2 -3 3 -5 -6 -7 -8 -9
leaf_value=0.099496354466402939 -0.18071019000265789 0.25183890141763915 -0.17737239640034566 -0.18051303662931739 -0.17489362045738749 -0.17883579161399496 -0.17808185168931095 -0.1750593962220581
leaf_weight=2.4527502208948135 1.3104870319366453 3.6256699711084366 0.81030368804931707 0.7169174551963805 1.0209547244012354 0.97751489281654347 1.2592354603111742 0.70921432226896286
leaf_count=10 16 15 12 9 19 13 18 13
internal_value=-0.00423868 0.190366 -0.178075 -0.177446 -0.176986 -0.177554 -0.177104 -0.176293
internal_weight=12.883 6.07842 6.80463 5.49414 4.77722 3.75627 2.77875 1.51952
internal_count=125 25 100 84 75 56 43 25
is_linear=0
shrinkage=0.2


Tree=30
num_leaves=10
num_cat=0
split_feature=70 106 106 99 138 86 61 21 5
split_gain=7.45813 0.573286 0.000579317 0.000218082 9.90474e-05 6.33005e-05 4.00388e-05 3.55883e-05 2.90502e-05
threshold=0.4783578179374704 0.81688090888042786 0.85394624271265729 0.37412069253095431 0.32537203417523358 0.75689282658064705 0.51243142355742421 0.79970495644817507 0.92029732272603237
decision_type=2 2 2 2 2 2 2 2 2
left_child=2 -2 3 4 6 -6 -1 -5 -9
right_child=1 -3 -4 7 5 -7 -8 8 -10
leaf_value=-0.17377124059207222 0.076730428229813075 0.21645079212120405 -0.18188475506076041 -0.17506620890354285 -0.17644144460447034 -0.1789325832515663 -0.17627207541733711 -0.17414815211156229 -0.17229727059310274
leaf_weight=0.49367555603384994 1.8823314718902109 3.1244703233242035 0.63015776127576817 0.65574297308921847 0.89875849708914735 0.74723229929804802 0.53207045421004295 0.71705412492156007 0.64368892833590508
leaf_count=11 13 16 7 12 15 10 9 15 17
internal_value=-0.0112662 0.163922 -0.176191 -0.175426 -0.176611 -0.177572 -0.175068 -0.173856 -0.173273
internal_weight=10.3252 5.0068 5.31838 4.68822 2.67174 1.64599 1.02575 2.01649 1.36074
internal_count=125 29 96 89 45 25 20 44 32
is_linear=0
shrinkage=0.2


Tree=31
num_leaves=11
num_cat=0
split_feature=56 69 86 86 23 53 0 143 0 56
split_gain=4.9313 3.3408 0.700118 1.24983 0.0119309 0.000393421 0.00016617 6.60113e-05 5.56226e-05 3.86142e-06
threshold=0.71656298965127829 0.14640166394914136 0.52853375532454094 0.94712693082621813 0.2270466227787856 0.58440471191112564 0.38535031847133761 0.53587498021391788 0.40978770814491944 0.56114879500454562
decision_type=2 2 2 2 2 2 2 2 2 2
left_child=4 5 -3 -4 -1 -2 -6 8 -8 -10
right_child=1 2 3 -5 6 -7 7 -9 9 -11
leaf_value=-0.20601938201457126 -0.174051401192439 0.25207042158330289 -0.022664925694852033 0.21889440139464114 -0.17715681630851607 -0.18094735889575272 -0.174994431146936 -0.17635760392577682 -0.17317577492070979 -0.17238295480101817
leaf_weight=0.59180368483066548 0.5281640440225599 2.2427093386650085 1.5772405527532103 1.87561459839344 1.2265416495501997 0.88613731786608696 0.7527539320290092 0.47235870733857144 0.42813181132078149 0.57677529752254486
leaf_count=4 12 9 14 9 19 11 14 8 10 15
internal_value=-0.00358041 0.0967476 0.165064 0.108552 -0.17978 -0.178372 -0.175287 -0.174259 -0.173694 -0.172721
internal_weight=11.1582 7.10987 5.69556 3.45286 4.04837 1.4143 3.45656 2.23002 1.75766 1.00491
internal_count=125 55 32 23 70 23 66 47 39 25
is_linear=0
shrinkage=0.2


Tree=32
num_leaves=13
num_cat=0
split_feature=15 56 121 57 3 61 15 101 63 125 19 35
split_gain=2.91158 2.5568 2.25038 0.992736 1.45399 1.16997 0.00480766 0.00155902 0.000342343 0.000327999 5.47661e-05 1.82209e-05
threshold=0.16901726560736854 0.66443035927891503 0.2783133900894762 1.0000000180025095e-35 0.28071638632431711 1.0000000180025095e-35 0.28205489906482489 0.35459407600822995 0.11036745448031361 0.24911671184753534 0.40188274979376487 0.020403375249555687
decision_type=2 2 2 2 2 2 2 2 2 2 2 2
left_child=7 3 -3 -2 -5 -6 -4 -1 -9 -8 11 -10
right_child=1 2 6 4 5 -7 9 8 10 -11 -12 -13
leaf_value=-0.18624948511927431 0.24597040882603008 0.11640389105367364 -0.19563073158199129 0.23837440280401001 0.12217325233917498 -0.1827587661976032 -0.17524938147244562 -0.17937437182332133 -0.1720591172802162 -0.18149815100029529 -0.17552572090167162 -0.17387264826692139
leaf_weight=0.73434160649776581 2.2804297655820829 1.6596704311668871 1.0358477607369425 1.3132360279560091 0.99462183564901385 1.0188701711595056 0.8603546582162378 0.61116791889071453 0.54526164755225159 0.55131484568119049 0.43244918435811996 0.3733358196914196
leaf_count=7 9 13 8 5 5 16 16 8 15 7 8 8
internal_value=0.00547449 0.0565121 -0.0633745 0.144328 0.0746531 -0.0321289 -0.185283 -0.178389 -0.175447 -0.17769 -0.17367 -0.172796
internal_weight=12.4109 9.71435 4.10719 5.60716 3.32673 2.01349 2.44752 2.69656 1.96221 1.41167 1.35105 0.918597
internal_count=125 79 44 35 26 21 31 46 39 23 31 23
is_linear=0
shrinkage=0.2


Tree=33
num_leaves=13
num_cat=0
split_feature=21 16 66 61 99 34 93 9 68 0 123 77
split_gain=2.96242 3.24214 2.66901 2.57919 1.70456 0.00426389 0.000607677 0.000128125 7.39156e-05 4.02094e-05 1.85119e-05 2.0483e-06
threshold=0.68883623463563126 0.091007472357460303 0.023462489557661535 0.022780012277331754 0.47730190663022459 1.0000000180025095e-35 0.30433070763012776 0.8467640681210179 0.3902925046659465 0.41613894564484016 0.29164397854396545 0.71955362967742642
decision_type=2 2 2 2 2 2 2 2 2 2 2 2
left_child=6 5 3 -3 -5 -2 -1 8 10 -7 -8 -12
right_child=1 2 -4 4 -6 9 7 -9 -10 -11 11 -13
leaf_value=-0.18345621999290426 -0.19546407203453375 0.19419723394241672 0.25248675617090804 -0.19442516824371051 0.10673983001194376 -0.17704980458118469 -0.17431660246919695 -0.1775038475407672 -0.17606445469253795 -0.17463912877229648 -0.17235419998434609 -0.17299464689674129
leaf_weight=0.39341092854738358 0.7408747673034658 2.1269472539424878 3.2161436304450035 2.1338480003178124 1.1605944931507108 0.56173646450042702 0.42981795966625236 0.59608854353427876 0.54005552083253849 0.54555569216609001 0.38153713941574097 0.41924052312970161
leaf_count=5 5 9 13 19 7 9 9 9 9 11 10 10
internal_value=0.00817367 0.0567004 0.108143 0.0225136 -0.0883282 -0.18372 -0.176178 -0.174968 -0.174114 -0.175862 -0.173258 -0.17269
internal_weight=13.2459 10.4857 8.63753 5.42139 3.29444 1.84817 2.76015 2.36674 1.77065 1.10729 1.2306 0.800778
internal_count=125 73 48 35 26 25 52 47 38 20 29 20
is_linear=0
shrinkage=0.2


Tree=34
num_leaves=12
num_cat=0
split_feature=26 84 68 33 110 1 2 68 9 24 138
split_gain=5.03284 2.11907 2.17623 1.74305 0.00616872 0.00288993 0.000163917 6.00764e-05 7.7308e-05 4.13398e-05 3.06972e-06
threshold=0.81125413842556915 0.12621076261907319 0.27924548216556105 0.22727272727272732 0.67395656433484541 0.53014852136805368 0.22353870458135863 0.3902925046659465 0.8467640681210179 0.55171969640817986 0.2097021544529426
decision_type=2 2 2 2 2 2 2 2 2 2 2
left_child=3 2 -2 4 5 6 -1 8 9 10 -8
right_child=1 -3 -4 -5 -6 -7 7 -9 -10 -11 -12
leaf_value=-0.17760160297538413 0.15952643564362834 0.24006887036663846 -0.18838480275959837 0.10051920598434139 -0.19889501688017899 -0.19113464224648058 -0.17311344644130133 -0.17621949861719621 -0.17641986253532219 -0.17493218140924316 -0.1724230865535562
leaf_weight=0.98767863214015994 1.6284752674400809 3.2880090698599815 1.2879446335136888 1.0855135470628736 0.61376595497131337 0.5358079969882964 0.42344048246741317 0.67051818966865528 0.42503557726740826 0.47475916892290104 0.65797092393040657
leaf_count=16 9 17 15 5 5 4 10 11 7 9 17
internal_value=0.00436902 0.129988 0.00588244 -0.128306 -0.180173 -0.177421 -0.175402 -0.174583 -0.174029 -0.173376 -0.172693
internal_weight=12.0789 6.20443 2.91642 5.87449 4.78898 4.17521 3.6394 2.65172 1.98121 1.55617 1.08141
internal_count=125 41 24 84 79 74 70 54 43 36 27
is_linear=0
shrinkage=0.2


Tree=35
num_leaves=11
num_cat=0
split_feature=15 86 4 18 137 57 10 77 87 68
split_gain=7.5338 1.00269 0.000219289 9.25223e-05 0.000113846 7.5169e-05 3.35384e-05 2.13876e-05 2.08803e-05 1.05544e-05
threshold=0.091007472357460303 0.64653155300747345 0.86315417256011329 0.40589886639155404 0.21038251366120223 0.011536038317175286 0.91848588775855744 0.34199341424792801 0.53163787807846985 0.15090500643197993
decision_type=2 2 2 2 2 2 2 2 2 2
left_child=1 -1 3 4 6 8 -2 -6 -5 -7
right_child=2 -3 -4 5 7 9 -8 -9 -10 -11
leaf_value=0.22985198780618582 -0.17336161139895853 0.052522714288741217 -0.17897465777999655 -0.17611060891891656 -0.17796793456175819 -0.17370685424151736 -0.17555305817176467 -0.17633281963455627 -0.17435533616777235 -0.17249317132900041
leaf_weight=3.263841524720192 0.56889829412102721 2.0936131030321121 0.64822766557335842 0.60330232977867149 0.67963144183158852 0.50353823602199532 0.54884105548262596 0.60467037186026573 0.49228945374488831 0.66525466740131378
leaf_count=16 13 9 9 10 10 11 10 10 10 17
internal_value=-0.00681276 0.160554 -0.175528 -0.175049 -0.175914 -0.174132 -0.174438 -0.177198 -0.175322 -0.173016
internal_weight=10.6721 5.35745 5.31465 4.66643 2.40204 2.26438 1.11774 1.2843 1.09559 1.16879
internal_count=125 25 100 91 43 48 23 20 20 28
is_linear=0
shrinkage=0.2


Tree=36
num_leaves=11
num_cat=0
split_feature=105 24 81 5 137 3 2 66 73 6
split_gain=5.84923 0.360319 0.0014091 9.15894e-05 5.38501e-05 6.14163e-05 6.615e-05 4.94034e-05 3.09944e-05 1.42846e-05
threshold=0.82418866106097977 0.37461491721666196 0.83573769264994313 0.92029732272603237 0.13661202185792351 0.31479538300104942 0.20932069510268567 0.33400569802724905 0.1494874165471228 0.0021008140096122154
decision_type=2 2 2 2 2 2 2 2 2 2
left_child=2 -2 3 4 -1 6 -6 9 -5 -7
right_child=1 -3 -4 8 5 7 -8 -9 -10 -11
leaf_value=-0.1719557752801098 0.2046929743851493 0.078457895040963094 -0.18490873978231154 -0.17068746671702728 -0.17673084188078636 -0.17350677156996264 -0.1736105732389879 -0.17522965485630929 -0.17324651914357012 -0.17197598458038349
leaf_weight=0.41456775553524572 2.6214486211538315 1.380890544503927 0.49499054253101338 0.49531554803252209 0.69369192048907302 0.48283051140606381 0.44683137163519859 0.47007152996957302 0.30643943697214127 0.49261546693742275
leaf_count=12 17 11 5 18 11 11 10 9 7 14
internal_value=-0.0128378 0.161139 -0.174871 -0.173564 -0.174072 -0.174411 -0.175508 -0.173545 -0.171666 -0.172734
internal_weight=8.29969 4.00234 4.29735 3.80236 3.00061 2.58604 1.14052 1.44552 0.801755 0.975446
internal_count=125 28 97 92 67 55 21 34 25 25
is_linear=0
shrinkage=0.2


Tree=37
num_leaves=11
num_cat=0
split_feature=56 2 87 134 30 66 96 146 113 8
split_gain=3.61139 2.6486 0.415436 0.708236 0.00543685 0.000742103 5.76258e-05 4.31266e-05 4.43076e-05 4.86623e-06
threshold=0.71656298965127829 0.22353870458135863 0.54438407884887441 0.20317718547949773 0.75461242716127497 0.29169699061230164 0.10623716421533817 0.077850529228151402 0.34493213733592704 0.661792056662734
decision_type=2 2 2 2 2 2 2 2 2 2
left_child=4 5 -3 -4 6 -2 -1 8 9 -8
right_child=1 2 3 -5 -6 -7 7 -9 -10 -11
leaf_value=-0.17452552897076823 -0.18373767879010869 0.22719809492464318 0.20599224889838408 0.0077651511540134475 -0.19745844057619599 -0.17367256929967942 -0.17165559905025418 -0.1741235864060684 -0.17379420601197143 -0.17071219885049238
leaf_weight=0.94590699672699052 0.51427503302693345 1.9072606712579725 1.4420313090085985 1.4418141916394231 0.43074400722980488 0.68104608543217182 0.43108765222132184 0.51770254224538792 0.36736131832003593 0.44392476230859756
leaf_count=19 6 9 8 15 3 17 13 11 8 16
internal_value=-0.00275256 0.0883329 0.15478 0.106886 -0.176589 -0.178003 -0.173267 -0.17259 -0.171951 -0.171177
internal_weight=9.12315 5.98643 4.79111 2.88385 3.13673 1.19532 2.70598 1.76008 1.24237 0.875012
internal_count=125 55 32 23 70 23 67 48 37 29
is_linear=0
shrinkage=0.2


Tree=38
num_leaves=10
num_cat=0
split_feature=2 5 68 86 53 101 4 5 88
split_gain=2.19714 2.12585 2.8132 0.847258 1.18065 0.000741569 0.000628343 0.000133369 2.05565e-05
threshold=0.16901726560736854 0.23534948005114006 0.37211773395515246 0.81884051647059219 1.0000000180025095e-35 0.35459407600822995 0.77611631188320984 0.92029732272603237 0.66382082671219622
decision_type=2 2 2 2 2 2 2 2 2
left_child=5 -2 3 4 -3 -1 -4 -7 -9
right_child=1 2 6 -5 -6 7 -8 8 -10
leaf_value=-0.18175454780959233 -0.18227507296792908 0.22819515076772934 -0.17500955702411475 0.22472384674076409 -0.039143582538875066 -0.17516945719348972 -0.1840976103275106 -0.17052125659675543 -0.17273529817712863
leaf_weight=0.59535854682326439 1.3000806365162114 1.1317788660526278 0.67430819571018197 3.1295151636004448 1.5878284201025961 0.80867903679609277 0.55459184944629669 0.42267437838017941 0.27810987830162048
leaf_count=7 19 5 14 15 19 16 7 16 7
internal_value=0.00689968 0.0527934 0.0959704 0.153765 0.0721108 -0.175777 -0.179111 -0.173419 -0.1714
internal_weight=10.4829 8.3781 7.07802 5.84912 2.71961 2.10482 1.2289 1.50946 0.700784
internal_count=125 79 60 39 24 46 21 39 23
is_linear=0
shrinkage=0.2


Tree=39
num_leaves=13
num_cat=0
split_feature=76 22 73 68 53 97 16 37 22 61 35 25
split_gain=2.75618 2.3586 1.93025 0.716029 0.340769 0.00139245 0.000551401 0.000259664 5.33213e-05 4.60524e-05 6.12219e-06 5.69594e-06
threshold=0.15166213863695238 0.80742931974916743 0.042092827497517034 0.18329828887048769 0.075000000000000025 0.39015423152926376 0.14834320893295846 0.087739632352044059 0.39924040880541251 0.33516886431370801 0.0077966936932048975 0.37996302180418601
decision_type=2 2 2 2 2 2 2 2 2 2 2 2
left_child=1 3 -3 -1 -4 -6 -7 8 10 11 -2 -10
right_child=7 2 4 -5 5 6 -8 -9 9 -11 -12 -13
leaf_value=0.25082312859581068 -0.17206381449398866 0.12148907381650452 -0.02081249126849603 0.079139635212774284 -0.18916140009979909 -0.17443951340711136 -0.18318148649176935 -0.17834137682696166 -0.17205887821116489 -0.17496949091048697 -0.17088299182017661 -0.17314105798453439
leaf_weight=2.2507258206605898 0.39327958971262145 1.8905788175761697 0.69527841359376941 1.7099263574928043 0.86661679297685656 0.6121067553758619 0.54608837887644768 0.42971285805106152 0.35445948690175988 0.60949723236262798 0.31735105440020561 0.43123428896069527
leaf_count=9 11 11 4 13 7 14 6 7 10 12 11 10
internal_value=0.00931871 0.0635062 -0.0337316 0.176702 -0.141617 -0.183098 -0.178561 -0.173861 -0.172947 -0.173665 -0.171536 -0.172653
internal_weight=11.1069 8.57132 4.61067 3.96065 2.72009 2.02481 1.1582 2.53553 2.10582 1.39519 0.710631 0.785694
internal_count=125 64 42 22 31 27 20 61 54 32 22 20
is_linear=0
shrinkage=0.2


Tree=40
num_leaves=13
num_cat=0
split_feature=2 58 4 47 5 70 35 26 22 6 137 33
split_gain=3.66937 3.50924 0.856115 0.758464 0.284401 0.00259036 0.00109035 0.000645169 5.08119e-05 2.10494e-05 1.05704e-05 4.48347e-06
threshold=0.18167456556082148 0.22522181351300061 0.88265431657547866 0.64884868421052044 0.85029115200301308 0.046680588250428021 0.020164944699868192 0.84456935165313518 0.39924040880541251 0.055436254650432698 0.13661202185792351 0.031400317969702572
decision_type=2 2 2 2 2 2 2 2 2 2 2 2
left_child=1 2 -1 7 5 -2 8 -3 11 10 -10 -7
right_child=4 3 -4 -5 -6 6 -8 -9 9 -11 -12 -13
leaf_value=0.13198184298199181 -0.19018999401509595 -0.18015525203760982 0.3177883094130487 0.057408563473542666 -0.00410397406221735 -0.17189510583587161 -0.18315202144915715 -0.18840725185180995 -0.17201700986501742 -0.17460044253443874 -0.17336640014480792 -0.17091545134758113
leaf_weight=2.5447460077702999 0.5060438849031933 0.86645251885056518 1.6255040317773817 0.78873246163129795 0.43163116462528694 0.34571075998246747 0.48750316910445679 0.67361035943031311 0.35044156201183774 0.4120970033109187 0.68825488351285458 0.40669208392500877
leaf_count=16 5 15 6 5 6 10 7 7 10 8 16 14
internal_value=0.00463137 0.0945827 0.204407 -0.102082 -0.156487 -0.177062 -0.174593 -0.183765 -0.172699 -0.173391 -0.172911 -0.171366
internal_weight=10.1274 6.49905 4.17025 2.3288 3.62837 3.19674 2.6907 1.54006 2.2032 1.45079 1.0387 0.752403
internal_count=125 49 22 27 76 70 65 22 58 34 26 24
is_linear=0
shrinkage=0.2


Tree=41
num_leaves=11
num_cat=0
split_feature=5 62 4 147 26 67 22 69 147 26
split_gain=5.87848 0.935496 0.0317846 0.000122952 0.000133777 2.70507e-05 2.39744e-05 1.54183e-05 1.038e-05 4.09021e-06
threshold=0.89440113394755516 0.28464289265775383 0.94827148738949318 0.20932069510268567 0.8558052700977733 0.94943523943401764 0.39924040880541251 0.41780664343807838 0.28785840118852529 0.29192012205697621
decision_type=2 2 2 2 2 2 2 2 2 2
left_child=2 -2 3 4 -1 6 9 8 -8 -5
right_child=1 -3 -4 5 -6 -7 7 -9 -10 -11
leaf_value=-0.17664027446014693 0.014691466872776665 0.21284419152968798 -0.22855909931377927 -0.17099846089481163 -0.17225899001885214 -0.1741117682653324 -0.17307411773378858 -0.17391511358798795 -0.17178949420404804 -0.17195623758236361
leaf_weight=0.78254997357726119 1.390035158023238 3.0313128456473351 0.47090573608875264 0.41305054724216539 0.43301819637417793 0.41316043771803368 0.49425945803523041 0.38019262999296177 0.5124560073018074 0.31388433650135994
leaf_count=13 13 18 2 14 12 9 12 8 15 9
internal_value=-0.0105471 0.150547 -0.179588 -0.173427 -0.17508 -0.172632 -0.172342 -0.17283 -0.17242 -0.171412
internal_weight=8.63483 4.42135 4.21348 3.74257 1.21557 2.527 2.11384 1.38691 1.00672 0.726935
internal_count=125 31 94 92 25 67 58 35 27 23
is_linear=0
shrinkage=0.2


Tree=42
num_leaves=10
num_cat=0
split_feature=72 106 106 3 97 90 111 21 137
split_gain=4.39298 0.238452 0.000335664 0.000111729 8.54999e-05 1.99064e-05 1.60096e-05 1.56934e-05 6.96928e-06
threshold=0.52339827219800816 0.81688090888042786 0.85394624271265729 0.31479538300104942 0.28598483225723109 0.94375127807972015 0.86983851046788108 0.77095644776431549 0.50631195631347348
decision_type=2 2 2 2 2 2 2 2 2
left_child=2 -2 3 4 5 -1 7 -5 -9
right_child=1 -3 -4 6 -6 -7 -8 8 -10
leaf_value=-0.17339954944302172 0.082928257874425079 0.19477575938755046 -0.17789274442960926 -0.17167481498715656 -0.1756990159386943 -0.17133425853699683 -0.1724439930907348 -0.17081332227886883 -0.16966532320666194
leaf_weight=0.34516713023185797 1.2236318252980711 2.0229374170303345 0.47679905593395222 0.53047295473515965 0.48016871139407158 0.40655243583023548 0.29484038986265648 0.46340746432542801 0.389164162799716
leaf_count=8 11 16 7 16 9 14 8 17 19
internal_value=-0.0136128 0.15262 -0.172974 -0.172168 -0.173614 -0.172283 -0.171106 -0.170821 -0.170289
internal_weight=6.63314 3.24657 3.38657 2.90977 1.23189 0.75172 1.67788 1.38304 0.852572
internal_count=125 27 98 91 31 22 60 52 36
is_linear=0
shrinkage=0.2


Tree=43
num_leaves=10
num_cat=0
split_feature=69 106 7 63 87 0 14 65 90
split_gain=2.52112 1.75215 0.413895 0.00014362 0.000124126 7.95493e-05 2.83314e-05 1.36674e-05 5.92937e-06
threshold=0.14640166394914136 0.80581863656196373 0.81483554933520008 0.37513433710757499 0.51632453649596088 0.39337750718207237 0.0095689936252298675 1.0000000180025095e-35 0.62282059093978459
decision_type=2 2 2 2 2 2 2 2 2
left_child=3 2 -2 5 -3 6 -1 -7 -9
right_child=1 4 -4 -5 -6 7 -8 8 -10
leaf_value=-0.17237915697473971 0.067060351678646921 -0.17892002264617135 0.1965779768060793 -0.17616464666433335 -0.17379756467276267 -0.17156092729922875 -0.17455204630272844 -0.16954301595646079 -0.17083114597488805
leaf_weight=0.62154946476221151 1.9003492034971716 0.27133251726627339 2.0533425807952881 0.38660477101802815 0.62524565123021603 0.44115219265222527 0.39102397486567497 0.33844694122672081 0.2474426981061697
leaf_count=17 17 4 14 7 18 14 8 17 9
internal_value=-0.00618045 0.0770817 0.134325 -0.17263 -0.175348 -0.17196 -0.173218 -0.17072 -0.170087
internal_weight=7.27649 4.85027 3.95369 2.42622 0.896578 2.03962 1.01257 1.02704 0.58589
internal_count=125 53 31 72 22 65 25 40 26
is_linear=0
shrinkage=0.2


Tree=44
num_leaves=13
num_cat=0
split_feature=2 4 86 56 81 69 20 63 78 114 30 20
split_gain=1.63454 1.51965 1.18584 1.14788 1.06609 0.000451691 0.000268149 5.68015e-05 3.49368e-05 2.87236e-05 1.57484e-05 9.09846e-06
threshold=0.16901726560736854 0.51520509193776542 0.81884051647059219 0.45016289185507891 0.16478145243445777 0.33259736999219097 0.37178186995797058 0.11036745448031361 0.63725414250540646 0.28415827279596689 0.48915290946485673 0.43869778264990883
decision_type=2 2 2 2 2 2 2 2 2 2 2 2
left_child=6 3 4 -2 -3 -5 -1 -8 -7 -10 -9 -12
right_child=1 2 -4 5 -6 8 7 10 9 -11 11 -13
leaf_value=-0.17707579432996501 0.21087543905221842 0.17231257916141646 0.2085875239926907 -0.17990108629652093 -0.091333844888417795 -0.17398429967473616 -0.17407986928064503 -0.17220080172155408 -0.17047446940862943 -0.17277229507498737 -0.1694731176783224 -0.17109268070081712
leaf_weight=0.5538920871913432 0.38497017323970784 1.0185790713876488 2.4284977056086063 0.40136419236659993 1.5426041614264248 0.30472077243030049 0.28227534890174844 0.22056824341416359 0.48768764361739159 0.39292195998132229 0.30676567740738392 0.25333116948604584
leaf_count=9 2 8 13 5 15 7 6 6 19 10 16 9
internal_value=0.00764466 0.0497189 0.108459 -0.0989347 0.013518 -0.174102 -0.173508 -0.171648 -0.172138 -0.1715 -0.170769 -0.170206
internal_weight=8.57818 6.96135 4.98968 1.97166 2.56118 1.58669 1.61683 1.06294 1.18533 0.88061 0.780665 0.560097
internal_count=125 79 36 43 23 41 46 37 36 29 31 25
is_linear=0
shrinkage=0.2


Tree=45
num_leaves=12
num_cat=0
split_feature=76 2 66 2 99 26 43 113 113 91 145
split_gain=2.05309 1.11378 1.21535 1.15071 0.705517 0.246726 0.000104202 2.84614e-05 2.5195e-05 8.71933e-06 1.54611e-06
threshold=0.15166213863695238 0.12059147735086972 0.29169699061230164 0.26698262243285947 0.34811316243146934 0.74889823630026842 0.50084110096477663 0.27967995765285614 0.3230324902141028 0.50100903003878372 0.2259124036220343
decision_type=2 2 2 2 2 2 2 2 2 2 2
left_child=1 5 3 4 -3 -1 7 9 -9 -2 -11
right_child=6 2 -4 -5 -6 -7 -8 8 -10 10 -12
leaf_value=0.0035507582456914162 -0.17140431913840234 0.2328301311873458 0.22508515917928254 -0.090915080206480495 0.021653548040722465 -0.17768182836030819 -0.17531042500973695 -0.17344043517632546 -0.17118627302539299 -0.17040085248239434 -0.16968488694449257
leaf_weight=0.47783967107534386 0.32118296064436413 1.1861968636512759 1.9442344456911085 1.7398677244782446 1.3564610108733175 0.80948411673307419 0.3357192389667033 0.38668288476765156 0.40719639509916306 0.25349102914333344 0.23021765798330307
leaf_count=4 10 5 10 13 15 17 7 9 14 10 11
internal_value=0.0116334 0.0589372 0.0939482 0.034413 0.120171 -0.11041 -0.172107 -0.171435 -0.172284 -0.170596 -0.17006
internal_weight=9.44857 7.51408 6.22676 4.28253 2.54266 1.28732 1.93449 1.59877 0.793879 0.804892 0.483709
internal_count=125 64 43 33 20 21 61 54 23 31 21
is_linear=0
shrinkage=0.2


Tree=46
num_leaves=12
num_cat=0
split_feature=26 108 84 10 109 1 129 0 35 35 10
split_gain=2.79617 1.19645 0.947452 1.20828 0.0221129 0.00125347 0.000545719 0.000117413 1.54265e-05 1.86775e-05 2.35536e-07
threshold=0.81125413842556915 0.21966911764705868 0.12621076261907319 0.53420459620301275 0.88385601441349737 0.53014852136805368 0.076720785557236312 0.17018621465793968 0.020164944699868192 0.0017027036463807641 0.6141820448672568
decision_type=2 2 2 2 2 2 2 2 2 2 2
left_child=1 -1 3 -2 5 6 -3 -8 9 -9 -11
right_child=2 4 -4 -5 -6 -7 7 8 -10 10 -12
leaf_value=0.068398461471904953 -0.13433284430759676 -0.18102304104301226 0.19261938973014262 0.17990987466716107 -0.22520394888966117 -0.1845368581748173 -0.17540962013798467 -0.17154658197735451 -0.17245054951752603 -0.16997148570964937 -0.16967617178525621
leaf_weight=1.0218736268579962 1.0797517038881776 0.32135803252458695 2.5512026026844978 0.89523448422551144 0.42210444808006276 0.51489568501710881 0.32991867139935482 0.61147338710725285 0.30560642480850209 0.22483205795288086 0.20795058272778988
leaf_count=17 17 5 17 7 2 5 7 19 9 10 10
internal_value=0.00472563 -0.118011 0.112109 0.00810912 -0.182843 -0.175736 -0.173472 -0.172027 -0.171201 -0.170835 -0.16983
internal_weight=8.4862 3.96001 4.52619 1.97499 2.93814 2.51603 2.00114 1.67978 1.34986 1.04426 0.432783
internal_count=125 84 41 24 67 65 60 55 48 39 20
is_linear=0
shrinkage=0.2


Tree=47
num_leaves=10
num_cat=0
split_feature=15 3 4 99 139 57 10 92 4
split_gain=3.76818 0.9396 8.69486e-05 2.4962e-05 3.33594e-05 1.76734e-05 1.03523e-05 9.42928e-06 4.67567e-06
threshold=0.091007472357460303 0.35563770772780795 0.86315417256011329 0.37412069253095431 0.22827501222549251 0.011536038317175286 0.80496345919610246 0.49905803975114227 0.39628654239516514
decision_type=2 2 2 2 2 2 2 2 2
left_child=1 -1 3 4 6 7 -2 -5 -7
right_child=2 -3 -4 5 -6 8 -8 -9 -10
leaf_value=-0.0093700147065583252 -0.17026234151060365 0.19985130668923498 -0.17457917139990992 -0.17239389200001309 -0.17306432336915989 -0.16967021465737084 -0.17194336550504011 -0.17085694212350477 -0.17068475426682461
leaf_weight=1.3404557853937151 0.31714492850005693 2.388512060046196 0.43285840936005104 0.36323019862174966 0.72587930224835873 0.29151872918009758 0.27240149676799774 0.28490818664431572 0.48236216232180595
leaf_count=7 13 18 9 10 18 14 8 10 18
internal_value=-0.0116434 0.124642 -0.171945 -0.171529 -0.172157 -0.170948 -0.171039 -0.171718 -0.170303
internal_weight=6.89927 3.72897 3.1703 2.73745 1.31543 1.42202 0.589546 0.648138 0.773881
internal_count=125 25 100 91 39 52 21 20 32
is_linear=0
shrinkage=0.2


end of trees

feature_importances:
Column_2=15
Column_4=14
Column_15=12
Column_5=11
Column_68=11
Column_0=10
Column_3=9
Column_26=9
Column_106=9
Column_1=7
Column_10=7
Column_35=7
Column_69=7
Column_77=7
Column_86=7
Column_90=7
Column_137=7
Column_9=6
Column_21=6
Column_22=6
Column_56=6
Column_99=6
Column_105=6
Column_138=6
Column_146=6
Column_18=5
Column_20=5
Column_61=5
Column_76=5
Column_87=5
Column_92=5
Column_109=5
Column_114=5
Column_147=5
Column_7=4
Column_25=4
Column_33=4
Column_44=4
Column_53=4
Column_57=4
Column_58=4
Column_60=4
Column_66=4
Column_84=4
Column_8=3
Column_30=3
Column_42=3
Column_43=3
Column_54=3
Column_62=3
Column_63=3
Column_64=3
Column_65=3
Column_67=3
Column_70=3
Column_72=3
Column_73=3
Column_78=3
Column_82=3
Column_91=3
Column_97=3
Column_98=3
Column_100=3
Column_102=3
Column_110=3
Column_111=3
Column_113=3
Column_116=3
Column_133=3
Column_6=2
Column_14=2
Column_16=2
Column_19=2
Column_24=2
Column_37=2
Column_41=2
Column_47=2
Column_55=2
Column_81=2
Column_83=2
Column_88=2
Column_89=2
Column_96=2
Column_101=2
Column_120=2
Column_121=2
Column_125=2
Column_131=2
Column_134=2
Column_145=2
Column_12=1
Column_13=1
Column_23=1
Column_29=1
Column_34=1
Column_38=1
Column_39=1
Column_40=1
Column_45=1
Column_46=1
Column_52=1
Column_59=1
Column_74=1
Column_75=1
Column_79=1
Column_80=1
Column_85=1
Column_93=1
Column_104=1
Column_107=1
Column_108=1
Column_118=1
Column_119=1
Column_123=1
Column_126=1
Column_129=1
Column_130=1
Column_139=1
Column_140=1
Column_142=1
Column_143=1

parameters:
[boosting: gbdt]
[objective: multiclass]
[metric: custom]
[tree_learner: serial]
[device_type: cpu]
[data_sample_strategy: bagging]
[data: ]
[valid: ]
[num_iterations: 10000]
[learning_rate: 0.2]
[num_leaves: 63]
[num_threads: 0]
[seed: 1236]
[deterministic: 0]
[force_col_wise: 0]
[force_row_wise: 0]
[histogram_pool_size: -1]
[max_depth: -1]
[min_data_in_leaf: 10]
[min_sum_hessian_in_leaf: 0.001]
[bagging_fraction: 1]
[pos_bagging_fraction: 1]
[neg_bagging_fraction: 1]
[bagging_freq: 0]
[bagging_seed: 21709]
[bagging_by_query: 0]
[feature_fraction: 0.5]
[feature_fraction_bynode: 1]
[feature_fraction_seed: 24116]
[extra_trees: 0]
[extra_seed: 15571]
[early_stopping_round: 0]
[early_stopping_min_delta: 0]
[first_metric_only: 0]
[max_delta_step: 0]
[lambda_l1: 0]
[lambda_l2: 0]
[linear_lambda: 0]
[min_gain_to_split: 0]
[drop_rate: 0.1]
[max_drop: 50]
[skip_drop: 0.5]
[xgboost_dart_mode: 0]
[uniform_drop: 0]
[drop_seed: 15722]
[top_rate: 0.2]
[other_rate: 0.1]
[min_data_per_group: 100]
[max_cat_threshold: 32]
[cat_l2: 10]
[cat_smooth: 10]
[max_cat_to_onehot: 4]
[top_k: 20]
[monotone_constraints: ]
[monotone_constraints_method: basic]
[monotone_penalty: 0]
[feature_contri: ]
[forcedsplits_filename: ]
[refit_decay_rate: 0.9]
[cegb_tradeoff: 1]
[cegb_penalty_split: 0]
[cegb_penalty_feature_lazy: ]
[cegb_penalty_feature_coupled: ]
[path_smooth: 0]
[interaction_constraints: ]
[verbosity: -1]
[saved_feature_importance_type: 0]
[use_quantized_grad: 0]
[num_grad_quant_bins: 4]
[quant_train_renew_leaf: 0]
[stochastic_rounding: 1]
[linear_tree: 0]
[max_bin: 255]
[max_bin_by_feature: ]
[min_data_in_bin: 3]
[bin_construct_sample_cnt: 200000]
[data_random_seed: 4074]
[is_enable_sparse: 1]
[enable_bundle: 1]
[use_missing: 1]
[zero_as_missing: 0]
[feature_pre_filter: 1]
[pre_partition: 0]
[two_round: 0]
[header: 0]
[label_column: ]
[weight_column: ]
[group_column: ]
[ignore_column: ]
[categorical_feature: ]
[forcedbins_filename: ]
[precise_float_parser: 0]
[parser_config_file: ]
[objective_seed: 10917]
[num_class: 6]
[is_unbalance: 0]
[scale_pos_weight: 1]
[sigmoid: 1]
[boost_from_average: 1]
[reg_sqrt: 0]
[alpha: 0.9]
[fair_c: 1]
[poisson_max_delta_step: 0.7]
[tweedie_variance_power: 1.5]
[lambdarank_truncation_level: 30]
[lambdarank_norm: 1]
[label_gain: ]
[lambdarank_position_bias_regularization: 0]
[eval_at: ]
[multi_error_top_k: 1]
[auc_mu_weights: ]
[num_machines: 1]
[local_listen_port: 12400]
[time_out: 120]
[machine_list_filename: ]
[machines: ]
[gpu_platform_id: -1]
[gpu_device_id: -1]
[gpu_use_dp: 0]
[num_gpu: 1]

end of parameters

pandas_categorical:null
