tree
version=v4
num_class=6
num_tree_per_iteration=6
label_index=0
max_feature_idx=147
objective=multiclass num_class:6
feature_names=Column_0 Column_1 Column_2 Column_3 Column_4 Column_5 Column_6 Column_7 Column_8 Column_9 Column_10 Column_11 Column_12 Column_13 Column_14 Column_15 Column_16 Column_17 Column_18 Column_19 Column_20 Column_21 Column_22 Column_23 Column_24 Column_25 Column_26 Column_27 Column_28 Column_29 Column_30 Column_31 Column_32 Column_33 Column_34 Column_35 Column_36 Column_37 Column_38 Column_39 Column_40 Column_41 Column_42 Column_43 Column_44 Column_45 Column_46 Column_47 Column_48 Column_49 Column_50 Column_51 Column_52 Column_53 Column_54 Column_55 Column_56 Column_57 Column_58 Column_59 Column_60 Column_61 Column_62 Column_63 Column_64 Column_65 Column_66 Column_67 Column_68 Column_69 Column_70 Column_71 Column_72 Column_73 Column_74 Column_75 Column_76 Column_77 Column_78 Column_79 Column_80 Column_81 Column_82 Column_83 Column_84 Column_85 Column_86 Column_87 Column_88 Column_89 Column_90 Column_91 Column_92 Column_93 Column_94 Column_95 Column_96 Column_97 Column_98 Column_99 Column_100 Column_101 Column_102 Column_103 Column_104 Column_105 Column_106 Column_107 Column_108 Column_109 Column_110 Column_111 Column_112 Column_113 Column_114 Column_115 Column_116 Column_117 Column_118 Column_119 Column_120 Column_121 Column_122 Column_123 Column_124 Column_125 Column_126 Column_127 Column_128 Column_129 Column_130 Column_131 Column_132 Column_133 Column_134 Column_135 Column_136 Column_137 Column_138 Column_139 Column_140 Column_141 Column_142 Column_143 Column_144 Column_145 Column_146 Column_147
feature_infos=[0:1.0000000000000002] [0:1] [0:1] [0:1] [0:0.99717114568599707] [0:1] [0:1] [0.087333799860040529:1] [0:1] [0:0.92452556859336532] [0:1] [0:1.0000000000000002] [0:1.0000000000000002] [0:1] [0:1] [0:1] [0:1] [0:1] [0:1] [0:1] [0:1] [0:1] [0:0.99774094757444476] [0:1] [0:1] [0:0.82781462549888496] [0:0.95880156994768317] [0:0.8366248059758461] [0:0.94161073667969908] [0:1] [0:0.99999999999999989] [0:0.99999999999999989] [0:1] [0:1] [0:1] [0:1] [0:0.99999999999999989] [0:1] [0:1] [0:1] [0:1] [0:1] [0:1] [0:1] [0:1] [0.087947882736152394:0.9804560260586257] [0.026578073089694954:0.97674418604650981] [0.083881578947369917:0.98519736842104066] [0.06478405315614566:0.97729789590254512] [0.087593721916590539:0.98699880951196661] [0.026737768496417402:0.97995769147320289] [0.083001254822860915:0.99197348956352016] [0.063782457564521167:0.98422632734649085] [0:1] [0:1] [0:1] [0:1] [0:1] [0:1] [0:1] [0:0.99166666666666692] [0:1] [0:1] [0:1] [0:1] [0:1] [0:1] [0:1] [0:1] [0:1] [0:1] [0:1] [0:1] [0:1] [0:1] [0:0.99999999999999989] [0:0.99999999999999989] [0.01424450121244196:1] [0.0057619047021364288:0.99999999999999978] [0:1] [0:0.99999999999999989] [0:1] [0:1] [0.013864467741456672:1] [0.0090519117651040228:1] [0:1] [0:0.97008104841418386] [0:1] [0:0.99999999999999989] [0:1] [0.051590550036289928:1] [0:1] [0:1] [0:1] [0:0.99999999999999989] [0:1] [0.0018552870666453808:1] [0:0.99999999999999989] [0:1.0000000000000002] [0:1] [0:0.99999999999999989] [0:1] [0:1] [0:1] [0:0.99999999999999989] [0:1] [0:1] [0:1] [0:0.99999999999999956] [0:1] [0:1] [0:1] [0:1] [0:1] [0:1] [0:1] [0:0.99999999999999989] [0.039682539682539764:1] [0.016000000000000014:1] [0.031872509960159334:0.99999999999999978] [0.025299600532623367:0.99999999999999978] [0:0.90909090909090828] [0:0.90909090909090828] [0:0.90909090909090828] [0:0.90909090909090828] [0:1] [0:1] [0:1] [0:1] [0.0025996078883591318:1] [0:1] [0.0014598540145985403:1] [0.00095556617295747791:0.99999999999999989] [0:0.84085000507382768] [0:0.94334263929180118] [0:0.79246117192919807] [0:0.81619198117178238] [0:0.72677595628415315] [0:1] [0:0.78612716763005808] [0:0.9495708154506437] [0:0.83333333333333326] [0:0.88888888888888884] [0:0.8333334166666666] [0:0.66666666666666663] [0:0.70208871798177075] [0:0.1069137109783363] [0:1]
tree_sizes=452 660 852 649 657 663 1199 1296 1198 1182 1312 1090 1206 1288 1290 1396 1304 1194 1200 1404 1509 1192 1197 1096 1199 1302 1396 1189 1197 1206 1098 1304 1290 1185 1296 1098 1208 1200 1298 1405 1409 1317 1199 1414 1299 1395 1193 1323 1210 1524 1195 1413 1198 1203 1317 1418 1314 1516 1414 1422 1213 1422 1514 1306 1315 1425 1322 1534 1419 1739 1429 1218

Tree=0
num_leaves=3
num_cat=0
split_feature=80 126
split_gain=71.3913 19.0055
threshold=0.68792215464527373 0.23648588072526686
decision_type=2 2
left_child=-1 -2
right_child=1 -3
leaf_value=-2.0232672284119793 -0.79121602297419225 -1.6536518667806432
leaf_weight=15.746098324656488 2.759625479578971 1.6233091056346891
leaf_count=97 17 10
internal_value=-1.82455 -1.11064
internal_weight=20.129 4.38293
internal_count=124 27
is_linear=0
shrinkage=1


Tree=1
num_leaves=5
num_cat=0
split_feature=90 60 0 2
split_gain=48.8731 21.0141 0.53068 1.77636e-15
threshold=0.96901543979311389 1.0000000180025095e-35 0.28144482457996828 0.053160141875901533
decision_type=2 2 2 2
left_child=1 -1 -3 -4
right_child=-2 2 3 -5
leaf_value=-1.3445268032476305 -0.88276865276903282 -1.8579289573981739 -1.9764063775867615 -1.9764063775867615
leaf_weight=2.5321280211210313 2.1945109516382209 1.6880853474140192 2.0257024168968192 12.491831570863722
leaf_count=15 13 10 12 74
internal_value=-1.77576 -1.88034 -1.96406 -1.97641
internal_weight=20.9323 18.7377 16.2056 14.5175
internal_count=124 111 96 86
is_linear=0
shrinkage=1


Tree=2
num_leaves=7
num_cat=0
split_feature=64 86 107 54 1 1
split_gain=23.25 19.6568 7.56031 1.53606 0.536022 1.77636e-15
threshold=0.032163306816452013 0.78536162739556115 0.42307692307692274 0.87000000000000011 0.35263681084212412 0.10303171281237912
decision_type=2 2 2 2 2 2
left_child=1 -1 3 -2 5 -4
right_child=2 -3 4 -5 -6 -7
leaf_value=-1.776856987324422 -1.5304467462368645 -0.90322067801399142 -2.0232672284119793 -1.7992579183323818 -1.9000621078682007 -2.0232672284119793
leaf_weight=2.4349636584520367 1.6233091056346884 1.785640016198158 8.9282000809907895 1.7856400161981583 1.6233091056346882 1.9479709267616261
leaf_count=15 10 11 55 11 10 12
internal_value=-1.82455 -1.40724 -1.93526 -1.67125 -2.00727 -2.02327
internal_weight=20.129 4.2206 15.9084 3.40895 12.4995 10.8762
internal_count=124 26 98 21 77 67
is_linear=0
shrinkage=1


Tree=3
num_leaves=5
num_cat=0
split_feature=90 63 99 76
split_gain=19.4647 13.6995 3.90957 9.32461
threshold=0.48342924238210777 0.014363894088139343 0.35114315674541924 0.15166213863695238
decision_type=2 2 2 2
left_child=-1 -2 3 -3
right_child=1 2 -4 -5
leaf_value=-1.1865569096628474 -1.449840065637485 -1.3840192766438251 -1.9764063775867615 -1.9764063775867613
leaf_weight=2.0257024168968227 3.0385536253452328 1.6880853474140156 11.31017182767391 2.8697450906038284
leaf_count=12 18 10 67 17
internal_value=-1.77576 -1.83889 -1.91339 -1.757
internal_weight=20.9323 18.9066 15.868 4.55783
internal_count=124 112 94 27
is_linear=0
shrinkage=1


Tree=4
num_leaves=5
num_cat=0
split_feature=126 99 1 1
split_gain=59.4374 8.88581 4.79834 1.77636e-15
threshold=0.99983854854515564 0.39791456529353719 0.40983606557377056 0.073770491803278701
decision_type=2 2 2 2
left_child=2 -2 3 -1
right_child=1 -3 -4 -5
leaf_value=-1.9764063775867613 -1.3840192766438251 -0.79163217570088928 -1.6209741170209997 -1.9764063775867615
leaf_weight=12.491831570863729 2.0257024168968192 2.0257024168968201 1.6880853474140156 2.7009365558624259
leaf_count=74 12 12 10 16
internal_value=-1.77576 -1.08783 -1.94086 -1.97641
internal_weight=20.9323 4.0514 16.8809 15.1928
internal_count=124 24 100 90
is_linear=0
shrinkage=1


Tree=5
num_leaves=5
num_cat=0
split_feature=38 145 66 0
split_gain=50.8016 46.6729 0.52729 1.77636e-15
threshold=1.0000000180025095e-35 1.0000000180025095e-35 0.94893551120244279 0.78801526767437802
decision_type=2 2 2 2
left_child=2 -2 3 -1
right_child=1 -3 -4 -5
leaf_value=-1.9764063775867615 -1.9764063775867615 -0.79163217570088906 -1.8579289573981741 -1.9764063775867613
leaf_weight=11.985405966639517 2.1945109516382209 3.3761706948280334 1.6880853474140174 1.6880853474140174
leaf_count=71 13 20 10 10
internal_value=-1.77576 -1.25836 -1.96339 -1.97641
internal_weight=20.9323 5.57068 15.3616 13.6735
internal_count=124 33 91 81
is_linear=0
shrinkage=1


Tree=6
num_leaves=10
num_cat=0
split_feature=108 28 77 147 137 107 59 6 99
split_gain=33.1822 3.09689 0.00227328 0.000339381 0.000262751 0.000257682 0.000165246 0.000150012 2.9674e-05
threshold=0.81433829044117634 0.3802013564322782 0.64924466330677288 0.10900473933649292 0.13019368435231929 0.55613421953510833 0.22313187091117626 0.0021008140096122154 0.39896064598161146
decision_type=2 2 2 2 2 2 2 2 2
left_child=2 -2 3 8 -5 6 -6 -7 -1
right_child=1 -3 -4 4 5 7 -8 -9 -10
leaf_value=-0.18891108787888541 0.48411216640269511 0.20242488024629857 -0.19861187644042064 -0.18827183246171181 -0.1912629805683442 -0.19167599334060317 -0.19426540180170737 -0.18921543710602237 -0.18765075544935036
leaf_weight=1.7414380237460165 3.7312992215156546 2.6842741146683693 1.4392038136720646 1.3392077386379222 1.4736981987953188 1.7625016346573827 1.4593450278043745 2.2645026296377182 1.3088949024677274
leaf_count=14 14 13 9 11 11 13 10 18 11
internal_value=-0.00492134 0.366254 -0.191124 -0.190174 -0.190837 -0.191331 -0.192757 -0.190292 -0.18837
internal_weight=19.2044 6.41557 12.7888 11.3496 8.29926 6.96005 2.93304 4.027 3.05033
internal_count=124 27 97 88 63 52 21 31 25
is_linear=0
shrinkage=0.2


Tree=7
num_leaves=11
num_cat=0
split_feature=4 107 83 60 7 0 17 107 29 127
split_gain=22.4172 20.5128 2.21435 0.0064466 0.00396304 0.00114352 0.000324551 0.000170063 2.1888e-05 3.59836e-06
threshold=0.58921258083738515 0.79807731709178997 0.57643990732613781 0.0036637050901704906 0.52924286873061488 0.32302383594752276 0.35223966937622903 0.58332954020220018 0.51053318945017001 0.99983854854515564
decision_type=2 2 2 2 2 2 2 2 2 2
left_child=1 2 -1 -2 -3 -5 -7 8 -8 -10
right_child=3 4 -4 5 -6 6 7 -9 9 -11
leaf_value=0.28478280475039863 -0.20545669922412246 -0.19207100357855375 0.53281931266735094 -0.19662065423398778 -0.20667577237852505 -0.19357122109566433 -0.18886957843856653 -0.19196780708175776 -0.18963573952077717 -0.1900594473625723
leaf_weight=2.3006414175033587 1.6592728123068798 1.596723757684231 3.8473135381937027 1.6861635148525218 1.3902953863143919 1.4282930865883825 1.2438908442854879 1.6326878070831297 1.5309366434812546 1.6832291334867477
leaf_count=10 10 12 15 11 9 10 10 12 12 13
internal_value=0.00017856 0.231099 0.440001 -0.193982 -0.198869 -0.191913 -0.190858 -0.190221 -0.189582 -0.189858
internal_weight=19.9994 9.13497 6.14795 10.8645 2.98702 9.2052 7.51904 6.09074 4.45806 3.21417
internal_count=124 46 25 78 21 68 57 47 35 25
is_linear=0
shrinkage=0.2


Tree=8
num_leaves=10
num_cat=0
split_feature=42 146 116 138 101 86 17 10 145
split_gain=13.5089 7.94717 4.29078 3.3751 0.658493 0.00248732 0.000349411 6.55712e-05 2.37657e-06
threshold=1.0000000180025095e-35 0.033985023574182885 0.34564312068482644 0.6572820118273458 0.73787126156452754 0.50577281480166392 0.32008335621309036 0.39583262093550659 1.0000000180025095e-35
decision_type=2 2 2 2 2 2 2 2 2
left_child=1 -1 4 -4 5 -2 -7 -8 -9
right_child=2 -3 3 -5 -6 6 7 8 -10
leaf_value=-0.021993949903319491 -0.19873708559253336 0.48947264710156357 -0.062095053466693972 0.30402014789512194 -0.03952722864097926 -0.19222570729315283 -0.19025023809394592 -0.18881558124121836 -0.18847308836735116
leaf_weight=2.0278727784752872 1.5832099616527537 3.0321353897452354 2.85514161735773 1.5561395883560178 1.3184084147214878 1.9108206480741499 1.3015534579753874 1.2423701733350756 2.330867275595665
leaf_count=11 10 14 17 9 10 14 10 10 19
internal_value=0.00416442 0.284495 -0.0964472 0.0670571 -0.170902 -0.191599 -0.189933 -0.189035 -0.188592
internal_weight=19.1585 5.06001 14.0985 4.41128 9.68723 8.36882 6.78561 4.87479 3.57324
internal_count=124 25 99 26 73 63 53 39 29
is_linear=0
shrinkage=0.2


Tree=9
num_leaves=10
num_cat=0
split_feature=132 22 134 25 109 22 64 56 137
split_gain=12.0793 11.5073 5.75717 2.99773 0.595692 0.00973169 0.0019489 0.000318255 4.26045e-05
threshold=0.05342602750001383 0.80571658110741884 0.75001018352209314 0.63504650671309204 0.57117359770517873 0.747053747849865 0.18000000000000002 0.82938148744355178 0.4265559945342936
decision_type=2 2 2 2 2 2 2 2 2
left_child=1 -1 -3 4 5 6 -2 8 -8
right_child=3 2 -4 -5 -6 -7 7 -9 -10
leaf_value=0.49809279065411244 -0.19875772085306648 0.21410539179241883 -0.19811292882281498 0.092305604450527878 -0.05556116257038031 -0.2100565506239836 -0.18909501135630485 -0.19322068967502265 -0.19054469068114979
leaf_weight=3.0467435866594332 1.5869889110326747 2.7689186632633209 2.6544386893510818 2.0385638475418082 1.417943775653838 1.6113603264093397 2.1312149390578274 1.4029866009950636 1.3089530318975446
leaf_count=14 10 13 18 13 10 9 17 10 10
internal_value=0.00583459 0.187072 0.0123469 -0.127676 -0.175083 -0.196158 -0.192675 -0.190682 -0.189647
internal_weight=19.9681 8.4701 5.42336 11.498 9.45945 8.0415 6.43014 4.84315 3.44017
internal_count=124 45 31 79 66 56 47 37 27
is_linear=0
shrinkage=0.2


Tree=10
num_leaves=11
num_cat=0
split_feature=125 37 10 89 34 146 58 21 54 42
split_gain=25.0538 2.30187 1.93164 0.624474 0.000776142 0.000522508 0.000301089 0.000110749 1.18156e-05 1.77415e-06
threshold=0.99983854854515564 0.088025691936053321 0.54468635809987831 0.92751956902954824 0.013116369183761932 1.0000000180025095e-35 1.0000000180025095e-35 0.90949161974451798 0.30286990768124389 0.047436012499671311
decision_type=2 2 2 2 2 2 2 2 2 2
left_child=1 3 -2 4 5 -1 -7 8 -8 -10
right_child=2 -3 -4 -5 -6 6 7 -9 9 -11
leaf_value=-0.19491024571864074 0.19405775389857377 0.098751823753150225 0.42527998160778718 -0.050385810639191488 -0.1964816729530601 -0.19300383221080547 -0.18910880960235127 -0.19148027803671192 -0.18968066710295756 -0.19000529279711509
leaf_weight=1.6080001592636124 2.3436233699321738 1.3474752604961384 3.7699048072099686 1.396826572716235 1.5245079845190037 2.1112232431769371 1.254561707377434 1.8805665746331213 1.2791648656129839 1.4220695346593855
leaf_count=11 10 9 14 10 10 15 10 14 10 11
internal_value=-0.000494168 -0.149585 0.336641 -0.176404 -0.192291 -0.191622 -0.190957 -0.190217 -0.189616 -0.189852
internal_weight=19.9379 13.8244 6.11353 12.4769 11.0801 9.55559 7.94759 5.83636 3.9558 2.70123
internal_count=124 100 24 91 81 71 60 45 31 21
is_linear=0
shrinkage=0.2


Tree=11
num_leaves=9
num_cat=0
split_feature=147 0 68 73 60 0 56 86
split_gain=37.2382 0.777579 0.000697779 0.000442566 0.000303039 0.000240616 0.000120087 2.70591e-05
threshold=0.10900473933649292 0.41308308378276698 0.6241552329650738 0.18970170292415475 0.26997898293009864 0.39524534249465426 0.82938148744355178 0.78536162739556115
decision_type=2 2 2 2 2 2 2 2
left_child=1 -1 3 4 5 -2 7 -5
right_child=2 -3 -4 6 -6 -7 -8 -9
leaf_value=0.3069875785423134 -0.19317716330727741 0.4500357302619768 -0.19511499741157468 -0.18989853716662239 -0.19436357207489191 -0.18985978367711889 -0.19171114400614456 -0.18874049094536782
leaf_weight=2.5021128058433559 1.7008967697620376 3.8723967969417572 2.6809910982847205 2.3160040378570561 2.472639337182045 1.8001998290419576 1.3492393642663953 1.2387860864400861
leaf_count=11 12 14 18 18 17 14 10 10
internal_value=-0.00479084 0.393887 -0.192225 -0.191513 -0.192669 -0.191471 -0.190105 -0.189495
internal_weight=19.9333 6.37451 13.5588 10.8778 5.97374 3.5011 4.90403 3.55479
internal_count=124 25 99 81 43 26 38 28
is_linear=0
shrinkage=0.2


Tree=12
num_leaves=10
num_cat=0
split_feature=72 58 106 20 1 74 6 59 72
split_gain=21.5182 2.13628 0.00183005 0.00079926 0.000384575 0.000236085 0.000217046 1.25433e-05 7.69052e-06
threshold=0.50443102489074276 0.013300711525639828 0.82055597362525534 0.37838906759714547 1.0000000180025095e-35 0.10688514882583804 0.0021008140096122154 0.17303942691425286 0.0092413952348590969
decision_type=2 2 2 2 2 2 2 2 2
left_child=2 -2 3 4 5 -1 -5 8 -8
right_child=1 -3 -4 6 -6 -7 7 -9 -10
leaf_value=-0.18705080982158703 0.086453904590309175 0.34100924293956408 -0.19408413770085584 -0.18536201437487979 -0.18874353512556527 -0.1829158455016397 -0.18255429295318784 -0.18295607095335378 -0.18182358885359998
leaf_weight=1.1474798098206522 1.8005825951695431 4.9276896864175797 0.98780449479818422 1.4071747958660124 2.3268332779407501 1.0648552253842352 1.0464271456003196 1.1638863384723661 1.2819870263338087
leaf_count=10 10 17 7 13 19 11 11 12 14
internal_value=-0.00595491 0.272887 -0.185894 -0.185036 -0.186948 -0.185061 -0.183265 -0.18242 -0.182152
internal_weight=17.1547 6.72827 10.4264 9.43864 4.53917 2.21234 4.89948 3.4923 2.32841
internal_count=124 27 97 90 40 21 50 37 25
is_linear=0
shrinkage=0.2


Tree=13
num_leaves=11
num_cat=0
split_feature=9 108 88 46 106 59 0 0 21 132
split_gain=13.5536 10.1475 2.51807 3.8649 0.0108398 0.00345419 0.000918104 0.00012614 1.28482e-05 1.39888e-05
threshold=0.378024047515573 0.81433829044117634 0.53548437815604855 0.81893687707641061 0.38313206548212581 0.51661645132497469 0.45197945633564551 0.38535031847133761 0.82670348821650064 0.034878165312947927
decision_type=2 2 2 2 2 2 2 2 2 2
left_child=4 2 -2 -4 -1 -3 7 -6 -9 -10
right_child=1 5 3 -5 6 -7 -8 8 9 -11
leaf_value=-0.20091971836815004 0.43740941322369387 -0.1849875233852849 -0.036550877543352317 0.33146884805211724 -0.18549595848773395 -0.20004831522193572 -0.18985090605779262 -0.18364662159704598 -0.1834084504893381 -0.1824157561548049
leaf_weight=2.3962960615754145 2.5171957314014417 1.4469274878501894 1.8483302295207975 2.9846130609512329 1.194320850074291 1.0520051196217535 1.2318588867783544 1.2077701687812807 0.99523536115884814 1.3221682906150816
leaf_count=16 9 14 10 10 11 8 10 12 10 14
internal_value=-0.00207281 0.156835 0.275205 0.190722 -0.189562 -0.191328 -0.184989 -0.18372 -0.183118 -0.182842
internal_weight=18.1967 9.84907 7.35014 4.83294 8.34765 2.49893 5.95135 4.71949 3.52517 2.3174
internal_count=124 51 29 20 73 22 57 47 36 24
is_linear=0
shrinkage=0.2


Tree=14
num_leaves=11
num_cat=0
split_feature=2 69 114 63 105 77 46 31 135 4
split_gain=8.72259 11.513 4.87438 2.22151 0.00770747 0.00181464 0.00160048 0.000252141 0.000243728 1.21609e-05
threshold=0.19352290679304898 0.2653754269388372 0.45370447515431206 0.025498957287864419 0.39319034035565453 0.63671103220244352 0.67275747508305284 0.51688236683559252 0.62275664928474639 0.89961367386352908
decision_type=2 2 2 2 2 2 2 2 2 2
left_child=4 2 -2 -3 -1 -5 7 -6 -7 -9
right_child=1 3 -4 5 6 8 -8 9 -10 -11
leaf_value=-0.20500161163330938 0.50108189141374371 0.13865390463710645 0.14826143398967526 -0.19409448807221671 -0.18611484930605499 -0.1835164558437461 -0.19122979826795497 -0.18294693535870871 -0.18736110325568422 -0.18199486554294086
leaf_weight=1.0637985020875955 2.4600429832935315 1.0486227124929426 4.311194159090519 1.2561283856630323 1.1194942221045496 1.7639593631029131 1.7027722522616384 0.96924193203449283 1.0534524396061895 1.2023708075284956
leaf_count=6 12 5 19 9 10 18 13 10 9 13
internal_value=0.00580257 0.105299 0.276444 -0.120946 -0.189545 -0.187773 -0.186252 -0.183677 -0.184954 -0.18242
internal_weight=17.9511 11.8934 6.77124 5.12216 6.05768 4.07354 4.99388 3.29111 2.81741 2.17161
internal_count=124 72 31 41 52 36 46 33 27 23
is_linear=0
shrinkage=0.2


Tree=15
num_leaves=12
num_cat=0
split_feature=76 16 68 57 63 26 114 71 33 144 105
split_gain=8.21182 8.78946 5.11291 4.84019 7.57639 4.51546 0.0151705 0.00419918 0.000278374 0.000182281 3.11301e-05
threshold=0.18755986465268751 0.10900473933649292 0.6241552329650738 0.0065513092044947431 0.057500000000000002 0.74801519198190858 0.35311727892282746 0.27833362550787438 0.0024750123032768602 0.0014670422961324469 0.83259520835132839
decision_type=2 2 2 2 2 2 2 2 2 2 2
left_child=1 6 3 -3 -5 -6 -1 -2 9 -9 -10
right_child=7 2 -4 4 5 -7 -8 8 10 -11 -12
leaf_value=-0.18574760438740245 -0.19754266498667031 -0.21160014391700799 0.45653980096228941 0.455443771139944 0.2524869403349409 -0.19508956498283778 -0.21404301065282705 -0.18493930899950969 -0.18428453014549773 -0.18844136106576434 -0.18270344744929012
leaf_weight=1.742525853216651 1.4952638000249852 1.4939573705196361 2.2125933468341827 2.5308074951171875 1.6310187056660654 2.0161633491516113 1.3413668572902677 1.1649685055017474 1.034364730119705 1.2140653952956197 0.96081247925758351
leaf_count=16 10 9 8 10 8 15 7 11 10 10 10
internal_value=0.0078876 0.0967236 0.188692 0.111445 0.189563 0.00506651 -0.198055 -0.188393 -0.185265 -0.186726 -0.183523
internal_weight=18.8379 12.9684 9.88454 7.67195 6.17799 3.64718 3.08389 5.86947 4.37421 2.37903 1.99518
internal_count=124 73 50 42 33 23 23 51 41 21 20
is_linear=0
shrinkage=0.2


Tree=16
num_leaves=11
num_cat=0
split_feature=110 1 18 70 10 131 81 63 130 54
split_gain=15.1903 6.19697 3.68632 0.00476318 0.000452476 0.00027042 0.000398053 0.000183777 0.000174374 8.95732e-05
threshold=0.78054994486837048 0.53014852136805368 0.37845055013260487 0.061068176452823537 0.92975581630161119 0.32176531675724168 0.26546223447891421 0.094711719686982318 0.089859065278664954 0.7480854935580793
decision_type=2 2 2 2 2 2 2 2 2 2
left_child=1 3 -2 -1 5 6 8 -8 -5 -7
right_child=2 -3 -4 4 -6 9 7 -9 -10 -11
leaf_value=-0.19864466687457061 0.034444044634152758 0.28991427832688677 0.34881555387029745 -0.18655775711025072 -0.18990033342573609 -0.18254695591693756 -0.18673757909022951 -0.18987350101739306 -0.18314448384001486 -0.18520942851504762
leaf_weight=1.526422999799254 2.2637321650981894 1.210954725742339 4.3764291703701019 1.1298959925770744 1.3566518127918241 0.95237005501985583 1.5998871922492983 1.4030751734971998 1.2734234333038328 1.0770397037267683
leaf_count=11 12 7 15 10 11 10 14 11 13 10
internal_value=0.00067474 -0.138102 0.241642 -0.188332 -0.186541 -0.185929 -0.186668 -0.188203 -0.184749 -0.18396
internal_weight=18.1699 11.5297 6.64016 10.3188 8.79234 7.43569 5.40628 3.00296 2.40332 2.02941
internal_count=124 97 27 90 79 68 48 25 23 20
is_linear=0
shrinkage=0.2


Tree=17
num_leaves=10
num_cat=0
split_feature=2 53 105 137 59 68 105 27 28
split_gain=22.7707 0.598058 0.000734975 0.000588123 0.00035371 0.00032256 0.00027106 7.46628e-05 6.40169e-05
threshold=0.10900473933649292 0.40375144661519002 0.55298178630128936 0.13019368435231929 0.22313187091117626 0.90333333333333332 0.85334086430379064 0.4138240789585147 0.74307397965510869
decision_type=2 2 2 2 2 2 2 2 2
left_child=1 -1 3 -2 -5 6 7 -4 -9
right_child=2 -3 5 4 -6 -7 -8 8 -10
leaf_value=0.32864511092932031 -0.18450669272241746 0.2077554585967939 -0.18252202294328088 -0.1877818096329176 -0.19218838940575647 -0.18794353909956807 -0.18724441980391374 -0.185172678114078 -0.18334878499041482
leaf_weight=4.0664024204015758 1.1426239237189273 2.7398104667663574 1.5218703448772428 1.5466875284910204 1.3775898441672323 1.1952657327055929 1.0391078442335127 1.4959853142499926 1.5856703370809553
leaf_count=14 11 11 16 13 10 10 9 14 16
internal_value=-0.00706539 0.279982 -0.186225 -0.188354 -0.189858 -0.184959 -0.184327 -0.183668 -0.184234
internal_weight=17.711 6.80621 10.9048 4.0669 2.92428 6.8379 5.64263 4.60353 3.08166
internal_count=124 25 99 34 23 65 55 46 30
is_linear=0
shrinkage=0.2


Tree=18
num_leaves=10
num_cat=0
split_feature=108 26 4 99 70 57 87 127 21
split_gain=14.3764 0.704877 0.00111448 0.000568611 0.00020141 0.000239168 9.21693e-05 5.21987e-05 1.85752e-06
threshold=0.81433829044117634 0.31329633803732132 0.41738076320056716 0.39438096811516654 0.23708630977769254 0.28763277462420944 0.61776233549809068 0.76445084372214411 0.85588997090590258
decision_type=2 2 2 2 2 2 2 2 2
left_child=2 -2 -1 4 5 6 -4 -5 -9
right_child=1 -3 3 7 -6 -7 -8 8 -10
leaf_value=-0.18721071721830557 0.27472381781266703 0.13907973936569287 -0.17988793269690231 -0.1793398235419329 -0.17945927923763366 -0.18523506006003337 -0.18263642173401301 -0.1779340678013098 -0.17750765293145193
leaf_weight=1.1453357860445956 3.731273978948594 2.600331149995327 0.80783868581056673 1.4128517732024195 0.92514827847480763 1.0744863823056219 1.2328522503376005 0.71015869826078393 0.96239475160837173
leaf_count=10 14 13 10 18 12 10 13 10 14
internal_value=-0.00779402 0.219016 -0.18142 -0.180489 -0.18205 -0.18282 -0.181548 -0.178445 -0.177689
internal_weight=14.6027 6.33161 8.27107 7.12573 4.04033 3.11518 2.04069 3.08541 1.67255
internal_count=124 27 97 87 45 33 23 42 24
is_linear=0
shrinkage=0.2


Tree=19
num_leaves=12
num_cat=0
split_feature=56 136 85 47 3 60 101 43 63 35 5
split_gain=9.05332 5.50751 1.95125 1.16766 0.0119312 0.00485384 0.00068035 0.000462032 6.41769e-05 5.03914e-05 3.35636e-06
threshold=0.91089754302640502 0.16551845033533666 0.52057221238424056 0.7409539473684178 0.2326650605194461 0.0036637050901704906 0.3691997629694565 0.046698231529160368 0.065000000000000016 0.016816073647355222 0.72694136524745312
decision_type=2 2 2 2 2 2 2 2 2 2 2
left_child=1 -1 -3 -2 -4 -6 7 -7 -8 10 -10
right_child=3 2 4 -5 5 6 8 -9 9 -11 -12
leaf_value=0.26876363897691957 0.10788404373533114 0.11018954736345095 -0.2049407283110877 0.30990054799681166 -0.19466950500328473 -0.18060817018091571 -0.18069966673903687 -0.18619232901483895 -0.17770896826024996 -0.17965038017626231 -0.17827109926871737
leaf_weight=1.4029200971126545 1.9156686887145049 0.99256517738103767 1.1423965096473674 2.8428535461425781 1.1977894753217695 1.1626660823822024 0.8528079912066463 1.2089360132813451 0.76912874728441261 1.3557199388742445 0.94921735674142838
leaf_count=5 10 6 7 10 10 14 10 11 11 17 13
internal_value=-0.00201606 -0.101459 -0.155387 0.228573 -0.185901 -0.182999 -0.18078 -0.183455 -0.179165 -0.178739 -0.178019
internal_weight=15.7927 11.0341 9.63123 4.75852 8.63866 7.49627 6.29848 2.3716 3.92687 3.07407 1.71835
internal_count=124 104 99 20 93 86 76 25 51 41 24
is_linear=0
shrinkage=0.2


Tree=20
num_leaves=13
num_cat=0
split_feature=15 93 62 86 19 102 60 53 0 33 21 110
split_gain=6.39604 8.58107 2.41363 2.72827 0.844238 0.423751 0.00858172 0.00424284 0.00156377 0.000184038 8.07923e-05 1.72977e-06
threshold=0.22985781990521331 0.50085622728686008 0.010350444628456449 0.8256445040708893 0.22452828301886804 0.76105203514200526 0.33144126054969553 0.71699984948204243 0.38878307136015233 0.0024750123032768602 0.81545918708116349 0.81241960491386445
decision_type=2 2 2 2 2 2 2 2 2 2 2 2
left_child=4 2 -2 -4 -1 7 8 -3 -6 -9 -10 -12
right_child=1 5 3 -5 6 -7 -8 9 10 -11 11 -13
leaf_value=0.040302027093491372 0.38943140444084406 -0.1969579720174337 -0.028148955814367174 0.29327395391400257 -0.18691670569599889 -0.032854568163188262 -0.20050323611206144 -0.18201742491179079 -0.18028899584202215 -0.17799875789746777 -0.17761412739136428 -0.17804750397879165
leaf_weight=0.74848528206348675 2.5301913321018201 0.86983969062566835 1.9882439002394674 2.253625676035881 1.5559215173125269 0.99725215137004841 1.3575576767325399 0.90010994672775246 0.83088935911655459 0.92350780963897705 0.76340688765048959 0.71197587996721268
leaf_count=4 9 6 11 9 14 8 9 10 10 13 11 10
internal_value=0.00687597 0.10112 0.234832 0.142617 -0.158341 -0.144228 -0.186825 -0.185465 -0.182017 -0.179982 -0.178712 -0.177823
internal_weight=16.431 10.4628 6.77206 4.24187 5.96824 3.69071 5.21975 2.69346 3.86219 1.82362 2.30627 1.47538
internal_count=124 66 29 20 58 37 54 29 45 23 31 21
is_linear=0
shrinkage=0.2


Tree=21
num_leaves=10
num_cat=0
split_feature=21 16 22 73 114 93 23 36 24
split_gain=6.36875 6.35249 4.12068 2.53644 0.00810169 0.00521821 0.000399117 0.000103351 0.000109961
threshold=0.70294835895986052 0.10900473933649292 0.80571658110741884 0.046749797613277293 0.35311727892282746 0.30433070763012776 0.55174184758727007 0.00035437026718517536 0.39411525745942128
decision_type=2 2 2 2 2 2 2 2 2
left_child=5 4 -3 -4 -2 -1 7 8 -7
right_child=1 2 3 -5 -6 6 -8 -9 -10
leaf_value=-0.19842545954547811 -0.18034864843496748 0.2880243158722352 0.17519249003574155 -0.12477165945601608 -0.20287177707484241 -0.18287513521175314 -0.18526681118334845 -0.17910558415409708 -0.17969151141135614
leaf_weight=0.88489708304405468 1.4940360635519021 4.9686674326658231 2.2369126453995705 2.2736893147230148 1.1159965544939039 0.9499835446476943 0.85903269052505482 1.379624657332897 0.79892886430025101
leaf_count=6 18 19 11 17 7 10 8 18 10
internal_value=0.00850854 0.0863113 0.162385 0.0239876 -0.189979 -0.184532 -0.181448 -0.1804 -0.181421
internal_weight=16.9618 12.0893 9.47927 4.5106 2.61003 4.87247 3.98757 3.12854 1.74891
internal_count=124 72 47 28 25 52 46 38 20
is_linear=0
shrinkage=0.2


Tree=22
num_leaves=10
num_cat=0
split_feature=125 13 84 12 35 46 35 4 29
split_gain=9.63715 4.3836 1.10944 0.000446539 0.0003649 0.000333255 0.000124624 0.00010948 3.52326e-05
threshold=0.99983854854515564 0.53014852136805368 0.1200671680355261 0.34015016303070572 0.019426377717036859 0.81893687707641061 0.0018943475917214223 0.72482274189668694 0.58531614160025736
decision_type=2 2 2 2 2 2 2 2 2
left_child=1 3 -2 5 6 7 8 -1 -5
right_child=2 -3 -4 4 -6 -7 -8 -9 -10
leaf_value=-0.18654491324050618 0.085864731737602507 0.19674359590694748 0.25867101139939347 -0.17991363385008297 -0.18394404196809866 -0.18074123838166534 -0.17813222578625493 -0.18365227278031701 -0.18134532522676039
leaf_weight=1.1013690084218968 2.4023205637931833 1.4379126578569401 3.8965040892362595 1.5414184629917147 1.0865693241357801 1.0049072429537771 1.2263055890798567 0.99726071953773487 1.2411879599094389
leaf_count=10 10 7 14 19 11 12 17 10 14
internal_value=0.000385101 -0.125356 0.192764 -0.181845 -0.180693 -0.183736 -0.179812 -0.18517 -0.180552
internal_weight=15.9358 9.63693 6.29882 8.19902 5.09548 3.10354 4.00891 2.09863 2.78261
internal_count=124 100 24 93 61 32 50 20 33
is_linear=0
shrinkage=0.2


Tree=23
num_leaves=9
num_cat=0
split_feature=4 58 113 114 58 22 88 118
split_gain=13.3339 1.98646 0.000627198 0.000638707 0.000255162 0.000117109 2.81789e-05 8.8982e-06
threshold=0.87906647807637928 0.28680446316928349 0.29137888072596396 0.40781250000000008 0.013300711525639828 0.76853675409894262 0.59200504546875699 0.091999999999999874
decision_type=2 2 2 2 2 2 2 2
left_child=2 -2 4 -4 -1 -5 -6 -8
right_child=1 -3 3 5 6 -7 7 -9
leaf_value=-0.1818007143373912 0.046774905047428698 0.27232879665016368 -0.18634250382025239 -0.1791311661924142 -0.17960939098620687 -0.18223736974984242 -0.17778981843913641 -0.17867621941332179
leaf_weight=1.7160095050930957 2.3679140061140069 4.5881592333316803 1.6597557887434962 0.77385400980711017 0.87816475331783328 1.3029555305838583 0.9143373370170591 0.89782670140266418
leaf_count=19 13 17 15 10 11 14 13 12
internal_value=-0.00780075 0.195548 -0.181511 -0.183418 -0.179895 -0.18108 -0.17868 -0.178229
internal_weight=15.099 6.95607 8.1429 3.73657 4.40634 2.07681 2.69033 1.81216
internal_count=124 30 94 39 55 24 36 25
is_linear=0
shrinkage=0.2


Tree=24
num_leaves=10
num_cat=0
split_feature=79 77 105 106 0 13 109 64 2
split_gain=10.3798 0.57074 0.00126208 0.000230306 0.000290151 0.000170387 7.08957e-05 2.00765e-05 1.52172e-05
threshold=0.65502411495516399 0.79606296770193763 0.83259520835132839 0.48649225314560174 0.50905806110135154 0.0089091721046099508 0.86983789718227211 0.28488823784124462 0.13905432395265441
decision_type=2 2 2 2 2 2 2 2 2
left_child=2 -2 3 5 6 -1 7 8 -5
right_child=1 -3 -4 4 -6 -7 -8 -9 -10
leaf_value=-0.17766184452045372 0.2431642753239249 0.11312093398891586 -0.18677199451109713 -0.1764615902106432 -0.18008406574608413 -0.18116309740510114 -0.17771481797155439 -0.17444957081325169 -0.175187998018698
leaf_weight=1.2066620923578741 3.3487112373113632 2.2617333829402924 0.67863518744707096 0.6266680657863628 0.8007390908896922 1.0310009084641931 0.6066448539495467 0.76714272052049626 0.93538863956928253
leaf_count=18 14 13 6 10 10 12 9 15 17
internal_value=-0.00962711 0.19074 -0.178599 -0.17767 -0.176709 -0.179275 -0.175789 -0.175287 -0.175699
internal_weight=12.2633 5.61044 6.65288 5.97425 3.73658 2.23766 2.93584 2.3292 1.56206
internal_count=124 27 97 91 61 30 51 42 27
is_linear=0
shrinkage=0.2


Tree=25
num_leaves=11
num_cat=0
split_feature=4 107 5 106 55 47 53 0 36 77
split_gain=7.35287 4.50218 0.667474 0.00118235 0.000549394 0.000216511 0.000195063 6.94889e-05 1.95314e-05 3.87896e-06
threshold=0.58921258083738515 0.79807731709178997 0.24438562462945332 0.48649225314560174 0.90265576881417575 0.62096526716422518 0.8650000000000001 0.39524534249465426 1.0000000180025095e-35 0.18871118907809287
decision_type=2 2 2 2 2 2 2 2 2 2
left_child=1 2 -1 5 -3 -2 7 -5 -9 -10
right_child=3 4 -4 6 -6 -7 -8 8 9 -11
leaf_value=0.25803491384007216 -0.18525726993147781 -0.18803913352108367 0.12747334725099999 -0.17793136039209168 -0.18031330710945809 -0.18101544671109915 -0.17963878011037601 -0.17643181415104539 -0.17478636897017266 -0.175519507753223
leaf_weight=3.312598705291748 1.0316393263638017 0.5952126048505304 2.9710102379322052 0.7572633624076851 0.96522185951471329 0.90229776501655568 0.9460594281554221 0.80488403514027584 0.5845728814601896 0.57028789818286896
leaf_count=13 10 7 12 11 14 11 12 13 11 10
internal_value=-0.00415834 0.120795 0.196303 -0.179278 -0.18326 -0.183278 -0.177165 -0.176304 -0.175676 -0.175148
internal_weight=13.441 7.84404 6.28361 5.597 1.56043 1.93394 3.66307 2.71701 1.95974 1.15486
internal_count=124 46 25 78 21 21 57 45 34 21
is_linear=0
shrinkage=0.2


Tree=26
num_leaves=12
num_cat=0
split_feature=2 9 2 74 106 78 102 46 0 36 36
split_gain=4.72672 5.02287 2.39333 0.811603 0.716243 0.0029266 0.00274684 0.000384972 0.000340257 7.503e-05 3.10286e-05
threshold=0.19352290679304898 0.55982905982905995 0.27488151658767773 0.11191334729365633 0.84472663616507149 0.63404635453476599 0.33565156598904838 0.67275747508305284 0.827870739293738 0.037865708655503261 0.00035437026718517536
decision_type=2 2 2 2 2 2 2 2 2 2 2
left_child=6 2 -2 -4 5 -3 -1 9 -7 10 -8
right_child=1 4 3 -5 -6 8 7 -9 -10 -11 -12
leaf_value=-0.19037270847078777 -0.024831809427388694 -0.1926616929378642 0.31139629422109832 0.15747912313021897 0.030633052891050845 -0.17534168166049724 -0.17638829008534407 -0.18094055025885208 -0.18161842210934831 -0.17805251806902239 -0.17448477312438501
leaf_weight=0.90014481544494751 1.8968748599290828 1.035205818712712 2.7900610864162445 2.6930339187383652 0.83065920695662487 0.66504743695259072 0.61679104343056701 1.0051411502063272 0.71889174729585648 0.57250624150037754 0.77036315202713013
leaf_count=7 10 8 10 14 10 12 10 12 8 8 15
internal_value=0.00871033 0.0775779 0.168809 0.2358 -0.1296 -0.184619 -0.180696 -0.177758 -0.178602 -0.176126 -0.175331
internal_weight=14.4947 10.6298 7.37997 5.4831 3.2498 2.41915 3.86495 2.9648 1.38394 1.95966 1.38715
internal_count=124 72 34 24 38 28 52 45 20 33 25
is_linear=0
shrinkage=0.2


Tree=27
num_leaves=10
num_cat=0
split_feature=21 15 61 63 117 144 77 138 26
split_gain=4.65117 4.27589 1.58268 2.9071 1.76761 0.00417051 0.00181434 0.000198047 9.03849e-05
threshold=0.70294835895986052 0.10900473933649292 0.022780012277331754 0.25130790566837541 0.17459699392189679 0.0014670422961324469 0.37368656418944229 0.18591907409999486 0.31329633803732132
decision_type=2 2 2 2 2 2 2 2 2
left_child=6 5 -3 4 -4 -2 -1 -8 -9
right_child=1 2 3 -5 -6 -7 7 8 -10
leaf_value=-0.18852209143022972 -0.19481931729222457 0.23478802557530098 0.10075394092777473 0.22349918757673143 -0.20848877288000561 -0.17672172922802795 -0.1804441360481206 -0.17546492638754974 -0.17802641387321269
leaf_weight=0.79266448318958405 0.9183619432151312 3.7101176679134351 1.355184964835644 2.5304102897644043 1.6269708797335622 1.1436037048697469 0.81009252741932902 1.0670043304562571 1.1394763477146623
leaf_count=7 7 14 10 10 13 18 10 19 16
internal_value=0.0110818 0.0755856 0.133797 0.0658277 -0.0679592 -0.184782 -0.180007 -0.17777 -0.176788
internal_weight=15.0939 11.2846 9.22268 5.51257 2.98216 2.06197 3.80924 3.01657 2.20648
internal_count=124 72 47 33 23 25 52 45 35
is_linear=0
shrinkage=0.2


Tree=28
num_leaves=10
num_cat=0
split_feature=25 144 55 73 15 133 35 116 116
split_gain=7.22968 4.69254 1.62497 2.23579 0.0157541 0.00341375 0.000200911 0.000200653 0.000118125
threshold=0.55243064710072598 1.0000000180025095e-35 0.71500000000000008 0.10477366506633479 0.19352290679304898 0.60876560167122207 0.019426377717036859 0.32031768407657418 0.073691606044780547
decision_type=2 2 2 2 2 2 2 2 2
left_child=4 2 3 -2 -1 -3 7 8 -6
right_child=1 5 -4 -5 6 -7 -8 -9 -10
leaf_value=-0.20297681118391711 -0.031527543796956214 -0.17598043415695758 0.31161227048395107 0.25243051694650676 -0.17823845138797345 -0.19449568430772274 -0.18150034681734273 -0.17967544298602861 -0.17499284925504072
leaf_weight=1.4448120221495635 2.2017544955015165 1.117628041654825 2.5601740330457687 2.235025554895401 0.79643134027719575 0.61889373511075962 0.70421437174081791 1.2825860008597372 1.0269008353352544
leaf_count=10 12 19 12 9 11 7 8 17 19
internal_value=0.000165771 0.111697 0.184731 0.111516 -0.185194 -0.182579 -0.17845 -0.177759 -0.176411
internal_weight=13.9884 8.73348 6.99695 4.43678 5.25494 1.73652 3.81013 3.10592 1.82333
internal_count=124 59 33 21 65 26 55 47 30
is_linear=0
shrinkage=0.2


Tree=29
num_leaves=10
num_cat=0
split_feature=5 34 1 74 56 114 62 106 8
split_gain=10.7069 0.718994 0.0114357 0.000410425 0.000167457 0.000131791 0.000104283 5.18831e-05 9.44913e-06
threshold=0.88496919032589594 0.0030857933478686457 0.40983606557377056 0.087463488254049676 0.85250000000000015 0.35338374380449633 0.09268396115784365 0.38313206548212581 0.80322702152823033
decision_type=2 2 2 2 2 2 2 2 2
left_child=2 -2 3 -1 6 -6 7 -5 -8
right_child=1 -3 -4 4 5 -7 8 -9 -10
leaf_value=-0.18151051537729668 0.098203299333224914 0.24247881625047404 -0.20573735213667935 -0.17880600891758255 -0.17753282978780599 -0.18104783187277751 -0.17570993817852604 -0.17665908412981604 -0.17458921881406492
leaf_weight=1.2682340927422044 2.2218718267977238 3.6536606997251511 0.67536659911274899 0.74776064231991801 0.99893856793642022 0.74478994309902191 0.58141103386878945 1.1316442638635633 0.62377823516726494
leaf_count=15 15 15 5 10 15 9 10 18 12
internal_value=-0.00963723 0.18792 -0.181044 -0.178309 -0.177468 -0.179034 -0.176582 -0.177513 -0.17513
internal_weight=12.6475 5.87553 6.77192 6.09656 4.82832 1.74373 3.08459 1.8794 1.20519
internal_count=124 30 94 89 74 24 50 28 22
is_linear=0
shrinkage=0.2


Tree=30
num_leaves=9
num_cat=0
split_feature=26 70 82 106 99 26 62 120
split_gain=7.30759 1.05763 0.0046277 0.000560391 0.000109335 6.94918e-05 4.43414e-05 8.28368e-06
threshold=0.34456932543590463 0.54795871588429879 0.62913241833813871 0.85394624271265729 0.39438096811516654 0.68763766390354431 0.030345936375621239 0.29182024656982225
decision_type=2 2 2 2 2 2 2 2
left_child=1 -1 3 4 6 -6 -2 -7
right_child=2 -3 -4 -5 5 7 -8 -9
leaf_value=0.012022616783860608 -0.17463931038324912 0.21942152861475234 -0.19316157841286852 -0.18171409101700603 -0.17579476936670108 -0.17353920145784071 -0.17663802439367943 -0.17260502693308205
leaf_weight=1.3561530336737631 0.70993017032742534 3.5793643593788147 0.69527303427457798 0.53167788684368122 0.51195971295237575 0.81082613021135308 1.1851981841027734 0.71406665816903114
leaf_count=16 14 18 6 6 9 18 19 18
internal_value=-0.0115423 0.162434 -0.177984 -0.17562 -0.174796 -0.173779 -0.175889 -0.173102
internal_weight=10.0944 4.93552 5.15893 4.46366 3.93198 2.03685 1.89513 1.52489
internal_count=124 34 90 84 78 45 33 36
is_linear=0
shrinkage=0.2


Tree=31
num_leaves=11
num_cat=0
split_feature=69 56 107 48 26 35 105 100 105 54
split_gain=5.14355 2.95244 2.52888 0.113646 0.0228525 0.00570433 0.000427987 7.75459e-05 2.85402e-05 3.41507e-06
threshold=0.14043515017639466 0.91089754302640502 0.32041435210087293 0.79630866760324215 0.54536726638198685 0.0077754737247819573 0.48911702890308523 0.37645626936501148 0.58332954020220018 0.70091522318988719
decision_type=2 2 2 2 2 2 2 2 2 2
left_child=4 2 -2 5 -1 -4 -6 -8 9 -9
right_child=1 -3 3 -5 6 -7 7 8 -10 -11
leaf_value=-0.22341458185796348 0.1742100499333599 0.23835846712888006 -0.20102259383997334 -0.088424856958367409 -0.17915629031923885 -0.17643223809660355 -0.17612375536182617 -0.17345587068441826 -0.17479223835345992 -0.17272460508336474
leaf_weight=0.45708071067929257 1.5679096877574923 3.265092670917511 0.632666736841202 0.6794169358909129 1.1865722797811034 0.93501219898462296 0.83878716826438937 0.53875092417001702 0.6642770580947398 0.4857945591211319
leaf_count=4 7 14 7 7 16 18 14 12 13 12
internal_value=-0.00504074 0.0987535 -0.0207282 -0.156746 -0.181216 -0.186356 -0.176023 -0.174552 -0.173771 -0.173109
internal_weight=11.2514 7.0801 3.81501 2.2471 4.17126 1.56768 3.71418 2.52761 1.68882 1.02455
internal_count=124 53 39 32 71 25 67 51 37 24
is_linear=0
shrinkage=0.2


Tree=32
num_leaves=11
num_cat=0
split_feature=15 55 71 43 47 78 102 106 19 32
split_gain=3.5573 3.582 2.3395 1.47151 1.31695 0.00316656 0.0012698 0.000163247 4.69634e-05 5.61459e-06
threshold=0.19352290679304898 0.93435809951937931 0.27833362550787438 0.030813125115114578 0.63604583162743855 0.63404635453476599 0.33565156598904838 0.58444201619525427 0.39493302456728979 0.60874664053502381
decision_type=2 2 2 2 2 2 2 2 2 2
left_child=6 2 3 -2 -4 -3 -1 8 -8 -10
right_child=1 5 4 -5 -6 -7 7 -9 9 -11
leaf_value=-0.18462220294900089 0.07764454636383987 -0.19226670214914973 0.138767797926001 0.28356657170403093 -0.18076545442192549 -0.17538851173345199 -0.17531775414535897 -0.17782283596678627 -0.17273652318606911 -0.17368228319422832
leaf_weight=0.72755477577448013 2.4038239419460279 0.94832170009613015 0.87716555967927012 3.2850190922617912 1.2528407163918016 0.83711504936218262 0.6700856909155849 0.61600482463836659 0.56011675298213937 0.45507995039224625
leaf_count=7 11 7 7 14 17 16 12 9 14 10
internal_value=0.0116467 0.0712459 0.129612 0.196554 -0.0491773 -0.184353 -0.177339 -0.175037 -0.174018 -0.17316
internal_weight=12.6331 9.60429 7.81885 5.68884 2.13001 1.78544 3.02884 2.30129 1.68528 1.0152
internal_count=124 72 49 25 24 23 52 45 36 24
is_linear=0
shrinkage=0.2


Tree=33
num_leaves=10
num_cat=0
split_feature=94 22 3 10 43 21 64 77 64
split_gain=3.66195 3.26417 2.14244 0.96231 0.42014 0.0137229 0.00271771 0.000362672 6.04697e-05
threshold=0.29635154092765864 0.80571658110741884 0.3166316894018889 0.79001467164568762 0.063580145831300991 0.7955859061310695 0.060888381419549366 0.37368656418944229 0.41834740625104666
decision_type=2 2 2 2 2 2 2 2 2
left_child=1 -1 -3 5 6 7 -4 -2 -9
right_child=3 2 4 -5 -6 -7 -8 8 -10
leaf_value=0.23368787644979905 -0.18028016333921273 0.13887075829136483 -0.19423564705430302 0.0074159069042015607 -0.013719448042173059 -0.20323932477628837 -0.17897877220392644 -0.17545435110681321 -0.17291031240537161
leaf_weight=3.6683157011866552 0.60976275801658797 2.0011959746479988 0.83946021646261249 1.5013695098459718 0.81140646338462818 1.1136346608400343 1.0526192449033258 1.0772685594856737 0.57224614545702923
leaf_count=19 8 8 7 16 9 8 16 19 14
internal_value=0.0120387 0.0922689 -0.0179978 -0.12578 -0.134116 -0.185069 -0.185748 -0.176112 -0.174572
internal_weight=13.2473 8.373 4.70468 4.87428 2.70349 3.37291 1.89208 2.25928 1.64951
internal_count=124 59 40 65 32 49 23 41 33
is_linear=0
shrinkage=0.2


Tree=34
num_leaves=11
num_cat=0
split_feature=2 144 9 113 26 2 3 44 56 26
split_gain=5.05544 3.04969 1.74591 0.231251 0.218862 0.00624147 0.00229265 0.000123959 0.000106258 4.14729e-05
threshold=0.18009478672985782 1.0000000180025095e-35 0.11324187431796655 0.28505632542221998 0.82419491025678571 0.27488151658767773 0.35919664552063862 0.15646577668733397 0.8583323951388192 0.61394613541357468
decision_type=2 2 2 2 2 2 2 2 2 2
left_child=1 2 -1 -4 5 -2 -3 8 9 -7
right_child=4 6 3 -5 -6 7 -8 -9 -10 -11
leaf_value=0.0032679770012442309 -0.19347344516025192 -0.19067746492977811 0.17716725332189731 0.27276083397930312 -0.056041297038415754 -0.1729638190805417 -0.17351369531567701 -0.17806501548195922 -0.1767529322013186 -0.17517731108319728
leaf_weight=1.9184235557913778 1.086689870804548 0.58359113335609414 1.7128880023956297 2.4746847450733185 0.65739184245467175 0.78638890013098783 0.66717268899083138 0.69202104583382595 0.855956271290779 0.59459154680371284
leaf_count=9 12 5 10 10 9 19 15 10 14 11
internal_value=-0.000339756 0.102993 0.161273 0.233659 -0.163016 -0.180529 -0.181522 -0.175726 -0.175002 -0.173917
internal_weight=12.0298 7.35676 6.106 4.18757 4.67304 4.01565 1.25076 2.92896 2.23694 1.38098
internal_count=124 49 29 20 75 66 20 54 44 30
is_linear=0
shrinkage=0.2


Tree=35
num_leaves=9
num_cat=0
split_feature=15 53 4 56 10 28 28 27
split_gain=7.70891 0.43778 0.000407936 0.000107521 0.000172053 7.04472e-05 3.22372e-05 2.29615e-05
threshold=0.10900473933649292 0.40375144661519002 0.85238898828840159 0.85250000000000015 0.64650769738103009 0.41430354002732639 0.74307397965510869 0.50467220468095397
decision_type=2 2 2 2 2 2 2 2
left_child=1 -1 3 5 -5 -2 7 -7
right_child=2 -3 -4 4 -6 6 -8 -9
leaf_value=0.22521545808722673 -0.17276816073368506 0.10541734003459774 -0.17977841334880881 -0.17490009138788132 -0.17920936927333497 -0.17489618762008807 -0.17407863781419405 -0.17654654415833917
leaf_weight=2.6237093210220337 0.72531697526574168 2.2808854281902313 0.93693198263645161 0.98255943134427048 0.59505189955234528 0.74423267319798492 0.85812504962086666 0.61659327521920204
leaf_count=14 18 11 12 19 8 14 18 10
internal_value=-0.0124764 0.169503 -0.17598 -0.175193 -0.176525 -0.174479 -0.175039 -0.175644
internal_weight=10.3634 4.90459 5.45881 4.52188 1.57761 2.94427 2.21895 1.36083
internal_count=124 25 99 87 27 60 42 24
is_linear=0
shrinkage=0.2


Tree=36
num_leaves=10
num_cat=0
split_feature=2 57 107 63 99 22 32 21 30
split_gain=5.54091 0.675078 0.00189918 0.000205666 7.79446e-05 3.62631e-05 1.32049e-05 9.99447e-06 2.82969e-06
threshold=0.43838862559241709 0.012881483670809544 0.81990122521768782 0.46132989937794883 0.39438096811516654 0.81316803274501392 0.44817539859926775 0.81545918708116349 0.56393659216413616
decision_type=2 2 2 2 2 2 2 2 2
left_child=2 -2 3 4 5 6 -1 -6 -9
right_child=1 -3 -4 -5 7 -7 -8 8 -10
leaf_value=-0.17176947824671773 0.033996041023835154 0.21042368104573173 -0.1855539333531164 -0.17643728274912951 -0.17226353425980415 -0.17467627716578257 -0.17339578128338012 -0.17063111935387043 -0.17139534479160334
leaf_weight=0.33821128495037622 1.26875739172101 2.7432145997881889 0.60942920297384251 0.73599373921751965 0.44852821901440598 0.71366239711642265 0.48766098171472549 0.32626955397427082 0.47732940688729286
leaf_count=10 13 17 7 13 12 14 11 12 15
internal_value=-0.0128395 0.15463 -0.175244 -0.173463 -0.172679 -0.173632 -0.17273 -0.171507 -0.171085
internal_weight=8.14906 4.01197 4.13708 3.52766 2.79166 1.53953 0.825872 1.25213 0.803599
internal_count=124 30 94 87 74 35 21 39 27
is_linear=0
shrinkage=0.2


Tree=37
num_leaves=10
num_cat=0
split_feature=77 107 5 63 5 99 134 12 12
split_gain=3.97829 1.86343 0.527866 0.0741204 0.0170572 0.000178209 6.22936e-05 4.07673e-05 1.14089e-05
threshold=0.37368656418944229 0.76098906593406535 0.24438562462945332 0.69250000000000012 0.65448664832048209 0.37223390005676416 0.65117818909481306 0.45197945633564551 0.41308308378276698
decision_type=2 2 2 2 2 2 2 2 2
left_child=4 2 -2 -3 -1 6 -6 8 -7
right_child=1 3 -4 -5 5 7 -8 -9 -10
leaf_value=-0.21219079829315346 0.21439445670788704 -0.17919499881947465 0.079653273926421769 -0.077304771001013017 -0.17376682426614865 -0.17230991485155886 -0.17678067102846798 -0.1740294406088852 -0.17109525498173314
leaf_weight=0.54902593418955836 2.4279887080192566 0.64117492362856843 2.2322686910629272 0.51494159176945686 0.45821851491928123 0.67414529435336568 0.68353389948606491 0.42083306424319733 0.57154718600213528
leaf_count=5 13 15 16 8 10 18 11 9 19
internal_value=-0.00659422 0.0934692 0.149853 -0.133812 -0.17995 -0.173646 -0.175571 -0.172328 -0.171753
internal_weight=9.17368 5.81637 4.66026 1.15612 3.3573 2.80828 1.14175 1.66653 1.24569
internal_count=124 52 29 23 72 67 21 46 37
is_linear=0
shrinkage=0.2


Tree=38
num_leaves=11
num_cat=0
split_feature=2 90 130 99 78 135 101 139 59 30
split_gain=2.59331 2.8937 2.53562 0.560854 0.336578 0.0644686 0.00066099 4.73768e-05 1.33695e-05 8.88134e-06
threshold=0.19352290679304898 0.56589329625790463 0.69269480996504795 0.32075467155571274 0.56446850645891455 0.20307561412560085 0.35795455621556399 0.42285262422042119 0.17303942691425286 0.5666577729875899
decision_type=2 2 2 2 2 2 2 2 2 2
left_child=6 4 3 -3 -2 -4 -1 -8 9 -9
right_child=1 2 5 -5 -6 -7 7 8 -10 -11
leaf_value=-0.17971747243233399 -0.1875194281321575 0.26748078969345807 -0.178752614906354 0.13367127867960124 -0.026621080642485431 -0.081708304400574583 -0.17450666650648644 -0.1707433941305051 -0.17283379650749342 -0.17214644669230725
leaf_weight=0.78803048282861832 1.4695794433355316 2.2664316147565842 0.65633079595863797 2.8019782863557339 0.80487017333507527 0.46983904018998146 0.3956778049468993 0.36222269758582093 0.44747264683246613 0.3596423827111721
leaf_count=10 14 9 10 18 10 11 8 13 11 10
internal_value=0.0107457 0.0623518 0.133191 0.193507 -0.130582 -0.138266 -0.174994 -0.172615 -0.171975 -0.171442
internal_weight=10.8221 8.46903 6.19458 5.06841 2.27445 1.12617 2.35305 1.56502 1.16934 0.721865
internal_count=124 72 48 27 24 21 52 42 34 23
is_linear=0
shrinkage=0.2


Tree=39
num_leaves=12
num_cat=0
split_feature=76 22 85 1 10 132 43 11 109 10 10
split_gain=3.00153 2.54725 1.58056 1.14446 0.638734 0.314398 0.00317493 0.00226179 0.000172846 0.00014645 1.73866e-05
threshold=0.15166213863695238 0.80571658110741884 0.65803161773705676 0.0033504726063936035 0.52390377588306958 0.06569764982830549 0.50925396449901095 0.37261146496815301 0.024516772152015424 0.61616133841171483 0.55490864693324815
decision_type=2 2 2 2 2 2 2 2 2 2 2
left_child=1 4 3 -3 -1 -2 8 -4 10 -10 -7
right_child=5 2 7 -5 -6 6 -8 -9 9 -11 -12
leaf_value=0.11676116992843857 0.022170158526050025 -0.055909917745767514 -0.19366628887646853 0.20031799681990548 0.27684318991251672 -0.17293582246536005 -0.19278078484622752 -0.17848804691116468 -0.17356019685535201 -0.17762445348732891 -0.17110736042097752
leaf_weight=2.1343829818069917 0.35675625130534294 1.5056717246770861 0.65364205092191674 1.2987288460135458 1.8709443211555479 0.49820398539304811 0.45116446539759625 0.98373587615787983 0.65315195173025109 0.77595435455441475 0.35713828727602959
leaf_count=14 4 13 5 7 7 12 5 18 15 12 12
internal_value=0.0141646 0.075881 -0.0284113 0.0627502 0.191538 -0.15442 -0.177449 -0.184547 -0.174421 -0.175767 -0.172172
internal_weight=11.5395 8.44711 4.44178 2.8044 4.00533 3.09237 2.73561 1.63738 2.28445 1.42911 0.855342
internal_count=124 64 43 20 21 60 56 23 51 27 24
is_linear=0
shrinkage=0.2


Tree=40
num_leaves=12
num_cat=0
split_feature=2 58 87 58 66 35 2 1 42 131 137
split_gain=3.5323 2.58819 1.43583 0.709878 0.260499 0.0136983 0.00273447 0.00118714 7.56939e-05 4.41962e-05 1.57643e-05
threshold=0.18009478672985782 0.22522181351300061 0.61544165057556632 0.051713456955932144 0.77528096940380509 1.0000000180025095e-35 0.27488151658767773 0.40983606557377056 0.045531148282314512 0.32176531675724168 0.5182986654957723
decision_type=2 2 2 2 2 2 2 2 2 2 2
left_child=1 3 -3 -1 6 -4 -2 -7 9 10 -8
right_child=4 2 5 -5 -6 7 8 -9 -10 -11 -12
leaf_value=0.081211100982665096 -0.18598874393962214 0.16202396739686037 -0.21765085428951525 0.24764458794840105 -0.024058481761016187 -0.17158220132707286 -0.17281621152300439 -0.18558597062876817 -0.17542574821067114 -0.1711954751784498 -0.17436628833975459
leaf_weight=1.7250654660165308 1.0228627212345607 0.6477194428443912 0.56823693215846993 2.5262996330857277 0.51430058851838101 0.48762118443846703 0.63913027010858081 0.48099535331130028 0.56426638364791859 0.51022731885313977 0.44527657330036163
leaf_count=10 14 4 3 12 8 15 16 5 11 17 9
internal_value=-0.000294946 0.0891952 -0.0877354 0.180111 -0.156124 -0.192998 -0.177471 -0.178536 -0.173435 -0.17273 -0.173453
internal_weight=10.132 6.43594 2.18457 4.25137 3.69606 1.53685 3.18176 0.968617 2.1589 1.59463 1.08441
internal_count=124 49 27 22 75 23 67 20 53 42 25
is_linear=0
shrinkage=0.2


Tree=41
num_leaves=11
num_cat=0
split_feature=5 62 147 99 147 60 59 74 54 137
split_gain=5.56457 0.864163 0.00799475 0.000112912 0.000108985 4.21816e-05 3.36904e-05 2.74242e-05 1.07517e-05 5.88379e-06
threshold=0.88496919032589594 0.29886160763549924 0.10900473933649292 0.37223390005676416 0.21721958925750398 1.0000000180025095e-35 0.81393224996509084 0.11191334729365633 0.065507848697950691 0.4148601204773224
decision_type=2 2 2 2 2 2 2 2 2 2
left_child=2 -2 -1 4 -4 -5 7 -6 -7 -10
right_child=1 -3 3 5 6 8 -8 -9 9 -11
leaf_value=-0.20158946791603244 0.019126999189119101 0.21102678169631794 -0.17643180491897309 -0.17388744576388304 -0.17374447102352475 -0.17260005777559254 -0.17482771200997838 -0.17139009175783076 -0.17080737237521718 -0.17186377996529514
leaf_weight=0.4559866115450858 1.3979930430650709 2.8568051010370255 0.7708351202309135 0.51579629629850376 0.41556130349636056 0.39163022115826585 0.42632708512246609 0.3778250627219677 0.42464733123779297 0.41894704662263393
leaf_count=3 12 18 13 11 9 10 9 12 15 12
internal_value=-0.0132071 0.147975 -0.176587 -0.17354 -0.17457 -0.172368 -0.173394 -0.172623 -0.171734 -0.171332
internal_weight=8.45235 4.2548 4.19756 3.74157 1.99055 1.75102 1.21971 0.793386 1.23522 0.843594
internal_count=124 30 94 91 43 48 30 21 37 27
is_linear=0
shrinkage=0.2


Tree=42
num_leaves=10
num_cat=0
split_feature=108 2 72 5 90 3 0 0 66
split_gain=4.16802 0.288375 0.000539109 7.1097e-05 3.89016e-05 3.85793e-05 1.47984e-05 1.2401e-05 1.62546e-06
threshold=0.81433829044117634 0.51636742149179005 0.71394309017186142 0.57069454287739207 0.96901543979311389 0.32847989682786194 0.45197945633564551 0.39524534249465426 0.51546751069204577
decision_type=2 2 2 2 2 2 2 2 2
left_child=2 -2 3 4 -1 -5 7 -7 -9
right_child=1 -3 -4 5 -6 6 -8 8 -10
leaf_value=-0.17492776580333447 0.075709221922246592 0.19545460087995173 -0.18066848644279185 -0.1727160779813034 -0.17217322548318639 -0.17127978696841822 -0.1720597459006232 -0.17021776937246424 -0.16958792618234056
leaf_weight=0.41854992881417352 1.3846472613513472 1.9198386520147321 0.31725772842764843 0.62273764424026046 0.40210997126996517 0.50773040764033772 0.3188231773674487 0.43577058240771294 0.26270104758441448
leaf_count=8 12 15 4 16 12 17 9 18 13
internal_value=-0.0133228 0.145279 -0.172832 -0.171995 -0.173578 -0.17139 -0.170848 -0.170528 -0.169981
internal_weight=6.59017 3.30449 3.28568 2.96842 0.82066 2.14776 1.52503 1.2062 0.698472
internal_count=124 27 97 93 20 73 57 48 31
is_linear=0
shrinkage=0.2


Tree=43
num_leaves=12
num_cat=0
split_feature=93 106 87 46 68 28 102 99 95 63 33
split_gain=2.75792 1.29794 0.573233 1.04631 0.0985031 0.0074384 9.03818e-05 8.63632e-05 2.50755e-05 1.76258e-05 4.83509e-06
threshold=0.32120952403606595 0.76666666666666672 0.5326852816416755 0.81893687707641061 1.0000000180025095e-35 0.5161080371933503 0.84075188861921202 0.3796324540418024 0.16994102638665889 0.19992057446090936 1.0000000180025095e-35
decision_type=2 2 2 2 2 2 2 2 2 2 2
left_child=5 2 -2 -4 -3 -1 -6 8 -7 10 -9
right_child=1 4 3 -5 6 7 -8 9 -10 -11 -12
leaf_value=-0.20009419039566143 0.21369013830966499 -0.040468294525850934 -0.083565917317765734 0.1912611773434307 -0.17123508792910139 -0.17428938764170646 -0.1759961995391191 -0.17081531390082216 -0.17212642286407065 -0.17210370146953502 -0.16987893196283749
leaf_weight=0.45696807838976417 1.7790624648332594 0.34133094921708096 1.050737811252475 1.1723838597536085 0.34920292906463146 0.53817411884665523 0.29356040619313717 0.46792508289217927 0.3563532792031765 0.32109514065086842 0.4172766637057066
leaf_count=5 9 4 11 9 14 11 6 17 10 9 19
internal_value=-0.00812958 0.0784792 0.129078 0.0613667 -0.127299 -0.176969 -0.17341 -0.171939 -0.173428 -0.170834 -0.170374
internal_weight=7.54407 4.98628 4.00218 2.22312 0.984094 2.55779 0.642763 2.10082 0.894527 1.2063 0.885202
internal_count=124 53 29 20 24 71 20 66 21 45 36
is_linear=0
shrinkage=0.2


Tree=44
num_leaves=11
num_cat=0
split_feature=8 91 76 81 36 107 2 58 114 101
split_gain=2.13362 2.29579 1.33329 2.54271 0.285011 0.000640883 0.000378136 0.000121165 0.000144509 7.69421e-06
threshold=0.71370611659312488 0.50538364680182457 0.18755986465268751 0.20163266341388122 0.056926698623235662 0.21944966883182135 0.19352290679304898 0.22522181351300061 0.35338374380449633 0.38528629379142088
decision_type=2 2 2 2 2 2 2 2 2 2
left_child=1 6 3 -3 5 -2 -1 -7 9 -9
right_child=4 2 -4 -5 -6 7 -8 8 -10 -11
leaf_value=-0.17103729296438519 -0.18197720749974472 0.22043090810928262 0.2438396293732312 -0.13860956386561679 0.0027597188993251573 -0.17586237280188624 -0.17814476646021277 -0.1696761987663695 -0.17531850631649246 -0.17103952393118776
leaf_weight=0.50971715524792649 0.44915273413062173 1.5949705317616465 2.268396008759737 1.5613423231989143 0.43399382010102261 0.5555007867515086 0.72571772709488869 0.26630466431379296 0.39111994579434395 0.43782110325992107
leaf_count=18 6 9 11 18 6 10 11 13 7 15
internal_value=0.0114155 0.0708431 0.12688 0.0428233 -0.144785 -0.175279 -0.175212 -0.173456 -0.172236 -0.170524
internal_weight=9.19404 6.66014 5.42471 3.15631 2.53389 2.0999 1.23543 1.65075 1.09525 0.704126
internal_count=124 67 38 27 57 51 29 45 35 28
is_linear=0
shrinkage=0.2


Tree=45
num_leaves=12
num_cat=0
split_feature=76 2 66 81 134 55 75 9 9 26 81
split_gain=2.20963 0.977397 1.13466 1.07311 0.400736 0.2781 0.00154491 0.000115436 3.37466e-05 1.45783e-05 2.46676e-06
threshold=0.15166213863695238 0.1261207032592426 0.29169699061230164 0.20163266341388122 0.66774999418365011 0.18117391056011861 0.15081475670620081 0.49965548332125093 0.85322114118960213 0.33168184035392373 0.73352284638605736
decision_type=2 2 2 2 2 2 2 2 2 2 2
left_child=1 4 3 -3 -1 -2 -7 -8 9 10 -9
right_child=5 2 -4 -5 -6 6 7 8 -10 -11 -12
leaf_value=0.058763233568455545 0.024212458028276485 -0.072300881125387906 0.2279481219993591 0.13116466557159831 -0.17836136577509923 -0.1875913769273968 -0.17485932481768809 -0.17059522616037867 -0.1732971136610682 -0.17190435335184237 -0.16967230889482807
leaf_weight=0.44639984518289544 0.32202756032347712 1.8153457939624784 1.9607168138027189 2.4178517237305641 0.78885984979569912 0.33745169267058406 0.69590676203370083 0.23725995793938615 0.32035935111343861 0.31711125001311302 0.22635879553854465
leaf_count=4 4 17 9 17 17 4 15 9 8 9 11
internal_value=0.0154014 0.0697732 0.102169 0.0439114 -0.092669 -0.149036 -0.175175 -0.172843 -0.171569 -0.170859 -0.170145
internal_weight=9.88565 7.42917 6.19391 4.2332 1.23526 2.45648 2.13445 1.797 1.10109 0.78073 0.463619
internal_count=124 64 43 34 21 60 56 52 37 29 20
is_linear=0
shrinkage=0.2


Tree=46
num_leaves=10
num_cat=0
split_feature=74 84 116 55 26 23 10 62 77
split_gain=2.72034 1.02273 1.02819 0.327076 0.273776 0.00236278 6.42292e-05 4.70355e-05 1.60352e-05
threshold=0.1201193418369923 0.061486387872044759 0.40639041437843232 0.71500000000000008 0.81629095448231015 0.72354038171540969 0.94480816077953733 0.28897538574314102 0.63882303048001676
decision_type=2 2 2 2 2 2 2 2 2
left_child=1 -1 3 -3 5 6 7 8 -2
right_child=4 2 -4 -5 -6 -7 -8 -9 -10
leaf_value=-0.086843029667381971 -0.17335365271886927 0.1179920437179173 -0.034140157884262959 0.24628584475817769 -0.0057394200124230195 -0.18492566575605626 -0.17481465537993318 -0.1700138075190516 -0.1715865863777406
leaf_weight=1.1180687565356491 0.50508421659469671 1.4965476673096421 1.1541186552494762 1.6953219920396803 0.4351858515292405 0.97706222347915161 0.36235705390572537 0.40368520095944405 0.34621613472700119
leaf_count=15 12 19 14 7 6 14 8 18 11
internal_value=-0.000530627 0.0837503 0.127638 0.186134 -0.152537 -0.17716 -0.172469 -0.171792 -0.172635
internal_weight=8.49365 5.46406 4.34599 3.19187 3.02959 2.5944 1.61734 1.25499 0.8513
internal_count=124 55 40 26 69 63 49 41 23
is_linear=0
shrinkage=0.2


Tree=47
num_leaves=11
num_cat=0
split_feature=15 144 4 109 26 15 101 91 70 8
split_gain=4.08247 0.491434 0.000190293 2.23112e-05 3.08716e-05 2.50559e-05 2.29044e-05 2.17175e-05 1.71858e-05 1.56789e-06
threshold=0.10900473933649292 0.0046988945199810004 0.85238898828840159 0.024516772152015424 0.84774814219835204 0.21721958925750398 0.34848485996326833 0.51127100034020023 0.23708630977769254 0.81236635282503411
decision_type=2 2 2 2 2 2 2 2 2 2
left_child=1 -1 3 7 5 -5 8 -2 -7 -9
right_child=2 -3 -4 4 -6 6 -8 9 -10 -11
leaf_value=0.04024900119946611 -0.17199129612211425 0.19645872345423698 -0.17557765349972865 -0.17370549348164677 -0.17038838084433289 -0.17213174554820268 -0.17310272385908826 -0.17028495149547634 -0.17001108933927161 -0.16952936220907838
leaf_weight=1.2893439903855326 0.39068502932787019 2.1470597684383392 0.64869968779385079 0.48933707922697056 0.32860704883933056 0.34650357440113999 0.42473241686820984 0.24575118906795979 0.27351945079863071 0.19864485040307045
leaf_count=9 11 16 12 11 13 10 10 10 12 10
internal_value=-0.0152695 0.137849 -0.172502 -0.171763 -0.172148 -0.172524 -0.171971 -0.170904 -0.171196 -0.169947
internal_weight=6.78288 3.4364 3.34648 2.69778 1.8627 1.53409 1.04476 0.835081 0.620023 0.444396
internal_count=124 25 99 87 56 43 32 31 22 20
is_linear=0
shrinkage=0.2


Tree=48
num_leaves=10
num_cat=0
split_feature=26 108 77 108 5 100 22 23 119
split_gain=3.12519 0.391183 0.0011157 0.000175043 3.40878e-05 1.90996e-05 1.55763e-05 8.99323e-06 4.33712e-07
threshold=0.34456932543590463 0.81495172079069 0.79606296770193763 0.84679674690169693 0.57069454287739207 0.37645626936501148 0.81316803274501392 0.76680578890537487 0.29249000429375743
decision_type=2 2 2 2 2 2 2 2 2
left_child=1 -1 3 4 -2 6 -6 -7 -9
right_child=2 -3 -4 -5 5 7 -8 8 -10
leaf_value=0.030198296163458128 -0.17260732546453406 0.19192290234706133 -0.18467495684504343 -0.17566577466918443 -0.17003690322262766 -0.17048579781229073 -0.17171498346027736 -0.16927134670639576 -0.16888819091587867
leaf_weight=0.91177826095372472 0.31219828128814775 1.7398402616381643 0.28499729931354512 0.33046870678663243 0.40416248608380534 0.2823279332369566 0.48891145549714565 0.21586756967008114 0.26110657304525375
leaf_count=17 8 17 3 6 18 11 15 12 17
internal_value=-0.0161649 0.136313 -0.172873 -0.171407 -0.170691 -0.170329 -0.170956 -0.169591 -0.169062
internal_weight=5.23166 2.65162 2.58004 2.29504 1.96457 1.65238 0.893074 0.759302 0.476974
internal_count=124 34 90 87 81 73 33 40 29
is_linear=0
shrinkage=0.2


Tree=49
num_leaves=13
num_cat=0
split_feature=9 107 108 22 5 31 33 101 109 63 8 18
split_gain=2.14067 0.982041 0.325158 0.31558 0.00312595 0.000513243 5.84821e-05 4.12878e-05 1.23647e-05 7.34202e-06 4.55692e-06 5.0003e-07
threshold=0.378024047515573 0.72053294936404211 0.81433829044117634 0.47202774255788799 0.57069454287739207 0.15434010356006519 0.088025691936053321 0.34848485996326833 0.86983789718227211 0.23403034460784708 0.38992380361657603 0.37662717654804467
decision_type=2 2 2 2 2 2 2 2 2 2 2 2
left_child=4 3 -3 -2 -1 -4 -7 -6 9 10 -9 -12
right_child=1 2 5 -5 7 6 -8 8 -10 -11 11 -13
leaf_value=-0.19355269603725236 0.19138166761027131 0.046933312344966463 -0.18439958475257501 0.053912411817881249 -0.1722956039615704 -0.16962237672955766 -0.17408404674113429 -0.17015631894846217 -0.17152223122851265 -0.17092288867075847 -0.16892259506392615 -0.16937556089931449
leaf_weight=0.28249000012874637 1.750356316566468 0.44661997258663155 0.17062249407172203 1.0801970716565845 0.59185104258358467 0.26336364354938269 0.21219579875469208 0.34536189958453156 0.24639829061925411 0.22939042188227177 0.18665258679538965 0.20405084174126387
leaf_count=2 14 3 2 12 17 15 5 15 8 8 12 11
internal_value=-0.0102951 0.0767477 -0.0842912 0.138921 -0.17399 -0.174989 -0.171613 -0.170926 -0.170258 -0.169935 -0.169627 -0.169159
internal_weight=6.00955 3.92336 1.0928 2.83055 2.0862 0.646182 0.475559 1.80371 1.21185 0.965456 0.736065 0.390703
internal_count=124 51 25 26 73 22 20 71 54 46 38 23
is_linear=0
shrinkage=0.2


Tree=50
num_leaves=10
num_cat=0
split_feature=2 90 47 109 0 103 0 42 67
split_gain=1.55469 1.63081 1.20783 0.466907 0.334539 0.000161523 2.54539e-05 5.46073e-06 5.02107e-07
threshold=0.19352290679304898 0.52698495997702588 0.78536184210526028 0.024516772152015424 0.17483619446319557 0.35377359594161534 0.39524534249465426 0.047648443542198569 0.37324243934263851
decision_type=2 2 2 2 2 2 2 2 2
left_child=5 -2 3 -3 -4 -1 -7 -8 -9
right_child=1 2 4 -5 -6 6 7 8 -10
leaf_value=-0.17498846402179838 -0.17745050569350404 0.050364530356590699 0.039221693459846156 0.19675643604987683 -0.19013999208432536 -0.17167756177826923 -0.17034767954796384 -0.16937491589673703 -0.1688785299344826
leaf_weight=0.47220145910978295 0.99164475686848153 1.2598224952816961 0.4505693335086105 2.8271401710808277 0.58415482193231583 0.42116007022559643 0.24396231211721897 0.14703612308949232 0.18290927819907665
leaf_count=9 17 19 8 16 12 13 10 8 12
internal_value=0.0129351 0.0573078 0.102761 0.151631 -0.0902647 -0.171942 -0.170497 -0.16963 -0.1691
internal_weight=7.5806 6.11333 5.12169 4.08696 1.03472 1.46727 0.995068 0.573908 0.329945
internal_count=124 72 55 35 20 52 43 30 20
is_linear=0
shrinkage=0.2


Tree=51
num_leaves=12
num_cat=0
split_feature=21 33 22 117 81 11 72 14 138 93 108
split_gain=1.51358 1.18142 0.903895 0.62794 0.539378 0.000982255 0.000122135 3.22137e-05 3.08096e-05 1.31743e-05 5.35376e-06
threshold=0.70294835895986052 1.0000000180025095e-35 0.82991084964434325 0.32434708872838308 0.17557142714953489 0.37261146496815301 0.15723391839626685 0.028478731688102537 0.18591907409999486 0.50085622728686008 0.81495172079069
decision_type=2 2 2 2 2 2 2 2 2 2 2
left_child=6 2 4 5 -2 -3 -1 -7 -8 -10 -11
right_child=1 3 -4 -5 -6 7 8 -9 9 10 -12
leaf_value=-0.17574606817606223 0.065013312934479969 -0.18448484720245839 -0.02545673984148647 0.10729765502475148 0.2178396848689737 -0.17386232373321653 -0.17256446339544151 -0.17115929677593553 -0.17172752841237293 -0.17029037983419149 -0.16908454602188291
leaf_weight=0.25893869251012791 1.6235971227288248 0.40845490992069222 1.65249702706933 0.42852228321135033 2.1430630534887314 0.29510881565511227 0.33692521695047595 0.43828151002526283 0.19793786108493805 0.41401263419538736 0.22860286291688681
leaf_count=5 13 4 16 5 11 7 10 16 6 17 14
internal_value=0.015172 0.0535993 0.0978625 -0.0991479 0.151965 -0.176625 -0.171813 -0.172247 -0.170949 -0.170301 -0.169861
internal_weight=8.42594 6.98952 5.41916 1.57037 3.76666 1.14185 1.43642 0.73339 1.17748 0.840553 0.642615
internal_count=124 72 40 32 24 27 52 23 47 37 31
is_linear=0
shrinkage=0.2


Tree=52
num_leaves=10
num_cat=0
split_feature=25 105 92 87 88 15 62 8 53
split_gain=2.17472 1.29497 0.877077 1.38863 0.00345344 0.000832685 1.98658e-05 2.05676e-05 1.22393e-05
threshold=0.55243064710072598 0.59890109890109888 0.83695179464224401 0.61544165057556632 0.64993120347692024 0.19352290679304898 0.86588964708320482 0.79934145444137561 0.81497914575728847
decision_type=2 2 2 2 2 2 2 2 2
left_child=5 2 3 -2 -5 -1 7 8 -7
right_child=1 -3 -4 4 -6 6 -8 -9 -10
leaf_value=-0.17938043116419145 0.1487737000717344 -0.12569073633144248 0.22325162506523344 -0.19777658978977516 -0.17063067748722194 -0.17016596133064052 -0.17245784727474053 -0.16909868734964456 -0.17173534500634177
leaf_weight=0.68834549561142955 1.5073877871036532 1.0758468359708784 1.8432558104395864 0.3326140847057103 0.42954408004879951 0.36650330293923594 0.24908837862312783 0.31009404268115759 0.43433624505996704
leaf_count=10 13 15 10 3 18 16 7 19 13
internal_value=0.000779621 0.0696653 0.120768 0.0375331 -0.182477 -0.173712 -0.170844 -0.170482 -0.171017
internal_weight=7.23702 5.18865 4.1128 2.26955 0.762158 2.04837 1.36002 1.11093 0.80084
internal_count=124 59 44 34 21 65 55 48 29
is_linear=0
shrinkage=0.2


Tree=53
num_leaves=10
num_cat=0
split_feature=2 11 115 11 2 58 58 55 55
split_gain=2.95739 0.519059 4.42379e-05 3.18378e-05 2.35663e-05 1.32506e-05 1.1599e-05 6.74019e-06 8.8475e-07
threshold=0.10900473933649292 0.39524534249465426 0.24932795698924756 0.45197945633564551 0.21721958925750398 0.013300711525639828 0.92458359096279652 0.58972560975609767 0.96762059483837859
decision_type=2 2 2 2 2 2 2 2 2
left_child=1 -1 5 4 -4 -2 7 -6 -7
right_child=2 -3 3 -5 6 8 -8 -9 -10
leaf_value=0.021498056830665687 -0.17076007507898761 0.19482837924276908 -0.17228836608139605 -0.1735162445672955 -0.17065122683167058 -0.1690037030361029 -0.17162358518529719 -0.16911452650543418 -0.16958671899884109
leaf_weight=1.1659200042486193 0.49334067106246982 1.6968685388565061 0.58046949189156272 0.33654325082898129 0.25964569672942162 0.25474806781858206 0.27053428441286087 0.20377275813370943 0.1760817589238286
leaf_count=8 18 17 17 8 10 16 9 12 9
internal_value=-0.015649 0.124237 -0.17116 -0.171781 -0.171336 -0.170052 -0.170583 -0.169976 -0.169242
internal_weight=5.43792 2.86279 2.57514 1.65097 1.31442 0.92417 0.733953 0.463418 0.43083
internal_count=124 25 99 56 48 43 31 22 25
is_linear=0
shrinkage=0.2


Tree=54
num_leaves=11
num_cat=0
split_feature=16 61 114 105 17 3 42 74 98 0
split_gain=2.34343 0.307015 0.00032385 3.83167e-05 4.10268e-05 7.81437e-06 2.34779e-06 1.51856e-06 1.19487e-06 1.33155e-07
threshold=0.43838862559241709 0.51409246719790247 0.082812499999999997 0.83259520835132839 0.25622880268695841 0.35671685409758591 0.047648443542198569 0.094869417422016891 0.38953893367258313 0.41613894564484016
decision_type=2 2 2 2 2 2 2 2 2 2
left_child=2 -2 -1 4 -4 7 8 -6 -7 -8
right_child=1 -3 3 -5 5 6 9 -9 -10 -11
leaf_value=-0.17920764297758429 0.019295564945740376 0.18317914620188702 -0.1714854133567873 -0.1729670190789856 -0.17027217125582239 -0.16951385455065057 -0.16852740975689318 -0.16959289649431172 -0.16874812314467047 -0.16823207153658806
leaf_weight=0.18184168636798892 0.67358014546334777 1.4236737526953218 0.53175666462630022 0.2009715400636195 0.24205275811254956 0.19027231447398663 0.11479804385453463 0.28860905021429062 0.14260580576956272 0.13045345060527325
leaf_count=4 12 18 19 5 10 10 9 15 10 12
internal_value=-0.0176006 0.130544 -0.171156 -0.17036 -0.170041 -0.169349 -0.16884 -0.169903 -0.169186 -0.16837
internal_weight=4.12062 2.09725 2.02336 1.84152 1.64055 1.10879 0.57813 0.530662 0.332878 0.245251
internal_count=124 30 94 90 85 66 41 25 20 21
is_linear=0
shrinkage=0.2


Tree=55
num_leaves=12
num_cat=0
split_feature=79 56 107 137 22 105 100 95 23 23 2
split_gain=1.50626 0.950313 0.749552 0.0429704 0.00274738 0.000968927 1.63918e-05 8.99016e-06 2.84031e-06 3.43359e-06 4.40604e-07
threshold=0.34936130676466565 0.91089754302640502 0.32041435210087293 0.13019368435231929 0.52920197486115284 0.79560477015860231 0.36620737088199778 0.16994102638665889 0.95992955963104032 0.81227428751415287 0.15879370029083725
decision_type=2 2 2 2 2 2 2 2 2 2 2
left_child=4 2 -2 -4 -1 -5 7 -6 9 -8 -11
right_child=1 -3 3 5 6 -7 8 -9 -10 10 -12
leaf_value=-0.1922037486310435 0.11197702910444336 0.17895445378920349 -0.08887876320705998 -0.1862324886076735 -0.17126241071332504 -0.17103667965360472 -0.1695584087839016 -0.16960488509830496 -0.16983615947408312 -0.16831906073742212 -0.168784802114297
leaf_weight=0.26389457285404194 0.77275466546416305 1.5662701427936552 0.30408994201570749 0.3716232068836689 0.3326973672956226 0.30608652345836163 0.21174303535372019 0.21578429918736219 0.18602000270038843 0.18290591333061457 0.14618768729269505
leaf_count=2 10 15 9 4 11 16 11 11 9 16 10
internal_value=-0.0100864 0.0657169 -0.0353689 -0.151342 -0.173629 -0.179369 -0.169785 -0.17061 -0.169162 -0.16893 -0.168526
internal_weight=4.86006 3.32082 1.75455 0.9818 1.53923 0.67771 1.27534 0.548482 0.726857 0.540837 0.329094
internal_count=124 54 39 29 70 20 68 22 46 37 26
is_linear=0
shrinkage=0.2


Tree=56
num_leaves=11
num_cat=0
split_feature=8 91 15 10 15 108 114 114 50 97
split_gain=1.24817 1.21229 0.983048 0.352154 9.97162e-05 6.22988e-05 3.80507e-05 1.73902e-05 7.45128e-06 4.35901e-06
threshold=0.76666305924847966 0.50538364680182457 0.22985781990521331 0.79001467164568762 0.19352290679304898 0.42570780455191304 0.034520449468433155 0.35338374380449633 0.63253788989673709 0.39015423152926376
decision_type=2 2 2 2 2 2 2 2 2 2
left_child=1 4 -3 -4 9 -2 -7 8 -8 -1
right_child=5 2 3 -5 -6 6 7 -9 -10 -11
leaf_value=-0.17003059003351043 -0.17419739358836522 -0.084355166028766401 0.19482865816801015 0.061773045461892745 -0.17389680030468108 -0.17317142800438104 -0.17015181630883225 -0.17162356581558999 -0.16864810090833904 -0.16857644444595385
leaf_weight=0.17398024350404728 0.26109731942415215 0.93747148383408774 2.1970998495817189 1.2473881114274261 0.4589123222976923 0.19605671800673008 0.27511908300220966 0.19938682392239571 0.25305603444576263 0.15674896910786629
leaf_count=8 6 19 16 10 11 5 12 6 19 12
internal_value=0.0136998 0.0561186 0.0972242 0.146644 -0.171989 -0.17147 -0.170699 -0.170032 -0.169431 -0.169341
internal_weight=6.35632 5.1716 4.38196 3.44449 0.789642 1.18472 0.923619 0.727562 0.528175 0.330729
internal_count=124 76 45 26 31 48 42 37 31 20
is_linear=0
shrinkage=0.2


Tree=57
num_leaves=13
num_cat=0
split_feature=76 22 85 0 45 9 116 21 62 22 78 5
split_gain=1.13826 1.04651 0.813461 0.532005 0.289203 0.173228 0.000732128 0.000178694 2.3642e-05 1.2282e-05 3.61605e-06 4.05737e-07
threshold=0.15166213863695238 0.80571658110741884 0.65803161773705676 0.35530784083703432 0.64467834115846134 0.13926299812698995 0.43553484091972533 0.75685966948098404 1.0000000180025095e-35 0.41309682374675455 0.6389115099949555 0.32437975008879888
decision_type=2 2 2 2 2 2 2 2 2 2 2 2
left_child=1 4 3 -3 -1 -2 -4 8 -7 10 -10 -12
right_child=5 2 6 -5 -6 7 -8 -9 9 -11 11 -13
leaf_value=0.077155095531233744 0.029804648649102178 0.1657421093549204 -0.17358623902003351 -0.041052333438684051 0.20929957930640414 -0.17247194643591449 -0.18476159491824073 -0.17638771464586162 -0.16978107498279135 -0.17052317834865327 -0.16878612576867094 -0.16827487690956278
leaf_weight=1.2635919712483885 0.19840900041162957 0.85340485721826631 0.53899844922125328 1.1936167702078817 1.3925394937396047 0.15916737355291821 0.41506130993366241 0.23172275163233269 0.15001266822218895 0.45899191871285439 0.12775782030075788 0.12080687936395407
leaf_count=13 4 5 19 15 8 5 4 5 7 19 9 11
internal_value=0.0145132 0.0549997 -0.0259259 0.0451604 0.146435 -0.143788 -0.178448 -0.171376 -0.170233 -0.169818 -0.169006 -0.168538
internal_weight=7.10408 5.65721 3.00108 2.04702 2.65613 1.44687 0.95406 1.24846 1.01674 0.857569 0.398577 0.248565
internal_count=124 64 43 20 21 60 23 56 51 46 27 20
is_linear=0
shrinkage=0.2


Tree=58
num_leaves=12
num_cat=0
split_feature=26 35 84 10 56 111 16 137 42 137 58
split_gain=1.50629 0.71148 0.643723 0.888384 0.57794 0.0117566 0.000293202 9.57903e-05 1.03685e-05 9.62528e-06 2.08965e-06
threshold=0.81629095448231015 0.087655325351708183 0.1200671680355261 0.54468635809987831 0.079923421320877583 0.8860256905299243 0.21721958925750398 0.38237406728757195 0.045531148282314512 0.53394454444218076 0.040081733831762591
decision_type=2 2 2 2 2 2 2 2 2 2 2
left_child=1 4 3 -2 -1 6 7 -6 9 10 -8
right_child=2 -3 -4 -5 5 -7 8 -9 -10 -11 -12
leaf_value=0.12224336796917819 -0.18084196963753077 0.11313992405899607 0.18064022644122513 0.16270931033068745 -0.17716159123068911 -0.21052937517815146 -0.16936724974652087 -0.17264282111192603 -0.17066451417622883 -0.17049080077750342 -0.16839795340916341
leaf_weight=0.28851212747395116 0.60404105857014678 0.52269929647445668 1.7383843809366224 0.60027929954230785 0.41767382435500655 0.38857401907443989 0.14714047405868746 0.34072099719196558 0.45384535007178783 0.20389852300286293 0.22501756995916367
leaf_count=5 15 4 16 8 7 2 8 13 19 8 19
internal_value=0.00121529 -0.0988091 0.102782 -0.00960288 -0.143746 -0.178998 -0.172147 -0.175131 -0.16995 -0.169386 -0.168781
internal_weight=5.93079 2.98808 2.9427 1.20432 2.46538 2.17687 1.7883 0.758395 1.0299 0.576057 0.372158
internal_count=124 85 39 23 81 76 74 20 54 35 27
is_linear=0
shrinkage=0.2


Tree=59
num_leaves=12
num_cat=0
split_feature=5 33 0 2 6 3 2 59 10 5 130
split_gain=2.27685 0.480304 0.00629735 0.0018955 9.13557e-05 1.11367e-05 1.3073e-05 5.16171e-06 3.43154e-06 2.47271e-06 6.50125e-07
threshold=0.88496919032589594 1.0000000180025095e-35 0.41308308378276698 0.081851055757570998 0.12918660287081338 0.32847989682786194 0.21721958925750398 0.027711875620656027 0.62654225409615816 0.7742632695811319 0.29418748211164741
decision_type=2 2 2 2 2 2 2 2 2 2 2
left_child=3 -2 -3 -1 5 6 -5 9 -8 -7 -9
right_child=1 2 -4 4 -6 7 8 10 -10 -11 -12
leaf_value=-0.18885596222806145 -0.026297586533285941 0.18924295488787859 0.16443612829887488 -0.17137104961558075 -0.17440453339408274 -0.16987609467856263 -0.1688720347230554 -0.16876203744460624 -0.17001795880243939 -0.16895759759995754 -0.16814484951288888
leaf_weight=0.24839044362306628 0.65174617245793376 0.80994903296232201 0.82756798155605793 0.27371842041611649 0.18498217966407526 0.36694036796689034 0.15797638427466154 0.20124832261353731 0.30896041914820671 0.17228828463703394 0.10331647098064423
leaf_count=2 9 7 14 9 5 17 11 14 15 11 10
internal_value=-0.0176093 0.118912 0.176706 -0.172495 -0.170199 -0.169708 -0.170274 -0.169211 -0.16963 -0.169583 -0.168553
internal_weight=4.30708 2.28926 1.63752 2.01782 1.76943 1.58445 0.740655 0.843793 0.466937 0.539229 0.304565
internal_count=124 30 21 94 92 87 35 52 26 28 24
is_linear=0
shrinkage=0.2


Tree=60
num_leaves=10
num_cat=0
split_feature=108 2 9 5 59 3 11 11 33
split_gain=1.68801 0.189249 6.07164e-05 1.98849e-05 7.1913e-06 6.57809e-06 2.13787e-06 1.23261e-06 2.06396e-07
threshold=0.81433829044117634 0.4637682299452533 0.86507083211909641 0.57069454287739207 0.55500000000000016 0.32847989682786194 0.45197945633564551 0.39524534249465426 1.0000000180025095e-35
decision_type=2 2 2 2 2 2 2 2 2
left_child=2 -2 3 4 -1 -5 7 -7 -9
right_child=1 -3 -4 5 -6 6 -8 8 -10
leaf_value=-0.17124010890837682 0.041155941862613225 0.17784993758227569 -0.17337131992372365 -0.16961083525061083 -0.16962643009817932 -0.16863734896890259 -0.16915219281128527 -0.16819766057410235 -0.16785430536480098
leaf_weight=0.22825618833303474 0.70324249751865842 0.9556923620402813 0.16843340918421734 0.30014686565846205 0.21406738087534904 0.22170756664127111 0.14638250973075628 0.12660098262131214 0.15671346895396709
leaf_count=8 10 17 4 16 12 17 9 12 19
internal_value=-0.0205956 0.119904 -0.169785 -0.169351 -0.170459 -0.168836 -0.168479 -0.168284 -0.168008
internal_weight=3.22124 1.65893 1.56231 1.39387 0.442324 0.951551 0.651405 0.505022 0.283314
internal_count=124 27 97 93 20 73 57 48 31
is_linear=0
shrinkage=0.2


Tree=61
num_leaves=12
num_cat=0
split_feature=4 105 56 56 68 77 99 22 60 60 46
split_gain=1.24679 0.486796 0.195719 0.18928 0.000125363 0.000124376 7.29039e-06 3.87459e-06 2.82962e-06 8.68101e-07 1.22231e-07
threshold=0.58921258083738515 0.72251650214492791 0.93580597952650013 0.91089754302640502 0.023219184912317534 0.37368656418944229 0.39438096811516654 0.8084185195394179 0.24653399869828949 0.053333333333333344 0.64396378760541884
decision_type=2 2 2 2 2 2 2 2 2 2 2
left_child=1 3 4 -1 -3 6 7 -2 9 -8 -11
right_child=5 2 -4 -5 -6 -7 8 -9 -10 10 -12
leaf_value=0.055959533794178409 -0.1689642838326707 -0.1771517729129318 0.041179035107139501 0.18315521956496389 -0.16961904720750953 -0.17366151374583449 -0.16862378514559684 -0.1700930928317346 -0.16929270574604194 -0.16815946342201379 -0.16785711748386153
leaf_weight=0.8939060457050807 0.2107819579541681 0.14486459642648686 0.31812538951635361 0.98213524371385574 0.22662657452747226 0.30970641411840916 0.14083198737353086 0.28757593967020512 0.1414611479267478 0.093711210414767265 0.12459987541660666
leaf_count=10 14 3 3 12 18 8 11 13 8 9 15
internal_value=-0.0113001 0.0697297 -0.0739586 0.122548 -0.172556 -0.17016 -0.169074 -0.169616 -0.168535 -0.168237 -0.167987
internal_weight=3.87433 2.56566 0.689617 1.87604 0.371491 1.30867 0.998962 0.498358 0.500604 0.359143 0.218311
internal_count=124 46 24 22 21 78 70 27 43 35 24
is_linear=0
shrinkage=0.2


Tree=62
num_leaves=13
num_cat=0
split_feature=2 53 5 44 25 21 20 82 11 100 75 64
split_gain=0.911975 0.725042 0.537457 0.52422 0.131637 0.000225949 4.29118e-05 2.42204e-05 1.0128e-05 1.73402e-06 9.514e-07 2.11781e-07
threshold=0.19352290679304898 0.91015576881417581 0.7742632695811319 0.048581523293171031 0.4764334009629041 0.7955859061310695 0.35517514166295644 0.67090606520309892 0.39524534249465426 0.37645626936501148 0.31299021460351018 0.28488823784124462
decision_type=2 2 2 2 2 2 2 2 2 2 2 2
left_child=6 2 4 -3 -2 7 -1 -5 -8 -10 -9 -11
right_child=1 3 -4 5 -6 -7 8 10 9 11 -12 -13
leaf_value=-0.17223073354834761 0.10989104226626972 0.10184620437622172 -0.020724275441204171 -0.17212881805592758 0.20745887939415422 -0.17740800247667002 -0.16993790922521521 -0.16971998266959415 -0.16899882639140743 -0.16818142311656095 -0.16904939484369322 -0.16777621503156231
leaf_weight=0.2513340264558791 1.1304991124197847 0.42585382983088471 0.9728851169347762 0.18215041607618332 1.0830188840627668 0.26097646728157997 0.31638878490775824 0.13525518961250782 0.10453892406076193 0.11590854171663523 0.22608818393200636 0.092979853041470051
leaf_count=7 16 7 11 5 6 4 15 8 7 11 15 12
internal_value=0.0157573 0.0528207 0.103173 -0.0775866 0.157629 -0.172571 -0.170021 -0.170248 -0.16914 -0.168334 -0.1693 -0.168001
internal_weight=5.29788 4.41673 3.1864 1.23032 2.21352 0.80447 0.88115 0.543494 0.629816 0.313427 0.361343 0.208888
internal_count=124 72 33 39 22 32 52 28 45 30 23 23
is_linear=0
shrinkage=0.2


Tree=63
num_leaves=11
num_cat=0
split_feature=76 2 66 4 113 5 71 138 93 108
split_gain=0.85715 0.859219 0.623769 0.902776 0.110103 0.000275526 5.62224e-05 8.72291e-06 4.84059e-06 1.41982e-06
threshold=0.18755986465268751 0.10900473933649292 0.023462489557661535 0.81612446958981621 0.30535638011430327 0.92029732272603237 0.15977916792016875 0.18591907409999486 0.50085622728686008 0.81495172079069
decision_type=2 2 2 2 2 2 2 2 2 2
left_child=1 5 3 4 -3 -1 -2 -8 -9 -10
right_child=6 2 -4 -5 -6 -7 7 8 9 -11
leaf_value=-0.17789720224738881 -0.17324544809043035 -0.045134880427732511 0.17746488584694731 0.10567131100196336 -0.18094028460666722 -0.16943817883404941 -0.17049633326557612 -0.16984899288727601 -0.16874172539924417 -0.16789257861165421
leaf_weight=0.3341863565146922 0.18177283741533745 0.38315844628959916 1.5944690704345701 1.8123914655297992 0.63378910534083843 0.28569378796964884 0.17482275934889913 0.1404093224555254 0.23992667207494378 0.11725832568481565
leaf_count=5 5 11 13 14 12 18 8 7 17 14
internal_value=0.0151463 0.0465235 0.0774239 0.0210459 -0.129772 -0.173999 -0.170125 -0.169281 -0.168854 -0.168463
internal_weight=5.89788 5.04369 4.42381 2.82934 1.01695 0.61988 0.85419 0.672417 0.497594 0.357185
internal_count=124 73 50 37 23 23 51 46 38 31
is_linear=0
shrinkage=0.2


Tree=64
num_leaves=11
num_cat=0
split_feature=15 133 66 46 119 43 94 42 64 133
split_gain=1.17512 0.730639 0.540399 1.02942 0.00268824 0.000265901 5.32765e-05 4.29327e-06 3.46559e-06 1.49184e-06
threshold=0.21721958925750398 0.48760604496721321 0.29169699061230164 0.62380897009190883 0.32269001770889377 0.76690796421414331 0.070274170350566961 0.045531148282314512 0.35526783256340599 0.54484082412520862
decision_type=2 2 2 2 2 2 2 2 2 2
left_child=1 -1 -3 -4 -5 6 -2 8 9 -8
right_child=5 2 3 4 -6 -7 7 -9 -10 -11
leaf_value=-0.10943801095936433 -0.17312950704571251 0.17738292901566027 0.2046252016122021 -0.16977734053479501 -0.19691361665274942 -0.17832923546288282 -0.16876428953811407 -0.16971685981265427 -0.16802458526008246 -0.16955190988751348
leaf_weight=0.81149481609463725 0.15821138955652692 1.6843457594513895 0.51013617217540719 0.27829673932865262 0.30723285675048828 0.16807782743126143 0.20971525367349386 0.32575682690367103 0.16225880663841963 0.1777047161012888
leaf_count=13 5 18 3 19 2 4 15 18 18 9
internal_value=0.000243874 0.0575262 0.106264 -0.00306672 -0.184016 -0.170952 -0.169752 -0.169142 -0.168801 -0.169126
internal_weight=4.79323 3.59151 2.78001 1.09567 0.58553 1.20172 1.03365 0.875436 0.549679 0.38742
internal_count=124 55 42 24 21 69 65 60 42 24
is_linear=0
shrinkage=0.2


Tree=65
num_leaves=12
num_cat=0
split_feature=5 62 2 109 3 2 58 10 17 93 60
split_gain=1.63533 0.549818 0.000804164 3.18504e-05 1.07759e-05 9.54407e-06 2.55364e-06 2.22955e-06 8.6822e-07 4.38108e-07 1.13611e-07
threshold=0.88496919032589594 0.28897538574314102 0.081851055757570998 0.86983789718227211 0.3166316894018889 0.21721958925750398 0.013300711525639828 0.94480816077953733 0.80987909962803839 0.19013889579352991 0.1887912869963235
decision_type=2 2 2 2 2 2 2 2 2 2 2
left_child=2 -2 -1 4 5 -4 8 -7 -6 -8 -11
right_child=1 -3 3 -5 6 7 9 -9 -10 10 -12
leaf_value=-0.18310122337124707 -0.045305268776559486 0.18581816905729087 -0.17084042536650523 -0.17216081653272541 -0.1685828846216875 -0.16863880879525414 -0.16834306141756647 -0.16966983385236512 -0.16923055874010617 -0.16802513926763887 -0.16769297008569922
leaf_weight=0.19590237736701999 0.62025224603712548 1.2245147861540315 0.19167400896549203 0.14714822452515353 0.17231459263712168 0.19676334550604224 0.16133147478103638 0.14625621773302555 0.15935120545327663 0.095235064160078764 0.072573196142911911
leaf_count=2 11 19 7 5 13 16 14 8 9 10 10
internal_value=-0.0188741 0.108109 -0.171131 -0.169384 -0.169043 -0.16971 -0.168502 -0.169078 -0.168894 -0.168108 -0.167881
internal_weight=3.38332 1.84477 1.53855 1.34265 1.1955 0.534694 0.660806 0.34302 0.331666 0.32914 0.167808
internal_count=124 30 94 92 87 31 56 24 22 34 20
is_linear=0
shrinkage=0.2


Tree=66
num_leaves=11
num_cat=0
split_feature=79 107 107 78 17 28 97 17 40 88
split_gain=1.25794 0.163823 3.89082e-05 8.99463e-06 2.09517e-06 1.23015e-06 9.81348e-07 8.98008e-07 3.43986e-07 7.85101e-08
threshold=0.65502411495516399 0.82590496893919096 0.83992494801304407 0.45720908482766448 0.25622880268695841 0.73791945802977332 0.39015423152926376 0.39253634957037126 0.047324129653653332 0.64252223086758919
decision_type=2 2 2 2 2 2 2 2 2 2
left_child=2 -2 3 4 -1 7 -7 8 -6 -8
right_child=1 -3 -4 -5 5 6 9 -9 -10 -11
leaf_value=-0.1692014717731094 0.038452849885459224 0.18067039878990854 -0.17180233167508155 -0.16971642157607958 -0.16802784131126722 -0.168401097850507 -0.16776582820553104 -0.16888703031563138 -0.16850181193357383 -0.16749261206223454
leaf_weight=0.10452062636613868 0.61435229796916224 0.68549532815814018 0.19539649598300446 0.2690398246049881 0.13475335342809558 0.10240497114136815 0.077256427612155676 0.13352300319820642 0.11228553764522076 0.092370379716157913
leaf_count=7 13 14 6 16 15 9 10 9 9 16
internal_value=-0.0234922 0.113454 -0.169216 -0.168723 -0.16837 -0.168237 -0.167912 -0.168469 -0.168243 -0.167617
internal_weight=2.5214 1.29985 1.22155 1.02615 0.757114 0.652594 0.272032 0.380562 0.247039 0.169627
internal_count=124 27 97 91 75 68 35 33 24 26
is_linear=0
shrinkage=0.2


Tree=67
num_leaves=13
num_cat=0
split_feature=9 27 107 6 5 31 107 129 138 17 107 85
split_gain=0.965258 0.516744 0.308423 0.325448 0.00167433 9.06877e-05 1.99049e-05 2.61085e-06 1.37194e-06 6.80979e-07 4.08026e-07 2.8277e-07
threshold=0.49965548332125093 0.19311953645549645 0.72053294936404211 0.0047677839588044293 0.57069454287739207 0.15434010356006519 0.15934065934065925 0.0059040013446731796 0.7344652901454074 0.39253634957037126 0.49232894485005624 0.65803161773705676
decision_type=2 2 2 2 2 2 2 2 2 2 2 2
left_child=1 -1 -2 -4 -3 -5 -6 -8 9 10 -9 -10
right_child=2 4 3 5 6 -7 7 8 11 -11 -12 -13
leaf_value=0.1771572352424009 0.14941453871438046 -0.18432678584747927 0.18023734175209749 -0.17636631211250056 -0.1707908343321051 -0.16895565942056168 -0.16932137948557902 -0.16850476078577331 -0.16803570932412265 -0.16878235934800623 -0.1680208987046008 -0.16752620774202831
leaf_weight=0.19282720610499415 1.164802551269531 0.41114321351051308 0.16460469365119923 0.10114132799208164 0.17441716883331537 0.1904002265073359 0.10598576534539461 0.13408596813678741 0.084266806021332741 0.14927301043644547 0.14520245650783181 0.090222407132387161
leaf_count=3 19 4 2 2 7 19 6 11 9 11 16 15
internal_value=-0.0119418 -0.128288 0.0948205 -0.0445892 -0.173783 -0.171527 -0.168877 -0.168406 -0.168245 -0.168438 -0.168253 -0.167772
internal_weight=3.10837 1.48742 1.62095 0.456146 1.2946 0.291542 0.883454 0.709036 0.603051 0.428561 0.279288 0.174489
internal_count=124 82 42 23 79 21 75 68 62 38 27 24
is_linear=0
shrinkage=0.2


Tree=68
num_leaves=12
num_cat=0
split_feature=89 2 47 90 114 46 46 99 61 9 69
split_gain=0.699284 0.5777 0.484059 0.356139 0.285801 0.253197 3.33356e-05 1.25507e-05 9.06461e-06 2.82913e-06 5.48889e-07
threshold=0.50447662915365299 0.19352290679304898 0.78536184210526028 0.85233560248899043 0.043894453960823164 0.84272271225368212 0.58458320896893212 0.31361980863631972 0.05200075252545993 0.11324187431796655 1.0000000180025095e-35
decision_type=2 2 2 2 2 2 2 2 2 2 2
left_child=6 7 3 4 -3 -4 -1 -2 -8 -9 -10
right_child=1 2 5 -5 -6 -7 8 9 10 -11 -12
leaf_value=-0.17189701981029015 -0.17134915630823419 0.1638830241396203 -0.18059703057757881 0.18937433082179711 -0.028509867810621828 0.065757168660594043 -0.17003336634085281 -0.16967193597395663 -0.16826362974208126 -0.16842976694494971 -0.16749250588586256
leaf_weight=0.33005164749920357 0.11910282634198699 0.49156648851931162 0.3810730930417775 1.3373167291283605 0.83089385181665421 0.29689051816239953 0.18791500478982925 0.1225326806306839 0.10226353676989675 0.18269107956439257 0.057787505444139242
leaf_count=11 4 5 13 14 17 7 9 6 10 18 10
internal_value=0.0165051 0.0502003 0.0781445 0.116598 0.0430037 -0.0727148 -0.170457 -0.169608 -0.169091 -0.168928 -0.167985
internal_weight=4.44008 3.76207 3.33774 2.65978 1.32246 0.677964 0.678018 0.424327 0.347966 0.305224 0.160051
internal_count=124 84 56 36 22 20 40 28 29 24 20
is_linear=0
shrinkage=0.2


Tree=69
num_leaves=15
num_cat=0
split_feature=76 22 44 11 65 44 45 35 61 97 109 124 21 9
split_gain=0.655529 0.603401 0.444642 0.754812 0.213873 0.129858 0.00227987 0.00015345 0.000105391 6.35426e-05 5.49141e-06 5.4952e-06 1.39447e-06 7.22014e-07
threshold=0.15166213863695238 0.80571658110741884 0.43519289305872672 0.31528662420382175 0.10788405168599936 0.0044612779742407146 0.72299840340390931 0.040672116220005772 0.05200075252545993 0.39015423152926376 0.024516772152015424 0.61381337365247124 0.62255533171852673 0.7041877571704408
decision_type=2 2 2 2 2 2 2 2 2 2 2 2 2 2
left_child=1 4 3 -3 -1 -2 8 10 -5 -10 13 12 -12 -7
right_child=5 2 -4 6 -6 7 -8 -9 9 -11 11 -13 -14 -15
leaf_value=0.19499512566976754 0.051848430229770384 0.13915078530683822 0.11398701237525105 -0.17653888231745793 0.060842471049717489 -0.16839173377216676 -0.19349278913206056 -0.17629418787943071 -0.17319268049036096 -0.16870044558979636 -0.16817399391384708 -0.17025851417428706 -0.16908220075245628 -0.16764312382843544
leaf_weight=0.99790357053279899 0.12210933677852143 0.42148140445351634 0.64148753695189942 0.21077196486294247 0.90777900349348783 0.096008801832795143 0.30098814889788628 0.13341867737472057 0.28750449232757092 0.22414391953498125 0.10845093335956335 0.1425500363111496 0.17963381391018629 0.11124790459871292
leaf_count=8 3 4 6 4 13 8 3 3 7 19 11 6 12 17
internal_value=0.0150742 0.049732 -0.0245807 -0.0861006 0.131091 -0.139787 -0.178868 -0.170126 -0.172775 -0.171225 -0.168836 -0.169243 -0.16874 -0.16799
internal_weight=4.88548 3.99206 2.08638 1.44489 1.90568 0.89342 1.02341 0.77131 0.72242 0.511648 0.637891 0.430635 0.288085 0.207257
internal_count=124 64 43 37 21 60 33 57 30 26 54 29 23 25
is_linear=0
shrinkage=0.2


Tree=70
num_leaves=12
num_cat=0
split_feature=25 105 92 116 95 15 97 62 136 33 46
split_gain=0.929602 0.650075 0.335256 0.529226 0.000465185 7.88274e-05 7.55143e-06 4.8118e-06 1.34404e-06 9.91603e-07 5.5069e-07
threshold=0.55243064710072598 0.59890109890109888 0.83695179464224401 0.33424862705941089 1.0000000180025095e-35 0.21721958925750398 0.39015423152926376 0.86588964708320482 0.74619188943005665 0.0024750123032768602 0.78241779423107027
decision_type=2 2 2 2 2 2 2 2 2 2 2
left_child=5 2 3 -2 -5 -1 -6 8 9 10 -7
right_child=1 -3 -4 4 6 7 -8 -9 -10 -11 -12
leaf_value=-0.17234137357019416 0.12388131071269691 -0.11130523512836853 0.19279028691680961 -0.18483079223327736 -0.17008182211495865 -0.16852454931917404 -0.16779273004443415 -0.16971296288347762 -0.16891956660946345 -0.1675418821890361 -0.16791673427137285
leaf_weight=0.36772964615374837 0.81241169199347563 0.69277636986225832 1.0467318706214426 0.10633982717990875 0.10748473182320595 0.17224492039531469 0.12431832170113921 0.1239518471993506 0.11015384178608656 0.088967093732208014 0.091191391460597515
leaf_count=11 12 15 10 1 5 14 16 7 7 15 11
internal_value=0.00111145 0.057624 0.110885 0.036371 -0.173879 -0.170046 -0.168854 -0.168606 -0.16831 -0.168119 -0.168314
internal_weight=3.8443 2.89006 2.19729 1.15055 0.338143 0.954239 0.231803 0.586509 0.462557 0.352403 0.263436
internal_count=124 59 44 34 22 65 21 54 47 40 25
is_linear=0
shrinkage=0.2


Tree=71
num_leaves=10
num_cat=0
split_feature=147 55 4 0 0 70 106 70 113
split_gain=1.19137 0.301181 2.03695e-05 4.49635e-06 3.00348e-06 1.69446e-06 8.21015e-07 6.42076e-07 2.40783e-07
threshold=0.10900473933649292 0.58797240431585551 0.79835931291445783 0.43382161695117283 0.28144482457996828 0.23708630977769254 0.81322581886525236 0.48779522378186874 0.28505632542221998
decision_type=2 2 2 2 2 2 2 2 2
left_child=1 -1 4 -4 5 -2 7 8 -6
right_child=2 -3 3 -5 6 -7 -8 -9 -10
leaf_value=0.18066380560950904 -0.16957732167172482 -0.0044373266373730069 -0.16940699769507117 -0.17072914863906141 -0.16779878306456411 -0.16850555632363284 -0.167546137736238 -0.16850432132493087 -0.16817867648068674
leaf_weight=0.82373884879052661 0.095510605722665565 0.61348521336913109 0.20103094447404146 0.21074425242841244 0.12529333308339119 0.15437938971444964 0.096487098373472691 0.16316946549341083 0.14279464073479176
leaf_count=18 5 7 12 8 16 15 16 13 14
internal_value=-0.0208818 0.101653 -0.168946 -0.170084 -0.168344 -0.168915 -0.168074 -0.168192 -0.168001
internal_weight=2.62663 1.43722 1.18941 0.411775 0.777635 0.24989 0.527745 0.431257 0.268088
internal_count=124 25 99 20 79 20 59 43 30
is_linear=0
shrinkage=0.2


end of trees

feature_importances:
Column_2=27
Column_0=20
Column_5=17
Column_107=16
Column_22=15
Column_10=13
Column_26=13
Column_15=12
Column_21=12
Column_99=12
Column_105=12
Column_4=11
Column_9=11
Column_56=11
Column_58=11
Column_108=11
Column_46=10
Column_63=10
Column_77=10
Column_106=10
Column_114=10
Column_1=9
Column_60=9
Column_62=9
Column_3=8
Column_11=8
Column_33=8
Column_35=8
Column_55=8
Column_59=8
Column_76=8
Column_109=8
Column_137=8
Column_17=7
Column_42=7
Column_64=7
Column_8=6
Column_28=6
Column_53=6
Column_66=6
Column_70=6
Column_74=6
Column_90=6
Column_93=6
Column_101=6
Column_116=6
Column_23=5
Column_25=5
Column_36=5
Column_43=5
Column_47=5
Column_54=5
Column_68=5
Column_78=5
Column_81=5
Column_138=5
Column_144=5
Column_147=5
Column_6=4
Column_16=4
Column_44=4
Column_61=4
Column_72=4
Column_85=4
Column_86=4
Column_87=4
Column_88=4
Column_97=4
Column_100=4
Column_102=4
Column_113=4
Column_12=3
Column_27=3
Column_31=3
Column_57=3
Column_69=3
Column_71=3
Column_73=3
Column_79=3
Column_84=3
Column_91=3
Column_95=3
Column_130=3
Column_132=3
Column_133=3
Column_134=3
Column_13=2
Column_18=2
Column_19=2
Column_20=2
Column_29=2
Column_30=2
Column_32=2
Column_34=2
Column_45=2
Column_75=2
Column_82=2
Column_89=2
Column_92=2
Column_94=2
Column_110=2
Column_117=2
Column_119=2
Column_125=2
Column_126=2
Column_127=2
Column_131=2
Column_135=2
Column_136=2
Column_145=2
Column_146=2
Column_7=1
Column_14=1
Column_24=1
Column_37=1
Column_38=1
Column_40=1
Column_48=1
Column_50=1
Column_65=1
Column_67=1
Column_80=1
Column_83=1
Column_98=1
Column_103=1
Column_111=1
Column_115=1
Column_118=1
Column_120=1
Column_124=1
Column_129=1
Column_139=1

parameters:
[boosting: gbdt]
[objective: multiclass]
[metric: custom]
[tree_learner: serial]
[device_type: cpu]
[data_sample_strategy: bagging]
[data: ]
[valid: ]
[num_iterations: 10000]
[learning_rate: 0.2]
[num_leaves: 63]
[num_threads: 0]
[seed: 1236]
[deterministic: 0]
[force_col_wise: 0]
[force_row_wise: 0]
[histogram_pool_size: -1]
[max_depth: -1]
[min_data_in_leaf: 10]
[min_sum_hessian_in_leaf: 0.001]
[bagging_fraction: 1]
[pos_bagging_fraction: 1]
[neg_bagging_fraction: 1]
[bagging_freq: 0]
[bagging_seed: 21709]
[bagging_by_query: 0]
[feature_fraction: 0.5]
[feature_fraction_bynode: 1]
[feature_fraction_seed: 24116]
[extra_trees: 0]
[extra_seed: 15571]
[early_stopping_round: 0]
[early_stopping_min_delta: 0]
[first_metric_only: 0]
[max_delta_step: 0]
[lambda_l1: 0]
[lambda_l2: 0]
[linear_lambda: 0]
[min_gain_to_split: 0]
[drop_rate: 0.1]
[max_drop: 50]
[skip_drop: 0.5]
[xgboost_dart_mode: 0]
[uniform_drop: 0]
[drop_seed: 15722]
[top_rate: 0.2]
[other_rate: 0.1]
[min_data_per_group: 100]
[max_cat_threshold: 32]
[cat_l2: 10]
[cat_smooth: 10]
[max_cat_to_onehot: 4]
[top_k: 20]
[monotone_constraints: ]
[monotone_constraints_method: basic]
[monotone_penalty: 0]
[feature_contri: ]
[forcedsplits_filename: ]
[refit_decay_rate: 0.9]
[cegb_tradeoff: 1]
[cegb_penalty_split: 0]
[cegb_penalty_feature_lazy: ]
[cegb_penalty_feature_coupled: ]
[path_smooth: 0]
[interaction_constraints: ]
[verbosity: -1]
[saved_feature_importance_type: 0]
[use_quantized_grad: 0]
[num_grad_quant_bins: 4]
[quant_train_renew_leaf: 0]
[stochastic_rounding: 1]
[linear_tree: 0]
[max_bin: 255]
[max_bin_by_feature: ]
[min_data_in_bin: 3]
[bin_construct_sample_cnt: 200000]
[data_random_seed: 4074]
[is_enable_sparse: 1]
[enable_bundle: 1]
[use_missing: 1]
[zero_as_missing: 0]
[feature_pre_filter: 1]
[pre_partition: 0]
[two_round: 0]
[header: 0]
[label_column: ]
[weight_column: ]
[group_column: ]
[ignore_column: ]
[categorical_feature: ]
[forcedbins_filename: ]
[precise_float_parser: 0]
[parser_config_file: ]
[objective_seed: 10917]
[num_class: 6]
[is_unbalance: 0]
[scale_pos_weight: 1]
[sigmoid: 1]
[boost_from_average: 1]
[reg_sqrt: 0]
[alpha: 0.9]
[fair_c: 1]
[poisson_max_delta_step: 0.7]
[tweedie_variance_power: 1.5]
[lambdarank_truncation_level: 30]
[lambdarank_norm: 1]
[label_gain: ]
[lambdarank_position_bias_regularization: 0]
[eval_at: ]
[multi_error_top_k: 1]
[auc_mu_weights: ]
[num_machines: 1]
[local_listen_port: 12400]
[time_out: 120]
[machine_list_filename: ]
[machines: ]
[gpu_platform_id: -1]
[gpu_device_id: -1]
[gpu_use_dp: 0]
[num_gpu: 1]

end of parameters

pandas_categorical:null
