tree
version=v4
num_class=6
num_tree_per_iteration=6
label_index=0
max_feature_idx=147
objective=multiclass num_class:6
feature_names=Column_0 Column_1 Column_2 Column_3 Column_4 Column_5 Column_6 Column_7 Column_8 Column_9 Column_10 Column_11 Column_12 Column_13 Column_14 Column_15 Column_16 Column_17 Column_18 Column_19 Column_20 Column_21 Column_22 Column_23 Column_24 Column_25 Column_26 Column_27 Column_28 Column_29 Column_30 Column_31 Column_32 Column_33 Column_34 Column_35 Column_36 Column_37 Column_38 Column_39 Column_40 Column_41 Column_42 Column_43 Column_44 Column_45 Column_46 Column_47 Column_48 Column_49 Column_50 Column_51 Column_52 Column_53 Column_54 Column_55 Column_56 Column_57 Column_58 Column_59 Column_60 Column_61 Column_62 Column_63 Column_64 Column_65 Column_66 Column_67 Column_68 Column_69 Column_70 Column_71 Column_72 Column_73 Column_74 Column_75 Column_76 Column_77 Column_78 Column_79 Column_80 Column_81 Column_82 Column_83 Column_84 Column_85 Column_86 Column_87 Column_88 Column_89 Column_90 Column_91 Column_92 Column_93 Column_94 Column_95 Column_96 Column_97 Column_98 Column_99 Column_100 Column_101 Column_102 Column_103 Column_104 Column_105 Column_106 Column_107 Column_108 Column_109 Column_110 Column_111 Column_112 Column_113 Column_114 Column_115 Column_116 Column_117 Column_118 Column_119 Column_120 Column_121 Column_122 Column_123 Column_124 Column_125 Column_126 Column_127 Column_128 Column_129 Column_130 Column_131 Column_132 Column_133 Column_134 Column_135 Column_136 Column_137 Column_138 Column_139 Column_140 Column_141 Column_142 Column_143 Column_144 Column_145 Column_146 Column_147
feature_infos=[0:1.0000000000000002] [0:1] [0:1] [0:1] [0:0.99717114568599707] [0:1] [0:1] [0.087333799860040529:1] [0:1] [0:0.92452556859336532] [0:1] [0:1.0000000000000002] [0:1.0000000000000002] [0:1] [0:1] [0:1] [0:1] [0.0040145685766594039:1] [0.0030447567291910943:1] [0.0038727459762971693:1] [0.0037855337774200149:1] [0:0.99976616750280811] [0:0.99774094757444476] [0:0.99979039476191756] [0:1] [0:0.82781462549888496] [0.0037453201307355924:0.95880156994768317] [0:0.8366248059758461] [0:0.94161073667969908] [0:1] [0:0.99999999999999989] [0:0.99999999999999989] [0:1] [0:1] [0:1] [0:1] [0:0.99999999999999989] [0:1] [0:1] [0:1] [0:1] [0:1] [0:1] [0:1] [0:1] [0.087947882736152394:0.9804560260586257] [0.026578073089694954:0.97342192691029794] [0.083881578947369917:0.98519736842104066] [0.06478405315614566:0.97729789590254512] [0.087593721916590539:0.98699880951196661] [0.026737768496417402:0.97995769147320289] [0.083001254822860915:0.99197348956352016] [0.063782457564521167:0.98422632734649085] [0:1] [0:1] [0:1] [0:1] [0:1] [0:1] [0:1] [0:0.98999999999999999] [0:1] [0:1] [0:1] [0:1] [0:1] [0:1] [0:1] [0:1] [0:0.99872964687141574] [0:1] [0:0.9991826700809775] [0:1] [0:1] [0:1] [0:0.99999999999999989] [0:0.99999999999999989] [0:1] [0.0057619047021364288:0.99999999999999978] [0:1] [0:0.99999999999999989] [0.016146854689155485:0.99613049069617943] [0:1] [0.01329418961442369:0.99645377881141206] [0:1] [0:1] [0:0.97008104841418386] [0:1] [0:0.99999999999999989] [0:1] [0.051590550036289928:0.99946035906300679] [0:1] [0:1] [0:1] [0:0.99999999999999989] [0:1] [0:1] [0.003144875689339664:0.99999999999999989] [0.0024792095388309408:1.0000000000000002] [0.0031330075889753352:1] [0.0028564109912821464:0.99999999999999989] [0.0029701623229295084:1] [0.0029478270306753196:1] [0.0029589532937861177:1] [0.002947504875428204:0.99999999999999989] [0:1] [0:1] [0:1] [0:0.99999999999999956] [0:0.9487179487179489] [0:0.9487179487179489] [0:0.9487179487179489] [0:0.9487179487179489] [0:1] [0:1] [0:1] [0:0.99999999999999989] [0.039682539682539764:1] [0.016000000000000014:1] [0.031872509960159334:0.99999999999999978] [0.025299600532623367:0.99999999999999978] [0.09090909090908994:0.90909090909090828] [0.09090909090908994:0.90909090909090828] [0.09090909090908994:0.90909090909090828] [0.09090909090908994:0.90909090909090828] [0:1] [0:1] [0:1] [0:1] [0:1] [0:1] [0:1] [0:0.99999999999999989] [0.0031729096822938523:0.84085000507382768] [0.0041417000927935722:0.94334263929180118] [0.0030069365895303841:0.79246117192919807] [0.0034295297268826354:0.81619198117178238] [0.0028985561527462419:0.72677595628415315] [0:1] [0.0029327939359025511:0.78612716763005808] [0:0.9495708154506437] [0:0.83333333333333326] [0:0.88888888888888884] [0:0.8333334166666666] [0:0.66666666666666663] [0:0.70208871798177075] [0:0.1069137109783363] [0:1]
tree_sizes=453 658 865 857 656 663 1310 1296 1195 1285 1301 1201 1091 1303 1283 1389 1299 1204 1316 1194 1508 1174 1299 1203

Tree=0
num_leaves=3
num_cat=0
split_feature=83 126
split_gain=72.233 18.6602
threshold=0.69051505839816485 0.23648588072526686
decision_type=2 2
left_child=-1 -2
right_child=1 -3
leaf_value=-1.9764063775867613 -0.79163217570088873 -1.6209741170209997
leaf_weight=16.205619335174564 3.0385536253452292 1.6880853474140165
leaf_count=96 18 10
internal_value=-1.77576 -1.08783
internal_weight=20.9323 4.72664
internal_count=124 28
is_linear=0
shrinkage=1


Tree=1
num_leaves=5
num_cat=0
split_feature=90 60 3 3
split_gain=51.9167 18.0725 0.552518 1.77636e-15
threshold=0.96901543979311389 1.0000000180025095e-35 0.24533710103752554 0.34521693572009166
decision_type=2 2 2 2
left_child=1 -1 -3 -4
right_child=-2 2 3 -5
leaf_value=-1.4072416256930871 -0.8859891926232526 -1.9000621078682007 -2.0232672284119793 -2.0232672284119793
leaf_weight=2.2726327478885713 2.1103018373250952 1.6233091056346882 3.8959418535232535 10.226847365498541
leaf_count=14 13 10 24 63
internal_value=-1.82455 -1.93447 -2.01057 -2.02327
internal_weight=20.129 18.0187 15.7461 14.1228
internal_count=124 111 97 87
is_linear=0
shrinkage=1


Tree=2
num_leaves=7
num_cat=0
split_feature=62 118 97 25 3 123
split_gain=20.4773 18.4879 3.17568 0.520145 1.77636e-15 8.88178e-16
threshold=1.0000000180025095e-35 0.42800000000000021 0.28369893969297189 0.70790952375250416 0.35519516558108261 0.45244887045077914
decision_type=2 2 2 2 2 2
left_child=-1 2 -2 4 5 -4
right_child=1 -3 3 -5 -6 -7
leaf_value=-1.2794803764774252 -1.7029969463823296 -1.2852880931533357 -1.9764063775867615 -1.8579289573981741 -1.9764063775867615 -1.9764063775867613
leaf_weight=2.8697450906038311 2.194510951638228 2.0257024168968192 2.0257024168968192 1.6880853474140156 8.4404267370700818 1.6880853474140169
leaf_count=17 13 12 12 10 50 10
internal_value=-1.77576 -1.85461 -1.92652 -1.96196 -1.97641 -1.97641
internal_weight=20.9323 18.0625 16.0368 13.8423 12.1542 3.71379
internal_count=124 107 95 82 72 22
is_linear=0
shrinkage=1


Tree=3
num_leaves=7
num_cat=0
split_feature=90 63 42 41 99 3
split_gain=19.4647 9.45611 3.69747 1.14246 0.50776 1.77636e-15
threshold=0.48342924238210777 0.011628360535684282 0.12281867093724108 0.018612132555940377 0.19362511040098684 0.24533710103752554
decision_type=2 2 2 2 2 2
left_child=-1 -2 3 -3 -5 -6
right_child=1 2 -4 4 5 -7
leaf_value=-1.1865569096628474 -1.5156608546311445 -1.8071529201744938 -1.6209741170209997 -1.8579289573981741 -1.9764063775867615 -1.9764063775867615
leaf_weight=2.0257024168968227 3.0385536253452328 2.3633194863796225 1.6880853474140156 1.6880853474140156 1.6880853474140156 8.4404267370700818
leaf_count=12 18 14 10 10 10 50
internal_value=-1.77576 -1.83889 -1.90078 -1.93409 -1.95948 -1.97641
internal_weight=20.9323 18.9066 15.868 14.1799 11.8166 10.1285
internal_count=124 112 94 84 70 60
is_linear=0
shrinkage=1


Tree=4
num_leaves=5
num_cat=0
split_feature=126 99 1 11
split_gain=62.9092 5.90241 3.91503 1.77636e-15
threshold=0.99983854854515564 0.39749580691084191 0.35263681084212412 0.18399475695506881
decision_type=2 2 2 2
left_child=2 -2 3 -1
right_child=1 -3 -4 -5
leaf_value=-1.9764063775867609 -1.2852880931533357 -0.79163217570088928 -1.6802128271152932 -1.9764063775867615
leaf_weight=2.5321280211210313 2.0257024168968196 1.8568938821554182 2.0257024168968192 12.491831570863722
leaf_count=15 12 11 12 74
internal_value=-1.77576 -1.04919 -1.94122 -1.97641
internal_weight=20.9323 3.8826 17.0497 15.024
internal_count=124 23 101 89
is_linear=0
shrinkage=1


Tree=5
num_leaves=5
num_cat=0
split_feature=38 145 9 0
split_gain=51.9316 45.3077 0.549786 1.77636e-15
threshold=1.0000000180025095e-35 1.0000000180025095e-35 0.060753472506281832 0.61460033891963173
decision_type=2 2 2 2
left_child=2 -2 -1 -4
right_child=1 -3 3 -5
leaf_value=-1.9000621078682005 -2.0232672284119793 -0.79121602297419247 -2.0232672284119793 -2.0232672284119793
leaf_weight=1.6233091056346918 1.9479709267616261 3.0842873007059097 10.226847365498541 3.2466182112693778
leaf_count=10 12 19 63 20
internal_value=-1.82455 -1.26814 -2.01002 -2.02327
internal_weight=20.129 5.03226 15.0968 13.4735
internal_count=124 31 93 83
is_linear=0
shrinkage=1


Tree=6
num_leaves=11
num_cat=0
split_feature=72 6 81 106 137 107 100 117 35 65
split_gain=35.9991 3.07826 0.00138872 0.000679684 0.000539119 0.0003907 0.000362659 7.76169e-05 2.86484e-05 2.33455e-05
threshold=0.52339827219800816 0.0073220198119597129 0.63362157222841164 0.26839732015750711 0.38237406728757195 0.60865028876736271 0.37288151965462685 0.3286323684144084 0.02040337524955577 0.061201838146553049
decision_type=2 2 2 2 2 2 2 2 2 2
left_child=2 -2 3 4 -1 6 7 -5 9 -8
right_child=1 -3 -4 5 -6 -7 8 -9 -10 -11
leaf_value=-0.19141624231665305 0.16778912746781746 0.46767340426328935 -0.19792808761975728 -0.19302336549392701 -0.19677209873963383 -0.19339908275907491 -0.18879748137523045 -0.19088589574186021 -0.18823974195874765 -0.18998404046625178
leaf_weight=1.3462634831666975 1.9468406438827504 4.6143138408660889 1.7159232944250096 1.4033111855387672 1.7024372667074201 1.9888166189193723 1.3636611551046378 1.3175587132573126 1.3382475972175596 1.2913503199815748
leaf_count=10 9 17 11 10 11 14 11 10 11 10
internal_value=-0.00546123 0.378691 -0.192613 -0.191837 -0.194407 -0.190937 -0.190208 -0.191988 -0.188994 -0.189375
internal_weight=20.0287 6.56115 13.4676 11.7516 3.0487 8.70295 6.71413 2.72087 3.99326 2.65501
internal_count=124 26 98 87 21 66 52 20 32 21
is_linear=0
shrinkage=0.2


Tree=7
num_leaves=11
num_cat=0
split_feature=56 7 74 81 60 3 113 88 34 69
split_gain=24.3683 4.63848 3.7963 0.728245 0.0075443 0.00173463 0.000365675 0.000188613 2.64063e-05 2.5079e-05
threshold=0.87003758448507973 0.86018194541637538 0.21973249998463062 0.76855103471457253 0.0025000000000000001 0.32368035390399968 0.32390487338017382 0.58586048800297374 0.013116369183761932 0.028756006183283511
decision_type=2 2 2 2 2 2 2 2 2 2
left_child=1 3 -2 4 -1 -6 7 -7 9 -9
right_child=2 -3 -4 -5 5 6 -8 8 -10 -11
leaf_value=-0.20529462502915924 0.15303107095947421 0.20918539872078276 0.49828636738568977 -0.030305760981945335 -0.19599217680927966 -0.19066996601617209 -0.1921570755945825 -0.18779303396017133 -0.18730312951307015 -0.18892177319602257
leaf_weight=1.7248506471514726 2.0986973196268073 1.3764005005359639 3.2415217459201813 1.2160716429352749 2.1227703765034658 1.5694377645850179 1.6494427770376203 1.4351930916309359 1.176196902990341 1.7443811371922491
leaf_count=10 11 7 13 9 14 12 12 12 10 14
internal_value=-0.000944512 -0.139471 0.362602 -0.177442 -0.193107 -0.190939 -0.189523 -0.18879 -0.188113 -0.188412
internal_weight=19.355 14.0147 5.34022 12.6383 11.4223 9.69742 7.57465 5.92521 4.35577 3.17957
internal_count=124 100 24 93 84 74 60 48 36 26
is_linear=0
shrinkage=0.2


Tree=8
num_leaves=10
num_cat=0
split_feature=42 15 17 63 101 33 93 56 36
split_gain=13.1099 11.4453 6.12357 1.90788 0.00165217 0.000498588 0.000536667 4.31652e-05 1.57175e-05
threshold=1.0000000180025095e-35 0.27330173775671412 0.21187812700916867 0.10417934385370926 0.30246689907562935 0.0042091388099718069 0.13180104085523317 0.47489365650201648 0.024101501468016834
decision_type=2 2 2 2 2 2 2 2 2
left_child=1 -1 -2 -4 -5 6 -6 -7 -9
right_child=2 -3 3 4 5 7 -8 8 -10
leaf_value=-0.10923618868338095 0.2023491761822255 0.50432783880358256 -0.01169715011621522 -0.1982605548328967 -0.19016692738388774 -0.19086945339957251 -0.19560950133580252 -0.18984899774685624 -0.18895943164343978
leaf_weight=1.9261283725500131 2.3963608890771857 3.2989049553871155 3.1247053742408744 1.5822456628084163 1.2951256260275843 1.3254438936710355 1.6453826129436491 2.1868390887975697 1.2478290498256681
leaf_count=10 12 15 19 10 10 10 11 17 10
internal_value=0.00578631 0.278147 -0.0903431 -0.146873 -0.192374 -0.191165 -0.193212 -0.1899 -0.189526
internal_weight=20.029 5.22503 14.8039 12.4076 9.28287 7.70062 2.94051 4.76011 3.43467
internal_count=124 25 99 87 68 58 21 37 27
is_linear=0
shrinkage=0.2


Tree=9
num_leaves=11
num_cat=0
split_feature=4 15 66 4 134 4 71 64 28 36
split_gain=12.1405 14.0633 14.2799 7.63487 1.54664 0.00676376 0.00470616 0.000986896 0.000147807 5.01145e-06
threshold=0.61916548797736926 0.10900473933649292 0.023462489557661535 0.81612446958981621 0.75466904336925156 0.51497675109577112 0.035481391765906707 0.27317853435532685 0.17898549872598898 0.0073036787023680935
decision_type=2 2 2 2 2 2 2 2 2 2
left_child=5 6 3 4 -3 7 -2 -1 -9 -10
right_child=1 2 -4 -5 -6 -7 -8 8 9 -11
leaf_value=-0.19643346048468296 -0.20507889400415014 -0.20698974708947812 0.63960276911900793 0.3664249392550209 0.057507417628938677 -0.20677453932265222 -0.19086706562829694 -0.19222155445018504 -0.189934131209608 -0.18940705337234101
leaf_weight=1.5193475931882883 1.8921096622943872 2.0436336845159517 2.7871798127889633 2.4262138158082962 1.5588694065809248 1.5873994231224058 1.8368026390671728 1.3708938211202619 1.6768061816692355 1.2666104286909101
leaf_count=10 11 11 13 13 10 9 14 10 13 10
internal_value=0.00757013 0.127521 0.265242 0.092169 -0.092537 -0.1952 -0.198078 -0.19205 -0.190506 -0.189707
internal_weight=19.9659 12.5448 8.8159 6.02872 3.6025 7.42106 3.72891 5.83366 4.31431 2.94342
internal_count=124 72 47 34 21 52 25 43 33 23
is_linear=0
shrinkage=0.2


Tree=10
num_leaves=11
num_cat=0
split_feature=125 37 22 77 26 9 57 22 5 0
split_gain=27.3484 2.23832 1.94987 0.679869 0.000876844 0.000874439 0.000416385 0.000207552 0.000102992 4.18264e-06
threshold=0.99983854854515564 0.087739632352044059 0.82991084964434325 0.080113552692279905 0.33284374535696687 0.15378510766018763 0.073937123177018532 0.41312447575093442 0.87362971477663998 0.51910828025477718
decision_type=2 2 2 2 2 2 2 2 2 2
left_child=1 3 -2 -1 7 8 -7 9 -6 -5
right_child=2 -3 -4 4 5 6 -8 -9 -10 -11
leaf_value=-0.041857590932353479 0.22888828404972764 0.091154924890864367 0.46141098526844293 -0.18938426304893657 -0.19270968835732546 -0.19383664268708267 -0.19776892029512444 -0.19257588552489074 -0.1902929088583887 -0.18988450799819445
leaf_weight=1.3284939378500009 2.5259052067995063 1.3762415349483479 3.3634445369243622 1.2660621553659424 1.5372392535209658 1.8710747957229612 2.5384259819984436 1.5162594914436338 1.3033344745635984 1.4166592508554456
leaf_count=10 10 9 13 10 11 13 16 11 10 11
internal_value=-0.000489231 -0.151188 0.361683 -0.17729 -0.193005 -0.194337 -0.1961 -0.190706 -0.191601 -0.189648
internal_weight=20.0431 14.1538 5.88935 12.7775 11.4491 7.25007 4.4095 4.19898 2.84057 2.68272
internal_count=124 101 23 92 82 50 29 32 21 21
is_linear=0
shrinkage=0.2


Tree=11
num_leaves=10
num_cat=0
split_feature=147 0 73 64 78 114 27 36 142
split_gain=34.4124 1.52828 0.000555036 0.000368529 0.000318364 0.000278292 0.000117564 2.72169e-05 6.79151e-06
threshold=0.10900473933649292 0.41308308378276698 0.099896524867580536 0.063388381419549375 0.10363630813757806 0.35338374380449633 0.37073610084351671 0.010053499540338878 0.21457920767396019
decision_type=2 2 2 2 2 2 2 2 2
left_child=1 -1 4 6 -2 7 -4 8 -5
right_child=2 -3 3 5 -6 -7 -8 -9 -10
leaf_value=0.2544086465961356 -0.19049243049873335 0.45792420747266854 -0.19341422285966603 -0.18845700559574968 -0.1943239932578795 -0.19134561505821257 -0.1907940885488853 -0.18773696837934117 -0.18906208837769492
leaf_weight=2.3961166143417385 1.2950936704874032 3.8432825952768326 1.4252144247293457 1.2269628271460535 2.6267833411693573 1.9955858364701269 1.3188747093081472 1.3139091432094572 1.8771943300962446
leaf_count=11 10 14 10 10 18 15 10 11 15
internal_value=-0.00670685 0.379768 -0.191068 -0.190215 -0.193059 -0.189385 -0.192155 -0.1885 -0.188823
internal_weight=19.319 6.2394 13.0796 9.15774 3.92188 6.41365 2.74409 4.41807 3.10416
internal_count=124 25 99 71 28 51 20 36 25
is_linear=0
shrinkage=0.2


Tree=12
num_leaves=9
num_cat=0
split_feature=72 6 64 2 110 23 6 74
split_gain=22.5418 1.4577 0.00111393 0.00081837 0.000538218 0.000204151 0.000144748 5.97843e-05
threshold=0.52339827219800816 0.0090613035892617311 0.36772953691584487 0.29078098102145283 0.45439460113118058 0.81957123204088245 0.0021008140096122154 0.096778537365144288
decision_type=2 2 2 2 2 2 2 2
left_child=2 -2 4 -4 5 -1 -6 -8
right_child=1 -3 3 -5 6 -7 7 -9
leaf_value=-0.18557129814878587 0.14650740778035162 0.33996660607460455 -0.19253944726659178 -0.18577668364444963 -0.18555596417817766 -0.18860037949921823 -0.18229215707161645 -0.18410458814810671
leaf_weight=1.7459225878119489 2.3542651981115332 4.6058407872915268 1.7892104536294939 1.1929887384176252 1.3017636165022848 1.815436355769634 1.7828329652547839 1.2303997948765752
leaf_count=16 10 16 13 11 12 15 19 12
internal_value=-0.00644423 0.274529 -0.186542 -0.189834 -0.185296 -0.187115 -0.183794 -0.183032
internal_weight=17.8187 6.96011 10.8586 2.9822 7.87636 3.56136 4.315 3.01323
internal_count=124 26 98 24 74 31 43 31
is_linear=0
shrinkage=0.2


Tree=13
num_leaves=11
num_cat=0
split_feature=9 108 123 100 7 118 106 106 29 79
split_gain=13.9613 14.1413 1.52139 0.736606 0.0153213 0.0104887 0.00309552 0.000442561 0.000123202 2.87532e-05
threshold=0.49159785600463574 0.80698536764705808 0.45244887045077914 0.21624287320822533 0.69811056682994999 0.085544630380001735 0.38313206548212581 0.60500494924151782 0.50885590193699726 0.12123908768837671
decision_type=2 2 2 2 2 2 2 2 2 2
left_child=3 2 -2 -1 -3 -5 -7 8 -8 -10
right_child=1 4 -4 5 -6 6 7 -9 9 -11
leaf_value=-0.00048104148896430614 0.26338064492887542 -0.18469594047028173 0.46720635763434493 -0.20701817761825483 -0.21531297470644725 -0.19354873047578158 -0.18467926570020898 -0.18723823052033978 -0.18167954312897239 -0.18304553905322107
leaf_weight=0.91395405679941433 3.2082048282027227 1.5443162992596629 2.6955824345350266 1.191210463643072 1.1337428018450735 1.9427260383963583 1.2613736093044283 1.3898351117968557 1.4539615437388422 1.0699717551469801
leaf_count=6 13 15 10 8 7 14 12 12 16 11
internal_value=-6.78831e-05 0.183531 0.356444 -0.170903 -0.197658 -0.189648 -0.186741 -0.184186 -0.183065 -0.182259
internal_weight=17.8049 8.58185 5.90379 9.22303 2.67806 8.30908 7.11787 5.17514 3.78531 2.52393
internal_count=124 45 23 79 22 73 65 51 39 27
is_linear=0
shrinkage=0.2


Tree=14
num_leaves=11
num_cat=0
split_feature=2 69 90 9 105 41 64 100 108 2
split_gain=7.82985 11.4868 5.52492 2.31527 0.740507 0.0125183 0.0115373 0.00115527 0.000492134 0.000110894
threshold=0.17217682326929587 0.29641471558737359 0.84997997230992139 0.53962750116398595 0.2930744740488393 0.054524215477063251 0.041614970329781606 0.37288151965462685 0.81495172079069 0.082118972543152716
decision_type=2 2 2 2 2 2 2 2 2 2
left_child=6 2 -2 -3 -4 -5 -1 -8 -7 -9
right_child=1 3 4 5 -6 8 7 9 -10 -11
leaf_value=-0.20819043230451301 0.015639663424746111 0.1402021902251476 0.29379280157438736 -0.20907659591051259 0.44678629136139902 -0.18916579582906004 -0.19135952417178581 -0.18329796599870124 -0.18400983776931593 -0.18575869529813582
leaf_weight=1.2446020990610147 2.6912032440304738 1.0259952843189237 2.5308173447847366 1.3432672470808027 2.5309654176235199 1.2034803181886675 1.3044751510024069 1.8779040873050692 1.9248668104410169 1.2010965198278425
leaf_count=7 16 4 10 8 10 10 10 19 19 11
internal_value=0.00643622 0.090379 0.247186 -0.130757 0.370292 -0.192928 -0.191196 -0.186371 -0.185993 -0.184258
internal_weight=18.8787 13.2506 7.75299 5.49761 5.06178 4.47161 5.62808 4.38348 3.12835 3.079
internal_count=124 77 36 41 20 37 47 40 29 30
is_linear=0
shrinkage=0.2


Tree=15
num_leaves=12
num_cat=0
split_feature=4 114 63 20 114 4 99 18 33 71 4
split_gain=8.35848 8.37663 5.94685 4.05164 3.77403 0.00567584 0.00542417 0.00140903 0.000432365 0.000228436 1.28178e-05
threshold=0.61916548797736926 0.2763550780345968 0.25130790566837541 0.35857050320328027 0.64681947044069676 0.51497675109577112 0.39438096811516654 0.38167986577783286 0.0042091388099718069 0.52629030330430171 0.26269788221152895
decision_type=2 2 2 2 2 2 2 2 2 2 2
left_child=5 -2 3 -3 6 8 -5 -8 9 -1 -10
right_child=1 2 -4 4 -6 -7 7 -9 10 -11 -12
leaf_value=-0.18504379210980446 0.44681212906471091 0.2208355780030849 0.3308956691715767 -0.20093189089715813 0.17762934644645464 -0.19991087105089836 -0.18472689711259435 -0.19335432602489999 -0.18369132845687175 -0.18885799289163444 -0.18269360635712906
leaf_weight=1.1742614358663588 2.2626424580812445 1.7617655843496303 2.0304498374462119 2.3209037110209465 1.3696380853652952 1.3917945623397825 1.8859929144382479 1.265165716409683 1.0051903203129771 1.3503535464406011 1.056300915777683
leaf_count=11 9 8 8 14 6 9 18 9 10 11 11
internal_value=0.00676339 0.0973771 0.0230257 -0.0496328 -0.119279 -0.188724 -0.193595 -0.188191 -0.185329 -0.187084 -0.18318
internal_weight=18.8745 12.8966 10.6339 8.60347 6.8417 5.9779 5.47206 3.15116 4.58611 2.52461 2.06149
internal_count=124 72 63 55 47 52 41 27 43 22 21
is_linear=0
shrinkage=0.2


Tree=16
num_leaves=11
num_cat=0
split_feature=125 1 55 44 64 27 19 95 92 81
split_gain=16.5599 6.49796 1.13547 0.000784122 0.000452215 0.000270504 0.000264836 0.000211185 0.000113057 7.64375e-07
threshold=0.99983854854515564 0.56214297671681224 0.23392920340578635 0.15778081424264223 0.28488823784124462 0.48473969535566658 0.29101236333810104 0.18206520229468628 0.49390360993399668 0.7476351180956452
decision_type=2 2 2 2 2 2 2 2 2 2
left_child=1 3 -2 4 5 -1 -6 -7 -8 -10
right_child=2 -3 -4 -5 6 7 8 -9 9 -11
leaf_value=-0.18587430041081029 0.3498672482643177 0.31625133854978471 0.18178039753664876 -0.19080479109234783 -0.18704581481949212 -0.18709609100615146 -0.18545735275988945 -0.19079397306826715 -0.1830400403688171 -0.18279485955643274
leaf_weight=1.8710434511303917 2.9574517607688895 1.1346336305141438 3.5220233798027039 1.7984978556632985 1.4829806908965109 1.1635238751769068 1.0764130204916003 1.3169897794723509 1.0750707313418391 0.9653148055076598
leaf_count=17 10 6 13 14 13 10 10 10 11 10
internal_value=0.00128647 -0.138948 0.258501 -0.186994 -0.186228 -0.18769 -0.184846 -0.189059 -0.183799 -0.182924
internal_weight=18.3639 11.8845 6.47948 10.7498 8.95134 4.35156 4.59978 2.48051 3.1168 2.04039
internal_count=124 101 23 95 81 37 44 20 31 21
is_linear=0
shrinkage=0.2


Tree=17
num_leaves=10
num_cat=0
split_feature=2 53 105 107 118 56 6 10 139
split_gain=20.9408 1.04732 0.000491578 0.000300589 0.000191682 0.000192186 0.000190442 5.92591e-05 1.90581e-05
threshold=0.10900473933649292 0.40375144661519002 0.5561285498009837 0.85421895010777849 0.23328948226957627 0.85583333333333345 0.0073220198119597129 0.39583262093550659 0.43323960602269057
decision_type=2 2 2 2 2 2 2 2 2
left_child=1 -1 4 6 -2 -6 7 -4 -8
right_child=2 -3 3 -5 5 -7 8 -9 -10
leaf_value=0.33177691970385548 -0.18890016435886844 0.16965076613168228 -0.1858306848563544 -0.18724551643118406 -0.18409660438791364 -0.1877549625847118 -0.18196274226454143 -0.18402476168647008 -0.18309032930929292
leaf_weight=4.0421850979328182 1.4812142699956878 2.6313033029437065 1.2030956670641901 1.1322535946965215 1.1139818057417872 1.1858389377593992 1.5701871141791346 1.8358737453818319 0.96993097662925709
leaf_count=14 12 11 11 10 11 10 17 18 10
internal_value=-0.00913155 0.267852 -0.185302 -0.184274 -0.187126 -0.185983 -0.183671 -0.18474 -0.182393
internal_weight=17.1659 6.67349 10.4924 6.71134 3.78104 2.29982 5.57909 3.03897 2.54012
internal_count=124 25 99 66 33 21 56 29 27
is_linear=0
shrinkage=0.2


Tree=18
num_leaves=11
num_cat=0
split_feature=84 106 114 106 1 95 42 57 1 115
split_gain=15.0647 1.10099 0.00225955 0.000645848 0.000320943 0.000157596 8.18876e-05 5.18929e-05 1.51961e-05 1.35577e-05
threshold=0.74237806561693598 0.813435595194269 0.065625000000000017 0.47168301207052915 0.0089091721046099508 0.13043477506038587 0.047250573435176489 0.27535526697992435 0.14054915504148077 0.30428636255037861
decision_type=2 2 2 2 2 2 2 2 2 2
left_child=2 -2 -1 4 -4 9 7 -7 -8 -5
right_child=1 -3 3 5 -6 6 8 -9 -10 -11
leaf_value=-0.1926059562354292 0.097182589857354965 0.27406947174486485 -0.18193223994817634 -0.17788091346069088 -0.18628635380994882 -0.18065881287365548 -0.17912882618862791 -0.18275669252242599 -0.18036054891214526 -0.17904129360324569
leaf_weight=0.79153435677289774 2.0399914532899865 4.5397959649562836 1.5211610943078997 0.84875446557998635 1.2204475626349447 0.93759562820196174 0.7686907500028608 0.94901654124259949 0.83680181205272675 0.7664688378572464
leaf_count=6 10 17 17 12 11 11 10 10 10 10
internal_value=-0.00878668 0.219228 -0.182421 -0.181394 -0.183871 -0.180065 -0.180821 -0.181714 -0.179771 -0.178432
internal_weight=15.2203 6.57979 8.64047 7.84894 2.74161 5.10733 3.4921 1.88661 1.60549 1.61522
internal_count=124 27 97 91 28 63 41 21 20 22
is_linear=0
shrinkage=0.2


Tree=19
num_leaves=10
num_cat=0
split_feature=80 105 5 60 45 101 59 0 89
split_gain=9.83085 7.21102 1.65492 0.0139423 0.00940307 0.00133103 0.000264976 0.000137398 4.07711e-05
threshold=0.36961350234687168 0.82429230251090779 0.24438562462945332 1.0000000180025095e-35 0.7882736156351734 0.30246689907562935 0.22313187091117626 0.39595288146030333 0.50623390013281855
decision_type=2 2 2 2 2 2 2 2 2
left_child=3 2 -2 -1 -3 -5 7 -7 -9
right_child=1 4 -4 5 -6 6 -8 8 -10
leaf_value=-0.20994900017387697 0.32371533586949464 -0.18002559044533695 0.12794967875502691 -0.1881293303129451 -0.20758682071432408 -0.18105194106385003 -0.18244294309504819 -0.17747784970482672 -0.17923868164161055
leaf_weight=0.79481749981641847 3.7282262742519361 1.2852100655436518 3.2183556109666824 1.0633128583431242 0.80545910447835911 1.1348463520407679 1.5703253969550131 1.0967259854078295 1.0107400044798849
leaf_count=5 13 16 16 9 6 13 17 16 13
internal_value=-0.000928346 0.135008 0.233017 -0.185088 -0.190644 -0.181725 -0.180311 -0.179278 -0.178322
internal_weight=15.708 9.03725 6.94658 6.67077 2.09067 5.87595 4.81264 3.24231 2.10747
internal_count=124 51 29 73 22 68 59 42 29
is_linear=0
shrinkage=0.2


Tree=20
num_leaves=13
num_cat=0
split_feature=91 59 71 15 61 53 41 133 126 15 85 18
split_gain=5.75018 6.33416 3.10153 5.90606 3.58048 0.0150307 0.00917577 0.00800301 0.00324415 0.000326092 0.000192974 1.72657e-05
threshold=0.50538364680182457 0.017914577518701725 0.29317662898169067 0.24168137587025237 0.30148511548728413 0.92329981584002385 0.054524215477063251 0.52637603124086463 0.0087160110318788998 0.14834320893295846 0.95327924485909965 0.37552513813726496
decision_type=2 2 2 2 2 2 2 2 2 2 2 2
left_child=7 -2 3 4 6 -4 -3 -1 -9 11 -7 -10
right_child=1 2 5 -5 -6 10 -8 8 9 -11 -12 -13
leaf_value=-0.20390782353584733 0.3072815670487008 -0.20906372042926 -0.21169930054738006 0.31986554637630848 0.20064862479248291 -0.17813563030134016 -0.18676859704735255 -0.19576885336914157 -0.17844468286152845 -0.1838382506791115 -0.18232636275238079 -0.17975300959207063
leaf_weight=1.1080325841903711 3.4626784250140181 1.4200420975685104 0.87728087604045901 2.3358539342880249 1.3009760305285452 1.0826909393072126 1.5382171645760534 0.75208143144845996 0.81016480177640937 0.9055245667695998 0.7398700639605521 0.80374253541231155
leaf_count=7 13 8 5 10 7 15 15 6 11 9 8 10
internal_value=0.00851231 0.0763907 -0.00962407 0.0642946 -0.0758659 -0.19019 -0.197471 -0.189217 -0.184242 -0.180801 -0.179837 -0.179096
internal_weight=17.1372 12.7576 9.29493 6.59509 4.25924 2.69984 2.95826 4.37955 3.27151 2.51943 1.82256 1.61391
internal_count=124 81 68 40 30 28 23 43 36 30 23 21
is_linear=0
shrinkage=0.2


Tree=21
num_leaves=10
num_cat=0
split_feature=4 93 37 117 117 22 4 53 68
split_gain=6.00778 5.81368 5.17785 2.09181 1.4757 0.0125221 0.0024232 0.000233016 8.20254e-05
threshold=0.61916548797736926 0.10255339084713973 0.0022535142166067502 0.15955381676735206 0.27753106895059537 0.84880614614702588 0.51497675109577112 0.95211859165571067 0.27458758268863726
decision_type=2 2 2 2 2 2 2 2 2
left_child=6 5 3 -3 -5 -2 7 -1 -9
right_child=1 2 -4 4 -6 -7 -8 8 -10
leaf_value=-0.18257528010747295 -0.21296658419732803 0.37568271144135584 -0.11659440054012211 0.033066074221967445 0.24844233480053074 -0.18399687466313 -0.19155123092931448 -0.1783014966637182 -0.18095498280856903
leaf_weight=1.6777509748935728 1.0862678885459893 2.5421747267246229 2.2685142681002617 2.26443000882864 2.9050035625696182 1.3246062025427816 1.1040630117058752 1.1700253859162328 0.77441667765378941
leaf_count=18 7 9 18 12 12 14 9 16 9
internal_value=0.00850266 0.0816798 0.149012 0.227145 0.154098 -0.19705 -0.183349 -0.180848 -0.179358
internal_weight=17.1173 12.391 9.98012 7.71161 5.16943 2.41087 4.72626 3.62219 1.94444
internal_count=124 72 51 33 24 21 52 43 25
is_linear=0
shrinkage=0.2


Tree=22
num_leaves=11
num_cat=0
split_feature=2 54 57 113 111 35 25 35 8 53
split_gain=12.0734 7.60263 2.15594 0.591134 0.0235878 0.00675334 0.000330033 0.00016849 0.000164121 6.81398e-05
threshold=0.17217682326929587 0.51481707317073189 0.21989013296409596 0.28664182278845957 0.60420370586533001 0.020001718987401881 0.47350996861979949 0.0010115782499076943 0.5660704638256252 0.70105994578295772
decision_type=2 2 2 2 2 2 2 2 2 2
left_child=1 3 -3 -1 5 6 7 9 -8 -2
right_child=4 2 -4 -5 -6 -7 8 -9 -10 -11
leaf_value=0.23188459769915981 -0.17992342753225685 -0.20543348224149943 0.13448835515299509 0.36178144315961547 -0.21992411352176858 -0.20001962895482889 -0.18200588735584999 -0.1780528173933793 -0.18559477796887977 -0.18201714244661477
leaf_weight=2.7120089158415812 0.97071602195501316 2.1057018041610722 1.1561156064271925 2.8996947109699249 0.83721746504306782 0.93382039666175831 1.0972003117203715 0.86194804310798634 0.95186064392328251 1.7296301275491712
leaf_count=11 12 19 7 10 6 7 12 12 9 19
internal_value=0.000653184 0.157866 -0.0849519 0.299005 -0.188315 -0.184271 -0.181651 -0.180487 -0.183673 -0.181264
internal_weight=16.2559 8.87352 3.26182 5.6117 7.38239 6.54518 5.61136 3.56229 2.04906 2.70035
internal_count=124 47 26 21 77 71 64 43 21 31
is_linear=0
shrinkage=0.2


Tree=23
num_leaves=10
num_cat=0
split_feature=4 116 116 114 90 69 106 90 86
split_gain=12.2925 2.34784 0.000414141 0.00020896 0.000177669 5.59319e-05 5.15157e-05 3.76239e-05 1.1133e-05
threshold=0.88265431657547866 0.34313747536602029 0.32031768407657418 0.11878770717997335 0.83005276459519528 0.075343716035341193 0.56565043784600422 0.52639438995631405 0.8256445040708893
decision_type=2 2 2 2 2 2 2 2 2
left_child=2 -2 3 7 -4 -6 -5 -1 -8
right_child=1 -3 4 6 5 -7 8 -9 -10
leaf_value=-0.18016631953766238 0.27730016121027401 0.034087745066994121 -0.1847303309863223 -0.17978759771081287 -0.18024926154027107 -0.18230044772652865 -0.17734268435884248 -0.18196088274083688 -0.1783294590288079
leaf_weight=0.82049343734979618 4.2574673891067505 2.5318007096648216 1.0211449414491656 0.7887610346078876 0.83095908164978061 1.4767883121967313 0.88196276128292062 1.0856351777911184 0.949903205037117
leaf_count=10 16 14 10 10 10 16 13 12 13
internal_value=-0.0104964 0.186603 -0.18084 -0.179595 -0.182534 -0.181562 -0.178436 -0.181188 -0.177854
internal_weight=14.6449 6.78927 7.85565 4.52676 3.32889 2.30775 2.62063 1.90613 1.83187
internal_count=124 30 94 58 36 26 36 22 26
is_linear=0
shrinkage=0.2


end of trees

feature_importances:
Column_4=9
Column_106=6
Column_2=5
Column_3=5
Column_64=5
Column_90=5
Column_114=5
Column_0=4
Column_1=4
Column_6=4
Column_9=4
Column_15=4
Column_53=4
Column_22=3
Column_35=3
Column_36=3
Column_41=3
Column_42=3
Column_56=3
Column_57=3
Column_60=3
Column_63=3
Column_69=3
Column_71=3
Column_81=3
Column_99=3
Column_100=3
Column_105=3
Column_117=3
Column_118=3
Column_126=3
Column_5=2
Column_7=2
Column_18=2
Column_25=2
Column_27=2
Column_33=2
Column_37=2
Column_59=2
Column_72=2
Column_74=2
Column_93=2
Column_95=2
Column_101=2
Column_107=2
Column_108=2
Column_113=2
Column_116=2
Column_123=2
Column_125=2
Column_8=1
Column_10=1
Column_11=1
Column_17=1
Column_19=1
Column_20=1
Column_23=1
Column_26=1
Column_28=1
Column_29=1
Column_34=1
Column_38=1
Column_44=1
Column_45=1
Column_54=1
Column_55=1
Column_61=1
Column_62=1
Column_65=1
Column_66=1
Column_68=1
Column_73=1
Column_77=1
Column_78=1
Column_79=1
Column_80=1
Column_83=1
Column_84=1
Column_85=1
Column_86=1
Column_88=1
Column_89=1
Column_91=1
Column_92=1
Column_97=1
Column_110=1
Column_111=1
Column_115=1
Column_133=1
Column_134=1
Column_137=1
Column_139=1
Column_142=1
Column_145=1
Column_147=1

parameters:
[boosting: gbdt]
[objective: multiclass]
[metric: custom]
[tree_learner: serial]
[device_type: cpu]
[data_sample_strategy: bagging]
[data: ]
[valid: ]
[num_iterations: 10000]
[learning_rate: 0.2]
[num_leaves: 63]
[num_threads: 0]
[seed: 1236]
[deterministic: 0]
[force_col_wise: 0]
[force_row_wise: 0]
[histogram_pool_size: -1]
[max_depth: -1]
[min_data_in_leaf: 10]
[min_sum_hessian_in_leaf: 0.001]
[bagging_fraction: 1]
[pos_bagging_fraction: 1]
[neg_bagging_fraction: 1]
[bagging_freq: 0]
[bagging_seed: 21709]
[bagging_by_query: 0]
[feature_fraction: 0.5]
[feature_fraction_bynode: 1]
[feature_fraction_seed: 24116]
[extra_trees: 0]
[extra_seed: 15571]
[early_stopping_round: 0]
[early_stopping_min_delta: 0]
[first_metric_only: 0]
[max_delta_step: 0]
[lambda_l1: 0]
[lambda_l2: 0]
[linear_lambda: 0]
[min_gain_to_split: 0]
[drop_rate: 0.1]
[max_drop: 50]
[skip_drop: 0.5]
[xgboost_dart_mode: 0]
[uniform_drop: 0]
[drop_seed: 15722]
[top_rate: 0.2]
[other_rate: 0.1]
[min_data_per_group: 100]
[max_cat_threshold: 32]
[cat_l2: 10]
[cat_smooth: 10]
[max_cat_to_onehot: 4]
[top_k: 20]
[monotone_constraints: ]
[monotone_constraints_method: basic]
[monotone_penalty: 0]
[feature_contri: ]
[forcedsplits_filename: ]
[refit_decay_rate: 0.9]
[cegb_tradeoff: 1]
[cegb_penalty_split: 0]
[cegb_penalty_feature_lazy: ]
[cegb_penalty_feature_coupled: ]
[path_smooth: 0]
[interaction_constraints: ]
[verbosity: -1]
[saved_feature_importance_type: 0]
[use_quantized_grad: 0]
[num_grad_quant_bins: 4]
[quant_train_renew_leaf: 0]
[stochastic_rounding: 1]
[linear_tree: 0]
[max_bin: 255]
[max_bin_by_feature: ]
[min_data_in_bin: 3]
[bin_construct_sample_cnt: 200000]
[data_random_seed: 4074]
[is_enable_sparse: 1]
[enable_bundle: 1]
[use_missing: 1]
[zero_as_missing: 0]
[feature_pre_filter: 1]
[pre_partition: 0]
[two_round: 0]
[header: 0]
[label_column: ]
[weight_column: ]
[group_column: ]
[ignore_column: ]
[categorical_feature: ]
[forcedbins_filename: ]
[precise_float_parser: 0]
[parser_config_file: ]
[objective_seed: 10917]
[num_class: 6]
[is_unbalance: 0]
[scale_pos_weight: 1]
[sigmoid: 1]
[boost_from_average: 1]
[reg_sqrt: 0]
[alpha: 0.9]
[fair_c: 1]
[poisson_max_delta_step: 0.7]
[tweedie_variance_power: 1.5]
[lambdarank_truncation_level: 30]
[lambdarank_norm: 1]
[label_gain: ]
[lambdarank_position_bias_regularization: 0]
[eval_at: ]
[multi_error_top_k: 1]
[auc_mu_weights: ]
[num_machines: 1]
[local_listen_port: 12400]
[time_out: 120]
[machine_list_filename: ]
[machines: ]
[gpu_platform_id: -1]
[gpu_device_id: -1]
[gpu_use_dp: 0]
[num_gpu: 1]

end of parameters

pandas_categorical:null
