tree
version=v4
num_class=6
num_tree_per_iteration=6
label_index=0
max_feature_idx=147
objective=multiclass num_class:6
feature_names=Column_0 Column_1 Column_2 Column_3 Column_4 Column_5 Column_6 Column_7 Column_8 Column_9 Column_10 Column_11 Column_12 Column_13 Column_14 Column_15 Column_16 Column_17 Column_18 Column_19 Column_20 Column_21 Column_22 Column_23 Column_24 Column_25 Column_26 Column_27 Column_28 Column_29 Column_30 Column_31 Column_32 Column_33 Column_34 Column_35 Column_36 Column_37 Column_38 Column_39 Column_40 Column_41 Column_42 Column_43 Column_44 Column_45 Column_46 Column_47 Column_48 Column_49 Column_50 Column_51 Column_52 Column_53 Column_54 Column_55 Column_56 Column_57 Column_58 Column_59 Column_60 Column_61 Column_62 Column_63 Column_64 Column_65 Column_66 Column_67 Column_68 Column_69 Column_70 Column_71 Column_72 Column_73 Column_74 Column_75 Column_76 Column_77 Column_78 Column_79 Column_80 Column_81 Column_82 Column_83 Column_84 Column_85 Column_86 Column_87 Column_88 Column_89 Column_90 Column_91 Column_92 Column_93 Column_94 Column_95 Column_96 Column_97 Column_98 Column_99 Column_100 Column_101 Column_102 Column_103 Column_104 Column_105 Column_106 Column_107 Column_108 Column_109 Column_110 Column_111 Column_112 Column_113 Column_114 Column_115 Column_116 Column_117 Column_118 Column_119 Column_120 Column_121 Column_122 Column_123 Column_124 Column_125 Column_126 Column_127 Column_128 Column_129 Column_130 Column_131 Column_132 Column_133 Column_134 Column_135 Column_136 Column_137 Column_138 Column_139 Column_140 Column_141 Column_142 Column_143 Column_144 Column_145 Column_146 Column_147
feature_infos=[0:1.0000000000000002] [0:1] [0:1] [0:1] [0:0.99717114568599707] [0:1] [0:1] [0.087333799860040529:1] [0:1] [0:0.92452556859336532] [0:1] [0:1.0000000000000002] [0:1.0000000000000002] [0:1] [0:1] [0:1] [0:1] [0:1] [0:1] [0:1] [0:1] [0:1] [0:0.98346418609130448] [0:1] [0:1] [0:0.82781462549888496] [0:0.95880156994768317] [0:0.8366248059758461] [0:0.94161073667969908] [0:1] [0:0.99999999999999989] [0:0.99999999999999989] [0:1] [0:1] [0:1] [0:1] [0:0.99999999999999989] [0:1] [0:1] [0:1] [0:1] [0:1] [0:1] [0:1] [0:0.89714285714285724] [0.087947882736152394:0.9804560260586257] [0.026578073089694954:0.97674418604650981] [0.083881578947369917:0.98519736842104066] [0.06478405315614566:0.97729789590254512] [0.087593721916590539:0.98699880951196661] [0.026737768496417402:0.97995769147320289] [0.083001254822860915:0.99197348956352016] [0.063782457564521167:0.98422632734649085] [0:1] [0:1] [0:1] [0:1] [0:1] [0:1] [0:1] [0:0.99166666666666692] [0:0.98999999999999999] [0:1] [0:0.96999999999999997] [0:0.97333333333333316] [0:1] [0:1] [0:1] [0:1] [0:1] [0:1] [0:1] [0:1] [0:1] [0.0080021678247735109:1] [0:0.99999999999999989] [0:0.99999999999999989] [0:1] [0.0057619047021364288:0.99999999999999978] [0:1] [0:0.99999999999999989] [0:1] [0:1] [0.01329418961442369:1] [0:1] [0:0.99914801404405584] [0.059091141473417153:0.97008104841418386] [0:1] [0:0.99999999999999989] [0:0.98482092153768774] [0.10930144901964238:1] [0:1] [0:1] [0:1] [0:0.99999999999999989] [0:1] [0:1] [0:0.99999999999999989] [0:1.0000000000000002] [0:1] [0:0.99999999999999989] [0:1] [0:1] [0:1] [0:0.99999999999999989] [0.010989010989010506:1] [0:1] [0.010989010989010506:1] [0.011029411764705621:0.99999999999999956] [0:1] [0:1] [0:1] [0:1] [0:1] [0:1] [0:1] [0:0.99999999999999989] [0.039682539682539764:0.97936627384993646] [0.016000000000000014:0.98000100336727991] [0.031872509960159334:0.97928406776965704] [0.025299600532623367:0.97922889884227948] [0:0.90909090909090828] [0:0.90909090909090828] [0:0.90909090909090828] [0:0.90909090909090828] [0:1] [0:1] [0:1] [0:1] [0:1] [0:1] [0:1] [0:0.99999999999999989] [0:0.84085000507382768] [0:0.94334263929180118] [0:0.79246117192919807] [0:0.81619198117178238] [0:0.72677595628415315] [0:1] [0:0.78612716763005808] [0:0.9495708154506437] [0:0.83333333333333326] [0:0.88888888888888884] [0:0.8333334166666666] [0:0.66666666666666663] [0:0.70208871798177075] [0:0.1069137109783363] [0:1]
tree_sizes=453 455 855 756 652 554 1111 1108 1319 1315 1217 1223

Tree=0
num_leaves=3
num_cat=0
split_feature=72 6
split_gain=75.6886 13.4274
threshold=0.52339827219800816 0.0064046319784417209
decision_type=2 2
left_child=-1 -2
right_child=1 -3
leaf_value=-1.8259209403079006 -1.7074435201193134 -1.5297273898364327
leaf_weight=16.374427869915966 1.6880853474140156 2.8697450906038284
leaf_count=97 10 17
internal_value=-1.77576 -1.59555
internal_weight=20.9323 4.55783
internal_count=124 27
is_linear=0
shrinkage=1


Tree=1
num_leaves=3
num_cat=0
split_feature=90 60
split_gain=59.3579 20.2799
threshold=0.97168811233998853 1.0000000180025095e-35
decision_type=2 2
left_child=1 -1
right_child=-2 -3
leaf_value=-1.6778241650721668 -1.5297273898364325 -1.8259209403079006
leaf_weight=2.700936555862433 2.1945109516382209 16.036810800433159
leaf_count=16 13 95
internal_value=-1.77576 -1.80457
internal_weight=20.9323 18.7377
internal_count=124 111
is_linear=0
shrinkage=1


Tree=2
num_leaves=7
num_cat=0
split_feature=42 2 107 3 17 0
split_gain=24.4372 15.5778 9.47875 6.73167 0.51644 1.77636e-15
threshold=1.0000000180025095e-35 0.28515007898894157 0.42803829637160457 0.26514297721800834 0.80987909962803839 0.42731275598447332
decision_type=2 2 2 2 2 2
left_child=1 -1 3 -2 5 -4
right_child=2 -3 4 -5 -6 -7
leaf_value=-1.7720675674949065 -1.6643608218689183 -1.5752956283705046 -1.8259209403079006 -1.7989942539014037 -1.796301585260754 -1.8259209403079006
leaf_weight=1.8568938821554208 1.8568938821554213 2.1945109516382217 6.2459157854318601 1.8568938821554182 1.6880853474140156 5.2330645769834518
leaf_count=11 11 13 37 11 10 31
internal_value=-1.77576 -1.66548 -1.80223 -1.73168 -1.82212 -1.82592
internal_weight=20.9323 4.0514 16.8809 3.71379 13.1671 11.479
internal_count=124 24 100 22 78 68
is_linear=0
shrinkage=1


Tree=3
num_leaves=6
num_cat=0
split_feature=90 63 75 5 0
split_gain=19.4647 11.4246 4.65788 8.35348 1.77636e-15
threshold=0.48497345501678102 0.011628360535684282 0.12053577161391042 0.85029115200301308 0.52767234978372335
decision_type=2 2 2 2 2
left_child=-1 -2 3 -3 -4
right_child=1 2 4 -5 -6
leaf_value=-1.6284585733269221 -1.6963362619766336 -1.6989808472487002 -1.8259209403079006 -1.8259209403079006 -1.8259209403079006
leaf_weight=2.0257024168968227 2.7009365558624294 2.3633194863796261 6.7523413896560651 2.8697450906038284 4.2202133685350418
leaf_count=12 16 14 40 17 25
internal_value=-1.77576 -1.79154 -1.80741 -1.76859 -1.82592
internal_weight=20.9323 18.9066 16.2056 5.23306 10.9726
internal_count=124 112 96 31 65
is_linear=0
shrinkage=1


Tree=4
num_leaves=5
num_cat=0
split_feature=125 99 1 55
split_gain=58.0821 8.83863 4.07126 3.55271e-15
threshold=0.99983854854515564 0.39725695951275442 0.35263681084212412 0.99701263455740308
decision_type=2 2 2 2
left_child=2 -2 3 -1
right_child=1 -3 -4 -5
leaf_value=-1.8742287761412793 -1.720222375461556 -1.5662159747818327 -1.7972255758014177 -1.8742287761412793
leaf_weight=12.824141934514049 1.9479709267616265 1.785640016198158 1.9479709267616261 1.62330910563469
leaf_count=79 12 11 12 10
internal_value=-1.82455 -1.64657 -1.86508 -1.87423
internal_weight=20.129 3.73361 16.3954 14.4475
internal_count=124 23 101 89
is_linear=0
shrinkage=1


Tree=5
num_leaves=4
num_cat=0
split_feature=2 17 0
split_gain=92.1329 1.34406 3.55271e-15
threshold=0.083108578202641961 0.39253634957037126 0.17484363490116706
decision_type=2 2 2
left_child=1 -1 -2
right_child=2 -3 -4
leaf_value=-1.6278185350537224 -1.8742287761412793 -1.5662159747818327 -1.8742287761412793
leaf_weight=1.6233091056346922 1.7856400161981607 1.947970926761627 14.772112861275671
leaf_count=10 11 12 91
internal_value=-1.82455 -1.59422 -1.87423
internal_weight=20.129 3.57128 16.5578
internal_count=124 22 102
is_linear=0
shrinkage=1


Tree=6
num_leaves=9
num_cat=0
split_feature=72 35 137 26 10 118 109 117
split_gain=61.7808 10.2061 4.16391e-05 4.845e-05 1.31578e-05 2.01826e-05 5.77453e-06 5.22476e-06
threshold=0.52339827219800816 0.0018943475917214223 0.12735424360789147 0.8782876334511146 0.58252131546894037 0.22554210836063024 0.44574190410298059 0.28249921021709484
decision_type=2 2 2 2 2 2 2 2
left_child=2 -2 -1 4 5 -4 -7 -6
right_child=1 -3 3 -5 7 6 -8 -9
leaf_value=-0.049393729645521502 0.05535493587868684 0.20125115920046255 -0.049793986842509637 -0.049487093044792277 -0.049734775293773431 -0.049555747603609139 -0.049663458848547892 -0.049858105489866605
leaf_weight=1.5834628194570566 1.8671967089176167 3.3481161743402481 2.4579125195741636 3.0328724831342688 1.7936585098505022 2.0878820866346359 3.0798284411430359 1.6475504040718076
leaf_count=10 10 17 15 19 11 13 19 10
internal_value=-6.18256e-05 0.149017 -0.0496368 -0.0496641 -0.0497127 -0.049676 -0.0496199 -0.0497938
internal_weight=20.8985 5.21531 15.6832 14.0997 11.0668 7.62562 5.16771 3.44121
internal_count=124 27 97 87 68 47 32 21
is_linear=0
shrinkage=0.05


Tree=7
num_leaves=9
num_cat=0
split_feature=5 85 94 60 26 144 53 139
split_gain=46.3628 15.2494 0.534401 0.000496199 3.83737e-05 2.02027e-05 1.33382e-05 6.74293e-06
threshold=0.18064209470609288 0.53984070382702398 0.76494119633555224 0.0025000000000000001 0.8782876334511146 0.017915819822820783 0.70105994578295772 0.52529363541376761
decision_type=2 2 2 2 2 2 2 2
left_child=-1 -2 3 -3 5 6 -5 -7
right_child=1 2 -4 4 -6 7 -8 -9
leaf_value=0.19784573517815585 0.084168493770598277 -0.050529273090084585 -0.01969762792965507 -0.049700683160012159 -0.049494761476538418 -0.049574757696388305 -0.04986580404902926 -0.049697080229894823
leaf_weight=2.5932428091764477 2.5975302606821087 1.900086149573325 1.6499085277318943 2.6016197651624662 2.7154410779476157 2.413243368268013 2.3080285489559174 2.1131163239479065
leaf_count=13 15 11 10 16 17 15 14 13
internal_value=-1.25774e-05 -0.0280521 -0.0466171 -0.0497779 -0.0496604 -0.0497081 -0.0497783 -0.0496319
internal_weight=20.8922 18.299 15.7014 14.0515 12.1514 9.43601 4.90965 4.52636
internal_count=124 111 96 86 75 58 30 28
is_linear=0
shrinkage=0.05


Tree=8
num_leaves=11
num_cat=0
split_feature=42 90 107 3 132 30 54 129 45 2
split_gain=20.928 13.2493 8.72278 5.58014 0.55238 6.67964e-05 1.77239e-05 2.47034e-06 4.46838e-07 2.32568e-09
threshold=1.0000000180025095e-35 0.85233560248899043 0.42803829637160457 0.26514297721800834 0.0082057122615984603 0.68333772432284179 0.30286990768124389 0.12120687928406998 0.83176495244837179 0.34879035618638615
decision_type=2 2 2 2 2 2 2 2 2 2
left_child=1 -1 3 -2 -4 6 -6 -8 9 -9
right_child=2 -3 4 -5 5 -7 7 8 -10 -11
leaf_value=0.00035033933959334137 0.097712610434762065 0.17545302499280158 -0.018275007005015033 -0.022805277685981982 -0.049788346802917563 -0.049967576748905715 -0.049656422043197153 -0.049605177811045044 -0.049571797621587699 -0.04960255447303042
leaf_weight=1.9504037946462656 2.0131369084119828 2.4216299206018448 1.6001430302858342 1.8368030339479444 1.8016192764043788 1.994427517056464 2.2680536657571793 1.6130770444869997 1.608293369412422 1.7739854902029035
leaf_count=11 11 13 10 11 11 12 14 10 10 11
internal_value=6.82931e-05 0.0973381 -0.0256906 0.0402136 -0.0457329 -0.0497056 -0.049648 -0.0496131 -0.0495935 -0.0496038
internal_weight=20.8816 4.37203 16.5095 3.84994 12.6596 11.0595 9.06503 7.26341 4.99536 3.38706
internal_count=124 24 100 22 78 68 56 45 31 21
is_linear=0
shrinkage=0.05


Tree=9
num_leaves=11
num_cat=0
split_feature=132 83 44 73 60 64 28 118 85 0
split_gain=17.203 16.9104 10.2401 6.2744 0.326258 0.000251652 1.47591e-05 1.20575e-05 3.23968e-06 7.35898e-07
threshold=0.057461521070295347 0.1460933072940859 0.044717567189687051 0.10257494083635503 0.055849244887590598 0.041614970329781606 0.17550355470622556 0.2784534776730529 0.53984070382702398 0.52767234978372335
decision_type=2 2 2 2 2 2 2 2 2 2
left_child=1 2 4 -2 -1 -5 -7 8 -8 -10
right_child=3 -3 -4 5 -6 6 7 -9 9 -11
leaf_value=-0.050707182888573149 0.044572975912245794 0.17690550913421968 0.10642346692549071 -0.050275819742482269 -0.020615576758487998 -0.049475764135720739 -0.049671204788205942 -0.049763425855185062 -0.049603826335425656 -0.049561652734225192
leaf_weight=1.9307563751935988 2.0992843657732001 2.1908103376626968 1.9101803749799726 1.6985702663660038 1.6885069161653516 1.5947870165109614 1.621564984321594 1.6345418840646742 2.9032020717859268 1.6068793833255766
leaf_count=11 12 12 11 10 10 10 10 10 18 10
internal_value=8.99316e-05 0.0593428 0.0127635 -0.0346736 -0.0366684 -0.0497159 -0.0496143 -0.0496428 -0.0496106 -0.0495888
internal_weight=20.8791 7.72025 5.52944 13.1588 3.61926 11.0595 9.36098 7.76619 6.13165 4.51008
internal_count=124 44 32 80 21 68 58 48 38 28
is_linear=0
shrinkage=0.05


Tree=10
num_leaves=10
num_cat=0
split_feature=125 99 1 137 96 78 57 34 4
split_gain=46.981 5.35572 3.88151 3.14765e-05 1.60977e-05 1.83054e-05 9.40661e-06 1.01323e-05 1.83839e-06
threshold=0.99983854854515564 0.39725695951275442 0.35263681084212412 0.12735424360789147 0.057811801179666902 0.64071708227722846 1.0000000180025095e-35 0.0010999095970808078 0.279299430072042
decision_type=2 2 2 2 2 2 2 2 2
left_child=2 -2 3 -1 -5 6 -6 -8 -7
right_child=1 -3 -4 4 5 8 7 -9 -10
leaf_value=-0.049022293727642219 0.090542386959045568 0.20240397211254735 0.025540661802648624 -0.0490694329613581 -0.049197059592757615 -0.049114210873205333 -0.049395729275372106 -0.049240313935998606 -0.049185556054671592
leaf_weight=2.4482083469629314 2.122479408979415 2.1579301208257675 1.9876637458801258 1.5368459671735752 1.7103961110115031 1.5435625761747362 2.6924753487110138 1.7178086191415785 2.1754750162363052
leaf_count=16 12 11 12 10 11 10 17 11 14
internal_value=-1.27511e-05 0.146936 -0.0397917 -0.0491849 -0.0492199 -0.0492434 -0.0492966 -0.0493352 -0.0491559
internal_weight=20.0928 4.28041 15.8124 13.8248 11.3766 9.83972 6.12068 4.41028 3.71904
internal_count=124 23 101 89 73 63 39 28 24
is_linear=0
shrinkage=0.05


Tree=11
num_leaves=10
num_cat=0
split_feature=2 34 4 44 8 137 132 6 10
split_gain=72.6783 1.24246 3.73681e-05 2.69437e-05 1.57502e-05 1.11822e-05 4.17343e-06 5.41053e-06 3.82549e-06
threshold=0.083108578202641961 0.0065704573451858843 0.82531824611032534 0.044717567189687051 0.80141514588929164 0.20688758779508956 0.073527688216218537 0.004816361290184719 0.58252131546894037
decision_type=2 2 2 2 2 2 2 2 2
left_child=1 -1 3 5 6 -2 -5 -8 -6
right_child=2 -3 -4 4 8 -7 7 -9 -10
leaf_value=0.15439988720362741 -0.048953627728684834 0.2087591859714058 -0.049382792634313999 -0.049322445401457429 -0.049076230353126464 -0.049124021767803012 -0.049165662570723863 -0.049294341609406211 -0.049177839672692111
leaf_weight=1.9357336610555673 1.5202093571424473 2.3003597259521484 2.372798115015029 2.2024285793304426 1.5379582792520525 2.6261822879314423 1.5508192777633669 1.7261247932910917 2.3292126357555389
leaf_count=10 10 12 15 14 10 17 10 11 15
internal_value=-7.42599e-05 0.183919 -0.0491998 -0.0491676 -0.0492147 -0.0490615 -0.0492692 -0.0492334 -0.0491374
internal_weight=20.1018 4.23609 15.8657 13.4929 9.34654 4.14639 5.47937 3.27694 3.86717
internal_count=124 22 102 87 60 27 35 21 25
is_linear=0
shrinkage=0.05


end of trees

feature_importances:
Column_0=4
Column_2=4
Column_60=3
Column_90=3
Column_132=3
Column_137=3
Column_1=2
Column_3=2
Column_4=2
Column_5=2
Column_6=2
Column_10=2
Column_17=2
Column_26=2
Column_34=2
Column_42=2
Column_44=2
Column_72=2
Column_85=2
Column_99=2
Column_107=2
Column_118=2
Column_125=2
Column_8=1
Column_28=1
Column_30=1
Column_35=1
Column_45=1
Column_53=1
Column_54=1
Column_55=1
Column_57=1
Column_63=1
Column_64=1
Column_73=1
Column_75=1
Column_78=1
Column_83=1
Column_94=1
Column_96=1
Column_109=1
Column_117=1
Column_129=1
Column_139=1
Column_144=1

parameters:
[boosting: gbdt]
[objective: multiclass]
[metric: custom]
[tree_learner: serial]
[device_type: cpu]
[data_sample_strategy: bagging]
[data: ]
[valid: ]
[num_iterations: 10000]
[learning_rate: 0.05]
[num_leaves: 95]
[num_threads: 0]
[seed: 1238]
[deterministic: 0]
[force_col_wise: 0]
[force_row_wise: 0]
[histogram_pool_size: -1]
[max_depth: -1]
[min_data_in_leaf: 10]
[min_sum_hessian_in_leaf: 0.001]
[bagging_fraction: 1]
[pos_bagging_fraction: 1]
[neg_bagging_fraction: 1]
[bagging_freq: 0]
[bagging_seed: 10438]
[bagging_by_query: 0]
[feature_fraction: 1]
[feature_fraction_bynode: 1]
[feature_fraction_seed: 6707]
[extra_trees: 0]
[extra_seed: 23424]
[early_stopping_round: 0]
[early_stopping_min_delta: 0]
[first_metric_only: 0]
[max_delta_step: 0]
[lambda_l1: 0]
[lambda_l2: 0]
[linear_lambda: 0]
[min_gain_to_split: 0]
[drop_rate: 0.1]
[max_drop: 50]
[skip_drop: 0.5]
[xgboost_dart_mode: 0]
[uniform_drop: 0]
[drop_seed: 18682]
[top_rate: 0.2]
[other_rate: 0.1]
[min_data_per_group: 100]
[max_cat_threshold: 32]
[cat_l2: 10]
[cat_smooth: 10]
[max_cat_to_onehot: 4]
[top_k: 20]
[monotone_constraints: ]
[monotone_constraints_method: basic]
[monotone_penalty: 0]
[feature_contri: ]
[forcedsplits_filename: ]
[refit_decay_rate: 0.9]
[cegb_tradeoff: 1]
[cegb_penalty_split: 0]
[cegb_penalty_feature_lazy: ]
[cegb_penalty_feature_coupled: ]
[path_smooth: 0]
[interaction_constraints: ]
[verbosity: -1]
[saved_feature_importance_type: 0]
[use_quantized_grad: 0]
[num_grad_quant_bins: 4]
[quant_train_renew_leaf: 0]
[stochastic_rounding: 1]
[linear_tree: 0]
[max_bin: 255]
[max_bin_by_feature: ]
[min_data_in_bin: 3]
[bin_construct_sample_cnt: 200000]
[data_random_seed: 4081]
[is_enable_sparse: 1]
[enable_bundle: 1]
[use_missing: 1]
[zero_as_missing: 0]
[feature_pre_filter: 1]
[pre_partition: 0]
[two_round: 0]
[header: 0]
[label_column: ]
[weight_column: ]
[group_column: ]
[ignore_column: ]
[categorical_feature: ]
[forcedbins_filename: ]
[precise_float_parser: 0]
[parser_config_file: ]
[objective_seed: 31546]
[num_class: 6]
[is_unbalance: 0]
[scale_pos_weight: 1]
[sigmoid: 1]
[boost_from_average: 1]
[reg_sqrt: 0]
[alpha: 0.9]
[fair_c: 1]
[poisson_max_delta_step: 0.7]
[tweedie_variance_power: 1.5]
[lambdarank_truncation_level: 30]
[lambdarank_norm: 1]
[label_gain: ]
[lambdarank_position_bias_regularization: 0]
[eval_at: ]
[multi_error_top_k: 1]
[auc_mu_weights: ]
[num_machines: 1]
[local_listen_port: 12400]
[time_out: 120]
[machine_list_filename: ]
[machines: ]
[gpu_platform_id: -1]
[gpu_device_id: -1]
[gpu_use_dp: 0]
[num_gpu: 1]

end of parameters

pandas_categorical:null
