tree
version=v4
num_class=6
num_tree_per_iteration=6
label_index=0
max_feature_idx=147
objective=multiclass num_class:6
feature_names=Column_0 Column_1 Column_2 Column_3 Column_4 Column_5 Column_6 Column_7 Column_8 Column_9 Column_10 Column_11 Column_12 Column_13 Column_14 Column_15 Column_16 Column_17 Column_18 Column_19 Column_20 Column_21 Column_22 Column_23 Column_24 Column_25 Column_26 Column_27 Column_28 Column_29 Column_30 Column_31 Column_32 Column_33 Column_34 Column_35 Column_36 Column_37 Column_38 Column_39 Column_40 Column_41 Column_42 Column_43 Column_44 Column_45 Column_46 Column_47 Column_48 Column_49 Column_50 Column_51 Column_52 Column_53 Column_54 Column_55 Column_56 Column_57 Column_58 Column_59 Column_60 Column_61 Column_62 Column_63 Column_64 Column_65 Column_66 Column_67 Column_68 Column_69 Column_70 Column_71 Column_72 Column_73 Column_74 Column_75 Column_76 Column_77 Column_78 Column_79 Column_80 Column_81 Column_82 Column_83 Column_84 Column_85 Column_86 Column_87 Column_88 Column_89 Column_90 Column_91 Column_92 Column_93 Column_94 Column_95 Column_96 Column_97 Column_98 Column_99 Column_100 Column_101 Column_102 Column_103 Column_104 Column_105 Column_106 Column_107 Column_108 Column_109 Column_110 Column_111 Column_112 Column_113 Column_114 Column_115 Column_116 Column_117 Column_118 Column_119 Column_120 Column_121 Column_122 Column_123 Column_124 Column_125 Column_126 Column_127 Column_128 Column_129 Column_130 Column_131 Column_132 Column_133 Column_134 Column_135 Column_136 Column_137 Column_138 Column_139 Column_140 Column_141 Column_142 Column_143 Column_144 Column_145 Column_146 Column_147
feature_infos=[0:1.0000000000000002] [0:1] [0.0063191153238546793:1] [0:1] [0:0.99717114568599707] [0:1] [0:1] [0.087333799860040529:1] [0.0069494639290660883:1] [0:0.92452556859336532] [0:1] [0:1.0000000000000002] [0:1.0000000000000002] [0:1] [0:1] [0.0063191153238546793:1] [0.0063191153238546793:1] [0:1] [0:1] [0:1] [0:1] [0:1] [0:0.99774094757444476] [0:1] [0:1] [0:0.82781462549888496] [0:0.95880156994768317] [0:0.8366248059758461] [0:0.94161073667969908] [0:1] [0:0.99999999999999989] [0:0.99999999999999989] [0:1] [0:0.81818181818181812] [0:1] [0:1] [0:0.99999999999999989] [0:0.81818181818181812] [0:1] [0:1] [0:1] [0:0.96363636363636362] [0:1] [0:1] [0:1] [0.087947882736152394:0.9804560260586257] [0.026578073089694954:0.97674418604650981] [0.083881578947369917:0.98519736842104066] [0.06478405315614566:0.97729789590254512] [0.087593721916590539:0.98699880951196661] [0.026737768496417402:0.97995769147320289] [0.083001254822860915:0.99197348956352016] [0.063782457564521167:0.98422632734649085] [0:1] [0:1] [0:1] [0.0014285553034634317:1] [0:1] [0:1] [0:0.98999999999999999] [0:0.99166666666666692] [0:1] [0:1] [0:1] [0:1] [0:1] [0:1] [0:1] [0:1] [0:1] [0:1] [0:1] [0:1] [0:1] [0:1] [0:0.99999999999999989] [0:0.99999999999999989] [0:1] [0.0057619047021364288:0.99999999999999978] [0:1] [0:0.99999999999999989] [0:1] [0:1] [0.01329418961442369:1] [0:1] [0:1] [0:0.97008104841418386] [0:1] [0:0.99999999999999989] [0:1] [0.051590550036289928:1] [0:1] [0:1] [0:1] [0:0.99999999999999989] [0:1] [0:1] [0:0.99999999999999989] [0:1.0000000000000002] [0:1] [0:0.99999999999999989] [0:1] [0:1] [0:1] [0:0.99999999999999989] [0:1] [0:1] [0:1] [0:0.99999999999999956] [0:1] [0:1] [0:1] [0:1] [0.016620498614958457:1] [0.018749999999999989:1] [0.016129032258064502:1] [0.01697453819271072:0.99999999999999989] [0.039682539682539764:1] [0.016000000000000014:1] [0.031872509960159334:0.99999999999999978] [0.025299600532623367:0.99999999999999978] [0:0.90909090909090828] [0:0.90909090909090828] [0:0.90909090909090828] [0:0.90909090909090828] [0:1] [0:1] [0:1] [0:1] [0:1] [0:1] [0:1] [0:0.99999999999999989] [0:0.84085000507382768] [0:0.94334263929180118] [0:0.79246117192919807] [0:0.81619198117178238] [0:0.72677595628415315] [0:1] [0:0.78612716763005808] [0:0.9495708154506437] [0:0.83333333333333326] [0:0.88888888888888884] [0:0.8333334166666666] [0:0.66666666666666663] [0:0.70208871798177075] [0:0.1069137109783363] [0.0063191153238546793:1]
tree_sizes=453 659 655 751 654 452 1104 1324 1106 1307 1314 1215 1213 1204 1102 1306 1211 1215 1106 1206 1307 1198 1326 1108 1216 1205 1096 1305 1109 1328 1109 1208 1306 1309 1215 1215 1219 1318 1208 1305 1216 1217 1321 1213 1309 1313 1221 1220

Tree=0
num_leaves=3
num_cat=0
split_feature=72 6
split_gain=75.6886 13.4274
threshold=0.50443102489074276 0.0064046319784417209
decision_type=2 2
left_child=-1 -2
right_child=1 -3
leaf_value=-1.8259209403079006 -1.7074435201193134 -1.5297273898364327
leaf_weight=16.374427869915966 1.6880853474140156 2.8697450906038284
leaf_count=97 10 17
internal_value=-1.77576 -1.59555
internal_weight=20.9323 4.55783
internal_count=124 27
is_linear=0
shrinkage=1


Tree=1
num_leaves=5
num_cat=0
split_feature=90 60 3 0
split_gain=48.8731 22.8188 0.531316 1.77636e-15
threshold=0.96901543979311389 1.0000000180025095e-35 0.23491605456453304 0.39337750718207237
decision_type=2 2 2 2
left_child=1 -1 -3 -4
right_child=-2 2 3 -5
leaf_value=-1.6566674828956336 -1.5525115091034687 -1.7963015852607538 -1.8259209403079006 -1.8259209403079006
leaf_weight=2.3633194863796296 2.1945109516382209 1.6880853474140192 4.7266389727592459 9.9597035497426969
leaf_count=14 13 10 28 59
internal_value=-1.77576 -1.80191 -1.82287 -1.82592
internal_weight=20.9323 18.7377 16.3744 14.6863
internal_count=124 111 97 87
is_linear=0
shrinkage=1


Tree=2
num_leaves=5
num_cat=0
split_feature=64 146 20 44
split_gain=21.3059 24.0657 11.5469 4.24095
threshold=0.023829973483118678 0.031418205660714543 0.19646232602861641 0.30428571428571433
decision_type=2 2 2 2
left_child=1 -1 -2 -4
right_child=2 -3 3 -5
leaf_value=-1.8259209403079006 -1.6778241650721668 -1.5852636805498328 -1.8259209403079006 -1.7451408810884095
leaf_weight=1.6880853474140192 1.6880853474140192 2.7009365558624268 12.998257175087927 1.8568938821554173
leaf_count=10 10 16 77 11
internal_value=-1.77576 -1.67782 -1.80174 -1.81582
internal_weight=20.9323 4.38902 16.5432 14.8552
internal_count=124 26 98 88
is_linear=0
shrinkage=1


Tree=3
num_leaves=6
num_cat=0
split_feature=63 138 45 114 4
split_gain=15.4436 16.6434 9.69373 4.02996 4.56315
threshold=0.011628360535684282 0.47728639248276494 0.32335252418837829 0.35494624380449635 0.61916548797736926
decision_type=2 2 2 2 2
left_child=1 -1 -2 -4 -5
right_child=2 -3 3 4 -6
leaf_value=-1.8434274960053347 -1.7342229573415309 -1.622218302301732 -1.8742287761412793 -1.8742287761412793 -1.7715578423547971
leaf_weight=1.6233091056346922 1.7856400161981607 1.785640016198158 10.551509186625479 1.9479709267616261 2.434963658452034
leaf_count=10 11 11 65 12 15
internal_value=-1.82455 -1.72756 -1.84432 -1.85749 -1.81719
internal_weight=20.129 3.40895 16.7201 14.9344 4.38293
internal_count=124 21 103 92 27
is_linear=0
shrinkage=1


Tree=4
num_leaves=5
num_cat=0
split_feature=125 18 1 2
split_gain=65.7238 10.9522 0.553166 1.77636e-15
threshold=0.99505851060951478 0.37845055013260487 0.35456836583858503 0.13809358565385685
decision_type=2 2 2 2
left_child=2 -2 3 -1
right_child=1 -3 -4 -5
leaf_value=-1.8742287761412793 -1.7510236555975007 -1.5854667748667981 -1.8434274960053347 -1.8742287761412793
leaf_weight=2.1103018373250988 1.6233091056346882 2.5972945690155029 1.6233091056346882 12.174818292260168
leaf_count=13 10 16 10 75
internal_value=-1.82455 -1.64914 -1.87109 -1.87423
internal_weight=20.129 4.2206 15.9084 14.2851
internal_count=124 26 98 88
is_linear=0
shrinkage=1


Tree=5
num_leaves=3
num_cat=0
split_feature=2 17
split_gain=87.7832 3.11003
threshold=0.091007472357460303 0.39069689906832322
decision_type=2 2
left_child=1 -1
right_child=-2 -3
leaf_value=-1.6185854549778733 -1.8259209403079006 -1.5297273898364327
leaf_weight=1.6880853474140192 16.880853474140167 2.3633194863796234
leaf_count=10 100 14
internal_value=-1.77576 -1.56675
internal_weight=20.9323 4.0514
internal_count=124 24
is_linear=0
shrinkage=1


Tree=6
num_leaves=9
num_cat=0
split_feature=72 41 93 4 0 26 1 67
split_gain=61.952 10.2941 2.20249e-05 3.03998e-05 2.19342e-05 1.10812e-05 6.52057e-06 6.22747e-06
threshold=0.50443102489074276 0.12397107211004564 0.10255339084713973 0.51520509193776542 0.34015016303070572 0.85959000198746738 0.0089091721046099508 0.33233262253468782
decision_type=2 2 2 2 2 2 2 2
left_child=2 -2 6 -4 -5 7 -1 -6
right_child=1 -3 3 4 5 -7 -8 -9
leaf_value=-0.04945998909372825 0.055390058288386439 0.20198586326456197 -0.049511412920432513 -0.049823828796921071 -0.049753851049821135 -0.049559334702166821 -0.049599330725765112 -0.04964262421897947
leaf_weight=1.7519700229167967 1.8671858459711064 3.3390398919582367 2.3998061120510092 2.9568288028240186 2.6134290397167206 1.9274294823408125 1.6121748983860014 2.4272109121084213
leaf_count=11 10 17 15 18 16 12 10 15
internal_value=-4.47259e-05 0.14941 -0.0496402 -0.0496711 -0.0497097 -0.0496613 -0.0495268 -0.0497003
internal_weight=20.8951 5.20623 15.6888 12.3247 9.9249 6.96807 3.36414 5.04064
internal_count=124 27 97 76 61 43 21 31
is_linear=0
shrinkage=0.05


Tree=7
num_leaves=11
num_cat=0
split_feature=5 87 131 59 0 22 146 119 118 0
split_gain=38.7021 18.6303 0.525697 0.000434607 8.6805e-05 1.27442e-05 7.43458e-06 7.13922e-06 4.01245e-06 1.73473e-06
threshold=0.18381834583661935 0.52699679513169795 0.67356029909976467 1.0000000180025095e-35 0.34015016303070572 0.83669237021947129 0.080690546939739802 0.3216496418889368 0.10490448706812371 0.41308308378276698
decision_type=2 2 2 2 2 2 2 2 2 2
left_child=-1 -2 3 -3 -5 6 8 -7 -6 -10
right_child=1 2 -4 4 5 7 -8 -9 9 -11
leaf_value=0.18233852395219133 0.094301886724035 -0.050535897162540769 -0.020065589901283161 -0.049963013002074091 -0.04956611784746124 -0.049615650166876739 -0.049749793718610213 -0.049466470506496794 -0.04969919649485411 -0.049626045980927236
leaf_weight=2.5548033118248012 2.7614997923374203 1.7264862060546864 1.6652112454175938 2.3253781646490088 1.6074237078428248 1.6144650429487231 1.7960480898618696 1.5936490446329115 1.6259538531303408 1.6159507036209104
leaf_count=13 16 10 10 14 10 10 11 10 10 10
internal_value=2.1271e-05 -0.0253869 -0.0466142 -0.0497935 -0.0496882 -0.0496234 -0.0496629 -0.0495415 -0.0496307 -0.0496627
internal_weight=20.8869 18.3321 15.5706 13.9054 12.1789 9.85349 6.64538 3.20811 4.84933 3.2419
internal_count=124 111 95 85 75 61 41 20 30 20
is_linear=0
shrinkage=0.05


Tree=8
num_leaves=9
num_cat=0
split_feature=64 146 105 137 44 84 82 9
split_gain=18.2435 18.3379 10.5527 0.536084 6.96154e-05 1.05279e-05 4.75337e-06 3.69677e-06
threshold=0.023829973483118678 0.031418205660714543 0.42307692307692274 0.65569940495863877 0.16142857142857148 0.76632804224194928 0.25206051812344582 0.33014631319716076
decision_type=2 2 2 2 2 2 2 2
left_child=1 -1 -2 4 5 6 -4 -8
right_child=2 -3 3 -5 -6 -7 7 -9
leaf_value=-0.049659667439356681 0.053952047236822669 0.15801727931140483 -0.049611761063936492 -0.018964016593424129 -0.049955761866373301 -0.049547310685721525 -0.049747674623849582 -0.049650341769605415
leaf_weight=1.6197803318500543 3.3424253016710308 3.0920400023460388 2.5823383182287198 1.6258365064859379 1.9909417778253544 2.7281602323055267 1.959152087569237 1.9430609941482542
leaf_count=10 19 16 16 10 12 17 12 12
internal_value=4.65924e-05 0.0866243 -0.0251785 -0.0457942 -0.0496877 -0.0496297 -0.0496644 -0.0496992
internal_weight=20.8837 4.71182 16.1719 12.8295 11.2037 9.21271 6.48455 3.90221
internal_count=124 26 98 79 69 57 40 24
is_linear=0
shrinkage=0.05


Tree=9
num_leaves=11
num_cat=0
split_feature=76 2 90 53 103 132 54 64 69 29
split_gain=13.9111 15.3677 11.1205 7.02983 3.67869 0.543327 0.000422118 7.44693e-05 2.6142e-05 6.05354e-06
threshold=0.1618960721566351 0.16666666666666669 0.56534637257056353 0.56184378950907876 0.36071142317092253 0.078595317725752512 0.083920612257040686 0.15789576394427149 0.29478595669035429 0.17055760520433341
decision_type=2 2 2 2 2 2 2 2 2 2
left_child=1 4 -3 -4 -1 -2 -7 -6 -8 -10
right_child=5 2 3 -5 7 6 8 -9 9 -11
leaf_value=0.040567262345683336 -0.017058216292887007 0.20084419696879319 0.11868800622433902 -0.021840551943298106 -0.049629310078283771 -0.050093969459055976 -0.049354633142798268 -0.049173250439853988 -0.049052100950312816 -0.049175707177621243
leaf_weight=1.6559391319751755 1.5553876459598521 1.7868139743804929 1.7685833722352984 1.7912776619195936 1.6087179481983187 1.67461821436882 1.8935305774211881 2.0178634226322174 1.5343817621469495 2.7946229577064514
leaf_count=10 10 10 10 11 10 10 12 13 10 18
internal_value=5.99392e-05 0.0393041 0.0990631 0.0479758 -0.0211807 -0.0440693 -0.0493893 -0.0493756 -0.0491997 -0.0491319
internal_weight=20.0817 10.6292 5.34668 3.55986 5.28252 9.45254 7.89715 3.62658 6.22254 4.329
internal_count=124 64 31 21 33 60 50 23 40 28
is_linear=0
shrinkage=0.05


Tree=10
num_leaves=11
num_cat=0
split_feature=125 10 35 4 44 45 55 93 10 62
split_gain=53.8285 7.1494 0.554134 3.32271e-05 3.39522e-05 1.47372e-05 1.08664e-05 2.99537e-06 2.77631e-06 3.60772e-06
threshold=0.99505851060951478 0.5391528300641576 0.031887668309216792 0.51520509193776542 0.10026936454149508 0.7322890648588799 0.85710854682381876 0.10255339084713973 0.44353126481536137 0.44884070802942683
decision_type=2 2 2 2 2 2 2 2 2 2
left_child=2 -2 3 6 5 7 -1 -5 -8 -10
right_child=1 -3 -4 4 -6 -7 8 -9 9 -11
leaf_value=-0.048999890182542721 0.073571674759260172 0.19720882633223652 -0.01802341653020768 -0.049104004429770844 -0.049464407010234746 -0.049333508555250968 -0.049207901914835483 -0.04919381829570349 -0.049071117512304287 -0.049176699587963717
leaf_weight=1.526922687888147 2.0017777830362311 2.8114795684814453 1.59090857207775 1.5419967472553255 1.7525814473628996 1.7322984337806699 1.5570942163467405 2.3326788991689682 1.5373166054487231 1.707982078194618
leaf_count=10 11 15 10 10 11 11 10 15 10 11
internal_value=-2.21164e-05 0.14579 -0.045954 -0.0492001 -0.0492723 -0.0492123 -0.0491161 -0.0491581 -0.049153 -0.0491267
internal_weight=20.093 4.81326 15.2798 13.6889 7.35956 5.60697 6.32932 3.87468 4.80239 3.2453
internal_count=124 26 98 88 47 36 41 25 31 21
is_linear=0
shrinkage=0.05


Tree=11
num_leaves=10
num_cat=0
split_feature=2 18 4 69 64 0 55 10 62
split_gain=70.1161 2.68982 2.99406e-05 3.25104e-05 1.59672e-05 1.46037e-05 1.24038e-05 3.69565e-06 3.48004e-06
threshold=0.091007472357460303 0.37485523351086852 0.51520509193776542 0.018711106144272429 0.1456480762273375 0.32802547770700646 0.85710854682381876 0.44353126481536137 0.44884070802942683
decision_type=2 2 2 2 2 2 2 2 2
left_child=1 -1 6 4 -4 -5 -2 -8 -9
right_child=2 -3 3 5 -6 -7 7 8 -10
leaf_value=0.1245985090995271 -0.049430467991174218 0.20102686956853311 -0.04951954826677897 -0.049895331983110219 -0.049706942951003918 -0.049712907268795264 -0.049652680691650672 -0.049506546718182165 -0.049604472225475205
leaf_weight=1.9749264568090463 1.5885367244482065 2.7601181417703629 2.7211075276136381 1.8176928013563154 1.9522695690393446 2.7672795355319977 1.6195220202207563 1.5992135703563692 2.096834197640419
leaf_count=10 10 14 17 11 12 17 10 10 13
internal_value=-5.94368e-05 0.16915 -0.0496319 -0.0496906 -0.0495978 -0.0497852 -0.0495531 -0.0495897 -0.0495621
internal_weight=20.8975 4.73504 16.1625 9.25835 4.67338 4.58497 6.90411 5.31557 3.69605
internal_count=124 24 100 57 29 28 43 33 23
is_linear=0
shrinkage=0.05


Tree=12
num_leaves=10
num_cat=0
split_feature=72 41 10 109 4 46 3 47 65
split_gain=52.3493 7.0947 6.21693e-05 3.65613e-05 3.95398e-05 2.7503e-05 2.24585e-05 1.23632e-05 1.14699e-05
threshold=0.50443102489074276 0.12397107211004564 0.65615731856913695 0.85963162985247143 0.51520509193776542 0.67771628479903645 0.3166316894018889 0.5043978004646078 0.16345848751127992
decision_type=2 2 2 2 2 2 2 2 2
left_child=2 -2 3 4 -1 7 -4 -6 -9
right_child=1 -3 6 -5 5 -7 -8 8 -10
leaf_value=-0.048943234106713529 0.050542815663999097 0.1680095035058484 -0.049492759723367655 -0.048881119565082093 -0.049248278756971069 -0.049351243538541444 -0.049225924410542882 -0.049036705031114604 -0.049204844424322554
leaf_weight=1.9736969769001032 1.9419155567884434 3.8022640943527222 1.5950394123792642 1.5082958340644825 1.8747468143701533 2.0484327524900436 1.559592083096504 2.9108842611312866 1.5567261278629301
leaf_count=13 10 17 10 10 12 13 10 19 10
internal_value=-8.83216e-05 0.128298 -0.0491635 -0.0491111 -0.0491446 -0.049192 -0.0493608 -0.0491405 -0.0490953
internal_weight=20.7716 5.74418 15.0274 11.8728 10.3645 8.39079 3.15463 6.34236 4.46761
internal_count=124 27 97 77 67 54 20 41 29
is_linear=0
shrinkage=0.05


Tree=13
num_leaves=10
num_cat=0
split_feature=56 9 86 134 135 0 77 116 36
split_gain=32.1346 10.3401 6.69608 2.14803 0.000748745 0.000225455 3.51053e-05 1.60187e-05 1.12198e-05
threshold=0.88378621131792534 0.61497835968939907 0.91856459353252851 0.81383018294670939 0.67033370090127653 0.35530784083703432 0.11915454243866509 0.20950543325560364 0.011459781544633136
decision_type=2 2 2 2 2 2 2 2 2
left_child=2 -2 3 4 5 -1 -7 -8 -9
right_child=1 -3 -4 -5 -6 6 7 8 -10
leaf_value=-0.049615714711101502 0.031172758373872046 0.1883394718485816 0.060508023385214195 0.01150593320225469 -0.050371372316370989 -0.048938537648014396 -0.04903369187191621 -0.049291944165489848 -0.049136619476918664
leaf_weight=3.0622903406620088 1.8114240616559971 2.4782611429691315 1.7606084793806065 1.6277538388967503 1.708278253674506 2.1238108575344068 1.5314681082963941 2.5103730261325836 2.1656048893928528
leaf_count=19 10 12 9 10 10 14 10 16 14
internal_value=6.32246e-05 0.121972 -0.0316496 -0.0426651 -0.0493952 -0.0492489 -0.049114 -0.049174 -0.04922
internal_weight=20.7799 4.28969 16.4902 14.7296 13.1018 11.3935 8.33126 6.20745 4.67598
internal_count=124 22 102 93 83 73 54 40 30
is_linear=0
shrinkage=0.05


Tree=14
num_leaves=9
num_cat=0
split_feature=64 146 105 54 44 8 134 8
split_gain=15.6889 14.4551 9.68825 0.554294 4.31691e-05 2.22854e-05 2.8609e-05 5.63436e-06
threshold=0.023829973483118678 0.031418205660714543 0.42307692307692274 0.070077042112439036 0.16142857142857148 0.75911546500534943 0.76224153595950683 0.8486158056550982
decision_type=2 2 2 2 2 2 2 2
left_child=1 -1 -2 -4 5 6 -5 -7
right_child=2 -3 3 4 -6 7 -8 -9
leaf_value=-0.049217206743432051 0.049382068895446968 0.13447662474383792 -0.017359401487478172 -0.049375754576635567 -0.049430571108499993 -0.049051686841055805 -0.049095149163429767 -0.049157329948385009
leaf_weight=1.5548328757286096 3.4741349071264258 3.4412558972835541 1.5644034594297398 2.2127927094697939 1.9049542546272267 2.762360081076622 1.5408636182546613 2.3239299058914185
leaf_count=10 19 16 10 14 12 18 10 15
internal_value=8.85478e-05 0.0773093 -0.0243549 -0.0451662 -0.0492147 -0.0491682 -0.0492606 -0.0491
internal_weight=20.7795 4.99609 15.7834 12.3093 10.7449 8.83995 3.75366 5.08629
internal_count=124 26 98 79 69 57 24 33
is_linear=0
shrinkage=0.05


Tree=15
num_leaves=11
num_cat=0
split_feature=76 74 102 119 1 10 113 54 4 56
split_gain=12.5999 13.4842 6.95802 5.3823 1.73874 0.556216 0.000826529 0.000190936 6.7512e-05 1.6479e-05
threshold=0.1618960721566351 0.10568843746326047 0.33565156598904838 0.29232447997564109 0.024836671815484709 0.37613349643174748 0.32345087466016292 0.070077042112439036 0.51520509193776542 0.83986209574601289
decision_type=2 2 2 2 2 2 2 2 2 2
left_child=1 2 -1 -3 6 -2 -4 -7 9 -9
right_child=5 3 4 -5 -6 7 -8 8 -10 -11
leaf_value=0.07998815789795817 -0.015656307192029425 0.17932629615689472 -0.048882032321744068 0.056742727751238599 0.012417056038280239 -0.049424133031644973 -0.050350631838105897 -0.048611002720410856 -0.049092199289469812 -0.048803457137959999
leaf_weight=1.8928539603948609 1.5049957931041698 1.7261776477098467 1.9618818908929827 1.8606829941272733 1.602613493800163 1.5843554735183714 1.8724333047866819 2.2038227617740631 1.5403476506471632 2.2457020133733749
leaf_count=10 10 9 13 11 10 10 11 15 10 15
internal_value=0.000102059 0.0362983 -0.00257488 0.115736 -0.031319 -0.0434195 -0.0495992 -0.048936 -0.0488069 -0.0487081
internal_weight=19.9959 10.9166 7.32978 3.58686 5.43693 9.07922 3.83432 7.57423 5.98987 4.44952
internal_count=124 64 44 20 34 60 24 50 40 30
is_linear=0
shrinkage=0.05


Tree=16
num_leaves=10
num_cat=0
split_feature=125 98 35 4 0 60 94 22 56
split_gain=45.2842 5.60484 0.560775 0.00010686 6.53607e-05 2.72263e-05 2.12252e-05 1.46911e-05 7.52804e-06
threshold=0.99505851060951478 0.32715371492790701 0.031887668309216792 0.51520509193776542 0.31665440919593052 0.17303341436331393 0.60928961748633892 0.80810794095976712 0.83986209574601289
decision_type=2 2 2 2 2 2 2 2 2
left_child=2 -2 3 6 -5 7 -1 -6 -8
right_child=1 -3 -4 4 5 -7 8 -9 -10
leaf_value=-0.048484429896419323 0.055157372660748119 0.16262142419616507 -0.016975004414761428 -0.049176254103041127 -0.048833905933176269 -0.04896725330796553 -0.04861872084205078 -0.048635011245979708 -0.048764165948099986
leaf_weight=2.3193565309047717 1.8706388622522343 3.4529688954353333 1.5521334707736958 1.5520131886005399 1.8029429763555529 1.8260621726512907 2.2056521773338322 1.9140792042016981 1.4911011606454847
leaf_count=16 10 16 10 10 12 12 15 13 10
internal_value=-4.59127e-05 0.12486 -0.0453937 -0.048758 -0.0488895 -0.0488092 -0.048603 -0.0487315 -0.0486774
internal_weight=19.9869 5.32361 14.6633 13.1112 7.0951 5.54308 6.01611 3.71702 3.69675
internal_count=124 26 98 88 47 37 41 25 25
is_linear=0
shrinkage=0.05


Tree=17
num_leaves=10
num_cat=0
split_feature=2 17 4 0 61 94 26 118 56
split_gain=58.4295 1.71283 0.000103305 0.000107793 3.37036e-05 2.44394e-05 1.69048e-05 1.09471e-05 6.63408e-06
threshold=0.091007472357460303 0.39069689906832322 0.51520509193776542 0.31665440919593052 1.0000000180025095e-35 0.60928961748633892 0.85959000198746738 0.2784534776730529 0.83986209574601289
decision_type=2 2 2 2 2 2 2 2 2
left_child=1 -1 5 -4 -5 -2 7 -6 -7
right_child=2 -3 3 4 6 8 -8 -9 -10
leaf_value=0.10883893518222393 -0.048876583722026655 0.16678277542961173 -0.049594923057238199 -0.04898856766637838 -0.049403387616382563 -0.049019810482187377 -0.049125150139977578 -0.049216744094840892 -0.049146930715305522
leaf_weight=2.144092962145808 2.413563832640647 3.147813469171524 1.9327549338340739 1.8285831958055494 1.5845942050218584 2.2948839366436005 2.0088756233453751 1.5581122636795042 1.8567234128713606
leaf_count=10 16 14 12 12 10 15 13 10 12
internal_value=-0.000117587 0.143306 -0.0491536 -0.0492645 -0.049173 -0.0490031 -0.0492384 -0.0493109 -0.0490767
internal_weight=20.77 5.29191 15.4781 8.91292 6.98017 6.56517 5.15158 3.14271 4.15161
internal_count=124 24 100 57 45 43 33 20 27
is_linear=0
shrinkage=0.05


Tree=18
num_leaves=9
num_cat=0
split_feature=83 146 104 133 118 73 134 8
split_gain=44.9654 6.5486 0.000916456 0.000125735 4.8441e-05 6.76147e-05 4.27349e-05 5.50712e-05
threshold=0.7281792423409853 0.065214647592015576 0.52618024552252862 0.51188182966931417 0.22554210836063024 0.12055009217804777 0.76224153595950683 0.75911546500534943
decision_type=2 2 2 2 2 2 2 2
left_child=2 -2 3 4 -1 -6 7 -5
right_child=1 -3 -4 6 5 -7 -8 -9
leaf_value=-0.049099892901356496 0.031650081388830048 0.14482199070457749 -0.050024676359758186 -0.048784437772585815 -0.048506268603089445 -0.048924815569171998 -0.048391981988504161 -0.04841642086329917
leaf_weight=1.6928684860467926 1.7979235351085652 4.4222231656312943 1.4686270356178273 2.8397180438041687 1.4518759995698927 2.8769663870334625 2.4382331073284149 1.5833529829978941
leaf_count=11 10 18 9 19 10 19 17 11
internal_value=-0.000175632 0.11211 -0.0488413 -0.0487064 -0.0488731 -0.0487844 -0.04856 -0.0486527
internal_weight=20.5718 6.22015 14.3516 12.883 6.02171 4.32884 6.8613 4.42307
internal_count=124 28 96 87 40 29 47 30
is_linear=0
shrinkage=0.05


Tree=19
num_leaves=10
num_cat=0
split_feature=56 86 9 96 54 88 88 29 33
split_gain=27.5754 7.97355 7.63376 2.37375 0.000551966 0.000254268 0.000184621 6.84861e-05 1.89181e-05
threshold=0.88378621131792534 0.93658475611649739 0.61497835968939907 0.7953705181436993 0.031300588270293729 0.80540902323779096 0.59620988375042849 0.4851708825421428 0.0094087320339987721
decision_type=2 2 2 2 2 2 2 2 2
left_child=1 3 -2 4 -1 6 -6 -8 -9
right_child=2 -3 -4 -5 5 -7 7 8 -10
leaf_value=-0.049798185141664182 0.029201951680496153 0.079182760732659632 0.16049265388129993 0.018078318276794715 -0.049098021744377787 -0.049358603613977779 -0.048786912426596718 -0.048317836834919525 -0.048549121011288145
leaf_weight=1.796757236123091 1.8477105349302281 1.4917187243700016 2.7624239474534988 1.4678560346364964 2.615171402692793 2.046699032187461 2.8396663963794708 1.4227510094642641 2.3355250954627991
leaf_count=11 10 7 12 9 17 13 19 10 16
internal_value=0.000115997 -0.0309009 0.107872 -0.0422069 -0.0489844 -0.0488545 -0.0487425 -0.0486016 -0.0484616
internal_weight=20.6263 16.0161 4.61013 14.5244 13.0566 11.2598 9.21311 6.59794 3.75828
internal_count=124 102 22 95 86 75 62 45 26
is_linear=0
shrinkage=0.05


Tree=20
num_leaves=11
num_cat=0
split_feature=116 146 89 62 19 113 87 29 92 97
split_gain=13.6211 9.29424 4.23807 6.77527 3.92703 2.58726 0.00531062 4.64366e-05 1.59198e-05 5.66103e-06
threshold=0.34806836107003636 0.011120852865809982 0.78384147655778247 0.69948884390786015 0.3688678679245283 0.35728571044613339 0.51474427336873252 0.47330748437704456 0.47900954957220404 0.39491714652910603
decision_type=2 2 2 2 2 2 2 2 2 2
left_child=2 5 6 -4 -3 -2 -1 -8 -9 -10
right_child=1 4 3 -5 -6 -7 7 8 9 -11
leaf_value=-0.051594933936433364 0.036396260948338345 0.15038900488226301 0.082459180167890472 -0.048816823781337719 0.052106990651321572 -0.050519412896077566 -0.048858842403285439 -0.048695380339871711 -0.048435624819575376 -0.048564972309482292
leaf_weight=1.9440341591835038 1.717524200677871 2.1882406175136566 1.8494444936513894 2.0976381450891495 1.8979128152132032 1.7073799371719358 1.9566165804862974 1.7771474272012708 1.4415982961654665 2.0470955222845078
leaf_count=11 10 10 10 14 10 10 13 12 10 14
internal_value=0.000128975 0.053819 -0.030623 0.0126938 0.10474 -0.00693286 -0.0492752 -0.0486509 -0.0485736 -0.0485115
internal_weight=20.6246 7.51106 13.1136 3.94708 4.08615 3.4249 9.16649 7.22246 5.26584 3.48869
internal_count=124 40 84 24 20 20 60 49 36 24
is_linear=0
shrinkage=0.05


Tree=21
num_leaves=10
num_cat=0
split_feature=8 6 94 74 106 25 55 139 41
split_gain=11.63 14.0695 5.25509 13.0379 3.73072 0.000323197 0.000182844 0.00010485 2.1176e-05
threshold=0.57569391186602048 0.015461065025075353 0.30300197350693664 0.10190550140820907 0.47168301207052915 0.52483447499013436 0.57980791220827665 0.51251300178326531 0.12397107211004564
decision_type=2 2 2 2 2 2 2 2 2
left_child=1 2 3 -1 -2 8 -7 -8 -6
right_child=4 -3 -4 -5 5 6 7 -9 -10
leaf_value=-0.048958057435888901 0.01637309357381056 0.15595433927792052 -0.048688085736234732 0.14106193164313696 -0.048401968808337602 -0.048495973439735128 -0.048808887842624521 -0.049379825535254031 -0.048155927879941288
leaf_weight=1.814841240644457 2.9620819538831702 2.1382390856742859 2.5052124559879303 1.7960978448390958 1.5798736363649353 1.886522054672241 1.4980318099260332 1.7360243201255796 1.9587622433900831
leaf_count=12 17 10 17 9 11 13 10 11 14
internal_value=0.000169879 0.045552 0.00695469 0.0455588 -0.0320642 -0.0486332 -0.0488872 -0.0491154 -0.0482658
internal_weight=19.8757 8.25439 6.11615 3.61094 11.6213 8.65921 5.12058 3.23406 3.53864
internal_count=124 48 38 21 76 59 34 21 25
is_linear=0
shrinkage=0.05


Tree=22
num_leaves=11
num_cat=0
split_feature=125 18 35 17 2 5 9 42 136 67
split_gain=38.8056 4.17218 0.562476 0.000145903 0.000100495 5.13311e-05 3.82416e-05 3.17475e-05 1.77416e-05 2.73885e-06
threshold=0.99505851060951478 0.37845055013260487 0.031887668309216792 0.39069689906832322 0.22116903633491317 0.18381834583661935 0.23446327683615828 0.0097070530281690628 0.68902889699624881 0.44437562154024551
decision_type=2 2 2 2 2 2 2 2 2 2
left_child=2 -2 3 4 -1 -6 -7 -5 9 -9
right_child=1 -3 -4 7 5 6 -8 8 -10 -11
leaf_value=-0.048795057678928389 0.049865831548283376 0.1397887655607517 -0.01614456071296359 -0.047938113860780569 -0.048113144630984407 -0.048288979484854624 -0.048622559155229471 -0.048097830557585798 -0.048358921803727306 -0.048194532208557128
leaf_weight=1.943798035383226 1.9519835710525502 3.8031030297279358 1.5218152254819859 1.3633118420839307 1.3915552943944929 1.5611461549997332 1.9107116460800169 1.5288894176483157 1.4301709085702894 1.4051954895257948
leaf_count=13 10 16 10 10 10 11 13 11 10 10
internal_value=-7.39707e-05 0.109289 -0.0448497 -0.0483347 -0.0484912 -0.0483697 -0.0484726 -0.0481487 -0.0482145 -0.0481441
internal_weight=19.8117 5.75509 14.0566 12.5348 6.80721 4.86341 3.47186 5.72757 4.36426 2.93408
internal_count=124 26 98 88 47 34 24 41 31 21
is_linear=0
shrinkage=0.05


Tree=23
num_leaves=9
num_cat=0
split_feature=2 18 4 0 26 94 137 45
split_gain=49.933 1.56025 0.000159389 0.00020875 5.67283e-05 3.94599e-05 3.30705e-05 1.53834e-05
threshold=0.091007472357460303 0.37485523351086852 0.51520509193776542 0.31665440919593052 0.85959000198746738 0.60928961748633892 0.3360655737704919 0.82508723871285639
decision_type=2 2 2 2 2 2 2 2
left_child=1 -1 5 -4 6 -2 -5 -7
right_child=2 -3 3 4 -6 7 -8 -9
leaf_value=0.093352775338265526 -0.048351358887629495 0.14640447895329586 -0.049313834303662415 -0.048638662514982327 -0.048527883893170538 -0.048535916530800145 -0.048932643282717347 -0.048739349485219241
leaf_weight=2.3307233303785351 2.2858697921037665 3.4188457578420639 1.8832647651433925 1.4726759195327757 2.4748815894126892 2.4783630371093754 2.7299890518188477 1.4867562055587766
leaf_count=10 16 14 12 10 17 17 18 10
internal_value=-0.000162955 0.124899 -0.0487088 -0.0488489 -0.0487178 -0.0485168 -0.0488296 -0.0486122
internal_weight=20.5614 5.74957 14.8118 8.56081 6.67755 6.25099 4.20266 3.96512
internal_count=124 24 100 57 45 43 28 27
is_linear=0
shrinkage=0.05


Tree=24
num_leaves=10
num_cat=0
split_feature=72 6 0 5 30 61 34 105 19
split_gain=39.2438 4.77787 0.000230453 0.000195777 0.000102293 6.03117e-05 2.41244e-05 1.72883e-05 1.11847e-05
threshold=0.50443102489074276 0.0064046319784417209 0.31665440919593052 0.24438562462945332 0.50374085636058363 0.05200075252545993 0.013418392882205763 0.56936950236188888 0.40176417740355341
decision_type=2 2 2 2 2 2 2 2 2
left_child=2 -2 3 -1 6 -6 -4 8 -7
right_child=1 -3 4 -5 5 7 -8 -9 -10
leaf_value=-0.04825208295779565 0.0388139602233867 0.12996490228759819 -0.048560269704598952 -0.048998094069647745 -0.047811777770820123 -0.04815647070423909 -0.04827750549927172 -0.04829947845625835 -0.047980621165524089
leaf_weight=1.6951433718204527 2.1285195350646964 4.4292746335268021 1.4614712446928009 1.8276324421167371 1.7450083866715429 2.6573367714881897 1.5589017421007154 1.4209801256656645 1.3706278800964353
leaf_count=12 10 17 10 12 13 19 11 10 10
internal_value=-0.000251472 0.100379 -0.0482904 -0.0486391 -0.0481701 -0.0480676 -0.0484143 -0.0481495 -0.0480966
internal_weight=20.2949 6.55779 13.7371 3.52278 10.2143 7.19395 3.02037 5.44894 4.02796
internal_count=124 27 97 24 73 52 21 39 29
is_linear=0
shrinkage=0.05


Tree=25
num_leaves=10
num_cat=0
split_feature=4 105 89 4 56 5 109 114 68
split_gain=24.509 27.2721 1.63777 0.00124907 0.00113046 0.000277132 0.000121017 0.000128278 4.48935e-05
threshold=0.57223945495336814 0.79560477015860231 0.88193511582027229 0.31290864881812902 0.83986209574601289 0.83097094259390503 0.76885775228062292 0.45937500000000009 0.3488032514137217
decision_type=2 2 2 2 2 2 2 2 2
left_child=1 2 -1 -3 5 6 7 -2 -7
right_child=4 3 -4 -5 -6 8 -8 -9 -10
leaf_value=0.16213179959290153 -0.04919499142196801 -0.048757383211462751 0.10713486923415544 -0.050683841023878823 -0.049782876867530967 -0.048303272464741871 -0.04835177070429434 -0.048541464218377912 -0.048000074633281098
leaf_weight=2.2890709936618823 1.5491729974746689 1.9216710031032564 3.3127187490463257 1.4967752099037168 1.7887689620256413 2.4124506786465645 1.7138738483190534 1.4571292400360105 2.4717709422111511
leaf_count=10 10 13 14 9 11 17 12 10 18
internal_value=0.000119766 0.0616925 0.129608 -0.0496009 -0.0486288 -0.0484139 -0.0486871 -0.0488782 -0.0481498
internal_weight=20.4134 9.02024 5.60179 3.41845 11.3932 9.6044 4.72018 3.0063 4.88422
internal_count=124 46 24 22 78 67 32 20 35
is_linear=0
shrinkage=0.05


Tree=26
num_leaves=9
num_cat=0
split_feature=64 86 3 5 54 116 6 1
split_gain=12.2356 8.94238 8.75649 16.9228 0.00155481 0.000274062 0.000108464 1.68046e-05
threshold=0.023829973483118678 0.81327382793573777 0.29512646191541619 0.24438562462945332 0.98981684757019572 0.34516379413091058 0.0064046319784417209 0.0089091721046099508
decision_type=2 2 2 2 2 2 2 2
left_child=1 -1 3 -2 5 6 -4 -8
right_child=2 -3 4 -5 -6 -7 7 -9
leaf_value=0.010328301907308655 -0.049558234268669392 0.14099526465882506 -0.048564089413542955 0.14168101165991662 -0.050136603233287558 -0.048967094620819107 -0.04804007955523501 -0.048220651546590811
leaf_weight=3.1368434652686146 2.6601968407630912 2.2475153654813766 2.0434510409831965 2.0469153225421906 1.4868192523717887 1.667555898427963 2.4852564781904221 2.6755590587854385
leaf_count=17 17 9 14 10 9 11 18 19
internal_value=0.00017676 0.0648707 -0.0229443 0.0336033 -0.0486402 -0.0483895 -0.0482558 -0.0481337
internal_weight=20.4501 5.38436 15.0658 4.70711 10.3586 8.87182 7.20427 5.16082
internal_count=124 26 98 27 71 62 51 37
is_linear=0
shrinkage=0.05


Tree=27
num_leaves=11
num_cat=0
split_feature=4 2 90 22 79 74 113 138 65 41
split_gain=10.8515 11.9704 7.06589 7.24236 2.29301 0.484424 0.000694956 0.000257328 0.00019557 3.97179e-05
threshold=0.61916548797736926 0.13270142180094793 0.56534637257056353 0.78382743703279423 0.15367991344649032 0.12567738887053936 0.30886426592797794 0.81630641207420418 0.8650000000000001 0.12397107211004564
decision_type=2 2 2 2 2 2 2 2 2 2
left_child=6 5 -3 -4 -5 7 8 -2 9 -1
right_child=1 2 3 4 -6 -7 -8 -9 -10 -11
leaf_value=-0.047965940756086158 -0.049025725582187013 0.13934230053070354 0.10723785804076469 0.030906139337329743 -0.049585188034921596 -0.012711590354081911 -0.049173927497839796 -0.048106470626193928 -0.04847906805497533 -0.047661479755773901
leaf_weight=2.0504142343997982 1.5154181420803063 2.2895159870386106 2.172969862818718 1.7971373647451403 1.7429095953702924 1.3642640262842176 1.5352955013513563 1.529840752482414 1.4467284381389616 2.2429405152797699
leaf_count=15 10 10 11 10 11 9 10 11 10 17
internal_value=0.000256762 0.0286769 0.0651258 0.0353832 -0.00872303 -0.0374716 -0.048229 -0.0485639 -0.0479763 -0.0478069
internal_weight=19.6874 12.4121 8.00253 5.71302 3.54005 4.40952 7.27538 3.04526 5.74008 4.29335
internal_count=124 72 42 32 21 30 52 21 42 32
is_linear=0
shrinkage=0.05


Tree=28
num_leaves=9
num_cat=0
split_feature=125 10 33 105 2 73 42 90
split_gain=33.9262 3.73877 0.575619 0.000178046 0.000141796 5.11059e-05 5.65351e-05 4.61899e-05
threshold=0.99505851060951478 0.5391528300641576 0.077764412751936171 0.50338271637042376 0.20406840135260271 0.31563816348230989 0.047436012499671311 0.95091190825680127
decision_type=2 2 2 2 2 2 2 2
left_child=2 -2 3 4 -1 6 -5 -6
right_child=1 -3 -4 5 7 -7 -8 -9
leaf_value=-0.048605280191358742 0.049073537482473152 0.12928866938390401 -0.015411765653311857 -0.048168632506230741 -0.048204242625045413 -0.047672267317435769 -0.047803587544814445 -0.047823910733260103
leaf_weight=1.7601545006036774 2.3891733735799781 3.7057527899742126 1.5265401452779759 1.8162442892789838 1.9667779952287676 2.508606344461441 2.5494170635938644 1.3436700999736784
leaf_count=12 11 15 11 13 14 19 19 10
internal_value=-3.76813e-05 0.0978448 -0.0443231 -0.0480179 -0.0482427 -0.0478521 -0.0479555 -0.0480499
internal_weight=19.5663 6.09493 13.4714 11.9449 5.0706 6.87427 4.36566 3.31045
internal_count=124 26 98 87 36 51 32 24
is_linear=0
shrinkage=0.05


Tree=29
num_leaves=11
num_cat=0
split_feature=2 17 3 5 0 85 64 33 137 33
split_gain=43.0307 1.25835 0.000167636 0.000157629 0.000239326 5.29821e-05 4.0259e-05 4.31898e-05 7.9526e-06 5.88542e-07
threshold=0.091007472357460303 0.39069689906832322 0.37040320734724302 0.24438562462945332 0.31665440919593052 0.73931443799265317 0.01283345875424332 0.027936162936843603 0.55853398736055915 0.077764412751936171
decision_type=2 2 2 2 2 2 2 2 2 2
left_child=1 -1 3 -2 -5 -6 -4 8 -8 -9
right_child=2 -3 6 4 5 -7 7 9 -10 -11
leaf_value=0.082619132954165606 -0.048123071288099915 0.12876472147816806 -0.047853577551066714 -0.049089534559187534 -0.048140659610863112 -0.048561287261082046 -0.048377623446659766 -0.048039882576442344 -0.048210294371476871 -0.047993651055385673
leaf_weight=2.4710714071989086 2.505675405263899 3.6736834645271301 1.3483766242861746 1.6928459852933881 1.5349285155534746 1.4614391326904295 1.4332655370235445 1.3807432651519778 1.4072873145341871 1.3728809058666227
leaf_count=10 18 14 10 11 11 10 10 10 10 10
internal_value=-0.000260017 0.110208 -0.0482741 -0.0484432 -0.0486143 -0.0483458 -0.0480988 -0.0481579 -0.0482947 -0.0480168
internal_weight=20.2822 6.14475 14.1374 7.19489 4.68921 2.99637 6.94255 5.59418 2.84055 2.75362
internal_count=124 24 100 50 32 21 50 40 20 20
is_linear=0
shrinkage=0.05


Tree=30
num_leaves=9
num_cat=0
split_feature=108 26 73 133 46 70 134 8
split_gain=34.871 4.66344 0.00390982 0.000223087 5.67384e-05 0.000131513 3.08016e-05 4.44888e-05
threshold=0.81433829044117634 0.33168184035392373 0.47321017768368351 0.51188182966931417 0.68604651162790387 0.22285744711707037 0.76224153595950683 0.75911546500534943
decision_type=2 2 2 2 2 2 2 2
left_child=2 -2 3 4 -1 -6 7 -5
right_child=1 -3 -4 6 5 -7 -8 -9
leaf_value=-0.047906710611590818 0.11672302267185693 0.024864943018757857 -0.050737102083218903 -0.047877391120718184 -0.048556929390835425 -0.047952469830477219 -0.047495478811273119 -0.047521873906593522
leaf_weight=2.4412876665592211 4.9375537931919089 1.9185729026794431 1.3367987796664227 2.3007904589176182 1.6050749570131304 2.0480913072824478 1.9338895976543424 1.4249773100018499
leaf_count=18 18 11 8 17 11 15 15 11
internal_value=-0.000331926 0.0910181 -0.0481748 -0.0478834 -0.0480933 -0.048218 -0.0476574 -0.0477414
internal_weight=19.947 6.85613 13.0909 11.7541 6.09445 3.65317 5.65966 3.72577
internal_count=124 29 95 87 44 26 43 28
is_linear=0
shrinkage=0.05


Tree=31
num_leaves=10
num_cat=0
split_feature=4 105 89 56 4 5 0 63 68
split_gain=22.0281 22.5925 1.22252 0.00103742 0.000997388 0.000257576 0.000139293 7.17555e-05 6.48476e-05
threshold=0.57223945495336814 0.79560477015860231 0.88193511582027229 0.83986209574601289 0.31290864881812902 0.83097094259390503 0.35530784083703432 0.094711719686982318 0.3488032514137217
decision_type=2 2 2 2 2 2 2 2 2
left_child=1 2 -1 5 -3 6 -2 -8 -7
right_child=3 4 -4 -5 -6 8 7 -9 -10
leaf_value=0.14111013455071239 -0.048605685179651914 -0.048349438096398356 0.095309047747130227 -0.049327951446887126 -0.050111456559587847 -0.047915683019839367 -0.047773222298367314 -0.048284587483861247 -0.047541945607366722
leaf_weight=2.4936814457178134 1.7590268850326518 1.8361220955848696 3.5044447630643845 1.7183156758546818 1.4275327920913694 2.3065137416124344 1.3360477238893511 1.4099971055984495 2.3362747207283974
leaf_count=10 12 13 14 11 9 17 10 10 18
internal_value=9.04433e-05 0.0567469 0.114351 -0.0482007 -0.0491202 -0.047989 -0.0482583 -0.0480358 -0.0477276
internal_weight=20.128 9.26178 5.99813 10.8662 3.26365 9.14786 4.50507 2.74604 4.64279
internal_count=124 46 24 78 22 67 32 20 35
is_linear=0
shrinkage=0.05


Tree=32
num_leaves=11
num_cat=0
split_feature=116 146 135 89 62 10 56 58 10 135
split_gain=10.8947 6.75788 4.48565 3.87146 8.57666 2.58288 0.00480224 0.000302992 3.24936e-05 3.0525e-05
threshold=0.34806836107003636 0.011120852865809982 0.51848119999967146 0.78384147655778247 0.2747438751741626 0.62654225409615816 0.88378621131792534 0.040081733831762591 0.50853937190862386 0.53819623888386203
decision_type=2 2 2 2 2 2 2 2 2 2
left_child=3 5 -3 6 -5 -2 7 -1 9 -9
right_child=1 2 -4 4 -6 -7 -8 8 -10 -11
leaf_value=-0.04853351988894733 -0.049580396381636582 0.13510399777185989 0.035191432649114604 0.1027301542595148 -0.048195687575714699 0.037529454015537471 -0.051151034933850717 -0.048003022930553745 -0.047580102216736322 -0.047691963598782437
leaf_weight=1.4468268603086487 1.7435309141874307 2.3001452386379242 2.1957856714725494 1.5613782554864877 2.3702657520771027 1.6622584611177442 1.3440086692571638 1.3744874745607378 2.3506275415420532 1.8505796268582342
leaf_count=10 11 9 11 7 17 9 8 10 18 14
internal_value=0.00025183 0.0460622 0.0863073 -0.0291818 0.0117417 -0.00706482 -0.0484128 -0.0478888 -0.0477215 -0.0478245
internal_weight=20.1999 7.90172 4.49593 12.2982 3.93164 3.40579 8.36653 7.02252 5.57569 3.22507
internal_count=124 40 20 84 24 20 60 52 42 24
is_linear=0
shrinkage=0.05


Tree=33
num_leaves=11
num_cat=0
split_feature=21 33 22 83 58 43 9 0 23 33
split_gain=10.0327 10.5678 9.64124 4.69401 2.33073 0.541202 0.000439925 0.00021036 0.000175186 1.64951e-05
threshold=0.68883623463563126 1.0000000180025095e-35 0.82924060936603483 0.13924061134976304 0.15301459796989822 0.48921406840817389 0.71729826673580754 0.41308308378276698 0.55174184758727007 0.0094087320339987721
decision_type=2 2 2 2 2 2 2 2 2 2
left_child=6 2 3 -2 -4 7 8 -3 -1 -8
right_child=1 5 4 -5 -6 -7 9 -9 -10 -11
leaf_value=-0.047913149395469784 0.045104112772524067 -0.048548313190239223 -0.048995815640925651 0.14439314292174119 0.035046874546393707 -0.0086831618951057447 -0.047488930151199593 -0.047715973317636502 -0.04859810078581972 -0.047249382000375942
leaf_weight=2.5763192325830486 1.996368944644926 1.4499201774597161 1.613802567124367 2.9484091550111771 1.6876908540725706 1.2188457101583479 1.288247883319855 1.5932487398385999 1.4639748036861417 1.6252854689955709
leaf_count=19 10 10 11 12 9 8 10 12 10 13
internal_value=0.000323603 0.0270905 0.0601306 0.104307 -0.00603402 -0.0368366 -0.0478236 -0.0481125 -0.0481613 -0.0473553
internal_weight=19.4621 12.5083 8.24627 4.94478 3.30149 4.26201 6.95383 3.04317 4.04029 2.91353
internal_count=124 72 42 22 20 30 52 22 29 23
is_linear=0
shrinkage=0.05


Tree=34
num_leaves=10
num_cat=0
split_feature=125 10 73 36 0 5 136 0 36
split_gain=29.8063 2.95746 0.597895 0.000342528 0.000144675 0.000131866 5.12471e-05 3.41559e-05 8.3456e-06
threshold=0.99505851060951478 0.5391528300641576 0.053986601680137435 0.047324129653653436 0.34015016303070572 0.24438562462945332 0.67800503635577247 0.41308308378276698 0.0040146293269735416
decision_type=2 2 2 2 2 2 2 2 2
left_child=2 -2 -1 4 5 -4 7 -6 -9
right_child=1 -3 3 -5 6 -7 -8 8 -10
leaf_value=-0.013770068704710668 0.04524986681953521 0.11518693984807514 -0.047558479391301506 -0.048379127746522282 -0.047524985029314806 -0.048185885155423595 -0.04760635783475424 -0.047117451369649462 -0.047287361608297239
leaf_weight=1.4694313704967523 2.4556396901607505 3.9321429580450058 2.0801357179880129 1.426848530769347 1.2955429181456564 1.4019080251455305 2.226001188158989 1.2265795692801478 1.7592513412237165
leaf_count=11 11 15 16 10 10 10 17 10 14
internal_value=-1.14857e-05 0.0883012 -0.0437904 -0.0476545 -0.047551 -0.0478111 -0.0474118 -0.0473106 -0.0472176
internal_weight=19.2735 6.38778 12.8857 11.4163 9.98942 3.48204 6.50738 4.28137 2.98583
internal_count=124 26 98 87 77 26 51 34 24
is_linear=0
shrinkage=0.05


Tree=35
num_leaves=10
num_cat=0
split_feature=2 18 3 5 0 92 85 54 31
split_gain=37.667 1.11766 0.000195811 0.000117121 0.000239674 6.86396e-05 3.92229e-05 3.22387e-05 4.96819e-06
threshold=0.091007472357460303 0.37485523351086852 0.40426239023220595 0.24438562462945332 0.31665440919593052 0.47900954957220404 0.66786773816877731 0.070077042112439036 0.60269293516106737
decision_type=2 2 2 2 2 2 2 2 2
left_child=1 -1 3 -2 -5 -4 -6 -7 -9
right_child=2 -3 5 4 6 7 -8 8 -10
leaf_value=0.073650291317788621 -0.04774343201607037 0.11611509390523048 -0.047883791789455857 -0.048669201803381412 -0.047778644569714861 -0.047317261706270292 -0.048111977223107394 -0.04755562491013253 -0.047693196944689653
leaf_weight=2.5887741595506695 2.3956687003374082 3.8597237169742584 2.0330000221729279 1.6247208863496778 1.872604697942734 1.2595117390155794 1.6691577434539793 1.3017333894968035 1.3234964460134504
leaf_count=10 18 14 15 11 14 10 12 10 10
internal_value=-0.000319297 0.0990674 -0.0478638 -0.0480324 -0.0481664 -0.0476484 -0.0479357 -0.0475252 -0.047625
internal_weight=19.9284 6.4485 13.4799 7.56215 5.16648 5.91774 3.54176 3.88474 2.62523
internal_count=124 24 100 55 37 45 26 30 20
is_linear=0
shrinkage=0.05


Tree=36
num_leaves=10
num_cat=0
split_feature=83 109 104 0 30 53 45 20 34
split_gain=30.986 2.76176 0.00105199 0.000176385 8.04006e-05 4.95454e-05 3.29356e-05 3.03796e-05 1.35882e-05
threshold=0.7281792423409853 0.023691618903627219 0.52618024552252862 0.31665440919593052 0.50374085636058363 0.8650000000000001 0.64146799286843359 0.4299390345604967 0.013418392882205763
decision_type=2 2 2 2 2 2 2 2 2
left_child=2 -2 3 -1 8 6 7 -6 -5
right_child=1 -3 -4 4 5 -7 -8 -9 -10
leaf_value=-0.047853792409954563 0.10440734576209476 0.036523067660501361 -0.048977057105089136 -0.047718852370529648 -0.047145882068372343 -0.047533148665137401 -0.047020384486289729 -0.047478051073689465 -0.047496374536398489
leaf_weight=2.5522218644619015 4.8701687753200522 2.1639904528856277 1.3281721770763386 1.3280125409364685 1.4786362349987032 1.4229361414909361 1.6903763040900228 1.2878822758793829 1.4203768745064733
leaf_count=19 17 11 9 10 12 11 14 10 11
internal_value=-0.000433767 0.0835234 -0.0476467 -0.0474886 -0.0473806 -0.0472763 -0.0471943 -0.0473005 -0.0476039
internal_weight=19.5428 7.03416 12.5086 11.1804 8.62822 5.87983 4.45689 2.76652 2.74839
internal_count=124 28 96 87 68 47 36 22 21
is_linear=0
shrinkage=0.05


Tree=37
num_leaves=11
num_cat=0
split_feature=4 105 89 56 4 109 24 73 139 64
split_gain=19.7914 18.9595 0.892476 0.00102378 0.000779541 0.000199099 0.000120363 7.91303e-05 3.44988e-05 4.54878e-05
threshold=0.57223945495336814 0.79560477015860231 0.88193511582027229 0.83986209574601289 0.31290864881812902 0.29315487841382548 0.84103733866097452 0.12899641697410391 0.4469674630207614 0.28488823784124462
decision_type=2 2 2 2 2 2 2 2 2 2
left_child=1 2 -1 5 -3 6 -2 8 -7 -10
right_child=3 4 -4 -5 -6 7 -8 -9 9 -11
leaf_value=0.12401354880282554 -0.047552274872787063 -0.047974774586797733 0.085997301250734057 -0.048920542700183568 -0.049570072714742765 -0.047058742744386005 -0.04820590787112275 -0.047697739021053294 -0.047597109393413786 -0.04720650037844179
leaf_weight=2.6724421083927172 1.2975882217288002 1.7529645636677744 3.6556126624345779 1.6546043902635563 1.3597616404294965 1.213059566915035 1.5404413938522337 1.5886209309101103 1.3054327741265299 1.737157844007015
leaf_count=10 10 13 14 11 9 10 11 12 10 14
internal_value=1.95091e-05 0.0523569 0.102052 -0.0477807 -0.0486717 -0.0475635 -0.0479071 -0.0473966 -0.0472842 -0.0473741
internal_weight=19.7777 9.44078 6.32805 10.3369 3.11273 8.6823 2.83803 5.84427 4.25565 3.04259
internal_count=124 46 24 78 22 67 21 46 34 24
is_linear=0
shrinkage=0.05


Tree=38
num_leaves=10
num_cat=0
split_feature=64 3 5 137 113 6 42 23 6
split_gain=9.83831 7.80244 12.7214 6.40638 0.0019766 0.000348166 0.000115196 2.23551e-05 1.37672e-06
threshold=0.023829973483118678 0.29512646191541619 0.24438562462945332 0.3360655737704919 0.34493213733592704 0.0064046319784417209 0.094017088269089832 0.90880463603663209 0.053493266085808143
decision_type=2 2 2 2 2 2 2 2 2
left_child=3 2 -2 -1 5 -3 7 8 -7
right_child=1 4 -4 -5 -6 6 -8 -9 -10
leaf_value=0.10040807014987484 -0.048822615793694749 -0.048070717203188923 0.11418588148014952 -0.0084275400811248923 -0.049540450413060717 -0.047183146773979549 -0.047769975393529694 -0.047404713845781113 -0.047111584913856371
leaf_weight=3.3460739254951504 2.4646508246660224 2.6173700541257841 2.3268675357103348 2.2689689993858337 1.570125952363014 1.4866521060466773 1.3254670500755308 1.2737517729401586 1.2265972718596456
leaf_count=13 17 19 10 13 10 12 10 10 10
internal_value=0.000350683 -0.0216822 0.0303379 0.056429 -0.0479196 -0.0475987 -0.0473662 -0.0472319 -0.0471508
internal_weight=19.9065 14.2915 4.79152 5.61504 9.49996 7.92984 5.31247 3.987 2.71325
internal_count=124 98 27 26 71 61 42 32 22
is_linear=0
shrinkage=0.05


Tree=39
num_leaves=11
num_cat=0
split_feature=21 33 22 83 58 43 9 0 23 42
split_gain=9.30025 9.27355 7.97649 3.73921 2.72299 0.541257 0.000416629 0.000175737 0.000151459 2.32369e-05
threshold=0.68883623463563126 1.0000000180025095e-35 0.82924060936603483 0.13924061134976304 0.2101001053625704 0.48921406840817389 0.71729826673580754 0.41308308378276698 0.55174184758727007 0.041812460179179126
decision_type=2 2 2 2 2 2 2 2 2 2
left_child=6 2 3 -2 -4 7 8 -3 -1 -8
right_child=1 5 4 -5 -6 -7 9 -9 -10 -11
leaf_value=-0.047552895488427477 0.041571815499499613 -0.048110705729698076 -0.048829275104916831 0.12835151631154898 0.042714678854933658 -0.0077309980101769862 -0.046855786833930928 -0.047331017210836102 -0.048203875642858135 -0.04714740688148561
leaf_weight=2.4607912227511437 2.0499920099973661 1.3811264336109155 1.7223467454314234 3.1467469036579132 1.537421867251396 1.1967632845044134 1.536210894584656 1.5159692764282224 1.4029044359922407 1.230069115757942
leaf_count=19 10 10 12 12 8 8 13 12 10 10
internal_value=0.000448977 0.0257546 0.055659 0.094119 -0.00565392 -0.0360177 -0.0474539 -0.0477027 -0.0477893 -0.0469855
internal_weight=19.1803 12.5504 8.45651 5.19674 3.25977 4.09386 6.62998 2.8971 3.8637 2.76628
internal_count=124 72 42 22 20 30 52 22 29 23
is_linear=0
shrinkage=0.05


Tree=40
num_leaves=10
num_cat=0
split_feature=125 18 1 141 4 90 65 65 46
split_gain=26.384 2.77007 0.626801 0.000220773 8.91478e-05 9.76974e-05 6.28531e-05 8.41681e-05 6.72597e-06
threshold=0.99505851060951478 0.37845055013260487 0.35456836583858503 0.043929471917873046 0.51520509193776542 0.70229163418079077 0.94690049670926058 0.067552786606499216 0.63043964742901071
decision_type=2 2 2 2 2 2 2 2 2
left_child=2 -2 3 4 -1 -6 7 -5 -9
right_child=1 -3 -4 6 5 -7 -8 8 -10
leaf_value=-0.047184580181182351 0.034711437199369602 0.10332826316700168 -0.011282607320420836 -0.047243389469948757 -0.047371994024530788 -0.047967619680293123 -0.047371320228814899 -0.046919432240664992 -0.046778557012022354
leaf_weight=1.2369688153266922 2.2044276595115653 4.419993981719017 1.3626674562692631 2.1211699768900871 1.2695291265845301 1.5041404813528059 1.3964407816529272 1.5505178198218348 1.8680929765105245
leaf_count=10 10 16 10 17 10 11 11 13 16
internal_value=3.69749e-05 0.0804944 -0.0432615 -0.0472423 -0.0475376 -0.047695 -0.0470715 -0.046996 -0.0468425
internal_weight=18.9339 6.62442 12.3095 10.9469 4.01064 2.77367 6.93622 5.53978 3.41861
internal_count=124 26 98 88 31 21 57 46 29
is_linear=0
shrinkage=0.05


Tree=41
num_leaves=10
num_cat=0
split_feature=2 17 0 5 102 65 54 88 5
split_gain=33.1478 1.04577 0.000173756 0.000296456 9.75859e-05 6.63623e-05 3.15879e-05 2.72361e-05 1.86487e-05
threshold=0.091007472357460303 0.39069689906832322 0.31665440919593052 0.24438562462945332 0.3711428293303673 0.94690049670926058 0.083920612257040686 0.60989702675000268 0.77214741318214053
decision_type=2 2 2 2 2 2 2 2 2
left_child=1 -1 3 -2 7 6 -6 -4 -8
right_child=2 -3 4 -5 5 -7 8 -9 -10
leaf_value=0.065731601660046782 -0.047381360349810692 0.10604025742531298 -0.047435690890445588 -0.048285913449897425 -0.046932612202481856 -0.047531458929492731 -0.047145666330357494 -0.047751274771167113 -0.047383505161596499
leaf_weight=2.693702012300494 2.1599462628364559 3.9962998926639557 1.2804760634899124 1.5600080341100691 1.1926163434982298 1.5556452348828314 2.3416517749428754 1.4669056832790373 1.2718234509229658
leaf_count=10 17 14 10 11 10 12 19 11 10
internal_value=-0.000420171 0.0898101 -0.0474727 -0.0477607 -0.0473552 -0.0472476 -0.0471557 -0.0476042 -0.0472294
internal_weight=19.5191 6.69 12.8291 3.71995 9.10912 6.36174 4.80609 2.74738 3.61348
internal_count=124 24 100 28 72 51 39 21 29
is_linear=0
shrinkage=0.05


Tree=42
num_leaves=11
num_cat=0
split_feature=108 26 75 0 59 30 53 134 17 0
split_gain=27.789 3.2697 0.00373182 0.000246612 0.000112557 8.93496e-05 5.44041e-05 3.34287e-05 2.76746e-05 6.45309e-06
threshold=0.81433829044117634 0.33168184035392373 0.48051762907201373 0.31665440919593052 0.71617497082925474 0.50374085636058363 0.8650000000000001 0.76224153595950683 0.39377153453993829 0.37562423119150407
decision_type=2 2 2 2 2 2 2 2 2 2
left_child=2 -2 3 4 -1 9 7 8 -7 -5
right_child=1 -3 -4 5 -6 6 -8 -9 -10 -11
leaf_value=-0.047812423792719327 0.097630894621794667 0.021695779189691441 -0.05017218008554003 -0.047319993045226265 -0.047194488136336976 -0.046745211669332952 -0.047169066005366911 -0.046599288362713737 -0.04707157023859658 -0.047159183826711408
leaf_weight=1.6072639748454114 5.2430318892002097 1.9429802149534223 1.1211456581950177 1.2613798826932909 1.3609022125601766 1.3937851414084437 1.2313671633601186 1.4712639003992078 1.2165615558624265 1.2343447282910345
leaf_count=12 18 11 7 10 11 12 10 13 10 10
internal_value=-0.00053699 0.0770993 -0.0474268 -0.0471412 -0.0475291 -0.0469937 -0.0468778 -0.0467899 -0.0468973 -0.0472405
internal_weight=19.084 7.18601 11.898 10.7769 2.96817 7.8087 5.31298 4.08161 2.61035 2.49572
internal_count=124 29 95 88 23 65 45 35 22 20
is_linear=0
shrinkage=0.05


Tree=43
num_leaves=10
num_cat=0
split_feature=4 105 9 56 4 109 93 58 69
split_gain=17.9058 16.2237 0.841034 0.000958448 0.000806958 0.000177808 0.000147069 8.13016e-05 4.82813e-05
threshold=0.57223945495336814 0.79560477015860231 0.6532740734742094 0.83986209574601289 0.31290864881812902 0.42948717948717979 0.16207815533580125 0.058869178612319342 0.003136719611754627
decision_type=2 2 2 2 2 2 2 2 2
left_child=1 2 -1 5 -3 6 -2 -7 -9
right_child=3 4 -4 -5 -6 7 -8 8 -10
leaf_value=0.072457279363255619 -0.04785504935803149 -0.047551720726959817 0.10847279968331565 -0.048518280422066955 -0.049212883620245146 -0.047276479270108002 -0.047192910097034468 -0.046566665198955776 -0.046974703519059885
leaf_weight=2.9024758636951464 1.3449868336319908 1.6614982560276987 3.6713157594203949 1.5879209041595448 1.3055363371968267 1.5016779154539106 2.2274594232439995 1.1244064942002299 2.0407434403896332
leaf_count=11 10 13 13 11 9 12 18 10 17
internal_value=-2.36485e-05 0.048768 0.0925711 -0.0473935 -0.0482827 -0.0471767 -0.0474422 -0.0469735 -0.0468297
internal_weight=19.368 9.54083 6.57379 9.8272 2.96703 8.23927 3.57245 4.66683 3.16515
internal_count=124 46 24 78 22 67 28 39 27
is_linear=0
shrinkage=0.05


Tree=44
num_leaves=11
num_cat=0
split_feature=91 8 109 58 114 56 114 6 90 69
split_gain=9.05789 11.1328 10.6927 1.76043 1.30398 0.00409416 0.0028849 0.000374659 7.82047e-05 6.28026e-05
threshold=0.51395998902349394 0.71793623503644133 0.62748190283298644 0.97614472184915269 0.59776654193873624 0.88378621131792534 0.35312245872317022 0.0064046319784417209 0.50902911277405816 0.55663185765996481
decision_type=2 2 2 2 2 2 2 2 2 2
left_child=5 2 4 6 -2 7 9 -1 -9 -3
right_child=1 3 -4 -5 -6 -7 -8 8 -10 -11
leaf_value=-0.047955176462086531 0.11272261865983241 -0.047234482253097121 -0.048480433650809653 0.016417378048548627 0.064969676862668413 -0.050212588442404282 -0.049794942659215934 -0.047316480189492333 -0.046818135093154301 -0.046735528437513496
leaf_weight=1.493549302220347 3.6713013797998411 1.2466608360409743 1.6821879670023916 1.4500025808811186 2.3412673324346542 1.5990354940295217 1.4271356910467146 1.2544970661401751 2.1136602312326431 1.2763398513197897
leaf_count=11 14 10 12 9 10 10 9 10 18 11
internal_value=0.000428063 0.0243303 0.0629516 -0.0307019 0.0941278 -0.0480179 -0.0479983 -0.047296 -0.0470037 -0.0469821
internal_weight=19.5556 13.0949 7.69476 5.40014 6.01257 6.46074 3.95014 4.86171 3.36816 2.523
internal_count=124 75 36 39 24 49 30 39 28 21
is_linear=0
shrinkage=0.05


Tree=45
num_leaves=11
num_cat=0
split_feature=4 2 66 10 54 113 82 67 46 29
split_gain=8.60393 8.18804 4.75616 5.01618 0.511588 0.000509466 0.000276678 0.000171991 7.42904e-05 7.65524e-06
threshold=0.61916548797736926 0.13270142180094793 0.26842072564505437 0.5391528300641576 0.84481379123982114 0.30886426592797794 0.25206051812344582 0.90250000000000019 0.78241779423107027 0.53841715543441437
decision_type=2 2 2 2 2 2 2 2 2 2
left_child=5 4 3 -3 6 7 -2 8 9 -1
right_child=1 2 -4 -5 -6 -7 -8 -9 -10 -11
leaf_value=-0.04647427937710262 -0.047050640376296089 0.070446093577233124 0.11399326495293496 -0.018617970623799905 -0.0085511537467821887 -0.047981477903442676 -0.048062732481936543 -0.047387632409524809 -0.047033489627604078 -0.046650536470265305
leaf_weight=1.3354997262358699 1.3325648382306097 3.4456911087036115 2.2615667283535004 2.9211748093366623 1.2197591811418531 1.3472536057233808 1.3689903169870374 1.2666623294353483 1.2101336866617201 1.1435108557343481
leaf_count=12 11 15 9 18 9 10 10 10 10 10
internal_value=0.000542666 0.0244807 0.0517072 0.0295827 -0.0354284 -0.0471193 -0.0475635 -0.0468849 -0.0467123 -0.0465556
internal_weight=18.8528 12.5497 8.62843 6.36687 3.92131 6.30306 2.70156 4.95581 3.68914 2.47901
internal_count=124 72 42 33 30 52 21 42 32 22
is_linear=0
shrinkage=0.05


Tree=46
num_leaves=10
num_cat=0
split_feature=125 18 73 36 17 92 137 5 136
split_gain=23.5102 2.32639 0.630007 0.000394072 0.000128463 9.16331e-05 5.68295e-05 1.9836e-05 1.77001e-05
threshold=0.99505851060951478 0.37845055013260487 0.053986601680137435 0.047324129653653436 0.39069689906832322 0.47900954957220404 0.22937548409593805 0.18381834583661935 0.65306538881839249
decision_type=2 2 2 2 2 2 2 2 2
left_child=2 -2 -1 4 6 -6 7 -4 -7
right_child=1 -3 3 -5 5 8 -8 -9 -10
leaf_value=-0.010939920516350204 0.032403308690106845 0.094612214587654772 -0.046740698682316908 -0.047763697942448488 -0.046990868915747809 -0.046425792811768674 -0.047270854764810841 -0.047013396966683982 -0.046670082780368327
leaf_weight=1.3749083280563379 2.2427947223186484 4.5552534461021423 1.160282358527182 1.3280103802680958 1.4451716467738149 2.0966529920697217 1.6260228827595709 1.5680794417858122 1.1471970975399015
leaf_count=11 10 16 10 10 12 19 13 13 10
internal_value=8.51708e-05 0.0740884 -0.0427433 -0.0469594 -0.0468413 -0.0466597 -0.0470369 -0.0468974 -0.0465122
internal_weight=18.5444 6.79805 11.7463 10.3714 9.04341 4.68902 4.35438 2.72836 3.24385
internal_count=124 26 98 87 77 41 36 23 29
is_linear=0
shrinkage=0.05


Tree=47
num_leaves=10
num_cat=0
split_feature=2 17 99 2 136 58 10 85 0
split_gain=29.4386 0.919554 0.000186401 9.54254e-05 6.87399e-05 4.30471e-05 4.12219e-05 1.85331e-05 1.09179e-05
threshold=0.091007472357460303 0.39069689906832322 0.39470775640768835 0.20406840135260271 0.65306538881839249 0.021415900395500804 0.68095310596833158 0.62714537263364611 0.31665440919593052
decision_type=2 2 2 2 2 2 2 2 2
left_child=1 -1 3 -2 7 -6 8 -4 -5
right_child=2 -3 4 6 5 -7 -8 -9 -10
leaf_value=0.060075596406749393 -0.047608535354910421 0.097396161495858308 -0.046569575635348033 -0.046934708430556166 -0.047278433688267257 -0.046923991588404476 -0.047366439871118098 -0.046836921828651228 -0.047146917324840415
leaf_weight=2.764253422617915 1.8261195942759494 4.0965466499328613 1.1258938834071162 1.1941975727677347 1.3778273612260821 2.2645645961165428 1.6489868909120557 1.528028145432472 1.2307928055524824
leaf_count=10 14 14 10 10 11 19 13 13 10
internal_value=-0.000497202 0.0823595 -0.0471063 -0.0473082 -0.046917 -0.0470581 -0.0471736 -0.0467235 -0.0470424
internal_weight=19.0572 6.8608 12.1964 5.9001 6.29631 3.64239 4.07398 2.65392 2.42499
internal_count=124 24 100 47 53 30 33 23 20
is_linear=0
shrinkage=0.05


end of trees

feature_importances:
Column_0=22
Column_4=20
Column_2=15
Column_5=13
Column_10=11
Column_56=11
Column_64=9
Column_17=8
Column_54=8
Column_105=8
Column_125=8
Column_6=7
Column_9=7
Column_18=7
Column_33=7
Column_146=7
Column_3=6
Column_8=6
Column_58=6
Column_73=6
Column_90=6
Column_109=6
Column_1=5
Column_22=5
Column_26=5
Column_65=5
Column_89=5
Column_113=5
Column_134=5
Column_137=5
Column_29=4
Column_36=4
Column_41=4
Column_42=4
Column_44=4
Column_45=4
Column_46=4
Column_62=4
Column_69=4
Column_72=4
Column_83=4
Column_94=4
Column_114=4
Column_116=4
Column_136=4
Column_23=3
Column_30=3
Column_35=3
Column_53=3
Column_55=3
Column_67=3
Column_74=3
Column_85=3
Column_86=3
Column_88=3
Column_92=3
Column_93=3
Column_118=3
Column_135=3
Column_19=2
Column_20=2
Column_21=2
Column_34=2
Column_43=2
Column_59=2
Column_60=2
Column_61=2
Column_63=2
Column_68=2
Column_76=2
Column_82=2
Column_87=2
Column_102=2
Column_104=2
Column_108=2
Column_119=2
Column_133=2
Column_138=2
Column_139=2
Column_24=1
Column_25=1
Column_31=1
Column_47=1
Column_66=1
Column_70=1
Column_75=1
Column_77=1
Column_79=1
Column_84=1
Column_91=1
Column_96=1
Column_97=1
Column_98=1
Column_99=1
Column_103=1
Column_106=1
Column_131=1
Column_132=1
Column_141=1

parameters:
[boosting: gbdt]
[objective: multiclass]
[metric: custom]
[tree_learner: serial]
[device_type: cpu]
[data_sample_strategy: bagging]
[data: ]
[valid: ]
[num_iterations: 10000]
[learning_rate: 0.05]
[num_leaves: 95]
[num_threads: 0]
[seed: 1238]
[deterministic: 0]
[force_col_wise: 0]
[force_row_wise: 0]
[histogram_pool_size: -1]
[max_depth: -1]
[min_data_in_leaf: 10]
[min_sum_hessian_in_leaf: 0.001]
[bagging_fraction: 1]
[pos_bagging_fraction: 1]
[neg_bagging_fraction: 1]
[bagging_freq: 0]
[bagging_seed: 10438]
[bagging_by_query: 0]
[feature_fraction: 1]
[feature_fraction_bynode: 1]
[feature_fraction_seed: 6707]
[extra_trees: 0]
[extra_seed: 23424]
[early_stopping_round: 0]
[early_stopping_min_delta: 0]
[first_metric_only: 0]
[max_delta_step: 0]
[lambda_l1: 0]
[lambda_l2: 0]
[linear_lambda: 0]
[min_gain_to_split: 0]
[drop_rate: 0.1]
[max_drop: 50]
[skip_drop: 0.5]
[xgboost_dart_mode: 0]
[uniform_drop: 0]
[drop_seed: 18682]
[top_rate: 0.2]
[other_rate: 0.1]
[min_data_per_group: 100]
[max_cat_threshold: 32]
[cat_l2: 10]
[cat_smooth: 10]
[max_cat_to_onehot: 4]
[top_k: 20]
[monotone_constraints: ]
[monotone_constraints_method: basic]
[monotone_penalty: 0]
[feature_contri: ]
[forcedsplits_filename: ]
[refit_decay_rate: 0.9]
[cegb_tradeoff: 1]
[cegb_penalty_split: 0]
[cegb_penalty_feature_lazy: ]
[cegb_penalty_feature_coupled: ]
[path_smooth: 0]
[interaction_constraints: ]
[verbosity: -1]
[saved_feature_importance_type: 0]
[use_quantized_grad: 0]
[num_grad_quant_bins: 4]
[quant_train_renew_leaf: 0]
[stochastic_rounding: 1]
[linear_tree: 0]
[max_bin: 255]
[max_bin_by_feature: ]
[min_data_in_bin: 3]
[bin_construct_sample_cnt: 200000]
[data_random_seed: 4081]
[is_enable_sparse: 1]
[enable_bundle: 1]
[use_missing: 1]
[zero_as_missing: 0]
[feature_pre_filter: 1]
[pre_partition: 0]
[two_round: 0]
[header: 0]
[label_column: ]
[weight_column: ]
[group_column: ]
[ignore_column: ]
[categorical_feature: ]
[forcedbins_filename: ]
[precise_float_parser: 0]
[parser_config_file: ]
[objective_seed: 31546]
[num_class: 6]
[is_unbalance: 0]
[scale_pos_weight: 1]
[sigmoid: 1]
[boost_from_average: 1]
[reg_sqrt: 0]
[alpha: 0.9]
[fair_c: 1]
[poisson_max_delta_step: 0.7]
[tweedie_variance_power: 1.5]
[lambdarank_truncation_level: 30]
[lambdarank_norm: 1]
[label_gain: ]
[lambdarank_position_bias_regularization: 0]
[eval_at: ]
[multi_error_top_k: 1]
[auc_mu_weights: ]
[num_machines: 1]
[local_listen_port: 12400]
[time_out: 120]
[machine_list_filename: ]
[machines: ]
[gpu_platform_id: -1]
[gpu_device_id: -1]
[gpu_use_dp: 0]
[num_gpu: 1]

end of parameters

pandas_categorical:null
