tree
version=v4
num_class=6
num_tree_per_iteration=6
label_index=0
max_feature_idx=147
objective=multiclass num_class:6
feature_names=Column_0 Column_1 Column_2 Column_3 Column_4 Column_5 Column_6 Column_7 Column_8 Column_9 Column_10 Column_11 Column_12 Column_13 Column_14 Column_15 Column_16 Column_17 Column_18 Column_19 Column_20 Column_21 Column_22 Column_23 Column_24 Column_25 Column_26 Column_27 Column_28 Column_29 Column_30 Column_31 Column_32 Column_33 Column_34 Column_35 Column_36 Column_37 Column_38 Column_39 Column_40 Column_41 Column_42 Column_43 Column_44 Column_45 Column_46 Column_47 Column_48 Column_49 Column_50 Column_51 Column_52 Column_53 Column_54 Column_55 Column_56 Column_57 Column_58 Column_59 Column_60 Column_61 Column_62 Column_63 Column_64 Column_65 Column_66 Column_67 Column_68 Column_69 Column_70 Column_71 Column_72 Column_73 Column_74 Column_75 Column_76 Column_77 Column_78 Column_79 Column_80 Column_81 Column_82 Column_83 Column_84 Column_85 Column_86 Column_87 Column_88 Column_89 Column_90 Column_91 Column_92 Column_93 Column_94 Column_95 Column_96 Column_97 Column_98 Column_99 Column_100 Column_101 Column_102 Column_103 Column_104 Column_105 Column_106 Column_107 Column_108 Column_109 Column_110 Column_111 Column_112 Column_113 Column_114 Column_115 Column_116 Column_117 Column_118 Column_119 Column_120 Column_121 Column_122 Column_123 Column_124 Column_125 Column_126 Column_127 Column_128 Column_129 Column_130 Column_131 Column_132 Column_133 Column_134 Column_135 Column_136 Column_137 Column_138 Column_139 Column_140 Column_141 Column_142 Column_143 Column_144 Column_145 Column_146 Column_147
feature_infos=[0:1.0000000000000002] [0:1] [0:1] [0:1] [0:0.99717114568599707] [0:1] [0:1] [0.087333799860040529:1] [0:1] [0:0.92452556859336532] [0:1] [0:1.0000000000000002] [0:1.0000000000000002] [0:1] [0:1] [0:1] [0:1] [0.0040145685766594039:1] [0.0030447567291910943:1] [0.0038727459762971693:1] [0.0037855337774200149:1] [0:0.99976616750280811] [0:0.99774094757444476] [0:0.99979039476191756] [0:1] [0:0.82781462549888496] [0.0037453201307355924:0.95880156994768317] [0:0.8366248059758461] [0:0.94161073667969908] [0:1] [0:0.99999999999999989] [0:0.99999999999999989] [0:1] [0:1] [0:1] [0:1] [0:0.99999999999999989] [0:1] [0:1] [0:1] [0:1] [0:1] [0:1] [0:1] [0:1] [0.087947882736152394:0.9804560260586257] [0.026578073089694954:0.97342192691029794] [0.083881578947369917:0.98519736842104066] [0.06478405315614566:0.97729789590254512] [0.087593721916590539:0.98699880951196661] [0.026737768496417402:0.97995769147320289] [0.083001254822860915:0.99197348956352016] [0.063782457564521167:0.98422632734649085] [0:1] [0:1] [0:1] [0:1] [0:1] [0:1] [0:1] [0:0.98999999999999999] [0:1] [0:1] [0:1] [0:1] [0:1] [0:1] [0:1] [0:1] [0:0.99872964687141574] [0:1] [0:0.9991826700809775] [0:1] [0:1] [0:1] [0:0.99999999999999989] [0:0.99999999999999989] [0:1] [0.0057619047021364288:0.99999999999999978] [0:1] [0:0.99999999999999989] [0.016146854689155485:0.99613049069617943] [0:1] [0.01329418961442369:0.99645377881141206] [0:1] [0:1] [0:0.97008104841418386] [0:1] [0:0.99999999999999989] [0:1] [0.051590550036289928:0.99946035906300679] [0:1] [0:1] [0:1] [0:0.99999999999999989] [0:1] [0:1] [0.003144875689339664:0.99999999999999989] [0.0024792095388309408:1.0000000000000002] [0.0031330075889753352:1] [0.0028564109912821464:0.99999999999999989] [0.0029701623229295084:1] [0.0029478270306753196:1] [0.0029589532937861177:1] [0.002947504875428204:0.99999999999999989] [0:1] [0:1] [0:1] [0:0.99999999999999956] [0:0.9487179487179489] [0:0.9487179487179489] [0:0.9487179487179489] [0:0.9487179487179489] [0:1] [0:1] [0:1] [0:0.99999999999999989] [0.039682539682539764:1] [0.016000000000000014:1] [0.031872509960159334:0.99999999999999978] [0.025299600532623367:0.99999999999999978] [0.09090909090908994:0.90909090909090828] [0.09090909090908994:0.90909090909090828] [0.09090909090908994:0.90909090909090828] [0.09090909090908994:0.90909090909090828] [0:1] [0:1] [0:1] [0:1] [0:1] [0:1] [0:1] [0:0.99999999999999989] [0.0031729096822938523:0.84085000507382768] [0.0041417000927935722:0.94334263929180118] [0.0030069365895303841:0.79246117192919807] [0.0034295297268826354:0.81619198117178238] [0.0028985561527462419:0.72677595628415315] [0:1] [0.0029327939359025511:0.78612716763005808] [0:0.9495708154506437] [0:0.83333333333333326] [0:0.88888888888888884] [0:0.8333334166666666] [0:0.66666666666666663] [0:0.70208871798177075] [0:0.1069137109783363] [0:1]
tree_sizes=449 658 751 652 655 651 1109 1216 1209 1099 1211 1213 1112 1319 1201 1200 1332 1105 1223 1313 1207 1307 1319 1211 1219 1204 1100 1201 1215 1212 1213 1213 1209 1310 1214 1215 1214 1219 1315 1193 1213 1217 1108 1314 1204 1202 1323 1105 1220 1210 1196 1206 1217 1217 1220 1209 1199 1205 1214 1108 1215 1321 1207 1207 1326 1324 1434 1209 1201 1207 1322 1115

Tree=0
num_leaves=3
num_cat=0
split_feature=72 33
split_gain=79.41 9.11365
threshold=0.52339827219800816 0.0116084674582609
decision_type=2 2
left_child=-1 -2
right_child=1 -3
leaf_value=-1.8259209403079006 -1.6778241650721666 -1.5297273898364327
leaf_weight=16.543236404657367 1.6880853474140156 2.7009365558624268
leaf_count=98 10 16
internal_value=-1.77576 -1.58669
internal_weight=20.9323 4.38902
internal_count=124 26
is_linear=0
shrinkage=1


Tree=1
num_leaves=5
num_cat=0
split_feature=90 60 3 3
split_gain=51.9167 18.0725 0.552518 1.77636e-15
threshold=0.96901543979311389 1.0000000180025095e-35 0.24533710103752554 0.34521693572009166
decision_type=2 2 2 2
left_child=1 -1 -3 -4
right_child=-2 2 3 -5
leaf_value=-1.7202223754615562 -1.5899092671940975 -1.8434274960053347 -1.8742287761412793 -1.8742287761412793
leaf_weight=2.2726327478885713 2.1103018373250952 1.6233091056346882 3.8959418535232535 10.226847365498541
leaf_count=14 13 10 24 63
internal_value=-1.82455 -1.85203 -1.87105 -1.87423
internal_weight=20.129 18.0187 15.7461 14.1228
internal_count=124 111 97 87
is_linear=0
shrinkage=1


Tree=2
num_leaves=6
num_cat=0
split_feature=42 2 17 63 0
split_gain=22.807 17.4162 9.12464 2.19323 1.77636e-15
threshold=1.0000000180025095e-35 0.27330173775671412 0.21187812700916867 0.10417934385370926 0.40978770814491944
decision_type=2 2 2 2 2
left_child=1 -1 -2 -4 -5
right_child=2 -3 3 4 -6
leaf_value=-1.7963015852607538 -1.7025069609447891 -1.5889660999307262 -1.7791535376018794 -1.8259209403079006 -1.8259209403079006
leaf_weight=1.6880853474140192 2.0257024168968227 2.5321280211210251 3.2073621600866309 4.22021336853504 7.2587669938802719
leaf_count=10 12 15 19 25 43
internal_value=-1.77576 -1.6719 -1.80199 -1.81571 -1.82592
internal_weight=20.9323 4.22021 16.712 14.6863 11.479
internal_count=124 25 99 87 68
is_linear=0
shrinkage=1


Tree=3
num_leaves=5
num_cat=0
split_feature=90 61 44 8
split_gain=19.4647 8.63176 5.58151 0.512335
threshold=0.48342924238210777 0.01299811525538405 0.15778081424264223 0.40176813525786198
decision_type=2 2 2 2
left_child=-1 -2 3 -3
right_child=1 2 -4 -5
leaf_value=-1.6284585733269221 -1.7167970006605178 -1.796301585260754 -1.7479752691311985 -1.8259209403079006
leaf_weight=2.0257024168968227 3.2073621600866344 1.6880853474140156 3.2073621600866309 10.803746223449705
leaf_count=12 19 10 19 64
internal_value=-1.77576 -1.79154 -1.80681 -1.82192
internal_weight=20.9323 18.9066 15.6992 12.4918
internal_count=124 112 93 74
is_linear=0
shrinkage=1


Tree=4
num_leaves=5
num_cat=0
split_feature=125 99 1 9
split_gain=62.9092 5.90241 3.91503 1.77636e-15
threshold=0.99983854854515564 0.39749580691084191 0.35263681084212412 0.070822763523788829
decision_type=2 2 2 2
left_child=2 -2 3 -1
right_child=1 -3 -4 -5
leaf_value=-1.8259209403079006 -1.6531413691995442 -1.5297273898364327 -1.7518725526900336 -1.8259209403079006
leaf_weight=2.5321280211210313 2.0257024168968196 1.8568938821554182 2.0257024168968192 12.491831570863722
leaf_count=15 12 11 12 74
internal_value=-1.77576 -1.59412 -1.81712 -1.82592
internal_weight=20.9323 3.8826 17.0497 15.024
internal_count=124 23 101 89
is_linear=0
shrinkage=1


Tree=5
num_leaves=5
num_cat=0
split_feature=2 0 2 0
split_gain=81.2728 3.02413 0.555631 3.55271e-15
threshold=0.082118972543152716 0.41613894564484016 0.1357207403938275 0.23864526396513996
decision_type=2 2 2 2
left_child=1 -1 -2 -4
right_child=2 -3 3 -5
leaf_value=-1.6586198151896669 -1.8434274960053347 -1.5662159747818327 -1.8742287761412793 -1.8742287761412793
leaf_weight=1.6233091056346922 1.6233091056346918 1.947970926761627 2.759625479578971 12.174818292260168
leaf_count=10 10 12 17 75
internal_value=-1.82455 -1.60822 -1.87121 -1.87423
internal_weight=20.129 3.57128 16.5578 14.9344
internal_count=124 22 102 92
is_linear=0
shrinkage=1


Tree=6
num_leaves=9
num_cat=0
split_feature=72 6 65 130 107 7 90 113
split_gain=64.6869 6.96056 2.85767e-05 2.54581e-05 2.08743e-05 2.02087e-05 1.55538e-05 6.61789e-06
threshold=0.52339827219800816 0.0090613035892617311 0.26348212634772267 0.023944854265688296 0.55952201456379391 0.86018194541637538 0.90202153299494903 0.31858157393238856
decision_type=2 2 2 2 2 2 2 2
left_child=2 -2 3 -1 -4 6 7 -5
right_child=1 -3 4 5 -6 -7 -8 -9
leaf_value=-0.049456308838824604 0.080180026545595862 0.20151950955361864 -0.049898240069647284 -0.049590471282335159 -0.049673525067021669 -0.049500153296107144 -0.049818029291559089 -0.049698602601646491
leaf_weight=2.2290315181016949 1.8922843039035786 3.1482665538787842 1.6528717279434193 2.8995044082403165 2.7576293796300888 1.9178563356399534 1.6417458504438398 2.7637517154216766
leaf_count=14 10 16 10 18 17 12 10 17
internal_value=-6.7015e-05 0.155967 -0.0496496 -0.049608 -0.0497577 -0.0496446 -0.0496825 -0.0496432
internal_weight=20.9029 5.04055 15.8624 11.4519 4.4105 9.22286 7.305 5.66326
internal_count=124 26 98 71 27 57 45 35
is_linear=0
shrinkage=0.05


Tree=7
num_leaves=10
num_cat=0
split_feature=5 87 61 60 3 59 89 64 5
split_gain=40.6894 18.9798 0.54394 0.000295108 8.21971e-05 1.27948e-05 7.84095e-06 9.78848e-06 9.20437e-07
threshold=0.18381834583661935 0.52195512174793601 0.61124223196888217 0.0025000000000000001 0.31217208814270736 0.010652802252613057 0.83947344435661186 0.18500000000000003 0.94840946683270222
decision_type=2 2 2 2 2 2 2 2 2
left_child=-1 -2 3 -3 -5 -6 7 -7 -9
right_child=1 2 -4 4 5 6 -8 8 -10
leaf_value=0.18936820190338272 0.11216393103989541 -0.049963062865747587 -0.018630287018500575 -0.049493892329591685 -0.049069430672678362 -0.049317981105912075 -0.049117417665355774 -0.049161829734510346 -0.049213922110413408
leaf_weight=2.4855287224054363 2.1579182446002987 1.654080569744109 1.6100004315376271 2.7147584557533255 1.9980480074882487 2.3587338477373123 1.6982564926147459 1.8606996238231661 1.5580188930034635
leaf_count=13 13 10 10 17 13 15 11 12 10
internal_value=-1.08294e-05 -0.0267396 -0.0461371 -0.0493364 -0.0492513 -0.0491818 -0.0492119 -0.0492396 -0.0491856
internal_weight=20.096 17.6105 15.4526 13.8426 12.1885 9.47376 7.47571 5.77745 3.41872
internal_count=124 111 98 88 78 61 48 37 22
is_linear=0
shrinkage=0.05


Tree=8
num_leaves=10
num_cat=0
split_feature=42 2 20 63 137 100 100 10 6
split_gain=19.6652 13.2168 8.2677 1.98092 2.67261 1.89488e-05 1.83393e-05 1.05854e-05 4.47277e-06
threshold=1.0000000180025095e-35 0.27330173775671412 0.20093433377146994 0.10417934385370926 0.48743092918873893 0.37288151965462685 0.30903652674759735 0.43374300119814307 0.014354066985645937
decision_type=2 2 2 2 2 2 2 2 2
left_child=1 -1 -2 4 -4 6 -5 -7 -9
right_child=2 -3 3 5 -6 7 -8 8 -10
leaf_value=-0.019894385804652359 0.066334963575536157 0.15732041619757697 -0.050206082664285195 -0.049637290080952412 0.038714237795515569 -0.049695218328291262 -0.049864097713315583 -0.049509194088166578 -0.049603241066362824
leaf_weight=1.6623086929321313 2.1328467726707485 2.866284042596817 1.6924797445535653 1.9406167268753036 1.6876628994941709 2.1128261983394623 1.6482665687799452 2.2394979298114777 2.903056412935257
leaf_count=10 12 15 10 12 10 13 10 14 18
internal_value=6.27277e-05 0.0922703 -0.0254654 -0.0392302 -0.00580928 -0.0496475 -0.0497415 -0.049601 -0.0495623
internal_weight=20.8858 4.52859 16.3573 14.2244 3.38014 10.8443 3.58888 7.25538 5.14255
internal_count=124 25 99 87 20 67 22 45 32
is_linear=0
shrinkage=0.05


Tree=9
num_leaves=9
num_cat=0
split_feature=90 63 44 58 8 8 44 2
split_gain=16.044 8.56309 5.28758 0.526534 3.98694e-05 6.51108e-06 2.54016e-06 3.93732e-07
threshold=0.48342924238210777 0.011628360535684282 0.15778081424264223 1.0000000180025095e-35 0.67483055645764378 0.84617288800123613 0.051296786142620496 0.65532159156911785
decision_type=2 2 2 2 2 2 2 2
left_child=-1 -2 3 -3 -5 6 -6 -8
right_child=1 2 -4 4 5 -7 7 -9
leaf_value=0.12629685200639618 0.05978406622736563 -0.019202138343239999 0.02598646794381327 -0.049845740405009949 -0.049543067849087137 -0.049690727764841035 -0.049637467857822547 -0.04960255447303042
leaf_weight=2.2475824952125576 3.1670918315649059 1.6355057805776585 3.2714277803897849 2.9623694419860822 1.6043759137392042 2.7617370784282684 1.6174012720584872 1.6127140820026395
leaf_count=12 18 10 19 18 10 17 10 10
internal_value=0.000103136 -0.0151191 -0.0304581 -0.045601 -0.0496902 -0.0496295 -0.0495945 -0.04962
internal_weight=20.8802 18.6326 15.4655 12.1941 10.5586 7.59623 4.83449 3.23012
internal_count=124 112 94 75 65 47 30 20
is_linear=0
shrinkage=0.05


Tree=10
num_leaves=10
num_cat=0
split_feature=125 1 55 54 5 3 134 115 55
split_gain=51.2084 3.73182 3.45405 4.17857e-05 2.35385e-05 3.44482e-05 1.31075e-05 5.51943e-06 1.29833e-06
threshold=0.99983854854515564 0.35263681084212412 0.23392920340578635 0.026679355512335339 0.18381834583661935 0.31217208814270736 0.76516493382630502 0.3062884003714787 0.90265576881417575
decision_type=2 2 2 2 2 2 2 2 2
left_child=1 3 -2 -1 -5 -6 7 8 -7
right_child=2 -3 -4 4 5 6 -8 -9 -10
leaf_value=-0.049415494881458792 0.19996844061390182 0.022231931863124693 0.11118718954942497 -0.049522910349643179 -0.049863403017934002 -0.049546486493603832 -0.049766941949069138 -0.04967933526535484 -0.049606238934943404
leaf_weight=1.7436780780553878 1.9792111068963993 2.0648139268159857 2.4537191987037659 2.0820100456476203 2.6370783597230893 1.6047382652759554 1.9619781225919721 2.2720264196395874 2.0971863120794296
leaf_count=11 10 12 13 13 16 10 12 14 13
internal_value=-1.51218e-05 -0.0406303 0.150826 -0.049645 -0.0496766 -0.0497068 -0.0496548 -0.049618 -0.0495803
internal_weight=20.8964 16.4635 4.43293 14.3987 12.655 10.573 7.93593 5.97395 3.70192
internal_count=124 101 23 89 78 65 49 37 23
is_linear=0
shrinkage=0.05


Tree=11
num_leaves=10
num_cat=0
split_feature=2 97 84 4 114 44 5 56 53
split_gain=64.3612 2.73656 0.589019 5.71403e-05 2.21021e-05 2.17104e-05 1.02647e-05 1.89431e-05 1.04889e-06
threshold=0.082118972543152716 0.39199180612329676 0.057037866881307568 0.81612446958981621 0.33002266417258658 0.045362898284599933 0.71848159649662757 0.45831890856053781 0.98244472620538759
decision_type=2 2 2 2 2 2 2 2 2
left_child=1 -1 -2 4 6 -6 7 -4 -9
right_child=2 -3 3 -5 5 -7 -8 8 -10
leaf_value=0.1299301609928771 -0.016735108247281884 0.21090003307431912 -0.048962950539628076 -0.049443780551693448 -0.04913059156180985 -0.049365814663115404 -0.049243794095026168 -0.049184867354449352 -0.049133228093228364
leaf_weight=1.9223005920648599 1.5439023077487934 2.2826390713453293 1.6730985939502696 2.703441470861434 1.5458947718143461 2.6842388659715652 1.7180784493684766 2.3306568562984467 1.7010678946971891
leaf_count=10 10 12 11 17 10 17 11 15 11
internal_value=-7.6058e-05 0.173884 -0.0460808 -0.0492367 -0.0491886 -0.0492799 -0.0491367 -0.0491044 -0.0491631
internal_weight=20.1053 4.20494 15.9004 14.3565 11.653 4.23013 7.4229 5.70482 4.03172
internal_count=124 22 102 92 75 27 48 37 26
is_linear=0
shrinkage=0.05


Tree=12
num_leaves=9
num_cat=0
split_feature=84 146 104 53 105 30 71 28
split_gain=54.1935 5.9925 0.000625213 8.75281e-05 5.75069e-05 4.68668e-05 3.42629e-05 2.33554e-05
threshold=0.74237806561693598 0.065813360704753493 0.5202618693136225 0.70105994578295772 0.45551082384413216 0.5666577729875899 0.099123464221531773 0.68859060434989428
decision_type=2 2 2 2 2 2 2 2
left_child=2 -2 3 5 -5 6 7 -1
right_child=1 -3 -4 4 -6 -7 -8 -9
leaf_value=-0.049361666724495656 0.057932964190766136 0.16821946695351281 -0.050151493340012371 -0.049553168792174085 -0.049193822919297192 -0.048887969126250139 -0.048952490380300612 -0.049130302072676491
leaf_weight=1.7354477494955078 1.8225383907556523 3.7993299812078476 1.8383726477622975 1.9253920316696156 2.6398549377918243 2.4163572043180466 1.6719098687171934 2.936316192150116
leaf_count=11 10 17 11 12 17 16 11 19
internal_value=-0.000128277 0.132466 -0.0492871 -0.0491679 -0.0493454 -0.0490754 -0.0491467 -0.0492162
internal_weight=20.7855 5.62187 15.1637 13.3253 4.56525 8.76003 6.34367 4.67176
internal_count=124 27 97 86 29 57 41 30
is_linear=0
shrinkage=0.05


Tree=13
num_leaves=11
num_cat=0
split_feature=56 22 130 77 63 109 72 134 3 98
split_gain=35.0132 8.26425 4.57653 0.578759 0.000527817 0.000133052 6.44922e-05 2.89898e-05 2.75853e-05 1.00258e-05
threshold=0.87003758448507973 0.42457917556461156 0.70106066808511469 0.69410067222287453 0.37513433710757499 0.29315487841382548 0.0092413952348590969 0.76274606525212474 0.3674273991231129 0.33521703252719187
decision_type=2 2 2 2 2 2 2 2 2 2
left_child=2 -2 3 4 5 6 -1 8 9 -7
right_child=1 -3 -4 -5 -6 7 -8 -9 -10 -11
leaf_value=-0.049327081865393883 0.17299451766415752 0.034969071132105643 0.045006193249305666 -0.016321860131920878 -0.049697426576090387 -0.048791761029887075 -0.048869270680947437 -0.048522419925817933 -0.048933921893719395 -0.048626192901096453
leaf_weight=1.5727608948946019 2.8692219406366339 1.7434755861759184 1.5583634078502644 1.5249574333429325 2.1092584729194632 1.4949013441801073 1.5057472139596937 1.600920721888542 1.6681613177061079 2.3542991727590561
leaf_count=10 14 10 9 10 13 10 10 11 11 16
internal_value=-7.28122e-06 0.120825 -0.0362246 -0.045377 -0.0489774 -0.0488285 -0.0491032 -0.0487097 -0.0487641 -0.0486905
internal_weight=20.0021 4.6127 15.3894 13.831 12.306 10.1968 3.07851 7.11828 5.51736 3.8492
internal_count=124 24 100 91 81 68 20 48 37 26
is_linear=0
shrinkage=0.05


Tree=14
num_leaves=10
num_cat=0
split_feature=42 2 20 63 10 33 8 114 35
split_gain=17.0478 10.3182 7.42453 1.92904 2.593 5.9233e-05 3.82599e-05 1.21525e-05 5.01957e-06
threshold=1.0000000180025095e-35 0.27330173775671412 0.20093433377146994 0.10417934385370926 0.53258221680876983 0.0116084674582609 0.65545685279187826 0.35272464351548932 0.020001718987401881
decision_type=2 2 2 2 2 2 2 2 2
left_child=1 -1 -2 4 -4 6 -5 8 -7
right_child=2 -3 3 5 -6 7 -8 -9 -10
leaf_value=-0.019248570958552095 0.059549761011588466 0.13535250985340713 -0.05000632034861039 -0.049476032286016096 0.037781893335116445 -0.049058228899088341 -0.049174658613625362 -0.04915931496567813 -0.048947816760224083
leaf_weight=1.6367053538560892 2.247113659977912 3.1686456799507141 1.6624959260225289 1.7532850950956325 1.7025494575500486 2.1497103571891785 2.6370510011911392 1.8596535325050352 1.975166782736778
leaf_count=10 12 15 10 11 10 14 17 12 13
internal_value=0.00011558 0.0826953 -0.0247061 -0.0384858 -0.00558975 -0.0491555 -0.049295 -0.0490532 -0.0490054
internal_weight=20.7924 4.80535 15.987 13.7399 3.36505 10.3749 4.39034 5.98453 4.12488
internal_count=124 25 99 87 20 67 28 39 27
is_linear=0
shrinkage=0.05


Tree=15
num_leaves=10
num_cat=0
split_feature=23 33 77 23 65 5 62 24 63
split_gain=13.7792 18.6814 18.1729 7.95271 0.468727 0.00136937 0.000717052 0.000144579 6.31127e-06
threshold=0.68588287915685175 1.0000000180025095e-35 0.127465734521818 0.90065796675453524 0.12799024208015444 0.92055147934538095 0.030345936375621239 0.4138153850816973 0.55116462722309589
decision_type=2 2 2 2 2 2 2 2 2
left_child=6 2 -2 -4 5 -3 -1 8 -8
right_child=1 4 3 -5 -6 -7 7 -9 -10
leaf_value=-0.050284627600479581 -0.029443502575325138 -0.051151420037788879 0.19314590440625901 0.065652809629943645 -0.017415453518195123 -0.049166274461203814 -0.049178522864805112 -0.049653168930213612 -0.049052757728727692
leaf_weight=2.544207692146303 2.3770021945238096 1.9746755659580233 2.8543920814990997 2.1403206139802933 1.5674510449171064 1.5510745346546171 1.862292483448982 1.7748021781444547 2.1483174264431
leaf_count=15 14 11 15 12 10 10 12 11 14
internal_value=0.000204586 0.0334763 0.0843555 0.138513 -0.0401645 -0.0502781 -0.0495851 -0.0492774 -0.0491112
internal_weight=20.7945 12.4649 7.37171 4.99471 5.0932 3.52575 8.32962 5.78541 4.01061
internal_count=124 72 41 27 31 21 52 37 26
is_linear=0
shrinkage=0.05


Tree=16
num_leaves=11
num_cat=0
split_feature=125 1 99 73 59 33 44 53 1 39
split_gain=42.7763 3.60543 2.95054 0.000114979 7.88305e-05 8.89387e-05 4.97979e-05 6.25473e-05 1.30144e-05 5.39979e-06
threshold=0.99983854854515564 0.35263681084212412 0.39749580691084191 0.18970170292415475 0.010652802252613057 0.00073513626388128927 0.048581523293171031 0.95576665069491262 0.0033504726063936035 0.012679313277670365
decision_type=2 2 2 2 2 2 2 2 2 2
left_child=1 3 -2 4 -1 8 -5 -8 -6 -9
right_child=2 -3 -4 6 5 -7 7 9 -10 -11
leaf_value=-0.049004192964211435 0.090025764044457529 0.021359593537873443 0.16755549836329314 -0.048837780218539732 -0.049471062234369943 -0.049134571396284951 -0.049380142619932121 -0.049057294769231125 -0.049667616342137975 -0.048927269765167675
leaf_weight=1.5264491736888901 2.4431060552597037 2.0857850462198249 2.4656826108694077 2.2538635581731796 1.7523784935474398 1.8557453602552412 1.5812519639730451 1.6889282613992693 1.6213923990726469 1.5144845545291898
leaf_count=10 12 12 11 15 11 12 10 11 10 10
internal_value=-3.28866e-05 -0.0399089 0.128969 -0.049173 -0.0493203 -0.0494126 -0.0490316 -0.0491228 -0.0495655 -0.0489958
internal_weight=20.7891 15.8803 4.90879 13.7945 6.75597 5.22952 7.03853 4.78466 3.37377 3.20341
internal_count=124 101 23 89 43 33 46 31 21 21
is_linear=0
shrinkage=0.05


Tree=17
num_leaves=9
num_cat=0
split_feature=2 5 4 1 56 26 60 60
split_gain=54.0552 4.31784 0.000147936 7.57397e-05 4.23548e-05 4.09481e-05 1.96847e-05 1.24983e-05
threshold=0.10900473933649292 0.92210282104919383 0.78359264497878367 0.0089091721046099508 0.82398077857276031 0.84774814219835204 0.0036637050901704906 0.062859606416301825
decision_type=2 2 2 2 2 2 2 2
left_child=1 -1 3 4 6 -4 -2 -8
right_child=2 -3 5 -5 -6 -7 7 -9
leaf_value=0.078812872163285044 -0.04842584835477487 0.17346232555799859 -0.049234182460764574 -0.048974152740794592 -0.048811096481376 -0.048890330459321049 -0.048733705787426036 -0.048564136301391121
leaf_weight=1.9031134545803094 1.5832146555185298 3.2845817804336548 2.0287170559167857 2.2817198038101187 2.8450110405683517 1.5104756355285642 1.7848443686962125 2.7779547870159149
leaf_count=10 11 15 13 15 19 10 12 19
internal_value=-0.000158094 0.13874 -0.0488054 -0.0487169 -0.0486516 -0.0490874 -0.0485778 -0.0486305
internal_weight=19.9996 5.1877 14.8119 11.2727 8.99102 3.53919 6.14601 4.5628
internal_count=124 25 99 76 61 23 42 31
is_linear=0
shrinkage=0.05


Tree=18
num_leaves=10
num_cat=0
split_feature=72 6 53 61 59 109 107 114 65
split_gain=47.2997 3.62966 0.000165987 9.72424e-05 6.64074e-05 9.70139e-05 4.79221e-05 3.63483e-05 1.2425e-05
threshold=0.52339827219800816 0.0090613035892617311 0.70105994578295772 0.098849787694933924 0.0051064629887533014 0.36593185741088169 0.42307692307692274 0.35293138733392776 0.10347445446755318
decision_type=2 2 2 2 2 2 2 2 2
left_child=2 -2 4 -4 -1 -6 -5 8 -7
right_child=1 -3 3 6 5 7 -8 -9 -10
leaf_value=-0.048348624404298657 0.064946358949016736 0.14654462640773733 -0.048663967952491803 -0.049324172141348765 -0.049047766311407226 -0.048392186196778125 -0.048970062498399608 -0.048754520149748154 -0.048585421187763982
leaf_weight=1.7141583114862458 2.0944152325391761 3.9016425460577011 1.7683590203523625 1.573207154870033 1.5317764133214948 1.579405725002289 2.4330833703279495 2.2349806278944016 1.7576644271612165
leaf_count=12 10 16 12 10 10 11 16 15 12
internal_value=-0.000185147 0.118042 -0.0487644 -0.0489728 -0.048628 -0.0486954 -0.0491091 -0.0485985 -0.048494
internal_weight=20.5887 5.99606 14.5926 5.77465 8.81799 7.10383 4.00629 5.57205 3.33707
internal_count=124 26 98 38 60 48 26 38 23
is_linear=0
shrinkage=0.05


Tree=19
num_leaves=11
num_cat=0
split_feature=56 7 129 66 63 79 107 0 113 65
split_gain=29.7008 6.49327 4.81436 0.574305 0.0003086 0.000222759 0.000168793 9.30119e-05 2.84003e-05 1.73034e-05
threshold=0.87003758448507973 0.77781665500349828 0.72212497953312382 0.879598958828675 0.40500000000000008 0.67668164615256099 0.1923074725274723 0.43382161695117283 0.32390487338017382 0.082281277366043057
decision_type=2 2 2 2 2 2 2 2 2 2
left_child=2 -2 3 4 6 -6 -1 8 9 -8
right_child=1 -3 -4 -5 5 -7 7 -9 -10 -11
leaf_value=-0.048853408151565934 0.03028248751486555 0.14865054289779181 0.050842781530211434 -0.015720333243523978 -0.049368040086328946 -0.048531312031916532 -0.047976547065436484 -0.048587514111940219 -0.048328299951278984 -0.048195573447303013
leaf_weight=1.5028394460678116 1.824823573231696 3.1734950095415115 1.4573922008275975 1.5026260763406742 1.5794075280427926 1.6025144606828687 1.7813141644001009 1.7555689662694929 1.8518411517143247 1.826172202825546
leaf_count=10 10 14 8 10 10 11 13 12 13 13
internal_value=2.26838e-06 0.105436 -0.0354622 -0.0448472 -0.0485252 -0.0489466 -0.0483713 -0.0482709 -0.0481691 -0.0480874
internal_weight=19.858 4.99832 14.8597 13.4023 11.8997 3.18192 8.71774 7.2149 5.45933 3.60749
internal_count=124 24 100 92 82 21 61 51 39 26
is_linear=0
shrinkage=0.05


Tree=20
num_leaves=10
num_cat=0
split_feature=42 86 118 97 74 63 33 44 114
split_gain=14.8096 8.53334 6.8567 3.02902 0.57818 0.000654034 0.000109673 4.89032e-05 4.27727e-05
threshold=1.0000000180025095e-35 0.78536162739556115 0.42800000000000021 0.28369893969297189 0.60885421522858352 0.10417934385370926 0.0116084674582609 0.048581523293171031 0.35272464351548932
decision_type=2 2 2 2 2 2 2 2 2
left_child=1 -1 3 -2 5 -5 7 -7 -8
right_child=2 -3 -4 4 -6 6 8 -9 -10
leaf_value=0.017389355046001396 0.020360799179781657 0.14843083180979674 0.075375038397836311 -0.049713949004671833 -0.015804428223777447 -0.048777447101772675 -0.048438062405357182 -0.049143053019756869 -0.048752475773393603
leaf_weight=2.8463435024023083 2.1014055162668219 2.2045723497867584 1.5641279816627491 2.1094824075698844 1.5080767720937718 2.2393068969249712 2.7416126728057861 1.5461737215518949 1.7865876555442808
leaf_count=15 12 10 8 13 10 15 19 10 12
internal_value=0.000173857 0.074585 -0.0239237 -0.0349919 -0.044741 -0.0489277 -0.0487282 -0.0489268 -0.0485621
internal_weight=20.6477 5.05092 15.5968 14.0326 11.9312 10.4232 8.31368 3.78548 4.5282
internal_count=124 25 99 91 79 69 56 25 31
is_linear=0
shrinkage=0.05


Tree=21
num_leaves=11
num_cat=0
split_feature=76 22 32 67 24 1 72 24 6 42
split_gain=13.0427 18.4953 5.82727 5.546 0.538538 0.477287 0.000823479 0.000570981 0.000176376 3.75507e-05
threshold=0.15256409332089133 0.78382743703279423 0.50687895004890549 0.21434009883898383 0.66882550208551239 0.10303171281237912 0.0002404201821376086 0.47732352753967894 0.0073220198119597129 0.041501068810444429
decision_type=2 2 2 2 2 2 2 2 2 2
left_child=1 3 -3 -1 7 6 -4 8 -2 -10
right_child=4 2 5 -5 -6 -7 -8 -9 9 -11
leaf_value=0.18562098494309101 -0.04917493965387229 0.055479811833509696 -0.05073419154534619 0.067148724199711407 -0.016029129060288715 -0.016650322458743084 -0.04922289568897139 -0.049848955228738195 -0.048485572091434677 -0.048811003863172622
leaf_weight=1.8781970143318196 2.3225635141134244 2.3166040033102036 1.7416242212057116 2.0838383883237839 1.4651644229888914 1.5327955335378645 1.8682157695293424 1.8020917177200315 2.1750163137912755 1.4961748123168943
leaf_count=9 15 12 10 11 9 10 12 11 15 10
internal_value=0.000252771 0.0360069 -0.0103651 0.12331 -0.0438415 -0.0400263 -0.049952 -0.0490686 -0.0488339 -0.0486182
internal_weight=20.6823 11.4213 7.45924 3.96204 9.26101 5.14264 3.60984 7.79585 5.99375 3.67119
internal_count=124 64 44 20 60 32 22 51 40 25
is_linear=0
shrinkage=0.05


Tree=22
num_leaves=11
num_cat=0
split_feature=125 1 22 75 60 60 125 56 70 101
split_gain=36.5789 4.87203 2.33115 0.000280668 0.000380825 7.12532e-05 6.45086e-05 3.6426e-05 3.65951e-05 8.69571e-06
threshold=0.99983854854515564 0.40983606557377056 0.82991084964434325 0.18575713334740748 0.1880624424242211 0.027500000000000004 0.76445084372214411 0.82398077857276031 0.48779522378186874 0.72840156531223188
decision_type=2 2 2 2 2 2 2 2 2 2
left_child=1 3 -2 4 5 -1 -7 9 -9 -5
right_child=2 -3 -4 7 -6 6 -8 8 -10 -11
leaf_value=-0.04847253440013808 0.07508665238430301 0.043737361896048807 0.14206469469877189 -0.048521802554785408 -0.049555958620867063 -0.04912917602625002 -0.048687401937203209 -0.048517809220697206 -0.04886951652891966 -0.048365114747671953
leaf_weight=1.4470431357622162 2.2819000035524359 1.5869862586259831 3.0163504183292389 2.3289268910884862 2.2380817532539368 1.5452350825071337 1.7761674523353574 1.453573986887932 1.5057715028524397 1.4286536276340482
leaf_count=10 10 9 13 16 14 10 12 10 10 10
internal_value=-1.88654e-05 -0.039205 0.113218 -0.0487965 -0.0490179 -0.0487654 -0.0488929 -0.0485656 -0.0486968 -0.0484622
internal_weight=20.6087 15.3104 5.29825 13.7235 7.00653 4.76845 3.3214 6.71693 2.95935 3.75758
internal_count=124 101 23 92 46 32 22 46 20 26
is_linear=0
shrinkage=0.05


Tree=23
num_leaves=10
num_cat=0
split_feature=2 0 75 57 63 56 5 0 9
split_gain=45.9785 3.68268 0.00016132 0.000176551 3.88474e-05 3.50803e-05 2.85332e-05 2.69788e-05 9.4711e-06
threshold=0.10900473933649292 0.41308308378276698 0.18575713334740748 0.062602181034659088 0.1497363523344995 0.82398077857276031 0.71848159649662757 0.26162209471027059 0.70470585002839858
decision_type=2 2 2 2 2 2 2 2 2
left_child=1 -1 3 6 -5 8 -2 -7 -4
right_child=2 -3 5 4 -6 7 -8 -9 -10
leaf_value=0.072454101745843269 -0.048072964781404035 0.15431124381277647 -0.048023421390321584 -0.048565074196581876 -0.048863601217815904 -0.04817671024081438 -0.048383988947780003 -0.048484530933987892 -0.048179463600571869
leaf_weight=2.3522807806730297 1.38518415391445 3.3038615137338638 1.9265097007155421 1.8971176743507383 2.5607490688562393 1.4007354080677035 1.5768059343099592 1.4472892135381696 1.9635462164878843
leaf_count=11 10 14 14 13 17 10 11 10 14
internal_value=-0.000235284 0.120268 -0.0483769 -0.0485377 -0.0487366 -0.0481998 -0.0482385 -0.0483331 -0.0481022
internal_weight=19.8141 5.65614 14.1579 7.41986 4.45787 6.73808 2.96199 2.84802 3.89006
internal_count=124 25 99 51 30 48 21 20 28
is_linear=0
shrinkage=0.05


Tree=24
num_leaves=10
num_cat=0
split_feature=72 6 53 107 117 86 130 63 26
split_gain=41.0082 2.91778 0.000214517 0.000140764 7.17937e-05 6.57974e-05 9.64383e-05 4.49607e-05 2.79554e-05
threshold=0.52339827219800816 0.0090613035892617311 0.70105994578295772 0.42307692307692274 0.27753106895059537 0.7331028972237319 0.1670692886741639 0.12005035860819487 0.84774814219835204
decision_type=2 2 2 2 2 2 2 2 2
left_child=2 -2 5 -4 -5 7 -7 -1 -9
right_child=1 -3 3 4 -6 6 -8 8 -10
leaf_value=-0.047840571714553935 0.058022966324830394 0.12916464240527989 -0.048937141278492073 -0.048569631946012021 -0.048115646769132332 -0.04862464597096304 -0.048101908793855903 -0.048032338581883348 -0.048328980352042875
leaf_weight=1.617343425750734 2.1978856474161139 4.1866991072893143 1.8182548135519017 2.3372176587581639 1.3880296945571897 1.613891735672951 1.9464173614978788 1.7934191077947619 1.4255151748657224
leaf_count=12 10 16 12 16 10 11 14 13 10
internal_value=-0.000270329 0.104674 -0.0483351 -0.0485765 -0.0484005 -0.0481757 -0.0483389 -0.0480556 -0.0481637
internal_weight=20.3247 6.38458 13.9401 5.5435 3.72525 8.39659 3.56031 4.83628 3.21893
internal_count=124 26 98 38 26 60 25 35 23
is_linear=0
shrinkage=0.05


Tree=25
num_leaves=10
num_cat=0
split_feature=56 72 90 54 63 72 8 48 0
split_gain=25.5098 4.99402 4.634 0.632183 0.000460253 0.000110493 6.90007e-05 3.32315e-05 2.51788e-05
threshold=0.87003758448507973 0.34570102864876212 0.95130107369314321 0.96902503274299312 0.40500000000000008 1.0000000180025095e-35 0.80573034840292546 0.65777776908000563 0.42986589325527058
decision_type=2 2 2 2 2 2 2 2 2
left_child=2 -2 3 4 5 -1 -6 8 -7
right_child=1 -3 -4 -5 6 7 -8 -9 -10
leaf_value=-0.048218592046209971 0.02767117074111107 0.12906742659043416 0.049309767227260819 -0.01195232591423113 -0.04888245568965624 -0.047618057865995732 -0.048418815075720038 -0.047969977227276965 -0.047883633981236948
leaf_weight=2.3847830593585986 1.8726078569889058 3.4546291381120682 1.4723232835531224 1.3491480946540821 1.5060909837484353 2.2296200767159466 1.7176890224218366 2.1874343603849411 1.4881604909896848
leaf_count=17 10 14 8 9 10 17 12 16 11
internal_value=1.58394e-06 0.093425 -0.0347163 -0.0443341 -0.0481285 -0.0479313 -0.0486354 -0.0478153 -0.0477244
internal_weight=19.6625 5.32724 14.3352 12.8629 11.5138 8.29 3.22378 5.90521 3.71778
internal_count=124 24 100 92 83 61 22 44 28
is_linear=0
shrinkage=0.05


Tree=26
num_leaves=9
num_cat=0
split_feature=42 2 97 62 63 87 8 42
split_gain=12.9529 7.14326 6.12899 2.06838 0.000713172 0.00016694 5.31524e-05 8.0783e-06
threshold=1.0000000180025095e-35 0.28047512023386123 0.28369893969297189 0.030345936375621239 0.10417934385370926 0.60454946196700388 0.73574254834300923 0.047250573435176489
decision_type=2 2 2 2 2 2 2 2
left_child=1 -1 -2 -4 -5 -6 -7 -8
right_child=2 -3 3 4 5 6 7 -9
leaf_value=-0.0036738197697578669 0.036045478039192648 0.11522424308298562 0.012646310246522855 -0.049440835143489695 -0.04873895702160113 -0.048351265291325309 -0.048138764603417782 -0.048001533529322238
leaf_weight=2.101402863860133 3.3948818594217292 3.1671569347381592 1.6018695831298817 1.5757302790880192 1.6357490569353084 2.7110088765621185 2.0934968739748001 2.1986638903617859
leaf_count=12 18 13 10 10 11 19 15 16
internal_value=0.000234988 0.0678009 -0.0231669 -0.0401786 -0.0484626 -0.0482842 -0.0481779 -0.0480685
internal_weight=20.48 5.26856 15.2114 11.8165 10.2146 8.63892 7.00317 4.29216
internal_count=124 25 99 81 71 61 50 31
is_linear=0
shrinkage=0.05


Tree=27
num_leaves=10
num_cat=0
split_feature=76 22 85 141 121 10 8 26 0
split_gain=11.9171 15.2876 5.28995 4.63471 0.584268 0.00185284 0.000871228 0.000170466 6.3662e-06
threshold=0.15256409332089133 0.78382743703279423 0.65803161773705676 0.020624903140984828 0.26838947532116225 0.51047121438996812 0.69403140953296105 0.30096249178346862 0.33485011001075021
decision_type=2 2 2 2 2 2 2 2 2
left_child=1 3 -3 -1 -2 -4 -6 8 -8
right_child=4 2 5 -5 6 -7 7 -9 -10
leaf_value=0.16320136454613984 -0.013326608428308882 0.035290050796228115 -0.04847265972504837 0.058823714056598968 -0.049444126813617435 -0.050647061028557809 -0.048139442121007139 -0.048664703541430827 -0.047987760266140454
leaf_weight=2.0500683635473269 1.3799741119146327 3.4450082629919052 1.8791851252317431 2.2100411504507065 2.6850137114524841 2.0468211323022842 1.3947996050119402 2.0629492104053497 1.372404873371124
leaf_count=9 9 19 13 11 17 12 10 14 10
internal_value=0.00033381 0.0336508 -0.00992809 0.109053 -0.0432309 -0.0496063 -0.0487221 -0.0483207 -0.0480642
internal_weight=20.5263 11.6311 7.37101 4.26011 8.89514 3.92601 7.51517 4.83015 2.7672
internal_count=124 64 44 20 60 25 51 34 20
is_linear=0
shrinkage=0.05


Tree=28
num_leaves=10
num_cat=0
split_feature=125 1 99 75 60 132 80 67 46
split_gain=31.5633 4.59995 1.90295 0.000275332 0.00038773 6.98851e-05 6.08439e-05 4.00121e-05 1.99866e-05
threshold=0.99983854854515564 0.40983606557377056 0.39749580691084191 0.18575713334740748 0.1880624424242211 0.029383659818442431 0.082849932034383997 0.84024732068269026 0.77506685662648256
decision_type=2 2 2 2 2 2 2 2 2
left_child=1 3 -2 4 5 6 -1 8 -5
right_child=2 -3 -4 7 -6 -7 -8 -9 -10
leaf_value=-0.048242737652844453 0.070837974767747419 0.040614592439644548 0.12894647613178886 -0.047936641167215639 -0.049143306562981381 -0.048070552664835765 -0.048701521302282821 -0.048328465154824293 -0.048147167039093788
leaf_weight=1.4120693951845189 2.7530670911073676 1.6333553791046131 2.8857465386390686 2.0454903990030289 2.1540587544441223 1.6603211909532545 1.4802248477935789 1.848596043884754 2.5117003321647644
leaf_count=10 12 9 11 15 14 12 10 13 18
internal_value=-3.6293e-05 -0.0385105 0.100576 -0.0483667 -0.0485906 -0.0483291 -0.0484775 -0.0481323 -0.0480527
internal_weight=20.3846 14.7458 5.63881 13.1125 6.70667 4.55262 2.89229 6.40579 4.55719
internal_count=124 101 23 92 46 32 20 46 33
is_linear=0
shrinkage=0.05


Tree=29
num_leaves=10
num_cat=0
split_feature=5 54 4 75 56 67 2 77 46
split_gain=40.0371 5.47538 0.00607249 0.000124396 0.000168399 4.19535e-05 3.33933e-05 2.40073e-05 1.70493e-05
threshold=0.89623474728844998 0.53227550937120294 0.86315417256011329 0.18575713334740748 0.3536564964824383 0.84024732068269026 0.22353870458135863 0.18678526646112578 0.77506685662648256
decision_type=2 2 2 2 2 2 2 2 2
left_child=2 -2 3 4 7 8 -6 -1 -5
right_child=1 -3 -4 5 6 -7 -8 -9 -10
leaf_value=-0.047989388783713734 0.032139557545387075 0.1366476545802327 -0.051446068543959771 -0.047612888204231915 -0.048551135399516838 -0.047998095784591924 -0.048209312835534202 -0.047697820929760611 -0.047804691814227154
leaf_weight=1.3706401586532613 1.7670029997825611 4.3110000342130661 1.3775042891502369 2.2286039963364601 1.4564381986856463 1.7803855985403059 1.4025480449199674 1.4559332877397535 2.4131296277046204
leaf_count=10 10 17 8 17 10 13 10 11 18
internal_value=-0.000279166 0.106265 -0.0483004 -0.0479425 -0.0481129 -0.0477917 -0.0483834 -0.0478392 -0.0477126
internal_weight=19.5632 6.078 13.4852 12.1077 5.68556 6.42212 2.85899 2.82657 4.64173
internal_count=124 27 97 89 41 48 20 21 35
is_linear=0
shrinkage=0.05


Tree=30
num_leaves=10
num_cat=0
split_feature=84 146 101 3 8 0 82 32 92
split_gain=36.4661 2.97428 0.00249455 0.000297611 0.000179314 7.7806e-05 7.14896e-05 3.58795e-05 3.3889e-05
threshold=0.74237806561693598 0.065813360704753493 0.56243674029486301 0.32368035390399968 0.71370611659312488 0.43382161695117283 0.32897342505200255 0.60874664053502381 0.50489614601610022
decision_type=2 2 2 2 2 2 2 2 2
left_child=2 -2 3 4 -1 6 8 -7 -5
right_child=1 -3 -4 5 -6 7 -8 -9 -10
leaf_value=-0.048654448216869227 0.044198735530056502 0.11701529576703223 -0.050078929091236082 -0.047265423755185838 -0.04794967655578683 -0.048115736811867239 -0.047847525385063899 -0.047752546005916933 -0.047590691808857839
leaf_weight=1.6185039430856734 2.0060444772243491 4.6601422131061554 1.4563395529985417 1.2518801987171158 2.0401826053857803 1.3891405016183855 2.0203452408313751 1.3321005776524542 2.222338005900383
leaf_count=11 10 17 9 10 15 10 15 10 17
internal_value=-0.000379325 0.0951027 -0.0481259 -0.0478863 -0.0482614 -0.0477193 -0.047611 -0.0479379 -0.0474735
internal_weight=19.997 6.66619 13.3308 11.8745 3.65869 8.2158 5.49456 2.72124 3.47422
internal_count=124 27 97 88 26 62 42 20 27
is_linear=0
shrinkage=0.05


Tree=31
num_leaves=10
num_cat=0
split_feature=56 86 74 78 100 102 129 98 88
split_gain=22.3875 5.01381 4.10711 0.668531 0.000535004 0.000375415 0.000123336 3.06371e-05 1.59603e-05
threshold=0.87003758448507973 0.91856459353252851 0.21973249998463062 0.80431527106275114 0.2980392160021012 0.52550037688085449 0.012101715664573917 0.33521703252719187 0.67161507837168355
decision_type=2 2 2 2 2 2 2 2 2
left_child=1 3 -2 4 -1 6 -6 -8 -9
right_child=2 -3 -4 -5 5 -7 7 8 -10
leaf_value=-0.048707601987946651 0.032693039202596891 0.057588339661598764 0.1201129690832328 -0.0097540244399635014 -0.04780271063656677 -0.048231095332017304 -0.047520955594463538 -0.047167166471284584 -0.047400298757108855
leaf_weight=1.4749546349048639 2.2599789649248114 1.3481908440589894 3.3133106976747513 1.2857117876410473 2.4041362851858121 2.3830132037401199 1.9415527135133741 1.7294638305902483 1.2756187766790388
leaf_count=10 11 7 13 9 18 17 15 14 10
internal_value=4.90444e-05 -0.0340184 0.084664 -0.0439031 -0.0478202 -0.0476857 -0.0475089 -0.0473661 -0.0472661
internal_weight=19.4159 13.8426 5.57329 12.4945 11.2087 9.73378 7.35077 4.94664 3.00508
internal_count=124 100 24 93 84 74 57 39 24
is_linear=0
shrinkage=0.05


Tree=32
num_leaves=10
num_cat=0
split_feature=42 90 118 97 84 63 88 8 142
split_gain=11.3576 6.95204 5.65015 2.68898 0.611503 0.000638 0.000274085 7.07708e-05 1.59445e-05
threshold=1.0000000180025095e-35 0.84997997230992139 0.42800000000000021 0.28369893969297189 0.042470381138284566 0.10417934385370926 0.58586048800297374 0.75911546500534943 0.16839743126861831
decision_type=2 2 2 2 2 2 2 2 2
left_child=1 -1 3 -2 -5 -6 -7 -8 -9
right_child=2 -3 -4 4 5 6 7 8 -10
leaf_value=-0.007698911974438072 0.017288773616840565 0.10776989962123132 0.063435123638085456 -0.012772187418417178 -0.048922055730475658 -0.048410149462511258 -0.047989614925888158 -0.047483830638844322 -0.047692345626151378
leaf_weight=2.1588508784770992 2.1742729395627967 3.2901716232299805 1.6977215856313694 1.4036422446370114 1.9583771526813487 2.0113856792449951 1.7782332003116605 1.5469988584518435 2.2505547255277634
leaf_count=11 12 14 8 10 13 14 13 12 17
internal_value=0.000296547 0.0620223 -0.022397 -0.0335007 -0.0435863 -0.0481175 -0.0479098 -0.0477293 -0.0476074
internal_weight=20.2702 5.44902 14.8212 13.1235 10.9492 9.54555 7.58717 5.57579 3.79755
internal_count=124 25 99 91 79 69 56 42 29
is_linear=0
shrinkage=0.05


Tree=33
num_leaves=11
num_cat=0
split_feature=76 22 20 141 110 4 114 4 6 0
split_gain=10.9172 12.8298 6.50175 3.65629 0.589017 0.507891 0.000933801 0.000869063 0.000272319 9.27368e-06
threshold=0.15256409332089133 0.78382743703279423 0.35857050320328027 0.020624903140984828 0.58121742924954911 0.90621810392706514 0.35311727892282746 0.51497675109577112 0.0090613035892617311 0.33485011001075021
decision_type=2 2 2 2 2 2 2 2 2 2
left_child=1 3 -3 -1 7 6 -4 8 -2 -10
right_child=4 2 5 -5 -6 -7 -8 -9 9 -11
leaf_value=0.14358429836101536 -0.048364667150313047 0.064690977793755072 -0.048639820900514968 0.053565732114077419 -0.012291502333135092 -0.014506486641889275 -0.05023151349748789 -0.049160995708067506 -0.047721432543468383 -0.047537866820689792
leaf_weight=2.2194012403488177 2.2829003334045392 2.1023470610380173 2.0514772981405263 2.2939077317714691 1.3468835055828092 1.4536521136760709 1.6728490740060804 2.1526961624622345 1.3270175158977511 1.4288774877786634
leaf_count=9 16 10 14 11 9 10 10 14 10 11
internal_value=0.000422964 0.0315974 -0.00946355 0.097832 -0.0426368 -0.0395715 -0.0493548 -0.0483201 -0.0479608 -0.0476263
internal_weight=20.332 11.7936 7.28033 4.51331 8.53838 5.17798 3.72433 7.19149 5.0388 2.7559
internal_count=124 64 44 20 60 34 24 51 37 21
is_linear=0
shrinkage=0.05


Tree=34
num_leaves=10
num_cat=0
split_feature=126 1 22 116 1 6 89 105 6
split_gain=27.7155 4.27803 1.64173 0.000321345 0.000271593 0.00011986 5.7342e-05 3.28684e-05 3.05283e-06
threshold=0.99983854854515564 0.40983606557377056 0.82991084964434325 0.34175193068562709 0.0033504726063936035 0.0047677839588044293 0.4703308015177089 0.82429230251090779 0.047117714721799327
decision_type=2 2 2 2 2 2 2 2 2
left_child=1 3 -2 5 -5 -1 -7 -8 -9
right_child=2 -3 -4 4 -6 6 7 8 -10
leaf_value=-0.048084815895179434 0.060222423378035406 0.036697102358059161 0.11363535028612555 -0.047927246430648544 -0.048727542437518839 -0.047947167322619735 -0.047419813201775129 -0.047745113771503131 -0.047637666595999398
leaf_weight=2.3459823280572909 2.4902455508708945 1.6942188888788212 3.4067122340202332 2.1735100746154776 2.0695337951183319 1.3624671250581739 1.9161160886287687 1.331424802541733 1.3130135610699651
leaf_count=17 10 9 13 16 14 10 15 10 10
internal_value=-4.28553e-05 -0.0378673 0.0910794 -0.0479639 -0.0483176 -0.0477823 -0.0476625 -0.0475775 -0.0476918
internal_weight=20.1032 14.2063 5.89696 12.512 4.24304 8.269 5.92302 4.56055 2.64444
internal_count=124 101 23 92 30 62 45 35 20
is_linear=0
shrinkage=0.05


Tree=35
num_leaves=10
num_cat=0
split_feature=2 5 4 1 68 9 42 6 9
split_gain=35.5822 2.45358 0.000444114 0.000143105 6.58681e-05 3.89763e-05 2.16072e-05 1.69222e-05 3.35546e-06
threshold=0.10900473933649292 0.92210282104919383 0.81612446958981621 0.0089091721046099508 0.64067192591945465 0.15378510766018763 0.00058229974302421615 0.013137747195870736 0.78426744997274966
decision_type=2 2 2 2 2 2 2 2 2
left_child=1 -1 3 4 5 -2 -7 -8 -9
right_child=2 -3 -4 -5 -6 6 7 8 -10
leaf_value=0.055030074736061134 -0.047584374598484497 0.1203819736498055 -0.048255257376532461 -0.047866957130929248 -0.04772422446134942 -0.047117489863553325 -0.047487569689807212 -0.047213163505789413 -0.047328902208908945
leaf_weight=2.2213949263095882 1.4326503723859767 4.063371330499649 2.5331024229526511 2.2855567634105673 1.455295108258724 1.3471057265996931 1.418556943535805 1.243662014603615 1.2613910883665083
leaf_count=10 11 15 18 17 11 11 11 10 10
internal_value=-0.000369436 0.0972829 -0.0476613 -0.0475173 -0.0474193 -0.0473531 -0.0472903 -0.0473496 -0.0472714
internal_weight=19.2621 6.28477 12.9773 10.4442 8.15866 6.70337 5.27072 3.92361 2.50505
internal_count=124 25 99 81 64 53 42 31 20
is_linear=0
shrinkage=0.05


Tree=36
num_leaves=10
num_cat=0
split_feature=84 105 101 3 90 0 82 58 89
split_gain=32.2743 2.6811 0.00233164 0.000346652 0.000207099 0.00012051 0.000100887 4.95665e-05 2.06869e-05
threshold=0.74237806561693598 0.82532519593036724 0.56243674029486301 0.32368035390399968 0.95130107369314321 0.43382161695117283 0.32897342505200255 0.18500000000000003 0.53128440291637824
decision_type=2 2 2 2 2 2 2 2 2
left_child=2 -2 3 4 -1 6 8 -7 -5
right_child=1 -3 -4 5 -6 7 -8 -9 -10
leaf_value=-0.04823924595970841 0.039067816668665732 0.10699544652414193 -0.049671242043355296 -0.046875211244432807 -0.047455775008766139 -0.047816801146719407 -0.047474902569615091 -0.047380804968376482 -0.047129120561032252
leaf_weight=2.106281600892546 2.0786936879158011 4.8233221769332886 1.4072225391864766 1.4204972386360171 1.4068590030074117 1.3388804793357851 1.9264068007469175 1.270406477153301 1.8429503440856931
leaf_count=15 10 17 9 12 11 10 15 10 15
internal_value=-0.000514565 0.0865375 -0.0477519 -0.0475131 -0.0479255 -0.0473273 -0.047188 -0.0476045 -0.0470186
internal_weight=19.6215 6.90202 12.7195 11.3123 3.51314 7.79914 5.18985 2.60929 3.26345
internal_count=124 27 97 88 26 62 42 20 27
is_linear=0
shrinkage=0.05


Tree=37
num_leaves=10
num_cat=0
split_feature=90 87 54 105 100 129 11 85 2
split_gain=19.8304 14.4983 0.00446227 0.0018587 0.000764454 0.000191973 8.02442e-05 3.69803e-05 5.7031e-06
threshold=0.96901543979311389 0.53163787807846985 0.98981684757019572 0.84854400447657419 0.2980392160021012 0.012101715664573917 0.44246782152824687 0.74419669980570635 0.059487127109811237
decision_type=2 2 2 2 2 2 2 2 2
left_child=1 -1 3 4 -3 -6 7 8 -7
right_child=-2 2 -4 -5 5 6 -8 -9 -10
leaf_value=0.072580423368405159 0.10784158283112166 -0.048392361681812116 -0.050697883645351695 -0.049333083438861211 -0.047558850163667316 -0.04685885859407056 -0.047313082938829631 -0.047096646074384352 -0.046706108664752603
leaf_weight=3.1149471327662495 3.4898428320884696 1.5685661211609794 1.3180448934435851 1.3911834657192237 2.4564014822244626 1.3002574220299723 1.7625699341297147 1.5898985266685484 1.1528654173016546
leaf_count=16 13 11 8 9 19 11 14 13 10
internal_value=6.29269e-05 -0.0239637 -0.0479458 -0.0476225 -0.0473804 -0.0471883 -0.0470315 -0.0469088 -0.0467871
internal_weight=19.1446 15.6547 12.5398 11.2217 9.83056 8.26199 5.80559 4.04302 2.45312
internal_count=124 111 95 87 78 67 48 34 21
is_linear=0
shrinkage=0.05


Tree=38
num_leaves=11
num_cat=0
split_feature=53 117 62 3 7 62 33 58 5 7
split_gain=10.9184 7.39588 3.5279 2.87382 6.02679 0.00470793 0.000352116 0.00010538 9.44644e-05 3.3502e-06
threshold=1.0000000180025095e-35 0.40090871085743757 1.0000000180025095e-35 0.28948637796998083 0.80503848845346238 0.030345936375621239 0.0042091388099718069 0.24761060772792179 0.86446549643958293 0.56310097983258678
decision_type=2 2 2 2 2 2 2 2 2 2
left_child=-1 2 -2 4 -4 -5 8 -8 -7 -9
right_child=1 -3 3 5 -6 6 7 9 -10 -11
leaf_value=0.12614990235916601 0.034496995463337891 0.062788615087696176 0.080963967981198121 -0.050377918298493286 -0.049122329226515618 -0.048241928762179628 -0.04768338128645988 -0.047203379810213254 -0.047726266710387343 -0.04709379459068555
leaf_weight=1.5881642252206827 2.2007077634334591 2.9025832265615454 1.4987945854663842 1.9479456394910792 2.1932414546608925 1.8300675153732302 1.3156214877963064 1.2421679422259333 1.7255351990461347 1.5904036089777944
leaf_count=6 11 13 8 12 15 13 10 10 13 13
internal_value=0.000353689 -0.0104765 -0.0241571 -0.0338306 0.00368665 -0.0481818 -0.0476266 -0.0473136 -0.0479917 -0.0471419
internal_weight=20.0352 18.4471 15.5445 13.3438 3.69204 9.65174 7.7038 4.14819 3.5556 2.83257
internal_count=124 118 105 94 23 71 59 33 26 23
is_linear=0
shrinkage=0.05


Tree=39
num_leaves=10
num_cat=0
split_feature=4 2 90 22 4 4 132 105 4
split_gain=10.1814 11.1134 7.44738 7.45443 2.68931 0.00165536 0.000444529 0.000223502 0.000121436
threshold=0.61916548797736926 0.10900473933649292 0.55709476248168988 0.78382743703279423 0.81612446958981621 0.51497675109577112 0.109661016087912 0.82532519593036724 0.41738076320056716
decision_type=2 2 2 2 2 2 2 2 2
left_child=5 6 -3 -4 -5 7 -2 8 -1
right_child=1 2 3 4 -6 -7 -8 -9 -10
leaf_value=-0.048172411816811186 -0.048129603692818879 0.13303390308909216 0.088192936793207749 -0.049661444475651663 0.032391402779775695 -0.049568656191619764 -0.049276261094725708 -0.04723800523119364 -0.047583876516686649
leaf_weight=1.8163500428199797 2.1963605284690852 2.3086902648210508 3.1048933565616608 2.3377407938241959 1.7432688325643537 1.3933018893003462 1.3739693760871885 2.1176868230104446 1.6938405483961103
leaf_count=13 16 9 14 15 9 9 9 17 13
internal_value=0.00053391 0.0266302 0.0549086 0.0298085 -0.0146113 -0.0480257 -0.0485709 -0.0476437 -0.0478884
internal_weight=20.0861 13.0649 9.49459 7.1859 4.08101 7.02118 3.57033 5.62788 3.51019
internal_count=124 72 47 38 24 52 25 43 26
is_linear=0
shrinkage=0.05


Tree=40
num_leaves=10
num_cat=0
split_feature=125 1 99 113 1 6 25 19 7
split_gain=24.3835 4.0828 1.40394 0.000312611 0.000299587 0.000156175 7.95412e-05 2.66114e-05 2.53377e-05
threshold=0.99983854854515564 0.40983606557377056 0.39749580691084191 0.31949085273968719 0.0033504726063936035 0.0047677839588044293 0.53089749925379681 0.26597678457659008 0.59006610689208439
decision_type=2 2 2 2 2 2 2 2 2
left_child=1 3 -2 5 -5 -1 7 -7 -8
right_child=2 -3 -4 4 -6 6 8 -9 -10
leaf_value=-0.047770513380030168 0.058280698753060023 0.034672786293920538 0.10620143955433764 -0.047561596762684982 -0.048453222849487602 -0.046925343275195555 -0.047639469979789045 -0.04722400519597196 -0.047332654409465998
leaf_weight=2.2585273161530512 2.9743862748146048 1.7263624668121327 3.14396733045578 2.0751813277602191 1.7254066467285154 1.1925550624728205 1.3050794005393984 1.9911339506506918 1.3891605138778684
leaf_count=17 12 9 11 16 12 10 10 16 11
internal_value=-5.08962e-05 -0.0371979 0.0829052 -0.047592 -0.0479664 -0.0474171 -0.0472813 -0.0471121 -0.0474813
internal_weight=19.7818 13.6634 6.11835 11.937 3.80059 8.13646 5.87793 3.18369 2.69424
internal_count=124 101 23 92 28 64 47 26 21
is_linear=0
shrinkage=0.05


Tree=41
num_leaves=10
num_cat=0
split_feature=5 54 4 116 44 6 133 68 97
split_gain=31.6977 3.79295 0.0079922 0.000175685 0.000347712 0.000109053 7.19395e-05 3.2032e-05 2.64475e-05
threshold=0.89623474728844998 0.53227550937120294 0.86315417256011329 0.33742283049711591 0.045362898284599933 0.0021008140096122154 0.69763600668493864 1.0000000180025095e-35 0.41220554115331948
decision_type=2 2 2 2 2 2 2 2 2
left_child=2 -2 3 5 -5 -1 7 -7 -9
right_child=1 -3 -4 4 -6 6 -8 8 -10
leaf_value=-0.047388127880080309 0.027237729290650589 0.11195244778990983 -0.051325119321157769 -0.047040019624197807 -0.048042094287758935 -0.046664230146074029 -0.047279184810312902 -0.047131478309010724 -0.046814058702749003
leaf_weight=2.147807605564596 1.8326949775218953 4.7350762486457825 1.3306356817483891 1.81934479624033 1.6515052840113638 1.3752700462937353 1.372771121561527 1.2281622365117075 1.4091853052377699
leaf_count=17 10 17 8 15 12 12 11 10 12
internal_value=-0.000418558 0.0883133 -0.0476651 -0.0472225 -0.0475168 -0.0470869 -0.0469667 -0.0468599 -0.0469619
internal_weight=18.9025 6.56777 12.3347 11.004 3.47085 7.5332 5.38539 4.01262 2.63735
internal_count=124 27 97 89 27 62 45 34 22
is_linear=0
shrinkage=0.05


Tree=42
num_leaves=9
num_cat=0
split_feature=72 33 63 111 130 11 86 87
split_gain=28.8652 1.85945 0.000454407 0.000258617 0.000225994 8.17259e-05 9.57879e-05 2.78116e-05
threshold=0.52339827219800816 0.0116084674582609 0.40500000000000008 0.4458091296350431 0.14674087014566858 0.44246782152824687 0.75689282658064705 0.61853699601355883
decision_type=2 2 2 2 2 2 2 2
left_child=2 -2 3 4 -1 6 7 -5
right_child=1 -3 -4 5 -6 -7 -8 -9
leaf_value=-0.04770675461860701 0.044121130410664844 0.09841943505883885 -0.047878921543070802 -0.046407509167420445 -0.046986480600706634 -0.047191636688998576 -0.047119609965701394 -0.046735307412409263
leaf_weight=2.5083886831998843 2.385867476463317 4.6490598917007446 2.4104265794157973 1.2095016166567809 1.9246222823858259 1.4835691526532171 1.2217006608843801 1.3915262594819067
leaf_count=19 10 16 18 11 16 12 10 12
internal_value=-0.000595444 0.0800044 -0.0472643 -0.0471122 -0.047394 -0.0468767 -0.0467544 -0.0465829
internal_weight=19.1847 7.03493 12.1497 9.73931 4.43301 5.3063 3.82273 2.60103
internal_count=124 26 98 80 35 45 33 23
is_linear=0
shrinkage=0.05


Tree=43
num_leaves=11
num_cat=0
split_feature=4 108 9 57 56 109 8 0 86 5
split_gain=17.7129 17.9673 1.12726 0.00362898 0.00246431 0.000387688 0.000227686 0.000101601 0.000147425 2.59288e-05
threshold=0.57223945495336814 0.80698536764705808 0.6532740734742094 0.58040640493104667 0.83986209574601289 0.29315487841382548 0.34240535139520639 0.44246782152824687 0.76976210650719767 0.89623474728844998
decision_type=2 2 2 2 2 2 2 2 2 2
left_child=1 2 -1 -3 5 6 -2 8 9 -7
right_child=4 3 -4 -5 -6 7 -8 -9 -10 -11
leaf_value=0.074163215313672967 -0.047017627869780088 -0.047625642066868645 0.11759449020717272 -0.051119979394937759 -0.049188518409417063 -0.046238013243222353 -0.047939365767101651 -0.04710535556758192 -0.047077514459120645 -0.046548338826851304
leaf_weight=2.5904076248407382 1.3221163079142555 1.8026540055871012 3.5299652218818665 1.264002278447151 1.5166535675525654 1.1750239729881293 1.3582913875579832 1.4666633754968641 1.2127536386251447 1.575823940336704
leaf_count=11 11 14 13 8 10 11 10 12 10 14
internal_value=5.34095e-05 0.0497167 0.0992125 -0.0490659 -0.0473386 -0.0469927 -0.0474847 -0.0467498 -0.0466183 -0.0464158
internal_weight=18.8144 9.18703 6.12037 3.06666 9.62733 8.11067 2.68041 5.43026 3.9636 2.75085
internal_count=124 46 24 22 78 68 21 47 35 25
is_linear=0
shrinkage=0.05


Tree=44
num_leaves=10
num_cat=0
split_feature=8 109 88 68 57 43 58 62 3
split_gain=9.79016 13.1772 11.1834 2.895 0.607048 0.0095587 0.00188872 0.000573939 4.31218e-05
threshold=0.71370611659312488 0.62748190283298644 0.56853697428610606 1.0000000180025095e-35 0.93633943286687238 0.055183662015214199 0.24761060772792179 0.060385210562195125 0.36084476428831475
decision_type=2 2 2 2 2 2 2 2 2
left_child=1 2 -1 -4 5 -2 -7 -3 -8
right_child=4 7 3 -5 -6 6 8 -9 -10
leaf_value=-0.029217325759156056 -0.051704761702769997 -0.048465899678796102 0.064974267248561909 0.13566573438219473 -0.011406158661816298 -0.049054256104336107 -0.047107333304558588 -0.047214832842739793 -0.046729081635878869
leaf_weight=2.2531350553035754 1.9777675718069065 1.5549442470073693 2.7635310888290405 3.0430703610181808 1.2989730536937711 1.4419225528836248 1.2200697362422945 2.2335609719157219 1.9702863097190855
leaf_count=14 11 11 12 12 9 10 10 18 17
internal_value=0.000424987 0.0291815 0.0653332 0.102022 -0.0426542 -0.0487949 -0.0475525 -0.0477283 -0.0468737
internal_weight=19.7573 11.8482 8.05974 5.8066 7.90902 6.61005 4.63228 3.78851 3.19036
internal_count=124 67 38 24 57 48 37 29 27
is_linear=0
shrinkage=0.05


Tree=45
num_leaves=10
num_cat=0
split_feature=4 2 66 59 62 4 144 6 8
split_gain=9.43962 9.89583 7.9994 5.57952 5.53025 0.00162007 0.000396685 0.00023796 8.59523e-05
threshold=0.61916548797736926 0.10900473933649292 0.023462489557661535 0.017914577518701725 0.060385210562195125 0.51497675109577112 0.0042234839924939352 0.0073220198119597129 0.8486158056550982
decision_type=2 2 2 2 2 2 2 2 2
left_child=5 6 3 -3 -5 7 -2 -1 -9
right_child=1 2 -4 4 -6 -7 -8 8 -10
leaf_value=-0.047700121209226086 -0.048744111107058126 -0.049920822871407845 0.11278693965532233 0.10824727910604921 -0.0061222442332690271 -0.049206334628369125 -0.047651411832559221 -0.046814608770141729 -0.047336727569244785
leaf_weight=1.9802406281232858 1.4489896744489663 2.0563426017761213 3.4058774262666702 2.0929677337408066 2.1353479027748108 1.3450447767972944 1.9461559578776357 2.1118338704109196 1.2576630786061285
leaf_count=15 10 13 13 9 12 9 15 18 10
internal_value=0.000635048 0.0253409 0.0510776 0.0176351 0.0504894 -0.0476551 -0.0481178 -0.0472651 -0.0470095
internal_weight=19.7805 13.0857 9.69054 6.28466 4.22832 6.69478 3.39515 5.34974 3.3695
internal_count=124 72 47 34 21 52 25 43 28
is_linear=0
shrinkage=0.05


Tree=46
num_leaves=11
num_cat=0
split_feature=125 1 22 1 69 3 100 6 10 25
split_gain=21.6195 6.07864 1.28242 0.00185481 0.000243534 0.000311609 0.000158361 8.68592e-05 4.75672e-05 2.51297e-05
threshold=0.99983854854515564 0.56214297671681224 0.82991084964434325 0.23356667221339303 0.29641471558737359 0.31217208814270736 0.4075814353820047 0.0090613035892617311 0.50581607273593743 0.21406012208861044
decision_type=2 2 2 2 2 2 2 2 2 2
left_child=1 3 -2 4 5 -1 8 -6 -7 -9
right_child=2 -3 -4 -5 7 6 -8 9 -10 -11
leaf_value=-0.047942283595145796 0.04965403176849803 0.069823892601063628 0.095460520746432714 -0.049180335401649816 -0.047207077927599983 -0.046710272159984703 -0.047605283510345764 -0.046951101920837235 -0.047146386936569737 -0.046656396005034816
leaf_weight=1.8971131742000595 2.6288148164749137 1.2186928540468205 3.6487981528043747 1.3263474330306042 1.8560725077986715 1.2695329040288932 1.3004143312573431 1.1947597190737727 1.2319837361574171 1.8333026766777036
leaf_count=14 10 6 13 9 15 11 10 10 10 16
internal_value=-4.02759e-05 -0.0365342 0.0762786 -0.0474177 -0.0471968 -0.0474189 -0.0471577 -0.0469378 -0.0469251 -0.0467727
internal_weight=19.4058 13.1282 6.27761 11.9095 10.5832 5.69904 3.80193 4.88413 2.50152 3.02806
internal_count=124 101 23 95 86 45 31 41 21 26
is_linear=0
shrinkage=0.05


Tree=47
num_leaves=9
num_cat=0
split_feature=2 5 4 116 44 116 19 86
split_gain=28.4607 1.76356 0.000681536 0.000169194 0.000312936 0.000147291 3.21673e-05 4.54956e-05
threshold=0.10900473933649292 0.92210282104919383 0.81612446958981621 0.33742283049711591 0.045362898284599933 0.073691606044780547 0.26597678457659008 0.8256445040708893
decision_type=2 2 2 2 2 2 2 2
left_child=1 -1 3 5 -5 -2 -7 -8
right_child=2 -3 -4 4 -6 6 7 -9
leaf_value=0.047010168816264603 -0.047033414930522731 0.10104545234040602 -0.047779550877160536 -0.046660499281337094 -0.047717116853600361 -0.046293328888369352 -0.046463661276371443 -0.046840277688989289
leaf_weight=2.3169885277748135 2.1688875854015333 4.3354022204875946 2.378183349967002 1.4889075756073 1.323767341673374 1.0772280395030973 2.1093912720680241 1.2936716973781583
leaf_count=10 18 15 18 13 10 10 19 11
internal_value=-0.000527676 0.0822253 -0.0470229 -0.0468327 -0.0471578 -0.0466952 -0.0465315 -0.0466068
internal_weight=18.4924 6.65239 11.84 9.46185 2.81267 6.64918 4.48029 3.40306
internal_count=124 25 99 81 23 58 40 30
is_linear=0
shrinkage=0.05


Tree=48
num_leaves=10
num_cat=0
split_feature=83 105 97 106 53 12 89 97 5
split_gain=25.212 2.48232 0.00346064 0.000299805 0.000200157 0.000124209 0.000101066 5.93908e-05 1.44743e-05
threshold=0.69051505839816485 0.82532519593036724 0.64107985022486147 0.38313206548212581 0.70105994578295772 0.44947528547631554 0.63657546372697993 0.33592938968118791 0.86446549643958293
decision_type=2 2 2 2 2 2 2 2 2
left_child=2 -2 3 4 -1 6 8 -8 -5
right_child=1 -3 -4 5 -6 -7 7 -9 -10
leaf_value=-0.046866530509773324 0.028666565246051282 0.091681579528196777 -0.049771229827789726 -0.046145915864855669 -0.047681517370033365 -0.046971587914232664 -0.046451712667848574 -0.046918932369320668 -0.046384075400723035
leaf_weight=1.7604733034968396 2.2724304348230353 5.0047536194324493 1.0840852037072171 1.1552640497684481 1.3169367015361784 1.9169841259717939 1.2173099070787432 1.5414523556828497 1.4247792437672613
leaf_count=15 11 17 7 11 10 16 11 13 13
internal_value=-0.000726503 0.072004 -0.0470837 -0.0468017 -0.0472153 -0.0466264 -0.0465024 -0.0467128 -0.0462774
internal_weight=18.6945 7.27718 11.4173 10.3332 3.07741 7.25579 5.33881 2.75876 2.58004
internal_count=124 28 96 89 25 64 48 24 24
is_linear=0
shrinkage=0.05


Tree=49
num_leaves=10
num_cat=0
split_feature=4 108 9 24 56 110 8 129 87
split_gain=16.0532 15.4239 0.987607 0.00340725 0.00197071 0.000311955 0.000197748 0.000115169 3.49445e-05
threshold=0.57223945495336814 0.80698536764705808 0.6532740734742094 0.26979586493579838 0.83986209574601289 0.29956505565978586 0.34240535139520639 0.012101715664573917 0.65823432716242702
decision_type=2 2 2 2 2 2 2 2 2
left_child=1 2 -1 -3 5 6 -2 -7 -9
right_child=4 3 -4 -5 -6 7 -8 8 -10
leaf_value=0.067170079735903609 -0.046665624448856656 -0.047221460720914148 0.10709399132535209 -0.050685544283655404 -0.048674796797833236 -0.046739186320680699 -0.047547051053174645 -0.046082094103408737 -0.046412448227519415
leaf_weight=2.6873514950275439 1.2540857642889007 1.7047651410102846 3.6569191515445709 1.2163132131099699 1.4406783282756803 1.9519453346729276 1.2917754724621771 1.5564375221729281 1.6481730937957761
leaf_count=11 11 14 13 8 10 17 10 15 15
internal_value=2.57037e-05 0.0464087 0.0901827 -0.0486639 -0.0469775 -0.04666 -0.0471129 -0.0464364 -0.046252
internal_weight=18.4084 9.26535 6.34427 2.92108 9.1431 7.70242 2.54586 5.15656 3.20461
internal_count=124 46 24 22 78 68 21 47 30
is_linear=0
shrinkage=0.05


Tree=50
num_leaves=10
num_cat=0
split_feature=8 91 2 113 57 19 2 58 3
split_gain=8.95375 11.7081 9.31513 0.996577 0.604621 0.00839077 0.00300184 0.00198009 4.87701e-05
threshold=0.71370611659312488 0.50538364680182457 0.24168137587025237 0.46537396121883667 0.93633943286687238 0.27571848314432829 0.27330173775671412 0.24761060772792179 0.36084476428831475
decision_type=2 2 2 2 2 2 2 2 2
left_child=1 6 -3 -4 5 -2 -1 -7 -9
right_child=4 2 3 -5 -6 7 -8 8 -10
leaf_value=-0.04705958714839574 -0.051477551007555425 -0.015100600719607817 0.1167086141921006 0.074093421267048529 -0.010581709385013188 -0.048656291367772803 -0.050043434061087258 -0.046767295045284173 -0.046353964583373444
leaf_weight=2.1848933547735245 1.5947332754731167 2.7445172667503339 3.0489325672388077 2.4941814541816711 1.2749607712030409 1.6774164438247678 1.3723104819655416 1.1603583320975306 1.8539083674550054
leaf_count=18 9 18 12 10 9 12 9 10 17
internal_value=0.000530554 0.0276661 0.0602338 0.0975335 -0.041977 -0.0483443 -0.0482107 -0.0472793 -0.0465131
internal_weight=19.4062 11.8448 8.28763 5.54311 7.56138 6.28642 3.5572 4.69168 3.01427
internal_count=124 67 40 22 57 48 27 39 27
is_linear=0
shrinkage=0.05


Tree=51
num_leaves=10
num_cat=0
split_feature=21 37 77 23 109 55 69 105 4
split_gain=8.74359 9.83614 7.10836 2.69613 0.507675 0.00183043 0.00107309 0.000159614 7.50049e-05
threshold=0.68883623463563126 1.0000000180025095e-35 0.127465734521818 0.90065796675453524 0.83332454946892609 0.58113475595273356 0.29641471558737359 0.82532519593036724 0.41738076320056716
decision_type=2 2 2 2 2 2 2 2 2
left_child=6 2 -2 -4 5 -3 -1 8 -8
right_child=1 4 3 -5 -6 -7 7 -9 -10
leaf_value=-0.048382709219517067 -0.025775688068413079 -0.047073305332463927 0.10542879931907295 0.039970479747307296 -0.011013879870077277 -0.049577281881042615 -0.047347851666618007 -0.046514957459876778 -0.046841328923084957
leaf_weight=1.5546287298202539 2.0836495384573919 1.2136388346552842 4.0646845996379852 2.566248744726181 1.2764976993203161 1.8309003785252569 1.5163374468684199 1.8973091989755628 1.4108836799859998
leaf_count=11 14 10 15 12 9 12 12 17 12
internal_value=0.000725626 0.0241984 0.0547819 0.0800957 -0.0374818 -0.0485791 -0.0472403 -0.0468722 -0.0471037
internal_weight=19.4148 13.0356 8.71458 6.63093 4.32104 3.04454 6.37916 4.82453 2.92722
internal_count=124 72 41 27 31 22 52 41 24
is_linear=0
shrinkage=0.05


Tree=52
num_leaves=10
num_cat=0
split_feature=125 1 99 40 35 2 139 43 58
split_gain=19.1465 5.65828 1.13905 0.00153041 0.000294054 0.000278533 0.000116212 6.39616e-05 4.57806e-05
threshold=0.99983854854515564 0.56214297671681224 0.39749580691084191 0.038073116664251408 0.0018652164287360361 0.20932069510268567 0.52817591602783931 0.04717348474453309 0.29776731177619126
decision_type=2 2 2 2 2 2 2 2 2
left_child=1 3 -2 4 5 -1 7 -7 -6
right_child=2 -3 -4 -5 8 6 -8 -9 -10
leaf_value=-0.047547340547372301 0.048825258718379484 0.064427890133102711 0.090991331481764678 -0.048775801398581758 -0.046699391505056996 -0.046486437583935933 -0.047262792438309775 -0.04689265718108912 -0.046300940817797814
leaf_weight=1.9199569299817101 3.1397185772657386 1.2655307203531254 3.2693510353565216 1.1555646434426297 1.1455623060464861 1.7784023806452753 1.2432412952184675 2.1292161792516708 1.9446613639593122
leaf_count=15 12 6 11 8 10 16 10 18 18
internal_value=-7.83268e-06 -0.0358388 0.0703347 -0.0470516 -0.0468555 -0.0470333 -0.0468417 -0.0467078 -0.0464486
internal_weight=18.9912 12.5821 6.40907 11.3166 10.161 7.07082 5.15086 3.90762 3.09022
internal_count=124 101 23 95 87 59 44 34 28
is_linear=0
shrinkage=0.05


Tree=53
num_leaves=10
num_cat=0
split_feature=5 54 4 116 44 6 108 85 68
split_gain=25.6198 2.7194 0.00950818 0.000173 0.000344406 0.000110236 8.78583e-05 4.2454e-05 7.15638e-06
threshold=0.89623474728844998 0.53227550937120294 0.86315417256011329 0.33742283049711591 0.045362898284599933 0.0090613035892617311 0.84597192768567497 0.61905997932890211 1.0000000180025095e-35
decision_type=2 2 2 2 2 2 2 2 2
left_child=2 -2 3 5 -5 7 8 -1 -7
right_child=1 -3 -4 4 -6 6 -8 -9 -10
leaf_value=-0.046486440010141121 0.024224269083719007 0.095163723630609029 -0.051161835750551478 -0.046366903283498608 -0.047411182383148946 -0.045976400948017304 -0.046608723579636198 -0.046863554968473067 -0.046146503247088112
leaf_weight=1.7757914438843747 1.85683313012123 4.9585331231355667 1.2685104906558979 1.6368500068783762 1.5252746790647504 1.0173911303281791 1.1258255317807195 1.2872986719012258 1.576342426240444
leaf_count=16 10 17 8 15 12 10 10 11 15
internal_value=-0.00061717 0.0758364 -0.0470852 -0.0465652 -0.0468706 -0.0464228 -0.0462399 -0.0466449 -0.0460798
internal_weight=18.0287 6.81537 11.2133 9.94477 3.16212 6.78265 3.71956 3.06309 2.59373
internal_count=124 27 97 89 27 62 35 27 25
is_linear=0
shrinkage=0.05


Tree=54
num_leaves=10
num_cat=0
split_feature=84 146 97 107 44 0 89 97 5
split_gain=23.4038 1.80336 0.00284023 0.000393548 0.000331137 0.000111788 0.000102805 5.45076e-05 1.13382e-05
threshold=0.74237806561693598 0.065813360704753493 0.64107985022486147 0.42307692307692274 0.014919686699082902 0.44947528547631554 0.63657546372697993 0.33592938968118791 0.86446549643958293
decision_type=2 2 2 2 2 2 2 2 2
left_child=2 -2 3 4 -1 6 8 -8 -5
right_child=1 -3 -4 5 -6 -7 7 -9 -10
leaf_value=-0.046246153456798451 0.031036221371648676 0.085682613693951526 -0.049261006453862721 -0.045816928566879619 -0.047325783118843556 -0.046627816750803894 -0.046117448563156825 -0.046590244052219017 -0.046034347534814037
leaf_weight=1.0651217997074147 2.1571831107139579 5.0301401317119598 1.0351124554872502 1.0858015194535258 2.1315785124897957 1.8178733661770818 1.0439872369170191 1.4651277065277097 1.3392363563179968
leaf_count=10 10 17 7 11 17 16 10 13 13
internal_value=-0.000866749 0.0692812 -0.0467684 -0.046509 -0.0469661 -0.0462926 -0.0461692 -0.0463935 -0.045937
internal_weight=18.1712 7.18732 10.9838 9.94873 3.1967 6.75203 4.93415 2.50911 2.42504
internal_count=124 27 97 90 27 63 47 23 24
is_linear=0
shrinkage=0.05


Tree=55
num_leaves=10
num_cat=0
split_feature=4 107 5 47 56 109 78 48 10
split_gain=14.6293 12.437 1.07684 0.00282146 0.00179034 0.000274609 0.000224279 0.00013094 4.64477e-05
threshold=0.57223945495336814 0.81881720994282892 0.24438562462945332 0.63962038589064585 0.83986209574601289 0.44574190410298059 0.23927160898492517 0.65777776908000563 0.51047121438996812
decision_type=2 2 2 2 2 2 2 2 2
left_child=1 2 -1 -3 5 6 -2 -7 -9
right_child=4 3 -4 -5 -6 7 -8 8 -10
leaf_value=0.097665255770148368 -0.04711201652173691 -0.046794196085753317 0.057042015798287285 -0.050090149228064519 -0.048303696102576177 -0.04576041665971313 -0.046272814319397226 -0.046556634449853862 -0.046103472705271722
leaf_weight=3.7705695331096667 1.5849272459745392 1.4809328615665438 2.8753360658884048 1.1562714129686353 1.3833007887005804 1.8527735918760297 1.5997398719191549 1.1174663901329043 1.1446788012981413
leaf_count=13 13 13 12 8 10 19 15 10 11
internal_value=-2.40601e-06 0.0436332 0.0800897 -0.0482393 -0.0466544 -0.0463419 -0.0466905 -0.0460721 -0.0463273
internal_weight=17.966 9.28311 6.64591 2.6372 8.68289 7.29959 3.18467 4.11492 2.26215
internal_count=124 46 25 21 78 68 28 40 21
is_linear=0
shrinkage=0.05


Tree=56
num_leaves=10
num_cat=0
split_feature=8 70 88 68 57 17 58 6 0
split_gain=8.2413 10.5119 8.20817 2.20288 0.609646 0.00776793 0.00197519 0.000508542 6.89315e-05
threshold=0.71370611659312488 0.057846011439210566 0.56853697428610606 1.0000000180025095e-35 0.93633943286687238 0.25912783339522744 0.24761060772792179 0.0021008140096122154 0.40978770814491944
decision_type=2 2 2 2 2 2 2 2 2
left_child=1 7 -3 -4 5 -2 -7 -1 -8
right_child=4 2 3 -5 -6 6 8 -9 -10
leaf_value=-0.047820155216807922 -0.051200933570243717 -0.027759885955007418 0.054068199374635501 0.11375560266088697 -0.009524724100878278 -0.048364636826713034 -0.046503628918317982 -0.046567981605800814 -0.046005460637701258
leaf_weight=1.3052003681659727 1.4143721312284459 2.1370915025472623 2.9033465832471848 3.3061508983373642 1.2460811659693716 1.6207206919789312 1.1136138066649439 2.1408023610711098 1.844581067562103
leaf_count=10 8 14 12 12 9 12 10 19 18
internal_value=0.000647309 0.0264267 0.0567593 0.0858478 -0.041346 -0.0479621 -0.0469617 -0.0470423 -0.046193
internal_weight=19.032 11.7926 8.34659 6.2095 7.23937 5.99329 4.57892 3.446 2.95819
internal_count=124 67 38 24 57 48 40 29 28
is_linear=0
shrinkage=0.05


Tree=57
num_leaves=10
num_cat=0
split_feature=23 33 22 83 109 7 69 6 29
split_gain=8.08894 8.69768 6.23871 3.07131 0.507052 0.00194237 0.000914315 0.000160138 9.59607e-05
threshold=0.68588287915685175 1.0000000180025095e-35 0.82991084964434325 0.15643655133051551 0.83332454946892609 0.63831698478544741 0.29641471558737359 0.0090613035892617311 0.23264833722153069
decision_type=2 2 2 2 2 2 2 2 2
left_child=6 2 3 -2 5 -3 -1 -8 -9
right_child=1 4 -4 -5 -6 -7 7 8 -10
leaf_value=-0.047958578689235275 0.036375340649251138 -0.046918344876471625 -0.013922365310599764 0.10769231182335588 -0.01003678917244586 -0.049512732043858983 -0.04690140615931828 -0.046552331317787826 -0.045961461806601094
leaf_weight=1.4846130535006548 2.568235978484152 1.5250152498483651 2.5989335626363754 3.6626078933477402 1.2497673183679578 1.3691506534814832 1.7773672342300413 1.5735815837979319 1.2198142707347868
leaf_count=11 12 13 16 13 9 9 15 14 12
internal_value=0.000835949 0.0231072 0.0511533 0.0782968 -0.0366524 -0.0481457 -0.0468805 -0.0465304 -0.0462943
internal_weight=19.0291 12.9737 8.82978 6.23084 4.14393 2.89417 6.05538 4.57076 2.7934
internal_count=124 72 41 25 31 22 52 41 26
is_linear=0
shrinkage=0.05


Tree=58
num_leaves=10
num_cat=0
split_feature=125 1 22 36 35 2 42 8 58
split_gain=17.1268 5.15364 1.07009 0.00141961 0.000269537 0.000273307 0.000101057 0.000131666 6.3726e-05
threshold=0.99983854854515564 0.56214297671681224 0.82991084964434325 0.038073116664251429 0.0018652164287360361 0.20932069510268567 1.0000000180025095e-35 0.71370611659312488 0.29776731177619126
decision_type=2 2 2 2 2 2 2 2 2
left_child=1 3 -2 4 5 -1 -7 -8 -6
right_child=2 -3 -4 -5 8 6 7 -9 -10
leaf_value=-0.047215987882672339 0.041580354074059182 0.057729396039762064 0.082746654305100448 -0.048409777225812474 -0.046421267634001916 -0.046171108872464811 -0.046968571804596536 -0.046336724655713896 -0.045938477792344862
leaf_weight=1.8334831595420853 2.7146829366683951 1.3270372450351704 3.7721680998802185 1.109726347029208 1.0943530201911928 1.5798052027821539 1.6743437647819521 1.6244134306907652 1.8206032067537306
leaf_count=15 10 6 13 8 10 15 14 15 18
internal_value=2.13559e-06 -0.0352272 0.065519 -0.0467164 -0.0465212 -0.0466955 -0.0464999 -0.0466574 -0.0461197
internal_weight=18.5506 12.0638 6.48685 10.7367 9.627 6.71205 4.87856 3.29876 2.91496
internal_count=124 101 23 95 87 59 44 29 28
is_linear=0
shrinkage=0.05


Tree=59
num_leaves=9
num_cat=0
split_feature=2 145 4 107 64 32 53 91
split_gain=23.0643 1.38988 0.000827478 0.000150436 0.000197203 0.000118042 6.2785e-05 5.91162e-05
threshold=0.10900473933649292 0.0048251550226760453 0.83380480905233378 0.42307692307692274 0.36772953691584487 0.61890540786097048 0.95576665069491262 0.81174775222444162
decision_type=2 2 2 2 2 2 2 2
left_child=1 -1 3 4 -2 6 7 -5
right_child=2 -3 -4 5 -6 -7 -8 -9
leaf_value=0.040384547303111189 -0.046097080858752304 0.087758738491890642 -0.047382765338858011 -0.0458727274438041 -0.047015279030555544 -0.046499609950887588 -0.045733678316449401 -0.046291712319202184
leaf_weight=2.3785535544157055 1.140993677079676 4.4350635707378387 1.8643958494067181 1.4926139637827875 1.1995269358158109 1.4415726736187933 1.6512734442949293 1.9310456961393354
leaf_count=10 11 15 15 15 10 13 17 18
internal_value=-0.000711345 0.071221 -0.0464254 -0.0462238 -0.0465677 -0.0461003 -0.0459869 -0.046109
internal_weight=17.535 6.81362 10.7214 8.85703 2.34052 6.51651 5.07493 3.42366
internal_count=124 25 99 84 21 63 50 33
is_linear=0
shrinkage=0.05


Tree=60
num_leaves=10
num_cat=0
split_feature=84 105 97 3 90 0 89 110 87
split_gain=21.1082 1.6716 0.0025444 0.000388585 0.000184398 0.00011677 0.000130421 2.29153e-05 1.32147e-05
threshold=0.74237806561693598 0.82532519593036724 0.64107985022486147 0.31217208814270736 0.95130107369314321 0.44947528547631554 0.78551662369959485 0.45439460113118058 0.61853699601355883
decision_type=2 2 2 2 2 2 2 2 2
left_child=2 -2 3 4 -1 6 7 -5 -9
right_child=1 -3 -4 5 -6 -7 -8 8 -10
leaf_value=-0.047035668822314733 0.028336431227147157 0.080796654720736272 -0.048867695235446679 -0.045886010132559253 -0.046189290378490733 -0.046357157008504096 -0.046220678435783376 -0.045464171268151138 -0.045711596170149554
leaf_weight=1.684455178678036 2.1788364052772513 5.0103169977664948 0.99473123252391893 0.99875505268573794 1.0413707122206686 1.737574517726898 1.8012618646025655 1.0083873495459559 1.1609243899583814
leaf_count=14 10 17 7 10 10 16 17 11 12
internal_value=-0.00101774 0.0648974 -0.0464626 -0.0462089 -0.0467123 -0.0460043 -0.045881 -0.0456878 -0.0455966
internal_weight=17.6166 7.18915 10.4275 9.43273 2.72583 6.7069 4.96933 3.16807 2.16931
internal_count=124 27 97 90 24 66 50 33 23
is_linear=0
shrinkage=0.05


Tree=61
num_leaves=11
num_cat=0
split_feature=4 107 5 23 56 109 78 129 43 22
split_gain=13.3345 10.8598 0.986461 0.00265718 0.00163549 0.000282635 0.00016527 9.68915e-05 3.96771e-05 1.3594e-05
threshold=0.57223945495336814 0.81881720994282892 0.24438562462945332 0.37112201603749922 0.85583333333333345 0.36593185741088169 0.23927160898492517 0.012101715664573917 0.14390995941286513 0.83381834557660561
decision_type=2 2 2 2 2 2 2 2 2 2
left_child=1 2 -1 -3 5 6 -2 -7 9 -9
right_child=4 3 -4 -5 -6 7 -8 8 -10 -11
leaf_value=0.090764126950659593 -0.046860182637717775 -0.046433592253388542 0.052251267398693457 -0.049712997986932593 -0.048154406007725824 -0.046133590421305611 -0.046046416203928187 -0.045385522867905981 -0.045914919844466572 -0.045656337181836835
leaf_weight=3.8220393657684344 1.4062991589307769 1.3943323716521265 2.9429177045822144 1.1089631170034406 1.0887402221560476 1.7580869719386099 1.121500715613365 0.9007174149155619 1.0051324516534803 0.95438522845506668
leaf_count=13 12 13 12 8 8 17 11 10 10 10
internal_value=-5.01261e-05 0.0410867 0.0740101 -0.0478864 -0.0463492 -0.0460741 -0.0464991 -0.0458415 -0.0456619 -0.0455248
internal_weight=17.5031 9.26825 6.76496 2.5033 8.23486 7.14612 2.5278 4.61832 2.86024 1.8551
internal_count=124 46 25 21 78 70 23 47 30 20
is_linear=0
shrinkage=0.05


Tree=62
num_leaves=10
num_cat=0
split_feature=8 70 88 68 56 101 62 6 0
split_gain=7.49346 9.36489 7.09745 1.88639 0.678856 0.00575358 0.00100287 0.000420296 5.97274e-05
threshold=0.71370611659312488 0.057846011439210566 0.56853697428610606 1.0000000180025095e-35 0.96546444465554149 0.35270013675777084 0.26485665004090453 0.0021008140096122154 0.40978770814491944
decision_type=2 2 2 2 2 2 2 2 2
left_child=1 7 -3 -4 5 -2 -7 -1 -8
right_child=4 2 3 -5 -6 6 8 -9 -10
leaf_value=-0.047426575054712664 -0.049763363398994342 -0.027029443451518587 0.049912289799610869 0.10451515626596471 -0.0048096596079072488 -0.047596267818582984 -0.04615565182532292 -0.046259176134673514 -0.045672054713664229
leaf_weight=1.242467813193801 1.8898484632372845 2.0902327224612218 2.9517687112092972 3.4080036878585815 1.110115237534046 1.2083407863974573 1.0488985776901247 2.0318529605865479 1.6317408159375189
leaf_count=10 12 14 12 12 8 10 10 19 17
internal_value=0.000766515 0.0250848 0.0529017 0.0791723 -0.0406208 -0.0475002 -0.0464004 -0.0467022 -0.0458613
internal_weight=18.6133 11.7243 8.45001 6.35977 6.88894 5.77883 3.88898 3.27432 2.68064
internal_count=124 67 38 24 57 49 37 29 27
is_linear=0
shrinkage=0.05


Tree=63
num_leaves=10
num_cat=0
split_feature=21 33 77 65 109 7 69 6 29
split_gain=7.50044 7.75109 5.54476 2.08434 0.500997 0.00175341 0.000808219 0.000160332 8.10366e-05
threshold=0.68883623463563126 1.0000000180025095e-35 0.127465734521818 0.3099099333266348 0.83332454946892609 0.63831698478544741 0.29641471558737359 0.0073220198119597129 0.23264833722153069
decision_type=2 2 2 2 2 2 2 2 2
left_child=6 2 -2 -4 5 -3 -1 -8 -9
right_child=1 4 3 -5 -6 -7 7 8 -10
leaf_value=-0.047592169713509769 -0.024973288331846269 -0.046527911739836912 0.093357235514468437 0.037791761537381674 -0.0093557301275700271 -0.049056302793620978 -0.046616742137514766 -0.046234209176161362 -0.04568845082123095
leaf_weight=1.4181032329797769 2.0096344351768476 1.4342258423566816 3.9189677983522415 2.9642804563045502 1.2311542481184004 1.3138518407940862 1.5873744115233419 1.4914414808154108 1.2504391521215437
leaf_count=11 14 13 14 13 9 9 14 14 13
internal_value=0.000935823 0.0221409 0.0480949 0.0694279 -0.0358618 -0.0477367 -0.0465562 -0.0462168 -0.0459853
internal_weight=18.6195 12.8721 8.89288 6.88325 3.97923 2.74808 5.74736 4.32926 2.74188
internal_count=124 72 41 27 31 22 52 41 27
is_linear=0
shrinkage=0.05


Tree=64
num_leaves=11
num_cat=0
split_feature=125 1 99 36 35 15 29 44 58 46
split_gain=15.2759 4.81132 1.01921 0.00120767 0.000278105 0.000242257 0.000102428 6.76623e-05 6.30829e-05 5.22228e-05
threshold=0.99983854854515564 0.56214297671681224 0.39749580691084191 0.038073116664251429 0.0018652164287360361 0.20932069510268567 0.56768348314884376 0.021428571428571432 0.29776731177619126 0.81893687707641061
decision_type=2 2 2 2 2 2 2 2 2 2
left_child=1 3 -2 4 5 -1 7 -7 -6 -9
right_child=2 -3 -4 -5 8 6 -8 9 -10 -11
leaf_value=-0.046894014054448062 0.041250446197611153 0.053495094971884517 0.080710400003253038 -0.04799561270167612 -0.046098869246185573 -0.045778678535981158 -0.046617350372971988 -0.046457047112246491 -0.045603669191896359 -0.045971148454640419
leaf_weight=1.7524294629693047 3.2622346431016913 1.3673187643289555 3.2834188342094421 1.0599789321422566 1.0336257889866831 1.2693576440215113 1.1314745247364042 1.2153770327568056 1.7022482156753538 1.0146134942770002
leaf_count=15 12 6 11 8 10 13 10 11 18 10
internal_value=2.36213e-05 -0.0345689 0.0610443 -0.0463982 -0.0462125 -0.0463933 -0.0462038 -0.0460701 -0.0457908 -0.046236
internal_weight=18.0921 11.5464 6.54565 10.1791 9.11913 6.38325 4.63082 3.49935 2.73587 2.22999
internal_count=124 101 23 95 87 59 44 34 28 21
is_linear=0
shrinkage=0.05


Tree=65
num_leaves=11
num_cat=0
split_feature=5 54 4 96 57 116 118 33 4 129
split_gain=21.1527 2.11346 0.0109197 0.00015611 0.000243415 0.000104115 7.97996e-05 5.3694e-05 3.43775e-05 2.16112e-05
threshold=0.89623474728844998 0.53227550937120294 0.86315417256011329 0.69416392782808256 0.15468570940301163 0.33742283049711591 0.1356573086088135 0.0116084674582609 0.76025459688826036 0.11356871433257096
decision_type=2 2 2 2 2 2 2 2 2 2
left_child=2 -2 3 4 6 -6 9 -5 -8 -1
right_child=1 -3 -4 7 5 -7 8 -9 -10 -11
leaf_value=-0.046231720078862448 0.021685807271414861 0.084053628391153934 -0.051037183208093619 -0.045885046082855686 -0.046127464152107014 -0.046748178507331824 -0.045423359690527326 -0.045385315907711853 -0.045839086738419285 -0.045907823948250596
leaf_weight=1.0594329088926335 1.8664548471570004 4.9897586405277252 1.2143033891916264 0.99263214319944415 1.2338102087378504 1.4931356981396673 0.99873472750186898 1.1723692938685415 0.99040549993515015 1.0021626651287077
leaf_count=10 10 17 8 10 12 13 11 13 10 10
internal_value=-0.000782489 0.0670753 -0.0465882 -0.0459841 -0.0461021 -0.0464673 -0.0458563 -0.0456144 -0.0456304 -0.0460743
internal_weight=17.0132 6.85621 10.157 8.94268 6.77768 2.72695 4.05074 2.165 1.98914 2.0616
internal_count=124 27 97 89 66 25 41 23 21 20
is_linear=0
shrinkage=0.05


Tree=66
num_leaves=12
num_cat=0
split_feature=108 35 6 18 58 106 43 48 56 10 75
split_gain=19.1762 2.65769 0.133893 0.0119585 0.000717772 0.000222523 0.000180152 9.24669e-05 4.27487e-05 2.75933e-05 2.51718e-05
threshold=0.80698536764705808 1.0000000180025095e-35 0.03295196646787809 0.66571567608878457 0.89413041234682755 0.29499165859501425 0.03657541938643017 0.65777776908000563 0.82398077857276031 0.58866630402123021 0.11720109165884385
decision_type=2 2 2 2 2 2 2 2 2 2 2
left_child=3 -2 -3 4 5 6 -1 10 9 -9 -7
right_child=1 2 -4 -5 -6 7 -8 8 -10 -11 -12
leaf_value=-0.04577530260115989 -0.0094520732613677608 0.08324050820335327 0.067995842791443092 -0.051859140046642077 -0.047110245461547115 -0.045258099097172044 -0.046701815095378185 -0.046156905176506981 -0.045592430851325673 -0.045796451924660614 -0.045598721016455235
leaf_weight=0.96784480661153827 1.1354277580976475 2.3477155268192291 3.7266518771648407 0.97705420851707536 1.3103086501359937 1.1383966952562334 1.1457590386271475 1.0441545918583877 1.1250015944242475 1.0802188515663145 1.0359760746359823
leaf_count=10 8 8 14 6 11 13 10 10 12 11 11
internal_value=-0.0011646 0.0607631 0.0738878 -0.0466098 -0.0460301 -0.0458424 -0.0462776 -0.0456728 -0.0458416 -0.0459736 -0.0454204
internal_weight=17.0345 7.2098 6.07437 9.82471 8.84766 7.53735 2.1136 5.42375 3.24938 2.12437 2.17437
internal_count=124 30 22 94 88 77 20 57 33 21 24
is_linear=0
shrinkage=0.05


Tree=67
num_leaves=10
num_cat=0
split_feature=4 108 9 23 56 109 78 48 23
split_gain=12.1867 10.3894 1.03045 0.00185657 0.00152006 0.000246339 0.000174028 0.000141319 3.17261e-05
threshold=0.57223945495336814 0.80698536764705808 0.6532740734742094 0.37112201603749922 0.85583333333333345 0.44574190410298059 0.23927160898492517 0.65777776908000563 0.92977051101281394
decision_type=2 2 2 2 2 2 2 2 2
left_child=1 2 -1 -3 5 6 -2 -7 -9
right_child=4 3 -4 -5 -6 7 -8 8 -10
leaf_value=0.049008593139571129 -0.046497436903201184 -0.046447003107622814 0.088616197416729506 -0.049197884771812785 -0.047839263688672737 -0.045170234423772049 -0.045733747395759028 -0.045605653068434948 -0.045991014968168487
leaf_weight=2.8954083025455493 1.548777095973491 1.4714884385466578 3.7938329726457596 1.051739417016506 1.0455107465386388 1.6259615048766138 1.4391607791185377 1.1257855743169787 1.0162058398127554
leaf_count=11 14 14 13 8 8 19 15 12 10
internal_value=-8.03506e-05 0.038861 0.0714722 -0.0475936 -0.0460651 -0.0457906 -0.0461296 -0.0455217 -0.0457885
internal_weight=17.0139 9.21247 6.68924 2.52323 7.8014 6.75589 2.98794 3.76795 2.14199
internal_count=124 46 24 22 78 70 29 41 22
is_linear=0
shrinkage=0.05


Tree=68
num_leaves=10
num_cat=0
split_feature=8 91 2 56 5 101 2 62 0
split_gain=6.87158 8.53313 6.48633 0.683423 0.653979 0.00468757 0.00239823 0.000919416 6.73081e-05
threshold=0.71370611659312488 0.50538364680182457 0.24168137587025237 0.96546444465554149 0.71848159649662757 0.35270013675777084 0.27330173775671412 0.26485665004090453 0.40978770814491944
decision_type=2 2 2 2 2 2 2 2 2
left_child=1 6 -3 5 -4 -2 -1 -7 -9
right_child=3 2 4 -5 -6 7 -8 8 -10
leaf_value=-0.046034978302781374 -0.049219733116840754 -0.01555240178740881 0.095411583752883236 -0.0037065755831558011 0.062080284217019978 -0.047277807368364393 -0.048877799527702243 -0.045893629930163118 -0.045365681236654548
leaf_weight=1.8455101773142844 1.804554596543311 2.6210458204150182 2.9895027279853821 1.0853106677532194 2.898434691131115 1.1541302725672724 1.2405726015567777 0.99833890050649676 1.5272363126277921
leaf_count=18 12 18 11 8 11 10 9 10 17
internal_value=0.000897461 0.0240456 0.0498773 -0.0399583 0.0790037 -0.0471323 -0.0471778 -0.0461087 -0.0455744
internal_weight=18.1646 11.5951 8.50898 6.56957 5.88794 5.48426 3.08608 3.67971 2.52558
internal_count=124 67 40 57 22 49 27 37 27
is_linear=0
shrinkage=0.05


Tree=69
num_leaves=10
num_cat=0
split_feature=21 33 22 81 65 5 69 6 29
split_gain=6.96801 6.91477 4.91248 2.31002 0.518697 0.00162534 0.000706974 0.000189966 7.02495e-05
threshold=0.68883623463563126 1.0000000180025095e-35 0.82991084964434325 0.16680730664905072 0.15944495365352529 0.92055147934538095 0.29641471558737359 0.0073220198119597129 0.23264833722153069
decision_type=2 2 2 2 2 2 2 2 2
left_child=6 2 3 -2 5 -3 -1 -8 -9
right_child=1 4 -4 -5 -6 -7 7 8 -10
leaf_value=-0.047246969802452653 0.032475152287436589 -0.048480957016603654 -0.013485827415437537 0.093697194310359291 -0.0075680561762175441 -0.045963835299210117 -0.046371449412353667 -0.045905405798293795 -0.045380827197771006
leaf_weight=1.3531560599803949 2.5981456786394101 1.520138084888458 2.5352301672101021 3.7859615683555603 1.1843024417757986 1.1093350127339361 1.5228580385446546 1.4038192182779314 1.1702117696404455
leaf_count=11 12 11 16 13 9 11 14 14 13
internal_value=0.00105437 0.0213043 0.0453979 0.0687816 -0.035044 -0.047419 -0.0462561 -0.0459288 -0.0456669
internal_weight=18.1832 12.7331 8.91934 6.38411 3.81378 2.62947 5.45005 4.09689 2.57403
internal_count=124 72 41 25 31 22 52 41 27
is_linear=0
shrinkage=0.05


Tree=70
num_leaves=11
num_cat=0
split_feature=125 1 3 36 35 2 29 58 44 46
split_gain=13.7038 4.4098 1.00802 0.00113164 0.000246993 0.000200599 9.80737e-05 7.36265e-05 6.31815e-05 4.86272e-05
threshold=0.99983854854515564 0.56214297671681224 0.37381951731374613 0.038073116664251429 0.0018652164287360361 0.20932069510268567 0.56768348314884376 0.29776731177619126 0.021428571428571432 0.81893687707641061
decision_type=2 2 2 2 2 2 2 2 2 2
left_child=1 3 -2 4 5 -1 8 -6 -7 -10
right_child=2 -3 -4 -5 7 6 -8 -9 9 -11
leaf_value=-0.046555666075387886 0.034369871564311226 0.048329142001173803 0.074046008432448601 -0.047676466200320622 -0.045842925909966643 -0.045484182399930795 -0.046324554441355831 -0.045292385314127416 -0.046157971194865532 -0.045675933567894067
leaf_weight=1.6614397466182724 2.7749529480934134 1.4184667468070973 3.7835308164358139 1.0173881947994221 0.98299822956323657 1.1915267109870913 1.0779086202383039 1.588902100920677 1.1547277793288233 0.95661211013793934
leaf_count=15 10 6 13 8 10 13 10 18 11 10
internal_value=4.34594e-06 -0.0339778 0.0572587 -0.0460994 -0.0459132 -0.0460879 -0.0459104 -0.0455028 -0.0457753 -0.0459396
internal_weight=17.6085 11.05 6.55848 9.6315 8.61412 6.04221 4.38078 2.5719 3.30287 2.11134
internal_count=124 101 23 95 87 59 44 28 34 21
is_linear=0
shrinkage=0.05


Tree=71
num_leaves=9
num_cat=0
split_feature=15 144 4 107 44 32 53 92
split_gain=19.0584 1.15201 0.000974642 0.000140944 0.000172924 0.000127527 7.25775e-05 6.80045e-05
threshold=0.10900473933649292 0.0042234839924939352 0.83380480905233378 0.42307692307692274 0.040004450090520081 0.61890540786097048 0.95576665069491262 0.81544883497508702
decision_type=2 2 2 2 2 2 2 2
left_child=1 -1 3 4 -2 6 7 -5
right_child=2 -3 -4 5 -6 -7 -8 -9
leaf_value=0.035499775788827972 -0.045507203961233485 0.078592250209197245 -0.046981228820248876 -0.045286740530942844 -0.046417859917749466 -0.045980375302333114 -0.045128111489471476 -0.045762623958246006
leaf_weight=2.3983892053365734 0.92046657949685906 4.3893114626407623 1.7384100854396818 1.3157566115260126 1.2021024003624914 1.3141082823276518 1.4422286003828046 1.7481298297643659
leaf_count=10 10 15 15 15 11 13 17 18
internal_value=-0.000871033 0.0633658 -0.0459089 -0.0456742 -0.0460229 -0.045547 -0.0454206 -0.0455583
internal_weight=16.4689 6.7877 9.6812 7.94279 2.12257 5.82022 4.50612 3.06389
internal_count=124 25 99 84 21 63 50 33
is_linear=0
shrinkage=0.05


end of trees

feature_importances:
Column_4=25
Column_2=24
Column_5=21
Column_6=20
Column_1=19
Column_8=18
Column_0=17
Column_56=17
Column_63=14
Column_3=13
Column_44=13
Column_22=12
Column_125=12
Column_33=11
Column_58=11
Column_42=10
Column_90=10
Column_97=10
Column_109=10
Column_53=9
Column_72=9
Column_107=9
Column_62=8
Column_105=8
Column_7=7
Column_9=7
Column_23=7
Column_54=7
Column_60=7
Column_84=7
Column_10=6
Column_35=6
Column_57=6
Column_65=6
Column_68=6
Column_86=6
Column_87=6
Column_89=6
Column_99=6
Column_116=6
Column_129=6
Column_29=5
Column_69=5
Column_75=5
Column_77=5
Column_88=5
Column_100=5
Column_101=5
Column_108=5
Column_114=5
Column_24=4
Column_32=4
Column_43=4
Column_46=4
Column_48=4
Column_59=4
Column_78=4
Column_113=4
Column_130=4
Column_19=3
Column_20=3
Column_21=3
Column_26=3
Column_36=3
Column_55=3
Column_61=3
Column_67=3
Column_70=3
Column_76=3
Column_85=3
Column_91=3
Column_110=3
Column_118=3
Column_146=3
Column_11=2
Column_15=2
Column_17=2
Column_25=2
Column_64=2
Column_66=2
Column_74=2
Column_82=2
Column_83=2
Column_92=2
Column_98=2
Column_106=2
Column_117=2
Column_132=2
Column_134=2
Column_141=2
Column_144=2
Column_12=1
Column_18=1
Column_28=1
Column_30=1
Column_37=1
Column_39=1
Column_40=1
Column_47=1
Column_71=1
Column_73=1
Column_79=1
Column_80=1
Column_81=1
Column_96=1
Column_102=1
Column_104=1
Column_111=1
Column_115=1
Column_121=1
Column_126=1
Column_133=1
Column_137=1
Column_139=1
Column_142=1
Column_145=1

parameters:
[boosting: gbdt]
[objective: multiclass]
[metric: custom]
[tree_learner: serial]
[device_type: cpu]
[data_sample_strategy: bagging]
[data: ]
[valid: ]
[num_iterations: 10000]
[learning_rate: 0.05]
[num_leaves: 63]
[num_threads: 0]
[seed: 5]
[deterministic: 0]
[force_col_wise: 0]
[force_row_wise: 0]
[histogram_pool_size: -1]
[max_depth: -1]
[min_data_in_leaf: 10]
[min_sum_hessian_in_leaf: 0.001]
[bagging_fraction: 0.9]
[pos_bagging_fraction: 1]
[neg_bagging_fraction: 1]
[bagging_freq: 0]
[bagging_seed: 28693]
[bagging_by_query: 0]
[feature_fraction: 0.9]
[feature_fraction_bynode: 1]
[feature_fraction_seed: 24449]
[extra_trees: 0]
[extra_seed: 31430]
[early_stopping_round: 0]
[early_stopping_min_delta: 0]
[first_metric_only: 0]
[max_delta_step: 0]
[lambda_l1: 0]
[lambda_l2: 0]
[linear_lambda: 0]
[min_gain_to_split: 0]
[drop_rate: 0.1]
[max_drop: 50]
[skip_drop: 0.5]
[xgboost_dart_mode: 0]
[uniform_drop: 0]
[drop_seed: 12255]
[top_rate: 0.2]
[other_rate: 0.1]
[min_data_per_group: 100]
[max_cat_threshold: 32]
[cat_l2: 10]
[cat_smooth: 10]
[max_cat_to_onehot: 4]
[top_k: 20]
[monotone_constraints: ]
[monotone_constraints_method: basic]
[monotone_penalty: 0]
[feature_contri: ]
[forcedsplits_filename: ]
[refit_decay_rate: 0.9]
[cegb_tradeoff: 1]
[cegb_penalty_split: 0]
[cegb_penalty_feature_lazy: ]
[cegb_penalty_feature_coupled: ]
[path_smooth: 0]
[interaction_constraints: ]
[verbosity: -1]
[saved_feature_importance_type: 0]
[use_quantized_grad: 0]
[num_grad_quant_bins: 4]
[quant_train_renew_leaf: 0]
[stochastic_rounding: 1]
[linear_tree: 0]
[max_bin: 255]
[max_bin_by_feature: ]
[min_data_in_bin: 3]
[bin_construct_sample_cnt: 200000]
[data_random_seed: 54]
[is_enable_sparse: 1]
[enable_bundle: 1]
[use_missing: 1]
[zero_as_missing: 0]
[feature_pre_filter: 1]
[pre_partition: 0]
[two_round: 0]
[header: 0]
[label_column: ]
[weight_column: ]
[group_column: ]
[ignore_column: ]
[categorical_feature: ]
[forcedbins_filename: ]
[precise_float_parser: 0]
[parser_config_file: ]
[objective_seed: 27660]
[num_class: 6]
[is_unbalance: 0]
[scale_pos_weight: 1]
[sigmoid: 1]
[boost_from_average: 1]
[reg_sqrt: 0]
[alpha: 0.9]
[fair_c: 1]
[poisson_max_delta_step: 0.7]
[tweedie_variance_power: 1.5]
[lambdarank_truncation_level: 30]
[lambdarank_norm: 1]
[label_gain: ]
[lambdarank_position_bias_regularization: 0]
[eval_at: ]
[multi_error_top_k: 1]
[auc_mu_weights: ]
[num_machines: 1]
[local_listen_port: 12400]
[time_out: 120]
[machine_list_filename: ]
[machines: ]
[gpu_platform_id: -1]
[gpu_device_id: -1]
[gpu_use_dp: 0]
[num_gpu: 1]

end of parameters

pandas_categorical:null
