tree
version=v4
num_class=6
num_tree_per_iteration=6
label_index=0
max_feature_idx=147
objective=multiclass num_class:6
feature_names=Column_0 Column_1 Column_2 Column_3 Column_4 Column_5 Column_6 Column_7 Column_8 Column_9 Column_10 Column_11 Column_12 Column_13 Column_14 Column_15 Column_16 Column_17 Column_18 Column_19 Column_20 Column_21 Column_22 Column_23 Column_24 Column_25 Column_26 Column_27 Column_28 Column_29 Column_30 Column_31 Column_32 Column_33 Column_34 Column_35 Column_36 Column_37 Column_38 Column_39 Column_40 Column_41 Column_42 Column_43 Column_44 Column_45 Column_46 Column_47 Column_48 Column_49 Column_50 Column_51 Column_52 Column_53 Column_54 Column_55 Column_56 Column_57 Column_58 Column_59 Column_60 Column_61 Column_62 Column_63 Column_64 Column_65 Column_66 Column_67 Column_68 Column_69 Column_70 Column_71 Column_72 Column_73 Column_74 Column_75 Column_76 Column_77 Column_78 Column_79 Column_80 Column_81 Column_82 Column_83 Column_84 Column_85 Column_86 Column_87 Column_88 Column_89 Column_90 Column_91 Column_92 Column_93 Column_94 Column_95 Column_96 Column_97 Column_98 Column_99 Column_100 Column_101 Column_102 Column_103 Column_104 Column_105 Column_106 Column_107 Column_108 Column_109 Column_110 Column_111 Column_112 Column_113 Column_114 Column_115 Column_116 Column_117 Column_118 Column_119 Column_120 Column_121 Column_122 Column_123 Column_124 Column_125 Column_126 Column_127 Column_128 Column_129 Column_130 Column_131 Column_132 Column_133 Column_134 Column_135 Column_136 Column_137 Column_138 Column_139 Column_140 Column_141 Column_142 Column_143 Column_144 Column_145 Column_146 Column_147
feature_infos=[0:1.0000000000000002] [0:0.59836065573770492] [0:1] [0:1] [0:0.99717114568599707] [0:1] [0:1] [0.087333799860040529:1] [0:1] [0:0.92452556859336532] [0:1] [0:1.0000000000000002] [0:1.0000000000000002] [0:0.59836065573770492] [0:0.59836065573770492] [0:1] [0:1] [0:1] [0:1] [0:1] [0:1] [0:1] [0:0.99774094757444476] [0:1] [0:1] [0:0.82781462549888496] [0:0.95880156994768317] [0:0.8366248059758461] [0:0.94161073667969908] [0:1] [0:0.99999999999999989] [0:0.99999999999999989] [0:1] [0:1] [0:1] [0:1] [0:0.99999999999999989] [0:1] [0:1] [0:1] [0:1] [0:1] [0:1] [0:1] [0:1] [0.087947882736152394:0.9804560260586257] [0.026578073089694954:0.97674418604650981] [0.083881578947369917:0.98519736842104066] [0.06478405315614566:0.97729789590254512] [0.087593721916590539:0.98699880951196661] [0.026737768496417402:0.97995769147320289] [0.083001254822860915:0.99197348956352016] [0.063782457564521167:0.98422632734649085] [0:1] [0:1] [0:1] [0:1] [0:1] [0:1] [0:1] [0:0.99166666666666692] [0:1] [0:1] [0:1] [0:1] [0:1] [0:1] [0:1] [0:1] [0:1] [0:1] [0:1] [0:1] [0:1] [0:1] [0:0.99999999999999989] [0:0.99999999999999989] [0:1] [0.012458837266625609:0.99999999999999978] [0:1] [0:0.99999999999999989] [0:1] [0:1] [0.01329418961442369:1] [0:1] [0:1] [0:0.97008104841418386] [0:1] [0:0.99999999999999989] [0:1] [0.051590550036289928:1] [0:1] [0:1] [0:1] [0:0.99999999999999989] [0:1] [0:1] [0:0.99999999999999989] [0:1.0000000000000002] [0:1] [0:0.99999999999999989] [0:1] [0:1] [0:1] [0:0.99999999999999989] [0:1] [0:1] [0:1] [0:0.99999999999999956] [0:1] [0:1] [0:1] [0:1] [0:1] [0:1] [0:1] [0:0.99999999999999989] [0.039682539682539764:1] [0.016000000000000014:1] [0.031872509960159334:0.99999999999999978] [0.025299600532623367:0.99999999999999978] [0:0.90909090909090828] [0:0.90909090909090828] [0:0.90909090909090828] [0:0.90909090909090828] [0:1] [0:1] [0:1] [0:1] [0:1] [0.0028248587570621469:1] [0:1] [0:0.99999999999999989] [0:0.84085000507382768] [0:0.94334263929180118] [0:0.79246117192919807] [0:0.81619198117178238] [0:0.72677595628415315] [0:1] [0:0.78612716763005808] [0:0.9495708154506437] [0:0.83333333333333326] [0:0.88888888888888884] [0:0.8333334166666666] [0:0.66666666666666663] [0:0.70208871798177075] [0:0.1069137109783363] [0:1]
tree_sizes=453 451 557 452 453 353 683 673 684 668 679 686 681 783 679 677 681 686 687 779 677 574 682 682 686 784 683 674 682 688 686 780 681 573 687 685 686 781 682 674 788 581 685 784 681 775 790 580 688 677 680 574 684 581 686 677 682 673 682 681 682 785 675 671 684 580

Tree=0
num_leaves=3
num_cat=0
split_feature=70 0
split_gain=76.3444 3.55271e-15
threshold=0.5181289757033225 0.37261146496815301
decision_type=2 2
left_child=1 -1
right_child=-2 -3
leaf_value=-1.8338714283962017 -1.6020189735871451 -1.8338714283962019
leaf_weight=6.8769790232181611 4.5287422835826865 9.560678154230116
leaf_count=41 27 57
internal_value=-1.78379 -1.83387
internal_weight=20.9664 16.4377
internal_count=125 98
is_linear=0
shrinkage=1


Tree=1
num_leaves=3
num_cat=0
split_feature=5 9
split_gain=42.0243 8.13666
threshold=0.26045357902197031 0.67427205562798798
decision_type=2 2
left_child=-1 -2
right_child=1 -3
leaf_value=-1.6306241465830678 -1.8338714283962017 -1.7487011388745075
leaf_weight=3.6900863051414516 13.753958046436312 3.5223551094532004
leaf_count=22 82 21
internal_value=-1.78379 -1.81651
internal_weight=20.9664 17.2763
internal_count=125 103
is_linear=0
shrinkage=1


Tree=2
num_leaves=4
num_cat=0
split_feature=64 105 0
split_gain=26.8609 9.75063 1.77636e-15
threshold=0.038333333333333337 0.42307692307692274 0.45096077900526665
decision_type=2 2 2
left_child=-1 -2 -3
right_child=1 2 -4
leaf_value=-1.6733581904514703 -1.7431465547752665 -1.8338714283962019 -1.8338714283962017
leaf_weight=4.3610110878944424 3.8578175008296993 7.8833661973476392 4.8642046749591827
leaf_count=26 23 47 29
internal_value=-1.78379 -1.81279 -1.83387
internal_weight=20.9664 16.6054 12.7476
internal_count=125 99 76
is_linear=0
shrinkage=1


Tree=3
num_leaves=3
num_cat=0
split_feature=23 33
split_gain=15.5896 22.1626
threshold=0.69828115951961156 1.0000000180025095e-35
decision_type=2 2
left_child=-1 -2
right_child=1 -3
leaf_value=-1.8821846353450424 -1.7311493383392675 -1.872183995984728
leaf_weight=8.8704003393650073 6.2899202406406385 4.9996801912784576
leaf_count=55 39 31
internal_value=-1.83258 -1.79361
internal_weight=20.16 11.2896
internal_count=125 70
is_linear=0
shrinkage=1


Tree=4
num_leaves=3
num_cat=0
split_feature=125 13
split_gain=63.4777 2.15681
threshold=0.99983854854515564 0.15352494238246836
decision_type=2 2
left_child=1 -1
right_child=-2 -3
leaf_value=-1.8338714283962017 -1.6005788962280825 -1.7891570263973122
leaf_weight=13.753958046436315 3.8578175008296958 3.3546239137649527
leaf_count=82 23 20
internal_value=-1.78379 -1.8251
internal_weight=20.9664 17.1086
internal_count=125 102
is_linear=0
shrinkage=1


Tree=5
num_leaves=2
num_cat=0
split_feature=2
split_gain=84.1346
threshold=0.091007472357460303
decision_type=2
left_child=-1
right_child=-2
leaf_value=-1.5834707772024208 -1.8338714283962019
leaf_weight=4.1932798922061947 16.773119568824768
leaf_count=25 100
internal_value=-1.78379
internal_weight=20.9664
internal_count=125
is_linear=0
shrinkage=1


Tree=6
num_leaves=5
num_cat=0
split_feature=72 24 70 10
split_gain=63.4872 7.87905e-05 3.67513e-05 7.46557e-06
threshold=0.49585142281579725 0.66882550208551239 0.0024002715056467322 0.50506107630727026
decision_type=2 2 2 2
left_child=1 -1 -3 -4
right_child=-2 2 3 -5
leaf_value=-0.049808707782435103 0.15283423488448672 -0.049408469259112402 -0.049566745974058656 -0.049660964139337682
leaf_weight=4.094278126955035 5.1280969530344001 3.1687492579221717 4.822810158133505 3.7274674326181412
leaf_count=25 27 20 30 23
internal_value=-4.3245e-05 -0.0496199 -0.0495539 -0.0496078
internal_weight=20.9414 15.8133 11.719 8.55028
internal_count=125 98 73 53
is_linear=0
shrinkage=0.05


Tree=7
num_leaves=5
num_cat=0
split_feature=7 68 63 68
split_gain=34.8304 2.165 0.000429931 2.28135e-05
threshold=0.78264520643806901 0.64317192591945471 0.25130790566837541 0.17095272626836161
decision_type=2 2 2 2
left_child=1 2 3 -1
right_child=-2 -3 -4 -5
leaf_value=-0.049626091880965173 0.10439020846111176 -0.0037402864032370685 -0.050212475930878624 -0.049462231338496414
leaf_weight=4.362063795328142 5.784310281276702 3.259842947125434 3.3865935802459708 4.1402856260538101
leaf_count=27 32 20 20 26
internal_value=1.545e-05 -0.0398383 -0.0497361 -0.0495463
internal_weight=20.9331 15.1488 11.8889 8.50235
internal_count=125 93 73 53
is_linear=0
shrinkage=0.05


Tree=8
num_leaves=5
num_cat=0
split_feature=64 105 67 1
split_gain=22.89 9.06523 2.25608e-05 1.48855e-05
threshold=0.038333333333333337 0.42307692307692274 1.0000000180025095e-35 1.0000000180025095e-35
decision_type=2 2 2 2
left_child=-1 -2 -3 -4
right_child=1 2 3 -5
leaf_value=0.096854888972515096 0.037269922127970999 -0.049672715279224733 -0.049459276066943274 -0.049589443998584476
leaf_weight=4.7276330143213299 3.9869451075792339 3.4063081443309775 4.6182791739702207 4.1880252808332443
leaf_count=26 23 21 29 26
internal_value=5.67845e-05 -0.0281925 -0.0495634 -0.0495212
internal_weight=20.9272 16.1996 12.2126 8.8063
internal_count=125 99 76 55
is_linear=0
shrinkage=0.05


Tree=9
num_leaves=5
num_cat=0
split_feature=21 22 21 70
split_gain=14.2625 18.7608 3.86653 4.27095e-05
threshold=0.70733927156012466 0.79778264851503011 0.91544059251853516 0.5181289757033225
decision_type=2 2 2 2
left_child=3 -2 -3 -1
right_child=1 2 -4 -5
leaf_value=-0.049246154016934426 0.1156297673775103 -0.049717789871210928 0.024216913140873056 -0.04902198819660495
leaf_weight=4.374743118882181 4.5244295448064786 3.7308618128299713 3.361701101064682 4.1315675228834152
leaf_count=28 27 23 20 27
internal_value=5.47439e-05 0.0360746 -0.0146746 -0.0491373
internal_weight=20.1233 11.617 7.09256 8.50631
internal_count=125 70 43 55
is_linear=0
shrinkage=0.05


Tree=10
num_leaves=5
num_cat=0
split_feature=125 1 70 73
split_gain=52.0355 2.11554 4.9926e-05 9.47977e-06
threshold=0.99983854854515564 0.15352494238246836 0.5181289757033225 0.14436690016191597
decision_type=2 2 2 2
left_child=1 2 3 -1
right_child=-2 -3 -4 -5
leaf_value=-0.04961430979600507 0.15302802087602815 -0.0050258763248614696 -0.049454120533221006 -0.049717825810534362
leaf_weight=4.8427260816097313 4.3897836655378333 3.3346774578094474 4.2981885671615592 4.070842057466507
leaf_count=30 23 20 27 25
internal_value=-1.0739e-05 -0.0406121 -0.0495941 -0.0496616
internal_weight=20.9362 16.5464 13.2118 8.91357
internal_count=125 102 82 55
is_linear=0
shrinkage=0.05


Tree=11
num_leaves=5
num_cat=0
split_feature=15 70 109 75
split_gain=68.3102 4.18011e-05 2.38123e-05 8.05658e-06
threshold=0.091007472357460303 0.5181289757033225 0.66307421882521334 0.12662309065651275
decision_type=2 2 2 2
left_child=-1 2 3 -2
right_child=1 -3 -4 -5
leaf_value=0.16459316103210636 -0.049632012258842735 -0.049454120533221006 -0.049523728011786582 -0.049729708257609175
leaf_weight=4.842245593667033 4.2032534629106539 4.2981885671615592 3.3630829602479926 4.2379496991634369
leaf_count=25 26 27 21 26
internal_value=-7.08036e-05 -0.0495876 -0.0496362 -0.0496811
internal_weight=20.9447 16.1025 11.8043 8.4412
internal_count=125 100 73 52
is_linear=0
shrinkage=0.05


Tree=12
num_leaves=5
num_cat=0
split_feature=107 76 5 8
split_gain=54.6468 0.00280651 0.00013213 3.29929e-05
threshold=0.81318686813186736 0.23364955967863879 0.83876683203401858 0.42512690355329957
decision_type=2 2 2 2
left_child=1 2 3 -1
right_child=-2 -3 -4 -5
leaf_value=-0.049065636617856782 0.13280007868448454 -0.050642118012279524 -0.048845372365127628 -0.04928862989055291
leaf_weight=3.0710696280002612 5.6397718489170066 3.5779768526554099 4.9586524665355682 3.606866180896759
leaf_count=20 28 21 33 23
internal_value=-0.000139198 -0.0494175 -0.0490409 -0.0491861
internal_weight=20.8543 15.2146 11.6366 6.67794
internal_count=125 97 76 43
is_linear=0
shrinkage=0.05


Tree=13
num_leaves=6
num_cat=0
split_feature=90 87 5 8 3
split_gain=37.3918 10.3113 0.00235242 0.00022345 4.50455e-05
threshold=0.95934499004569218 0.5670287160937213 0.60445869034207911 0.69995823165234661 0.37022477836498396
decision_type=2 2 2 2 2
left_child=1 -1 -3 4 -4
right_child=-2 2 3 -5 -6
leaf_value=0.044494137124601485 0.15092246017796102 -0.050722641364993742 -0.049491092478517233 -0.048855171367644848 -0.049241896214215361
leaf_weight=3.6948345303535524 3.4310140758752814 3.4760732352733603 3.6665508896112424 3.0061364620923996 3.5881368815898895
leaf_count=22 17 20 23 20 23
internal_value=4.24852e-05 -0.0296546 -0.0495985 -0.0492176 -0.0493678
internal_weight=20.8627 17.4317 13.7369 10.2608 7.25469
internal_count=125 108 86 66 46
is_linear=0
shrinkage=0.05


Tree=14
num_leaves=5
num_cat=0
split_feature=44 108 137 6
split_gain=21.0766 3.96427 0.239777 0.000742316
threshold=0.023018318797220289 0.47166237078512468 0.56557377049180335 0.020143153033006359
decision_type=2 2 2 2
left_child=-1 -2 3 -3
right_child=1 2 -4 -5
leaf_value=0.083647259072033867 0.013458497791777664 -0.049993112407121267 -0.033119936410289208 -0.049026647641076435
leaf_weight=5.5417719632387188 3.8890645354986182 3.2763722985982877 3.1017614603042594 5.0478738099336624
leaf_count=30 22 20 20 33
internal_value=9.05449e-05 -0.0301445 -0.0449857 -0.049407
internal_weight=20.8568 15.3151 11.426 8.32425
internal_count=125 95 73 53
is_linear=0
shrinkage=0.05


Tree=15
num_leaves=5
num_cat=0
split_feature=92 8 48 113
split_gain=13.1884 7.90604 0.247695 0.00131106
threshold=0.46836825694553869 0.44331641285956014 0.78465082993304769 0.31827781662252391
decision_type=2 2 2 2
left_child=-1 -2 3 -3
right_child=1 2 -4 -5
leaf_value=0.077983473342965237 0.032075045051362758 -0.048688712441417356 -0.032398975920725138 -0.049993331517552607
leaf_weight=4.2784162014722851 4.8589959889650336 4.5900006294250471 3.0180314779281616 3.3176594823598862
leaf_count=25 29 31 20 20
internal_value=0.00011838 -0.0209868 -0.0445851 -0.0492361
internal_weight=20.0631 15.7847 10.9257 7.90766
internal_count=125 100 71 51
is_linear=0
shrinkage=0.05


Tree=16
num_leaves=5
num_cat=0
split_feature=125 1 70 5
split_gain=43.7965 2.11815 8.22914e-05 3.51688e-05
threshold=0.99983854854515564 0.15352494238246836 0.5181289757033225 0.77745249707936015
decision_type=2 2 2 2
left_child=1 2 3 -1
right_child=-2 -3 -4 -5
leaf_value=-0.049330419170355161 0.13161531397896639 -0.0041080721571538211 -0.048982805498276855 -0.049119626952139256
leaf_weight=5.5090442448854464 4.8493380397558203 3.2815179377794257 4.1145980507135382 3.0878211110830307
leaf_count=35 23 20 27 20
internal_value=-1.02773e-05 -0.0399213 -0.0491667 -0.0492547
internal_weight=20.8423 15.993 12.7115 8.59687
internal_count=125 102 82 55
is_linear=0
shrinkage=0.05


Tree=17
num_leaves=5
num_cat=0
split_feature=2 101 98 58
split_gain=57.9089 8.35556e-05 7.08318e-05 2.13571e-05
threshold=0.091007472357460303 0.35270013675777084 0.39499997500000006 0.055924233302054573
decision_type=2 2 2 2
left_child=-1 -2 -3 -4
right_child=1 2 3 -5
leaf_value=0.14154320769176956 -0.049294096429418489 -0.048856742005667475 -0.04905641407400943 -0.049239927362735809
leaf_weight=5.3599555343389538 6.1173685789108267 3.0109480470418912 3.0695799738168716 3.279051810503006
leaf_count=25 39 20 20 21
internal_value=-9.7559e-05 -0.0491504 -0.0490565 -0.0491512
internal_weight=20.8369 15.4769 9.35958 6.34863
internal_count=125 100 61 41
is_linear=0
shrinkage=0.05


Tree=18
num_leaves=5
num_cat=0
split_feature=72 121 101 70
split_gain=46.9066 0.00101645 0.000188345 7.08016e-05
threshold=0.49585142281579725 0.47912505036518682 0.28963313862854007 0.010380071906636099
decision_type=2 2 2 2
left_child=1 2 -1 -4
right_child=-2 -3 3 -5
leaf_value=-0.048885647612485164 0.11623246979470524 -0.049469757831498769 -0.048227239635143089 -0.04854406399754356
leaf_weight=3.0185801982879656 6.1002763062715522 4.2751521915197364 2.9541895240545273 4.3746384680271149
leaf_count=20 27 27 21 30
internal_value=-0.000233604 -0.0488212 -0.0485533 -0.0484164
internal_weight=20.7228 14.6226 10.3474 7.32883
internal_count=125 98 71 51
is_linear=0
shrinkage=0.05


Tree=19
num_leaves=6
num_cat=0
split_feature=86 88 117 79 4
split_gain=28.0616 9.53665 0.25232 0.00173175 0.000126941
threshold=0.940367666009022 0.53548437815604855 0.32481893413057139 0.35441931290409096 0.82531824611032534
decision_type=2 2 2 2 2
left_child=1 -1 3 4 -3
right_child=-2 2 -4 -5 -6
leaf_value=0.045572791706064202 0.12818687992554864 -0.04898589060488262 -0.032673079402224664 -0.050110526719480165 -0.048561932666937715
leaf_weight=3.6351353675127092 3.541403502225875 3.1972524821758253 2.9512037634849539 3.4917114228010178 3.9431242644786835
leaf_count=21 16 21 19 21 27
internal_value=5.89232e-06 -0.0263578 -0.0456077 -0.049198 -0.0487518
internal_weight=20.7598 17.2184 13.5833 10.6321 7.14038
internal_count=125 109 88 69 48
is_linear=0
shrinkage=0.05


Tree=20
num_leaves=5
num_cat=0
split_feature=63 97 8 43
split_gain=18.5032 5.07081 0.00108527 4.77391e-05
threshold=0.065000000000000016 0.28909865389760048 0.661792056662734 0.14480839374328644
decision_type=2 2 2 2
left_child=-1 -2 -3 -4
right_child=1 2 3 -5
leaf_value=0.069723151078670206 0.020230355463623558 -0.049621783512612094 -0.048451447329652508 -0.048717979669472465
leaf_weight=6.5428096950054195 3.516364872455596 3.9872992932796461 3.4641149044036865 3.2620338797569275
leaf_count=34 20 25 24 22
internal_value=0.000130202 -0.0318684 -0.0489682 -0.0485807
internal_weight=20.7726 14.2298 10.7134 6.72615
internal_count=125 91 71 46
is_linear=0
shrinkage=0.05


Tree=21
num_leaves=4
num_cat=0
split_feature=21 37 83
split_gain=12.7816 16.7216 0.000230242
threshold=0.70733927156012466 1.0000000180025095e-35 0.74579197281603937
decision_type=2 2 2
left_child=2 -2 -1
right_child=1 -3 -4
leaf_value=-0.048815082135940283 0.081617730386368006 -0.038892113112390485 -0.048277576440662717
leaf_weight=4.3378645926713961 7.1362235546112043 4.8246713876724243 3.6846047341823578
leaf_count=29 39 31 26
internal_value=0.0002584 0.0330076 -0.0485682
internal_weight=19.9834 11.9609 8.02247
internal_count=125 70 55
is_linear=0
shrinkage=0.05


Tree=22
num_leaves=5
num_cat=0
split_feature=125 106 1 72
split_gain=37.7861 2.09539 0.000783348 5.62132e-05
threshold=0.99983854854515564 0.24444433333333307 0.095586315785552475 0.49585142281579725
decision_type=2 2 2 2
left_child=1 -1 3 -3
right_child=-2 2 -4 -5
leaf_value=-0.0042895185508040499 0.11623489062249677 -0.048807171190039661 -0.049592852051155024 -0.048551281943319702
leaf_weight=3.3543574213981655 5.2274583876132956 4.9419410675764066 3.3759727030992499 3.7938313484191895
leaf_count=22 23 33 21 26
internal_value=1.9466e-05 -0.0392607 -0.048946 -0.048696
internal_weight=20.6936 15.4661 12.1117 8.73577
internal_count=125 102 80 59
is_linear=0
shrinkage=0.05


Tree=23
num_leaves=5
num_cat=0
split_feature=2 101 98 72
split_gain=49.6054 0.000137364 0.000121076 1.58001e-05
threshold=0.091007472357460303 0.35270013675777084 0.39499997500000006 0.58852512915017063
decision_type=2 2 2 2
left_child=-1 -2 -3 -4
right_child=1 2 3 -5
leaf_value=0.12340502332317738 -0.048909358823889332 -0.048329556644352401 -0.048802301865044834 -0.048641169519907726
leaf_weight=5.8301890939474132 5.8971441686153403 2.8507936149835569 3.1449275016784668 2.9469757378101349
leaf_count=25 39 20 21 20
internal_value=-0.00017187 -0.048722 -0.0485985 -0.0487244
internal_weight=20.67 14.8398 8.9427 6.0919
internal_count=125 100 61 41
is_linear=0
shrinkage=0.05


Tree=24
num_leaves=5
num_cat=0
split_feature=105 2 105 70
split_gain=41.7826 0.00654671 0.000295467 9.66645e-05
threshold=0.81318692307692297 0.34597156398104278 0.47746535358280978 0.010380071906636099
decision_type=2 2 2 2
left_child=1 2 -1 -4
right_child=-2 -3 3 -5
leaf_value=-0.048502835534428662 0.10483115338558686 -0.050891251048122456 -0.047752716106109289 -0.048146533186945617
leaf_weight=4.7819744497537631 6.4665218740701667 2.844218283891677 2.6557017862796783 3.7703782469034195
leaf_count=33 28 17 20 27
internal_value=-0.000347965 -0.0487489 -0.0482052 -0.0479838
internal_weight=20.5188 14.0523 11.2081 6.42608
internal_count=125 97 80 47
is_linear=0
shrinkage=0.05


Tree=25
num_leaves=6
num_cat=0
split_feature=90 87 47 121 55
split_gain=35.4988 9.24369 0.00668545 0.000464197 0.000151797
threshold=0.97168811233998853 0.5670287160937213 0.75000000000000011 0.47912505036518682 0.57760911732944908
decision_type=2 2 2 2 2
left_child=1 -1 3 4 -3
right_child=-2 2 -4 -5 -6
leaf_value=0.038432682652509514 0.14757348319515412 -0.048377317560937848 -0.051129629814338655 -0.048828153104623129 -0.047871330318017519
leaf_weight=3.90857961773873 3.4032382965087882 3.2896414101123792 2.9610237181186667 4.3466307073831558 2.6978918388485909
leaf_count=22 14 23 17 29 20
internal_value=2.50029e-05 -0.0291629 -0.049035 -0.0484348 -0.0481493
internal_weight=20.607 17.2038 13.2952 10.3342 5.98753
internal_count=125 111 89 72 43
is_linear=0
shrinkage=0.05


Tree=26
num_leaves=5
num_cat=0
split_feature=44 105 136 33
split_gain=17.0177 4.12739 0.263494 0.00202016
threshold=0.023018318797220289 0.42307692307692274 0.70000383725507953 1.0000000180025095e-35
decision_type=2 2 2 2
left_child=-1 -2 3 -3
right_child=1 2 -4 -5
leaf_value=0.070927926427274024 0.017144561917141019 -0.049828161671793936 -0.031231245057607854 -0.048211114491203008
leaf_weight=6.0260339677333858 3.6502376943826667 3.1789193004369718 2.8771947398781768 4.9218049496412277
leaf_count=30 20 20 20 35
internal_value=0.000215551 -0.0289142 -0.0442291 -0.0488457
internal_weight=20.6542 14.6282 10.9779 8.10072
internal_count=125 95 75 55
is_linear=0
shrinkage=0.05


Tree=27
num_leaves=5
num_cat=0
split_feature=21 22 85 72
split_gain=11.8194 14.5998 3.4791 0.000264155
threshold=0.70733927156012466 0.79778264851503011 0.65841155131290097 0.49585142281579725
decision_type=2 2 2 2
left_child=3 -2 -3 -1
right_child=1 2 -4 -5
leaf_value=-0.048464449483619131 0.095916675434235502 0.020760820267743743 -0.049157304624823206 -0.047877567006109574
leaf_weight=4.0352552682161358 5.0613412857055646 3.4639188498258591 3.6582250893115997 3.6530607491731644
leaf_count=28 27 19 24 27
internal_value=0.000356599 0.0309889 -0.015152 -0.0481856
internal_weight=19.8718 12.1835 7.12214 7.68832
internal_count=125 70 43 55
is_linear=0
shrinkage=0.05


Tree=28
num_leaves=5
num_cat=0
split_feature=125 1 101 144
split_gain=32.9787 2.17716 0.000316677 6.22976e-05
threshold=0.99983854854515564 0.15352494238246836 0.3598645739720619 0.17873683100006152
decision_type=2 2 2 2
left_child=1 2 -1 -4
right_child=-2 -3 3 -5
leaf_value=-0.048724157070466054 0.10412202811513578 -0.0016125547745118752 -0.048023625651892783 -0.048337567114328683
leaf_weight=5.341258183121683 5.551451012492179 3.1432208716869345 2.7527364939451218 3.7098384350538254
leaf_count=36 23 20 20 26
internal_value=5.80759e-05 -0.0385921 -0.0484393 -0.0482038
internal_weight=20.4985 14.9471 11.8038 6.46257
internal_count=125 102 82 46
is_linear=0
shrinkage=0.05


Tree=29
num_leaves=5
num_cat=0
split_feature=2 101 98 72
split_gain=42.8995 0.000175586 0.000155174 2.65357e-05
threshold=0.091007472357460303 0.35270013675777084 0.39499997500000006 0.58852512915017063
decision_type=2 2 2 2
left_child=-1 -2 -3 -4
right_child=1 2 3 -5
leaf_value=0.10897562443306737 -0.048527606117281616 -0.047855090782100131 -0.048416503080448807 -0.048203083208901674
leaf_weight=6.2399299293756512 5.6697435975074759 2.6983404010534269 3.0219674855470657 2.8114995956420898
leaf_count=25 39 20 21 20
internal_value=-0.000298618 -0.0483119 -0.0481686 -0.0483136
internal_weight=20.4415 14.2016 8.53181 5.83347
internal_count=125 100 61 41
is_linear=0
shrinkage=0.05


Tree=30
num_leaves=5
num_cat=0
split_feature=84 143 105 70
split_gain=36.9148 0.00591565 0.000400616 9.67202e-05
threshold=0.74237806561693598 0.24629272293071411 0.47746535358280978 0.010380071906636099
decision_type=2 2 2 2
left_child=1 2 -1 -4
right_child=-2 -3 3 -5
leaf_value=-0.048176558541585313 0.09459199056316013 -0.050395526726938034 -0.04731592144323532 -0.047717854652219706
leaf_weight=4.4663362130522746 6.7894865721464148 2.8041600584983817 2.5069470629096031 3.714401051402092
leaf_count=32 28 17 20 28
internal_value=-0.000499008 -0.0483516 -0.0478153 -0.0475559
internal_weight=20.2813 13.4918 10.6877 6.22135
internal_count=125 97 80 48
is_linear=0
shrinkage=0.05


Tree=31
num_leaves=6
num_cat=0
split_feature=90 0 22 58 2
split_gain=29.9496 9.04415 0.276236 0.00614477 0.000470413
threshold=0.97168811233998853 0.70100147945699176 0.86978074987432874 0.30998979056976722 0.13270142180094793
decision_type=2 2 2 2 2
left_child=1 2 3 4 -1
right_child=-2 -3 -4 -5 -6
leaf_value=-0.047478506638831304 0.129366035605082 0.051845302116734042 -0.031218222376425221 -0.050591163486982428 -0.048308214237457583
leaf_weight=2.5715744420886093 3.6667226552963248 2.9012179523706427 2.7963131815195075 3.3719349801540375 5.0889613479375839
leaf_count=20 14 16 19 20 36
internal_value=-5.17385e-05 -0.0284163 -0.0452548 -0.0488126 -0.0480297
internal_weight=20.3967 16.73 13.8288 11.0325 7.66054
internal_count=125 111 95 76 56
is_linear=0
shrinkage=0.05


Tree=32
num_leaves=5
num_cat=0
split_feature=63 17 144 19
split_gain=15.1038 4.7946 0.0022446 4.02025e-05
threshold=0.065000000000000016 0.26481474074074074 0.0014670422961324469 0.40135666413159904
decision_type=2 2 2 2
left_child=-1 -2 -3 -4
right_child=1 2 3 -5
leaf_value=0.059845485378454744 0.019009010954450161 -0.049331159504404504 -0.047678455298153649 -0.047948797755488194
leaf_weight=7.005144506692889 3.5778966918587676 4.4263861626386625 2.6423752754926682 2.8676149845123291
leaf_count=34 21 29 20 21
internal_value=0.000263006 -0.0306217 -0.0484927 -0.0478192
internal_weight=20.5194 13.5143 9.93638 5.50999
internal_count=125 91 70 41
is_linear=0
shrinkage=0.05


Tree=33
num_leaves=4
num_cat=0
split_feature=21 37 8
split_gain=11.052 13.7754 0.000337249
threshold=0.70733927156012466 1.0000000180025095e-35 0.73104287067265716
decision_type=2 2 2
left_child=2 -2 -1
right_child=1 -3 -4
leaf_value=-0.048283759911401887 0.070652286060783623 -0.038276851544454073 -0.047588355484819878
leaf_weight=2.8198864161968258 7.6766111105680448 4.6668577939271927 4.5673943981528282
leaf_count=20 39 31 35
internal_value=0.000518378 0.029468 -0.0478538
internal_weight=19.7307 12.3435 7.38728
internal_count=125 70 55
is_linear=0
shrinkage=0.05


Tree=34
num_leaves=5
num_cat=0
split_feature=125 13 105 72
split_gain=28.9413 2.18607 0.000289071 7.12721e-05
threshold=0.99983854854515564 0.15352494238246836 0.24725252747252727 0.49585142281579725
decision_type=2 2 2 2
left_child=1 2 -1 -4
right_child=-2 -3 3 -5
leaf_value=-0.048510170161470564 0.094060560836412205 -0.00064408154633285755 -0.048056905694759622 -0.047763054632503812
leaf_weight=2.8986693918705013 5.8348632603883734 3.0914953649044028 4.8301027417182905 3.6025892496109009
leaf_count=20 23 20 35 27
internal_value=0.000100403 -0.0379118 -0.0480794 -0.0479314
internal_weight=20.2577 14.4229 11.3314 8.43269
internal_count=125 102 82 62
is_linear=0
shrinkage=0.05


Tree=35
num_leaves=5
num_cat=0
split_feature=2 109 72 75
split_gain=37.9703 0.00021232 0.000163108 6.36645e-05
threshold=0.091007472357460303 0.62748190283298644 0.49585142281579725 0.12662309065651275
decision_type=2 2 2 2
left_child=-1 2 3 -2
right_child=1 -3 -4 -5
leaf_value=0.098604394139562679 -0.048029742396194397 -0.047570979317647526 -0.04776668410429686 -0.048328561904790519
leaf_weight=6.5478017628192928 3.440642908215521 2.9923611134290686 3.4705880507826805 3.6985091269016266
leaf_count=25 25 23 26 26
internal_value=-0.00032173 -0.0479429 -0.0480479 -0.0481845
internal_weight=20.1499 13.6021 10.6097 7.13915
internal_count=125 100 77 51
is_linear=0
shrinkage=0.05


Tree=36
num_leaves=5
num_cat=0
split_feature=105 2 106 70
split_gain=33.0476 0.00835882 0.000498616 0.000104314
threshold=0.81318692307692297 0.34597156398104278 0.47168301207052915 0.010380071906636099
decision_type=2 2 2 2
left_child=1 2 -1 -4
right_child=-2 -3 3 -5
leaf_value=-0.047895196428721143 0.086370324103128865 -0.050595527279461906 -0.046925796586306301 -0.04735159506411022
leaf_weight=4.1778442114591616 7.0610491335391989 2.7176558822393408 2.3665708601474762 3.667411632835865
leaf_count=31 28 17 20 29
internal_value=-0.000622585 -0.0481312 -0.0474753 -0.0471846
internal_weight=19.9905 12.9295 10.2118 6.03398
internal_count=125 97 80 49
is_linear=0
shrinkage=0.05


Tree=37
num_leaves=6
num_cat=0
split_feature=90 3 34 4 2
split_gain=26.0291 8.41095 0.282878 0.00508302 0.00037613
threshold=0.97168811233998853 0.69172771457096449 0.013125417970654843 0.65960134064883391 0.13270142180094793
decision_type=2 2 2 2 2
left_child=1 2 3 -1 -5
right_child=-2 -3 -4 4 -6
leaf_value=-0.050088600430767218 0.1168385361161855 0.047985781173245923 -0.030296227522770083 -0.047243192580262772 -0.04798379559891025
leaf_weight=3.2326869294047409 3.8526565432548514 2.9963027685880652 2.6965306028723708 2.7210853546857834 4.6339045763015747
leaf_count=20 14 16 19 22 34
internal_value=-2.98949e-05 -0.0276859 -0.0447539 -0.0484361 -0.0477098
internal_weight=20.1332 16.2805 13.2842 10.5877 7.35499
internal_count=125 111 95 76 56
is_linear=0
shrinkage=0.05


Tree=38
num_leaves=5
num_cat=0
split_feature=44 105 137 33
split_gain=13.7925 3.81118 0.302661 0.00351417
threshold=0.023018318797220289 0.42307692307692274 0.58561681013803191 0.0022535142166067502
decision_type=2 2 2 2
left_child=-1 -2 3 -3
right_child=1 2 -4 -5
leaf_value=0.060838626107001428 0.015823090776432448 -0.049642167751481177 -0.028390059692853381 -0.047459558183751548
leaf_weight=6.4411378949880627 3.7008563727140418 3.0690606534481031 2.5286441221833229 4.6209809929132462
leaf_count=30 20 20 19 36
internal_value=0.000342625 -0.0276513 -0.0433963 -0.0483306
internal_weight=20.3607 13.9195 10.2187 7.69004
internal_count=125 95 75 56
is_linear=0
shrinkage=0.05


Tree=39
num_leaves=5
num_cat=0
split_feature=21 22 21 8
split_gain=10.2031 11.9826 3.09028 0.000421934
threshold=0.70733927156012466 0.79778264851503011 0.91544059251853516 0.73104287067265716
decision_type=2 2 2 2
left_child=3 -2 -3 -1
right_child=1 2 -4 -5
leaf_value=-0.047988973919463419 0.083422997928612172 -0.049302547402489967 0.016816744541383558 -0.047194503682364289
leaf_weight=2.7207583636045483 5.4481925815343839 3.4292423352599144 3.6461464166641235 4.3322519361972809
leaf_count=20 27 23 20 35
internal_value=0.000598961 0.0276878 -0.0152294 -0.047501
internal_weight=19.5766 12.5236 7.07539 7.05301
internal_count=125 70 43 55
is_linear=0
shrinkage=0.05


Tree=40
num_leaves=6
num_cat=0
split_feature=125 6 4 131 65
split_gain=25.6007 2.4067 0.000457004 0.000344751 4.6294e-05
threshold=0.99983854854515564 0.20618102265328467 0.49269952337299877 0.013868613138686132 0.37719097108612737
decision_type=2 2 2 2 2
left_child=1 2 4 -4 -1
right_child=-2 -3 3 -5 -6
leaf_value=-0.047333212213199055 0.085825081819192739 0.0037105945259298134 -0.047714701838237589 -0.048505087694003406 -0.047622709491691131
leaf_weight=2.6512112021446246 6.0683173686265937 2.8515763878822318 2.6463935524225235 2.8822447657585144 2.8822082653641701
leaf_count=21 23 19 20 20 22
internal_value=0.000128644 -0.0372472 -0.0478052 -0.0481268 -0.047484
internal_weight=19.982 13.9136 11.0621 5.52864 5.53342
internal_count=125 102 83 40 43
is_linear=0
shrinkage=0.05


Tree=41
num_leaves=4
num_cat=0
split_feature=2 106 141
split_gain=33.6852 0.000255748 0.000134897
threshold=0.091007472357460303 0.47168301207052915 0.17939065608915658
decision_type=2 2 2
left_child=-1 -2 -3
right_child=1 2 -4
leaf_value=0.089677142219994954 -0.047903174827380386 -0.047230179713571498 -0.047624496633297875
leaf_weight=6.8097104132175472 4.3232993930578223 4.2272409275174123 4.4545733481645584
leaf_count=25 32 34 34
internal_value=-0.000415071 -0.047589 -0.0474325
internal_weight=19.8148 13.0051 8.68181
internal_count=125 100 68
is_linear=0
shrinkage=0.05


Tree=42
num_leaves=5
num_cat=0
split_feature=70 105 99 34
split_gain=29.5799 0.00352613 0.000644077 0.00013015
threshold=0.5181289757033225 0.61414479426186797 0.30890282745084446 1.0000000180025095e-35
decision_type=2 2 2 2
left_child=1 2 -1 -4
right_child=-2 -3 3 -5
leaf_value=-0.047674963113670255 0.07951291431941214 -0.049170625886454301 -0.046529469137291481 -0.0470129777566069
leaf_weight=3.6695892214775103 7.2458006143569937 2.7977048754692069 2.2186572253704071 3.7344826757907867
leaf_count=28 27 19 20 31
internal_value=-0.000771871 -0.0476082 -0.0471539 -0.0468328
internal_weight=19.6662 12.4204 9.62273 5.95314
internal_count=125 98 79 51
is_linear=0
shrinkage=0.05


Tree=43
num_leaves=6
num_cat=0
split_feature=5 56 66 22 113
split_gain=21.7226 7.39377 1.20759 0.00687477 0.000266754
threshold=0.17709850859695045 0.87003758448507973 0.50136296211252807 0.58895182074129149 0.35728571044613339
decision_type=2 2 2 2 2
left_child=-1 2 3 -2 -5
right_child=1 -3 -4 4 -6
leaf_value=0.10992887482739283 -0.050058830670281489 0.047104044920298842 -0.011055550309213617 -0.047177445854730771 -0.047834490541568464
leaf_weight=3.6564082056283977 4.2205608114600199 2.9138861000537863 2.7056970149278632 3.6682808622717857 2.6685040146112442
leaf_count=13 26 15 21 30 20
internal_value=-0.000135897 -0.0250134 -0.0408576 -0.0484954 -0.0474541
internal_weight=19.8333 16.1769 13.263 10.5573 6.33678
internal_count=125 112 97 76 50
is_linear=0
shrinkage=0.05


Tree=44
num_leaves=5
num_cat=0
split_feature=63 99 144 56
split_gain=12.2974 4.78679 0.00244765 6.11666e-05
threshold=0.065000000000000016 0.29177902830689578 0.0014670422961324469 0.67123691186471457
decision_type=2 2 2 2
left_child=-1 -2 -3 -4
right_child=1 2 3 -5
leaf_value=0.05163445313910936 0.021309353438531572 -0.048704951155899318 -0.046895510734088104 -0.047242111023469729
leaf_weight=7.405359864234927 3.4182005226612082 4.2480897754430753 2.3732777982950211 2.7454012036323547
leaf_count=34 19 30 20 22
internal_value=0.000362239 -0.0293359 -0.0478177 -0.0470814
internal_weight=20.1903 12.785 9.36677 5.11868
internal_count=125 91 72 42
is_linear=0
shrinkage=0.05


Tree=45
num_leaves=6
num_cat=0
split_feature=76 22 73 47 72
split_gain=9.58247 15.0845 3.71762 0.294923 0.00204296
threshold=0.15435566831162437 0.79778264851503011 0.055317309101865296 0.80592105263157177 0.49585142281579725
decision_type=2 2 2 2 2
left_child=1 -1 -3 4 -2
right_child=3 2 -4 -5 -6
leaf_value=0.10269559737075562 -0.048817258989814399 0.023958332426540042 -0.04866504104502805 -0.026839129883771642 -0.046893168965157397
leaf_weight=4.39616856724024 2.9268641695380202 3.2694443613290787 3.8224202394485474 2.3721099868416786 2.6096586138010025
leaf_count=20 20 17 27 19 22
internal_value=0.000765974 0.029925 -0.0151847 -0.0415903 -0.0479103
internal_weight=19.3967 11.488 7.09186 7.90863 5.53652
internal_count=125 64 44 61 42
is_linear=0
shrinkage=0.05


Tree=46
num_leaves=6
num_cat=0
split_feature=125 6 72 11 146
split_gain=22.7387 2.41429 0.000470782 0.000396612 5.47686e-05
threshold=0.99983854854515564 0.20618102265328467 0.29977574684886488 0.38535031847133761 0.066915269070556768
decision_type=2 2 2 2 2
left_child=1 2 3 -1 -4
right_child=-2 -3 4 -5 -6
leaf_value=-0.048204526225521557 0.078823138159227396 0.004649907856339835 -0.046975805854182547 -0.047348668064443655 -0.047301780406537645
leaf_weight=2.928833022713663 6.2635438889265052 2.8089529871940604 2.5218665227293968 2.5168750360608101 2.6348435431718826
leaf_count=21 23 19 21 20 21
internal_value=0.000168761 -0.0365654 -0.0474848 -0.047809 -0.0471424
internal_weight=19.6749 13.4114 10.6024 5.44571 5.15671
internal_count=125 102 83 41 42
is_linear=0
shrinkage=0.05


Tree=47
num_leaves=4
num_cat=0
split_feature=2 106 141
split_gain=30.3956 0.00032912 0.000149633
threshold=0.091007472357460303 0.47168301207052915 0.17939065608915658
decision_type=2 2 2
left_child=-1 -2 -3
right_child=1 2 -4
leaf_value=0.082981245904518136 -0.047633480497270897 -0.046869687585050453 -0.047295167637986482
leaf_weight=6.9974460601806667 4.1716835945844641 4.0128242373466474 4.2600859552621841
leaf_count=25 32 34 34
internal_value=-0.000391745 -0.0472714 -0.0470888
internal_weight=19.442 12.4446 8.27291
internal_count=125 100 68
is_linear=0
shrinkage=0.05


Tree=48
num_leaves=5
num_cat=0
split_feature=105 2 106 33
split_gain=26.7363 0.0118657 0.000687124 7.69909e-05
threshold=0.81318692307692297 0.34597156398104278 0.47168301207052915 1.0000000180025095e-35
decision_type=2 2 2 2
left_child=1 2 -1 -4
right_child=-2 -3 3 -5
leaf_value=-0.047322084056791551 0.073282096927742804 -0.050630626324974531 -0.046211365186793592 -0.046598933575226785
leaf_weight=3.8554388284683245 7.4392218440771094 2.6095000430941573 2.1013110876083374 3.2840032577514648
leaf_count=31 28 17 20 29
internal_value=-0.00101308 -0.0476533 -0.0468125 -0.0464477
internal_weight=19.2895 11.8503 9.24075 5.38531
internal_count=125 97 80 49
is_linear=0
shrinkage=0.05


Tree=49
num_leaves=5
num_cat=0
split_feature=5 9 83 136
split_gain=19.2201 6.77629 0.00222647 0.000565349
threshold=0.17709850859695045 0.67427205562798798 0.34899334882665023 0.65786181304131985
decision_type=2 2 2 2
left_child=-1 2 3 -2
right_child=1 -3 -4 -5
leaf_value=0.10157954165229653 -0.046763730721486346 0.021902391519893115 -0.048683012567760732 -0.047676465801500409
leaf_weight=3.7530587166547802 4.485093876719473 5.271795690059661 3.2627696469426155 2.7287377864122391
leaf_count=13 39 29 23 21
internal_value=-0.000101471 -0.0243334 -0.0475992 -0.047109
internal_weight=19.5015 15.7484 10.4766 7.21383
internal_count=125 112 83 60
is_linear=0
shrinkage=0.05


Tree=50
num_leaves=5
num_cat=0
split_feature=44 107 137 33
split_gain=11.166 3.49996 0.322229 0.00490551
threshold=0.023018318797220289 0.42307692307692274 0.58561681013803191 0.0022535142166067502
decision_type=2 2 2 2
left_child=-1 -2 3 -3
right_child=1 2 -4 -5
leaf_value=0.052554018457073429 0.014568428144222207 -0.049425125139710535 -0.026483751705077354 -0.046757454970024093
leaf_weight=6.7883307039737728 3.7424258887767783 2.9333320409059507 2.3447344377636909 4.1775570884346962
leaf_count=30 20 20 19 36
internal_value=0.000443588 -0.0263591 -0.0425577 -0.0478579
internal_weight=19.9864 13.198 9.45562 7.11089
internal_count=125 95 75 56
is_linear=0
shrinkage=0.05


Tree=51
num_leaves=4
num_cat=0
split_feature=23 33 8
split_gain=8.99481 10.4209 0.000489079
threshold=0.69828115951961156 1.0000000180025095e-35 0.73104287067265716
decision_type=2 2 2
left_child=2 -2 -1
right_child=1 -3 -4
leaf_value=-0.047482054031387277 0.05824810597527335 -0.037127429224315001 -0.046593370930625211
leaf_weight=2.5435094013810184 8.3144955039024335 4.3688831701874724 3.9563701972365379
leaf_count=20 39 31 35
internal_value=0.000885488 0.0253953 -0.0469411
internal_weight=19.1833 12.6834 6.49988
internal_count=125 70 55
is_linear=0
shrinkage=0.05


Tree=52
num_leaves=5
num_cat=0
split_feature=125 1 116 37
split_gain=20.2767 2.72259 0.000588793 7.50277e-05
threshold=0.99983854854515564 0.20145396157752163 0.33747854378606473 1.0000000180025095e-35
decision_type=2 2 2 2
left_child=1 2 3 -1
right_child=-2 -3 -4 -5
leaf_value=-0.047053849857061875 0.072844309889510031 0.01075695690129452 -0.047617255508274579 -0.046697993856099219
leaf_weight=2.6604725569486636 6.4186377525329581 2.5190612971782675 4.3982177376747131 3.3416223898530006
leaf_count=22 23 17 34 29
internal_value=0.000206592 -0.0358815 -0.0471778 -0.0468557
internal_weight=19.338 12.9194 10.4003 6.00209
internal_count=125 102 85 51
is_linear=0
shrinkage=0.05


Tree=53
num_leaves=4
num_cat=0
split_feature=2 121 105
split_gain=27.3883 0.000347562 0.000288306
threshold=0.091007472357460303 0.25896738677678866 0.74175835164835113
decision_type=2 2 2
left_child=-1 -2 -3
right_child=1 2 -4
leaf_value=0.07687357552461585 -0.046507948771735197 -0.047383964883028651 -0.046808000590449088
leaf_weight=7.1518898755311993 3.1195030510425559 4.7860971614718419 3.9790666326880455
leaf_count=25 28 38 34
internal_value=-0.000437409 -0.0469612 -0.0471225
internal_weight=19.0366 11.8847 8.76516
internal_count=125 100 72
is_linear=0
shrinkage=0.05


Tree=54
num_leaves=5
num_cat=0
split_feature=84 101 106 82
split_gain=24.8481 0.0119524 0.000701293 8.83246e-05
threshold=0.74237806561693598 0.48717276993123904 0.47168301207052915 0.32058895611162291
decision_type=2 2 2 2
left_child=1 2 -1 -4
right_child=-2 -3 3 -5
leaf_value=-0.047068667535366045 0.069932878400015538 -0.050477689184037271 -0.046002060367240458 -0.046412942570394113
leaf_weight=3.5845490545034426 7.4552593007683745 2.4284030497074118 3.2436504811048508 2.1916938126087189
leaf_count=30 28 15 32 20
internal_value=-0.00110402 -0.0473641 -0.0465258 -0.0461677
internal_weight=18.9036 11.4483 9.01989 5.43534
internal_count=125 97 82 52
is_linear=0
shrinkage=0.05


Tree=55
num_leaves=5
num_cat=0
split_feature=90 87 93 2
split_gain=17.8488 10.5787 0.00598241 0.000548237
threshold=0.97168811233998853 0.5330466836311768 0.33422661680373317 0.13270142180094793
decision_type=2 2 2 2
left_child=1 -1 3 -3
right_child=-2 2 -4 -5
leaf_value=0.054802931984970771 0.091390391475770369 -0.046256835345375877 -0.049156216654539592 -0.04711560267151034
leaf_weight=3.2103649079799679 4.1614892184734336 3.0701544582843763 3.9993321523070335 4.7090320587158203
leaf_count=16 14 29 27 39
internal_value=-0.00022031 -0.025655 -0.0475846 -0.0467767
internal_weight=19.1504 14.9889 11.7785 7.77919
internal_count=125 111 95 68
is_linear=0
shrinkage=0.05


Tree=56
num_leaves=5
num_cat=0
split_feature=63 97 144 56
split_gain=10.152 4.98114 0.00409841 5.53178e-05
threshold=0.065000000000000016 0.28369893969297189 0.0014670422961324469 0.67123691186471457
decision_type=2 2 2 2
left_child=-1 -2 -3 -4
right_child=1 2 3 -5
leaf_value=0.045388276627759856 0.025071334364984585 -0.048601853874644621 -0.046261068908633386 -0.046607373448698648
leaf_weight=7.6986500173807171 3.2296859771013251 4.2114260420203191 2.1415993645787239 2.4984788224101067
leaf_count=34 18 31 20 22
internal_value=0.000515559 -0.0280793 -0.0474725 -0.0464475
internal_weight=19.7798 12.0812 8.8515 4.64008
internal_count=125 91 73 42
is_linear=0
shrinkage=0.05


Tree=57
num_leaves=5
num_cat=0
split_feature=43 68 46 17
split_gain=8.44257 6.97273 1.76077 0.0269524
threshold=0.02835098523710031 0.75740216114100167 0.73896398750271108 0.36384206478448516
decision_type=2 2 2 2
left_child=-1 2 3 -2
right_child=1 -3 -4 -5
leaf_value=0.057882819588986695 -0.053109712531396062 0.05202846073486405 -0.0072881427440841936 -0.047096664419540114
leaf_weight=4.8624384850263622 3.1827416568994504 2.8058083504438391 3.6196776553988457 4.4962567314505577
leaf_count=25 17 16 29 38
internal_value=0.00106816 -0.0185184 -0.0360373 -0.0495889
internal_weight=18.9669 14.1045 11.2987 7.679
internal_count=125 100 84 55
is_linear=0
shrinkage=0.05


Tree=58
num_leaves=5
num_cat=0
split_feature=125 1 116 37
split_gain=18.229 2.67626 0.000521853 0.000120472
threshold=0.99983854854515564 0.20145396157752163 0.33747854378606473 1.0000000180025095e-35
decision_type=2 2 2 2
left_child=1 2 3 -1
right_child=-2 -3 -4 -5
leaf_value=-0.046825201577445595 0.067913319258014915 0.01085989614562132 -0.04730383149153005 -0.046364143794852666
leaf_weight=2.5651114657521266 6.5316814035177222 2.5145384669303885 4.2080023288726807 3.1649738177657127
leaf_count=22 23 17 34 29
internal_value=0.000262743 -0.0352215 -0.046881 -0.0465705
internal_weight=18.9843 12.4526 9.93809 5.73009
internal_count=125 102 85 51
is_linear=0
shrinkage=0.05


Tree=59
num_leaves=5
num_cat=0
split_feature=5 135 68 106
split_gain=24.9422 0.365235 0.0414264 0.000420198
threshold=0.92029732272603237 0.63044492242437433 0.30361026197637336 0.47168301207052915
decision_type=2 2 2 2
left_child=1 2 3 -1
right_child=-2 -3 -4 -5
leaf_value=-0.047150830889729822 0.075856973281225648 -0.026507142060963232 -0.054115495857722296 -0.046365914927397639
leaf_weight=3.0240575820207614 6.7850773259997359 2.2954294905066481 2.5936993435025215 3.9093444719910622
leaf_count=25 28 19 17 36
internal_value=-0.000556564 -0.0444111 -0.0487248 -0.0467083
internal_weight=18.6076 11.8225 9.5271 6.9334
internal_count=125 97 78 61
is_linear=0
shrinkage=0.05


Tree=60
num_leaves=5
num_cat=0
split_feature=105 70 106 20
split_gain=22.3023 0.0150785 0.0007312 0.000133742
threshold=0.81318692307692297 0.37470807935560285 0.47168301207052915 0.42119029196608576
decision_type=2 2 2 2
left_child=1 2 -1 -4
right_child=-2 -3 3 -5
leaf_value=-0.046839858618892546 0.064416533328771758 -0.050952699080591204 -0.04562373147766359 -0.046130353127348034
leaf_weight=3.4538445696234721 7.6082819253206244 2.146102435886859 2.3562339916825294 2.9134159982204437
leaf_count=30 28 14 25 28
internal_value=-0.00124069 -0.0471981 -0.0462744 -0.0459038
internal_weight=18.4779 10.8696 8.72349 5.26965
internal_count=125 97 83 53
is_linear=0
shrinkage=0.05


Tree=61
num_leaves=6
num_cat=0
split_feature=90 87 5 109 135
split_gain=16.1231 9.88249 0.00598887 0.000565046 0.000175926
threshold=0.97168811233998853 0.5330466836311768 0.60445869034207911 0.29315487841382548 0.54494619754534401
decision_type=2 2 2 2 2
left_child=1 -1 -3 -4 -5
right_child=-2 2 3 4 -6
leaf_value=0.051145052518403594 0.086352829650135549 -0.048969854992843009 -0.047059626994659993 -0.045839002619556896 -0.046435295979382389
leaf_weight=3.2986235171556499 4.1884106993675223 3.5230083614587766 2.7424799054861069 2.2528194710612297 2.7430810332298279
leaf_count=16 14 24 23 23 25
internal_value=-9.78578e-05 -0.0249667 -0.047261 -0.046483 -0.0461664
internal_weight=18.7484 14.56 11.2614 7.73838 4.9959
internal_count=125 111 95 71 48
is_linear=0
shrinkage=0.05


Tree=62
num_leaves=5
num_cat=0
split_feature=44 3 137 56
split_gain=9.18734 3.30068 0.359782 0.0113259
threshold=0.023018318797220289 0.26857130930176898 0.58561681013803191 0.72335427801496877
decision_type=2 2 2 2
left_child=-1 -2 3 -3
right_child=1 2 -4 -5
leaf_value=0.046233333661284855 0.01336000262814499 -0.046221891057163969 -0.024686321401107061 -0.050410499800678368
leaf_weight=7.0427477359771755 3.852542780339717 3.4815141111612302 2.1800206899642944 3.0085232183337212
leaf_count=30 24 33 19 19
internal_value=0.000545846 -0.0251489 -0.0422604 -0.0481636
internal_weight=19.5653 12.5226 8.67006 6.49004
internal_count=125 95 71 52
is_linear=0
shrinkage=0.05


Tree=63
num_leaves=5
num_cat=0
split_feature=21 2 90 8
split_gain=8.30747 8.61102 4.83517 0.00111745
threshold=0.70733927156012466 0.13270142180094793 0.83937600901016662 0.73104287067265716
decision_type=2 2 2 2
left_child=3 -2 -3 -1
right_child=1 2 -4 -5
leaf_value=-0.047456995696735643 -0.036552474410901648 0.089020301812963568 0.014457863967544952 -0.046083796467343202
leaf_weight=2.5120332688093212 3.9899112060666075 4.3985430002212507 4.2996183410286903 3.6112982183694839
leaf_count=20 29 19 22 35
internal_value=0.00118258 0.0242655 0.0521631 -0.0466471
internal_weight=18.8114 12.6881 8.69816 6.12333
internal_count=125 70 41 55
is_linear=0
shrinkage=0.05


Tree=64
num_leaves=5
num_cat=0
split_feature=125 1 116 33
split_gain=16.3286 2.59688 0.000570876 0.000112275
threshold=0.99983854854515564 0.20145396157752163 0.33747854378606473 1.0000000180025095e-35
decision_type=2 2 2 2
left_child=1 2 3 -1
right_child=-2 -3 -4 -5
leaf_value=-0.046505105829954381 0.063201903062757636 0.010451241178902627 -0.047038064446181027 -0.046047864008791843
leaf_weight=2.4362050294876116 6.6311629414558402 2.5283001363277426 4.0414228290319443 2.990654781460762
leaf_count=22 23 17 34 29
internal_value=0.000237068 -0.034567 -0.0465882 -0.0462531
internal_weight=18.6277 11.9966 9.46828 5.42686
internal_count=125 102 85 51
is_linear=0
shrinkage=0.05


Tree=65
num_leaves=4
num_cat=0
split_feature=2 106 0
split_gain=22.8545 0.000356113 0.000175119
threshold=0.091007472357460303 0.47168301207052915 0.40978770814491944
decision_type=2 2 2
left_child=-1 -2 -3
right_child=1 2 -4
leaf_value=0.067847598918901575 -0.046855219304348841 -0.045953208337214953 -0.046455075943070724
leaf_weight=7.2931471765041378 3.7048585340380651 2.9177987650036812 4.2994233667850494
leaf_count=25 32 29 39
internal_value=-0.000690724 -0.0464567 -0.0462522
internal_weight=18.2152 10.9221 7.21722
internal_count=125 100 68
is_linear=0
shrinkage=0.05


end of trees

feature_importances:
Column_2=16
Column_105=13
Column_70=12
Column_125=11
Column_72=10
Column_106=9
Column_1=8
Column_5=8
Column_8=8
Column_21=8
Column_33=7
Column_90=7
Column_22=6
Column_101=6
Column_44=5
Column_63=5
Column_0=4
Column_37=4
Column_56=4
Column_68=4
Column_87=4
Column_137=4
Column_144=4
Column_3=3
Column_4=3
Column_6=3
Column_98=3
Column_109=3
Column_116=3
Column_121=3
Column_9=2
Column_13=2
Column_17=2
Column_23=2
Column_34=2
Column_43=2
Column_47=2
Column_58=2
Column_64=2
Column_73=2
Column_75=2
Column_76=2
Column_83=2
Column_84=2
Column_97=2
Column_99=2
Column_107=2
Column_113=2
Column_135=2
Column_136=2
Column_141=2
Column_7=1
Column_10=1
Column_11=1
Column_15=1
Column_19=1
Column_20=1
Column_24=1
Column_46=1
Column_48=1
Column_55=1
Column_65=1
Column_66=1
Column_67=1
Column_79=1
Column_82=1
Column_85=1
Column_86=1
Column_88=1
Column_92=1
Column_93=1
Column_108=1
Column_117=1
Column_131=1
Column_143=1
Column_146=1

parameters:
[boosting: gbdt]
[objective: multiclass]
[metric: custom]
[tree_learner: serial]
[device_type: cpu]
[data_sample_strategy: bagging]
[data: ]
[valid: ]
[num_iterations: 10000]
[learning_rate: 0.05]
[num_leaves: 63]
[num_threads: 0]
[seed: 1237]
[deterministic: 0]
[force_col_wise: 0]
[force_row_wise: 0]
[histogram_pool_size: -1]
[max_depth: -1]
[min_data_in_leaf: 20]
[min_sum_hessian_in_leaf: 0.001]
[bagging_fraction: 1]
[pos_bagging_fraction: 1]
[neg_bagging_fraction: 1]
[bagging_freq: 0]
[bagging_seed: 32458]
[bagging_by_query: 0]
[feature_fraction: 0.9]
[feature_fraction_bynode: 1]
[feature_fraction_seed: 15412]
[extra_trees: 0]
[extra_seed: 19498]
[early_stopping_round: 0]
[early_stopping_min_delta: 0]
[first_metric_only: 0]
[max_delta_step: 0]
[lambda_l1: 0]
[lambda_l2: 0]
[linear_lambda: 0]
[min_gain_to_split: 0]
[drop_rate: 0.1]
[max_drop: 50]
[skip_drop: 0.5]
[xgboost_dart_mode: 0]
[uniform_drop: 0]
[drop_seed: 818]
[top_rate: 0.2]
[other_rate: 0.1]
[min_data_per_group: 100]
[max_cat_threshold: 32]
[cat_l2: 10]
[cat_smooth: 10]
[max_cat_to_onehot: 4]
[top_k: 20]
[monotone_constraints: ]
[monotone_constraints_method: basic]
[monotone_penalty: 0]
[feature_contri: ]
[forcedsplits_filename: ]
[refit_decay_rate: 0.9]
[cegb_tradeoff: 1]
[cegb_penalty_split: 0]
[cegb_penalty_feature_lazy: ]
[cegb_penalty_feature_coupled: ]
[path_smooth: 0]
[interaction_constraints: ]
[verbosity: -1]
[saved_feature_importance_type: 0]
[use_quantized_grad: 0]
[num_grad_quant_bins: 4]
[quant_train_renew_leaf: 0]
[stochastic_rounding: 1]
[linear_tree: 0]
[max_bin: 255]
[max_bin_by_feature: ]
[min_data_in_bin: 3]
[bin_construct_sample_cnt: 200000]
[data_random_seed: 4078]
[is_enable_sparse: 1]
[enable_bundle: 1]
[use_missing: 1]
[zero_as_missing: 0]
[feature_pre_filter: 1]
[pre_partition: 0]
[two_round: 0]
[header: 0]
[label_column: ]
[weight_column: ]
[group_column: ]
[ignore_column: ]
[categorical_feature: ]
[forcedbins_filename: ]
[precise_float_parser: 0]
[parser_config_file: ]
[objective_seed: 21231]
[num_class: 6]
[is_unbalance: 0]
[scale_pos_weight: 1]
[sigmoid: 1]
[boost_from_average: 1]
[reg_sqrt: 0]
[alpha: 0.9]
[fair_c: 1]
[poisson_max_delta_step: 0.7]
[tweedie_variance_power: 1.5]
[lambdarank_truncation_level: 30]
[lambdarank_norm: 1]
[label_gain: ]
[lambdarank_position_bias_regularization: 0]
[eval_at: ]
[multi_error_top_k: 1]
[auc_mu_weights: ]
[num_machines: 1]
[local_listen_port: 12400]
[time_out: 120]
[machine_list_filename: ]
[machines: ]
[gpu_platform_id: -1]
[gpu_device_id: -1]
[gpu_use_dp: 0]
[num_gpu: 1]

end of parameters

pandas_categorical:null
