tree
version=v4
num_class=6
num_tree_per_iteration=6
label_index=0
max_feature_idx=147
objective=multiclass num_class:6
feature_names=Column_0 Column_1 Column_2 Column_3 Column_4 Column_5 Column_6 Column_7 Column_8 Column_9 Column_10 Column_11 Column_12 Column_13 Column_14 Column_15 Column_16 Column_17 Column_18 Column_19 Column_20 Column_21 Column_22 Column_23 Column_24 Column_25 Column_26 Column_27 Column_28 Column_29 Column_30 Column_31 Column_32 Column_33 Column_34 Column_35 Column_36 Column_37 Column_38 Column_39 Column_40 Column_41 Column_42 Column_43 Column_44 Column_45 Column_46 Column_47 Column_48 Column_49 Column_50 Column_51 Column_52 Column_53 Column_54 Column_55 Column_56 Column_57 Column_58 Column_59 Column_60 Column_61 Column_62 Column_63 Column_64 Column_65 Column_66 Column_67 Column_68 Column_69 Column_70 Column_71 Column_72 Column_73 Column_74 Column_75 Column_76 Column_77 Column_78 Column_79 Column_80 Column_81 Column_82 Column_83 Column_84 Column_85 Column_86 Column_87 Column_88 Column_89 Column_90 Column_91 Column_92 Column_93 Column_94 Column_95 Column_96 Column_97 Column_98 Column_99 Column_100 Column_101 Column_102 Column_103 Column_104 Column_105 Column_106 Column_107 Column_108 Column_109 Column_110 Column_111 Column_112 Column_113 Column_114 Column_115 Column_116 Column_117 Column_118 Column_119 Column_120 Column_121 Column_122 Column_123 Column_124 Column_125 Column_126 Column_127 Column_128 Column_129 Column_130 Column_131 Column_132 Column_133 Column_134 Column_135 Column_136 Column_137 Column_138 Column_139 Column_140 Column_141 Column_142 Column_143 Column_144 Column_145 Column_146 Column_147
feature_infos=[0:1.0000000000000002] [0:1] [0:1] [0:1] [0:0.99717114568599707] [0:1] [0:1] [0.14807557732680721:0.99608117564730492] [0:1] [0.0026075619295958252:0.92452556859336532] [0:0.99558639215619849] [0:1.0000000000000002] [0:1.0000000000000002] [0:1] [0:1] [0:1] [0:1] [0:1] [0:1] [0:1] [0:1] [0:1] [0:0.99774094757444476] [0:1] [0:1] [0:0.81788078384719898] [0:0.95880156994768317] [0:0.80251345832540955] [0:0.91006711166758236] [0:1] [0:0.99999999999999989] [0:0.99999999999999989] [0:1] [0:1] [0:1] [0:1] [0:0.99999999999999989] [0:1] [0:1] [0:1] [0:1] [0:1] [0:1] [0:1] [0:1] [0.087947882736152394:0.9706840390879421] [0.026578073089694954:0.97674418604650981] [0.083881578947369917:0.97697368421051323] [0.06478405315614566:0.9767441860465027] [0.087593721916590539:0.96775269683674736] [0.026737768496417402:0.97995769147320289] [0.083001254822860915:0.9742233584688762] [0.063782457564521167:0.97424580768242208] [0:1] [0:1] [0:1] [0:1] [0:1] [0:1] [0:1] [0:0.99166666666666692] [0:1] [0:1] [0:1] [0:1] [0:1] [0:1] [0:1] [0:1] [0:1] [0:1] [0:1] [0:1] [0:1] [0:1] [0:0.99999999999999989] [0:0.99999999999999989] [0:1] [0.0057619047021364288:0.99999999999999978] [0:1] [0:0.99999999999999989] [0:1] [0:1] [0.01329418961442369:1] [0:1] [0.50508225924616712:1] [0:0.97008104841418386] [0.48121613806649088:1] [0.30595253715755166:0.99999999999999989] [0.22144741128177059:1] [0.051590550036289928:1] [0.23421191178779954:1] [0.11482969109114943:1] [0:1] [0:0.9965100976059007] [0:1] [0:1] [0:0.99999999999999989] [0:1.0000000000000002] [0:1] [0:0.99999999999999989] [0:1] [0:1] [0:1] [0:0.99999999999999989] [0:0.96703318681318651] [0:0.96666666666666634] [0:0.96703318681318651] [0:0.9669119117647047] [0:1] [0:1] [0:1] [0:1] [0:1] [0:1] [0:1] [0:0.99999999999999989] [0.039682539682539764:1] [0.032000000000000028:1] [0.035856573705179251:0.99999999999999978] [0.03328894806924132:0.99999999999999978] [0:0.90909090909090828] [0:0.90909090909090828] [0:0.90909090909090828] [0:0.90909090909090828] [0:1] [0:1] [0:1] [0:1] [0:0.9940053984049021] [0:0.99390565515160256] [0:0.99405349709387847] [0:0.99378562064803289] [0:0.84085000507382768] [0:0.94334263929180118] [0:0.79246117192919807] [0:0.81619198117178238] [0:0.72677595628415315] [0:1] [0:0.78612716763005808] [0:0.9495708154506437] [0:0.83333333333333326] [0:0.88888888888888884] [0:0.8333334166666666] [0:0.66666666666666663] [0:0.70208871798177075] [0:0.1069137109783363] [0:1]
tree_sizes=452 556 555 652 453 453 681 676 677 778 681 687 679 674 682 680 679 687 683 679 682 780 684 684 680 785 678 672 680 687 678 786 680 672 682 687 683 778 677 670 682 684 684 778 681 675 678 685 688 781 776 674 681 569 680 781 683 676 679 570 685 789 671 674 677 577 683 787 779 672 785 680 684 678 781 673 677 679 683 782 671 774 678 685

Tree=0
num_leaves=3
num_cat=0
split_feature=105 22
split_gain=72.8503 0.24641
threshold=0.82418866106097977 0.47317609420754508
decision_type=2 2
left_child=1 -1
right_child=-2 -3
leaf_value=-1.858828136073307 -1.6303853083983839 -1.8742287761412793
leaf_weight=3.2466182112693849 3.8959418535232535 12.986472845077513
leaf_count=20 24 80
internal_value=-1.82455 -1.87115
internal_weight=20.129 16.2331
internal_count=124 100
is_linear=0
shrinkage=1


Tree=1
num_leaves=4
num_cat=0
split_feature=5 59 0
split_gain=44.6407 6.19045 1.77636e-15
threshold=0.32437975008879888 0.0031228415280828612 0.45022698095950658
decision_type=2 2 2
left_child=-1 -2 -3
right_child=1 2 -4
leaf_value=-1.6642200479416567 -1.7972255758014177 -1.8742287761412793 -1.8742287761412793
leaf_weight=3.5712800323963192 3.2466182112693813 8.9282000809907895 4.3829345852136603
leaf_count=22 20 55 27
internal_value=-1.82455 -1.85913 -1.87423
internal_weight=20.129 16.5578 13.3111
internal_count=124 102 82
is_linear=0
shrinkage=1


Tree=2
num_leaves=4
num_cat=0
split_feature=64 105 45
split_gain=20.7715 8.17338 0.880986
threshold=0.019166666666666669 0.42307692307692274 0.58306188925081071
decision_type=2 2 2
left_child=-1 -2 -3
right_child=1 2 -4
leaf_value=-1.6713851748445261 -1.7357750771209322 -1.796301585260754 -1.8259209403079006
leaf_weight=3.8825962990522411 3.8825962990522411 3.3761706948280326 9.7908950150012952
leaf_count=23 23 20 58
internal_value=-1.77576 -1.79953 -1.81833
internal_weight=20.9323 17.0497 13.1671
internal_count=124 101 78
is_linear=0
shrinkage=1


Tree=3
num_leaves=5
num_cat=0
split_feature=63 73 22 0
split_gain=18.8162 6.85265 7.23002 1.77636e-15
threshold=0.011628360535684282 0.12779932649193301 0.81073416856772307 0.4538073032011713
decision_type=2 2 2 2
left_child=-1 2 -2 -3
right_child=1 3 -4 -5
leaf_value=-1.670771937679989 -1.7074435201193134 -1.8259209403079006 -1.8039806773100142 -1.8259209403079006
leaf_weight=3.5449792295694378 3.3761706948280361 5.4018731117248517 4.5578304380178452 4.0514048337936401
leaf_count=21 20 32 27 24
internal_value=-1.77576 -1.79716 -1.7629 -1.82592
internal_weight=20.9323 17.3873 7.934 9.45328
internal_count=124 103 47 56
is_linear=0
shrinkage=1


Tree=4
num_leaves=3
num_cat=0
split_feature=125 13
split_gain=53.2966 1.99477
threshold=0.99505851060951478 0.15352494238246836
decision_type=2 2
left_child=1 -1
right_child=-2 -3
leaf_value=-1.8259209403079006 -1.6208638669045765 -1.7836075759548338
leaf_weight=12.998257175087934 4.3890219032764426 3.5449792295694342
leaf_count=77 26 21
internal_value=-1.77576 -1.81685
internal_weight=20.9323 16.5432
internal_count=124 98
is_linear=0
shrinkage=1


Tree=5
num_leaves=3
num_cat=0
split_feature=2 2
split_gain=83.4291 3.55271e-15
threshold=0.10206592417420594 0.18167456556082148
decision_type=2 2
left_child=-1 -2
right_child=1 -3
leaf_value=-1.5771183579118677 -1.8259209403079006 -1.8259209403079006
leaf_weight=4.2202133685350445 4.2202133685350445 12.491831570863722
leaf_count=25 25 74
internal_value=-1.77576 -1.82592
internal_weight=20.9323 16.712
internal_count=124 99
is_linear=0
shrinkage=1


Tree=6
num_leaves=5
num_cat=0
split_feature=79 107 81 68
split_gain=61.6112 0.00066828 3.41205e-05 1.63042e-05
threshold=0.65502411495516399 0.6181318681318676 0.35059448480507421 0.3488032514137217
decision_type=2 2 2 2
left_child=1 2 3 -1
right_child=-2 -3 -4 -5
leaf_value=-0.049197939808136033 0.1552903150435824 -0.050012993475625683 -0.049309078373557996 -0.049053338110307508
leaf_weight=4.3554005175828951 4.844413921236991 3.1418245881795874 4.2424115538597107 3.5287171900272369
leaf_count=28 27 19 27 23
internal_value=-6.97558e-05 -0.0493631 -0.0491947 -0.0491332
internal_weight=20.1128 15.2684 12.1265 7.88412
internal_count=124 97 78 51
is_linear=0
shrinkage=0.05


Tree=7
num_leaves=5
num_cat=0
split_feature=5 83 60 4
split_gain=36.9793 3.94811 0.000211518 2.28572e-05
threshold=0.34821111591550685 0.57792265881596372 0.03888290937441919 0.88760481162498339
decision_type=2 2 2 2
left_child=-1 2 -2 -4
right_child=1 -3 3 -5
leaf_value=0.12595898245759984 -0.049635838566091807 0.013015686677669037 -0.049251542584854299 -0.049092164198681829
leaf_weight=4.5170588791370418 3.3902299702167502 3.1979221552610388 4.5325510650873166 4.466316431760788
leaf_count=25 21 20 29 29
internal_value=-9.24618e-06 -0.0365144 -0.0492992 -0.0491724
internal_weight=20.1041 15.587 12.3891 8.99887
internal_count=124 99 79 58
is_linear=0
shrinkage=0.05


Tree=8
num_leaves=5
num_cat=0
split_feature=42 105 79 18
split_gain=22.286 4.88404 0.908981 0.000166783
threshold=1.0000000180025095e-35 0.42307692307692274 0.13300440467424091 0.43849623194230908
decision_type=2 2 2 2
left_child=-1 -2 -3 -4
right_child=1 2 3 -5
leaf_value=0.10237042755555432 0.020542084988515161 -0.019075395533926728 -0.049628617868567843 -0.050060599831761303
leaf_weight=4.2427196949720409 4.2115800529718426 3.260302558541297 5.332661569118498 3.8457766175270081
leaf_count=24 24 20 33 23
internal_value=7.07219e-05 -0.0259966 -0.0417539 -0.0498096
internal_weight=20.893 16.6503 12.4387 9.17844
internal_count=124 100 76 56
is_linear=0
shrinkage=0.05


Tree=9
num_leaves=6
num_cat=0
split_feature=76 22 85 110 105
split_gain=15.2128 21.0967 5.37154 0.2092 0.000236743
threshold=0.15166213863695238 0.80571658110741884 0.65803161773705676 0.38475409360815666 0.82418866106097977
decision_type=2 2 2 2 2
left_child=1 -1 -3 4 -2
right_child=3 2 -4 -5 -6
leaf_value=0.13747559419139629 -0.050260564050110784 0.03612031835028464 -0.049932477096596296 -0.034520765803420332 -0.049662870715614267
leaf_weight=3.7174051553010958 3.3906677514314634 3.4620072990655899 3.8083496987819672 3.2737646549940109 3.2398038804531097
leaf_count=21 20 20 23 20 20
internal_value=7.72189e-05 0.0405852 -0.00895575 -0.0448624 -0.0499685
internal_weight=20.892 10.9878 7.27036 9.90424 6.63047
internal_count=124 64 43 60 40
is_linear=0
shrinkage=0.05


Tree=10
num_leaves=5
num_cat=0
split_feature=125 1 65 109
split_gain=44.401 1.9784 3.03503e-05 1.00425e-05
threshold=0.99505851060951478 0.15352494238246836 0.29500000000000004 0.31879603225997932
decision_type=2 2 2 2
left_child=1 2 3 -1
right_child=-2 -3 -4 -5
leaf_value=-0.049542173629152871 0.13154087745306886 -0.0071457321602020202 -0.049762780921696337 -0.049664103594763177
leaf_weight=3.2076547294855136 4.9087036699056616 3.5000302642583838 5.7202540040016174 3.5662755370140076
leaf_count=20 26 21 35 22
internal_value=-4.32002e-08 -0.0403706 -0.049678 -0.0496064
internal_weight=20.9029 15.9942 12.4942 6.77393
internal_count=124 98 77 42
is_linear=0
shrinkage=0.05


Tree=11
num_leaves=5
num_cat=0
split_feature=15 63 59 42
split_gain=68.0976 3.36592e-05 3.04613e-05 9.62428e-06
threshold=0.10206592417420594 0.011628360535684282 0.57750000000000012 0.029266456410026623
decision_type=2 2 2 2
left_child=-1 -2 3 -3
right_child=1 2 -4 -5
leaf_value=0.16404725613394833 -0.049529267941063604 -0.049715147968404622 -0.04959303523708803 -0.049819419249438751
leaf_weight=4.8536100238561657 3.2046552300453213 5.0467756986618024 3.8664739727973929 3.9411707669496536
leaf_count=25 20 31 24 24
internal_value=-7.17765e-05 -0.0496742 -0.0497104 -0.0497609
internal_weight=20.9127 16.0591 12.8544 8.98795
internal_count=124 99 79 55
is_linear=0
shrinkage=0.05


Tree=12
num_leaves=5
num_cat=0
split_feature=79 143 2 8
split_gain=51.965 0.000852701 0.000122936 5.495e-05
threshold=0.65502411495516399 0.16659730791377145 0.10206592417420594 0.4214774984851144
decision_type=2 2 2 2
left_child=1 2 -1 -4
right_child=-2 -3 3 -5
leaf_value=-0.048502019231049243 0.13267354980608345 -0.049682245058046498 -0.048712390035742466 -0.048975560030613111
leaf_weight=3.627500995993616 5.3864329904317847 3.0549906641244879 3.7091441303491592 4.263449490070343
leaf_count=25 27 19 25 28
internal_value=-0.000128176 -0.0489391 -0.0487433 -0.0488531
internal_weight=20.0415 14.6551 11.6001 7.97259
internal_count=124 97 78 53
is_linear=0
shrinkage=0.05


Tree=13
num_leaves=5
num_cat=0
split_feature=90 88 5 5
split_gain=34.0944 10.971 0.00192027 0.000240542
threshold=0.95634188922879693 0.53693167966497157 0.59897230888918107 0.83167965981573377
decision_type=2 2 2 2
left_child=1 -1 -3 -4
right_child=-2 2 3 -5
leaf_value=0.050593107452937852 0.14914054566809443 -0.050182982278218713 -0.049062754637429325 -0.048571001326179829
leaf_weight=3.4754731655120912 3.2164664864540091 3.3314487040042868 4.604175537824629 5.407376766204834
leaf_count=21 16 20 30 37
internal_value=-8.82038e-06 -0.028533 -0.0491432 -0.0487972
internal_weight=20.0349 16.8185 13.343 10.0116
internal_count=124 108 87 67
is_linear=0
shrinkage=0.05


Tree=14
num_leaves=5
num_cat=0
split_feature=42 105 79 31
split_gain=19.0366 4.54499 0.909727 0.000249902
threshold=1.0000000180025095e-35 0.42307692307692274 0.13300440467424091 0.54459024634897502
decision_type=2 2 2 2
left_child=-1 -2 -3 -4
right_child=1 2 3 -5
leaf_value=0.090326232791062666 0.018956782616627303 -0.018140954761498209 -0.049099859186904266 -0.049643168727097668
leaf_weight=4.5667367875576046 4.2901175171136883 3.1883200258016577 5.2369959056377393 3.551980584859848
leaf_count=24 24 20 34 22
internal_value=0.000120785 -0.0252025 -0.0410198 -0.0493194
internal_weight=20.8342 16.2674 11.9773 8.78898
internal_count=124 100 76 56
is_linear=0
shrinkage=0.05


Tree=15
num_leaves=5
num_cat=0
split_feature=63 85 46 139
split_gain=15.1187 6.21867 0.881537 0.00046558
threshold=0.011628360535684282 0.62035457740575417 0.78858446815399241 0.43168085462069639
decision_type=2 2 2 2
left_child=-1 -2 3 -3
right_child=1 2 -4 -5
leaf_value=0.088586714653640986 0.024213805367174681 -0.049127516924646238 -0.018840507116794913 -0.049893966481629942
leaf_weight=3.9203175902366665 5.3448889255523708 3.2441012263298017 3.2340272814035407 5.0904264003038406
leaf_count=21 31 21 20 31
internal_value=0.000116217 -0.0203901 -0.0409979 -0.0495956
internal_weight=20.8338 16.9134 11.5686 8.33453
internal_count=124 103 72 52
is_linear=0
shrinkage=0.05


Tree=16
num_leaves=5
num_cat=0
split_feature=125 1 93 120
split_gain=37.9159 1.97329 7.50614e-05 6.09714e-05
threshold=0.99505851060951478 0.15352494238246836 0.66861588987579379 0.2316472858883917
decision_type=2 2 2 2
left_child=1 2 3 -1
right_child=-2 -3 -4 -5
leaf_value=-0.049499658609830008 0.11473329494726198 -0.0063367773732516345 -0.049064914154946335 -0.04921810445314373
leaf_weight=3.1948284953832644 5.351406216621398 3.4489384889602652 3.9932656884193412 4.8295416831970215
leaf_count=20 26 21 26 31
internal_value=1.71134e-05 -0.0396745 -0.0492421 -0.0493302
internal_weight=20.818 15.4666 12.0176 8.02437
internal_count=124 98 77 51
is_linear=0
shrinkage=0.05


Tree=17
num_leaves=5
num_cat=0
split_feature=2 137 42 102
split_gain=57.5328 8.11104e-05 5.83244e-05 2.60201e-05
threshold=0.10206592417420594 0.35335876319981663 0.017044091040609926 0.35123526413549139
decision_type=2 2 2 2
left_child=-1 3 -3 -2
right_child=1 2 -4 -5
leaf_value=0.14062835058227188 -0.049196157412372703 -0.049218298938925674 -0.049487985898871052 -0.049006537109037691
leaf_weight=5.3824981451034573 3.7320203632116309 4.6750037521123868 3.5100013613700867 3.5113794356584549
leaf_count=25 24 30 22 23
internal_value=-0.000122455 -0.0492261 -0.0493339 -0.0491042
internal_weight=20.8109 15.4284 8.18501 7.2434
internal_count=124 99 52 47
is_linear=0
shrinkage=0.05


Tree=18
num_leaves=5
num_cat=0
split_feature=105 9 15 137
split_gain=46.2828 0.0026364 0.00017091 9.80786e-05
threshold=0.80109938554321791 0.5228956454490794 0.10206592417420594 0.35335876319981663
decision_type=2 2 2 2
left_child=1 2 -1 -4
right_child=-2 -3 3 -5
leaf_value=-0.048031903268566156 0.11963989982562447 -0.049976315594011472 -0.048230857447279216 -0.048598501317528651
leaf_weight=3.4407520517706889 5.7362308800220481 3.0887418389320365 2.9592616558074951 4.6878485828638077
leaf_count=25 27 19 21 32
internal_value=-0.000195746 -0.0486844 -0.0483246 -0.0484562
internal_weight=19.9128 14.1766 11.0879 7.64711
internal_count=124 97 78 53
is_linear=0
shrinkage=0.05


Tree=19
num_leaves=5
num_cat=0
split_feature=86 88 58 5
split_gain=32.5573 10.9238 0.00408952 0.000321626
threshold=0.93658475611649739 0.53693167966497157 0.31324776839904905 0.83167965981573377
decision_type=2 2 2 2
left_child=1 -1 3 -3
right_child=-2 2 -4 -5
leaf_value=0.051120976519800645 0.1444988630325402 -0.048704809485114964 -0.050468739413919633 -0.048138579266989855
leaf_weight=3.4385927319526735 3.2599090635776511 4.8853398263454419 3.1919945925474158 5.1532993391156197
leaf_count=20 15 33 19 37
internal_value=-1.35794e-05 -0.0282751 -0.0489098 -0.0484141
internal_weight=19.9291 16.6692 13.2306 10.0386
internal_count=124 109 89 70
is_linear=0
shrinkage=0.05


Tree=20
num_leaves=5
num_cat=0
split_feature=42 105 129 8
split_gain=16.6267 4.23939 0.920372 0.000242455
threshold=1.0000000180025095e-35 0.42307692307692274 0.014584276146055066 0.82673475135543217
decision_type=2 2 2 2
left_child=-1 -2 -3 -4
right_child=1 2 3 -5
leaf_value=0.081427014844775825 0.017524701152445404 -0.017062335316180868 -0.049128300022334828 -0.048587585850943742
leaf_weight=4.8324317038059261 4.3621430844068518 3.1064158231019965 4.7830891013145429 3.6592080742120743
leaf_count=24 24 20 31 25
internal_value=0.00020035 -0.0244697 -0.0403318 -0.0488939
internal_weight=20.7433 15.9109 11.5487 8.4423
internal_count=124 100 76 56
is_linear=0
shrinkage=0.05


Tree=21
num_leaves=6
num_cat=0
split_feature=76 22 85 110 8
split_gain=13.5287 16.3065 4.56899 0.222001 0.00103657
threshold=0.15166213863695238 0.80571658110741884 0.65803161773705676 0.38475409360815666 0.80141514588929164
decision_type=2 2 2 2 2
left_child=1 -1 -3 4 -2
right_child=3 2 -4 -5 -6
leaf_value=0.11591618483839819 -0.050078339798063004 0.030609187990863842 -0.049138327968859426 -0.033141016350234469 -0.048795221517517189
leaf_weight=4.1492902487516421 3.3274812400341016 3.6555974334478378 3.5308891534805298 3.1042984426021576 2.9868741035461426
leaf_count=21 20 20 23 20 20
internal_value=0.000197705 0.0369946 -0.00857263 -0.0440891 -0.0494714
internal_weight=20.7544 11.3358 7.18649 9.41865 6.31436
internal_count=124 64 43 60 40
is_linear=0
shrinkage=0.05


Tree=22
num_leaves=5
num_cat=0
split_feature=125 108 1 79
split_gain=32.8015 1.95893 0.000628111 0.000108149
threshold=0.99505851060951478 0.24816154411764638 0.073770491803278701 0.65502411495516399
decision_type=2 2 2 2
left_child=1 -1 3 -3
right_child=-2 2 -4 -5
leaf_value=-0.0063321183942054854 0.10160502911199754 -0.048944871229863574 -0.049596518812243064 -0.048575534878256832
leaf_weight=3.5121732056140926 5.7415286600589743 4.5519730150699598 3.3744357228279105 3.5107388645410538
leaf_count=23 26 30 21 24
internal_value=2.11047e-05 -0.0389938 -0.0490238 -0.0487841
internal_weight=20.6908 14.9493 11.4371 8.06271
internal_count=124 98 75 54
is_linear=0
shrinkage=0.05


Tree=23
num_leaves=5
num_cat=0
split_feature=2 137 54 102
split_gain=49.2605 0.000143514 0.000110983 2.39793e-05
threshold=0.10206592417420594 0.33992641710045363 0.4004858366731528 0.35123526413549139
decision_type=2 2 2 2
left_child=-1 3 -3 -2
right_child=1 2 -4 -5
leaf_value=0.12255929684758785 -0.048712307096028994 -0.048769826875145923 -0.049139727873087527 -0.048521284966233903
leaf_weight=5.8534891754388836 3.5594976097345343 4.476884111762045 3.7068155556917191 3.0511714369058609
leaf_count=25 24 30 24 21
internal_value=-0.000219265 -0.0487974 -0.0489374 -0.0486241
internal_weight=20.6479 14.7944 8.1837 6.61067
internal_count=124 99 54 45
is_linear=0
shrinkage=0.05


Tree=24
num_leaves=5
num_cat=0
split_feature=105 9 2 8
split_gain=39.9574 0.0025689 0.000210655 0.000130248
threshold=0.80109938554321791 0.5228956454490794 0.10206592417420594 0.4214774984851144
decision_type=2 2 2 2
left_child=1 2 -1 -4
right_child=-2 -3 3 -5
leaf_value=-0.047594285996165712 0.10514849043167754 -0.049588915948482838 -0.047888517424031093 -0.048312808940641272
leaf_weight=3.2582032084465045 6.1729483902454367 2.9882373362779608 4.0594741329550743 3.2623775601387024
leaf_count=25 27 19 30 23
internal_value=-0.000313857 -0.0482944 -0.0479287 -0.0480776
internal_weight=19.7412 13.5683 10.5801 7.32185
internal_count=124 97 78 53
is_linear=0
shrinkage=0.05


Tree=25
num_leaves=6
num_cat=0
split_feature=90 87 58 2 45
split_gain=32.9936 9.76012 0.00664581 0.000393009 0.000116995
threshold=0.96986804545223404 0.5670287160937213 0.38328614035711545 0.10206592417420594 0.59680486331560845
decision_type=2 2 2 2 2
left_child=1 -1 3 -3 -5
right_child=-2 2 -4 4 -6
leaf_value=0.043418187600503567 0.14825389474550807 -0.047593092840164261 -0.050713697899993138 -0.048482595583008957 -0.048062146793064718
leaf_weight=3.7003669887781205 3.1515844017267218 3.2576765790581685 3.0466857254505149 3.1790789514780045 3.4502305760979652
leaf_count=21 13 25 18 22 25
internal_value=-8.13318e-05 -0.0281858 -0.048672 -0.0480428 -0.0482638
internal_weight=19.7856 16.634 12.9337 9.88699 6.62931
internal_count=124 111 90 72 47
is_linear=0
shrinkage=0.05


Tree=26
num_leaves=5
num_cat=0
split_feature=63 3 33 8
split_gain=13.5914 5.99516 0.00251304 0.00033246
threshold=0.065000000000000016 0.28948637796998083 1.0000000180025095e-35 0.80141514588929164
decision_type=2 2 2 2
left_child=-1 -2 -3 -4
right_child=1 2 3 -5
leaf_value=0.058617151173998495 0.022690112939985529 -0.050324084017991537 -0.04903206971630869 -0.048303590171041216
leaf_weight=6.7292097657918957 4.1136076450347892 3.506814777851103 3.0093800127506256 3.2658721953630447
leaf_count=35 25 21 20 23
internal_value=0.000290843 -0.0279546 -0.049252 -0.0486529
internal_weight=20.6249 13.8957 9.78207 6.27525
internal_count=124 89 64 43
is_linear=0
shrinkage=0.05


Tree=27
num_leaves=5
num_cat=0
split_feature=21 33 26 6
split_gain=12.5628 14.5063 6.83622 0.0014646
threshold=0.70733927156012466 1.0000000180025095e-35 0.81125413842556915 0.0073220198119597129
decision_type=2 2 2 2
left_child=3 2 -2 -1
right_child=1 -3 -4 -5
leaf_value=-0.04991913444108554 0.11709591121185262 -0.038839108466915316 0.024789198741102334 -0.048538012282763859
leaf_weight=3.2664579004049328 4.0978199094533903 4.6806268543004981 3.9289613962173462 4.6550991833209991
leaf_count=20 20 30 22 32
internal_value=0.00031191 0.031119 0.0719135 -0.0491075
internal_weight=20.629 12.7074 8.02678 7.92156
internal_count=124 72 42 52
is_linear=0
shrinkage=0.05


Tree=28
num_leaves=5
num_cat=0
split_feature=125 1 130 81
split_gain=28.8069 2.05167 0.000316731 5.22205e-05
threshold=0.99505851060951478 0.15352494238246836 0.20229646666218593 0.69972972867392047
decision_type=2 2 2 2
left_child=1 2 -1 -4
right_child=-2 -3 3 -5
leaf_value=-0.048839558874148675 0.09150686525437457 -0.0035482729911858442 -0.048458232099632313 -0.048173425904807325
leaf_weight=4.644102558493616 6.067427083849906 3.280361294746398 2.8847220987081528 3.6407360732555389
leaf_count=31 26 21 20 26
internal_value=7.70291e-05 -0.0383138 -0.0485239 -0.0482993
internal_weight=20.5173 14.4499 11.1696 6.52546
internal_count=124 98 77 46
is_linear=0
shrinkage=0.05


Tree=29
num_leaves=5
num_cat=0
split_feature=2 137 42 102
split_gain=42.8983 0.000147579 0.000202512 3.06859e-05
threshold=0.10206592417420594 0.33992641710045363 0.017044091040609926 0.35123526413549139
decision_type=2 2 2 2
left_child=-1 3 -3 -2
right_child=1 2 -4 -5
leaf_value=0.10890922568899274 -0.048319052899442806 -0.048308943423376258 -0.048818657713313209 -0.048098057900009504
leaf_weight=6.2424953430891064 3.4139891713857633 4.263353630900383 3.5891901403665543 2.9093763530254364
leaf_count=25 24 30 24 21
internal_value=-0.000304054 -0.0483972 -0.0485419 -0.0482174
internal_weight=20.4184 14.1759 7.85254 6.32337
internal_count=124 99 54 45
is_linear=0
shrinkage=0.05


Tree=30
num_leaves=5
num_cat=0
split_feature=79 142 2 8
split_gain=35.9488 0.00600684 0.000245403 0.000122676
threshold=0.65502411495516399 0.27821525584076573 0.10206592417420594 0.4214774984851144
decision_type=2 2 2 2
left_child=1 2 -1 -4
right_child=-2 -3 3 -5
leaf_value=-0.047189180515588326 0.096185899358317367 -0.050255171864938268 -0.047503806811555936 -0.047911523129198309
leaf_weight=3.083142355084421 6.4454641342163077 2.5843561813235274 3.4786950349807739 3.928419828414917
leaf_count=25 27 16 27 29
internal_value=-0.000454573 -0.048096 -0.047564 -0.04772
internal_weight=19.5201 13.0746 10.4903 7.40711
internal_count=124 97 81 56
is_linear=0
shrinkage=0.05


Tree=31
num_leaves=6
num_cat=0
split_feature=90 87 58 2 45
split_gain=27.9907 9.08031 0.00597123 0.000427001 0.000103337
threshold=0.96986804545223404 0.5670287160937213 0.38328614035711545 0.10206592417420594 0.59680486331560845
decision_type=2 2 2 2 2
left_child=1 -1 3 -3 -5
right_child=-2 2 -4 4 -6
leaf_value=0.039908010297795497 0.13052904740269441 -0.047188099026242332 -0.050252447313504325 -0.048115188581140417 -0.047711597744490492
leaf_weight=3.8195481747388902 3.3892682194709769 3.0826437324285489 2.9373735934495917 3.0488221198320389 3.3056945577263832
leaf_count=21 13 25 18 22 25
internal_value=-0.000135851 -0.0274828 -0.0482838 -0.047671 -0.0479052
internal_weight=19.5834 16.1941 12.3745 9.43716 6.35452
internal_count=124 111 90 72 47
is_linear=0
shrinkage=0.05


Tree=32
num_leaves=5
num_cat=0
split_feature=42 97 89 33
split_gain=13.688 3.8979 1.9283 0.00262187
threshold=1.0000000180025095e-35 0.28369893969297189 0.81257385331746079 1.0000000180025095e-35
decision_type=2 2 2 2
left_child=-1 -2 3 -3
right_child=1 2 -4 -5
leaf_value=0.070723697951701345 0.024800232343151395 -0.049708439941729882 -0.0037608461739862733 -0.047970988165182193
leaf_weight=5.1752365231514004 3.3018893748521796 3.9762099608778936 3.2692779153585425 4.7835239171981812
leaf_count=24 19 25 21 35
internal_value=0.000413665 -0.0233208 -0.0365298 -0.0487597
internal_weight=20.5061 15.3309 12.029 8.75973
internal_count=124 100 81 60
is_linear=0
shrinkage=0.05


Tree=33
num_leaves=5
num_cat=0
split_feature=21 37 83 8
split_gain=11.6758 12.6641 7.19126 0.00155762
threshold=0.70733927156012466 1.0000000180025095e-35 0.14413883452929746 0.73574254834300923
decision_type=2 2 2 2
left_child=3 2 -2 -1
right_child=1 -3 -4 -5
leaf_value=-0.049559198588383632 0.019052349400205851 -0.038063603319839892 0.1117764199837723 -0.048107339610406717
leaf_weight=3.1621427088975933 4.1435730904340726 4.5151062160730353 4.2212607264518738 4.4430690109729767
leaf_count=20 21 30 21 32
internal_value=0.000413154 0.0294195 0.065845 -0.048711
internal_weight=20.4852 12.8799 8.36483 7.60521
internal_count=124 72 42 52
is_linear=0
shrinkage=0.05


Tree=34
num_leaves=5
num_cat=0
split_feature=125 13 80 65
split_gain=25.3909 2.02889 0.00030776 0.000174669
threshold=0.99505851060951478 0.15352494238246836 0.51708631210597011 0.067183766534353498
decision_type=2 2 2 2
left_child=1 2 3 -1
right_child=-2 -3 -4 -5
leaf_value=-0.048112697812191206 0.082923137187930152 -0.0030309137282536285 -0.047837330380212234 -0.048652887514896229
leaf_weight=3.0526307523250598 6.3587597608566275 3.2498867958784095 4.7114735692739487 2.9354697465896606
leaf_count=22 26 21 35 20
internal_value=0.00011643 -0.0376304 -0.0481396 -0.0483775
internal_weight=20.3082 13.9495 10.6996 5.9881
internal_count=124 98 77 42
is_linear=0
shrinkage=0.05


Tree=35
num_leaves=5
num_cat=0
split_feature=2 139 42 59
split_gain=37.7866 0.000138726 0.000260348 5.59904e-05
threshold=0.10206592417420594 0.33798330793146464 0.017044091040609926 0.57750000000000012
decision_type=2 2 2 2
left_child=-1 3 -3 -2
right_child=1 2 -4 -5
leaf_value=0.098116083833983347 -0.047978949522879517 -0.047898615979072336 -0.048466110116974583 -0.047655781204294902
leaf_weight=6.5626487284898785 2.7329363152384749 4.6092416793107969 3.599141351878643 2.6301586106419563
leaf_count=25 20 34 25 20
internal_value=-0.000386258 -0.0480182 -0.0481474 -0.0478205
internal_weight=20.1341 13.5715 8.20838 5.36309
internal_count=124 99 59 40
is_linear=0
shrinkage=0.05


Tree=36
num_leaves=5
num_cat=0
split_feature=70 106 18 117
split_gain=31.9823 0.00487521 0.00103197 9.97402e-05
threshold=0.51991979752247586 0.60500494924151782 0.31285639240127255 0.29494354373559201
decision_type=2 2 2 2
left_child=1 2 -1 -4
right_child=-2 -3 3 -5
leaf_value=-0.048167615756341688 0.087151471736249278 -0.049707898300710568 -0.04717820479387206 -0.04677783576412492
leaf_weight=2.8567476943135279 6.7463277280330649 2.9078648537397376 4.312843419611454 2.4331730455160141
leaf_count=21 28 19 35 21
internal_value=-0.000596406 -0.0479142 -0.0473711 -0.0470338
internal_weight=19.257 12.5106 9.60276 6.74602
internal_count=124 96 77 56
is_linear=0
shrinkage=0.05


Tree=37
num_leaves=6
num_cat=0
split_feature=5 88 55 78 5
split_gain=25.0882 7.54642 0.233562 0.00337944 0.000535264
threshold=0.18232011453279015 0.52020358037571945 0.90730569864505572 0.34089225391073913 0.83167965981573377
decision_type=2 2 2 2 2
left_child=-1 -2 3 4 -3
right_child=1 2 -4 -5 -6
leaf_value=0.12045648022031873 0.041552967221683577 -0.047805881436261945 -0.03110675861699809 -0.049416775828435386 -0.046946825738870393
leaf_weight=3.5255122333765057 3.1976765841245642 3.4548864215612394 2.603430099785327 2.7351114153862 3.8162000551819801
leaf_count=13 17 26 18 18 32
internal_value=-0.000151208 -0.0270504 -0.0444475 -0.0479186 -0.047355
internal_weight=19.3328 15.8073 12.6096 10.0062 7.27109
internal_count=124 111 94 76 58
is_linear=0
shrinkage=0.05


Tree=38
num_leaves=5
num_cat=0
split_feature=42 3 105 5
split_gain=12.0298 3.69315 0.98903 0.00347124
threshold=1.0000000180025095e-35 0.28948637796998083 0.7307692307692305 0.84905089686481328
decision_type=2 2 2 2
left_child=-1 -2 3 -3
right_child=1 2 -4 -5
leaf_value=0.064599672921193188 0.014946306595942713 -0.049775387401161553 -0.014455229438569625 -0.047617793872061387
leaf_weight=5.3858135640621212 4.5663044154644004 3.6715635657310468 2.9441848993301392 3.7868976593017578
leaf_count=24 27 23 21 29
internal_value=0.000517574 -0.0225391 -0.0389935 -0.0486799
internal_weight=20.3548 14.969 10.4026 7.45846
internal_count=124 100 73 52
is_linear=0
shrinkage=0.05


Tree=39
num_leaves=5
num_cat=0
split_feature=21 2 22 8
split_gain=10.7998 11.1394 11.6344 0.00167558
threshold=0.70733927156012466 0.10206592417420594 0.80571658110741884 0.73574254834300923
decision_type=2 2 2 2
left_child=3 -2 -3 -1
right_child=1 2 -4 -5
leaf_value=-0.049215309979952937 -0.048412926367153858 0.11626888308727926 0.0053515281040367292 -0.047678246835400583
leaf_weight=3.057735517621043 3.5134814977645865 4.3318042755126935 5.2049679011106491 4.2201457396149635
leaf_count=20 25 19 28 32
internal_value=0.000477865 0.0276938 0.0557325 -0.048324
internal_weight=20.3281 13.0503 9.53677 7.27788
internal_count=124 72 47 52
is_linear=0
shrinkage=0.05


Tree=40
num_leaves=5
num_cat=0
split_feature=125 6 82 117
split_gain=22.6092 2.33322 0.000456762 0.000365441
threshold=0.99505851060951478 0.2775119617224881 0.65397553495118643 0.29763888773289832
decision_type=2 2 2 2
left_child=1 2 3 -1
right_child=-2 -3 -4 -5
leaf_value=-0.048437271645109227 0.076008000221135588 0.0028233661283896356 -0.047448107847457906 -0.047666799063927026
leaf_weight=3.7248026728630084 6.5983125567436209 2.8929694890975943 4.2277236357331276 2.6226323768496513
leaf_count=26 26 19 33 20
internal_value=0.000182553 -0.0369659 -0.0478507 -0.0481189
internal_weight=20.0664 13.4681 10.5752 6.34744
internal_count=124 98 79 46
is_linear=0
shrinkage=0.05


Tree=41
num_leaves=5
num_cat=0
split_feature=2 137 54 59
split_gain=33.59 0.000207101 0.000285771 6.13296e-05
threshold=0.10206592417420594 0.33992641710045363 0.4004858366731528 0.57750000000000012
decision_type=2 2 2 2
left_child=-1 3 -3 -2
right_child=1 2 -4 -5
leaf_value=0.089376759997121219 -0.047594121378310816 -0.047555349290718175 -0.048185339581924093 -0.047266085430241925
leaf_weight=6.8192238360643413 3.1229434534907323 3.8949415385723114 3.3468465432524681 2.6204052940011024
leaf_count=25 24 30 24 21
internal_value=-0.000479902 -0.0476687 -0.0478465 -0.0474445
internal_weight=19.8044 12.9851 7.24179 5.74335
internal_count=124 99 54 45
is_linear=0
shrinkage=0.05


Tree=42
num_leaves=5
num_cat=0
split_feature=105 94 109 94
split_gain=29.0259 0.00560943 0.000579302 0.000122736
threshold=0.80109938554321791 0.50546448087431706 0.31879603225997932 0.251366127808136
decision_type=2 2 2 2
left_child=1 2 -1 -4
right_child=-2 -3 3 -5
leaf_value=-0.047634197807310742 0.080971976809956811 -0.049631594904216869 -0.046595634558857818 -0.047033219240601491
leaf_weight=2.575667545199396 6.9144651889801017 2.5603220239281645 4.3830266743898392 2.5259664952754974
leaf_count=20 27 17 39 21
internal_value=-0.000681404 -0.0475548 -0.0469942 -0.0467556
internal_weight=18.9594 12.045 9.48466 6.90899
internal_count=124 97 80 60
is_linear=0
shrinkage=0.05


Tree=43
num_leaves=6
num_cat=0
split_feature=5 88 55 84 5
split_gain=21.8697 7.0686 0.233546 0.00308568 0.000534917
threshold=0.18232011453279015 0.52020358037571945 0.90730569864505572 0.42726927818636229 0.83167965981573377
decision_type=2 2 2 2 2
left_child=-1 -2 3 4 -3
right_child=1 2 -4 -5 -6
leaf_value=0.1094508864321042 0.03879755074143626 -0.047484885801862595 -0.030505428944890858 -0.04908131855430397 -0.046614238660414829
leaf_weight=3.6723190248012569 3.2758603096008292 3.4393537044525129 2.5356762483716002 2.503394141793251 3.6220776960253716
leaf_count=13 17 27 18 17 32
internal_value=-0.000175632 -0.0263576 -0.0439965 -0.047573 -0.0470383
internal_weight=19.0487 15.3764 12.1005 9.56483 7.06143
internal_count=124 111 94 76 59
is_linear=0
shrinkage=0.05


Tree=44
num_leaves=5
num_cat=0
split_feature=115 25 146 86
split_gain=10.9753 4.44336 0.330977 0.00825248
threshold=0.37855906951926505 0.51238281628946014 0.049115216342350845 0.61102838201592657
decision_type=2 2 2 2
left_child=1 -1 3 -3
right_child=-2 2 -4 -5
leaf_value=0.011136609321656551 0.064916899356811789 -0.047953195054121496 -0.028172129054121964 -0.051576165890713621
leaf_weight=6.4116956442594555 4.9978905767202368 3.2155609652399999 2.4852079898118973 3.0747571736574173
leaf_count=39 24 24 19 18
internal_value=0.000646908 -0.0205034 -0.0436207 -0.0497241
internal_weight=20.1851 15.1872 8.77553 6.29032
internal_count=124 100 61 42
is_linear=0
shrinkage=0.05


Tree=45
num_leaves=5
num_cat=0
split_feature=23 33 83 8
split_gain=9.98366 9.96202 8.28157 0.00176071
threshold=0.69828115951961156 1.0000000180025095e-35 0.15107429504307962 0.73574254834300923
decision_type=2 2 2 2
left_child=3 2 -2 -1
right_child=1 -3 -4 -5
leaf_value=-0.048874497751570649 0.010023699473260629 -0.036891613861164081 0.10648417009915612 -0.047264774941757792
leaf_weight=2.9530908018350628 4.6545094400644285 4.2488458007574073 4.2631524354219437 3.9992907643318176
leaf_count=20 23 30 19 32
internal_value=0.000522418 0.0261168 0.0561373 -0.0479485
internal_weight=20.1189 13.1665 8.91766 6.95238
internal_count=124 72 42 52
is_linear=0
shrinkage=0.05


Tree=46
num_leaves=5
num_cat=0
split_feature=125 6 82 117
split_gain=20.1374 2.30503 0.000493963 0.000368773
threshold=0.99505851060951478 0.2775119617224881 0.65397553495118643 0.29763888773289832
decision_type=2 2 2 2
left_child=1 2 3 -1
right_child=-2 -3 -4 -5
leaf_value=-0.048120253007308059 0.069866695662950548 0.003232900866581085 -0.047081721860661035 -0.047329642634421763
leaf_weight=3.5937452912330645 6.8106006234884253 2.8736655116081229 4.0189567133784294 2.5016747713088989
leaf_count=26 26 19 33 20
internal_value=0.00023081 -0.0362845 -0.047512 -0.0477958
internal_weight=19.7986 12.988 10.1144 6.09542
internal_count=124 98 79 46
is_linear=0
shrinkage=0.05


Tree=47
num_leaves=5
num_cat=0
split_feature=2 137 42 10
split_gain=29.9581 0.000221123 0.000357971 9.03145e-05
threshold=0.10206592417420594 0.33992641710045363 0.017044091040609926 0.59106140971814136
decision_type=2 2 2 2
left_child=-1 3 -3 -2
right_child=1 2 -4 -5
leaf_value=0.081865362920606921 -0.046892431797668631 -0.047186659235639646 -0.04790643828160366 -0.047298937361328314
leaf_weight=7.0284790396690395 2.7121638804674131 3.7030918672680855 3.2376551553606987 2.753580667078495
leaf_count=25 23 30 24 22
internal_value=-0.000610933 -0.0473351 -0.0475224 -0.0470972
internal_weight=19.435 12.4065 6.94075 5.46574
internal_count=124 99 54 45
is_linear=0
shrinkage=0.05


Tree=48
num_leaves=5
num_cat=0
split_feature=79 103 106 117
split_gain=26.4263 0.00885144 0.000316989 0.000125322
threshold=0.65502411495516399 0.47075471918832296 0.28934237853048561 0.29494354373559201
decision_type=2 2 2 2
left_child=1 2 -1 -4
right_child=-2 -3 3 -5
leaf_value=-0.047029542629831562 0.075414324328413773 -0.049951988060701343 -0.046598420476216609 -0.046146808491258323
leaf_weight=2.8616005182266253 7.0650536119937888 2.505728766322135 3.3819136023521423 2.8146480694413185
leaf_count=24 27 16 30 27
internal_value=-0.000773984 -0.0473219 -0.0465943 -0.0463933
internal_weight=18.6289 11.5639 9.05816 6.19656
internal_count=124 97 81 57
is_linear=0
shrinkage=0.05


Tree=49
num_leaves=6
num_cat=0
split_feature=5 88 55 78 5
split_gain=19.2851 6.57989 0.23458 0.00297307 0.000510505
threshold=0.18232011453279015 0.52020358037571945 0.90730569864505572 0.37189308498032275 0.83167965981573377
decision_type=2 2 2 2 2
left_child=-1 -2 3 4 -3
right_child=1 2 -4 -5 -6
leaf_value=0.10074123739390178 0.035918669557439463 -0.047155734873174038 -0.029873128344555955 -0.048804130552430755 -0.046292043367279989
leaf_weight=3.7764858603477505 3.3590094298124304 3.4131524786353094 2.4686457589268676 2.289878785610199 3.4304672628641129
leaf_count=13 17 28 18 16 32
internal_value=-0.000221787 -0.0257068 -0.0435484 -0.0472446 -0.0467228
internal_weight=18.7376 14.9612 11.6021 9.1335 6.84362
internal_count=124 111 94 76 60
is_linear=0
shrinkage=0.05


Tree=50
num_leaves=6
num_cat=0
split_feature=121 63 17 63 2
split_gain=10.2596 17.4354 3.7899 0.0123234 0.00110469
threshold=0.47912505036518682 0.1765871361768297 0.22407407407407401 0.10417934385370926 0.12368164767845913
decision_type=2 2 2 2 2
left_child=2 -2 -1 -4 -5
right_child=1 -3 3 4 -6
leaf_value=0.017620009357927621 0.10295414612269001 -0.03672926683142571 -0.051621971018249224 -0.046878655401572412 -0.048356695367484985
leaf_weight=2.8823890239000347 4.9787764698266965 4.0522601455450058 3.0612293183803541 2.5804865062236786 2.4782892540097237
leaf_count=16 22 28 18 22 18
internal_value=0.000783618 0.0402777 -0.0316341 -0.049118 -0.0476027
internal_weight=20.0334 9.03104 11.0024 8.12001 5.05878
internal_count=124 50 74 58 40
is_linear=0
shrinkage=0.05


Tree=51
num_leaves=5
num_cat=0
split_feature=23 33 26 8
split_gain=9.30971 8.79139 3.77037 0.00198499
threshold=0.69828115951961156 1.0000000180025095e-35 0.81125413842556915 0.73574254834300923
decision_type=2 2 2 2
left_child=3 2 -2 -1
right_child=1 -3 -4 -5
leaf_value=-0.048623153235944114 0.08174644485924705 -0.036099698750206279 0.017377846143857952 -0.046879829095814396
leaf_weight=2.8720130622386959 4.9352902919054014 4.0895689874887458 4.2204044461250305 3.7843558341264725
leaf_count=20 20 30 22 32
internal_value=0.000607763 0.0248505 0.0520751 -0.047632
internal_weight=19.9016 13.2453 9.15569 6.65637
internal_count=124 72 42 52
is_linear=0
shrinkage=0.05


Tree=52
num_leaves=5
num_cat=0
split_feature=125 1 80 65
split_gain=17.9009 2.46169 0.000637806 0.000403812
threshold=0.99505851060951478 0.23356667221339303 0.51708631210597011 0.067183766534353498
decision_type=2 2 2 2
left_child=1 2 3 -1
right_child=-2 -3 -4 -5
leaf_value=-0.047105022271828376 0.064262223240785524 0.0067148785421589354 -0.046736797642050777 -0.047943731664250054
leaf_weight=2.6710731238126773 6.9980145692825309 2.697020709514617 4.043804720044136 3.1016319245100021
leaf_count=22 26 18 35 23
internal_value=0.000220325 -0.0355942 -0.0472183 -0.0475557
internal_weight=19.5115 12.5135 9.81651 5.77271
internal_count=124 98 80 45
is_linear=0
shrinkage=0.05


Tree=53
num_leaves=4
num_cat=0
split_feature=5 5 8
split_gain=27.7202 0.0254088 0.000354282
threshold=0.89623474728844998 0.7958390929455571 0.72673434856175978
decision_type=2 2 2
left_child=1 2 -1
right_child=-2 -3 -4
leaf_value=-0.047361478499333406 0.075789771463129679 -0.052667993241949845 -0.04673832736148887
leaf_weight=4.7535590380430239 7.300115853548049 2.5958300456404677 4.384838692843914
leaf_count=38 30 18 38
internal_value=-0.000710225 -0.0483025 -0.0470625
internal_weight=19.0343 11.7342 9.1384
internal_count=124 94 76
is_linear=0
shrinkage=0.05


Tree=54
num_leaves=5
num_cat=0
split_feature=105 94 5 2
split_gain=24.0008 0.00768043 0.000536597 6.98937e-05
threshold=0.80109938554321791 0.50546448087431706 0.77745249707936015 0.10206592417420594
decision_type=2 2 2 2
left_child=1 2 -1 -4
right_child=-2 -3 3 -5
leaf_value=-0.046852510880041477 0.070192510341433811 -0.049593149793784624 -0.045876872801094454 -0.046262436441123073
leaf_weight=3.9053014218807238 7.1943825781345359 2.446971967816352 2.475073829293251 2.2384138703346252
leaf_count=34 27 17 25 21
internal_value=-0.000900189 -0.047121 -0.0464191 -0.04606
internal_weight=18.2601 11.0658 8.61879 4.71349
internal_count=124 97 80 46
is_linear=0
shrinkage=0.05


Tree=55
num_leaves=6
num_cat=0
split_feature=90 87 27 2 54
split_gain=17.1057 10.254 0.00458215 0.000946789 0.000706692
threshold=0.96986804545223404 0.5330466836311768 0.34157397840620168 0.10206592417420594 0.30286990768124389
decision_type=2 2 2 2 2
left_child=1 -1 -3 -4 -5
right_child=-2 2 3 4 -6
leaf_value=0.054173678505171442 0.093592176497842086 -0.049100050290268371 -0.0458845934763083 -0.046577371173642398 -0.047650105743249391
leaf_weight=3.19227506220341 3.8448417484760276 2.6048892289400092 2.4820488914847356 3.5715961828827858 2.6927800178527832
leaf_count=15 13 18 25 32 21
internal_value=-0.000199605 -0.024995 -0.0472593 -0.046711 -0.0470385
internal_weight=18.3884 14.5436 11.3513 8.74643 6.26438
internal_count=124 111 96 78 53
is_linear=0
shrinkage=0.05


Tree=56
num_leaves=5
num_cat=0
split_feature=42 116 89 33
split_gain=9.35218 3.32291 1.00609 0.00232013
threshold=1.0000000180025095e-35 0.34527284919703521 0.84149817316058251 1.0000000180025095e-35
decision_type=2 2 2 2
left_child=-1 2 3 -2
right_child=1 -3 -4 -5
leaf_value=0.055056163193220625 -0.048604528707899115 0.014308805884723805 -0.011176296812979724 -0.046756019419508771
leaf_weight=5.6790479868650463 2.9253116175532323 4.5429561436176291 2.617733970284462 4.0443618521094322
leaf_count=24 21 26 18 35
internal_value=0.000864874 -0.0209148 -0.0376054 -0.0475319
internal_weight=19.8094 14.1304 9.58741 6.96967
internal_count=124 100 74 56
is_linear=0
shrinkage=0.05


Tree=57
num_leaves=5
num_cat=0
split_feature=21 33 81 8
split_gain=8.61226 7.80664 6.44099 0.00184208
threshold=0.70733927156012466 1.0000000180025095e-35 0.16680730664905072 0.73574254834300923
decision_type=2 2 2 2
left_child=3 2 -2 -1
right_child=1 -3 -4 -5
leaf_value=-0.048246754734868461 0.0076352715770213984 -0.035404024119250456 0.090563552772397915 -0.046527065822159021
leaf_weight=2.7556481808424023 4.7636505514383298 3.9512435197830191 4.6048863232135773 3.5806410908699036
leaf_count=20 23 30 19 32
internal_value=0.000710666 0.0235377 0.0483967 -0.047275
internal_weight=19.6561 13.3198 9.36854 6.33629
internal_count=124 72 42 52
is_linear=0
shrinkage=0.05


Tree=58
num_leaves=5
num_cat=0
split_feature=125 1 94 26
split_gain=15.9869 2.38731 0.000601227 0.000147184
threshold=0.99505851060951478 0.23356667221339303 0.46982184118961384 0.25537236568694438
decision_type=2 2 2 2
left_child=1 2 -1 -4
right_child=-2 -3 3 -5
leaf_value=-0.047291202688235306 0.059441531500698287 0.0064248754726463769 -0.04618064587494284 -0.04674577834282366
leaf_weight=4.6979780495166796 7.1533605158329001 2.7078137993812552 2.1107795760035515 2.5367598533630371
leaf_count=38 26 18 20 22
internal_value=0.00022758 -0.0349145 -0.0468923 -0.0464891
internal_weight=19.2067 12.0533 9.34552 4.64754
internal_count=124 98 80 42
is_linear=0
shrinkage=0.05


Tree=59
num_leaves=4
num_cat=0
split_feature=5 4 8
split_gain=25.0239 0.0248332 0.000367513
threshold=0.89623474728844998 0.78900646807963193 0.72673434856175978
decision_type=2 2 2
left_child=1 2 -1
right_child=-2 -3 -4
leaf_value=-0.047044731626882517 0.070263796735605913 -0.052378918693785241 -0.046392697388651503
leaf_weight=4.6559872999787348 7.440694034099578 2.5207453444600096 4.0330148637294769
leaf_count=39 30 18 37
internal_value=-0.00082382 -0.0480096 -0.0467421
internal_weight=18.6504 11.2097 8.689
internal_count=124 94 76
is_linear=0
shrinkage=0.05


Tree=60
num_leaves=5
num_cat=0
split_feature=79 103 106 117
split_gain=21.8735 0.0098842 0.000385958 0.000113723
threshold=0.65502411495516399 0.47075471918832296 0.28934237853048561 0.29494354373559201
decision_type=2 2 2 2
left_child=1 2 -1 -4
right_child=-2 -3 3 -5
leaf_value=-0.046547282300664218 0.065713447323738045 -0.049697379548832354 -0.046018067345762075 -0.045563517559623699
leaf_weight=2.6405247077345866 7.2746812403202048 2.4008575081825247 3.0514292195439339 2.5061451643705368
leaf_count=24 27 16 30 27
internal_value=-0.00105132 -0.0468759 -0.0460496 -0.0458131
internal_weight=17.8736 10.599 8.1981 5.55757
internal_count=124 97 81 57
is_linear=0
shrinkage=0.05


Tree=61
num_leaves=6
num_cat=0
split_feature=4 106 58 2 70
split_gain=15.4962 11.0215 0.00440654 0.000325893 0.000140731
threshold=0.54879773691654898 0.69110647683495297 0.30908588176982738 0.10206592417420594 0.054649768894532554
decision_type=2 2 2 2 2
left_child=1 -1 3 -2 -5
right_child=2 -3 -4 4 -6
leaf_value=0.095365182210385896 -0.045680951106683867 -0.015706625293698869 -0.048742883757380354 -0.046162912360657116 -0.046712439109540073
leaf_weight=5.0119108408689517 1.9111442342400531 4.0287323594093323 2.3754302561283112 2.1860366314649582 2.4945720359683037
leaf_count=18 20 25 18 21 22
internal_value=-0.000324613 0.0458689 -0.0468965 -0.0462311 -0.0464558
internal_weight=18.0078 9.04064 8.96718 6.59175 4.68061
internal_count=124 43 81 63 43
is_linear=0
shrinkage=0.05


Tree=62
num_leaves=5
num_cat=0
split_feature=121 61 20 0
split_gain=8.91404 13.98 3.90112 0.0150476
threshold=0.47912505036518682 0.15140262850340264 0.2369127575406442 0.38878307136015233
decision_type=2 2 2 2
left_child=2 -2 -1 -4
right_child=1 -3 3 -5
leaf_value=0.020142821084514165 0.089594914184947708 -0.035718596229450776 -0.051383933989695818 -0.046935639753347164
leaf_weight=2.7843404337763804 5.3070197552442533 3.8331581875681877 3.4737482890486717 4.1995949968695641
leaf_count=16 22 28 21 37
internal_value=0.000971835 0.0370416 -0.0305537 -0.0489494
internal_weight=19.5979 9.14018 10.4577 7.67334
internal_count=124 50 74 58
is_linear=0
shrinkage=0.05


Tree=63
num_leaves=5
num_cat=0
split_feature=21 37 81 8
split_gain=8.06676 6.96338 5.5475 0.00185604
threshold=0.70733927156012466 1.0000000180025095e-35 0.16680730664905072 0.73574254834300923
decision_type=2 2 2 2
left_child=3 2 -2 -1
right_child=1 -3 -4 -5
leaf_value=-0.047981859589440429 0.0073269480755644824 -0.034616812835291742 0.083621367528590604 -0.046218713245369886
leaf_weight=2.664317429065707 4.7732159495353681 3.802886798977851 4.7572172582149506 3.3940974473953247
leaf_count=20 23 30 19 32
internal_value=0.000846988 0.0225851 0.0454101 -0.0469941
internal_weight=19.3917 13.3333 9.53043 6.05841
internal_count=124 72 42 52
is_linear=0
shrinkage=0.05


Tree=64
num_leaves=5
num_cat=0
split_feature=125 1 2 8
split_gain=14.4427 2.96909 0.000655665 0.000405241
threshold=0.99505851060951478 0.32845212584762745 0.22353870458135863 0.72673434856175978
decision_type=2 2 2 2
left_child=1 2 -1 -4
right_child=-2 -3 3 -5
leaf_value=-0.047370793253487579 0.055628678630546061 0.01707121388081596 -0.046854136223176891 -0.046076650563878704
leaf_weight=2.616574168205263 7.2618708908557883 2.2678191214799872 3.1326713934540749 3.6042490527033806
leaf_count=21 26 15 27 35
internal_value=0.000311556 -0.0342547 -0.0466991 -0.0464382
internal_weight=18.8832 11.6213 9.35349 6.73692
internal_count=124 98 83 62
is_linear=0
shrinkage=0.05


Tree=65
num_leaves=4
num_cat=0
split_feature=2 80 56
split_gain=22.8238 0.000414382 0.000518962
threshold=0.10206592417420594 0.51708631210597011 0.50797682877380135
decision_type=2 2 2
left_child=-1 2 -2
right_child=1 -3 -4
leaf_value=0.067587267876701482 -0.046395417730270422 -0.04613804304839951 -0.047247265268223405
leaf_weight=7.2968383729457882 3.8970785662531835 3.7495893090963364 3.3035831600427628
leaf_count=25 36 36 27
internal_value=-0.000916157 -0.0465643 -0.0467862
internal_weight=18.2471 10.9503 7.20066
internal_count=124 99 63
is_linear=0
shrinkage=0.05


Tree=66
num_leaves=5
num_cat=0
split_feature=105 94 28 5
split_gain=20.046 0.00992063 0.000690082 0.000198226
threshold=0.80109938554321791 0.60928961748633892 0.59952939206914957 0.83167965981573377
decision_type=2 2 2 2
left_child=1 2 -1 -4
right_child=-2 -3 3 -5
leaf_value=-0.046757209030816441 0.061833681154401327 -0.049938980243866393 -0.046001127526788393 -0.04542976787278747
leaf_weight=2.0962652191519755 7.3244895935058585 1.9558890089392651 2.9308533072471619 3.1491301953792572
leaf_count=19 27 14 29 35
internal_value=-0.00118449 -0.0467401 -0.0459749 -0.0457052
internal_weight=17.4566 10.1321 8.17625 6.07998
internal_count=124 97 83 64
is_linear=0
shrinkage=0.05


Tree=67
num_leaves=6
num_cat=0
split_feature=4 106 58 2 70
split_gain=14.3314 9.70873 0.00394071 0.000327703 0.000128254
threshold=0.54879773691654898 0.69110647683495297 0.30908588176982738 0.10206592417420594 0.054649768894532554
decision_type=2 2 2 2 2
left_child=1 -1 3 -2 -5
right_child=2 -3 -4 4 -6
leaf_value=0.089422087819608892 -0.045418956370485708 -0.015021112143483201 -0.048416535854382624 -0.045930710725502977 -0.046466961233062543
leaf_weight=5.0765061527490634 1.8056518286466579 3.9613372385501862 2.2740267962217331 2.089855007827282 2.3903106674551964
leaf_count=18 20 25 18 21 22
internal_value=-0.000268344 0.043644 -0.0466329 -0.0459876 -0.0462168
internal_weight=17.5977 9.03784 8.55984 6.28582 4.48017
internal_count=124 43 81 63 43
is_linear=0
shrinkage=0.05


Tree=68
num_leaves=6
num_cat=0
split_feature=121 61 97 63 84
split_gain=7.99476 12.1174 4.0232 0.0109807 0.00109122
threshold=0.47912505036518682 0.15140262850340264 0.19435854864218763 0.10417934385370926 0.25777900087792716
decision_type=2 2 2 2 2
left_child=2 -2 -1 -4 -5
right_child=1 -3 3 4 -6
leaf_value=0.023733612671767403 0.081788069112647799 -0.035068137975299667 -0.050696910498206973 -0.045941551358436403 -0.047496002122852252
leaf_weight=2.6146401613950747 5.5098437368869764 3.7136518210172653 2.9410881549119949 2.1054636985063553 2.4344141110777855
leaf_count=14 22 28 19 21 20
internal_value=0.00108733 0.0347383 -0.0296567 -0.0483169 -0.0467751
internal_weight=19.3191 9.2235 10.0956 7.48097 4.53988
internal_count=124 50 74 60 41
is_linear=0
shrinkage=0.05


Tree=69
num_leaves=5
num_cat=0
split_feature=21 22 85 8
split_gain=7.44544 6.31739 3.31891 0.00164383
threshold=0.70733927156012466 0.80571658110741884 0.65803161773705676 0.73574254834300923
decision_type=2 2 2 2
left_child=3 -2 -3 -1
right_child=1 2 -4 -5
leaf_value=-0.047620698613866898 0.057938391111352606 0.019488617929874812 -0.04941602700304365 -0.045918643658465146
leaf_weight=2.5439307317137745 6.2687703818082792 3.9534666463732719 3.1320939734578133 3.2067301273345947
leaf_count=20 30 19 23 32
internal_value=0.000894111 0.0213769 -0.0109699 -0.0466716
internal_weight=19.105 13.3543 7.08556 5.75066
internal_count=124 72 42 52
is_linear=0
shrinkage=0.05


Tree=70
num_leaves=6
num_cat=0
split_feature=125 1 2 130 19
split_gain=12.895 2.87453 0.000633085 0.000477824 9.42164e-05
threshold=0.99505851060951478 0.32845212584762745 0.22353870458135863 0.20229646666218593 0.36603838917496206
decision_type=2 2 2 2 2
left_child=1 2 -1 -4 -5
right_child=-2 -3 3 4 -6
leaf_value=-0.04707766819199858 0.051678593939188888 0.016481971011215728 -0.046721621053573394 -0.045555348398624081 -0.046036354046485976
leaf_weight=2.5091741383075732 7.3602312654256812 2.2838603854179373 2.2747936323285103 1.8619534224271772 2.2461502254009247
leaf_count=21 26 15 20 20 22
internal_value=0.000289936 -0.0335535 -0.0464048 -0.0461403 -0.0458183
internal_weight=18.5362 11.1759 8.89207 6.3829 4.1081
internal_count=124 98 83 62 42
is_linear=0
shrinkage=0.05


Tree=71
num_leaves=5
num_cat=0
split_feature=5 4 8 44
split_gain=21.1626 0.0371729 0.000388965 0.000463711
threshold=0.89623474728844998 0.80268741159830281 0.72673434856175978 0.037668122822099845
decision_type=2 2 2 2
left_child=1 2 3 -1
right_child=-2 -3 -4 -5
leaf_value=-0.045977914078202502 0.062761594619648017 -0.053696277224900738 -0.045804543131987951 -0.046984477454331569
leaf_weight=2.2120618000626582 7.5094058737158766 2.0671536773443213 3.608735978603363 2.3702361881732941
leaf_count=22 30 15 37 20
internal_value=-0.00101662 -0.0477048 -0.0461928 -0.0464986
internal_weight=17.7676 10.2582 8.19103 4.5823
internal_count=124 94 79 42
is_linear=0
shrinkage=0.05


Tree=72
num_leaves=5
num_cat=0
split_feature=70 108 64 117
split_gain=18.6186 0.00860971 0.00185118 0.000153472
threshold=0.51991979752247586 0.62040441176470507 0.36772953691584487 0.27797853683025703
decision_type=2 2 2 2
left_child=1 2 3 -1
right_child=-2 -3 -4 -5
leaf_value=-0.045674007838460644 0.058925498996053344 -0.049558407562256671 -0.04714700614656181 -0.045141793965573419
leaf_weight=2.926387161016466 7.3146250396966925 2.0676229819655418 2.1967482268810272 2.5218797996640205
leaf_count=31 28 15 20 30
internal_value=-0.00132272 -0.0466959 -0.0459217 -0.0454277
internal_weight=17.0273 9.71264 7.64502 5.44827
internal_count=124 96 81 61
is_linear=0
shrinkage=0.05


Tree=73
num_leaves=5
num_cat=0
split_feature=56 76 136 5
split_gain=13.2931 5.08179 0.0123532 0.000378355
threshold=0.7294703619825279 0.2303666868426314 0.67800503635577247 0.83167965981573377
decision_type=2 2 2 2
left_child=2 -2 3 -1
right_child=1 -3 -4 -5
leaf_value=-0.046048114919764536 -0.0044368904667774368 0.071840301162788792 -0.050090755919863388 -0.045212279482424143
leaf_weight=3.6755436137318629 3.6513991281390172 5.4319048821926117 2.2674927338957787 2.1435347720980644
leaf_count=36 26 22 15 25
internal_value=-0.000332999 0.0411776 -0.0469601 -0.0457402
internal_weight=17.1699 9.0833 8.08657 5.81908
internal_count=124 48 76 61
is_linear=0
shrinkage=0.05


Tree=74
num_leaves=6
num_cat=0
split_feature=123 61 97 63 5
split_gain=7.26293 10.5626 3.83764 0.00994868 0.000992732
threshold=0.47912505036518682 0.15140262850340264 0.19435854864218763 0.10417934385370926 0.92210282104919383
decision_type=2 2 2 2 2
left_child=2 -2 -1 -4 -5
right_child=1 -3 3 4 -6
leaf_value=0.022597160915923703 0.075335690033533811 -0.034287930316068922 -0.050281323370087928 -0.04713689098366064 -0.045605930494370839
leaf_weight=2.6387091279029864 5.6738388389348966 3.5862488448619843 2.8322606384754181 2.4116886928677559 1.8876735046505926
leaf_count=14 22 28 19 21 20
internal_value=0.00115218 0.0328806 -0.0289193 -0.0479804 -0.0464647
internal_weight=19.0304 9.26009 9.77033 7.13162 4.29936
internal_count=124 50 74 60 41
is_linear=0
shrinkage=0.05


Tree=75
num_leaves=5
num_cat=0
split_feature=21 33 22 8
split_gain=6.91673 5.89593 4.83159 0.00145607
threshold=0.70733927156012466 1.0000000180025095e-35 0.8084185195394179 0.73574254834300923
decision_type=2 2 2 2
left_child=3 2 -2 -1
right_child=1 -3 -4 -5
leaf_value=-0.047295120028503106 0.07592552848926086 -0.033887747899163066 0.0054757448684497508 -0.045653019054340147
leaf_weight=2.4313062876462963 4.8638364374637586 3.6435945406556121 4.8710501343011856 3.035273402929306
leaf_count=20 18 30 24 32
internal_value=0.00100453 0.0203677 0.0406745 -0.0463834
internal_weight=18.8451 13.3785 9.73489 5.46658
internal_count=124 72 42 52
is_linear=0
shrinkage=0.05


Tree=76
num_leaves=5
num_cat=0
split_feature=26 113 82 77
split_gain=11.841 1.88183 0.0477105 0.00219607
threshold=0.81125413842556915 0.34770222043842014 0.3229603457912224 0.60827120541030444
decision_type=2 2 2 2
left_child=1 2 -1 -4
right_child=-2 -3 3 -5
leaf_value=-0.055616420404780834 0.046136813261295387 -0.0021005506605672772 -0.047706326527398112 -0.045639711414543205
leaf_weight=2.0094862133264559 7.9367459788918486 3.0251442193984985 2.2953713834285736 2.9217651411890984
leaf_count=12 38 25 18 31
internal_value=0.00028639 -0.0352102 -0.0490703 -0.046549
internal_weight=18.1885 10.2518 7.22662 5.21714
internal_count=124 86 61 49
is_linear=0
shrinkage=0.05


Tree=77
num_leaves=5
num_cat=0
split_feature=5 4 8 44
split_gain=19.4215 0.0352459 0.000370286 0.000479512
threshold=0.89623474728844998 0.80268741159830281 0.72673434856175978 0.037668122822099845
decision_type=2 2 2 2
left_child=1 2 3 -1
right_child=-2 -3 -4 -5
leaf_value=-0.045699431207521152 0.05928920132199246 -0.053377744033765398 -0.045551438041302725 -0.046747239291903546
leaf_weight=2.0929177701473254 7.5405919328331938 2.0031008720397949 3.4163158684968948 2.2828613743185997
leaf_count=22 30 15 37 20
internal_value=-0.00102828 -0.0474622 -0.0459415 -0.0462461
internal_weight=17.3358 9.7952 7.7921 4.37578
internal_count=124 94 79 42
is_linear=0
shrinkage=0.05


Tree=78
num_leaves=5
num_cat=0
split_feature=72 107 64 5
split_gain=16.9645 0.00840016 0.00163696 0.000168615
threshold=0.4867541938874515 0.65410448385597697 0.36772953691584487 0.83167965981573377
decision_type=2 2 2 2
left_child=1 2 3 -1
right_child=-2 -3 -4 -5
leaf_value=-0.045524644246073651 0.055384641307769059 -0.049526324605954103 -0.046886013942110567 -0.044964929869662079
leaf_weight=2.6521475687623042 7.3263088688254348 1.7775024920701978 2.1019555330276489 2.7312421463429928
leaf_count=29 28 13 20 34
internal_value=-0.00146895 -0.0464364 -0.0457027 -0.0452407
internal_weight=16.5892 9.26285 7.48535 5.38339
internal_count=124 96 83 63
is_linear=0
shrinkage=0.05


Tree=79
num_leaves=6
num_cat=0
split_feature=4 106 58 45 5
split_gain=12.4813 7.971 0.00364758 0.000225897 0.000133879
threshold=0.54879773691654898 0.69110647683495297 0.30908588176982738 0.59680486331560845 0.87134261027636917
decision_type=2 2 2 2 2
left_child=1 -1 3 -2 -5
right_child=2 -3 -4 4 -6
leaf_value=0.081106686968705044 -0.045991542313554325 -0.014265926299460011 -0.047980503472040206 -0.04563335741738056 -0.0450358695095762
leaf_weight=5.0995314717292803 1.9808232337236393 3.8409115448594093 2.135724313557148 1.8556603267788889 1.8949612341821191
leaf_count=18 20 25 18 20 23
internal_value=-0.000284606 0.0401336 -0.0462168 -0.0455596 -0.0453315
internal_weight=16.8076 8.94044 7.86717 5.73144 3.75062
internal_count=124 43 81 63 43
is_linear=0
shrinkage=0.05


Tree=80
num_leaves=5
num_cat=0
split_feature=2 4 46 90
split_gain=6.78203 9.31574 1.63454 0.00871179
threshold=0.16901726560736854 0.54879773691654898 0.63043964742901071 0.68629192398332961
decision_type=2 2 2 2
left_child=3 2 -2 -1
right_child=1 -3 -4 -5
leaf_value=-0.045444341270198141 0.0029756111224439187 0.057157738859876128 -0.049198914063539177 -0.049554791925354773
leaf_weight=2.5252603814005878 2.6905516907572729 7.4862972646951675 3.3956628814339638 2.6331802159547806
leaf_count=28 19 34 24 19
internal_value=0.00125981 0.0198079 -0.026134 -0.0475426
internal_weight=18.731 13.5725 6.08621 5.15844
internal_count=124 77 43 47
is_linear=0
shrinkage=0.05


Tree=81
num_leaves=6
num_cat=0
split_feature=63 44 56 62 21
split_gain=6.43298 4.26571 1.53 0.310243 0.0128519
threshold=0.011628360535684282 0.15995661161742927 0.33757876436162565 0.58065562278242899 0.8096873450713219
decision_type=2 2 2 2 2
left_child=-1 2 -2 4 -4
right_child=1 -3 3 -5 -6
leaf_value=0.050872508179790825 0.003395776056885218 0.033784812700954528 -0.046055366136477122 -0.025765688558273006 -0.050758855138764117
leaf_weight=4.8019604906439808 2.3825672492384902 3.241321198642253 3.5169985666871053 2.1261374577879906 2.4739368259906769
leaf_count=21 13 18 35 21 16
internal_value=0.00105451 -0.0163551 -0.0318336 -0.0421743 -0.0479977
internal_weight=18.5429 13.741 10.4996 8.11707 5.99094
internal_count=124 103 85 72 51
is_linear=0
shrinkage=0.05


Tree=82
num_leaves=5
num_cat=0
split_feature=26 113 80 82
split_gain=10.7493 1.80936 0.0413062 0.00233149
threshold=0.81125413842556915 0.34770222043842014 0.18940978338723857 0.65397553495118643
decision_type=2 2 2 2
left_child=1 2 -1 -4
right_child=-2 -3 3 -5
leaf_value=-0.055017262185874195 0.04332856201258193 -0.0022672906307885364 -0.04752220081576345 -0.045351302181633794
leaf_weight=1.8831353336572663 8.0221790224313718 3.017330676317215 2.2484992444515228 2.7487148344516754
leaf_count=12 38 25 18 31
internal_value=0.000314285 -0.0345493 -0.0487063 -0.0463281
internal_weight=17.9199 9.89768 6.88035 4.99721
internal_count=124 86 61 49
is_linear=0
shrinkage=0.05


Tree=83
num_leaves=5
num_cat=0
split_feature=2 137 56 130
split_gain=17.8622 0.00069106 0.000634298 9.70819e-05
threshold=0.10206592417420594 0.35335876319981663 0.50797682877380135 0.69834452747917231
decision_type=2 2 2 2
left_child=-1 3 -3 -2
right_child=1 2 -4 -5
leaf_value=0.057904264447131149 -0.045649586573819595 -0.045726529638129981 -0.046809791030919735 -0.045162098392006689
leaf_weight=7.2812696993351009 2.4158752858638746 2.5583043023943901 2.8643563538789749 1.7692121490836141
leaf_count=25 26 27 25 21
internal_value=-0.00116234 -0.0459262 -0.0462987 -0.0454435
internal_weight=16.889 9.60775 5.42266 4.18509
internal_count=124 99 52 47
is_linear=0
shrinkage=0.05


end of trees

feature_importances:
Column_2=24
Column_5=23
Column_8=19
Column_105=12
Column_125=12
Column_42=11
Column_63=9
Column_1=8
Column_4=8
Column_21=8
Column_33=8
Column_79=8
Column_22=7
Column_137=7
Column_58=6
Column_106=6
Column_117=6
Column_26=5
Column_88=5
Column_90=5
Column_94=5
Column_45=4
Column_56=4
Column_59=4
Column_70=4
Column_80=4
Column_81=4
Column_82=4
Column_85=4
Column_0=3
Column_6=3
Column_44=3
Column_54=3
Column_55=3
Column_61=3
Column_64=3
Column_65=3
Column_76=3
Column_83=3
Column_87=3
Column_97=3
Column_102=3
Column_121=3
Column_130=3
Column_3=2
Column_9=2
Column_13=2
Column_15=2
Column_18=2
Column_23=2
Column_37=2
Column_46=2
Column_78=2
Column_84=2
Column_86=2
Column_89=2
Column_103=2
Column_107=2
Column_108=2
Column_109=2
Column_110=2
Column_113=2
Column_139=2
Column_10=1
Column_17=1
Column_19=1
Column_20=1
Column_25=1
Column_27=1
Column_28=1
Column_31=1
Column_60=1
Column_62=1
Column_68=1
Column_72=1
Column_73=1
Column_77=1
Column_93=1
Column_115=1
Column_116=1
Column_120=1
Column_123=1
Column_129=1
Column_136=1
Column_142=1
Column_143=1
Column_146=1

parameters:
[boosting: gbdt]
[objective: multiclass]
[metric: custom]
[tree_learner: serial]
[device_type: cpu]
[data_sample_strategy: bagging]
[data: ]
[valid: ]
[num_iterations: 10000]
[learning_rate: 0.05]
[num_leaves: 63]
[num_threads: 0]
[seed: 1237]
[deterministic: 0]
[force_col_wise: 0]
[force_row_wise: 0]
[histogram_pool_size: -1]
[max_depth: -1]
[min_data_in_leaf: 20]
[min_sum_hessian_in_leaf: 0.001]
[bagging_fraction: 1]
[pos_bagging_fraction: 1]
[neg_bagging_fraction: 1]
[bagging_freq: 0]
[bagging_seed: 32458]
[bagging_by_query: 0]
[feature_fraction: 0.9]
[feature_fraction_bynode: 1]
[feature_fraction_seed: 15412]
[extra_trees: 0]
[extra_seed: 19498]
[early_stopping_round: 0]
[early_stopping_min_delta: 0]
[first_metric_only: 0]
[max_delta_step: 0]
[lambda_l1: 0]
[lambda_l2: 0]
[linear_lambda: 0]
[min_gain_to_split: 0]
[drop_rate: 0.1]
[max_drop: 50]
[skip_drop: 0.5]
[xgboost_dart_mode: 0]
[uniform_drop: 0]
[drop_seed: 818]
[top_rate: 0.2]
[other_rate: 0.1]
[min_data_per_group: 100]
[max_cat_threshold: 32]
[cat_l2: 10]
[cat_smooth: 10]
[max_cat_to_onehot: 4]
[top_k: 20]
[monotone_constraints: ]
[monotone_constraints_method: basic]
[monotone_penalty: 0]
[feature_contri: ]
[forcedsplits_filename: ]
[refit_decay_rate: 0.9]
[cegb_tradeoff: 1]
[cegb_penalty_split: 0]
[cegb_penalty_feature_lazy: ]
[cegb_penalty_feature_coupled: ]
[path_smooth: 0]
[interaction_constraints: ]
[verbosity: -1]
[saved_feature_importance_type: 0]
[use_quantized_grad: 0]
[num_grad_quant_bins: 4]
[quant_train_renew_leaf: 0]
[stochastic_rounding: 1]
[linear_tree: 0]
[max_bin: 255]
[max_bin_by_feature: ]
[min_data_in_bin: 3]
[bin_construct_sample_cnt: 200000]
[data_random_seed: 4078]
[is_enable_sparse: 1]
[enable_bundle: 1]
[use_missing: 1]
[zero_as_missing: 0]
[feature_pre_filter: 1]
[pre_partition: 0]
[two_round: 0]
[header: 0]
[label_column: ]
[weight_column: ]
[group_column: ]
[ignore_column: ]
[categorical_feature: ]
[forcedbins_filename: ]
[precise_float_parser: 0]
[parser_config_file: ]
[objective_seed: 21231]
[num_class: 6]
[is_unbalance: 0]
[scale_pos_weight: 1]
[sigmoid: 1]
[boost_from_average: 1]
[reg_sqrt: 0]
[alpha: 0.9]
[fair_c: 1]
[poisson_max_delta_step: 0.7]
[tweedie_variance_power: 1.5]
[lambdarank_truncation_level: 30]
[lambdarank_norm: 1]
[label_gain: ]
[lambdarank_position_bias_regularization: 0]
[eval_at: ]
[multi_error_top_k: 1]
[auc_mu_weights: ]
[num_machines: 1]
[local_listen_port: 12400]
[time_out: 120]
[machine_list_filename: ]
[machines: ]
[gpu_platform_id: -1]
[gpu_device_id: -1]
[gpu_use_dp: 0]
[num_gpu: 1]

end of parameters

pandas_categorical:null
