tree
version=v4
num_class=6
num_tree_per_iteration=6
label_index=0
max_feature_idx=147
objective=multiclass num_class:6
feature_names=Column_0 Column_1 Column_2 Column_3 Column_4 Column_5 Column_6 Column_7 Column_8 Column_9 Column_10 Column_11 Column_12 Column_13 Column_14 Column_15 Column_16 Column_17 Column_18 Column_19 Column_20 Column_21 Column_22 Column_23 Column_24 Column_25 Column_26 Column_27 Column_28 Column_29 Column_30 Column_31 Column_32 Column_33 Column_34 Column_35 Column_36 Column_37 Column_38 Column_39 Column_40 Column_41 Column_42 Column_43 Column_44 Column_45 Column_46 Column_47 Column_48 Column_49 Column_50 Column_51 Column_52 Column_53 Column_54 Column_55 Column_56 Column_57 Column_58 Column_59 Column_60 Column_61 Column_62 Column_63 Column_64 Column_65 Column_66 Column_67 Column_68 Column_69 Column_70 Column_71 Column_72 Column_73 Column_74 Column_75 Column_76 Column_77 Column_78 Column_79 Column_80 Column_81 Column_82 Column_83 Column_84 Column_85 Column_86 Column_87 Column_88 Column_89 Column_90 Column_91 Column_92 Column_93 Column_94 Column_95 Column_96 Column_97 Column_98 Column_99 Column_100 Column_101 Column_102 Column_103 Column_104 Column_105 Column_106 Column_107 Column_108 Column_109 Column_110 Column_111 Column_112 Column_113 Column_114 Column_115 Column_116 Column_117 Column_118 Column_119 Column_120 Column_121 Column_122 Column_123 Column_124 Column_125 Column_126 Column_127 Column_128 Column_129 Column_130 Column_131 Column_132 Column_133 Column_134 Column_135 Column_136 Column_137 Column_138 Column_139 Column_140 Column_141 Column_142 Column_143 Column_144 Column_145 Column_146 Column_147
feature_infos=[0:1.0000000000000002] [0:1] [0:1] [0:1] [0:0.99717114568599707] [0:1] [0:1] [0.087333799860040529:1] [0:1] [0:0.92452556859336532] [0:1] [0:1.0000000000000002] [0:1.0000000000000002] [0:1] [0:1] [0:1] [0:1] [0:1] [0:1] [0:1] [0:1] [0:1] [0:0.98346418609130448] [0:1] [0:1] [0:0.82781462549888496] [0:0.95880156994768317] [0:0.8366248059758461] [0:0.94161073667969908] [0:1] [0:0.99999999999999989] [0:0.99999999999999989] [0:1] [0:1] [0:1] [0:1] [0:0.99999999999999989] [0:1] [0:1] [0:1] [0:1] [0:1] [0:1] [0:1] [0:0.89714285714285724] [0.087947882736152394:0.9804560260586257] [0.026578073089694954:0.97674418604650981] [0.083881578947369917:0.98519736842104066] [0.06478405315614566:0.97729789590254512] [0.087593721916590539:0.98699880951196661] [0.026737768496417402:0.97995769147320289] [0.083001254822860915:0.99197348956352016] [0.063782457564521167:0.98422632734649085] [0:1] [0:1] [0:1] [0:1] [0:1] [0:1] [0:1] [0:0.99166666666666692] [0:0.98999999999999999] [0:1] [0:0.96999999999999997] [0:0.97333333333333316] [0:1] [0:1] [0:1] [0:1] [0:1] [0:1] [0:1] [0:1] [0:1] [0.0080021678247735109:1] [0:0.99999999999999989] [0:0.99999999999999989] [0:1] [0.0057619047021364288:0.99999999999999978] [0:1] [0:0.99999999999999989] [0:1] [0:1] [0.01329418961442369:1] [0:1] [0:0.99914801404405584] [0.059091141473417153:0.97008104841418386] [0:1] [0:0.99999999999999989] [0:0.98482092153768774] [0.10930144901964238:1] [0:1] [0:1] [0:1] [0:0.99999999999999989] [0:1] [0:1] [0:0.99999999999999989] [0:1.0000000000000002] [0:1] [0:0.99999999999999989] [0:1] [0:1] [0:1] [0:0.99999999999999989] [0.010989010989010506:1] [0:1] [0.010989010989010506:1] [0.011029411764705621:0.99999999999999956] [0:1] [0:1] [0:1] [0:1] [0:1] [0:1] [0:1] [0:0.99999999999999989] [0.039682539682539764:0.97936627384993646] [0.016000000000000014:0.98000100336727991] [0.031872509960159334:0.97928406776965704] [0.025299600532623367:0.97922889884227948] [0:0.90909090909090828] [0:0.90909090909090828] [0:0.90909090909090828] [0:0.90909090909090828] [0:1] [0:1] [0:1] [0:1] [0:1] [0:1] [0:1] [0:0.99999999999999989] [0:0.84085000507382768] [0:0.94334263929180118] [0:0.79246117192919807] [0:0.81619198117178238] [0:0.72677595628415315] [0:1] [0:0.78612716763005808] [0:0.9495708154506437] [0:0.83333333333333326] [0:0.88888888888888884] [0:0.8333334166666666] [0:0.66666666666666663] [0:0.70208871798177075] [0:0.1069137109783363] [0:1]
tree_sizes=351 450 554 553 452 352 681 680 679 675 680 690 684 677 682 674 786 691 683 783 681 675 682 688 685 783 678 674 682 689 679 784 681 677 686 687 685 777 678 675 678 682 683 783 681 673 681 687 685 783 786 676 684 688 683 681 570 677 679 685 681 679 567 673 678 685 683 676 674 676 672 684 684 677 570 672 676 683 682 678 670 673 673 794 792 678 672 674 677 687 787 680 663 781 787 684 790 678 780 672 679 688

Tree=0
num_leaves=2
num_cat=0
split_feature=72
split_gain=75.6886
threshold=0.52339827219800816
decision_type=2
left_child=-1
right_child=-2
leaf_value=-1.8259209403079006 -1.595548178830092
leaf_weight=16.374427869915966 4.5578304380178443
leaf_count=97 27
internal_value=-1.77576
internal_weight=20.9323
internal_count=124
is_linear=0
shrinkage=1


Tree=1
num_leaves=3
num_cat=0
split_feature=25 9
split_gain=37.0022 0.912412
threshold=0.38777530468428728 0.40352020860495441
decision_type=2 2
left_child=-1 -2
right_child=1 -3
leaf_value=-1.6738215495252549 -1.8259209403079006 -1.796301585260754
leaf_weight=6.2459157854318645 11.31017182767391 3.3761706948280326
leaf_count=37 67 20
internal_value=-1.77576 -1.81911
internal_weight=20.9323 14.6863
internal_count=124 87
is_linear=0
shrinkage=1


Tree=2
num_leaves=4
num_cat=0
split_feature=64 107 3
split_gain=19.2736 12.5107 0.220246
threshold=0.032163306816452013 0.42803829637160457 0.3418066524042469
decision_type=2 2 2
left_child=-1 -2 -3
right_child=1 2 -4
leaf_value=-1.6778241650721668 -1.7182141946819123 -1.8111112627843273 -1.8259209403079006
leaf_weight=4.0514048337936428 3.7137877643108395 3.3761706948280326 9.7908950150012952
leaf_count=24 22 20 58
internal_value=-1.77576 -1.79926 -1.82212
internal_weight=20.9323 16.8809 13.1671
internal_count=124 100 78
is_linear=0
shrinkage=1


Tree=3
num_leaves=4
num_cat=0
split_feature=132 77 4
split_gain=19.0259 16.2906 3.55432
threshold=0.057461521070295347 0.12353920944762295 0.80268741159830281
decision_type=2 2 2
left_child=1 -1 -2
right_child=2 -3 -4
leaf_value=-1.7855309106981552 -1.8259209403079006 -1.6374341354624211 -1.7666822302136072
leaf_weight=3.7137877643108395 10.128512084484099 3.7137877643108368 3.3761706948280326
leaf_count=22 60 22 20
internal_value=-1.77576 -1.71148 -1.81111
internal_weight=20.9323 7.42758 13.5047
internal_count=124 44 80
is_linear=0
shrinkage=1


Tree=4
num_leaves=3
num_cat=0
split_feature=125 6
split_gain=58.0821 2.22318
threshold=0.99983854854515564 0.12918660287081338
decision_type=2 2
left_child=1 -1
right_child=-2 -3
leaf_value=-1.8742287761412793 -1.6465671403538622 -1.8280268559373622
leaf_weight=13.148803755640989 3.7336109429597846 3.2466182112693778
leaf_count=81 23 20
internal_value=-1.82455 -1.86508
internal_weight=20.129 16.3954
internal_count=124 101
is_linear=0
shrinkage=1


Tree=5
num_leaves=2
num_cat=0
split_feature=2
split_gain=92.1329
threshold=0.083108578202641961
decision_type=2
left_child=-1
right_child=-2
leaf_value=-1.5942171385417825 -1.8742287761412793
leaf_weight=3.5712800323963192 16.557752877473831
leaf_count=22 102
internal_value=-1.82455
internal_weight=20.129
internal_count=124
is_linear=0
shrinkage=1


Tree=6
num_leaves=5
num_cat=0
split_feature=72 2 129 19
split_gain=62.2796 5.49284e-05 2.41038e-05 1.60337e-05
threshold=0.52339827219800816 0.1357207403938275 0.25085784287308133 0.37282423797443026
decision_type=2 2 2 2
left_child=1 -1 3 -3
right_child=-2 2 -4 -5
leaf_value=-0.049515569778478791 0.15005742289800436 -0.049587643263922898 -0.049822982849321691 -0.049736285981746904
leaf_weight=4.6413944512605694 5.1935010254383078 3.3815145790576917 3.7782063782215118 3.914197564125061
leaf_count=29 27 21 23 24
internal_value=-5.25334e-05 -0.04966 -0.0497205 -0.0496674
internal_weight=20.9088 15.7153 11.0739 7.29571
internal_count=124 97 68 45
is_linear=0
shrinkage=0.05


Tree=7
num_leaves=5
num_cat=0
split_feature=56 107 27 20
split_gain=39.9076 4.56948 0.000954135 8.39704e-05
threshold=0.87788866829152035 0.36571781288312716 0.44134483602476543 0.44698428275241175
decision_type=2 2 2 2
left_child=1 -1 -3 -4
right_child=-2 2 3 -5
leaf_value=0.011013913922607159 0.13637929343971694 -0.050620556482710716 -0.049532210982022901 -0.049848681533031874
leaf_weight=4.0766168981790605 4.2706686407327643 3.4860524833202353 5.7701116204261762 3.2918241322040558
leaf_count=24 24 20 36 20
internal_value=4.61771e-05 -0.0349762 -0.0499176 -0.0496472
internal_weight=20.8953 16.6246 12.548 9.06194
internal_count=124 100 76 56
is_linear=0
shrinkage=0.05


Tree=8
num_leaves=5
num_cat=0
split_feature=42 107 139 46
split_gain=22.348 8.60999 0.234259 0.00020704
threshold=1.0000000180025095e-35 0.42803829637160457 0.57779033182831829 0.68205931882820126
decision_type=2 2 2 2
left_child=-1 -2 3 -3
right_child=1 2 -4 -5
leaf_value=0.10259349562332619 0.039054297426851368 -0.049646897828358925 -0.034272783041050955 -0.050125514266627473
leaf_weight=4.2369964867830303 3.8947613835334804 5.8266431391239148 3.2433171123266211 3.690793976187706
leaf_count=24 22 36 20 22
internal_value=6.51067e-05 -0.0260171 -0.0458778 -0.0498325
internal_weight=20.8925 16.6555 12.7608 9.51744
internal_count=124 100 78 58
is_linear=0
shrinkage=0.05


Tree=9
num_leaves=5
num_cat=0
split_feature=76 22 61 71
split_gain=17.1655 18.2892 1.94777 9.58402e-05
threshold=0.12414221150081824 0.82983421631773513 0.090070663052197186 0.47888376339241662
decision_type=2 2 2 2
left_child=1 -1 -2 -4
right_child=2 -3 3 -5
leaf_value=0.1217655396877536 -0.0050329483606260271 -0.024905280730105967 -0.049921197962324561 -0.049589683823288627
leaf_weight=4.6316549181938189 3.331063672900199 3.9279343634843826 5.2977458387613279 3.7046991735696793
leaf_count=26 20 23 32 23
internal_value=5.74305e-05 0.0544593 -0.0376981 -0.0497848
internal_weight=20.8931 8.55959 12.3335 9.00245
internal_count=124 49 75 55
is_linear=0
shrinkage=0.05


Tree=10
num_leaves=5
num_cat=0
split_feature=125 6 69 68
split_gain=47.3202 2.20568 2.76796e-05 1.34218e-05
threshold=0.99983854854515564 0.12918660287081338 0.47665154514847557 0.11666666666666668
decision_type=2 2 2 2
left_child=1 2 3 -1
right_child=-2 -3 -4 -5
leaf_value=-0.049336090042203379 0.14782715501482316 -0.00280362983582093 -0.049130450020906949 -0.049202370120458049
leaf_weight=4.7257687598466891 4.2641963809728614 3.2089784294366828 4.7920159697532654 3.112471804022789
leaf_count=30 23 20 31 20
internal_value=-1.78384e-05 -0.0398203 -0.0492251 -0.049283
internal_weight=20.1034 15.8392 12.6303 7.83824
internal_count=124 101 81 50
is_linear=0
shrinkage=0.05


Tree=11
num_leaves=5
num_cat=0
split_feature=15 1 65 135
split_gain=73.1948 3.11822e-05 1.35446e-05 1.21703e-05
threshold=0.083108578202641961 0.013264848676235666 0.005267963939018727 0.53985908308252828
decision_type=2 2 2 2
left_child=-1 2 -2 -4
right_child=1 -3 3 -5
leaf_value=0.18509689144467936 -0.049253476047067972 -0.049343598793899962 -0.049073780560543054 -0.049199658939132536
leaf_weight=4.2167081385850933 4.2204073965549451 3.9407460391521445 3.5367120355367661 4.2009930461645126
leaf_count=22 27 25 23 27
internal_value=-0.000102807 -0.0492216 -0.0491814 -0.0491421
internal_weight=20.1156 15.8989 11.9581 7.73771
internal_count=124 102 77 50
is_linear=0
shrinkage=0.05


Tree=12
num_leaves=5
num_cat=0
split_feature=107 82 5 62
split_gain=53.7834 0.00297734 7.90537e-05 2.24838e-05
threshold=0.81181358082805322 0.54519377328128027 0.82741030965830664 0.043405520803260482
decision_type=2 2 2 2
left_child=1 2 3 -1
right_child=-2 -3 -4 -5
leaf_value=-0.049102379357958331 0.13083145183066849 -0.050759591136522834 -0.048938653760459083 -0.049288199125999209
leaf_weight=3.0824242234230059 5.6933997273445121 3.4338651448488227 5.158041849732399 3.4497998505830765
leaf_count=20 28 20 34 22
internal_value=-0.000155746 -0.0494652 -0.049085 -0.0492005
internal_weight=20.8175 15.1241 11.6903 6.53222
internal_count=124 96 76 42
is_linear=0
shrinkage=0.05


Tree=13
num_leaves=5
num_cat=0
split_feature=56 107 78 5
split_gain=33.4076 4.39439 0.000938961 4.82685e-05
threshold=0.87788866829152035 0.36571781288312716 0.44834304046686774 0.89588038867753583
decision_type=2 2 2 2
left_child=1 -1 3 -3
right_child=-2 2 -4 -5
leaf_value=0.010514709924482422 0.11716621148503695 -0.049207346253354441 -0.049993330558174225 -0.048954228636781949
leaf_weight=4.1017323136329713 4.7123550474643698 3.7346393316984159 4.4868090450763702 3.7998160868883133
leaf_count=24 24 24 27 25
internal_value=5.558e-05 -0.034173 -0.0494207 -0.0490797
internal_weight=20.8354 16.123 12.0213 7.53446
internal_count=124 100 76 49
is_linear=0
shrinkage=0.05


Tree=14
num_leaves=5
num_cat=0
split_feature=42 108 139 46
split_gain=19.2782 8.01426 0.242622 0.000206236
threshold=1.0000000180025095e-35 0.43435916276523884 0.57779033182831829 0.68205931882820126
decision_type=2 2 2 2
left_child=-1 -2 3 -3
right_child=1 2 -4 -5
leaf_value=0.091258187041937694 0.036172565151952364 -0.049197971512110195 -0.033245508668211979 -0.049684696511164882
leaf_weight=4.5401600748300579 4.0042388588190105 5.5974957644939405 3.1213378757238379 3.5609269589185715
leaf_count=24 22 36 20 22
internal_value=0.000148428 -0.025254 -0.0452842 -0.0493872
internal_weight=20.8242 16.284 12.2798 9.15842
internal_count=124 100 78 58
is_linear=0
shrinkage=0.05


Tree=15
num_leaves=5
num_cat=0
split_feature=69 22 59 72
split_gain=16.0343 21.0143 4.70329 0.000147524
threshold=0.11594767076569841 0.78382743703279423 0.069321545441752577 0.52339827219800816
decision_type=2 2 2 2
left_child=1 -1 -3 -2
right_child=3 2 -4 -5
leaf_value=0.12967182842315048 -0.049552308974885106 -0.049918280469950969 0.029095165303599943 -0.049149411739984002
leaf_weight=4.1301441341638583 4.9762272089719755 3.7907371670007706 3.7431185692548752 4.1809729933738708
leaf_count=22 31 23 21 27
internal_value=0.000152105 0.0390297 -0.0106613 -0.0493684
internal_weight=20.8212 11.664 7.53386 9.1572
internal_count=124 66 44 58
is_linear=0
shrinkage=0.05


Tree=16
num_leaves=6
num_cat=0
split_feature=125 6 60 79 61
split_gain=39.5773 2.21896 5.73345e-05 2.01192e-05 7.29082e-06
threshold=0.99983854854515564 0.12918660287081338 0.17105475898744615 0.63819606388821903 0.05200075252545993
decision_type=2 2 2 2 2
left_child=1 2 4 -4 -1
right_child=-2 -3 3 -5 -6
leaf_value=-0.048647818578778326 0.12642439091456442 -0.0017166532089234058 -0.0490079922135878 -0.048827918426997484 -0.048758699343533239
leaf_weight=2.94810499250889 4.7268146872520438 3.1495331078767768 3.2086514681577682 3.0027074664831161 2.9822150021791458
leaf_count=20 23 20 21 20 20
internal_value=-2.57424e-05 -0.039114 -0.0488148 -0.0489209 -0.0487036
internal_weight=20.018 15.2912 12.1417 6.21136 5.93032
internal_count=124 101 81 41 40
is_linear=0
shrinkage=0.05


Tree=17
num_leaves=5
num_cat=0
split_feature=2 58 10 67
split_gain=60.6969 8.57656e-05 2.79352e-05 1.94725e-05
threshold=0.083108578202641961 0.086047247630802709 0.42112849665060081 1.0000000180025095e-35
decision_type=2 2 2 2
left_child=-1 2 -2 -3
right_child=1 3 -4 -5
leaf_value=0.15580807620890935 -0.048550335156511748 -0.048974963355309167 -0.048750588496899581 -0.048817589150035874
leaf_weight=4.7544054239988354 2.9179143458604804 4.5693315118551237 4.3197453171014786 3.4494623988866806
leaf_count=22 20 30 29 23
internal_value=-0.000182819 -0.0487946 -0.0486699 -0.0489073
internal_weight=20.0109 15.2565 7.23766 8.01879
internal_count=124 102 49 53
is_linear=0
shrinkage=0.05


Tree=18
num_leaves=5
num_cat=0
split_feature=107 82 5 87
split_gain=45.7913 0.00325668 0.000140076 4.83789e-05
threshold=0.81181358082805322 0.54519377328128027 0.82741030965830664 0.61984328697227176
decision_type=2 2 2 2
left_child=1 2 3 -1
right_child=-2 -3 -4 -5
leaf_value=-0.048619056415464559 0.1133104981280886 -0.050384072910291115 -0.04840272697246039 -0.048897173091638269
leaf_weight=3.0830057114362734 6.2080761790275565 3.3375426679849616 4.8808456808328629 3.1729227155447006
leaf_count=21 28 20 34 21
internal_value=-0.000290334 -0.0490141 -0.0486035 -0.0487601
internal_weight=20.6824 14.4743 11.1368 6.25593
internal_count=124 96 76 42
is_linear=0
shrinkage=0.05


Tree=19
num_leaves=6
num_cat=0
split_feature=86 0 56 121 53
split_gain=31.9167 15.0073 0.00443175 0.00160848 0.000141565
threshold=0.93658475611649739 0.72005662788320413 0.82398077857276031 0.44176873321189575 0.26102369866739178
decision_type=2 2 2 2 2
left_child=1 2 3 4 -1
right_child=-2 -3 -4 -5 -6
leaf_value=-0.048875049402131769 0.14240598847659555 0.06823186499241031 -0.051244226571610665 -0.049862397777541187 -0.04840589826793653
leaf_weight=3.0122649222612434 3.3083528876304618 3.3433050066232672 3.199640452861785 4.4201317429542542 3.4490149468183517
leaf_count=20 16 19 18 27 24
internal_value=3.4268e-05 -0.0269978 -0.0496084 -0.0491274 -0.0486246
internal_weight=20.7327 17.4244 14.0811 10.8814 6.46128
internal_count=124 108 89 71 44
is_linear=0
shrinkage=0.05


Tree=20
num_leaves=5
num_cat=0
split_feature=42 3 22 109
split_gain=16.7451 7.52045 0.254651 0.00149828
threshold=1.0000000180025095e-35 0.28452595422084564 0.40746549815760263 0.53205141025641034
decision_type=2 2 2 2
left_child=-1 -2 -3 -4
right_child=1 2 3 -5
leaf_value=0.081901684504560174 0.033208085758361414 -0.032514996172618431 -0.050133783352371224 -0.048794531013036872
leaf_weight=4.8170489370822933 4.1666277647018424 3.0373808294534674 3.4777044206857664 5.2275174558162689
leaf_count=24 24 20 21 35
internal_value=0.000227006 -0.0245027 -0.0449802 -0.0493296
internal_weight=20.7263 15.9092 11.7426 8.70522
internal_count=124 100 76 56
is_linear=0
shrinkage=0.05


Tree=21
num_leaves=5
num_cat=0
split_feature=69 22 85 72
split_gain=14.9775 17.4538 4.68464 0.000141798
threshold=0.11594767076569841 0.78382743703279423 0.65814805816505551 0.52339827219800816
decision_type=2 2 2 2
left_child=1 -1 -3 -2
right_child=3 2 -4 -5
leaf_value=0.11531344274129168 -0.049172653065629714 0.029761603736165095 -0.049674627258335567 -0.048770586197550474
leaf_weight=4.4468186497688311 4.8088450580835325 3.7129500210285187 3.7110617756843567 4.0310806483030319
leaf_count=22 31 21 23 27
internal_value=0.000283614 0.036976 -0.00994641 -0.0489893
internal_weight=20.7108 11.8708 7.42401 8.83993
internal_count=124 66 44 58
is_linear=0
shrinkage=0.05


Tree=22
num_leaves=5
num_cat=0
split_feature=125 6 88 145
split_gain=33.7467 2.25235 9.10654e-05 1.5477e-05
threshold=0.99983854854515564 0.12918660287081338 0.80540902323779096 0.31425157472438847
decision_type=2 2 2 2
left_child=1 2 3 -1
right_child=-2 -3 -4 -5
leaf_value=-0.048280389315553722 0.11052724843749447 -0.00035466901903266146 -0.048632075323279622 -0.048425509165656383
leaf_weight=4.6788389235734957 5.1242861300706855 3.0773711800575247 3.9733628779649734 3.025179997086525
leaf_count=33 23 20 27 21
internal_value=-1.7261e-05 -0.0384091 -0.0484376 -0.0483374
internal_weight=19.879 14.7548 11.6774 7.70402
internal_count=124 101 81 54
is_linear=0
shrinkage=0.05


Tree=23
num_leaves=5
num_cat=0
split_feature=2 58 100 20
split_gain=51.7292 0.000136691 4.09382e-05 4.04115e-05
threshold=0.083108578202641961 0.086047247630802709 0.28964146770812133 0.42338509316118966
decision_type=2 2 2 2
left_child=-1 3 -3 -2
right_child=1 2 -4 -5
leaf_value=0.13520670678532021 -0.048102487674726913 -0.048685061005428312 -0.048448295168238398 -0.048345077082654071
leaf_weight=5.1999914050102261 3.1939190775156003 2.9599719643592834 4.7643460035324097 3.7118310928344727
leaf_count=22 23 20 33 26
internal_value=-0.000249185 -0.0483945 -0.048539 -0.0482329
internal_weight=19.8301 14.6301 7.72432 6.90575
internal_count=124 102 53 49
is_linear=0
shrinkage=0.05


Tree=24
num_leaves=5
num_cat=0
split_feature=83 141 88 2
split_gain=41.3539 0.00396805 0.000339601 6.93406e-05
threshold=0.7281792423409853 0.22545935196613734 0.76220393939806375 0.083108578202641961
decision_type=2 2 2 2
left_child=1 2 3 -1
right_child=-2 -3 -4 -5
leaf_value=-0.047873560460698246 0.10402980696577324 -0.050267467780528242 -0.048664228017250115 -0.048185009091528744
leaf_weight=2.9728505909442919 6.4873262345790854 3.1418690830469123 3.3928245007991791 4.4806764125823975
leaf_count=22 28 19 23 32
internal_value=-0.000312083 -0.0487028 -0.0482495 -0.0480608
internal_weight=20.4755 13.9882 10.8464 7.45353
internal_count=124 96 77 54
is_linear=0
shrinkage=0.05


Tree=25
num_leaves=6
num_cat=0
split_feature=5 0 105 2 137
split_gain=27.3193 10.6183 0.24269 0.00525352 0.000240499
threshold=0.20731585993633875 0.72005662788320413 0.74175835164835113 0.1687594946035583 0.49798421487545302
decision_type=2 2 2 2 2
left_child=-1 2 3 4 -2
right_child=1 -3 -4 -5 -6
leaf_value=0.12564305239613788 -0.048589751159339209 0.054325130487460543 -0.033095053559926313 -0.050495704419183322 -0.047965540113965206
leaf_weight=3.5755099356174496 2.9132082015275973 3.2879431396722785 2.9863334149122229 4.5572031140327454 3.2809715270996094
leaf_count=16 20 18 19 27 24
internal_value=-1.05608e-06 -0.0263872 -0.0457047 -0.0492071 -0.0482591
internal_weight=20.6012 17.0257 13.7377 10.7514 6.19418
internal_count=124 108 90 71 44
is_linear=0
shrinkage=0.05


Tree=26
num_leaves=5
num_cat=0
split_feature=64 108 13 0
split_gain=12.0539 9.51956 0.262077 0.00057213
threshold=0.032163306816452013 0.43435916276523884 0.095586315785552475 0.40978770814491944
decision_type=2 2 2 2
left_child=-1 -2 3 -3
right_child=1 2 -4 -5
leaf_value=0.068808122098817953 0.04357994000920444 -0.049368743509348063 -0.031480921242269658 -0.048529509537041403
leaf_weight=4.8950434476137188 4.1821309179067603 3.2685995399951917 2.9031558483839026 5.3626994788646698
leaf_count=24 22 21 20 37
internal_value=0.000294296 -0.0210448 -0.0444763 -0.0488473
internal_weight=20.6116 15.7166 11.5345 8.6313
internal_count=124 100 78 58
is_linear=0
shrinkage=0.05


Tree=27
num_leaves=5
num_cat=0
split_feature=69 22 59 72
split_gain=13.7947 14.5466 4.41967 0.000177275
threshold=0.11594767076569841 0.78382743703279423 0.069321545441752577 0.52339827219800816
decision_type=2 2 2 2
left_child=1 -1 -3 -2
right_child=3 2 -4 -5
leaf_value=0.10274822948436929 -0.048777649196406134 -0.049303881175997703 0.028287930150949138 -0.04831819491813772
leaf_weight=4.756496191024782 4.6258880347013456 3.5761391669511795 3.7700309306383133 3.8440161645412445
leaf_count=22 31 23 21 27
internal_value=0.000373047 0.0346246 -0.00948401 -0.0485691
internal_weight=20.5726 12.1027 7.34617 8.4699
internal_count=124 66 44 58
is_linear=0
shrinkage=0.05


Tree=28
num_leaves=5
num_cat=0
split_feature=125 6 101 19
split_gain=29.1236 2.24419 0.000106775 1.93085e-05
threshold=0.99983854854515564 0.12918660287081338 0.3598645739720619 0.64944277651449733
decision_type=2 2 2 2
left_child=1 2 -1 -4
right_child=-2 -3 3 -5
leaf_value=-0.048240378483014955 0.098051402705139151 0.00039983248692118895 -0.04785045253587767 -0.048023481262600892
leaf_weight=4.6550938636064547 5.4684580713510504 3.0380339324474326 3.6430730521678925 2.8924428969621658
leaf_count=33 23 20 27 21
internal_value=-1.96309e-05 -0.037711 -0.0480574 -0.047927
internal_weight=19.6971 14.2286 11.1906 6.53552
internal_count=124 101 81 48
is_linear=0
shrinkage=0.05


Tree=29
num_leaves=5
num_cat=0
split_feature=2 100 131 105
split_gain=44.6449 0.000129681 5.40438e-05 3.1633e-05
threshold=0.083108578202641961 0.28964146770812133 0.040472720290684036 0.74175835164835113
decision_type=2 2 2 2
left_child=-1 -2 -3 -4
right_child=1 2 3 -5
leaf_value=0.11921406758045233 -0.048294820491693043 -0.047787212322694617 -0.048125914648173618 -0.047909238042755091
leaf_weight=5.582057565450671 3.1226972341537467 4.1442792415618879 3.3410583138465881 3.3971864283084869
leaf_count=22 22 31 24 25
internal_value=-0.000354412 -0.0480108 -0.0479293 -0.0480167
internal_weight=19.5873 14.0052 10.8825 6.73824
internal_count=124 102 80 49
is_linear=0
shrinkage=0.05


Tree=30
num_leaves=5
num_cat=0
split_feature=72 106 88 2
split_gain=36.7082 0.00154728 0.000630821 0.000110543
threshold=0.52339827219800816 0.6320797364203331 0.76220393939806375 0.083108578202641961
decision_type=2 2 2 2
left_child=1 2 3 -1
right_child=-2 -3 -4 -5
leaf_value=-0.047409714215693496 0.094486323012736906 -0.04925704389322199 -0.048466380477420391 -0.04781358373885243
leaf_weight=2.8016219362616557 6.7807068824768058 2.7529746741056433 3.6043038964271545 4.2866823598742485
leaf_count=22 27 18 25 32
internal_value=-0.000365497 -0.0482 -0.0479278 -0.047654
internal_weight=20.2263 13.4456 10.6926 7.0883
internal_count=124 97 79 54
is_linear=0
shrinkage=0.05


Tree=31
num_leaves=6
num_cat=0
split_feature=90 87 56 121 53
split_gain=30.1912 13.1738 0.0056573 0.00252588 0.000217936
threshold=0.97168811233998853 0.5367311844857221 0.82398077857276031 0.44176873321189575 0.26102369866739178
decision_type=2 2 2 2 2
left_child=1 -1 3 4 -3
right_child=-2 2 -4 -5 -6
leaf_value=0.058935921435274909 0.13937361675948512 -0.048059915544879241 -0.050913510085512648 -0.049285008759224404 -0.047447933069354908
leaf_weight=3.5719455480575624 3.2648323327302924 2.7601240873336774 2.9422372728586188 4.808593288064003 3.0760072842240334
leaf_count=19 13 20 17 31 24
internal_value=7.57378e-06 -0.0265097 -0.0489729 -0.0484365 -0.0477374
internal_weight=20.4237 17.1589 13.587 10.6447 5.83613
internal_count=124 111 92 75 44
is_linear=0
shrinkage=0.05


Tree=32
num_leaves=5
num_cat=0
split_feature=42 3 137 56
split_gain=13.4066 6.85389 0.285835 0.00242503
threshold=1.0000000180025095e-35 0.28452595422084564 0.57650273224043724 0.72335427801496877
decision_type=2 2 2 2
left_child=-1 -2 3 -3
right_child=1 2 -4 -5
leaf_value=0.069589121831683906 0.030485752547680711 -0.048202938611449829 -0.030335649315040611 -0.049979374161547803
leaf_weight=5.2112611830234554 4.2677042335271826 5.1403207629919034 2.7875889763236037 3.0676360502839088
leaf_count=24 24 37 20 19
internal_value=0.000346326 -0.0232949 -0.0441688 -0.0488669
internal_weight=20.4745 15.2633 10.9955 8.20796
internal_count=124 100 76 56
is_linear=0
shrinkage=0.05


Tree=33
num_leaves=5
num_cat=0
split_feature=76 22 121 77
split_gain=12.6986 10.5145 1.75774 0.00337612
threshold=0.12414221150081824 0.82983421631773513 0.2783133900894762 0.54289602853197316
decision_type=2 2 2 2
left_child=1 -1 -2 -4
right_child=2 -3 3 -5
leaf_value=0.086454823380285997 -0.0057225783787574185 -0.022400379911736285 -0.050102498348784032 -0.047977198761038453
leaf_weight=5.6319456845521945 3.4062150567769987 3.6599400341510773 3.1878313273191452 4.5153868347406387
leaf_count=26 22 23 20 33
internal_value=0.000444999 0.0435783 -0.0356315 -0.0488567
internal_weight=20.4013 9.29189 11.1094 7.70322
internal_count=124 49 75 53
is_linear=0
shrinkage=0.05


Tree=34
num_leaves=5
num_cat=0
split_feature=125 107 13 46
split_gain=25.2749 2.16842 0.000764598 6.22651e-05
threshold=0.99983854854515564 0.25826013282650195 0.073770491803278701 0.69303411018169825
decision_type=2 2 2 2
left_child=1 -1 3 -3
right_child=-2 2 -4 -5
leaf_value=-0.00072303070142653865 0.087730251945701623 -0.047528579389912215 -0.048593667993988843 -0.04782198615104926
leaf_weight=3.1666626781225231 5.7710245400667182 4.666430436074732 2.9216400384902954 2.9521017223596573
leaf_count=23 23 36 20 22
internal_value=-4.79283e-05 -0.0370054 -0.047906 -0.0476423
internal_weight=19.4779 13.7068 10.5402 7.61853
internal_count=124 101 78 58
is_linear=0
shrinkage=0.05


Tree=35
num_leaves=5
num_cat=0
split_feature=2 101 20 42
split_gain=39.2862 0.000159001 8.94184e-05 2.38384e-05
threshold=0.083108578202641961 0.35270013675777084 0.42731960376269867 0.017044091040609926
decision_type=2 2 2 2
left_child=-1 -2 -3 -4
right_child=1 2 3 -5
leaf_value=0.10739299481327598 -0.047881014909210075 -0.047274413434951063 -0.047526982479747806 -0.047727975736361616
leaf_weight=5.8756535202264812 4.9976420179009429 2.5023283436894399 2.8498702719807625 3.0583308190107346
leaf_count=22 37 20 22 23
internal_value=-0.000414748 -0.0476577 -0.0475249 -0.047631
internal_weight=19.2838 13.4082 8.41053 5.9082
internal_count=124 102 65 45
is_linear=0
shrinkage=0.05


Tree=36
num_leaves=5
num_cat=0
split_feature=107 71 88 5
split_gain=33.0993 0.00886931 0.000440821 0.000158595
threshold=0.81181358082805322 0.40784666030369027 0.76220393939806375 0.82741030965830664
decision_type=2 2 2 2
left_child=1 2 3 -1
right_child=-2 -3 -4 -5
leaf_value=-0.047565633578463246 0.086622791491303711 -0.050857203373935768 -0.048013742274520967 -0.047095709947798797
leaf_weight=3.243246905505659 7.0490412712097159 2.4609113484621039 3.1492338553071022 4.0220841243863106
leaf_count=25 28 15 23 33
internal_value=-0.000473986 -0.0481576 -0.0475197 -0.0473055
internal_weight=19.9245 12.8755 10.4146 7.26533
internal_count=124 96 81 58
is_linear=0
shrinkage=0.05


Tree=37
num_leaves=6
num_cat=0
split_feature=5 134 62 2 44
split_gain=26.3121 9.6528 0.218744 0.003105 0.00092097
threshold=0.18064209470609288 0.7714212056655777 0.57126492661106365 0.1687594946035583 0.046191012301627178
decision_type=2 2 2 2 2
left_child=-1 2 3 -2 -5
right_child=1 -3 -4 4 -6
leaf_value=0.12576867644522557 -0.04749967228811227 0.048491056929672198 -0.033162931972587691 -0.048642739740804006 -0.049820817879470319
leaf_weight=3.4491264820098904 3.5785134136676806 3.4588092416524878 2.9029763266444197 2.8865916579961777 3.9008221924304962
leaf_count=13 28 20 19 20 24
internal_value=2.52809e-05 -0.025902 -0.0452941 -0.0486915 -0.0493198
internal_weight=20.1768 16.7277 13.2689 10.3659 6.78741
internal_count=124 111 91 72 44
is_linear=0
shrinkage=0.05


Tree=38
num_leaves=5
num_cat=0
split_feature=42 3 137 56
split_gain=11.7309 6.46282 0.291392 0.00227871
threshold=1.0000000180025095e-35 0.28452595422084564 0.57650273224043724 0.72335427801496877
decision_type=2 2 2 2
left_child=-1 -2 3 -3
right_child=1 2 -4 -5
leaf_value=0.06336340731121505 0.028922210995879605 -0.047814007714257721 -0.029409097988416219 -0.049571701427786337
leaf_weight=5.4283938556909588 4.3313870280981055 4.9078079760074598 2.689898706972599 2.9536370933055878
leaf_count=24 24 37 20 19
internal_value=0.000445497 -0.0225035 -0.043614 -0.0484744
internal_weight=20.3111 14.8827 10.5513 7.86145
internal_count=124 100 76 56
is_linear=0
shrinkage=0.05


Tree=39
num_leaves=5
num_cat=0
split_feature=69 22 85 8
split_gain=11.8384 11.2498 4.74335 0.000369929
threshold=0.11594767076569841 0.78382743703279423 0.63899938504041331 0.76708354312548488
decision_type=2 2 2 2
left_child=1 -1 -3 -2
right_child=3 2 -4 -5
leaf_value=0.087196508727663199 -0.048283324942543233 0.031897174433159051 -0.048865365091319009 -0.047573184278749216
leaf_weight=5.1675859242677706 2.9600023925304404 3.5655064284801483 3.7095290273427963 4.8203059136867523
leaf_count=22 21 19 25 37
internal_value=0.00053511 0.0307859 -0.00928352 -0.0478434
internal_weight=20.2229 12.4426 7.27504 7.78031
internal_count=124 66 44 58
is_linear=0
shrinkage=0.05


Tree=40
num_leaves=5
num_cat=0
split_feature=125 6 101 2
split_gain=22.2663 2.34699 0.000299176 1.6912e-05
threshold=0.99983854854515564 0.12918660287081338 0.3598645739720619 0.471944767038257
decision_type=2 2 2 2
left_child=1 2 -1 -4
right_child=-2 -3 3 -5
leaf_value=-0.047749427380955056 0.07976812075369899 0.0036098115514389909 -0.047104123259460923 -0.047275418575705538
leaf_weight=4.3816147521138209 6.0097411274909964 2.8791058212518683 2.445134811103344 3.5085135623812675
leaf_count=33 23 20 20 28
internal_value=-2.51345e-05 -0.0363142 -0.0474358 -0.0472051
internal_weight=19.2241 13.2144 10.3353 5.95365
internal_count=124 101 81 48
is_linear=0
shrinkage=0.05


Tree=41
num_leaves=5
num_cat=0
split_feature=2 58 8 21
split_gain=34.6634 0.000156733 0.00013429 4.9158e-05
threshold=0.083108578202641961 0.055924233302054573 0.80141514588929164 0.68883623463563126
decision_type=2 2 2 2
left_child=-1 3 -3 -2
right_child=1 2 -4 -5
leaf_value=0.097315549857670741 -0.047262754745274416 -0.047638914667955945 -0.04721548823336455 -0.046953036592364703
leaf_weight=6.1221468448638943 2.4976191371679288 4.452021099627018 3.2318326756358147 2.6304298490285873
leaf_count=22 20 34 26 22
internal_value=-0.000552072 -0.047318 -0.0474608 -0.0471039
internal_weight=18.934 12.8119 7.68385 5.12805
internal_count=124 102 60 42
is_linear=0
shrinkage=0.05


Tree=42
num_leaves=5
num_cat=0
split_feature=83 99 88 5
split_gain=29.8395 0.00682768 0.000559778 0.000161609
threshold=0.7281792423409853 0.48432564646961512 0.76220393939806375 0.82741030965830664
decision_type=2 2 2 2
left_child=1 2 3 -1
right_child=-2 -3 -4 -5
leaf_value=-0.047193932918485511 0.080096964133795134 -0.050017243228410536 -0.047721429591755841 -0.046691333413168584
leaf_weight=2.8348121643066424 7.2236046940088263 2.7055364474654189 3.1612040996551514 3.6701390892267227
leaf_count=23 28 17 24 32
internal_value=-0.000650231 -0.047797 -0.0471756 -0.0469104
internal_weight=19.5953 12.3717 9.66616 6.50495
internal_count=124 96 79 55
is_linear=0
shrinkage=0.05


Tree=43
num_leaves=6
num_cat=0
split_feature=5 85 62 5 70
split_gain=22.8602 11.257 0.247315 0.00290828 0.000846759
threshold=0.18064209470609288 0.53984070382702398 0.57126492661106365 0.77497198680296042 0.10008097889680991
decision_type=2 2 2 2 2
left_child=-1 -2 3 4 -3
right_child=1 2 -4 -5 -6
leaf_value=0.11379064459394289 0.062646636291492072 -0.048299341829358348 -0.031172963137661359 -0.047271744487466537 -0.049461289204681749
leaf_weight=3.6116731762886074 2.9775791168212917 2.7867591679096204 2.6355827972292891 4.3127770349383354 3.5849568173289299
leaf_count=13 15 20 18 35 23
internal_value=-2.19347e-05 -0.0252436 -0.0448906 -0.0482744 -0.0489531
internal_weight=19.9093 16.2977 13.3201 10.6845 6.37172
internal_count=124 111 96 78 43
is_linear=0
shrinkage=0.05


Tree=44
num_leaves=5
num_cat=0
split_feature=42 107 139 48
split_gain=10.4107 6.08487 0.308869 0.00166079
threshold=1.0000000180025095e-35 0.42803829637160457 0.57779033182831829 0.69487781303235052
decision_type=2 2 2 2
left_child=-1 -2 3 -3
right_child=1 2 -4 -5
leaf_value=0.058445377421707245 0.027975049365234803 -0.047244149370581898 -0.027677361911424992 -0.048755606061443399
leaf_weight=5.6031577140092876 4.3173317015171042 4.7242340892553312 2.5285382196307182 2.95379688590765
leaf_count=24 22 38 20 20
internal_value=0.000549826 -0.0217856 -0.0428342 -0.0478256
internal_weight=20.1271 14.5239 10.2066 7.67803
internal_count=124 100 78 58
is_linear=0
shrinkage=0.05


Tree=45
num_leaves=5
num_cat=0
split_feature=94 2 138 5
split_gain=11.1021 11.0881 0.929879 0.00942768
threshold=0.30739821926193173 0.13905432395265441 0.62986645112218365 0.50299442897115698
decision_type=2 2 2 2
left_child=1 -1 3 -2
right_child=2 -3 -4 -5
leaf_value=-0.026377847555551389 -0.047472521973856208 0.078023171914563233 -0.014553944642723826 -0.051350865323831311
leaf_weight=4.2647576704621333 4.0938214361667615 6.3004196435213089 2.7905339673161507 2.53861403465271
leaf_count=28 32 29 19 16
internal_value=0.000688721 0.0358805 -0.0387688 -0.048957
internal_weight=19.9881 10.5652 9.42297 6.63244
internal_count=124 57 67 48
is_linear=0
shrinkage=0.05


Tree=46
num_leaves=5
num_cat=0
split_feature=125 4 107 8
split_gain=19.7994 2.34978 0.000403731 5.58219e-05
threshold=0.99983854854515564 0.90073878637870741 0.42803829637160457 0.75126928104714552
decision_type=2 2 2 2
left_child=1 2 -1 -4
right_child=-2 -3 3 -5
leaf_value=-0.047620611694448339 0.073306753316772763 0.004203331405708304 -0.047133292761326551 -0.046828425393386483
leaf_weight=3.7770109251141566 6.2004713416099539 2.8675498738884917 2.6828231438994408 3.409909687936306
leaf_count=29 23 21 22 29
internal_value=3.14253e-05 -0.0356388 -0.0472145 -0.0469627
internal_weight=18.9378 12.7373 9.86974 6.09273
internal_count=124 101 80 51
is_linear=0
shrinkage=0.05


Tree=47
num_leaves=5
num_cat=0
split_feature=2 107 19 137
split_gain=30.9507 0.000217829 9.13617e-05 5.47667e-05
threshold=0.083108578202641961 0.42803829637160457 0.3635292374277268 0.49798421487545302
decision_type=2 2 2 2
left_child=-1 -2 -3 -4
right_child=1 2 3 -5
leaf_value=0.089378649887023306 -0.047324715199528793 -0.046604417048161116 -0.047087285824473676 -0.046779032573711882
leaf_weight=6.3009724318981197 3.7556475549936286 2.3778880164027196 3.7782547548413277 2.3292323425412178
leaf_count=22 30 21 31 20
internal_value=-0.000660642 -0.0470077 -0.0468674 -0.0469697
internal_weight=18.542 12.241 8.48538 6.10749
internal_count=124 102 72 51
is_linear=0
shrinkage=0.05


Tree=48
num_leaves=5
num_cat=0
split_feature=107 71 88 5
split_gain=26.8739 0.0102248 0.000545132 0.000198742
threshold=0.81181358082805322 0.40784666030369027 0.76220393939806375 0.82741030965830664
decision_type=2 2 2 2
left_child=1 2 3 -1
right_child=-2 -3 -4 -5
leaf_value=-0.046915533648631984 0.073852078610868663 -0.050544333587550866 -0.047434739263299004 -0.046361804589369844
leaf_weight=2.9583189338445681 7.4128835350275031 2.3604187965393058 2.9108142778277397 3.5831570029258728
leaf_count=25 28 15 23 33
internal_value=-0.000771648 -0.0476006 -0.0468655 -0.0466122
internal_weight=19.2256 11.8127 9.45229 6.54148
internal_count=124 96 81 58
is_linear=0
shrinkage=0.05


Tree=49
num_leaves=6
num_cat=0
split_feature=5 85 62 24 2
split_gain=20.0641 10.3542 0.250794 0.00272079 0.00111117
threshold=0.18064209470609288 0.53984070382702398 0.57126492661106365 0.68124130334791588 0.14834320893295846
decision_type=2 2 2 2 2
left_child=-1 -2 3 -3 -5
right_child=1 2 -4 4 -6
leaf_value=0.10428028139698327 0.057745492679656465 -0.049109620555797678 -0.030412808629290397 -0.046572890250036116 -0.047872049893043715
leaf_weight=3.7301977872848537 3.0765413194894782 3.3046426624059659 2.5538276806473723 2.6970580443739891 4.2228694409132004
leaf_count=13 15 22 18 24 32
internal_value=-5.53254e-05 -0.0246024 -0.0444286 -0.0479293 -0.0473657
internal_weight=19.5851 15.8549 12.7784 10.2246 6.91993
internal_count=124 111 96 78 56
is_linear=0
shrinkage=0.05


Tree=50
num_leaves=6
num_cat=0
split_feature=62 3 52 19 101
split_gain=9.48536 6.58555 2.18649 0.00838162 0.00108725
threshold=1.0000000180025095e-35 0.28452595422084564 0.40671245310108978 0.38679245283018721 0.43354407268358619
decision_type=2 2 2 2 2
left_child=-1 -2 -3 -4 -5
right_child=1 2 3 4 -6
leaf_value=0.071551607371044532 0.034538125160149653 0.0027402743812112648 -0.050687242644372778 -0.046801463862605606 -0.048167600838748263
leaf_weight=3.8119915500283268 4.5835236012935665 2.7335260659456244 2.852004908025263 3.3830337598919868 2.5573554262518883
leaf_count=16 25 17 18 29 19
internal_value=0.000626369 -0.0161567 -0.0363166 -0.0484593 -0.0473896
internal_weight=19.9214 16.1094 11.5259 8.79239 5.94039
internal_count=124 108 83 66 48
is_linear=0
shrinkage=0.05


Tree=51
num_leaves=5
num_cat=0
split_feature=69 22 85 8
split_gain=10.3419 9.31989 3.99889 0.000636266
threshold=0.11594767076569841 0.78382743703279423 0.63899938504041331 0.76708354312548488
decision_type=2 2 2 2
left_child=1 -1 -3 -2
right_child=3 2 -4 -5
leaf_value=0.077480320645863743 -0.047828029490773825 0.026376967826853212 -0.048209004551243877 -0.046861501583744081
leaf_weight=5.4261485785245913 2.7916817814111701 3.7579493671655655 3.4440186247229576 4.3652967810630798
leaf_count=22 21 19 25 37
internal_value=0.000779644 0.0279939 -0.00929043 -0.0472385
internal_weight=19.7851 12.6281 7.20197 7.15698
internal_count=124 66 44 58
is_linear=0
shrinkage=0.05


Tree=52
num_leaves=5
num_cat=0
split_feature=125 1 105 36
split_gain=17.6679 2.72682 0.000424222 5.56053e-05
threshold=0.99983854854515564 0.17778062417563703 0.54966451760188961 1.0000000180025095e-35
decision_type=2 2 2 2
left_child=1 2 -1 -4
right_child=-2 -3 3 -5
leaf_value=-0.047293143898936379 0.067740003818013636 0.011556912952704118 -0.046811313896103657 -0.046495269116589993
leaf_weight=3.9794393405318278 6.35775402188301 2.5074647888541213 2.3294176906347275 3.4574301987886429
leaf_count=32 23 18 20 31
internal_value=8.88488e-05 -0.0349542 -0.0468958 -0.0466225
internal_weight=18.6315 12.2738 9.76629 5.78685
internal_count=124 101 83 51
is_linear=0
shrinkage=0.05


Tree=53
num_leaves=5
num_cat=0
split_feature=2 107 19 61
split_gain=27.8381 0.000223168 0.000106043 5.55037e-05
threshold=0.083108578202641961 0.42803829637160457 0.3635292374277268 0.10721998772266826
decision_type=2 2 2 2
left_child=-1 -2 -3 -4
right_child=1 2 3 -5
leaf_value=0.082818566550606251 -0.047042948122141853 -0.046278086190493513 -0.046854884625784153 -0.046544570536171004
leaf_weight=6.4289199113845852 3.5995878577232352 2.2502866908907873 2.5876176282763481 3.2518761083483696
leaf_count=22 30 21 22 29
internal_value=-0.000752828 -0.0467154 -0.0465697 -0.0466821
internal_weight=18.1183 11.6894 8.08978 5.83949
internal_count=124 102 72 51
is_linear=0
shrinkage=0.05


Tree=54
num_leaves=5
num_cat=0
split_feature=83 101 88 5
split_gain=24.7401 0.00795862 0.000658954 0.000151576
threshold=0.7281792423409853 0.48717276993123904 0.76220393939806375 0.82264351523742052
decision_type=2 2 2 2
left_child=1 2 3 -1
right_child=-2 -3 -4 -5
leaf_value=-0.046591271076436812 0.069907238074008907 -0.049783626016839312 -0.047176439607523719 -0.046067961485825419
leaf_weight=2.2458588704466838 7.4599887281656256 2.4775556623935691 3.0386455282568932 3.604644738137722
leaf_count=20 28 16 25 35
internal_value=-0.000843644 -0.0472776 -0.0465791 -0.0462688
internal_weight=18.8267 11.3667 8.88915 5.8505
internal_count=124 96 80 55
is_linear=0
shrinkage=0.05


Tree=55
num_leaves=5
num_cat=0
split_feature=90 60 64 2
split_gain=18.2086 12.7959 0.00670076 0.000707918
threshold=0.97168811233998853 1.0000000180025095e-35 0.3366338619470427 0.1357207403938275
decision_type=2 2 2 2
left_child=1 -1 3 -3
right_child=-2 2 -4 -5
leaf_value=0.06333000933445028 0.098119247345431274 -0.046287381603224376 -0.049283065071049292 -0.047299527287008952
leaf_weight=3.2871327102184322 3.7903429865837088 2.8840455338358861 4.9560626670718193 4.3082858249545097
leaf_count=16 13 27 33 35
internal_value=-7.51598e-05 -0.0241877 -0.0478684 -0.0468937
internal_weight=19.2259 15.4355 12.1484 7.19233
internal_count=124 111 95 62
is_linear=0
shrinkage=0.05


Tree=56
num_leaves=4
num_cat=0
split_feature=91 8 136
split_gain=8.50048 11.4415 0.260459
threshold=0.51708166449096848 0.73223350253807118 0.69123345034275019
decision_type=2 2 2
left_child=2 -2 -1
right_child=1 -3 -4
leaf_value=-0.050244618796091316 0.066192445243332995 -0.030512392205223268 -0.030614843641330422
leaf_weight=4.4273622483015087 7.2722878679633123 5.2788115665316582 2.7329908981919289
leaf_count=31 35 37 21
internal_value=0.000719385 0.0255198 -0.0427523
internal_weight=19.7115 12.5511 7.16035
internal_count=124 72 52
is_linear=0
shrinkage=0.05


Tree=57
num_leaves=5
num_cat=0
split_feature=94 22 140 22
split_gain=9.73273 9.37438 0.979784 0.0104522
threshold=0.30739821926193173 0.78382743703279423 0.59283965402390459 0.47735765069578057
decision_type=2 2 2 2
left_child=1 -1 3 -2
right_child=2 -3 -4 -5
leaf_value=0.090803478370462098 -0.046626459003151377 -0.0049471811809827983 -0.011015918151976695 -0.050758787004525519
leaf_weight=4.2318192049860972 3.8485982865095121 6.4559052810072899 2.4386432990431786 2.5402776226401329
leaf_count=18 34 39 16 17
internal_value=0.000874883 0.0329654 -0.037978 -0.0482695
internal_weight=19.5152 10.6877 8.82752 6.38888
internal_count=124 57 67 51
is_linear=0
shrinkage=0.05


Tree=58
num_leaves=5
num_cat=0
split_feature=109 1 2 61
split_gain=15.7997 2.76566 0.00808302 0.000252668
threshold=0.76923089743589756 0.17778062417563703 0.28047512023386123 0.14332058761751096
decision_type=2 2 2 2
left_child=1 2 -1 -4
right_child=-2 -3 3 -5
leaf_value=-0.049713336463482714 0.061912559316391419 0.011887492770528203 -0.046889662802122652 -0.046244283347120996
leaf_weight=2.7991105988621729 6.6041177883744231 2.4938466921448699 2.4648162797093391 3.9420356750488281
leaf_count=21 27 18 21 37
internal_value=8.19099e-05 -0.0348192 -0.0474719 -0.0464926
internal_weight=18.3039 11.6998 9.20596 6.40685
internal_count=124 97 79 58
is_linear=0
shrinkage=0.05


Tree=59
num_leaves=5
num_cat=0
split_feature=5 66 107 146
split_gain=25.2721 0.0210302 0.000297558 5.39148e-05
threshold=0.89588038867753583 0.32000000000000006 0.42803829637160457 0.066048708917195317
decision_type=2 2 2 2
left_child=1 2 -1 -4
right_child=-2 -3 3 -5
leaf_value=-0.046887090290141611 0.075749514976804266 -0.051920338568022931 -0.046113410997195819 -0.046414042423909771
leaf_weight=2.7992273420095461 6.6868911981582633 2.2092824652791014 3.0125179216265678 2.9534572437405586
leaf_count=24 27 17 29 27
internal_value=-0.00087337 -0.0475607 -0.0464618 -0.0462622
internal_weight=17.6614 10.9745 8.7652 5.96598
internal_count=124 97 80 56
is_linear=0
shrinkage=0.05


Tree=60
num_leaves=5
num_cat=0
split_feature=107 69 10 8
split_gain=22.2884 0.0110175 0.000655226 0.000169277
threshold=0.81181358082805322 0.38374063394882957 0.59106140971814136 0.66919476393853772
decision_type=2 2 2 2
left_child=1 2 3 -1
right_child=-2 -3 -4 -5
leaf_value=-0.046264790726202126 0.064693782909791012 -0.050233867033759642 -0.046890106793134524 -0.045711326953135838
leaf_weight=2.647360026836397 7.5808129757642737 2.2457412183284751 3.0345891267061234 2.8893196806311607
leaf_count=25 28 15 26 30
internal_value=-0.00104508 -0.0471164 -0.0462996 -0.045976
internal_weight=18.3978 10.817 8.57127 5.53668
internal_count=124 96 81 55
is_linear=0
shrinkage=0.05


Tree=61
num_leaves=5
num_cat=0
split_feature=90 60 64 5
split_gain=16.2265 11.6612 0.00614981 0.000743474
threshold=0.97168811233998853 1.0000000180025095e-35 0.3366338619470427 0.82741030965830664
decision_type=2 2 2 2
left_child=1 -1 3 -3
right_child=-2 2 -4 -5
leaf_value=0.057814203585535733 0.091503094908695126 -0.047103557589964623 -0.048911784200292144 -0.046059674157590692
leaf_weight=3.3963207975029972 3.8424319326877585 3.3466246500611287 4.7683338448405266 3.4787167608737946
leaf_count=16 13 28 33 34
internal_value=-0.000166957 -0.023665 -0.047534 -0.0465715
internal_weight=18.8324 14.99 11.5937 6.82534
internal_count=124 111 95 62
is_linear=0
shrinkage=0.05


Tree=62
num_leaves=4
num_cat=0
split_feature=91 8 136
split_gain=7.80157 9.89261 0.266782
threshold=0.51708166449096848 0.73223350253807118 0.69123345034275019
decision_type=2 2 2
left_child=2 -2 -1
right_child=1 -3 -4
leaf_value=-0.049876305972281106 0.06051381078736176 -0.029638880759591292 -0.029605974787141248
leaf_weight=4.2439851388335255 7.5274526849389058 5.1077089011669159 2.6285617128014565
leaf_count=31 35 37 21
internal_value=0.000750095 0.02407 -0.0421235
internal_weight=19.5077 12.6352 6.87255
internal_count=124 72 52
is_linear=0
shrinkage=0.05


Tree=63
num_leaves=5
num_cat=0
split_feature=69 37 83 8
split_gain=9.06523 7.55476 6.62314 0.000740198
threshold=0.11594767076569841 1.0000000180025095e-35 0.1460933072940859 0.76708354312548488
decision_type=2 2 2 2
left_child=1 2 -1 -2
right_child=3 -3 -4 -5
leaf_value=0.01136625455229903 -0.047364810267491959 -0.036112896593959658 0.096981630268681229 -0.046280503741860324
leaf_weight=5.0432796478271502 2.6112956106662741 3.5644505098462096 4.0915544927120209 3.9619134664535522
leaf_count=24 21 24 18 37
internal_value=0.000952825 0.025624 0.049714 -0.0467113
internal_weight=19.2725 12.6993 9.13483 6.57321
internal_count=124 66 42 58
is_linear=0
shrinkage=0.05


Tree=64
num_leaves=5
num_cat=0
split_feature=125 4 2 8
split_gain=14.3404 2.70325 0.000499963 0.000144652
threshold=0.99983854854515564 0.90460560800184553 0.29235323842586713 0.70479734692816831
decision_type=2 2 2 2
left_child=1 2 -1 -4
right_child=-2 -3 3 -5
leaf_value=-0.046853844805338156 0.059058240850250403 0.012758947746449908 -0.046393678746185503 -0.045868869735174379
leaf_weight=3.5938782319426554 6.5676246881484976 2.4613046795129767 2.2839453592896461 3.0884847044944763
leaf_count=31 23 18 21 31
internal_value=0.00018133 -0.0336561 -0.0463973 -0.046092
internal_weight=17.9952 11.4276 8.96631 5.37243
internal_count=124 101 83 52
is_linear=0
shrinkage=0.05


Tree=65
num_leaves=5
num_cat=0
split_feature=2 108 19 61
split_gain=23.3165 0.000259488 6.87659e-05 5.70219e-05
threshold=0.083108578202641961 0.43435916276523884 0.3635292374277268 0.14332058761751096
decision_type=2 2 2 2
left_child=-1 -2 -3 -4
right_child=1 2 3 -5
leaf_value=0.07362223267927967 -0.046585375785766762 -0.045808141790774533 -0.046317520992713301 -0.04599002482810368
leaf_weight=6.5352394282817867 3.3346955031156522 2.054081954061985 2.5788302943110466 2.7427642866969109
leaf_count=22 30 21 24 27
internal_value=-0.000805285 -0.0462194 -0.0460539 -0.0461487
internal_weight=17.2456 10.7104 7.37568 5.32159
internal_count=124 102 72 51
is_linear=0
shrinkage=0.05


Tree=66
num_leaves=5
num_cat=0
split_feature=83 102 10 8
split_gain=20.4769 0.00972278 0.000589592 0.000211031
threshold=0.7281792423409853 0.50422665809447087 0.59106140971814136 0.66919476393853772
decision_type=2 2 2 2
left_child=1 2 3 -1
right_child=-2 -3 -4 -5
leaf_value=-0.046057146851006772 0.061389357895187707 -0.049899093390651836 -0.04663595514851205 -0.045441451156949975
leaf_weight=2.7498637065291422 7.5532004386186591 2.0319075360894194 2.7910753041505814 2.8178718164563179
leaf_count=27 28 13 25 31
internal_value=-0.00125768 -0.0467969 -0.0460429 -0.0457455
internal_weight=17.9439 10.3907 8.35881 5.56774
internal_count=124 96 83 58
is_linear=0
shrinkage=0.05


Tree=67
num_leaves=5
num_cat=0
split_feature=4 106 105 97
split_gain=14.7448 9.63836 0.00519723 0.000724616
threshold=0.54702970297029718 0.69110647683495297 0.46607723746446578 0.40872337712822943
decision_type=2 2 2 2
left_child=1 -1 -2 -4
right_child=2 -3 3 -5
leaf_value=0.085206710001765051 -0.048639670741105645 -0.016359602305973827 -0.045693802325935166 -0.046882030370215301
leaf_weight=5.5637385845184344 3.2026425749063474 4.0261623933911324 3.6198620051145554 1.987556956708431
leaf_count=20 23 26 38 17
internal_value=-0.000334783 0.0425658 -0.0470328 -0.046115
internal_weight=18.4 9.5899 8.81006 5.60742
internal_count=124 46 78 55
is_linear=0
shrinkage=0.05


Tree=68
num_leaves=5
num_cat=0
split_feature=109 8 137 86
split_gain=7.45486 8.57244 5.38997 0.0105647
threshold=0.56537015014156555 0.73223350253807118 0.3791420267704454 0.64986965058559842
decision_type=2 2 2 2
left_child=1 2 -1 -2
right_child=3 -3 -4 -5
leaf_value=0.088310570749965706 -0.046140543907571684 -0.030165010557166656 0.0088843995156303104 -0.050525697443464093
leaf_weight=4.5777099654078501 2.7783969342708579 5.1875886321067801 4.0045223757624626 2.7163103669881821
leaf_count=18 27 39 22 18
internal_value=0.000929899 0.0205779 0.0512498 -0.0483083
internal_weight=19.2645 13.7698 8.58223 5.49471
internal_count=124 79 40 45
is_linear=0
shrinkage=0.05


Tree=69
num_leaves=5
num_cat=0
split_feature=94 22 138 26
split_gain=8.52259 7.79934 1.04293 0.0167644
threshold=0.30739821926193173 0.78382743703279423 0.64882814366908781 0.46254686236306097
decision_type=2 2 2 2
left_child=1 -1 3 -2
right_child=2 -3 -4 -5
leaf_value=0.082036847782438471 -0.046245339281669851 -0.0047304582936542787 -0.0091833537166240171 -0.051716023162861127
leaf_weight=4.3608549386262911 3.5587544590234739 6.377544529736042 2.3845075666904449 2.3089623749256134
leaf_count=18 34 39 18 15
internal_value=0.00114257 0.0305057 -0.0370668 -0.0483981
internal_weight=18.9906 10.7384 8.25222 5.86772
internal_count=124 57 67 49
is_linear=0
shrinkage=0.05


Tree=70
num_leaves=5
num_cat=0
split_feature=109 4 2 26
split_gain=13.08 2.91268 0.0109738 0.000271709
threshold=0.76923089743589756 0.90460560800184553 0.27330173775671412 0.46254686236306097
decision_type=2 2 2 2
left_child=1 2 -1 -4
right_child=-2 -3 3 -5
leaf_value=-0.049969261545832845 0.055019840009476906 0.01583172113942119 -0.045674927663035887 -0.046340801442769267
leaf_weight=2.4120468050241488 6.7392872720956793 2.340631239116191 3.2415454238653183 2.9049083441495895
leaf_count=19 27 17 34 27
internal_value=0.000263595 -0.033594 -0.0471112 -0.0459896
internal_weight=17.6384 10.8991 8.5585 6.14645
internal_count=124 97 80 61
is_linear=0
shrinkage=0.05


Tree=71
num_leaves=5
num_cat=0
split_feature=5 1 107 141
split_gain=21.4958 0.0280305 0.000189775 6.64985e-05
threshold=0.89588038867753583 0.032577092343840243 0.42803829637160457 0.1681269992995634
decision_type=2 2 2 2
left_child=1 2 -1 -4
right_child=-2 -3 3 -5
leaf_value=-0.046247029557982405 0.068252488792414051 -0.052277065625632446 -0.04551773339578459 -0.045879562119219154
leaf_weight=2.6238977685570735 6.7221637368202201 2.2109256833791733 2.2134553641080856 2.9786383956670761
leaf_count=25 27 18 24 30
internal_value=-0.000927446 -0.0473065 -0.0459005 -0.0457253
internal_weight=16.7491 10.0269 7.81599 5.19209
internal_count=124 97 79 54
is_linear=0
shrinkage=0.05


Tree=72
num_leaves=5
num_cat=0
split_feature=72 103 129 5
split_gain=18.6657 0.00419625 0.00108823 0.000307873
threshold=0.52339827219800816 0.47274651248920291 0.28134110787172023 0.82741030965830664
decision_type=2 2 2 2
left_child=1 2 3 -1
right_child=-2 -3 -4 -5
leaf_value=-0.04592224543201423 0.057909814223381789 -0.048548276870723626 -0.046903041817157279 -0.045205800433960053
leaf_weight=3.0770149901509303 7.5473846346139899 1.8601117134094227 2.0681867673993111 2.9248349145054817
leaf_count=31 27 14 18 34
internal_value=-0.00135973 -0.0464074 -0.0459139 -0.0455731
internal_weight=17.4775 9.93015 8.07004 6.00185
internal_count=124 97 83 65
is_linear=0
shrinkage=0.05


Tree=73
num_leaves=5
num_cat=0
split_feature=4 106 105 99
split_gain=13.605 8.48646 0.00491486 0.000646098
threshold=0.54702970297029718 0.69110647683495297 0.46607723746446578 0.4089760570509049
decision_type=2 2 2 2
left_child=1 -1 -2 -4
right_child=2 -3 3 -5
leaf_value=0.079995943078584167 -0.048346048193525705 -0.015686171447028243 -0.045374701317169155 -0.04649392535075645
leaf_weight=5.6069046556949633 3.092655844986437 3.9500312507152557 3.1091935038566589 2.2031369507312775
leaf_count=20 23 26 35 20
internal_value=-0.000359658 0.040449 -0.0467614 -0.0458389
internal_weight=17.9619 9.55694 8.40499 5.31233
internal_count=124 46 78 55
is_linear=0
shrinkage=0.05


Tree=74
num_leaves=4
num_cat=0
split_feature=91 8 132
split_gain=6.89262 7.69691 0.281458
threshold=0.51708166449096848 0.73223350253807118 0.073527688216218537
decision_type=2 2 2
left_child=2 -2 -1
right_child=1 -3 -4
leaf_value=-0.04923065776961414 0.052995085514407805 -0.027720480723950686 -0.027552858899145372
leaf_weight=4.0478027835488346 7.8078826665878278 4.7505535632371902 2.3764372617006302
leaf_count=32 35 37 20
internal_value=0.000913367 0.0224623 -0.0412117
internal_weight=18.9827 12.5584 6.42424
internal_count=124 72 52
is_linear=0
shrinkage=0.05


Tree=75
num_leaves=5
num_cat=0
split_feature=69 33 83 8
split_gain=7.98654 6.35086 5.33838 0.000654766
threshold=0.11594767076569841 1.0000000180025095e-35 0.1460933072940859 0.76708354312548488
decision_type=2 2 2 2
left_child=1 2 -1 -2
right_child=3 -3 -4 -5
leaf_value=0.010147828917937272 -0.046880184172565717 -0.034986768635676214 0.086114496587497369 -0.045816404534617668
leaf_weight=5.0439056009054202 2.4135030135512343 3.3854075819253913 4.2707350105047226 3.6103441268205643
leaf_count=24 21 24 18 37
internal_value=0.00117251 0.0236623 0.0449783 -0.0462426
internal_weight=18.7239 12.7 9.31464 6.02385
internal_count=124 66 42 58
is_linear=0
shrinkage=0.05


Tree=76
num_leaves=5
num_cat=0
split_feature=109 2 2 63
split_gain=11.7407 2.98041 0.0111013 0.000319427
threshold=0.76923089743589756 0.13905432395265441 0.27330173775671412 0.15817279605656462
decision_type=2 2 2 2
left_child=1 -1 -3 -4
right_child=-2 2 3 -5
leaf_value=0.017729703703144493 0.051428110867040647 -0.049781351457920481 -0.046163900282323193 -0.045415936805671575
leaf_weight=2.2769298925995853 6.8022443279623976 2.390122324228285 2.4919497147202492 3.3414306789636612
leaf_count=17 27 19 24 37
internal_value=0.000255453 -0.0328945 -0.0469114 -0.0457355
internal_weight=17.3027 10.5004 8.2235 5.83338
internal_count=124 97 80 61
is_linear=0
shrinkage=0.05


Tree=77
num_leaves=5
num_cat=0
split_feature=5 66 107 146
split_gain=19.8156 0.0280388 0.000363019 5.13805e-05
threshold=0.89588038867753583 0.32000000000000006 0.42803829637160457 0.066048708917195317
decision_type=2 2 2 2
left_child=1 2 -1 -4
right_child=-2 -3 3 -5
leaf_value=-0.046203594056512129 0.06481741661697836 -0.052365227065201018 -0.045306500080503687 -0.045623989488114004
leaf_weight=2.471176929771902 6.7431746646761885 1.9981921687722204 2.5501564666628838 2.547139585018158
leaf_count=24 27 17 29 27
internal_value=-0.000826937 -0.0470971 -0.0457063 -0.0454652
internal_weight=16.3098 9.56667 7.56847 5.0973
internal_count=124 97 80 56
is_linear=0
shrinkage=0.05


Tree=78
num_leaves=5
num_cat=0
split_feature=107 72 29 5
split_gain=17.3195 0.014719 0.000583209 0.000208186
threshold=0.81181358082805322 0.40421668612124051 0.43740744175698659 0.82741030965830664
decision_type=2 2 2 2
left_child=1 2 -1 -4
right_child=-2 -3 3 -5
leaf_value=-0.046192822464616479 0.054997879150397215 -0.050430393267073104 -0.045627026752127778 -0.044972786036938113
leaf_weight=2.5450628101825732 7.5422014743089667 1.9757140353322027 2.1730707064270973 2.7607410438358784
leaf_count=25 28 14 23 34
internal_value=-0.00151226 -0.046592 -0.0455781 -0.0452609
internal_weight=16.9968 9.45459 7.47887 4.93381
internal_count=124 96 82 57
is_linear=0
shrinkage=0.05


Tree=79
num_leaves=5
num_cat=0
split_feature=4 106 105 99
split_gain=12.5092 7.41286 0.00452409 0.000592265
threshold=0.54702970297029718 0.69110647683495297 0.46607723746446578 0.4089760570509049
decision_type=2 2 2 2
left_child=1 -1 -2 -4
right_child=2 -3 3 -5
leaf_value=0.075004160217460536 -0.048048901241023664 -0.01488102109794974 -0.045130414199608414 -0.046230375070493185
leaf_weight=5.6226556748151797 2.9778352528810483 3.8742910102009773 2.9289950877428055 2.1020327359437943
leaf_count=20 23 26 35 20
internal_value=-0.000478531 0.0383354 -0.0465043 -0.04559
internal_weight=17.5058 9.49695 8.00886 5.03103
internal_count=124 46 78 55
is_linear=0
shrinkage=0.05


Tree=80
num_leaves=5
num_cat=0
split_feature=2 71 97 90
split_gain=6.64396 9.56757 0.866765 0.0199134
threshold=0.1687594946035583 0.2873582553281151 0.6843945585486827 0.68629192398332961
decision_type=2 2 2 2
left_child=3 -2 -3 -1
right_child=1 2 -4 -5
leaf_value=-0.04528018900708787 0.053484327318581375 -0.048727757869760857 -0.0091080224081195871 -0.051626562001640397
leaf_weight=2.3605329319834736 8.1552219837903959 3.149353399872779 2.4577262103557587 2.5947257652878761
leaf_count=27 37 24 19 17
internal_value=0.00104119 0.0189162 -0.0313614 -0.0486033
internal_weight=18.7176 13.7623 5.60708 4.95526
internal_count=124 80 43 44
is_linear=0
shrinkage=0.05


Tree=81
num_leaves=5
num_cat=0
split_feature=24 33 83 8
split_gain=7.47789 6.39377 4.17837 0.00382854
threshold=0.68124130334791588 1.0000000180025095e-35 0.1460933072940859 0.70479734692816831
decision_type=2 2 2 2
left_child=3 2 -2 -1
right_child=1 -3 -4 -5
leaf_value=-0.04809480487128498 0.012345644881715955 -0.034631120768203086 0.079782399185563402 -0.045475645987824311
leaf_weight=2.4870011284947422 4.8368738293647748 3.5474482998251906 4.3742164149880409 3.1783241927623749
leaf_count=20 23 28 18 35
internal_value=0.00117779 0.0224044 0.0443704 -0.0466254
internal_weight=18.4239 12.7585 9.21109 5.66533
internal_count=124 69 41 55
is_linear=0
shrinkage=0.05


Tree=82
num_leaves=5
num_cat=0
split_feature=26 2 82 72
split_gain=10.7388 2.27289 0.0604903 0.00035899
threshold=0.81629095448231015 0.14834320893295846 0.35517288097807614 0.40421668612124051
decision_type=2 2 2 2
left_child=1 -1 -3 -4
right_child=-2 2 3 -5
leaf_value=0.0072313875062041018 0.046132782836025982 -0.055882611716573639 -0.046093516987741771 -0.045249678388505001
leaf_weight=2.4650342687964457 7.3048186376690856 1.9635931476950643 2.1165740117430687 3.115793950855732
leaf_count=16 37 14 21 36
internal_value=0.000385334 -0.034205 -0.0483993 -0.045591
internal_weight=16.9658 9.661 7.19596 5.23237
internal_count=124 87 71 57
is_linear=0
shrinkage=0.05


Tree=83
num_leaves=6
num_cat=0
split_feature=2 113 57 6 10
split_gain=18.3403 0.000296357 0.000205238 0.000167033 2.13327e-05
threshold=0.083108578202641961 0.30258629701181022 0.17216171437200664 0.003716443457107906 0.58252131546894037
decision_type=2 2 2 2 2
left_child=-1 3 -3 -2 -5
right_child=1 2 -4 4 -6
leaf_value=0.063783923528558759 -0.045723100671388919 -0.045543069440464462 -0.046270741205893806 -0.045024874233604836 -0.045272201053917396
leaf_weight=6.4845638275146493 1.9932485967874507 1.828765392303467 2.0611412972211838 1.7328457757830622 1.7546969056129453
leaf_count=22 21 20 20 21 20
internal_value=-0.000860589 -0.0455949 -0.0459286 -0.045358 -0.0451493
internal_weight=15.8553 9.3707 3.88991 5.48079 3.48754
internal_count=124 102 40 62 41
is_linear=0
shrinkage=0.05


Tree=84
num_leaves=6
num_cat=0
split_feature=107 71 64 64 70
split_gain=15.7861 0.0140791 0.000610236 0.000245829 6.49274e-05
threshold=0.81181358082805322 0.41794408624543272 0.37159494094054618 0.20440288621232669 0.038113643421633224
decision_type=2 2 2 2 2
left_child=1 2 3 4 -1
right_child=-2 -3 -4 -5 -6
leaf_value=-0.045121545094299109 0.051836232908993266 -0.050412824759925548 -0.046144134822984725 -0.044603254159308291 -0.04554090778548775
leaf_weight=1.8462646380066892 7.5148945301771155 1.7125390321016309 1.9032435491681097 1.6910554431378839 1.845622196793556
leaf_count=22 28 12 19 23 20
internal_value=-0.00165911 -0.0463334 -0.0453746 -0.0451025 -0.0453312
internal_weight=16.5136 8.99872 7.28619 5.38294 3.69189
internal_count=124 96 84 65 42
is_linear=0
shrinkage=0.05


Tree=85
num_leaves=5
num_cat=0
split_feature=4 106 106 99
split_gain=11.4115 6.51143 0.00396508 0.000474249
threshold=0.54702970297029718 0.69110647683495297 0.48143919770738558 0.4089760570509049
decision_type=2 2 2 2
left_child=1 -1 -2 -4
right_child=2 -3 3 -5
leaf_value=0.07032263972905628 -0.047705812897994582 -0.0143836089374394 -0.044924110243276014 -0.045935643708466992
leaf_weight=5.6147806346416491 2.8455322757363311 3.8070453330874443 2.7725685872137547 1.9907229989767072
leaf_count=20 23 26 35 20
internal_value=-0.000684742 0.0360957 -0.0462291 -0.0453469
internal_weight=17.0306 9.42183 7.60882 4.76329
internal_count=124 46 78 55
is_linear=0
shrinkage=0.05


Tree=86
num_leaves=5
num_cat=0
split_feature=109 43 10 63
split_gain=6.26105 7.47329 5.11814 0.00892083
threshold=0.56537015014156555 0.046698231529160368 0.65124343949190322 0.11800243299498304
decision_type=2 2 2 2
left_child=1 -1 -3 -2
right_child=3 2 -4 -5
leaf_value=0.061739917388243228 -0.049999858157073113 -0.04886001535864079 0.032742442409674812 -0.045684667152581945
leaf_weight=5.7679038122296351 2.1536061838269225 4.4086211994290352 3.4060921519994736 2.6983163505792618
leaf_count=24 16 35 20 29
internal_value=0.00115418 0.0185699 -0.0132931 -0.0476
internal_weight=18.4345 13.5826 7.81471 4.85192
internal_count=124 79 55 45
is_linear=0
shrinkage=0.05


Tree=87
num_leaves=5
num_cat=0
split_feature=24 33 22 8
split_gain=7.01921 5.70001 3.76469 0.00346317
threshold=0.68124130334791588 1.0000000180025095e-35 0.79827667200423891 0.70479734692816831
decision_type=2 2 2 2
left_child=3 2 -2 -1
right_child=1 -3 -4 -5
leaf_value=-0.047790910350194046 0.073495094409681258 -0.033726549608098511 0.0099429585443002663 -0.045241862727209495
leaf_weight=2.3934460654854801 4.6850030049681646 3.4023206681013098 4.63638686388731 3.0059072524309158
leaf_count=20 17 28 24 35
internal_value=0.00139589 0.0216663 0.0418848 -0.0463718
internal_weight=18.1231 12.7237 9.32139 5.39935
internal_count=124 69 41 55
is_linear=0
shrinkage=0.05


Tree=88
num_leaves=5
num_cat=0
split_feature=125 1 22 8
split_gain=9.86341 3.25437 0.00111775 0.000265876
threshold=0.99983854854515564 0.25104935164746173 0.81073416856772307 0.70479734692816831
decision_type=2 2 2 2
left_child=1 2 3 -1
right_child=-2 -3 -4 -5
leaf_value=-0.04563434690281757 0.047303081576140882 0.025182254892495277 -0.046663076021927374 -0.044962137458742217
leaf_weight=2.9949655607342738 6.6997127830982199 2.0386673659086227 2.0369978547096252 2.8908358961343765
leaf_count=32 23 15 18 36
internal_value=0.000393205 -0.0311566 -0.0456536 -0.0453042
internal_weight=16.6612 9.96147 7.9228 5.8858
internal_count=124 101 86 68
is_linear=0
shrinkage=0.05


Tree=89
num_leaves=5
num_cat=0
split_feature=5 66 107 109
split_gain=17.1094 0.0354282 0.000340156 4.12286e-05
threshold=0.89588038867753583 0.32000000000000006 0.42803829637160457 0.018952902770120548
decision_type=2 2 2 2
left_child=1 2 -1 -4
right_child=-2 -3 3 -5
leaf_value=-0.045775379655386694 0.059634749655171508 -0.053023862778748959 -0.045186261205024406 -0.044885621296571698
leaf_weight=2.2565470039844495 6.6280220821499833 1.8792875185608862 2.1320956870913506 2.4516519866883755
leaf_count=24 27 17 25 31
internal_value=-0.000916514 -0.0469434 -0.0452729 -0.0450255
internal_weight=15.3476 8.71958 6.84029 4.58375
internal_count=124 97 80 56
is_linear=0
shrinkage=0.05


Tree=90
num_leaves=6
num_cat=0
split_feature=83 102 64 64 70
split_gain=15.0206 0.0112904 0.000531753 0.00021261 5.02855e-05
threshold=0.7281792423409853 0.50422665809447087 0.37159494094054618 0.20440288621232669 0.038113643421633224
decision_type=2 2 2 2 2
left_child=1 2 3 4 -1
right_child=-2 -3 -4 -5 -6
leaf_value=-0.044915169913052756 0.051079341150233326 -0.049498224127485967 -0.045905140661902141 -0.044407375611123408 -0.045294403755927193
leaf_weight=1.7508407309651395 7.321038417518138 1.9048634022474287 1.7120851501822469 1.5915305502712724 1.7456247210502622
leaf_count=22 28 13 18 23 20
internal_value=-0.00170405 -0.046096 -0.0451429 -0.0448864 -0.0451045
internal_weight=16.026 8.70494 6.80008 5.088 3.49647
internal_count=124 96 83 65 42
is_linear=0
shrinkage=0.05


Tree=91
num_leaves=5
num_cat=0
split_feature=4 106 105 99
split_gain=10.4423 5.74937 0.00361404 0.000379059
threshold=0.54702970297029718 0.69110647683495297 0.46607723746446578 0.4089760570509049
decision_type=2 2 2 2
left_child=1 -1 -2 -4
right_child=2 -3 3 -5
leaf_value=0.066299925353702049 -0.047410732540350269 -0.013855360887274393 -0.044715249812733837 -0.045646209355256873
leaf_weight=5.5744285732507723 2.7292300537228575 3.7368387505412102 2.6175142750144005 1.8778517022728918
leaf_count=20 23 26 35 20
internal_value=-0.000867536 0.0341317 -0.0459755 -0.0451041
internal_weight=16.5359 9.31127 7.2246 4.49537
internal_count=124 46 78 55
is_linear=0
shrinkage=0.05


Tree=92
num_leaves=5
num_cat=0
split_feature=2 69 69 0
split_gain=5.87268 7.87707 0.869937 0.0182797
threshold=0.1687594946035583 0.29478595669035429 0.6993941240747239 0.38937084334899813
decision_type=2 2 2 2
left_child=3 -2 -3 -1
right_child=1 2 -4 -5
leaf_value=-0.051889265574579728 0.048079415415107407 -0.048167860353841449 -0.0073689952032675839 -0.045431890090941833
leaf_weight=1.8644718676805521 8.2970168143510801 2.934105157852172 2.3554622977972031 2.6589270941913128
leaf_count=13 37 24 19 31
internal_value=0.00125249 0.0176813 -0.03 -0.0480935
internal_weight=18.11 13.5866 5.28957 4.5234
internal_count=124 80 43 44
is_linear=0
shrinkage=0.05


Tree=93
num_leaves=6
num_cat=0
split_feature=94 22 140 24 81
split_gain=6.62533 5.88676 1.03421 0.0138595 0.000111601
threshold=0.30739821926193173 0.78382743703279423 0.6048816249994593 0.55171969640817986 0.73352284638605736
decision_type=2 2 2 2 2
left_child=1 -1 3 4 -2
right_child=2 -3 -4 -5 -6
leaf_value=0.070959975113182069 -0.045459330559886608 -0.0046409200434947466 -0.0042476611718511399 -0.050548951726784301 -0.044881670995108584
leaf_weight=4.3937760740518588 1.767511717975139 6.220146432518959 1.9246090129017828 1.8799752891063688 1.5866756513714788
leaf_count=18 20 39 13 14 20
internal_value=0.0015837 0.0266551 -0.0355883 -0.0471123 -0.0451861
internal_weight=17.7727 10.6139 7.15877 5.23416 3.35419
internal_count=124 57 67 54 40
is_linear=0
shrinkage=0.05


Tree=94
num_leaves=6
num_cat=0
split_feature=26 15 94 69 109
split_gain=9.24937 2.13211 0.073891 0.000479653 4.98631e-05
threshold=0.81629095448231015 0.14834320893295846 0.27268631719943598 0.33257231990857739 0.013246757778872093
decision_type=2 2 2 2 2
left_child=1 -1 -3 -4 -5
right_child=-2 2 3 4 -6
leaf_value=0.0063193932212680347 0.042420007940616372 -0.057574112973631401 -0.045894565429839614 -0.045063624565708629 -0.04466413196705795
leaf_weight=2.4579084292054194 7.2571841999888411 1.6118137985467909 1.8204803839325903 1.6457996964454653 1.4866507574915884
leaf_count=16 37 12 19 20 20
internal_value=0.000397285 -0.0334028 -0.0482752 -0.0452491 -0.044874
internal_weight=16.2798 9.02265 6.56474 4.95293 3.13245
internal_count=124 87 71 59 40
is_linear=0
shrinkage=0.05


Tree=95
num_leaves=5
num_cat=0
split_feature=5 1 108 63
split_gain=15.6747 0.0384325 0.000173444 4.47881e-05
threshold=0.89588038867753583 0.043863541298767759 0.43435916276523884 0.14662208565940069
decision_type=2 2 2 2
left_child=1 2 -1 -4
right_child=-2 -3 3 -5
leaf_value=-0.045385174781577581 0.056669359457728691 -0.053534879556259185 -0.045005928579913493 -0.044685886803295154
leaf_weight=2.2629921883344633 6.5655600354075441 1.6606877222657201 2.1868010722100735 2.1858904808759689
leaf_count=26 27 15 27 29
internal_value=-0.00105251 -0.0467323 -0.0450298 -0.0448459
internal_weight=14.8619 8.29637 6.63568 4.37269
internal_count=124 97 82 56
is_linear=0
shrinkage=0.05


Tree=96
num_leaves=6
num_cat=0
split_feature=83 102 64 64 70
split_gain=13.7557 0.00945754 0.000524472 0.000208071 4.33328e-05
threshold=0.7281792423409853 0.50422665809447087 0.37159494094054618 0.20440288621232669 0.038113643421633224
decision_type=2 2 2 2 2
left_child=1 2 3 4 -1
right_child=-2 -3 -4 -5 -6
leaf_value=-0.04473816226095402 0.048456454495561324 -0.049039810576754835 -0.045732749398876477 -0.04420704388161048 -0.045098944458750012
leaf_weight=1.6662990078330024 7.2483005002141008 1.8230080753564832 1.6450780555605886 1.4873916804790495 1.6628061346709726
leaf_count=22 28 13 18 23 20
internal_value=-0.00184757 -0.0458593 -0.044962 -0.0446987 -0.0449184
internal_weight=15.5329 8.28458 6.46157 4.8165 3.32911
internal_count=124 96 83 65 42
is_linear=0
shrinkage=0.05


Tree=97
num_leaves=5
num_cat=0
split_feature=4 56 106 99
split_gain=9.64909 4.72094 0.00329581 0.000315368
threshold=0.54702970297029718 0.87788866829152035 0.48143919770738558 0.4089760570509049
decision_type=2 2 2 2
left_child=1 -1 -2 -4
right_child=2 -3 3 -5
leaf_value=-0.0041349458591462664 -0.047145597998904977 0.067590747971416176 -0.044526338254944273 -0.045399076602753885
leaf_weight=4.4821106716990489 2.6247793138027182 4.699586883187294 2.4684925936162472 1.7826289385557172
leaf_count=29 23 17 35 20
internal_value=-0.000963664 0.0325773 -0.0457525 -0.0448923
internal_weight=16.0576 9.1817 6.8759 4.25112
internal_count=124 46 78 55
is_linear=0
shrinkage=0.05


Tree=98
num_leaves=6
num_cat=0
split_feature=89 59 3 145 58
split_gain=5.65048 8.5871 4.56296 0.622005 0.00734555
threshold=0.50447662915365299 0.017914577518701725 0.28452595422084564 0.042888536126553932 0.031982230541022949
decision_type=2 2 2 2 2
left_child=4 -2 -3 -4 -1
right_child=1 2 3 -5 -6
leaf_value=-0.049672588222390936 0.085398649615680444 0.031978652029154585 -0.051423277857904751 -0.017865127681782222 -0.045568641628492335
leaf_weight=2.4490297064185169 3.446657419204711 4.3860268145799619 3.0439974218606949 2.5272262580692768 1.9653249755501745
leaf_count=18 13 25 20 25 23
internal_value=0.00121845 0.0173768 -0.0061686 -0.0362006 -0.0478455
internal_weight=17.8183 13.4039 9.95725 5.57122 4.41435
internal_count=124 83 70 45 41
is_linear=0
shrinkage=0.05


Tree=99
num_leaves=5
num_cat=0
split_feature=69 22 59 8
split_gain=6.2325 4.52864 2.84943 0.000758148
threshold=0.11594767076569841 0.78382743703279423 0.11216392064546359 0.76708354312548488
decision_type=2 2 2 2
left_child=1 -1 -3 -2
right_child=3 2 -4 -5
leaf_value=0.052938612122913647 -0.046194499603450123 -0.036993398914889702 0.028623316175775383 -0.044945566783955032
leaf_weight=5.7975323200225848 2.0825464054942122 3.6745426282286644 3.0096408128738403 2.9172432497143745
leaf_count=22 21 28 16 37
internal_value=0.001705 0.0206002 -0.00744862 -0.0454658
internal_weight=17.4815 12.4817 6.68418 4.99979
internal_count=124 66 44 58
is_linear=0
shrinkage=0.05


Tree=100
num_leaves=5
num_cat=0
split_feature=2 58 23 8
split_gain=8.62419 7.18592 0.00614992 0.000210345
threshold=0.20090884369067535 0.22522181351300061 0.82942513987107158 0.70479734692816831
decision_type=2 2 2 2
left_child=1 -1 3 -2
right_child=2 -3 -4 -5
leaf_value=0.064591989206260386 -0.045261992382231206 -0.022806803679157942 -0.048407553127690364 -0.044571723135550349
leaf_weight=5.8722869977354986 1.9742808975279338 3.9230444505810738 1.7013417482376096 2.5027345046401024
leaf_count=24 23 26 16 35
internal_value=0.000410783 0.0295886 -0.0458486 -0.0448761
internal_weight=15.9737 9.79533 6.17836 4.47702
internal_count=124 50 74 58
is_linear=0
shrinkage=0.05


Tree=101
num_leaves=5
num_cat=0
split_feature=2 4 107 6
split_gain=14.6685 0.000577852 0.000167119 8.41444e-05
threshold=0.083108578202641961 0.80268741159830281 0.42803829637160457 0.004816361290184719
decision_type=2 2 2 2
left_child=-1 2 -2 -4
right_child=1 -3 3 -5
leaf_value=0.056642546087534544 -0.045242191223750457 -0.045865766090813241 -0.044947498272117997 -0.044499949633389796
leaf_weight=6.2572171986103067 1.9962157681584338 1.8658421896398065 1.8164240531623361 2.4897960014641285
leaf_count=22 24 20 23 35
internal_value=-0.000964006 -0.0450929 -0.044864 -0.0446887
internal_weight=14.4255 8.16828 6.30244 4.30622
internal_count=124 102 82 58
is_linear=0
shrinkage=0.05


end of trees

feature_importances:
Column_2=29
Column_5=21
Column_107=21
Column_8=18
Column_22=15
Column_69=13
Column_4=11
Column_125=11
Column_64=10
Column_72=9
Column_83=9
Column_6=8
Column_106=8
Column_109=8
Column_42=7
Column_56=7
Column_88=7
Column_105=7
Column_1=6
Column_3=6
Column_19=6
Column_99=6
Column_10=5
Column_58=5
Column_61=5
Column_62=5
Column_71=5
Column_85=5
Column_94=5
Column_101=5
Column_137=5
Column_0=4
Column_24=4
Column_26=4
Column_59=4
Column_70=4
Column_90=4
Column_108=4
Column_20=3
Column_33=3
Column_46=3
Column_60=3
Column_63=3
Column_66=3
Column_82=3
Column_91=3
Column_102=3
Column_121=3
Column_139=3
Column_13=2
Column_15=2
Column_53=2
Column_76=2
Column_77=2
Column_86=2
Column_87=2
Column_97=2
Column_100=2
Column_129=2
Column_132=2
Column_136=2
Column_138=2
Column_140=2
Column_141=2
Column_145=2
Column_146=2
Column_9=1
Column_21=1
Column_23=1
Column_25=1
Column_27=1
Column_29=1
Column_36=1
Column_37=1
Column_43=1
Column_44=1
Column_48=1
Column_52=1
Column_57=1
Column_65=1
Column_67=1
Column_68=1
Column_78=1
Column_79=1
Column_81=1
Column_89=1
Column_103=1
Column_113=1
Column_131=1
Column_134=1
Column_135=1

parameters:
[boosting: gbdt]
[objective: multiclass]
[metric: custom]
[tree_learner: serial]
[device_type: cpu]
[data_sample_strategy: bagging]
[data: ]
[valid: ]
[num_iterations: 10000]
[learning_rate: 0.05]
[num_leaves: 63]
[num_threads: 0]
[seed: 1237]
[deterministic: 0]
[force_col_wise: 0]
[force_row_wise: 0]
[histogram_pool_size: -1]
[max_depth: -1]
[min_data_in_leaf: 20]
[min_sum_hessian_in_leaf: 0.001]
[bagging_fraction: 1]
[pos_bagging_fraction: 1]
[neg_bagging_fraction: 1]
[bagging_freq: 0]
[bagging_seed: 32458]
[bagging_by_query: 0]
[feature_fraction: 0.9]
[feature_fraction_bynode: 1]
[feature_fraction_seed: 15412]
[extra_trees: 0]
[extra_seed: 19498]
[early_stopping_round: 0]
[early_stopping_min_delta: 0]
[first_metric_only: 0]
[max_delta_step: 0]
[lambda_l1: 0]
[lambda_l2: 0]
[linear_lambda: 0]
[min_gain_to_split: 0]
[drop_rate: 0.1]
[max_drop: 50]
[skip_drop: 0.5]
[xgboost_dart_mode: 0]
[uniform_drop: 0]
[drop_seed: 818]
[top_rate: 0.2]
[other_rate: 0.1]
[min_data_per_group: 100]
[max_cat_threshold: 32]
[cat_l2: 10]
[cat_smooth: 10]
[max_cat_to_onehot: 4]
[top_k: 20]
[monotone_constraints: ]
[monotone_constraints_method: basic]
[monotone_penalty: 0]
[feature_contri: ]
[forcedsplits_filename: ]
[refit_decay_rate: 0.9]
[cegb_tradeoff: 1]
[cegb_penalty_split: 0]
[cegb_penalty_feature_lazy: ]
[cegb_penalty_feature_coupled: ]
[path_smooth: 0]
[interaction_constraints: ]
[verbosity: -1]
[saved_feature_importance_type: 0]
[use_quantized_grad: 0]
[num_grad_quant_bins: 4]
[quant_train_renew_leaf: 0]
[stochastic_rounding: 1]
[linear_tree: 0]
[max_bin: 255]
[max_bin_by_feature: ]
[min_data_in_bin: 3]
[bin_construct_sample_cnt: 200000]
[data_random_seed: 4078]
[is_enable_sparse: 1]
[enable_bundle: 1]
[use_missing: 1]
[zero_as_missing: 0]
[feature_pre_filter: 1]
[pre_partition: 0]
[two_round: 0]
[header: 0]
[label_column: ]
[weight_column: ]
[group_column: ]
[ignore_column: ]
[categorical_feature: ]
[forcedbins_filename: ]
[precise_float_parser: 0]
[parser_config_file: ]
[objective_seed: 21231]
[num_class: 6]
[is_unbalance: 0]
[scale_pos_weight: 1]
[sigmoid: 1]
[boost_from_average: 1]
[reg_sqrt: 0]
[alpha: 0.9]
[fair_c: 1]
[poisson_max_delta_step: 0.7]
[tweedie_variance_power: 1.5]
[lambdarank_truncation_level: 30]
[lambdarank_norm: 1]
[label_gain: ]
[lambdarank_position_bias_regularization: 0]
[eval_at: ]
[multi_error_top_k: 1]
[auc_mu_weights: ]
[num_machines: 1]
[local_listen_port: 12400]
[time_out: 120]
[machine_list_filename: ]
[machines: ]
[gpu_platform_id: -1]
[gpu_device_id: -1]
[gpu_use_dp: 0]
[num_gpu: 1]

end of parameters

pandas_categorical:null
