tree
version=v4
num_class=6
num_tree_per_iteration=6
label_index=0
max_feature_idx=147
objective=multiclass num_class:6
feature_names=Column_0 Column_1 Column_2 Column_3 Column_4 Column_5 Column_6 Column_7 Column_8 Column_9 Column_10 Column_11 Column_12 Column_13 Column_14 Column_15 Column_16 Column_17 Column_18 Column_19 Column_20 Column_21 Column_22 Column_23 Column_24 Column_25 Column_26 Column_27 Column_28 Column_29 Column_30 Column_31 Column_32 Column_33 Column_34 Column_35 Column_36 Column_37 Column_38 Column_39 Column_40 Column_41 Column_42 Column_43 Column_44 Column_45 Column_46 Column_47 Column_48 Column_49 Column_50 Column_51 Column_52 Column_53 Column_54 Column_55 Column_56 Column_57 Column_58 Column_59 Column_60 Column_61 Column_62 Column_63 Column_64 Column_65 Column_66 Column_67 Column_68 Column_69 Column_70 Column_71 Column_72 Column_73 Column_74 Column_75 Column_76 Column_77 Column_78 Column_79 Column_80 Column_81 Column_82 Column_83 Column_84 Column_85 Column_86 Column_87 Column_88 Column_89 Column_90 Column_91 Column_92 Column_93 Column_94 Column_95 Column_96 Column_97 Column_98 Column_99 Column_100 Column_101 Column_102 Column_103 Column_104 Column_105 Column_106 Column_107 Column_108 Column_109 Column_110 Column_111 Column_112 Column_113 Column_114 Column_115 Column_116 Column_117 Column_118 Column_119 Column_120 Column_121 Column_122 Column_123 Column_124 Column_125 Column_126 Column_127 Column_128 Column_129 Column_130 Column_131 Column_132 Column_133 Column_134 Column_135 Column_136 Column_137 Column_138 Column_139 Column_140 Column_141 Column_142 Column_143 Column_144 Column_145 Column_146 Column_147
feature_infos=[0:0.99940476496228225] [0:1] [0:0.99956325138458124] [0:0.99938630309905374] [0:0.99717114568599707] [0:1] [0:1] [0.087333799860040529:1] [0:1] [0:0.92452556859336532] [0:1] [0:0.99940476496228225] [0:0.99940476496228225] [0:1] [0:1] [0:0.99956325138458124] [0:0.99956325138458124] [0:0.99942025209613383] [0:0.83377089997436549] [0:0.99942547652106306] [0:0.95342575350363612] [0:1] [0.013151567080457602:0.99774094757444476] [0:1] [0:1] [0:0.82781462549888496] [0:0.95880156994768317] [0:0.8366248059758461] [0:0.94161073667969908] [0:0.89165697588572035] [0:0.7650629138051378] [0:0.85036474202163059] [0:0.81346726188736085] [0:1] [0:1] [0:1] [0:0.99999999999999989] [0:1] [0:1] [0:1] [0:1] [0:1] [0:1] [0:1] [0:1] [0.087947882736152394:0.9804560260586257] [0.026578073089694954:0.97674418604650981] [0.083881578947369917:0.98519736842104066] [0.06478405315614566:0.97729789590254512] [0.087593721916590539:0.98699880951196661] [0.026737768496417402:0.97995769147320289] [0.083001254822860915:0.99197348956352016] [0.063782457564521167:0.98422632734649085] [0:1] [0:1] [0:1] [0:1] [0:1] [0:1] [0:1] [0:0.99166666666666692] [0:1] [0:1] [0:1] [0:1] [0:1] [0:1] [0:1] [0:1] [0:1] [0:0.99964187161146978] [0:1] [0:0.99963778169764683] [0:1] [0:0.82009511915976585] [0:0.99999999999999989] [0:0.99999999999999989] [0:1] [0.0057619047021364288:0.99999999999999978] [0:1] [0:0.99999999999999989] [0:1] [0:1] [0.01329418961442369:1] [0:1] [0:1] [0:0.97008104841418386] [0:1] [0:0.99999999999999989] [0:1] [0.051590550036289928:1] [0:1] [0:1] [0:1] [0:0.99999999999999989] [0:1] [0:1] [0:0.99948082270186012] [0:0.91000005000000006] [0:0.99759745876271233] [0:0.94238019348872493] [0:0.87465495033305674] [0:0.86842105263157909] [0:0.87324258983729219] [0:0.86438505303166613] [0:1] [0:1] [0:1] [0:0.99999999999999956] [0:1] [0:1] [0:1] [0:1] [0:1] [0:1] [0:1] [0:0.99999999999999989] [0.039682539682539764:1] [0.016000000000000014:1] [0.031872509960159334:0.99999999999999978] [0.025299600532623367:0.99999999999999978] [0:0.87735349754080372] [0:0.87735349754080372] [0:0.87735349754080372] [0:0.87735349754080372] [0:1] [0:1] [0:1] [0:1] [0:1] [0:1] [0:1] [0:0.99999999999999989] [0:0.84033050335066728] [0:0.87799589620753959] [0:0.7919942329405345] [0:0.8011351618367919] [0:0.72677595628415315] [0:1] [0:0.78612716763005808] [0:0.9495708154506437] [0:0.79166666666666663] [0:0.85009871921653912] [0:0.79166674999999986] [0:0.66666666666666663] [0:0.70208871798177075] [0:0.1069137109783363] [0:0.99956325138458124]
tree_sizes=455 448 448 553 451 353 689 678 677 782 679 689 683 684 682 784 680 685 682 678 684 784 680 577 685 787 679 676 681 687 685 681 678 786 679 688 684 779 679 782 679 577 685 782 681 784 679 686 681 780 680 781 678 687 682 681 673 783 680 680 680 781 678 784 787 687 682 781 674 785 680 787 684 780 672 780 782 690 680 779 672 778 780 686 684 782 776 673 780 787 681 679 670 782 781 787 683 886 673 782 884 688

Tree=0
num_leaves=3
num_cat=0
split_feature=72 0
split_gain=76.3444 3.55271e-15
threshold=0.52339827219800816 0.38535031847133761
decision_type=2 2
left_child=1 -1
right_child=-2 -3
leaf_value=-1.8338714283962017 -1.6020189735871451 -1.8338714283962019
leaf_weight=7.2124414145946565 4.5287422835826865 9.2252157628536207
leaf_count=43 27 55
internal_value=-1.78379 -1.83387
internal_weight=20.9664 16.4377
internal_count=125 98
is_linear=0
shrinkage=1


Tree=1
num_leaves=3
num_cat=0
split_feature=4 105
split_gain=36.123 52.3936
threshold=0.57223945495336814 0.79394669343515656
decision_type=2 2
left_child=1 -1
right_child=-2 -3
leaf_value=-1.573037416736013 -1.8338714283962019 -1.8338714283962017
leaf_weight=4.025548696517947 13.250764459371565 3.690086305141449
leaf_count=24 79 22
internal_value=-1.78379 -1.69778
internal_weight=20.9664 7.71564
internal_count=125 46
is_linear=0
shrinkage=1


Tree=2
num_leaves=3
num_cat=0
split_feature=44 3
split_gain=22.0688 9.55894
threshold=0.023018318797220289 0.25695667896468805
decision_type=2 2
left_child=-1 -2
right_child=1 -3
leaf_value=-1.7329158330410896 -1.7917621877955325 -1.8821846353450424
leaf_weight=4.354560166597369 3.870720148086547 11.934720456600187
leaf_count=27 24 74
internal_value=-1.83258 -1.86004
internal_weight=20.16 15.8054
internal_count=125 98
is_linear=0
shrinkage=1


Tree=3
num_leaves=4
num_cat=0
split_feature=73 33 22
split_gain=18.2082 19.1525 8.21097
threshold=0.1494874165471228 1.0000000180025095e-35 0.81316803274501392
decision_type=2 2 2
left_child=1 2 -1
right_child=-2 -3 -4
leaf_value=-1.6351407528455819 -1.8338714283962019 -1.8224061971144352 -1.7444426243984228
leaf_weight=3.5223551094532031 9.7284093499183637 4.3610110878944397 3.3546239137649536
leaf_count=21 58 26 20
internal_value=-1.78379 -1.74044 -1.68846
internal_weight=20.9664 11.238 6.87698
internal_count=125 67 41
is_linear=0
shrinkage=1


Tree=4
num_leaves=3
num_cat=0
split_feature=125 13
split_gain=53.803 2.14087
threshold=0.98886044556869923 0.20145396157752163
decision_type=2 2
left_child=1 -1
right_child=-2 -3
leaf_value=-1.8338714283962017 -1.627497265324404 -1.7891570263973122
leaf_weight=13.250764459371572 4.3610110878944388 3.3546239137649527
leaf_count=79 26 20
internal_value=-1.78379 -1.82484
internal_weight=20.9664 16.6054
internal_count=125 99
is_linear=0
shrinkage=1


Tree=5
num_leaves=2
num_cat=0
split_feature=2
split_gain=84.1346
threshold=0.091007472357460303
decision_type=2
left_child=-1
right_child=-2
leaf_value=-1.5834707772024208 -1.8338714283962019
leaf_weight=4.1932798922061947 16.773119568824768
leaf_count=25 100
internal_value=-1.78379
internal_weight=20.9664
internal_count=125
is_linear=0
shrinkage=1


Tree=6
num_leaves=5
num_cat=0
split_feature=105 109 34 105
split_gain=62.3407 0.000641481 2.90641e-05 1.84079e-05
threshold=0.82418866106097977 0.16666666666666655 0.00067496678820519863 0.55298178630128936
decision_type=2 2 2 2
left_child=1 -1 3 -3
right_child=-2 2 -4 -5
leaf_value=-0.050277749933614661 0.14985429142242382 -0.04954102207140814 -0.049618301546145625 -0.049378917612549172
leaf_weight=3.7193816900253323 5.2096639126539221 3.5275212079286558 5.0056275576353073 3.4779471158981323
leaf_count=22 28 22 31 22
internal_value=-5.61914e-05 -0.049704 -0.0495263 -0.0494605
internal_weight=20.9401 15.7305 12.0111 7.00547
internal_count=125 97 75 44
is_linear=0
shrinkage=0.05


Tree=7
num_leaves=5
num_cat=0
split_feature=4 106 70 15
split_gain=31.7964 39.9353 5.795e-05 1.76103e-05
threshold=0.57223945495336814 0.80581863656196373 0.010380071906636099 0.1357207403938275
decision_type=2 2 2 2
left_child=1 -1 -2 -4
right_child=2 -3 3 -5
leaf_value=0.17281164436535079 -0.049419968097462248 -0.049629766107515245 -0.049561889328322922 -0.049707543481319366
leaf_weight=4.6642938554286975 3.6486350893974295 3.5560728311538696 3.2141117006540281 5.8564155995845795
leaf_count=24 23 22 20 36
internal_value=-5.55735e-05 0.0765851 -0.0495882 -0.0496559
internal_weight=20.9395 8.22037 12.7192 9.07053
internal_count=125 46 79 56
is_linear=0
shrinkage=0.05


Tree=8
num_leaves=5
num_cat=0
split_feature=42 105 117 67
split_gain=25.6275 8.17043 0.243267 0.000327339
threshold=1.0000000180025095e-35 0.42307692307692274 0.29763888773289832 0.24337329821088879
decision_type=2 2 2 2
left_child=-1 -2 3 -3
right_child=1 2 -4 -5
leaf_value=0.1245882223179255 0.036009256497513263 -0.049738502129445 -0.033307488053157912 -0.049141540743308433
leaf_weight=3.4289618432521847 4.0797914117574718 3.9069481790065748 3.1284027546644202 5.5706603676080704
leaf_count=20 25 24 20 36
internal_value=9.16091e-05 -0.0254927 -0.0453971 -0.0493876
internal_weight=20.1148 16.6858 12.606 9.47761
internal_count=125 105 80 60
is_linear=0
shrinkage=0.05


Tree=9
num_leaves=6
num_cat=0
split_feature=76 22 85 71 105
split_gain=18.4117 21.6316 4.35537 8.79562e-05 3.03118e-05
threshold=0.15166213863695238 0.80742931974916743 0.65948193888090623 0.29331970923382428 0.82418866106097977
decision_type=2 2 2 2 2
left_child=1 -1 -3 -2 -5
right_child=3 2 -4 4 -6
leaf_value=0.13780794515133454 -0.049852133554533634 0.028609809462939412 -0.049908793241779159 -0.049424227672080365 -0.049639111293277041
leaf_weight=3.9685944616794604 3.2857512682676298 3.7929718047380447 3.3050515800714493 3.1748672276735306 3.397205650806427
leaf_count=22 20 22 20 20 21
internal_value=5.34099e-05 0.0443197 -0.0079508 -0.0496409 -0.0495353
internal_weight=20.9244 11.0666 7.09802 9.85782 6.57207
internal_count=125 64 42 61 41
is_linear=0
shrinkage=0.05


Tree=10
num_leaves=5
num_cat=0
split_feature=125 1 4 105
split_gain=45.0317 2.096 4.10929e-05 3.90425e-05
threshold=0.98886044556869923 0.20145396157752163 0.57223945495336814 0.82418866106097977
decision_type=2 2 2 2
left_child=1 2 3 -1
right_child=-2 -3 -4 -5
leaf_value=-0.049408110266423562 0.13327797832619551 -0.0050727810734320375 -0.049696699231617875 -0.049639111293277041
leaf_weight=3.9628801196813637 4.8663929849863043 3.3374034464359275 5.3636527508497238 3.397205650806427
leaf_count=25 26 20 33 21
internal_value=3.17561e-05 -0.0403407 -0.0495914 -0.0495147
internal_weight=20.9275 16.0611 12.7237 7.36009
internal_count=125 99 79 46
is_linear=0
shrinkage=0.05


Tree=11
num_leaves=5
num_cat=0
split_feature=15 36 64 139
split_gain=68.178 3.8754e-05 3.44409e-05 1.05176e-05
threshold=0.091007472357460303 0.00035437026718517536 0.038333333333333337 0.43168085462069639
decision_type=2 2 2 2
left_child=-1 2 -2 -3
right_child=1 3 -4 -5
leaf_value=0.16430384416744495 -0.049639703847811523 -0.049609712897465685 -0.049442633962691211 -0.049735511928409734
leaf_weight=4.8483335971832302 3.558160677552225 3.2271644175052634 5.8821199387311935 3.4247595965862274
leaf_count=25 22 20 37 21
internal_value=-6.13437e-05 -0.049582 -0.0495169 -0.0496745
internal_weight=20.9405 16.0922 9.44028 6.65192
internal_count=125 100 59 41
is_linear=0
shrinkage=0.05


Tree=12
num_leaves=5
num_cat=0
split_feature=72 45 70 8
split_gain=54.3624 0.000802761 8.84347e-05 7.58406e-05
threshold=0.52339827219800816 0.57793557740860224 0.010380071906636099 0.72673434856175978
decision_type=2 2 2 2
left_child=1 -1 -3 -4
right_child=-2 2 3 -5
leaf_value=-0.049922709932348236 0.13261740782602258 -0.048826485379909801 -0.049300577042476777 -0.048998307505211197
leaf_weight=3.2844413220882442 5.6294531971216193 3.4480019360780707 3.608366906642912 4.8838717192411423
leaf_count=20 27 23 23 32
internal_value=-0.000141677 -0.0492305 -0.04904 -0.0491267
internal_weight=20.8541 15.2247 11.9402 8.49224
internal_count=125 98 78 55
is_linear=0
shrinkage=0.05


Tree=13
num_leaves=5
num_cat=0
split_feature=56 105 25 36
split_gain=26.8594 6.13634 0.000785218 7.7273e-05
threshold=0.87003758448507973 0.32043574934394325 0.52483447499013436 0.0012013855614401649
decision_type=2 2 2 2
left_child=1 -1 -3 -4
right_child=-2 2 3 -5
leaf_value=0.021389859355764405 0.10419377440726912 -0.049909351820591336 -0.048806299918091448 -0.049113637889720306
leaf_weight=4.1422317177057328 4.7585033476352683 3.2388854473829261 3.2916478067636472 5.4009965360164642
leaf_count=24 24 20 22 35
internal_value=-0.000151603 -0.0310422 -0.0492449 -0.0489973
internal_weight=20.8323 16.0738 11.9315 8.69264
internal_count=125 101 77 57
is_linear=0
shrinkage=0.05


Tree=14
num_leaves=5
num_cat=0
split_feature=42 105 113 67
split_gain=21.6704 7.56955 0.257747 0.000338752
threshold=1.0000000180025095e-35 0.42307692307692274 0.31858157393238856 0.37324243934263851
decision_type=2 2 2 2
left_child=-1 -2 3 -3
right_child=1 2 -4 -5
leaf_value=0.10872259363389523 0.033076326708192119 -0.049350401295266549 -0.032047637083263671 -0.04872755968657122
leaf_weight=3.7399642467498806 4.2041498869657543 3.6209710389375669 2.9850436151027671 5.4974531382322311
leaf_count=20 25 23 20 37
internal_value=0.000171542 -0.0247234 -0.0448002 -0.0489749
internal_weight=20.0476 16.3076 12.1035 9.11842
internal_count=125 105 80 60
is_linear=0
shrinkage=0.05


Tree=15
num_leaves=6
num_cat=0
split_feature=76 22 85 10 129
split_gain=16.9023 17.6102 4.05381 8.13671e-05 9.03355e-05
threshold=0.15166213863695238 0.80742931974916743 0.65948193888090623 0.44006664365521658 0.53434882876505474
decision_type=2 2 2 2 2
left_child=1 -1 -3 -2 -5
right_child=3 2 -4 4 -6
leaf_value=0.12060076143074423 -0.048981475280409567 0.026812224701308958 -0.049441381984489635 -0.04948421576635844 -0.049109257123287238
leaf_weight=4.3283796608448046 3.0471345037221891 3.8667864948511124 3.1732954680919647 3.1862721741199493 3.2394404858350754
leaf_count=22 20 22 20 20 21
internal_value=0.000133441 0.0412361 -0.00755886 -0.0491943 -0.0492952
internal_weight=20.8413 11.3685 7.04008 9.47285 6.42571
internal_count=125 64 42 61 41
is_linear=0
shrinkage=0.05


Tree=16
num_leaves=5
num_cat=0
split_feature=125 1 4 105
split_gain=38.3468 2.09548 5.904e-05 7.83534e-05
threshold=0.98886044556869923 0.20145396157752163 0.57223945495336814 0.79394669343515656
decision_type=2 2 2 2
left_child=1 2 3 -1
right_child=-2 -3 -4 -5
leaf_value=-0.048897843077197752 0.11596684216524381 -0.0041793442260992276 -0.049282265176295567 -0.049231094372665644
leaf_weight=3.6276092380285281 5.3165934532880774 3.2857577353715888 5.1695261001586914 3.4330336153507233
leaf_count=24 26 20 33 22
internal_value=7.94919e-05 -0.0396298 -0.0491539 -0.0490599
internal_weight=20.8325 15.5159 12.2302 7.06064
internal_count=125 99 79 46
is_linear=0
shrinkage=0.05


Tree=17
num_leaves=5
num_cat=0
split_feature=2 10 10 106
split_gain=57.531 6.15132e-05 3.07166e-05 2.42838e-05
threshold=0.091007472357460303 0.57436425683062509 0.77462634723430435 0.56678443842032855
decision_type=2 2 2 2
left_child=-1 3 -3 -2
right_child=1 2 -4 -5
leaf_value=0.14072163152780204 -0.048933086816793855 -0.049317252757416406 -0.049117089713304196 -0.049111969991264701
leaf_weight=5.3802520930767086 3.4837161749601346 4.4007786363363266 3.3954969346523285 4.166009932756424
leaf_count=25 23 28 22 27
internal_value=-8.46685e-05 -0.0491312 -0.0492301 -0.0490305
internal_weight=20.8263 15.446 7.79628 7.64973
internal_count=125 100 50 50
is_linear=0
shrinkage=0.05


Tree=18
num_leaves=5
num_cat=0
split_feature=84 121 5 10
split_gain=46.2663 0.00236213 0.000169712 6.48475e-05
threshold=0.74242625152782449 0.56377953827515914 0.82973068745570522 0.59628647572776516
decision_type=2 2 2 2
left_child=1 2 3 -1
right_child=-2 -3 -4 -5
leaf_value=-0.048608901343440022 0.11456479697592098 -0.05017451939879175 -0.048394734674737039 -0.048934843589052743
leaf_weight=2.9312163442373294 6.1600421071052542 2.9899805486202231 5.4428323656320572 3.183129221200943
leaf_count=20 28 18 38 21
internal_value=-0.00028736 -0.0489219 -0.0485978 -0.0487786
internal_weight=20.7072 14.5472 11.5572 6.11435
internal_count=125 97 79 41
is_linear=0
shrinkage=0.05


Tree=19
num_leaves=5
num_cat=0
split_feature=4 108 105 99
split_gain=26.502 18.0703 0.00103942 0.000246374
threshold=0.57223945495336814 0.67321753524502082 0.42307692307692274 0.41583589645112395
decision_type=2 2 2 2
left_child=1 -1 -2 -4
right_child=2 -3 3 -5
leaf_value=0.13078964413013799 -0.049633429080199437 -0.012864148737489318 -0.048405855950054949 -0.048970689136451424
leaf_weight=4.8127913624048251 3.5451865792274466 4.0157009065151215 5.3052825629711133 3.035078838467598
leaf_count=21 22 25 37 20
internal_value=-0.000173395 0.0654477 -0.0489162 -0.0486114
internal_weight=20.714 8.82849 11.8855 8.34036
internal_count=125 46 79 57
is_linear=0
shrinkage=0.05


Tree=20
num_leaves=5
num_cat=0
split_feature=42 105 117 67
split_gain=18.6568 7.02283 0.263851 0.000309879
threshold=1.0000000180025095e-35 0.42307692307692274 0.29763888773289832 0.24337329821088879
decision_type=2 2 2 2
left_child=-1 -2 3 -3
right_child=1 2 -4 -5
leaf_value=0.096653956065240854 0.030414729543944752 -0.048912951477268617 -0.031106489907774634 -0.048308851802487243
leaf_weight=4.0093911290168789 4.3217424750328055 3.6275415271520597 2.8782385289669028 5.1176769435405731
leaf_count=20 25 24 20 36
internal_value=0.000239212 -0.0240041 -0.0442377 -0.0485594
internal_weight=19.9546 15.9452 11.6235 8.74522
internal_count=125 105 80 60
is_linear=0
shrinkage=0.05


Tree=21
num_leaves=6
num_cat=0
split_feature=76 22 20 10 131
split_gain=15.6186 14.6013 4.31378 0.000106528 6.58991e-05
threshold=0.15166213863695238 0.80742931974916743 0.42505287338981435 0.44006664365521658 0.53361837260197409
decision_type=2 2 2 2 2
left_child=1 -1 -3 -2 -5
right_child=3 2 -4 4 -6
leaf_value=0.10737014599110446 -0.048540383370486877 0.029256445755931306 -0.04966349490976197 -0.049071599422983989 -0.048745441331379938
leaf_weight=4.6420761942863482 2.9143209159374219 3.7596422135829926 3.2097722738981247 3.0678083598613739 3.1275100708007812
leaf_count=22 20 22 20 20 21
internal_value=0.000219548 0.0386691 -0.00709023 -0.0487897 -0.0489069
internal_weight=20.7211 11.6115 6.96941 9.10964 6.19532
internal_count=125 64 42 61 41
is_linear=0
shrinkage=0.05


Tree=22
num_leaves=5
num_cat=0
split_feature=125 1 58 5
split_gain=33.2171 2.09696 7.43993e-05 6.36265e-05
threshold=0.98886044556869923 0.20145396157752163 0.051713456955932144 0.29893887185837686
decision_type=2 2 2 2
left_child=1 2 -1 -4
right_child=-2 -3 3 -5
leaf_value=-0.048544308869299793 0.10283694264095358 -0.0032929350826324173 -0.048645655010691881 -0.048929457069069003
leaf_weight=3.206350818276408 5.7026481330394736 3.2351588159799567 3.0953534692525846 5.4559078365564346
leaf_count=22 26 20 21 36
internal_value=0.000126093 -0.038941 -0.0487497 -0.0488267
internal_weight=20.6954 14.9928 11.7576 8.55126
internal_count=125 99 79 57
is_linear=0
shrinkage=0.05


Tree=23
num_leaves=4
num_cat=0
split_feature=2 58 57
split_gain=49.6246 0.00014731 9.07709e-05
threshold=0.091007472357460303 0.051713456955932144 0.54926937016106436
decision_type=2 2 2
left_child=-1 -2 -3
right_child=1 2 -4
leaf_value=0.12350663580849311 -0.04848560226790407 -0.048948283949025916 -0.04864273400052798
leaf_weight=5.8271206170320538 4.7785708904266349 5.9207401722669584 4.1234559416770935
leaf_count=25 33 39 28
internal_value=-0.000115742 -0.0487141 -0.0488228
internal_weight=20.6499 14.8228 10.0442
internal_count=125 100 67
is_linear=0
shrinkage=0.05


Tree=24
num_leaves=5
num_cat=0
split_feature=105 76 2 58
split_gain=41.1215 0.00448158 0.000241304 0.000133728
threshold=0.82418866106097977 0.24001220901975925 0.091007472357460303 0.075000000000000025
decision_type=2 2 2 2
left_child=1 2 -1 -4
right_child=-2 -3 3 -5
leaf_value=-0.047822661000335713 0.10351820028354815 -0.050324424678058859 -0.048104491451948311 -0.048527288028993275
leaf_weight=3.3500478938221949 6.5005012303590766 3.1232942938804618 3.4640423059463501 4.0648771524429321
leaf_count=25 28 19 25 28
internal_value=-0.000407724 -0.048655 -0.0481757 -0.0483328
internal_weight=20.5028 14.0023 10.879 7.52892
internal_count=125 97 78 53
is_linear=0
shrinkage=0.05


Tree=25
num_leaves=6
num_cat=0
split_feature=5 0 103 97 117
split_gain=25.2025 11.5751 0.00499621 0.000386751 0.000140928
threshold=0.23534948005114006 0.72005662788320413 0.33172486984952082 0.42658376660496783 0.29494354373559201
decision_type=2 2 2 2 2
left_child=-1 2 -2 4 -4
right_child=1 -3 3 -5 -6
leaf_value=0.10862940354562867 -0.05051441158131656 0.058451013812230203 -0.048266592668555611 -0.048701323106179806 -0.047780386665749623
leaf_weight=4.2234295606613186 3.4427671283483532 3.1032521128654471 3.3803677186369878 3.6987739354372025 2.6656492277979851
leaf_count=19 21 16 24 25 20
internal_value=-0.000214108 -0.028432 -0.0488771 -0.0482986 -0.0480522
internal_weight=20.5142 16.2908 13.1876 9.74479 6.04602
internal_count=125 106 90 69 44
is_linear=0
shrinkage=0.05


Tree=26
num_leaves=5
num_cat=0
split_feature=44 3 45 5
split_gain=13.6109 8.35356 0.000928872 0.000202252
threshold=0.023018318797220289 0.25695667896468805 0.58694059364232098 0.89440113394755516
decision_type=2 2 2 2
left_child=-1 -2 -3 -4
right_child=1 2 3 -5
leaf_value=0.068607250897031277 0.036303475530829604 -0.049001073100231718 -0.04831958121378617 -0.047763715106591581
leaf_weight=5.3338480591774013 4.0346931666135779 3.8932833522558195 3.1017368212342262 3.4638695493340492
leaf_count=27 24 26 22 26
internal_value=0.000318603 -0.0248126 -0.0483892 -0.0480263
internal_weight=19.8274 14.4936 10.4589 6.56561
internal_count=125 98 74 48
is_linear=0
shrinkage=0.05


Tree=27
num_leaves=5
num_cat=0
split_feature=73 33 22 42
split_gain=13.0912 12.5986 5.44384 0.000106601
threshold=0.1494874165471228 1.0000000180025095e-35 0.80896233614644142 0.045531148282314512
decision_type=2 2 2 2
left_child=1 2 -1 -2
right_child=3 -3 -4 -5
leaf_value=0.10817704373336855 -0.048492357956831829 -0.037833259923077088 0.026316998944412934 -0.048116855994388828
leaf_weight=4.260079428553583 5.3489026576280576 4.1568904966115943 3.8813793957233429 2.9228916764259338
leaf_count=19 37 26 22 21
internal_value=0.000277056 0.0329898 0.0691509 -0.0483597
internal_weight=20.5701 12.2983 8.14146 8.27179
internal_count=125 67 41 58
is_linear=0
shrinkage=0.05


Tree=28
num_leaves=5
num_cat=0
split_feature=125 1 4 125
split_gain=28.951 2.09237 0.000108637 0.000106479
threshold=0.98886044556869923 0.20145396157752163 0.57223945495336814 0.24911671184753534
decision_type=2 2 2 2
left_child=1 2 3 -1
right_child=-2 -3 -4 -5
leaf_value=-0.048405870894918247 0.092019006927402891 -0.0024917937463062203 -0.048538213982653303 -0.047997932950711364
leaf_weight=3.5946284830570239 6.0489130020141593 3.189932018518447 4.7997407168149948 2.8821849524974823
leaf_count=25 26 20 33 21
internal_value=0.000163557 -0.0382442 -0.0483579 -0.0482243
internal_weight=20.5154 14.4665 11.2766 6.47681
internal_count=125 99 79 46
is_linear=0
shrinkage=0.05


Tree=29
num_leaves=5
num_cat=0
split_feature=2 87 90 105
split_gain=43.4672 0.000115745 0.000157242 7.62788e-05
threshold=0.091007472357460303 0.6151840634773279 0.94375127807972015 0.58148750764368262
decision_type=2 2 2 2
left_child=-1 3 -3 -2
right_child=1 2 -4 -5
leaf_value=0.11034067972282656 -0.047956811127236321 -0.048596958902126952 -0.048151440628679543 -0.048326934619919673
leaf_weight=6.1998525559902218 2.7217665761709204 5.5647749453783018 3.0748729407787323 2.8492984026670456
leaf_count=25 20 38 22 20
internal_value=-0.000128358 -0.0483238 -0.0484384 -0.0481461
internal_weight=20.4106 14.2107 8.63965 5.57106
internal_count=125 100 60 40
is_linear=0
shrinkage=0.05


Tree=30
num_leaves=5
num_cat=0
split_feature=72 144 88 5
split_gain=36.9249 0.00221963 0.000441936 0.000156549
threshold=0.52339827219800816 0.095900833079642769 0.76220393939806375 0.82973068745570522
decision_type=2 2 2 2
left_child=1 2 3 -1
right_child=-2 -3 -4 -5
leaf_value=-0.047936340531441059 0.095061181444218643 -0.049490727511214798 -0.048306142480643605 -0.047452159288515226
leaf_weight=2.7123129963874835 6.745275914669036 2.6334316879510871 3.8181708306074142 4.3419851437211037
leaf_count=20 27 17 27 34
internal_value=-0.000474668 -0.0481883 -0.0478728 -0.0476383
internal_weight=20.2512 13.5059 10.8725 7.0543
internal_count=125 98 81 54
is_linear=0
shrinkage=0.05


Tree=31
num_leaves=5
num_cat=0
split_feature=4 72 105 99
split_gain=21.3768 13.1501 0.00131429 0.000332679
threshold=0.57223945495336814 0.52339827219800816 0.42307692307692274 0.41583589645112395
decision_type=2 2 2 2
left_child=1 -1 -2 -4
right_child=2 -3 3 -5
leaf_value=0.11115911513998243 -0.048947824917047036 -0.0069429900530522531 -0.047499200040806419 -0.048186733012600791
leaf_weight=4.9324981272220629 3.3171631395816785 4.5139415264129639 4.7530143707990646 2.7935643494129181
leaf_count=19 22 27 37 20
internal_value=-0.000285234 0.0547245 -0.0481183 -0.0477537
internal_weight=20.3102 9.44644 10.8637 7.54658
internal_count=125 46 79 57
is_linear=0
shrinkage=0.05


Tree=32
num_leaves=5
num_cat=0
split_feature=42 105 145 68
split_gain=14.6008 6.26312 0.289982 0.000947066
threshold=1.0000000180025095e-35 0.42307692307692274 0.26356804287750152 0.15090500643197993
decision_type=2 2 2 2
left_child=-1 -2 3 -3
right_child=1 2 -4 -5
leaf_value=0.080498251468839016 0.027027688992752 -0.04849099772400034 -0.02874058685547691 -0.047416200278186507
leaf_weight=4.413268610835078 4.4712794721126548 3.8914558291435224 2.5903885066509238 4.3303309381008148
leaf_count=20 25 27 19 34
internal_value=0.000387428 -0.0227455 -0.0433287 -0.0479249
internal_weight=19.6967 15.2835 10.8122 8.22179
internal_count=125 105 80 61
is_linear=0
shrinkage=0.05


Tree=33
num_leaves=6
num_cat=0
split_feature=76 22 85 69 144
split_gain=13.3681 12.1109 5.42369 0.000257534 5.63248e-05
threshold=0.15166213863695238 0.79034273941185018 0.65803161773705676 0.30108545186450625 0.17873683100006152
decision_type=2 2 2 2 2
left_child=1 -1 -3 -2 -5
right_child=3 2 -4 4 -6
leaf_value=0.099678146128938105 -0.048434274969034873 0.035888433551805418 -0.048981142890724236 -0.047690850759109643 -0.048010014814502462
leaf_weight=4.4484304040670413 2.8567720800638181 3.9731593728065491 3.5775001794099808 2.7786302790045738 2.7508276253938675
leaf_count=19 20 21 24 21 20
internal_value=0.000383782 0.0342336 -0.00432275 -0.0480488 -0.0478496
internal_weight=20.3853 11.9991 7.55066 8.38623 5.52946
internal_count=125 64 45 61 41
is_linear=0
shrinkage=0.05


Tree=34
num_leaves=5
num_cat=0
split_feature=110 107 2 125
split_gain=26.2198 2.12636 0.00390239 4.89302e-05
threshold=0.76131917563760132 0.24725252747252727 0.27646129541864145 0.2408862319534805
decision_type=2 2 2 2
left_child=1 -1 -3 -4
right_child=-2 2 3 -5
leaf_value=-0.0025615259086898875 0.085024086356973505 -0.049849938600974628 -0.047984004292003231 -0.047708477967971653
leaf_weight=3.2710556834936169 6.2905341088771811 3.9764161407947523 4.1118285953998566 2.6497379913926125
leaf_count=23 27 25 30 20
internal_value=0.000223007 -0.0378556 -0.048607 -0.047876
internal_weight=20.2996 14.009 10.738 6.76157
internal_count=125 98 75 50
is_linear=0
shrinkage=0.05


Tree=35
num_leaves=5
num_cat=0
split_feature=2 108 19 139
split_gain=38.1478 0.000148767 9.40774e-05 6.94334e-05
threshold=0.091007472357460303 0.28788953891021835 0.3635292374277268 0.51999141566292917
decision_type=2 2 2 2
left_child=-1 -2 -3 -4
right_child=1 2 3 -5
leaf_value=0.099062749629872757 -0.048233660017240484 -0.047629210974509152 -0.048078626486302206 -0.047753720158289312
leaf_weight=6.5337555557489422 3.3628488630056372 3.2721078842878324 4.2964704185724258 2.6638502553105354
leaf_count=25 24 25 31 20
internal_value=-0.000227323 -0.0479451 -0.0478503 -0.0479543
internal_weight=20.129 13.5953 10.2324 6.96032
internal_count=125 100 76 51
is_linear=0
shrinkage=0.05


Tree=36
num_leaves=5
num_cat=0
split_feature=105 72 88 2
split_gain=33.016 0.00897561 0.000378492 0.000140336
threshold=0.82418866106097977 0.35548646518089305 0.76220393939806375 0.091007472357460303
decision_type=2 2 2 2
left_child=1 2 3 -1
right_child=-2 -3 -4 -5
leaf_value=-0.047014526816939267 0.086519890340572198 -0.05081836167599553 -0.047956452830799023 -0.047454118220805024
leaf_weight=3.0019796863198298 7.0369776040315619 2.4662540256977072 2.8458510115742683 4.5938733145594597
leaf_count=25 28 15 21 36
internal_value=-0.000606883 -0.0481054 -0.0474646 -0.0472804
internal_weight=19.9449 12.908 10.4417 7.59585
internal_count=125 97 82 61
is_linear=0
shrinkage=0.05


Tree=37
num_leaves=6
num_cat=0
split_feature=5 87 20 5 18
split_gain=24.5848 11.694 0.00957576 0.000908053 0.000127206
threshold=0.18064209470609288 0.54438407884887441 0.3234212074958483 0.82581569590919257 0.37815330462834745
decision_type=2 2 2 2 2
left_child=-1 -2 -3 -4 -5
right_child=1 2 3 4 -6
leaf_value=0.1191731928100162 0.053182855167957871 -0.050929925284702249 -0.048189458038107487 -0.046982774868669058 -0.047471857576411633
leaf_weight=3.5427307188510921 3.6333741247653988 2.9261982589960089 4.598811097443102 2.6295716464519501 2.6890182718634605
leaf_count=13 18 18 33 22 21
internal_value=-0.000320224 -0.0260126 -0.0484165 -0.0476749 -0.04723
internal_weight=20.0197 16.477 12.8436 9.9174 5.31859
internal_count=125 112 94 76 43
is_linear=0
shrinkage=0.05


Tree=38
num_leaves=5
num_cat=0
split_feature=42 3 118 144
split_gain=12.7791 5.97403 0.30462 0.0016313
threshold=1.0000000180025095e-35 0.28071638632431711 0.29804128634562843 0.038164851809148241
decision_type=2 2 2 2
left_child=-1 -2 3 -3
right_child=1 2 -4 -5
leaf_value=0.073238939441734388 0.025523034487567819 -0.048722813753901292 -0.02781776530498203 -0.047270583564389901
leaf_weight=4.6123367547988918 4.5814602077007285 3.4620371758937818 2.4833657667040825 4.3805699720978737
leaf_count=20 27 24 19 35
internal_value=0.000507252 -0.0219958 -0.0430791 -0.0479117
internal_weight=19.5198 14.9074 10.326 7.84261
internal_count=125 105 78 59
is_linear=0
shrinkage=0.05


Tree=39
num_leaves=6
num_cat=0
split_feature=76 22 85 79 125
split_gain=12.2921 10.1752 5.0071 0.000285952 6.32524e-05
threshold=0.15166213863695238 0.79034273941185018 0.65803161773705676 0.51596476553791781 0.2408862319534805
decision_type=2 2 2 2 2
left_child=1 -1 -3 -2 -5
right_child=3 2 -4 4 -6
leaf_value=0.090018710903588289 -0.048081826925056165 0.033503819070141369 -0.048588966411376971 -0.047617712968860276 -0.047270563260904563
leaf_weight=4.6718498915433901 2.7462040111422521 4.0634962171316147 3.421379879117012 2.7549917250871658 2.5054427906870842
leaf_count=19 20 21 24 21 20
internal_value=0.00043607 0.0321185 -0.00402126 -0.0476683 -0.0474524
internal_weight=20.1634 12.1567 7.48488 8.00664 5.26043
internal_count=125 64 45 61 41
is_linear=0
shrinkage=0.05


Tree=40
num_leaves=5
num_cat=0
split_feature=110 4 4 125
split_gain=23.1522 2.29401 0.00215917 7.08886e-05
threshold=0.76131917563760132 0.90460560800184553 0.57223945495336814 0.24911671184753534
decision_type=2 2 2 2
left_child=1 2 3 -1
right_child=-2 -3 -4 -5
leaf_value=-0.047599213417068555 0.077380952004765136 0.0016643238146667513 -0.048885554971972472 -0.047250317548736882
leaf_weight=3.2718780040740985 6.5546808987855902 2.9711875170469275 4.6434418931603432 2.6230465173721313
leaf_count=25 27 20 32 21
internal_value=0.000272955 -0.037139 -0.0480792 -0.047444
internal_weight=20.0642 13.5096 10.5384 5.89492
internal_count=125 98 78 46
is_linear=0
shrinkage=0.05


Tree=41
num_leaves=4
num_cat=0
split_feature=2 58 57
split_gain=33.8718 0.000171371 0.000304338
threshold=0.091007472357460303 0.051713456955932144 0.54926937016106436
decision_type=2 2 2
left_child=-1 -2 -3
right_child=1 2 -4
leaf_value=0.090169035986240223 -0.047322470618760326 -0.047951536791815907 -0.047352978501529946
leaf_weight=6.7956911772489574 4.148774452507495 5.3055300712585431 3.5410236269235611
leaf_count=25 33 39 28
internal_value=-0.00028577 -0.0475876 -0.047712
internal_weight=19.791 12.9953 8.84655
internal_count=125 100 67
is_linear=0
shrinkage=0.05


Tree=42
num_leaves=5
num_cat=0
split_feature=72 144 5 87
split_gain=29.6838 0.00409932 0.000503588 0.000207631
threshold=0.52339827219800816 0.095900833079642769 0.85029115200301308 0.64131937043402776
decision_type=2 2 2 2
left_child=1 2 3 -1
right_child=-2 -3 -4 -5
leaf_value=-0.047069326461657228 0.079987811744868575 -0.049419738046603851 -0.046689244119758042 -0.047658836804228839
leaf_weight=2.4151919409632701 7.2012498676776877 2.5383621230721465 3.540190614759922 3.9146073088049889
leaf_count=20 27 17 31 30
internal_value=-0.000763345 -0.0476277 -0.0471668 -0.0474339
internal_weight=19.6096 12.4084 9.86999 6.3298
internal_count=125 98 81 50
is_linear=0
shrinkage=0.05


Tree=43
num_leaves=6
num_cat=0
split_feature=5 88 20 2 94
split_gain=21.4839 10.8942 0.00926791 0.000861213 0.000378536
threshold=0.18064209470609288 0.5147447773408419 0.3234212074958483 0.12059147735086972 0.21572957425282624
decision_type=2 2 2 2 2
left_child=-1 -2 -3 -4 -5
right_child=1 2 3 4 -6
leaf_value=0.10841679053142024 0.04966859757687464 -0.050608837008535329 -0.046641345061615526 -0.047200261669114597 -0.047979080276402089
leaf_weight=3.6856883168220547 3.7073629125952747 2.8356283754110327 2.9485784918069822 2.5813656970858574 3.9438481330871582
leaf_count=13 18 18 26 21 29
internal_value=-0.00042466 -0.0254706 -0.0481011 -0.0473505 -0.047671
internal_weight=19.7025 16.0168 12.3094 9.47379 6.52521
internal_count=125 112 94 76 50
is_linear=0
shrinkage=0.05


Tree=44
num_leaves=5
num_cat=0
split_feature=42 105 113 68
split_gain=11.1894 5.62837 0.317352 0.000786548
threshold=1.0000000180025095e-35 0.42307692307692274 0.31858157393238856 0.15090500643197993
decision_type=2 2 2 2
left_child=-1 -2 3 -3
right_child=1 2 -4 -5
leaf_value=0.066826854438187519 0.02465820293079881 -0.04796877490955849 -0.02657862369687844 -0.046938313051075348
leaf_weight=4.7937401980161694 4.5746085196733466 3.2601074054837209 2.4209398180246353 4.2869160696864128
leaf_count=20 25 24 20 36
internal_value=0.000579376 -0.0212581 -0.0423305 -0.0473834
internal_weight=19.3363 14.5426 9.96796 7.54702
internal_count=125 105 80 60
is_linear=0
shrinkage=0.05


Tree=45
num_leaves=6
num_cat=0
split_feature=76 22 73 69 146
split_gain=11.384 8.72273 4.71737 0.000298645 5.93817e-05
threshold=0.15166213863695238 0.79034273941185018 0.052866653818573965 0.30108545186450625 0.068822051714550164
decision_type=2 2 2 2 2
left_child=1 -1 -3 -2 -5
right_child=3 2 -4 4 -6
leaf_value=0.082549361310461936 -0.047759082393668259 0.043047409680093594 -0.037738316482322655 -0.046921200727001219 -0.047265769062371614
leaf_weight=4.8470921069383639 2.6384356990456572 3.1220629513263702 4.2902512550354004 2.3843826130032539 2.6290795058012009
leaf_count=19 20 16 29 20 21
internal_value=0.0005254 0.0303941 -0.00371141 -0.0473285 -0.0471019
internal_weight=19.9113 12.2594 7.41231 7.6519 5.01346
internal_count=125 64 45 61 41
is_linear=0
shrinkage=0.05


Tree=46
num_leaves=5
num_cat=0
split_feature=110 4 2 54
split_gain=20.6205 2.27723 0.00206531 7.16928e-05
threshold=0.76131917563760132 0.90460560800184553 0.28785840118852529 0.73882581582121654
decision_type=2 2 2 2
left_child=1 2 -1 -4
right_child=-2 -3 3 -5
leaf_value=-0.048677187428349394 0.071130010105976457 0.0022825507622019742 -0.047318309112077628 -0.046973163654849354
leaf_weight=3.6603676453232783 6.7702387869358054 2.9395103603601447 4.0223943740129471 2.403642825782299
leaf_count=26 27 20 32 20
internal_value=0.000346569 -0.0364432 -0.0477292 -0.0471892
internal_weight=19.7962 13.0259 10.0864 6.42604
internal_count=125 98 78 52
is_linear=0
shrinkage=0.05


Tree=47
num_leaves=5
num_cat=0
split_feature=2 107 19 92
split_gain=30.5088 0.000234055 9.96536e-05 8.62778e-05
threshold=0.091007472357460303 0.28048113730628632 0.3635292374277268 0.50122995423070404
decision_type=2 2 2 2
left_child=-1 -2 -3 -4
right_child=1 2 3 -5
leaf_value=0.083318939189665195 -0.047640088335474159 -0.04689941460529657 -0.047042333043688378 -0.047413482826928963
leaf_weight=6.9878129214048412 3.1114996001124373 2.9570494294166547 2.7886125296354294 3.5708765313029289
leaf_count=25 24 25 23 28
internal_value=-0.000267275 -0.0472646 -0.0471392 -0.0472507
internal_weight=19.4159 12.428 9.31654 6.35949
internal_count=125 100 76 51
is_linear=0
shrinkage=0.05


Tree=48
num_leaves=5
num_cat=0
split_feature=105 141 5 106
split_gain=26.8612 0.0115487 0.000542717 0.000274389
threshold=0.82418866106097977 0.16659730791377145 0.85029115200301308 0.28934237853048561
decision_type=2 2 2 2
left_child=1 2 3 -1
right_child=-2 -3 -4 -5
leaf_value=-0.047509180266541051 0.073900751560589326 -0.050757840599703244 -0.0463526841804493 -0.046825726647335253
leaf_weight=2.670941390097143 7.382885515689849 2.3463072329759589 3.5626639276742935 3.262168675661087
leaf_count=21 28 15 33 28
internal_value=-0.000950815 -0.0476166 -0.0468405 -0.0471334
internal_weight=19.225 11.8421 9.49577 5.93311
internal_count=125 97 82 49
is_linear=0
shrinkage=0.05


Tree=49
num_leaves=6
num_cat=0
split_feature=5 88 20 2 94
split_gain=18.8816 10.1522 0.00901361 0.000905241 0.000316496
threshold=0.18064209470609288 0.5147447773408419 0.3234212074958483 0.1357207403938275 0.251366127808136
decision_type=2 2 2 2 2
left_child=-1 -2 -3 -4 -5
right_child=1 2 3 4 -6
leaf_value=0.099621616160310886 0.04636211430902399 -0.050296067866164473 -0.046334650452294179 -0.046958294777818557 -0.047699857175720686
leaf_weight=3.7871516644954708 3.7841779589653006 2.7435292974114409 3.1211869940161687 2.4858770370483398 3.416105180978775
leaf_count=13 18 18 29 21 26
internal_value=-0.000494542 -0.0248761 -0.0477864 -0.0470233 -0.0473875
internal_weight=19.338 15.5509 11.7667 9.02317 5.90198
internal_count=125 112 94 76 47
is_linear=0
shrinkage=0.05


Tree=50
num_leaves=5
num_cat=0
split_feature=42 3 145 5
split_gain=9.79889 5.46298 0.333953 0.00233819
threshold=1.0000000180025095e-35 0.28071638632431711 0.26356804287750152 0.89440113394755516
decision_type=2 2 2 2
left_child=-1 -2 3 -3
right_child=1 2 -4 -5
leaf_value=0.061151560213957873 0.023992420635152115 -0.048211375619694213 -0.025636184744147555 -0.046379833711248306
leaf_weight=4.9559422433376339 4.6364287286996833 4.2882147282361966 2.3126163631677628 2.9353742599487305
leaf_count=20 27 32 19 27
internal_value=0.000634296 -0.0205276 -0.0421729 -0.0474671
internal_weight=19.1286 14.1726 9.53621 7.22359
internal_count=125 105 78 59
is_linear=0
shrinkage=0.05


Tree=51
num_leaves=6
num_cat=0
split_feature=76 30 22 69 144
split_gain=10.5206 7.88536 5.46471 0.000332825 6.3979e-05
threshold=0.15166213863695238 0.50374085636058363 0.80742931974916743 0.30108545186450625 0.17873683100006152
decision_type=2 2 2 2 2
left_child=1 -1 -3 -2 -5
right_child=3 2 -4 4 -6
leaf_value=0.090056687495711246 -0.047465597405285193 0.05052901662679106 -0.030275455693709586 -0.046572522151703238 -0.046939107970674548
leaf_weight=3.6789921596646336 2.5364644303917876 3.5337964892387372 5.1295834109187126 2.3714787214994431 2.3894544467329979
leaf_count=16 20 14 34 21 20
internal_value=0.000589479 0.0287284 0.00268472 -0.047003 -0.0467565
internal_weight=19.6398 12.3424 8.66338 7.2974 4.76093
internal_count=125 64 48 61 41
is_linear=0
shrinkage=0.05


Tree=52
num_leaves=5
num_cat=0
split_feature=125 1 22 65
split_gain=18.5845 2.21018 0.000984492 9.42555e-05
threshold=0.98886044556869923 0.20145396157752163 0.78312526486882816 0.3099099333266348
decision_type=2 2 2 2
left_child=1 2 3 -1
right_child=-2 -3 -4 -5
leaf_value=-0.046673052277469623 0.066430235721190098 0.0023162295484795772 -0.047962277171846833 -0.047048540635938524
leaf_weight=3.2038904726505297 6.8946171700954428 2.9375355094671241 2.9726840034127235 3.4938551858067513
leaf_count=28 26 20 22 29
internal_value=0.000426724 -0.035667 -0.047205 -0.0468689
internal_weight=19.5026 12.608 9.67043 6.69775
internal_count=125 99 79 57
is_linear=0
shrinkage=0.05


Tree=53
num_leaves=5
num_cat=0
split_feature=2 107 19 92
split_gain=27.6728 0.000271633 9.29224e-05 0.000101072
threshold=0.091007472357460303 0.28048113730628632 0.3635292374277268 0.49905803975114227
decision_type=2 2 2 2
left_child=-1 -2 -3 -4
right_child=1 2 3 -5
leaf_value=0.077629697050155225 -0.047375362189771356 -0.046587038049699714 -0.046672806007379601 -0.047093538652419213
leaf_weight=7.1324691772460964 2.9926049634814254 2.8131761997938138 2.2936862707138062 3.7796089351177216
leaf_count=25 24 25 20 31
internal_value=-0.000220382 -0.0469634 -0.0468246 -0.0469346
internal_weight=19.0115 11.8791 8.88647 6.0733
internal_count=125 100 76 51
is_linear=0
shrinkage=0.05


Tree=54
num_leaves=5
num_cat=0
split_feature=84 102 105 18
split_gain=25.2315 0.0123625 0.000549346 0.000150073
threshold=0.74242625152782449 0.49177036627694576 0.42307692307692274 0.37815330462834745
decision_type=2 2 2 2
left_child=1 2 -1 -4
right_child=-2 -3 3 -5
leaf_value=-0.047026098011693745 0.071243112473809281 -0.050482331015322769 -0.045972109330455202 -0.046501456507491837
leaf_weight=3.5441315174102801 7.3470139279961577 2.564666934311389 2.8135949298739433 2.5546561554074287
leaf_count=30 28 16 28 23
internal_value=-0.00110789 -0.0474233 -0.046543 -0.046224
internal_weight=18.8241 11.477 8.91238 5.36825
internal_count=125 97 81 51
is_linear=0
shrinkage=0.05


Tree=55
num_leaves=5
num_cat=0
split_feature=4 56 105 99
split_gain=15.0997 6.40038 0.00137768 0.000673689
threshold=0.57223945495336814 0.90622200162485356 0.42307692307692274 0.41583589645112395
decision_type=2 2 2 2
left_child=1 -1 -2 -4
right_child=2 -3 3 -5
leaf_value=0.0064704033374874863 -0.047821179428716047 0.087699852269371298 -0.046084497982939523 -0.047150571657819863
leaf_weight=5.4810404404997843 2.8906517922878248 4.3493896722793579 3.7986405491828918 2.4298504889011383
leaf_count=31 22 15 37 20
internal_value=-0.000578181 0.0424097 -0.0469191 -0.0465004
internal_weight=18.9496 9.83043 9.11914 6.22849
internal_count=125 46 79 57
is_linear=0
shrinkage=0.05


Tree=56
num_leaves=5
num_cat=0
split_feature=90 8 28 30
split_gain=8.80308 9.49104 0.860448 0.0139963
threshold=0.76729123625799511 0.72673434856175978 0.60871782347282599 0.5736482690886312
decision_type=2 2 2 2
left_child=2 -2 -1 -4
right_child=1 -3 3 -5
leaf_value=-0.015784646686387186 0.070882453367213868 -0.026031002096658287 -0.046826173791343968 -0.051922686548235897
leaf_weight=3.0042028650641459 6.1947988122701627 4.2660441845655441 2.9924408420920372 2.4500911831855774
leaf_count=23 30 29 27 16
internal_value=0.00070305 0.0313601 -0.0372641 -0.0491205
internal_weight=18.9076 10.4608 8.44673 5.44253
internal_count=125 59 66 43
is_linear=0
shrinkage=0.05


Tree=57
num_leaves=6
num_cat=0
split_feature=76 22 73 69 146
split_gain=9.77692 6.7365 4.12089 0.000357631 6.48379e-05
threshold=0.15166213863695238 0.79034273941185018 0.052866653818573965 0.30108545186450625 0.068822051714550164
decision_type=2 2 2 2 2
left_child=1 -1 -3 -2 -5
right_child=3 2 -4 4 -6
leaf_value=0.071488405629453453 -0.047192733396777951 0.03873008411205231 -0.036864365870458216 -0.046241099349991349 -0.04662030716051084
leaf_weight=5.0929034948349017 2.4363254457712165 3.2332852929830551 4.074888177216053 2.1351166293025017 2.3879590183496475
leaf_count=19 20 16 29 20 21
internal_value=0.000726036 0.0273437 -0.00341984 -0.0467044 -0.0464413
internal_weight=19.3605 12.4011 7.30817 6.9594 4.52308
internal_count=125 64 45 61 41
is_linear=0
shrinkage=0.05


Tree=58
num_leaves=5
num_cat=0
split_feature=110 4 2 54
split_gain=16.6566 2.28291 0.00240928 0.000100472
threshold=0.76131917563760132 0.90460560800184553 0.28785840118852529 0.73882581582121654
decision_type=2 2 2 2
left_child=1 2 -1 -4
right_child=-2 -3 3 -5
leaf_value=-0.048228421152530426 0.061472083098323277 0.0039589193651521091 -0.046716758596798719 -0.046286689099133409
leaf_weight=3.4271250516176242 7.0673656314611426 2.8561127185821524 3.6760116070508957 2.1536397486925125
leaf_count=26 27 20 32 20
internal_value=0.000471932 -0.0351191 -0.0471764 -0.0465579
internal_weight=19.1803 12.1129 9.25678 5.82965
internal_count=125 98 78 52
is_linear=0
shrinkage=0.05


Tree=59
num_leaves=5
num_cat=0
split_feature=5 135 4 59
split_gain=25.506 0.359952 0.0462004 0.000250526
threshold=0.92029732272603237 0.62275664928474639 0.78664114972504129 0.57750000000000012
decision_type=2 2 2 2
left_child=1 2 3 -1
right_child=-2 -3 -4 -5
leaf_value=-0.046910643334253821 0.077102596131682244 -0.026807049989674578 -0.054406738299084378 -0.046272523091574182
leaf_weight=4.4596353769302386 6.7731666639447203 2.2891277670860282 2.7130223214626312 2.3478892743587494
leaf_count=38 28 19 18 22
internal_value=-0.000246994 -0.0446091 -0.0488894 -0.0466906
internal_weight=18.5828 11.8097 9.52055 6.80752
internal_count=125 97 78 60
is_linear=0
shrinkage=0.05


Tree=60
num_leaves=5
num_cat=0
split_feature=105 20 29 4
split_gain=22.4786 0.0129885 0.000731003 0.000128941
threshold=0.82418866106097977 0.52304444418704688 0.44672069764514527 0.85356685960150391
decision_type=2 2 2 2
left_child=1 2 -1 -4
right_child=-2 -3 3 -5
leaf_value=-0.046821488366305536 0.065247602111572336 -0.050673799237765493 -0.046196062896928868 -0.04567668025842897
leaf_weight=3.8844907805323619 7.5278694331645957 2.1178338006138793 2.108527235686779 2.7580201625823975
leaf_count=34 28 14 20 29
internal_value=-0.00116345 -0.0471603 -0.04631 -0.0459017
internal_weight=18.3967 10.8689 8.75104 4.86655
internal_count=125 97 83 49
is_linear=0
shrinkage=0.05


Tree=61
num_leaves=6
num_cat=0
split_feature=5 87 25 2 8
split_gain=15.5314 10.8127 0.0171504 0.00114116 0.000479833
threshold=0.18064209470609288 0.53163787807846985 0.3449101781057739 0.1357207403938275 0.42411368058815463
decision_type=2 2 2 2 2
left_child=-1 -2 -3 -4 -5
right_child=1 2 3 4 -6
leaf_value=0.088386581694927108 0.054340863355325814 -0.051269220221280415 -0.045737145577857005 -0.046476735012145991 -0.047374313596921014
leaf_weight=3.8736310303211239 3.3788907676935187 2.4646843522787085 2.8855597600340825 2.8351579606533051 3.13585514575243
leaf_count=13 15 16 30 26 25
internal_value=-0.000682615 -0.0241532 -0.0475802 -0.0465536 -0.0469481
internal_weight=18.5738 14.7001 11.3213 8.85657 5.97101
internal_count=125 112 97 81 51
is_linear=0
shrinkage=0.05


Tree=62
num_leaves=5
num_cat=0
split_feature=90 8 55 33
split_gain=7.95737 8.20111 1.03866 0.00971471
threshold=0.76729123625799511 0.72673434856175978 0.57760911732944908 0.0026981614703945468
decision_type=2 2 2 2
left_child=2 -2 -1 -4
right_child=1 -3 3 -5
leaf_value=-0.0095683649910819329 0.064728479487236742 -0.025334890140790173 -0.050480883449088514 -0.046330952850594929
leaf_weight=2.4807647764682788 6.4178900718688947 4.1699601039290428 2.7970006838440895 2.8442916348576546
leaf_count=19 30 29 20 27
internal_value=0.000698246 0.0292576 -0.0365315 -0.0483885
internal_weight=18.7099 10.5879 8.12206 5.64129
internal_count=125 59 66 47
is_linear=0
shrinkage=0.05


Tree=63
num_leaves=6
num_cat=0
split_feature=76 30 85 69 146
split_gain=9.01497 6.09868 5.60943 0.000349024 4.21039e-05
threshold=0.15166213863695238 0.50374085636058363 0.63899938504041331 0.30108545186450625 0.068822051714550164
decision_type=2 2 2 2 2
left_child=1 -1 -3 -2 -5
right_child=3 2 -4 4 -6
leaf_value=0.077510147652575259 -0.046894299881737933 0.034337011556603195 -0.048906146068577246 -0.045968889134875429 -0.046282593877192225
leaf_weight=3.9125477671623257 2.3284956291317931 5.228462800383566 3.3017903864383698 2.0326994359493256 2.2574636787176132
leaf_count=16 20 23 25 20 21
internal_value=0.000744891 0.0258233 0.00211623 -0.0464015 -0.046134
internal_weight=19.0615 12.4428 8.53025 6.61866 4.29016
internal_count=125 64 48 61 41
is_linear=0
shrinkage=0.05


Tree=64
num_leaves=6
num_cat=0
split_feature=125 1 22 4 109
split_gain=15.0728 2.73747 0.00153596 0.000298595 5.79287e-05
threshold=0.98886044556869923 0.25518759746685565 0.81316803274501392 0.51520509193776542 0.022683768874403768
decision_type=2 2 2 2 2
left_child=1 2 3 4 -1
right_child=-2 -3 -4 -5 -6
leaf_value=-0.04628518800550057 0.057792440734418797 0.012754610876925488 -0.047829002369652332 -0.046805246040207818 -0.045925152455792859
leaf_weight=2.3662878721952456 7.1474114805459967 2.4430517703294745 2.383259043097496 2.4107905700802803 2.1165503486990929
leaf_count=22 26 17 18 21 21
internal_value=0.000565686 -0.0343341 -0.0467348 -0.0463565 -0.0461152
internal_weight=18.8674 11.7199 9.27689 6.89363 4.48284
internal_count=125 99 82 64 43
is_linear=0
shrinkage=0.05


Tree=65
num_leaves=5
num_cat=0
split_feature=2 4 87 146
split_gain=23.3993 0.000346513 0.000479211 7.61225e-05
threshold=0.091007472357460303 0.51520509193776542 0.64131937043402776 0.066048708917195317
decision_type=2 2 2 2
left_child=-1 3 -3 -2
right_child=1 2 -4 -5
leaf_value=0.069265702622315253 -0.045896551754147231 -0.046305898687429681 -0.047172434903984581 -0.04631073446972811
leaf_weight=7.275407642126086 2.0033295154571515 3.5244138017296791 2.9151694476604462 2.4859653934836388
leaf_count=25 20 33 24 23
internal_value=-0.000211674 -0.0464631 -0.0466982 -0.0461259
internal_weight=18.2043 10.9289 6.43958 4.48929
internal_count=125 100 57 43
is_linear=0
shrinkage=0.05


Tree=66
num_leaves=5
num_cat=0
split_feature=84 102 105 97
split_gain=21.2207 0.014596 0.000623549 0.000144073
threshold=0.74242625152782449 0.50422665809447087 0.42307692307692274 0.39491714652910603
decision_type=2 2 2 2
left_child=1 2 -1 -4
right_child=-2 -3 3 -5
leaf_value=-0.046546708209822679 0.063437699543930789 -0.050550950707230161 -0.04542820767649558 -0.045970769062041353
leaf_weight=3.2722553983330744 7.4164795428514472 2.2508074343204489 2.8751396015286446 2.1300161927938461
leaf_count=30 28 14 32 21
internal_value=-0.00134523 -0.0469808 -0.04601 -0.0456591
internal_weight=17.9447 10.5282 8.27741 5.00516
internal_count=125 97 83 53
is_linear=0
shrinkage=0.05


Tree=67
num_leaves=6
num_cat=0
split_feature=5 87 25 2 6
split_gain=13.8452 9.89615 0.0165214 0.00101362 0.000451116
threshold=0.18064209470609288 0.53163787807846985 0.3449101781057739 0.1357207403938275 0.015461065025075353
decision_type=2 2 2 2 2
left_child=-1 -2 -3 -4 -5
right_child=1 2 3 4 -6
leaf_value=0.082760624522789372 0.05004450620557227 -0.050985455749026888 -0.045470770200371304 -0.046243638678094418 -0.04713952939328292
leaf_weight=3.8843020200729397 3.4442328512668601 2.3756235539913169 2.7256318554282171 3.1479511111974716 2.5380194112658501
leaf_count=13 15 16 30 30 21
internal_value=-0.000907519 -0.0237437 -0.0473034 -0.0462635 -0.0466435
internal_weight=18.1158 14.2315 10.7872 8.4116 5.68597
internal_count=125 112 97 81 51
is_linear=0
shrinkage=0.05


Tree=68
num_leaves=5
num_cat=0
split_feature=90 8 55 33
split_gain=7.29131 7.05183 1.02933 0.0088605
threshold=0.76729123625799511 0.72673434856175978 0.57760911732944908 0.0026981614703945468
decision_type=2 2 2 2
left_child=2 -2 -1 -4
right_child=1 -3 3 -5
leaf_value=-0.0089111488718024434 0.059564031581976762 -0.024293627204655496 -0.050083226071523823 -0.046025615494867153
leaf_weight=2.441708572208884 6.6062866672873479 4.0402384623885155 2.6887498870491982 2.6929313167929649
leaf_count=19 30 29 20 27
internal_value=0.00081113 0.027741 -0.0358366 -0.0480528
internal_weight=18.4699 10.6465 7.82339 5.38168
internal_count=125 59 66 47
is_linear=0
shrinkage=0.05


Tree=69
num_leaves=6
num_cat=0
split_feature=76 22 138 8 44
split_gain=8.41394 5.60382 3.92348 0.000339173 2.33147e-05
threshold=0.15166213863695238 0.79034273941185018 0.71491695077610951 0.72673434856175978 0.10060279832106354
decision_type=2 2 2 2 2
left_child=1 -1 -3 -2 -5
right_child=3 2 -4 4 -6
leaf_value=0.064286088419708787 -0.046629291187306507 0.035456736040024799 -0.038306239392802567 -0.045977337163191169 -0.045737701254569538
leaf_weight=5.2115471214056033 2.2380818501114836 3.3950911089777946 3.8436952456831932 2.1262787878513336 1.9420677423477171
leaf_count=19 20 19 26 21 20
internal_value=0.000918325 0.0247521 -0.00371038 -0.0461349 -0.0458629
internal_weight=18.7568 12.4503 7.23879 6.30643 4.06835
internal_count=125 64 45 61 41
is_linear=0
shrinkage=0.05


Tree=70
num_leaves=5
num_cat=0
split_feature=110 1 2 130
split_gain=13.7523 2.70729 0.00305474 0.000296054
threshold=0.76131917563760132 0.25518759746685565 0.26698262243285947 0.21218347231190343
decision_type=2 2 2 2
left_child=1 2 -1 -4
right_child=-2 -3 3 -5
leaf_value=-0.048122065830477581 0.054461874807641558 0.012787802869619738 -0.046522947397175309 -0.045814463100350263
leaf_weight=2.6546333581209201 7.2495208084583274 2.4410983324050894 2.4344539865851402 3.7394862398505211
leaf_count=21 27 17 22 38
internal_value=0.000740411 -0.0338174 -0.0467037 -0.0460938
internal_weight=18.5192 11.2697 8.82857 6.17394
internal_count=125 98 81 60
is_linear=0
shrinkage=0.05


Tree=71
num_leaves=6
num_cat=0
split_feature=5 62 4 107 10
split_gain=21.517 0.392217 0.0669411 0.000209745 4.54303e-05
threshold=0.92029732272603237 0.69948884390786015 0.81612446958981621 0.39319034035565453 0.56466008899829434
decision_type=2 2 2 2 2
left_child=1 2 3 -1 -5
right_child=-2 -3 -4 4 -6
leaf_value=-0.046592784532525945 0.069064673362054851 -0.024789669468579342 -0.056314383245855942 -0.045831553490714223 -0.046154263708862046
leaf_weight=2.2088568583130854 6.8572124987840644 2.1306612342596045 2.1756554245948792 2.1558012366294861 2.207153856754303
leaf_count=20 28 20 14 22 21
internal_value=-0.000300982 -0.0440268 -0.0487125 -0.0461958 -0.0459948
internal_weight=17.7353 10.8781 8.74747 6.57181 4.36296
internal_count=125 97 77 63 43
is_linear=0
shrinkage=0.05


Tree=72
num_leaves=5
num_cat=0
split_feature=84 102 105 97
split_gain=19.2507 0.0121191 0.000689353 0.000131001
threshold=0.74242625152782449 0.50422665809447087 0.42307692307692274 0.39491714652910603
decision_type=2 2 2 2
left_child=1 2 -1 -4
right_child=-2 -3 3 -5
leaf_value=-0.046350469204928607 0.059475767236422006 -0.050008736290188538 -0.04516842122190972 -0.045700515028118172
leaf_weight=3.1510765850543994 7.4340196028351775 2.1554028615355492 2.7075457647442818 2.0195555090904236
leaf_count=30 28 14 32 21
internal_value=-0.00150502 -0.0466865 -0.0457776 -0.0453957
internal_weight=17.4676 10.0336 7.87818 4.7271
internal_count=125 97 83 53
is_linear=0
shrinkage=0.05


Tree=73
num_leaves=6
num_cat=0
split_feature=5 87 25 2 6
split_gain=12.4961 9.13819 0.0157194 0.000946741 0.000464075
threshold=0.18064209470609288 0.53163787807846985 0.3449101781057739 0.1357207403938275 0.015461065025075353
decision_type=2 2 2 2 2
left_child=-1 -2 -3 -4 -5
right_child=1 2 3 4 -6
leaf_value=0.0783691755844379 0.046585602956642075 -0.050709465708944183 -0.045217824361105829 -0.045964738387304138 -0.046894081077097416
leaf_weight=3.8682243227958706 3.4892997145652762 2.2858252152800551 2.5721742287278158 2.9892866089940071 2.4396138116717339
leaf_count=13 15 16 30 30 21
internal_value=-0.00103861 -0.0233355 -0.0470527 -0.046008 -0.0463824
internal_weight=17.6444 13.7762 10.2869 8.00107 5.4289
internal_count=125 112 97 81 51
is_linear=0
shrinkage=0.05


Tree=74
num_leaves=5
num_cat=0
split_feature=16 4 134 90
split_gain=6.99033 9.20255 0.911948 0.0145862
threshold=0.16901726560736854 0.51520509193776542 0.61431363332269207 0.70229163418079077
decision_type=2 2 2 2
left_child=3 2 -2 -1
right_child=1 -3 -4 -5
leaf_value=-0.045590507417889878 -0.047402978828332408 0.055311791979152092 -0.0052976895282526477 -0.050889560737728483
leaf_weight=2.668181590735915 3.143473304808138 7.7104497179389 2.1763133108615875 2.5300067216157913
leaf_count=29 26 36 17 17
internal_value=0.000852771 0.0204094 -0.0301778 -0.0481696
internal_weight=18.2284 13.0302 5.31979 5.19819
internal_count=125 79 43 46
is_linear=0
shrinkage=0.05


Tree=75
num_leaves=6
num_cat=0
split_feature=76 22 138 8 44
split_gain=7.78348 4.9598 4.08015 0.000358545 2.42924e-05
threshold=0.15166213863695238 0.79034273941185018 0.6607142857142857 0.72673434856175978 0.10060279832106354
decision_type=2 2 2 2 2
left_child=1 -1 -3 -2 -5
right_child=3 2 -4 4 -6
leaf_value=0.060324759926500021 -0.046391451317155545 0.03740739069023654 -0.038193532331684051 -0.045704808467884078 -0.045452983017035757
leaf_weight=5.2710731476545352 2.1496798843145362 3.2959179356694221 3.8923064172267914 2.0122030600905423 1.8273347467184065
leaf_count=19 20 18 27 21 20
internal_value=0.000967831 0.023485 -0.00352928 -0.0458744 -0.045585
internal_weight=18.4485 12.4593 7.18822 5.98922 3.83954
internal_count=125 64 45 61 41
is_linear=0
shrinkage=0.05


Tree=76
num_leaves=6
num_cat=0
split_feature=26 80 86 141 2
split_gain=12.5505 6.0751 1.38188 0.0412311 0.00162147
threshold=0.81125413842556915 0.12702677957083855 0.86824504988945961 0.064999513237455606 0.32860271675954617
decision_type=2 2 2 2 2
left_child=2 -2 3 -1 -5
right_child=1 -3 -4 4 -6
leaf_value=-0.054803082322282176 -0.0030273942721965189 0.082162163655788767 -0.0055938207988454449 -0.047546826430683059 -0.045747722334095547
leaf_weight=2.2108468189835566 3.7036067247390729 4.8116374686360359 2.4394603669643402 2.3997976705431938 2.6193392798304558
leaf_count=14 23 18 24 19 27
internal_value=0.000845963 0.04511 -0.0381344 -0.0491139 -0.0466079
internal_weight=18.1847 8.51524 9.66944 7.22998 5.01914
internal_count=125 41 84 60 46
is_linear=0
shrinkage=0.05


Tree=77
num_leaves=5
num_cat=0
split_feature=15 4 87 146
split_gain=19.9351 0.000437542 0.000391039 5.30825e-05
threshold=0.091007472357460303 0.51520509193776542 0.64131937043402776 0.066048708917195317
decision_type=2 2 2 2
left_child=-1 3 -3 -2
right_child=1 2 -4 -5
leaf_value=0.062599500855075971 -0.045414806524528284 -0.045920207612038744 -0.046733404379759473 -0.045778553625895196
leaf_weight=7.3017477244138744 1.8095867112278918 3.2565546780824661 2.7073167860507965 2.2501466348767281
leaf_count=25 20 33 24 23
internal_value=-0.000240602 -0.0460168 -0.0462894 -0.0456164
internal_weight=17.3254 10.0236 5.96387 4.05973
internal_count=125 100 57 43
is_linear=0
shrinkage=0.05


Tree=78
num_leaves=5
num_cat=0
split_feature=105 69 105 97
split_gain=17.6783 0.0175705 0.000694892 0.00010173
threshold=0.82418866106097977 0.39366189527237888 0.42307692307692274 0.39491714652910603
decision_type=2 2 2 2
left_child=1 2 -1 -4
right_child=-2 -3 3 -5
leaf_value=-0.046132747794342059 0.056183379697155658 -0.050754408045202787 -0.04494409428605501 -0.045426947167582596
leaf_weight=3.0143894255161303 7.4303826093673697 2.0673881471157074 2.5582462213933468 1.90172903239727
leaf_count=30 28 14 32 21
internal_value=-0.00164357 -0.0466748 -0.0455463 -0.04515
internal_weight=16.9721 9.54175 7.47436 4.45998
internal_count=125 97 83 53
is_linear=0
shrinkage=0.05


Tree=79
num_leaves=6
num_cat=0
split_feature=5 87 25 2 8
split_gain=11.2861 8.53587 0.0143443 0.000831202 0.00041494
threshold=0.18064209470609288 0.53163787807846985 0.3449101781057739 0.1357207403938275 0.42411368058815463
decision_type=2 2 2 2 2
left_child=-1 -2 -3 -4 -5
right_child=1 2 3 4 -6
leaf_value=0.074578265343768796 0.044015760981405666 -0.050352759792544582 -0.045003524213892886 -0.04564612488738215 -0.046543656231909085
leaf_weight=3.8291035294532803 3.5159067064523688 2.1953542754054052 2.436460480093956 2.4204390458762646 2.7517174482345581
leaf_count=13 15 16 30 26 25
internal_value=-0.00107452 -0.0228226 -0.0467923 -0.0457649 -0.0461236
internal_weight=17.149 13.3199 9.80397 7.60862 5.17216
internal_count=125 112 97 81 51
is_linear=0
shrinkage=0.05


Tree=80
num_leaves=5
num_cat=0
split_feature=2 4 103 54
split_gain=6.59507 9.66255 0.889676 0.352443
threshold=0.19352290679304898 0.51520509193776542 0.61555176615945884 0.6575753129879861
decision_type=2 2 2 2
left_child=3 2 -2 -1
right_child=1 -3 -4 -5
leaf_value=-0.050341636910950609 -0.047508454960205587 0.061837260101014146 -0.005429479847730438 -0.025214768790081579
leaf_weight=3.919529557228091 2.8945399522781354 6.7615286931395531 2.2192391753196716 2.1672224327921867
leaf_count=30 24 30 19 22
internal_value=0.000923526 0.0226141 -0.0292473 -0.0413951
internal_weight=17.9621 11.8753 5.11378 6.08675
internal_count=125 73 43 52
is_linear=0
shrinkage=0.05


Tree=81
num_leaves=6
num_cat=0
split_feature=76 30 120 8 10
split_gain=7.26001 4.63376 4.86676 0.000387757 2.31218e-05
threshold=0.15166213863695238 0.50374085636058363 0.22703062583222358 0.72673434856175978 0.58457673568818525
decision_type=2 2 2 2 2
left_child=1 -1 -3 -2 -5
right_child=3 2 -4 4 -6
leaf_value=0.066068116732939428 -0.046184861273105914 0.044861697660895483 -0.032260929154931985 -0.045200162903772351 -0.045452790747232394
leaf_weight=4.0981396883726147 2.0701001808047286 3.6073959022760373 4.7247704491019249 1.8033554926514628 1.8196460977196691
leaf_count=16 20 17 31 21 20
internal_value=0.00112217 0.0225388 0.00112917 -0.045639 -0.045327
internal_weight=18.1234 12.4303 8.33217 5.6931 3.623
internal_count=125 64 48 61 41
is_linear=0
shrinkage=0.05


Tree=82
num_leaves=6
num_cat=0
split_feature=26 80 4 27 9
split_gain=11.3763 5.3089 1.37738 0.0427937 0.000310058
threshold=0.81125413842556915 0.12702677957083855 0.88265431657547866 0.50590923704744262 0.68476539101629508
decision_type=2 2 2 2 2
left_child=2 -2 3 4 -1
right_child=1 -3 -4 -5 -6
leaf_value=-0.04615522716650685 -0.0028180710953997334 0.076814330912428105 -0.0030577056672431062 -0.054296706888571536 -0.045365263702008329
leaf_weight=2.2490769699215907 3.6743740886449796 4.8630365133285522 2.2202558666467667 2.0463224276900291 2.7744014635682106
leaf_count=22 23 18 17 14 31
internal_value=0.000876775 0.0425417 -0.0374126 -0.0482017 -0.0457189
internal_weight=17.8275 8.53741 9.29006 7.0698 5.02348
internal_count=125 41 84 67 53
is_linear=0
shrinkage=0.05


Tree=83
num_leaves=5
num_cat=0
split_feature=2 69 87 28
split_gain=18.1193 0.000346264 0.000292684 2.82858e-05
threshold=0.091007472357460303 0.30108545186450625 0.64131937043402776 0.28567230098539204
decision_type=2 2 2 2
left_child=-1 2 -2 -3
right_child=1 3 -4 -5
leaf_value=0.058928477851922068 -0.045677762764078846 -0.045245507204622532 -0.046386858034742497 -0.045522916298000336
leaf_weight=7.2960431873798397 3.0985544025897962 1.7405804172158243 2.7438797727227211 1.9465165734291074
leaf_count=25 33 20 26 21
internal_value=-0.000370557 -0.0457714 -0.0460108 -0.045392
internal_weight=16.8256 9.52953 5.84243 3.6871
internal_count=125 100 59 41
is_linear=0
shrinkage=0.05


Tree=84
num_leaves=5
num_cat=0
split_feature=84 104 10 106
split_gain=16.3755 0.0114574 0.000623357 0.000197595
threshold=0.74242625152782449 0.51776810385196481 0.6141820448672568 0.48970787686097667
decision_type=2 2 2 2
left_child=1 2 3 -1
right_child=-2 -3 -4 -5
leaf_value=-0.045485382922577582 0.054033027628315571 -0.049728691367045157 -0.046023057975436023 -0.044808424639635476
leaf_weight=1.6807107254862801 7.3096973672509185 1.930834926664829 2.5466191098093987 3.0056002698838711
leaf_count=19 28 13 26 39
internal_value=-0.00178347 -0.0463068 -0.0453934 -0.0450512
internal_weight=16.4735 9.16377 7.23293 4.68631
internal_count=125 97 84 58
is_linear=0
shrinkage=0.05


Tree=85
num_leaves=6
num_cat=0
split_feature=5 87 25 109 2
split_gain=10.1226 7.91039 0.0133228 0.0007095 0.000206494
threshold=0.18064209470609288 0.53163787807846985 0.3449101781057739 0.29315487841382548 0.091007472357460303
decision_type=2 2 2 2 2
left_child=-1 -2 -3 -4 -5
right_child=1 2 3 4 -6
leaf_value=0.070865303950489206 0.041257594962304009 -0.050034589410540432 -0.046085317937474148 -0.044698811863745587 -0.045412528712145656
leaf_weight=3.7604469656944302 3.538812816143035 2.1120354235172254 3.1331000700592995 1.8732035458087919 2.2079988606274128
leaf_count=13 15 16 31 25 25
internal_value=-0.00129784 -0.0223909 -0.0465419 -0.0455194 -0.0450849
internal_weight=16.6256 12.8652 9.32634 7.2143 4.0812
internal_count=125 112 97 81 50
is_linear=0
shrinkage=0.05


Tree=86
num_leaves=6
num_cat=0
split_feature=92 62 105 26 5
split_gain=6.33712 4.25593 4.4718 1.08917 0.0110528
threshold=0.64598529236575153 0.060385210562195125 0.42307692307692274 0.68763766390354431 0.83504606661941916
decision_type=2 2 2 2 2
left_child=3 -2 -3 -1 -5
right_child=1 2 -4 4 -6
leaf_value=-0.0076007569189970765 0.062917730954782425 0.040167690167918067 -0.046227272785632802 -0.050961853703069653 -0.046161086716549664
leaf_weight=2.4136243537068394 4.4475677981972677 3.0958901941776276 2.9014930129051208 2.5940016135573387 2.229251891374588
leaf_count=22 17 16 28 17 25
internal_value=0.000939514 0.0258553 -0.0016296 -0.0350213 -0.048743
internal_weight=17.6818 10.445 5.99738 7.23688 4.82325
internal_count=125 61 44 64 42
is_linear=0
shrinkage=0.05


Tree=87
num_leaves=5
num_cat=0
split_feature=76 85 8 10
split_gain=6.8215 4.19771 0.000427582 2.64169e-05
threshold=0.15166213863695238 0.65803161773705676 0.72673434856175978 0.58457673568818525
decision_type=2 2 2 2
left_child=1 -1 -2 -4
right_child=2 -3 3 -5
leaf_value=0.044891435035025358 -0.04601030102185729 -0.01489047690877679 -0.044949787637934502 -0.045227732390890653
leaf_weight=7.6086291745305079 2.0007019490003577 4.7818261682987213 1.6940748989582064 1.7257327139377592
leaf_count=32 20 32 21 20
internal_value=0.00135346 0.0218199 -0.0454297 -0.04509
internal_weight=17.811 12.3905 5.42051 3.41981
internal_count=125 64 61 41
is_linear=0
shrinkage=0.05


Tree=88
num_leaves=6
num_cat=0
split_feature=26 80 106 69 113
split_gain=10.403 4.71927 1.5402 0.0426085 0.00132785
threshold=0.81125413842556915 0.12702677957083855 0.26666655555555546 0.096798369362025419 0.30191532846467833
decision_type=2 2 2 2 2
left_child=2 -2 -1 -4 -5
right_child=1 -3 3 4 -6
leaf_value=0.00084291462590052775 -0.0026035889457928989 0.072601968274455114 -0.054806795606773033 -0.04520423006065756 -0.0468721867445165
leaf_weight=2.0894257724285143 3.6401865333318693 4.8858182579278946 1.8012134507298467 3.0972221791744232 1.9409840255975721
leaf_count=20 23 18 11 36 17
internal_value=0.000991085 0.0404929 -0.0367285 -0.0482065 -0.0458468
internal_weight=17.4549 8.526 8.92885 6.83942 5.03821
internal_count=125 41 84 64 53
is_linear=0
shrinkage=0.05


Tree=89
num_leaves=6
num_cat=0
split_feature=5 32 68 105 97
split_gain=17.2358 0.451925 0.0875873 0.000301292 6.45347e-05
threshold=0.92029732272603237 0.61890540786097048 0.32634912802483379 0.42307692307692274 0.39723506290155247
decision_type=2 2 2 2 2
left_child=1 2 3 -1 -5
right_child=-2 -3 -4 4 -6
leaf_value=-0.045909418716688542 0.060924509218306958 -0.020583580953984507 -0.057565930388998321 -0.044948167670231069 -0.045383932463740617
leaf_weight=2.4035406857728976 6.7284706085920325 1.763811446726322 2.0202783271670341 1.6076859049499037 1.8018915504217146
leaf_count=25 28 18 14 20 20
internal_value=-0.000432485 -0.043449 -0.0485975 -0.0454807 -0.0451785
internal_weight=16.3257 9.59721 7.8334 5.81312 3.40958
internal_count=125 97 79 65 40
is_linear=0
shrinkage=0.05


Tree=90
num_leaves=5
num_cat=0
split_feature=105 72 105 102
split_gain=15.098 0.0201849 0.00060257 8.90248e-05
threshold=0.82418866106097977 0.45373494942999354 0.42307692307692274 0.40048448584482071
decision_type=2 2 2 2
left_child=1 2 -1 -4
right_child=-2 -3 3 -5
leaf_value=-0.045702898800694503 0.051300267129042745 -0.051088339145203714 -0.044561969409752003 -0.045034656153007648
leaf_weight=2.7477599978446943 7.2611081153154382 1.787880092859268 2.517135962843895 1.648436903953552
leaf_count=30 28 12 35 20
internal_value=-0.00193136 -0.0463528 -0.0451281 -0.044749
internal_weight=15.9623 8.70121 6.91333 4.16557
internal_count=125 97 85 55
is_linear=0
shrinkage=0.05


Tree=91
num_leaves=5
num_cat=0
split_feature=4 61 105 97
split_gain=9.29832 3.91546 0.00129226 0.000452382
threshold=0.57223945495336814 0.43500000000000011 0.32043574934394325 0.41220554115331948
decision_type=2 2 2 2
left_child=1 -1 -2 -4
right_child=2 -3 3 -5
leaf_value=0.067693172962282736 -0.046510951203384485 0.002309275112305944 -0.044656979302391604 -0.045676675445025558
leaf_weight=4.1153385788202304 2.2175192534923545 5.1615046188235283 2.8747153803706169 1.7497143149375913
leaf_count=15 21 31 39 19
internal_value=-0.00129889 0.0313145 -0.0455186 -0.0450428
internal_weight=16.1188 9.27684 6.84195 4.62443
internal_count=125 46 79 58
is_linear=0
shrinkage=0.05


Tree=92
num_leaves=5
num_cat=0
split_feature=2 4 134 54
split_gain=5.95335 7.9266 0.854551 0.355291
threshold=0.19352290679304898 0.51520509193776542 0.61431363332269207 0.6575753129879861
decision_type=2 2 2 2
left_child=3 2 -2 -1
right_child=1 -3 -4 -5
leaf_value=-0.050139297916105635 -0.046459706332237748 0.055820241737871271 -0.0038383372751939942 -0.024091477442434606
leaf_weight=3.6698776856064823 2.7077326700091344 6.8872702196240425 2.0790160596370697 2.0350815057754517
leaf_count=30 26 30 17 22
internal_value=0.00101476 0.0214724 -0.0279481 -0.0408475
internal_weight=17.379 11.674 4.78675 5.70496
internal_count=125 73 43 52
is_linear=0
shrinkage=0.05


Tree=93
num_leaves=6
num_cat=0
split_feature=76 22 138 8 10
split_gain=6.31473 3.99195 3.57107 0.000429215 3.12314e-05
threshold=0.15166213863695238 0.79034273941185018 0.6607142857142857 0.72673434856175978 0.58457673568818525
decision_type=2 2 2 2 2
left_child=1 -1 -3 -2 -5
right_child=3 2 -4 4 -6
leaf_value=0.053525557228491664 -0.045804923640107048 0.033267749907522619 -0.037777214782711496 -0.044701933586119666 -0.045013558952017245
leaf_weight=5.3047467172145861 1.9193199649453152 3.3877619132399559 3.7011785581707954 1.5838465914130213 1.6329791843891142
leaf_count=19 20 18 27 21 20
internal_value=0.00140338 0.020722 -0.00382525 -0.0452132 -0.0448601
internal_weight=17.5298 12.3937 7.08894 5.13615 3.21683
internal_count=125 64 45 61 41
is_linear=0
shrinkage=0.05


Tree=94
num_leaves=6
num_cat=0
split_feature=110 1 15 4 55
split_gain=9.6508 3.62292 0.00358571 0.000623196 3.75801e-05
threshold=0.76131917563760132 0.35263681084212412 0.23141281346898854 0.51520509193776542 0.9118692463573731
decision_type=2 2 2 2 2
left_child=1 2 -1 4 -4
right_child=-2 -3 3 -5 -6
leaf_value=-0.047664839630479475 0.044722506162788916 0.030989344574949531 -0.045111944228236292 -0.046053997322698506 -0.044778677460619053
leaf_weight=2.4730693623423594 7.274145931005477 1.8875766694545744 1.7679052799940111 2.067059800028801 1.6219393238425253
leaf_count=21 27 14 21 21 21
internal_value=0.00107397 -0.0312667 -0.0460855 -0.0453697 -0.0449525
internal_weight=17.0917 9.81755 7.92997 5.4569 3.38984
internal_count=125 98 84 63 42
is_linear=0
shrinkage=0.05


Tree=95
num_leaves=6
num_cat=0
split_feature=5 32 4 105 10
split_gain=15.6388 0.454299 0.0803949 0.000243907 5.16532e-05
threshold=0.92029732272603237 0.61890540786097048 0.81612446958981621 0.42307692307692274 0.62113855964080855
decision_type=2 2 2 2 2
left_child=1 2 3 -1 -5
right_child=-2 -3 -4 4 -6
leaf_value=-0.045654158969911207 0.057591708559888079 -0.019729407644977316 -0.057102930919089558 -0.044743001630807064 -0.045128570119571963
leaf_weight=2.0025503337383253 6.689264491200448 1.7165336832404134 1.9108577296137808 1.5149402245879175 2.0360429584980011
leaf_count=22 28 18 13 20 24
internal_value=-0.000556202 -0.042923 -0.0482567 -0.0452129 -0.0449641
internal_weight=15.8702 9.18092 7.46439 5.55353 3.55098
internal_count=125 97 79 66 44
is_linear=0
shrinkage=0.05


Tree=96
num_leaves=5
num_cat=0
split_feature=105 70 29 4
split_gain=13.8929 0.015986 0.000641568 8.99087e-05
threshold=0.82418866106097977 0.37692887566146499 0.44672069764514527 0.85356685960150391
decision_type=2 2 2 2
left_child=1 2 -1 -4
right_child=-2 -3 3 -5
leaf_value=-0.045588217693722378 0.048892258128136384 -0.050294214800847614 -0.044793228814831582 -0.044320265154776287
leaf_weight=2.4785946197807771 7.1825563311576852 1.7874967008829115 2.0884507745504379 1.9365417174994943
leaf_count=28 28 13 27 29
internal_value=-0.00200991 -0.0461064 -0.0449554 -0.0445657
internal_weight=15.4736 8.29108 6.50359 4.02499
internal_count=125 97 84 56
is_linear=0
shrinkage=0.05


Tree=97
num_leaves=7
num_cat=0
split_feature=5 60 8 53 101 97
split_gain=8.6681 7.00284 0.293197 0.0126723 0.000814174 0.000178488
threshold=0.18064209470609288 1.0000000180025095e-35 0.8463394633702056 0.96927022076947222 0.35459407600822995 0.41220554115331948
decision_type=2 2 2 2 2 2
left_child=-1 -2 3 4 -3 -6
right_child=1 2 -4 -5 5 -7
leaf_value=0.066306078029827673 0.04900385987719378 -0.046179561209652879 -0.024496895079550246 -0.049645288300131124 -0.044489672521023871 -0.045227218014099138
leaf_weight=3.6232630610466012 2.7029809877276412 1.7051032185554484 1.843785189092159 2.5120955854654312 1.7584764100611212 1.5375269986689089
leaf_count=13 13 17 20 19 25 18
internal_value=-0.00151071 -0.0218854 -0.0423634 -0.0467479 -0.0452926 -0.0448337
internal_weight=15.6832 12.06 9.35699 7.5132 5.00111 3.296
internal_count=125 112 99 79 60 43
is_linear=0
shrinkage=0.05


Tree=98
num_leaves=5
num_cat=0
split_feature=92 8 27 78
split_gain=5.65602 5.5062 1.09402 0.0129834
threshold=0.64598529236575153 0.72673434856175978 0.49878448441041795 0.12155523981995101
decision_type=2 2 2 2
left_child=2 -2 -1 -4
right_child=1 -3 3 -5
leaf_value=-0.0051839895372360846 0.053017892460556361 -0.022624681502794928 -0.051079577467692275 -0.045707997180972203
leaf_weight=2.2100873291492489 6.3935783132910711 3.8572005927562714 1.9190854281187055 2.7183858565986156
leaf_count=18 27 34 14 32
internal_value=0.00105104 0.0245548 -0.0341341 -0.0479309
internal_weight=17.0983 10.2508 6.84756 4.63747
internal_count=125 61 64 46
is_linear=0
shrinkage=0.05


Tree=99
num_leaves=6
num_cat=0
split_feature=76 30 117 8 10
split_gain=5.90936 3.63123 4.50492 0.000408722 2.55133e-05
threshold=0.15166213863695238 0.50374085636058363 0.20950615513844509 0.72673434856175978 0.58457673568818525
decision_type=2 2 2 2 2
left_child=1 -1 -3 -2 -5
right_child=3 2 -4 4 -6
leaf_value=0.057684205509590539 -0.045604675125722964 0.043305258548141261 -0.031900520950142279 -0.044512789759971194 -0.04480235311287975
leaf_weight=4.2106297463178661 1.8332340270280827 3.4958948940038663 4.6264567449688911 1.5001224577426913 1.5433322563767431
leaf_count=16 20 16 32 21 20
internal_value=0.00157862 0.0200026 0.000468368 -0.0450149 -0.0446596
internal_weight=17.2097 12.333 8.12235 4.87669 3.04345
internal_count=125 64 48 61 41
is_linear=0
shrinkage=0.05


Tree=100
num_leaves=7
num_cat=0
split_feature=26 80 106 69 4 53
split_gain=8.86307 4.00678 1.92819 0.0464099 0.00184899 2.7961e-05
threshold=0.81125413842556915 0.12702677957083855 0.21666666666666659 0.081340095788568281 0.51520509193776542 0.97166907233119959
decision_type=2 2 2 2 2 2
left_child=2 -2 -1 -4 5 -5
right_child=1 -3 3 4 -6 -7
leaf_value=0.011950365874580218 -0.0030564022875207504 0.066656691640076413 -0.055299708954502258 -0.044905676519979211 -0.046736554753813636 -0.044603547089721744
leaf_weight=1.69047173112631 3.5788675248622877 4.8602428957819939 1.6034931689500806 1.5976498126983645 1.9285424873232839 1.4707359746098516
leaf_count=17 23 18 10 20 17 20
internal_value=0.001021 0.0370927 -0.0356955 -0.0478984 -0.0455234 -0.0447609
internal_weight=16.73 8.43911 8.29089 6.60042 4.99693 3.06839
internal_count=125 41 84 67 57 40
is_linear=0
shrinkage=0.05


Tree=101
num_leaves=5
num_cat=0
split_feature=2 4 105 19
split_gain=14.6388 0.000551384 0.000229844 4.52646e-05
threshold=0.091007472357460303 0.79537139028613835 0.42307692307692274 0.40366387895504435
decision_type=2 2 2 2
left_child=-1 2 -2 -4
right_child=1 -3 3 -5
leaf_value=0.052468356915347097 -0.04544149289176299 -0.045974457210943703 -0.044590537460965383 -0.044932328905983754
leaf_weight=7.0728596448898324 2.1738437749445421 2.0109027288854122 1.5251636579632757 2.6548129841685295
leaf_count=25 25 21 21 33
internal_value=-0.000481056 -0.0452529 -0.0450245 -0.0448076
internal_weight=15.4376 8.36472 6.35382 4.17998
internal_count=125 100 79 54
is_linear=0
shrinkage=0.05


end of trees

feature_importances:
Column_105=33
Column_4=28
Column_2=27
Column_5=23
Column_76=16
Column_22=15
Column_8=14
Column_10=12
Column_87=11
Column_125=11
Column_69=9
Column_1=8
Column_42=8
Column_72=7
Column_97=7
Column_25=6
Column_85=6
Column_106=6
Column_110=6
Column_20=5
Column_26=5
Column_30=5
Column_84=5
Column_90=5
Column_144=5
Column_146=5
Column_3=4
Column_15=4
Column_19=4
Column_33=4
Column_44=4
Column_54=4
Column_58=4
Column_73=4
Column_80=4
Column_88=4
Column_92=4
Column_102=4
Column_107=4
Column_117=4
Column_55=3
Column_67=3
Column_68=3
Column_70=3
Column_99=3
Column_109=3
Column_113=3
Column_138=3
Column_0=2
Column_6=2
Column_18=2
Column_27=2
Column_28=2
Column_29=2
Column_32=2
Column_36=2
Column_45=2
Column_53=2
Column_56=2
Column_57=2
Column_62=2
Column_94=2
Column_103=2
Column_108=2
Column_134=2
Column_139=2
Column_141=2
Column_145=2
Column_9=1
Column_13=1
Column_16=1
Column_34=1
Column_59=1
Column_60=1
Column_61=1
Column_64=1
Column_65=1
Column_71=1
Column_78=1
Column_79=1
Column_86=1
Column_101=1
Column_104=1
Column_118=1
Column_120=1
Column_121=1
Column_129=1
Column_130=1
Column_131=1
Column_135=1

parameters:
[boosting: gbdt]
[objective: multiclass]
[metric: custom]
[tree_learner: serial]
[device_type: cpu]
[data_sample_strategy: bagging]
[data: ]
[valid: ]
[num_iterations: 10000]
[learning_rate: 0.05]
[num_leaves: 63]
[num_threads: 0]
[seed: 1237]
[deterministic: 0]
[force_col_wise: 0]
[force_row_wise: 0]
[histogram_pool_size: -1]
[max_depth: -1]
[min_data_in_leaf: 20]
[min_sum_hessian_in_leaf: 0.001]
[bagging_fraction: 1]
[pos_bagging_fraction: 1]
[neg_bagging_fraction: 1]
[bagging_freq: 0]
[bagging_seed: 32458]
[bagging_by_query: 0]
[feature_fraction: 0.9]
[feature_fraction_bynode: 1]
[feature_fraction_seed: 15412]
[extra_trees: 0]
[extra_seed: 19498]
[early_stopping_round: 0]
[early_stopping_min_delta: 0]
[first_metric_only: 0]
[max_delta_step: 0]
[lambda_l1: 0]
[lambda_l2: 0]
[linear_lambda: 0]
[min_gain_to_split: 0]
[drop_rate: 0.1]
[max_drop: 50]
[skip_drop: 0.5]
[xgboost_dart_mode: 0]
[uniform_drop: 0]
[drop_seed: 818]
[top_rate: 0.2]
[other_rate: 0.1]
[min_data_per_group: 100]
[max_cat_threshold: 32]
[cat_l2: 10]
[cat_smooth: 10]
[max_cat_to_onehot: 4]
[top_k: 20]
[monotone_constraints: ]
[monotone_constraints_method: basic]
[monotone_penalty: 0]
[feature_contri: ]
[forcedsplits_filename: ]
[refit_decay_rate: 0.9]
[cegb_tradeoff: 1]
[cegb_penalty_split: 0]
[cegb_penalty_feature_lazy: ]
[cegb_penalty_feature_coupled: ]
[path_smooth: 0]
[interaction_constraints: ]
[verbosity: -1]
[saved_feature_importance_type: 0]
[use_quantized_grad: 0]
[num_grad_quant_bins: 4]
[quant_train_renew_leaf: 0]
[stochastic_rounding: 1]
[linear_tree: 0]
[max_bin: 255]
[max_bin_by_feature: ]
[min_data_in_bin: 3]
[bin_construct_sample_cnt: 200000]
[data_random_seed: 4078]
[is_enable_sparse: 1]
[enable_bundle: 1]
[use_missing: 1]
[zero_as_missing: 0]
[feature_pre_filter: 1]
[pre_partition: 0]
[two_round: 0]
[header: 0]
[label_column: ]
[weight_column: ]
[group_column: ]
[ignore_column: ]
[categorical_feature: ]
[forcedbins_filename: ]
[precise_float_parser: 0]
[parser_config_file: ]
[objective_seed: 21231]
[num_class: 6]
[is_unbalance: 0]
[scale_pos_weight: 1]
[sigmoid: 1]
[boost_from_average: 1]
[reg_sqrt: 0]
[alpha: 0.9]
[fair_c: 1]
[poisson_max_delta_step: 0.7]
[tweedie_variance_power: 1.5]
[lambdarank_truncation_level: 30]
[lambdarank_norm: 1]
[label_gain: ]
[lambdarank_position_bias_regularization: 0]
[eval_at: ]
[multi_error_top_k: 1]
[auc_mu_weights: ]
[num_machines: 1]
[local_listen_port: 12400]
[time_out: 120]
[machine_list_filename: ]
[machines: ]
[gpu_platform_id: -1]
[gpu_device_id: -1]
[gpu_use_dp: 0]
[num_gpu: 1]

end of parameters

pandas_categorical:null
