tree
version=v4
num_class=6
num_tree_per_iteration=6
label_index=0
max_feature_idx=147
objective=multiclass num_class:6
feature_names=Column_0 Column_1 Column_2 Column_3 Column_4 Column_5 Column_6 Column_7 Column_8 Column_9 Column_10 Column_11 Column_12 Column_13 Column_14 Column_15 Column_16 Column_17 Column_18 Column_19 Column_20 Column_21 Column_22 Column_23 Column_24 Column_25 Column_26 Column_27 Column_28 Column_29 Column_30 Column_31 Column_32 Column_33 Column_34 Column_35 Column_36 Column_37 Column_38 Column_39 Column_40 Column_41 Column_42 Column_43 Column_44 Column_45 Column_46 Column_47 Column_48 Column_49 Column_50 Column_51 Column_52 Column_53 Column_54 Column_55 Column_56 Column_57 Column_58 Column_59 Column_60 Column_61 Column_62 Column_63 Column_64 Column_65 Column_66 Column_67 Column_68 Column_69 Column_70 Column_71 Column_72 Column_73 Column_74 Column_75 Column_76 Column_77 Column_78 Column_79 Column_80 Column_81 Column_82 Column_83 Column_84 Column_85 Column_86 Column_87 Column_88 Column_89 Column_90 Column_91 Column_92 Column_93 Column_94 Column_95 Column_96 Column_97 Column_98 Column_99 Column_100 Column_101 Column_102 Column_103 Column_104 Column_105 Column_106 Column_107 Column_108 Column_109 Column_110 Column_111 Column_112 Column_113 Column_114 Column_115 Column_116 Column_117 Column_118 Column_119 Column_120 Column_121 Column_122 Column_123 Column_124 Column_125 Column_126 Column_127 Column_128 Column_129 Column_130 Column_131 Column_132 Column_133 Column_134 Column_135 Column_136 Column_137 Column_138 Column_139 Column_140 Column_141 Column_142 Column_143 Column_144 Column_145 Column_146 Column_147
feature_infos=[0:1.0000000000000002] [0:1] [0.0063191153238546793:1] [0:1] [0:0.99717114568599707] [0:1] [0:1] [0.087333799860040529:1] [0.0069494639290660883:1] [0:0.92452556859336532] [0:1] [0:1.0000000000000002] [0:1.0000000000000002] [0:1] [0:1] [0.0063191153238546793:1] [0.0063191153238546793:1] [0:1] [0:1] [0:1] [0:1] [0:1] [0:0.99774094757444476] [0:1] [0:1] [0:0.82781462549888496] [0:0.95880156994768317] [0:0.8366248059758461] [0:0.94161073667969908] [0:1] [0:0.99999999999999989] [0:0.99999999999999989] [0:1] [0:0.81818181818181812] [0:1] [0:1] [0:0.99999999999999989] [0:0.81818181818181812] [0:1] [0:1] [0:1] [0:0.96363636363636362] [0:1] [0:1] [0:1] [0.087947882736152394:0.9804560260586257] [0.026578073089694954:0.97674418604650981] [0.083881578947369917:0.98519736842104066] [0.06478405315614566:0.97729789590254512] [0.087593721916590539:0.98699880951196661] [0.026737768496417402:0.97995769147320289] [0.083001254822860915:0.99197348956352016] [0.063782457564521167:0.98422632734649085] [0:1] [0:1] [0:1] [0.0014285553034634317:1] [0:1] [0:1] [0:0.98999999999999999] [0:0.99166666666666692] [0:1] [0:1] [0:1] [0:1] [0:1] [0:1] [0:1] [0:1] [0:1] [0:1] [0:1] [0:1] [0:1] [0:1] [0:0.99999999999999989] [0:0.99999999999999989] [0:1] [0.0057619047021364288:0.99999999999999978] [0:1] [0:0.99999999999999989] [0:1] [0:1] [0.01329418961442369:1] [0:1] [0:1] [0:0.97008104841418386] [0:1] [0:0.99999999999999989] [0:1] [0.051590550036289928:1] [0:1] [0:1] [0:1] [0:0.99999999999999989] [0:1] [0:1] [0:0.99999999999999989] [0:1.0000000000000002] [0:1] [0:0.99999999999999989] [0:1] [0:1] [0:1] [0:0.99999999999999989] [0:1] [0:1] [0:1] [0:0.99999999999999956] [0:1] [0:1] [0:1] [0:1] [0.016620498614958457:1] [0.018749999999999989:1] [0.016129032258064502:1] [0.01697453819271072:0.99999999999999989] [0.039682539682539764:1] [0.016000000000000014:1] [0.031872509960159334:0.99999999999999978] [0.025299600532623367:0.99999999999999978] [0:0.90909090909090828] [0:0.90909090909090828] [0:0.90909090909090828] [0:0.90909090909090828] [0:1] [0:1] [0:1] [0:1] [0:1] [0:1] [0:1] [0:0.99999999999999989] [0:0.84085000507382768] [0:0.94334263929180118] [0:0.79246117192919807] [0:0.81619198117178238] [0:0.72677595628415315] [0:1] [0:0.78612716763005808] [0:0.9495708154506437] [0:0.83333333333333326] [0:0.88888888888888884] [0:0.8333334166666666] [0:0.66666666666666663] [0:0.70208871798177075] [0:0.1069137109783363] [0.0063191153238546793:1]
tree_sizes=351 554 553 554 555 353 687 682 680 674 682 682 680 679 682 673 682 684 683 676 677 776 681 681 687 682 679 667 682 684 683 782 678 678 681 683 683 786 674 677 677 687 683 782 680 678 683 686 684 679 568 673 683 687 682 678 571 671 683 687 686 785 572 666 678 685 680 785 670 668 683 786 681 681 570 672 679 687 785 785 669 673 684 688 681 680 672 674 682 674 683 681 674 672 681 673 789 683 570 673 682 686 684 786 676 672 682 685

Tree=0
num_leaves=2
num_cat=0
split_feature=72
split_gain=75.6886
threshold=0.50443102489074276
decision_type=2
left_child=-1
right_child=-2
leaf_value=-1.8259209403079006 -1.595548178830092
leaf_weight=16.374427869915966 4.5578304380178443
leaf_count=97 27
internal_value=-1.77576
internal_weight=20.9323
internal_count=124
is_linear=0
shrinkage=1


Tree=1
num_leaves=4
num_cat=0
split_feature=4 105 2
split_gain=35.7239 52.0592 1.77636e-15
threshold=0.57223945495336814 0.79560477015860231 0.13270142180094793
decision_type=2 2 2
left_child=1 -1 -2
right_child=2 -3 -4
leaf_value=-1.5667515836453663 -1.8259209403079006 -1.8259209403079006 -1.8259209403079006
leaf_weight=4.0514048337936428 5.0642560422420493 3.7137877643108368 8.1028096675872785
leaf_count=24 30 22 48
internal_value=-1.77576 -1.6907 -1.82592
internal_weight=20.9323 7.76519 13.1671
internal_count=124 46 78
is_linear=0
shrinkage=1


Tree=2
num_leaves=4
num_cat=0
split_feature=64 106 3
split_gain=21.3059 10.7208 0.220246
threshold=0.023829973483118678 0.47168301207052915 0.35499206689425761
decision_type=2 2 2
left_child=-1 -2 -3
right_child=1 2 -4
leaf_value=-1.6778241650721668 -1.722253197642887 -1.8111112627843273 -1.8259209403079006
leaf_weight=4.3890219032764461 3.3761706948280361 3.3761706948280326 9.7908950150012952
leaf_count=26 20 20 58
internal_value=-1.77576 -1.80174 -1.82212
internal_weight=20.9323 16.5432 13.1671
internal_count=124 98 78
is_linear=0
shrinkage=1


Tree=3
num_leaves=4
num_cat=0
split_feature=63 44 114
split_gain=15.4436 9.06923 2.09599
threshold=0.011628360535684282 0.15956291746947357 0.36118570063039301
decision_type=2 2 2
left_child=-1 2 -2
right_child=1 -3 -4
leaf_value=-1.7275560135891619 -1.8742287761412793 -1.7715578423547971 -1.8280268559373622
leaf_weight=3.4089491218328503 10.064516454935076 3.4089491218328467 3.2466182112693778
leaf_count=21 62 21 20
internal_value=-1.82455 -1.84432 -1.86296
internal_weight=20.129 16.7201 13.3111
internal_count=124 103 82
is_linear=0
shrinkage=1


Tree=4
num_leaves=4
num_cat=0
split_feature=125 2 6
split_gain=65.7238 0.245153 1.77636e-15
threshold=0.99505851060951478 0.13270142180094793 0.003716443457107906
decision_type=2 2 2
left_child=1 -1 -3
right_child=-2 2 -4
leaf_value=-1.858828136073307 -1.6491424982247604 -1.8742287761412793 -1.8742287761412793
leaf_weight=3.2466182112693813 4.2206036746501914 3.7336109429597846 8.9282000809907895
leaf_count=20 26 23 55
internal_value=-1.82455 -1.87109 -1.87423
internal_weight=20.129 15.9084 12.6618
internal_count=124 98 78
is_linear=0
shrinkage=1


Tree=5
num_leaves=2
num_cat=0
split_feature=2
split_gain=87.7832
threshold=0.091007472357460303
decision_type=2
left_child=-1
right_child=-2
leaf_value=-1.5667515836453663 -1.8259209403079006
leaf_weight=4.0514048337936428 16.880853474140167
leaf_count=24 100
internal_value=-1.77576
internal_weight=20.9323
internal_count=124
is_linear=0
shrinkage=1


Tree=6
num_leaves=5
num_cat=0
split_feature=72 45 106 65
split_gain=61.9194 4.30704e-05 1.71913e-05 1.23894e-05
threshold=0.50443102489074276 0.61971213514258261 0.56506368917018335 0.095440587875300145
decision_type=2 2 2 2
left_child=1 -1 3 -3
right_child=-2 2 -4 -5
leaf_value=-0.049779945807384374 0.14926054459389843 -0.049578698249973734 -0.049521560432172415 -0.049715366455991672
leaf_weight=4.2550756931304958 5.2122881263494483 3.3792584240436536 4.8023928254842758 3.2560958862304688
leaf_count=26 27 21 30 20
internal_value=-5.10733e-05 -0.0496441 -0.0495936 -0.0496458
internal_weight=20.9051 15.6928 11.4377 6.63535
internal_count=124 97 71 41
is_linear=0
shrinkage=0.05


Tree=7
num_leaves=5
num_cat=0
split_feature=56 107 106 7
split_gain=34.5938 6.42398 3.15566e-05 2.25774e-05
threshold=0.88378621131792534 0.46607723746446578 0.81243904688209445 0.66813552822836231
decision_type=2 2 2 2
left_child=1 -1 3 -3
right_child=-2 2 -4 -5
leaf_value=0.022200004187389686 0.12945684319490622 -0.049677106190976456 -0.049780604583745849 -0.049510741951831173
leaf_weight=4.1236824691295686 4.1364951580762854 5.1930457949638349 4.0922710448503485 3.3581274002790451
leaf_count=24 22 32 25 21
internal_value=-4.35915e-05 -0.0319917 -0.0496664 -0.0496118
internal_weight=20.9036 16.7671 12.6434 8.55117
internal_count=124 102 78 53
is_linear=0
shrinkage=0.05


Tree=8
num_leaves=5
num_cat=0
split_feature=64 106 22 34
split_gain=18.4194 9.93129 0.230352 2.71571e-05
threshold=0.023829973483118678 0.47168301207052915 0.38317466281256857 1.0000000180025095e-35
decision_type=2 2 2 2
left_child=-1 -2 -3 -4
right_child=1 2 3 -5
leaf_value=0.087262168848599192 0.049378805136846782 -0.034275489665612953 -0.049797685775957036 -0.049627948492709489
leaf_weight=4.6974300146102932 3.4990060478448894 3.2456632405519477 4.9173578619956952 4.5249722898006439
leaf_count=26 20 20 30 28
internal_value=9.57574e-05 -0.0251997 -0.0457665 -0.0497163
internal_weight=20.8844 16.187 12.688 9.44233
internal_count=124 98 78 58
is_linear=0
shrinkage=0.05


Tree=9
num_leaves=5
num_cat=0
split_feature=76 22 21 2
split_gain=14.4164 16.5193 1.98212 0.000228062
threshold=0.12505276011045582 0.82924060936603483 0.68883623463563126 0.43838862559241709
decision_type=2 2 2 2
left_child=1 -1 3 -2
right_child=2 -3 -4 -5
leaf_value=0.12244815552434854 -0.049770518376917476 -0.016521475467943868 -0.0033090981537553694 -0.049240697798355097
leaf_weight=4.0542519092559832 3.5884122848510724 4.5252397209405899 3.2353818118572226 4.6802492290735245
leaf_count=24 22 28 20 30
internal_value=9.51007e-05 0.0491488 -0.0364882 -0.0494706
internal_weight=20.0835 8.57949 11.504 8.26866
internal_count=124 52 72 52
is_linear=0
shrinkage=0.05


Tree=10
num_leaves=5
num_cat=0
split_feature=125 91 4 61
split_gain=54.0185 0.260062 5.72017e-05 1.50925e-05
threshold=0.99505851060951478 0.91353732405380483 0.57223945495336814 0.099851177977781383
decision_type=2 2 2 2
left_child=1 2 -1 -4
right_child=-2 -3 3 -5
leaf_value=-0.049112852179359089 0.14620049115777811 -0.033038110703445173 -0.049252818353313306 -0.049395232279014815
leaf_weight=4.474167153239252 4.8061164766550055 3.1008157581090918 3.1270103007555008 4.5926891267299652
leaf_count=29 26 20 20 29
internal_value=-1.98316e-05 -0.0459673 -0.0492551 -0.0493375
internal_weight=20.1008 15.2947 12.1939 7.7197
internal_count=124 98 78 49
is_linear=0
shrinkage=0.05


Tree=11
num_leaves=5
num_cat=0
split_feature=15 4 106 64
split_gain=70.7147 5.04852e-05 5.5499e-05 3.33164e-05
threshold=0.091007472357460303 0.57223945495336814 0.81113729210817109 0.1456480762273375
decision_type=2 2 2 2
left_child=-1 2 -2 -3
right_child=1 3 -4 -5
leaf_value=0.17045604414507565 -0.049439974220987462 -0.049663614549145141 -0.049715969893549518 -0.049864558196774683
leaf_weight=4.7098079621791866 4.133317336440089 5.511214002966879 3.256563276052475 3.2966564893722534
leaf_count=24 26 34 20 20
internal_value=-7.32844e-05 -0.049658 -0.0495616 -0.0497388
internal_weight=20.9076 16.1978 7.38988 8.80787
internal_count=124 100 46 54
is_linear=0
shrinkage=0.05


Tree=12
num_leaves=5
num_cat=0
split_feature=83 143 2 75
split_gain=52.18 0.00104447 6.75644e-05 2.55242e-05
threshold=0.7281792423409853 0.29166666666666669 0.091007472357460303 0.12605109093790348
decision_type=2 2 2 2
left_child=1 2 -1 -4
right_child=-2 -3 3 -5
leaf_value=-0.048938505775922708 0.12730331944188308 -0.050143589211937137 -0.049119524468387681 -0.049296884655855744
leaf_weight=3.6377378702163723 5.794391155242919 3.1382739990949622 4.6309441924095136 3.6097005009651184
leaf_count=24 28 19 30 23
internal_value=-0.000151906 -0.0493323 -0.049118 -0.0491972
internal_weight=20.811 15.0167 11.8784 8.24064
internal_count=124 96 77 53
is_linear=0
shrinkage=0.05


Tree=13
num_leaves=5
num_cat=0
split_feature=56 105 86 15
split_gain=29.6978 5.44238 0.000214277 7.94636e-05
threshold=0.87003758448507973 0.32043574934394325 0.8256445040708893 0.091007472357460303
decision_type=2 2 2 2
left_child=1 -1 3 -3
right_child=-2 2 -4 -5
leaf_value=0.021728991355223468 0.10576617342884437 -0.048959227394813322 -0.049621553009766992 -0.049262781974160078
leaf_weight=3.4552592337131527 5.0308549106121054 3.4934521466493589 3.2095060944557181 5.6310458928346634
leaf_count=20 25 23 20 36
internal_value=-2.52069e-05 -0.033733 -0.0492702 -0.0491466
internal_weight=20.8201 15.7893 12.334 9.1245
internal_count=124 99 79 59
is_linear=0
shrinkage=0.05


Tree=14
num_leaves=5
num_cat=0
split_feature=42 105 79 33
split_gain=15.8616 7.83368 0.925916 0.00029007
threshold=1.0000000180025095e-35 0.42307692307692274 0.12831151403526317 0.0022535142166067502
decision_type=2 2 2 2
left_child=-1 -2 -3 -4
right_child=1 2 3 -5
leaf_value=0.084277062995758448 0.04013396156097751 -0.018309512563111301 -0.049861532230886914 -0.049277533158111647
leaf_weight=4.4169462025165585 3.8289887309074429 3.1944400072097769 3.261208310723303 6.1097802072763443
leaf_count=24 21 20 20 39
internal_value=0.000180063 -0.0224772 -0.0415563 -0.0494808
internal_weight=20.8114 16.3944 12.5654 9.37099
internal_count=124 100 79 59
is_linear=0
shrinkage=0.05


Tree=15
num_leaves=5
num_cat=0
split_feature=76 2 85 53
split_gain=13.2374 14.4241 0.233272 0.000127371
threshold=0.1618960721566351 0.16666666666666669 0.67827371902777056 0.91329981584002384
decision_type=2 2 2 2
left_child=1 -1 -2 -4
right_child=2 -3 3 -5
leaf_value=-0.021196145196720112 -0.032298879267116783 0.094490891700340238 -0.049470334058042215 -0.0490181539026028
leaf_weight=5.2816909849643725 3.0106296539306623 5.5002952367067337 3.1749686896800995 3.0566776245832443
leaf_count=33 20 31 20 20
internal_value=0.000181624 0.0378201 -0.0437273 -0.0492485
internal_weight=20.0243 10.782 9.24228 6.23165
internal_count=124 64 60 40
is_linear=0
shrinkage=0.05


Tree=16
num_leaves=5
num_cat=0
split_feature=125 105 10 4
split_gain=45.6054 0.269006 8.51242e-05 2.51108e-05
threshold=0.99505851060951478 0.24725252747252727 0.39790022730131419 0.57223945495336814
decision_type=2 2 2 2
left_child=1 -1 -3 -4
right_child=-2 2 3 -5
leaf_value=-0.032025286393854067 0.12549546137048481 -0.048626683129985464 -0.048857939681212714 -0.049037940115686844
leaf_weight=2.9853327274322536 5.3133345395326605 3.3815498352050772 5.2699831277132017 3.0640990734100342
leaf_count=20 26 23 35 20
internal_value=-4.88622e-05 -0.045424 -0.0488383 -0.0489241
internal_weight=20.0143 14.701 11.7156 8.33408
internal_count=124 98 78 55
is_linear=0
shrinkage=0.05


Tree=17
num_leaves=5
num_cat=0
split_feature=2 10 141 114
split_gain=59.4087 9.76588e-05 4.01745e-05 1.60885e-05
threshold=0.091007472357460303 0.41937752403921941 0.31816281738810231 0.39424360037001932
decision_type=2 2 2 2
left_child=-1 -2 3 -3
right_child=1 2 -4 -5
leaf_value=0.14540220912470572 -0.048964017335197389 -0.049261900489948704 -0.049412384845326535 -0.049119890193262468
leaf_weight=5.244130194187167 3.3444065600633612 5.6316776573657972 3.4882361143827429 3.0880259573459625
leaf_count=24 22 36 22 20
internal_value=-0.0001308 -0.0492034 -0.049269 -0.0492116
internal_weight=20.7965 15.5523 12.2079 8.7197
internal_count=124 100 78 56
is_linear=0
shrinkage=0.05


Tree=18
num_leaves=5
num_cat=0
split_feature=108 69 68 75
split_gain=45.0906 0.00409837 0.000134864 4.4843e-05
threshold=0.81433829044117634 0.29478595669035429 0.3488032514137217 0.12605109093790348
decision_type=2 2 2 2
left_child=1 2 3 -1
right_child=-2 -3 -4 -5
leaf_value=-0.048647035811823516 0.11146258163685546 -0.050666698169088031 -0.048386208930831363 -0.048890877621878985
leaf_weight=4.1246839612722415 6.2832379639148703 3.2083124071359626 3.5782523155212402 3.4730586111545563
leaf_count=28 29 19 25 23
internal_value=-0.000280695 -0.0490915 -0.0486393 -0.0487585
internal_weight=20.6675 14.3843 11.176 7.59774
internal_count=124 95 76 51
is_linear=0
shrinkage=0.05


Tree=19
num_leaves=5
num_cat=0
split_feature=4 105 2 119
split_gain=28.219 26.7402 0.002221 0.00015372
threshold=0.57223945495336814 0.72251650214492791 0.17219589257503951 0.29232447997564109
decision_type=2 2 2 2
left_child=1 -1 3 -2
right_child=2 -3 -4 -5
leaf_value=0.15140919632360791 -0.048883088092423498 -0.025209995319317099 -0.050035184003657918 -0.048397180098184889
leaf_weight=4.6011954545974749 3.7690023481845838 4.0113294422626495 5.4549916535615921 2.8648321330547333
leaf_count=21 25 25 33 20
internal_value=-1.42055e-05 0.0691479 -0.0492878 -0.0486732
internal_weight=20.7014 8.61252 12.0888 6.63383
internal_count=124 46 78 45
is_linear=0
shrinkage=0.05


Tree=20
num_leaves=5
num_cat=0
split_feature=64 3 45 66
split_gain=14.6493 9.27681 0.00067316 0.000109936
threshold=0.023829973483118678 0.29512646191541619 0.58694059364232098 0.1983536585365854
decision_type=2 2 2 2
left_child=-1 -2 -3 -4
right_child=1 2 3 -5
leaf_value=0.073363775403540762 0.035160158024223544 -0.049656110924562957 -0.049032331068207147 -0.048637463809960466
leaf_weight=5.1529677957296398 4.6591428667306891 3.8567046523094159 3.5183530300855637 3.532433956861496
leaf_count=26 27 24 23 24
internal_value=0.000290871 -0.0238982 -0.049125 -0.0488345
internal_weight=20.7196 15.5666 10.9075 7.05079
internal_count=124 98 71 47
is_linear=0
shrinkage=0.05


Tree=21
num_leaves=6
num_cat=0
split_feature=76 74 20 85 70
split_gain=12.2305 12.7206 5.77155 0.235945 0.000155553
threshold=0.1618960721566351 0.10568843746326047 0.42119029196608576 0.67827371902777056 0.45317074040080851
decision_type=2 2 2 2 2
left_child=1 2 -1 -2 -5
right_child=3 -3 -4 4 -6
leaf_value=0.039428485825237572 -0.03154558371081289 0.1114423915680455 -0.049444397046666339 -0.049108423278093685 -0.048599289018463748
leaf_weight=3.8713161349296588 2.9268519282340986 3.677904948592186 3.4591107815504074 3.0709929019212723 2.9330312758684158
leaf_count=22 20 20 22 20 20
internal_value=0.000290729 0.0355622 -0.0025092 -0.0431855 -0.0488597
internal_weight=19.9392 11.0083 7.33043 8.93088 6.00402
internal_count=124 64 44 60 40
is_linear=0
shrinkage=0.05


Tree=22
num_leaves=5
num_cat=0
split_feature=125 4 58 55
split_gain=39.3684 0.282404 0.00012026 7.04477e-05
threshold=0.99505851060951478 0.90151936082545225 0.021415900395500804 0.91647939557149039
decision_type=2 2 2 2
left_child=1 2 -1 -4
right_child=-2 -3 3 -5
leaf_value=-0.04821030859138202 0.11036864538231339 -0.030876232422532596 -0.048685911683055604 -0.048380080539953185
leaf_weight=3.2318527400493648 5.7400214225053778 2.860264226794242 5.0309663563966733 3.0092666447162628
leaf_count=23 26 20 34 21
internal_value=-5.68708e-05 -0.0449075 -0.0484679 -0.0485714
internal_weight=19.8724 14.1323 11.2721 8.04023
internal_count=124 98 78 55
is_linear=0
shrinkage=0.05


Tree=23
num_leaves=5
num_cat=0
split_feature=2 106 90 73
split_gain=50.7563 0.000115362 0.000119162 3.26734e-05
threshold=0.091007472357460303 0.81113729210817109 0.57534275476570462 0.12055009217804777
decision_type=2 2 2 2
left_child=-1 2 -2 -4
right_child=1 -3 3 -5
leaf_value=0.12655554876055755 -0.048404131112948834 -0.048983107408612024 -0.048671072686502358 -0.04887867638372391
leaf_weight=5.70876316726208 2.872862443327902 4.4185847640037528 3.5460906326770782 4.0710462480783463
leaf_count=24 20 29 24 27
internal_value=-0.000223024 -0.0487688 -0.0486785 -0.048782
internal_weight=20.6173 14.9086 10.49 7.61714
internal_count=124 100 71 51
is_linear=0
shrinkage=0.05


Tree=24
num_leaves=5
num_cat=0
split_feature=72 108 75 120
split_gain=40.3607 0.000740499 0.000234037 0.000102586
threshold=0.50443102489074276 0.59639758319906278 0.12605109093790348 0.27332556801755142
decision_type=2 2 2 2
left_child=1 2 3 -1
right_child=-2 -3 -4 -5
leaf_value=-0.048252125935004955 0.10210390550578902 -0.049067157137297285 -0.048541381367799979 -0.047840495584933113
leaf_weight=3.1039012819528597 6.539012446999549 3.7971343696117392 4.0771394670009613 2.9542083367705345
leaf_count=22 27 25 28 22
internal_value=-0.000374498 -0.0484716 -0.0482485 -0.0480514
internal_weight=20.4714 13.9324 10.1352 6.05811
internal_count=124 97 72 44
is_linear=0
shrinkage=0.05


Tree=25
num_leaves=5
num_cat=0
split_feature=4 106 105 100
split_gain=25.3105 16.0762 0.00226568 0.000654526
threshold=0.57223945495336814 0.70184440352000521 0.47746535358280978 0.40630317128981097
decision_type=2 2 2 2
left_child=1 -1 -2 -4
right_child=2 -3 3 -5
leaf_value=0.12275845815480041 -0.049968013335727014 -0.012226544514412031 -0.048080996244973584 -0.049004172973549989
leaf_weight=4.9926600158214587 3.3000266849994651 3.9514864832162857 5.2503643706440908 3.0268617421388626
leaf_count=21 20 25 38 20
internal_value=-5.30745e-05 0.0631226 -0.0488602 -0.0484186
internal_weight=20.5214 8.94415 11.5773 8.27723
internal_count=124 46 78 58
is_linear=0
shrinkage=0.05


Tree=26
num_leaves=5
num_cat=0
split_feature=116 146 89 62
split_gain=13.8212 10.5838 4.12487 0.00312641
threshold=0.34806836107003636 0.011120852865809982 0.78384147655778247 0.070310178021310427
decision_type=2 2 2 2
left_child=2 -2 3 -1
right_child=1 -3 -4 -5
leaf_value=-0.050304679474206096 -0.0085105407897797074 0.11056347010204946 0.011636171085902534 -0.048424029939350521
leaf_weight=3.7863946259021777 3.5228201150894156 3.9682715684175491 4.0157233476638785 5.3076280504465103
leaf_count=23 20 20 24 37
internal_value=0.000388446 0.0545668 -0.0305698 -0.0492071
internal_weight=20.6008 7.49109 13.1097 9.09402
internal_count=124 40 84 60
is_linear=0
shrinkage=0.05


Tree=27
num_leaves=5
num_cat=0
split_feature=4 2 90 73
split_gain=11.4636 12.8443 9.21083 0.000448777
threshold=0.61916548797736926 0.13270142180094793 0.84997997230992139 0.2557767583144831
decision_type=2 2 2 2
left_child=3 -2 -3 -1
right_child=1 2 -4 -5
leaf_value=-0.048938779773531012 -0.037721842326135631 0.1212424355224434 0.013116515953706734 -0.048148908701893589
leaf_weight=3.0107185840606716 4.4707103818654996 4.0281984657049179 3.8540692925453186 4.465497151017189
leaf_count=20 30 21 21 32
internal_value=0.000400794 0.0299763 0.0683738 -0.048467
internal_weight=19.8292 12.353 7.88227 7.47622
internal_count=124 72 42 52
is_linear=0
shrinkage=0.05


Tree=28
num_leaves=5
num_cat=0
split_feature=125 33 58 8
split_gain=34.2323 0.291313 0.000138302 7.27083e-05
threshold=0.99505851060951478 0.042931895193158466 0.052376126698708066 0.6785806762962231
decision_type=2 2 2 2
left_child=1 2 -1 -4
right_child=-2 -3 3 -5
leaf_value=-0.047774841823608222 0.098061220677111371 -0.02986866185336335 -0.048391985434110413 -0.048079111439581552
leaf_weight=2.6720464974641827 6.1216929554939261 2.7533534318208686 2.868598595261572 5.2649962157011032
leaf_count=20 26 20 20 38
internal_value=-7.86771e-05 -0.0443874 -0.0480869 -0.0481895
internal_weight=19.6807 13.559 10.8056 8.13359
internal_count=124 98 78 58
is_linear=0
shrinkage=0.05


Tree=29
num_leaves=5
num_cat=0
split_feature=2 10 55 57
split_gain=44.2288 0.000118744 6.59823e-05 3.83179e-05
threshold=0.091007472357460303 0.41937752403921941 0.96169205738773911 0.12656052471868784
decision_type=2 2 2 2
left_child=-1 -2 3 -3
right_child=1 2 -4 -5
leaf_value=0.11264072863455173 -0.048085137559287255 -0.04838315897458343 -0.048227528399879718 -0.048598903440449662
leaf_weight=6.0820408016443279 3.0470221489667884 3.5817255079746229 2.815710946917533 4.8380661457777023
leaf_count=24 22 25 20 33
internal_value=-0.000277229 -0.048362 -0.0484371 -0.0485071
internal_weight=20.3646 14.2825 11.2355 8.41979
internal_count=124 100 78 58
is_linear=0
shrinkage=0.05


Tree=30
num_leaves=5
num_cat=0
split_feature=83 105 68 75
split_gain=35.7984 0.00424875 0.000172513 8.1854e-05
threshold=0.7281792423409853 0.65423268879149044 0.3488032514137217 0.12605109093790348
decision_type=2 2 2 2
left_child=1 2 3 -1
right_child=-2 -3 -4 -5
leaf_value=-0.047779699381796485 0.092176618144639066 -0.04998197337251719 -0.047527138009557476 -0.048123076811158197
leaf_weight=3.3379172310233134 6.8783070296049109 2.8857698887586585 3.4831150025129318 3.6153365671634674
leaf_count=25 28 18 27 26
internal_value=-0.000456707 -0.0482839 -0.0478144 -0.0479582
internal_weight=20.2004 13.3221 10.4364 6.95325
internal_count=124 96 78 51
is_linear=0
shrinkage=0.05


Tree=31
num_leaves=6
num_cat=0
split_feature=90 0 8 56 125
split_gain=24.3415 13.5207 0.290537 0.010581 0.000538354
threshold=0.96901543979311389 0.70100147945699176 0.83720561937904392 0.81604129481420229 0.76445084372214411
decision_type=2 2 2 2 2
left_child=1 2 3 4 -1
right_child=-2 -3 -4 -5 -6
leaf_value=-0.048663215719718343 0.12576347175534286 0.067474478474238805 -0.031265992118723253 -0.051774927584380986 -0.047829347755584506
leaf_weight=4.5626436322927528 3.2304165512323371 3.2709304690361014 2.8146267086267462 3.0505707561969757 3.361720010638237
leaf_count=31 13 17 20 18 25
internal_value=-8.84256e-05 -0.0239186 -0.0455973 -0.0492727 -0.0483095
internal_weight=20.2909 17.0605 13.7896 10.9749 7.92436
internal_count=124 111 94 74 56
is_linear=0
shrinkage=0.05


Tree=32
num_leaves=5
num_cat=0
split_feature=115 89 61 4
split_gain=11.5773 6.56529 0.00299916 0.000180544
threshold=0.37116659640098509 0.78384147655778247 0.14189685561842955 0.82531824611032534
decision_type=2 2 2 2
left_child=1 2 -1 -4
right_child=-2 -3 3 -5
leaf_value=-0.050028823500223113 0.061525475900097264 0.019626859108515443 -0.048403749090512822 -0.04784660005381737
leaf_weight=3.3174321502447146 5.6313610523939124 5.6674498766660681 3.1548267751932144 2.6971804797649384
leaf_count=21 28 33 22 20
internal_value=0.000487722 -0.0226792 -0.0488278 -0.048147
internal_weight=20.4683 14.8369 9.16944 5.85201
internal_count=124 96 63 42
is_linear=0
shrinkage=0.05


Tree=33
num_leaves=5
num_cat=0
split_feature=21 37 22 77
split_gain=10.6322 11.9276 11.1627 0.000561416
threshold=0.68883623463563126 1.0000000180025095e-35 0.82924060936603483 0.63757679742213735
decision_type=2 2 2 2
left_child=3 2 -2 -1
right_child=1 -3 -4 -5
leaf_value=-0.048629843979444837 0.11366628163095482 -0.037591567349429859 -0.0056145826084618364 -0.047728568674983797
leaf_weight=2.910792805254462 4.7497012764215452 4.4383112639188758 3.3411499410867691 4.2516956776380539
leaf_count=20 22 30 20 32
internal_value=0.000497667 0.0282763 0.0644088 -0.0480948
internal_weight=19.6917 12.5292 8.09085 7.16249
internal_count=124 72 42 52
is_linear=0
shrinkage=0.05


Tree=34
num_leaves=5
num_cat=0
split_feature=125 2 56 24
split_gain=30.2452 0.300772 0.000108895 6.97906e-05
threshold=0.99505851060951478 0.13270142180094793 0.88378621131792534 0.48372620557095758
decision_type=2 2 2 2
left_child=1 -1 3 -3
right_child=-2 2 -4 -5
leaf_value=-0.028866043136771796 0.088659232683500122 -0.047680439661192044 -0.04747145859940502 -0.047984942843691536
leaf_weight=2.65258860588074 6.4316809922456732 3.6973054334521276 2.8267999067902565 3.8319536000490189
leaf_count=20 26 28 22 28
internal_value=-3.59754e-05 -0.0438883 -0.0477361 -0.0478354
internal_weight=19.4403 13.0086 10.3561 7.52926
internal_count=124 98 78 56
is_linear=0
shrinkage=0.05


Tree=35
num_leaves=5
num_cat=0
split_feature=2 10 4 86
split_gain=38.6696 0.000110732 8.07335e-05 9.22861e-05
threshold=0.091007472357460303 0.41937752403921941 0.57223945495336814 0.78536162739556115
decision_type=2 2 2 2
left_child=-1 -2 -3 -4
right_child=1 2 3 -5
leaf_value=0.10093728458348811 -0.04769250468560516 -0.047893878645782491 -0.047958518026840764 -0.048360251093655958
leaf_weight=6.4065888077020672 2.9057089239358893 5.0136895105242711 2.7335354089736938 2.9967840909957886
leaf_count=24 22 37 20 21
internal_value=-0.00040204 -0.0479663 -0.0480404 -0.0481686
internal_weight=20.0563 13.6497 10.744 5.73032
internal_count=124 100 78 41
is_linear=0
shrinkage=0.05


Tree=36
num_leaves=5
num_cat=0
split_feature=108 74 5 73
split_gain=32.3066 0.010093 0.000272001 8.88858e-05
threshold=0.81433829044117634 0.21698271445422276 0.83097094259390503 0.11657257313169875
decision_type=2 2 2 2
left_child=1 2 3 -1
right_child=-2 -3 -4 -5
leaf_value=-0.047548870193190942 0.084602510795522931 -0.051073014174706659 -0.04721242523067689 -0.047935513964307883
leaf_weight=3.1146882697939891 7.1446744203567496 2.4712923020124427 4.3236291483044624 2.8434596061706543
leaf_count=24 29 15 35 21
internal_value=-0.000517173 -0.0482039 -0.0475143 -0.0477334
internal_weight=19.8977 12.7531 10.2818 5.95815
internal_count=124 95 80 45
is_linear=0
shrinkage=0.05


Tree=37
num_leaves=6
num_cat=0
split_feature=5 88 109 56 109
split_gain=21.5221 9.80205 0.238349 0.0100036 0.000681455
threshold=0.18381834583661935 0.53548437815604855 0.023691618903627219 0.81604129481420229 0.52567123448378716
decision_type=2 2 2 2 2
left_child=-1 -2 -3 4 -4
right_child=1 2 3 -5 -6
leaf_value=0.11493176550286209 0.044856041868504143 -0.032759850047784464 -0.048343887333846286 -0.051371153019988749 -0.047345312001039773
leaf_weight=3.3806001543998745 3.9957295060157803 3.0436476320028296 3.1187344789504987 2.7333338707685471 3.7783633321523666
leaf_count=13 21 21 22 17 30
internal_value=-0.000100374 -0.0234286 -0.0449566 -0.0488113 -0.0477968
internal_weight=20.0504 16.6698 12.6741 9.63043 6.8971
internal_count=124 111 90 69 52
is_linear=0
shrinkage=0.05


Tree=38
num_leaves=5
num_cat=0
split_feature=64 105 97 2
split_gain=11.1716 8.23015 0.282086 0.001818
threshold=0.023829973483118678 0.42307692307692274 0.56659856967583211 0.091007472357460303
decision_type=2 2 2 2
left_child=-1 -2 3 -3
right_child=1 2 -4 -5
leaf_value=0.060700571297631192 0.042544781930011759 -0.047328284299952048 -0.02991076038083983 -0.048915881133470618
leaf_weight=5.5998029112815884 3.6755434274673453 2.644786633551119 2.7397114038467398 5.6671458855271339
leaf_count=26 19 21 20 38
internal_value=0.000588032 -0.0222689 -0.0438246 -0.0484107
internal_weight=20.327 14.7272 11.0516 8.31193
internal_count=124 98 79 59
is_linear=0
shrinkage=0.05


Tree=39
num_leaves=5
num_cat=0
split_feature=21 33 83 77
split_gain=9.81733 10.3396 7.99781 0.000624617
threshold=0.68883623463563126 1.0000000180025095e-35 0.13924061134976304 0.63757679742213735
decision_type=2 2 2 2
left_child=3 2 -2 -1
right_child=1 -3 -4 -5
leaf_value=-0.048292777245961212 0.0082581571913802297 -0.03677352901934642 0.10587502733894479 -0.047321504217116235
leaf_weight=2.8064974993467358 4.0532780960202199 4.2677904814481726 4.3503027483820915 4.0353163257241249
leaf_count=20 21 30 21 32
internal_value=0.000544684 0.0266048 0.0587917 -0.0477199
internal_weight=19.5132 12.6714 8.40358 6.84181
internal_count=124 72 42 52
is_linear=0
shrinkage=0.05


Tree=40
num_leaves=5
num_cat=0
split_feature=125 91 4 68
split_gain=26.87 0.317333 0.000126147 9.67248e-05
threshold=0.99505851060951478 0.91353732405380483 0.57223945495336814 0.31618724060435471
decision_type=2 2 2 2
left_child=1 2 -1 -4
right_child=-2 -3 3 -5
leaf_value=-0.047184039312808998 0.08075915836267443 -0.02758320013540437 -0.047734123222160085 -0.047342730612740525
leaf_weight=3.5833977684378642 6.6980369389057151 2.5284495875239363 3.4487837925553322 2.910837396979332
leaf_count=29 26 20 26 23
internal_value=-1.6993e-05 -0.0433993 -0.0474213 -0.047555
internal_weight=19.1695 12.4715 9.94302 6.35962
internal_count=124 98 78 49
is_linear=0
shrinkage=0.05


Tree=41
num_leaves=5
num_cat=0
split_feature=2 59 86 58
split_gain=34.2919 0.00013762 0.000204836 7.14399e-05
threshold=0.091007472357460303 0.61128231580542014 0.8256445040708893 0.013300711525639828
decision_type=2 2 2 2
left_child=-1 2 3 -2
right_child=1 -3 -4 -5
leaf_value=0.091896383789344033 -0.047354827661665232 -0.047300611655011468 -0.048060081618712253 -0.047675421931988864
leaf_weight=6.6507870554924038 2.7838924154639226 2.8873397409915915 2.7525847554206848 4.6238229498267174
leaf_count=24 22 23 20 35
internal_value=-0.000505246 -0.0476052 -0.0476918 -0.0475549
internal_weight=19.6984 13.0476 10.1603 7.40772
internal_count=124 100 77 57
is_linear=0
shrinkage=0.05


Tree=42
num_leaves=5
num_cat=0
split_feature=83 105 5 87
split_gain=29.1916 0.00533532 0.000239903 7.78089e-05
threshold=0.7281792423409853 0.65423268879149044 0.83097094259390503 0.64531301561030407
decision_type=2 2 2 2
left_child=1 2 3 -1
right_child=-2 -3 -4 -5
leaf_value=-0.047121596128936238 0.078603379468135254 -0.049607758213686681 -0.046822075630231164 -0.047499094992446061
leaf_weight=2.4519601538777369 7.2941252291202536 2.7851888686418524 3.9630455896258354 3.0792457461357117
leaf_count=20 28 18 34 24
internal_value=-0.00062246 -0.0476835 -0.047119 -0.0473318
internal_weight=19.5736 12.2794 9.49425 5.53121
internal_count=124 96 78 44
is_linear=0
shrinkage=0.05


Tree=43
num_leaves=6
num_cat=0
split_feature=5 88 109 78 5
split_gain=18.6586 10.6179 0.242643 0.0100022 0.00118961
threshold=0.18381834583661935 0.52020358037571945 0.023691618903627219 0.34759474045220501 0.82051736357193505
decision_type=2 2 2 2 2
left_child=-1 -2 -3 4 -4
right_child=1 2 3 -5 -6
leaf_value=0.10401154994417472 0.052094306491677726 -0.032066247620563378 -0.048247075100862367 -0.051120234764484442 -0.046929767336678779
leaf_weight=3.5318244993686703 3.6661396175622967 2.9548703134059897 2.9231546074151975 2.5644868090748787 4.1427147388458252
leaf_count=13 18 21 21 16 35
internal_value=-0.0001498 -0.0227866 -0.0445998 -0.0484455 -0.0474747
internal_weight=19.7832 16.2514 12.5852 9.63036 7.06587
internal_count=124 111 93 72 56
is_linear=0
shrinkage=0.05


Tree=44
num_leaves=5
num_cat=0
split_feature=116 109 89 33
split_gain=10.2372 6.77223 3.77265 0.00370581
threshold=0.34806836107003636 0.22920188046022558 0.78384147655778247 1.0000000180025095e-35
decision_type=2 2 2 2
left_child=2 -2 3 -1
right_child=1 -3 -4 -5
leaf_value=-0.049380230716695894 0.089497581603795853 -0.0020285184640952726 0.011138841392992937 -0.047228393668881131
leaf_weight=3.7070230692625064 4.0855672806501371 3.9996301084756851 4.0095430612564078 4.3470613732933998
leaf_count=25 18 22 24 35
internal_value=0.000686807 0.0442209 -0.0284903 -0.0482188
internal_weight=20.1488 8.0852 12.0636 8.05408
internal_count=124 40 84 60
is_linear=0
shrinkage=0.05


Tree=45
num_leaves=5
num_cat=0
split_feature=23 33 83 77
split_gain=9.15754 9.12594 6.70175 0.000585995
threshold=0.68010801919471964 1.0000000180025095e-35 0.13924061134976304 0.63757679742213735
decision_type=2 2 2 2
left_child=3 2 -2 -1
right_child=1 -3 -4 -5
leaf_value=-0.047950355202374124 0.0077659522864266754 -0.036004566966137096 0.095868273261275769 -0.046989181574980179
leaf_weight=2.6958094909787205 4.0736779868602735 4.1117134094238272 4.5912716090679169 3.8509345278143883
leaf_count=20 21 30 21 32
internal_value=0.000700473 0.0253394 0.0544485 -0.047385
internal_weight=19.3234 12.7767 8.66495 6.54674
internal_count=124 72 42 52
is_linear=0
shrinkage=0.05


Tree=46
num_leaves=5
num_cat=0
split_feature=125 41 58 8
split_gain=24.0341 0.332799 0.000119491 0.000146884
threshold=0.99505851060951478 0.38796042848032392 0.052376126698708066 0.6785806762962231
decision_type=2 2 2 2
left_child=1 2 -1 -4
right_child=-2 -3 3 -5
leaf_value=-0.046812181471979741 0.074188950617198435 -0.026352267210655939 -0.047525313606833597 -0.047054284188134093
leaf_weight=2.3420965448021906 6.9162169545888892 2.4176442027091971 2.5819625183939934 4.6104622855782509
leaf_count=20 26 20 20 38
internal_value=5.68372e-06 -0.0429211 -0.0471224 -0.0472234
internal_weight=18.8684 11.9522 9.53452 7.19242
internal_count=124 98 78 58
is_linear=0
shrinkage=0.05


Tree=47
num_leaves=5
num_cat=0
split_feature=2 59 86 58
split_gain=30.6004 0.000141082 0.000241788 5.2395e-05
threshold=0.091007472357460303 0.61128231580542014 0.8256445040708893 0.040081733831762591
decision_type=2 2 2 2
left_child=-1 2 3 -2
right_child=1 -3 -4 -5
leaf_value=0.084392051738287732 -0.047049420371035808 -0.046947839907955508 -0.047760887421408979 -0.047323303678941657
leaf_weight=6.8335449993610409 3.1541072502732259 2.7435964718461028 2.6526698023080826 3.9120684564113617
leaf_count=24 26 23 20 31
internal_value=-0.000639191 -0.0472645 -0.0473539 -0.0472011
internal_weight=19.296 12.4624 9.71885 7.06618
internal_count=124 100 77 57
is_linear=0
shrinkage=0.05


Tree=48
num_leaves=5
num_cat=0
split_feature=108 70 5 46
split_gain=26.5561 0.0116633 0.000267846 8.27098e-05
threshold=0.81433829044117634 0.35929456388238229 0.83097094259390503 0.68604651162790387
decision_type=2 2 2 2
left_child=1 2 3 -1
right_child=-2 -3 -4 -5
leaf_value=-0.046865928031435855 0.072934495140784331 -0.050662736582611667 -0.046512346654787595 -0.047260464615614894
leaf_weight=2.717016242444517 7.4776175767183295 2.5286388471722594 3.8778695091605186 2.5991219356656075
leaf_count=23 29 16 35 21
internal_value=-0.000691215 -0.0476554 -0.0468283 -0.0470588
internal_weight=19.2003 11.7226 9.19401 5.31614
internal_count=124 95 79 44
is_linear=0
shrinkage=0.05


Tree=49
num_leaves=5
num_cat=0
split_feature=4 105 2 5
split_gain=17.5884 8.68633 0.00206968 0.000271446
threshold=0.57223945495336814 0.65423268879149044 0.17219589257503951 0.89440113394755516
decision_type=2 2 2 2
left_child=1 -1 3 -2
right_child=2 -3 -4 -5
leaf_value=0.093585546351973053 -0.047214161421841247 -0.001106413731640026 -0.048273414339948466 -0.046489095261294036
leaf_weight=4.9805499762296694 2.3470926806330663 4.7142276763916016 4.5639228522777557 2.8683147430419922
leaf_count=18 19 28 33 26
internal_value=-0.000184137 0.0475402 -0.0474958 -0.0468154
internal_weight=19.4741 9.69478 9.77933 5.21541
internal_count=124 46 78 45
is_linear=0
shrinkage=0.05


Tree=50
num_leaves=4
num_cat=0
split_feature=91 8 110
split_gain=9.59547 13.4726 0.00661011
threshold=0.51395998902349394 0.71793623503644133 0.56710369643429881
decision_type=2 2 2
left_child=2 -2 -1
right_child=1 -3 -4
leaf_value=-0.049996549537743025 0.06913283948282288 -0.032199869489148096 -0.04682140844781367
leaf_weight=3.5721287652850178 7.5574632585048658 5.7955559343099594 3.0291901305317879
leaf_count=23 36 39 26
internal_value=0.00077315 0.0251518 -0.0485396
internal_weight=19.9543 13.353 6.60132
internal_count=124 75 49
is_linear=0
shrinkage=0.05


Tree=51
num_leaves=5
num_cat=0
split_feature=23 2 90 9
split_gain=8.53022 8.38303 5.26054 0.000628289
threshold=0.68010801919471964 0.13270142180094793 0.84997997230992139 0.68642121287446034
decision_type=2 2 2 2
left_child=3 -2 -3 -1
right_child=1 2 -4 -5
leaf_value=-0.047641150076954464 -0.035852112500300355 0.086360378028389348 0.008906762258909677 -0.046630268396876021
leaf_weight=2.7213449850678471 4.0092917531728736 4.8432106077671033 4.0051128417253494 3.5321354120969772
leaf_count=21 30 21 21 31
internal_value=0.000828842 0.0241252 0.0513017 -0.0470702
internal_weight=19.1111 12.8576 8.84832 6.25348
internal_count=124 72 42 52
is_linear=0
shrinkage=0.05


Tree=52
num_leaves=5
num_cat=0
split_feature=125 4 4 146
split_gain=21.599 0.350732 0.000187079 6.01126e-05
threshold=0.99505851060951478 0.90151936082545225 0.51520509193776542 0.066915269070556768
decision_type=2 2 2 2
left_child=1 2 3 -1
right_child=-2 -3 -4 -5
leaf_value=-0.046455135731360592 0.068574815317832369 -0.025033884198729234 -0.047093260261565385 -0.046806084687410626
leaf_weight=2.3203435018658656 7.0957818180322638 2.3073323741555205 4.2455800920724869 2.5733944997191429
leaf_count=21 26 20 35 22
internal_value=3.50458e-05 -0.0424528 -0.0468504 -0.0466397
internal_weight=18.5424 11.4467 9.13932 4.89374
internal_count=124 98 78 43
is_linear=0
shrinkage=0.05


Tree=53
num_leaves=5
num_cat=0
split_feature=2 69 70 109
split_gain=27.4368 0.0001134 0.000192775 5.79628e-05
threshold=0.091007472357460303 0.29478595669035429 0.064462968009524238 0.015845179718793848
decision_type=2 2 2 2
left_child=-1 2 -2 -3
right_child=1 3 -4 -5
leaf_value=0.078024643023180795 -0.046771330535271285 -0.046925056977525859 -0.047297283182548534 -0.04657555492502085
leaf_weight=6.9630969166755703 3.0228342711925489 2.5014795660972595 4.1122977957129478 2.2563074007630348
leaf_count=24 26 21 33 20
internal_value=-0.000798694 -0.0469484 -0.0470745 -0.0467593
internal_weight=18.856 11.8929 7.13513 4.75779
internal_count=124 100 59 41
is_linear=0
shrinkage=0.05


Tree=54
num_leaves=5
num_cat=0
split_feature=83 102 136 5
split_gain=24.2267 0.00687128 0.000367651 0.00010277
threshold=0.7281792423409853 0.49905469521448492 0.47501467941073156 0.83097094259390503
decision_type=2 2 2 2
left_child=1 2 -1 -4
right_child=-2 -3 3 -5
leaf_value=-0.047066166557613878 0.068644138169156418 -0.049597841537131822 -0.046556458091168318 -0.046160117576240015
leaf_weight=2.3981089293956774 7.531008079648017 2.3024412542581549 3.0372734069824219 3.5440398454666138
leaf_count=20 28 15 27 34
internal_value=-0.000802873 -0.047161 -0.0465362 -0.046343
internal_weight=18.8129 11.2819 8.97942 6.58131
internal_count=124 96 81 61
is_linear=0
shrinkage=0.05


Tree=55
num_leaves=5
num_cat=0
split_feature=4 105 2 4
split_gain=15.8698 7.34216 0.00186535 0.00021684
threshold=0.57223945495336814 0.65423268879149044 0.17219589257503951 0.88265431657547866
decision_type=2 2 2 2
left_child=1 -1 3 -2
right_child=2 -3 -4 -5
leaf_value=0.085330663983579136 -0.046835518218568684 -0.0012104237419053245 -0.04790379296587622 -0.046171895539405566
leaf_weight=5.1284092515707034 2.3312909081578237 4.6942427456378937 4.3644540384411812 2.6079713851213455
leaf_count=18 20 28 33 25
internal_value=-0.000352788 0.0439727 -0.0471506 -0.0464851
internal_weight=19.1264 9.82265 9.30372 4.93926
internal_count=124 46 78 45
is_linear=0
shrinkage=0.05


Tree=56
num_leaves=4
num_cat=0
split_feature=91 8 109
split_gain=8.88922 11.6843 0.00576106
threshold=0.51395998902349394 0.71793623503644133 0.52567123448378716
decision_type=2 2 2
left_child=2 -2 -1
right_child=1 -3 -4
leaf_value=-0.049521440260839059 0.063274689646768065 -0.031290101684089175 -0.046484946664490517
leaf_weight=3.4301032349467304 7.8349415212869626 5.6020961925387383 2.8682519569993019
leaf_count=23 36 39 26
internal_value=0.000875034 0.0238493 -0.0481386
internal_weight=19.7354 13.437 6.29836
internal_count=124 75 49
is_linear=0
shrinkage=0.05


Tree=57
num_leaves=5
num_cat=0
split_feature=21 2 74 9
split_gain=7.98171 7.41971 4.71564 0.000608448
threshold=0.68883623463563126 0.13270142180094793 0.10190550140820907 0.68642121287446034
decision_type=2 2 2 2
left_child=3 -2 -3 -1
right_child=1 2 -4 -5
leaf_value=-0.047345302725491402 -0.035042741980525198 0.011776855200989721 0.083962354430353464 -0.046328456993809164
leaf_weight=2.616026088595393 3.8472691178321829 4.5274690687656385 4.5223795622587204 3.361488476395607
leaf_count=21 30 23 19 31
internal_value=0.000986562 0.0231222 0.0478493 -0.0467735
internal_weight=18.8746 12.8971 9.04985 5.97751
internal_count=124 72 42 52
is_linear=0
shrinkage=0.05


Tree=58
num_leaves=5
num_cat=0
split_feature=125 41 101 130
split_gain=19.6172 0.362558 0.000122854 2.41057e-05
threshold=0.99505851060951478 0.38796042848032392 0.36001080957743303 0.14344068143427455
decision_type=2 2 2 2
left_child=1 2 -1 -4
right_child=-2 -3 3 -5
leaf_value=-0.046792922692037699 0.064105435717423706 -0.023930137260398877 -0.046535021959645533 -0.046317107812935916
leaf_weight=3.5816444903612155 7.2305897772312155 2.2170270979404441 2.2450580075383186 2.9192977845668793
leaf_count=31 26 20 20 27
internal_value=0.000174978 -0.0419899 -0.0465679 -0.0464118
internal_weight=18.1936 10.963 8.746 5.16436
internal_count=124 98 78 47
is_linear=0
shrinkage=0.05


Tree=59
num_leaves=5
num_cat=0
split_feature=2 59 86 131
split_gain=24.7208 0.000153284 0.000266313 2.88923e-05
threshold=0.091007472357460303 0.61128231580542014 0.8256445040708893 0.10074007505728065
decision_type=2 2 2 2
left_child=-1 2 3 -2
right_child=1 -3 -4 -5
leaf_value=0.072606534157319422 -0.046670793868785351 -0.046295231201058162 -0.047184775439550297 -0.04645824505575176
leaf_weight=7.0469356477260616 3.4336041063070279 2.4660369530320159 2.4468389600515366 2.9920840933918953
leaf_count=24 30 23 20 27
internal_value=-0.000936702 -0.0466439 -0.0467409 -0.0465718
internal_weight=18.3855 11.3386 8.87253 6.42569
internal_count=124 100 77 57
is_linear=0
shrinkage=0.05


Tree=60
num_leaves=5
num_cat=0
split_feature=108 70 106 99
split_gain=22.1133 0.0156871 0.00028708 0.000126454
threshold=0.81433829044117634 0.37692887566146499 0.47168301207052915 0.39791456529353719
decision_type=2 2 2 2
left_child=1 2 -1 -4
right_child=-2 -3 3 -5
leaf_value=-0.046619371699879751 0.064050671324855327 -0.051028723676200788 -0.045707259312238319 -0.046198694202997964
leaf_weight=3.0268644914031047 7.6548901349306098 2.1194751784205428 2.0916949659585953 3.4982205182313919
leaf_count=27 29 13 22 33
internal_value=-0.000879915 -0.0471751 -0.0462272 -0.0460148
internal_weight=18.3911 10.7363 8.61678 5.58992
internal_count=124 95 82 55
is_linear=0
shrinkage=0.05


Tree=61
num_leaves=6
num_cat=0
split_feature=4 105 41 71 125
split_gain=14.6075 8.264 0.316154 0.013963 0.00120176
threshold=0.51520509193776542 0.65423268879149044 0.076086932295708801 0.082863868841343724 0.76445084372214411
decision_type=2 2 2 2 2
left_child=1 -1 3 4 -2
right_child=2 -3 -4 -5 -6
leaf_value=0.094245138667339912 -0.047414015441263321 -0.0012294192814283826 -0.026600958818286898 -0.051362061131468822 -0.045891097505658424
leaf_weight=4.4071467518806475 2.6261871680617315 4.6662347167730331 2.2198607921600342 2.2745043709874153 2.5563527792692184
leaf_count=15 21 28 19 15 26
internal_value=-0.000431469 0.0451447 -0.0431652 -0.0480962 -0.0466628
internal_weight=18.7503 9.07338 9.67691 7.45704 5.18254
internal_count=124 43 81 62 47
is_linear=0
shrinkage=0.05


Tree=62
num_leaves=4
num_cat=0
split_feature=91 8 109
split_gain=8.26084 10.1691 0.00504587
threshold=0.51395998902349394 0.71793623503644133 0.52567123448378716
decision_type=2 2 2
left_child=2 -2 -1
right_child=1 -3 -4
leaf_value=-0.049093254460672378 0.058231493753167711 -0.030359105406148359 -0.046182722747408408
leaf_weight=3.2918634712696102 8.0767618864774686 5.4083085209131232 2.7191992104053497
leaf_count=23 36 39 26
internal_value=0.000971587 0.0227014 -0.0477766
internal_weight=19.4961 13.4851 6.01106
internal_count=124 75 49
is_linear=0
shrinkage=0.05


Tree=63
num_leaves=5
num_cat=0
split_feature=4 2 2 81
split_gain=7.50028 6.60159 4.56701 0.000779749
threshold=0.61916548797736926 0.13270142180094793 0.26698262243285947 0.7002123328516402
decision_type=2 2 2 2
left_child=3 -2 -3 -1
right_child=1 2 -4 -5
leaf_value=-0.047175314234080952 -0.034251874139500843 0.078927005620729795 0.008453596755568794 -0.04600549135942416
leaf_weight=2.657986722886565 3.6947080194950095 4.756564795970915 4.4493215829133987 3.0694708526134491
leaf_count=22 30 22 20 30
internal_value=0.00106719 0.022207 0.0448663 -0.0465484
internal_weight=18.6281 12.9006 9.20589 5.72746
internal_count=124 72 42 52
is_linear=0
shrinkage=0.05


Tree=64
num_leaves=5
num_cat=0
split_feature=109 4 2 81
split_gain=17.8935 0.397395 0.00206743 8.45568e-05
threshold=0.76885775228062292 0.88265431657547866 0.28047512023386123 0.7002123328516402
decision_type=2 2 2 2
left_child=1 2 -1 -4
right_child=-2 -3 3 -5
leaf_value=-0.047981299168669736 0.059803920006374481 -0.022472982900898178 -0.046442841964695239 -0.04606294300976807
leaf_weight=2.465469993650915 7.3968202322721472 2.1099989190697661 2.9701445251703262 2.8898092061281204
leaf_count=21 28 20 27 28
internal_value=0.000313441 -0.0418545 -0.0467666 -0.0462555
internal_weight=17.8322 10.4354 8.32542 5.85995
internal_count=124 96 76 55
is_linear=0
shrinkage=0.05


Tree=65
num_leaves=5
num_cat=0
split_feature=2 59 86 130
split_gain=22.3161 0.000160956 0.000253582 5.10689e-05
threshold=0.091007472357460303 0.61128231580542014 0.8256445040708893 0.21218347231190343
decision_type=2 2 2 2
left_child=-1 2 3 -2
right_child=1 -3 -4 -5
leaf_value=0.067817870252558005 -0.04640101176351092 -0.045993714605819691 -0.046905324110520001 -0.046099588729654806
leaf_weight=7.0872413218021419 3.9441488310694677 2.3327401354908934 2.3417921587824821 2.1829601302742958
leaf_count=24 36 23 20 21
internal_value=-0.00112575 -0.0463615 -0.0464628 -0.0462936
internal_weight=17.8889 10.8016 8.4689 6.12711
internal_count=124 100 77 57
is_linear=0
shrinkage=0.05


Tree=66
num_leaves=5
num_cat=0
split_feature=2 105 24 5
split_gain=20.5216 0.021917 0.000912671 0.000146434
threshold=0.43838862559241709 0.72251650214492791 0.67065419360842349 0.83097094259390503
decision_type=2 2 2 2
left_child=1 2 -1 -4
right_child=-2 -3 3 -5
leaf_value=-0.04699162487432295 0.060672872380771729 -0.051830468178256643 -0.046065462922637121 -0.045567717260354641
leaf_weight=2.2093428894877452 7.702940195798873 2.1210130453109732 2.7823928669095039 3.1510523855686188
leaf_count=19 30 14 27 34
internal_value=-0.00101035 -0.0473034 -0.0461241 -0.0458011
internal_weight=17.9667 10.2638 8.14279 5.93345
internal_count=124 94 80 61
is_linear=0
shrinkage=0.05


Tree=67
num_leaves=6
num_cat=0
split_feature=4 105 41 71 125
split_gain=13.2377 7.17417 0.319969 0.0136189 0.00109331
threshold=0.51520509193776542 0.65423268879149044 0.076086932295708801 0.082863868841343724 0.76445084372214411
decision_type=2 2 2 2 2
left_child=1 -1 3 4 -2
right_child=2 -3 -4 -5 -6
leaf_value=0.087563404510555692 -0.04708764678984953 -0.0012888996576705142 -0.025782188358974591 -0.051089879098995011 -0.04559590260314432
leaf_weight=4.4514228403568286 2.5096526592969877 4.6397622898221016 2.1427422389388084 2.2011371105909348 2.4056247398257256
leaf_count=15 21 28 19 15 26
internal_value=-0.000640813 0.0422169 -0.042721 -0.0478213 -0.0463576
internal_weight=18.3503 9.09119 9.25916 7.11641 4.91528
internal_count=124 43 81 62 47
is_linear=0
shrinkage=0.05


Tree=68
num_leaves=5
num_cat=0
split_feature=110 69 86 91
split_gain=7.73885 9.38592 7.729 0.00985084
threshold=0.56710369643429881 0.29478595669035429 0.8256445040708893 0.51395998902349394
decision_type=2 2 2 2
left_child=1 2 -1 -2
right_child=3 -3 -4 -5
leaf_value=0.0067766940487617583 -0.045873834779826178 -0.037167072573695475 0.099261111064010199 -0.050067950877669604
leaf_weight=4.736104294657709 2.5637566968798629 4.5449223071336737 4.319285936653614 3.0842702686786652
leaf_count=25 26 35 18 20
internal_value=0.00103273 0.0214635 0.0508904 -0.0481642
internal_weight=19.2483 13.6003 9.05539 5.64803
internal_count=124 78 43 46
is_linear=0
shrinkage=0.05


Tree=69
num_leaves=5
num_cat=0
split_feature=4 2 2 81
split_gain=7.01183 5.82925 3.9764 0.000753712
threshold=0.61916548797736926 0.13270142180094793 0.26698262243285947 0.7002123328516402
decision_type=2 2 2 2
left_child=3 -2 -3 -1
right_child=1 2 -4 -5
leaf_value=-0.046914511549544541 -0.033417659521105515 0.072885813889085313 0.00774684204555612 -0.045737565789813084
leaf_weight=2.5531904771924046 3.5397703871130934 4.9207217991352064 4.4721858650445938 2.9114763736724854
leaf_count=22 30 22 20 30
internal_value=0.00119907 0.0212644 0.0418716 -0.0462875
internal_weight=18.3973 12.9327 9.39291 5.46467
internal_count=124 72 42 52
is_linear=0
shrinkage=0.05


Tree=70
num_leaves=5
num_cat=0
split_feature=125 41 101 129
split_gain=16.5059 0.396631 0.00014507 3.72145e-05
threshold=0.99505851060951478 0.38796042848032392 0.3691997629694565 0.10029417983629983
decision_type=2 2 2 2
left_child=1 2 -1 -4
right_child=-2 -3 3 -5
leaf_value=-0.04633715889940556 0.057215224577435969 -0.021377221137398424 -0.046065169291660116 -0.045774127882309008
leaf_weight=3.6332367509603518 7.4032472074031821 2.0314733833074561 2.0666708424687386 2.3442162051796913
leaf_count=34 26 20 20 24
internal_value=0.000531576 -0.0411179 -0.0461032 -0.0459105
internal_weight=17.4788 10.0756 8.04412 4.41089
internal_count=124 98 78 44
is_linear=0
shrinkage=0.05


Tree=71
num_leaves=6
num_cat=0
split_feature=5 25 4 4 146
split_gain=20.5326 0.364693 0.0564809 0.000258107 8.05899e-05
threshold=0.92029732272603237 0.63971962966971874 0.78664114972504129 0.51520509193776542 0.066915269070556768
decision_type=2 2 2 2 2
left_child=1 2 3 4 -1
right_child=-2 -3 -4 -5 -6
leaf_value=-0.045673465248876444 0.067917170715191016 -0.024953362176718868 -0.055571366902882259 -0.046559215654542602 -0.046108050482103285
leaf_weight=2.0016874894499797 6.6377075165510169 2.0495284870266905 2.0861392542719841 2.3266167789697647 2.283988356590271
leaf_count=21 27 18 15 21 22
internal_value=-0.00122616 -0.0439276 -0.0483983 -0.0461352 -0.0459051
internal_weight=17.3857 10.748 8.69843 6.61229 4.28568
internal_count=124 97 79 64 43
is_linear=0
shrinkage=0.05


Tree=72
num_leaves=5
num_cat=0
split_feature=83 102 136 5
split_gain=18.9874 0.0102865 0.000395266 0.000137577
threshold=0.7281792423409853 0.50643434399162046 0.47501467941073156 0.83097094259390503
decision_type=2 2 2 2
left_child=1 2 -1 -4
right_child=-2 -3 3 -5
leaf_value=-0.046338725347693795 0.058464677769347786 -0.04975624406141043 -0.045790083649647761 -0.045303295825278256
leaf_weight=2.1182180047035235 7.5877143740653983 2.0132323205471039 2.8348719030618668 2.9743322432041168
leaf_count=20 28 13 29 34
internal_value=-0.00109932 -0.0465646 -0.045754 -0.0455408
internal_weight=17.5284 9.94065 7.92742 5.8092
internal_count=124 96 83 63
is_linear=0
shrinkage=0.05


Tree=73
num_leaves=5
num_cat=0
split_feature=4 56 105 97
split_gain=12.2322 5.17379 0.00135082 0.000546056
threshold=0.57223945495336814 0.88378621131792534 0.47746535358280978 0.40872337712822943
decision_type=2 2 2 2
left_child=1 -1 -2 -4
right_child=2 -3 3 -5
leaf_value=0.00069695533913699808 -0.047264370464714045 0.07313930424675337 -0.045479968106983182 -0.046501427996177909
leaf_weight=4.9542801082134265 2.4583055451512319 4.9047565907239914 3.5287415012717247 2.0793697386980057
leaf_count=29 20 17 39 19
internal_value=-0.000624117 0.0367362 -0.0462871 -0.0458587
internal_weight=17.9255 9.85904 8.06642 5.60811
internal_count=124 46 78 58
is_linear=0
shrinkage=0.05


Tree=74
num_leaves=4
num_cat=0
split_feature=91 8 109
split_gain=7.31037 8.31217 0.00525197
threshold=0.51395998902349394 0.71793623503644133 0.52567123448378716
decision_type=2 2 2
left_child=2 -2 -1
right_child=1 -3 -4
leaf_value=-0.04869295475977236 0.051802394436368332 -0.029161646194870029 -0.045587082198988549
leaf_weight=3.1163146570324924 8.3187045305967313 5.1219350174069396 2.4166304469108582
leaf_count=23 36 39 26
internal_value=0.00103592 0.0209488 -0.0473364
internal_weight=18.9736 13.4406 5.53295
internal_count=124 75 49
is_linear=0
shrinkage=0.05


Tree=75
num_leaves=5
num_cat=0
split_feature=21 22 20 9
split_gain=6.55544 6.34715 5.21943 0.000831674
threshold=0.68883623463563126 0.78382743703279423 0.37156443815072399 0.68642121287446034
decision_type=2 2 2 2
left_child=3 -2 -3 -1
right_child=1 2 -4 -5
leaf_value=-0.046742386649445716 0.062739490709359677 0.044523242565570387 -0.040509725939568704 -0.045473868373012205
leaf_weight=2.3658570349216488 5.2507367134094221 2.8905306980013847 4.8037101030349731 2.8469962403178215
leaf_count=21 26 13 33 31
internal_value=0.00129298 0.0203575 -0.008565 -0.0460496
internal_weight=18.1578 12.945 7.69424 5.21285
internal_count=124 72 46 52
is_linear=0
shrinkage=0.05


Tree=76
num_leaves=5
num_cat=0
split_feature=109 4 109 81
split_gain=15.0075 0.435094 0.00216879 0.000111129
threshold=0.76885775228062292 0.88265431657547866 0.39476431026002806 0.7002123328516402
decision_type=2 2 2 2
left_child=1 2 3 -1
right_child=-2 -3 -4 -5
leaf_value=-0.046029924715145137 0.053332850451066595 -0.019746851347767054 -0.047768939737362043 -0.045583398032122684
leaf_weight=3.2509384825825709 7.5414247512817374 1.9269331842660902 1.954939968883991 2.4385945573449135
leaf_count=32 28 20 18 26
internal_value=0.000582576 -0.04098 -0.0463322 -0.0458385
internal_weight=17.1128 9.57141 7.64447 5.68953
internal_count=124 96 76 58
is_linear=0
shrinkage=0.05


Tree=77
num_leaves=5
num_cat=0
split_feature=15 83 122 115
split_gain=18.8771 0.000205864 0.000229686 0.00018923
threshold=0.091007472357460303 0.7281792423409853 0.26779830336245719 0.34537672438455475
decision_type=2 2 2 2
left_child=-1 2 -2 -4
right_child=1 -3 3 -5
leaf_value=0.061270023966793478 -0.045625237708169571 -0.045512173763953556 -0.046566714757798819 -0.045944540185253645
leaf_weight=7.0337668061256435 2.3583552539348585 2.5891612321138382 2.2256607264280319 2.7103088796138763
leaf_count=24 25 28 20 27
internal_value=-0.0013386 -0.0458952 -0.0460311 -0.0462251
internal_weight=16.9173 9.88349 7.29432 4.93597
internal_count=124 100 72 47
is_linear=0
shrinkage=0.05


Tree=78
num_leaves=6
num_cat=0
split_feature=105 44 70 105 99
split_gain=17.4218 0.268386 0.0516313 0.000300306 8.90175e-05
threshold=0.82418866106097977 0.15956291746947357 0.37692887566146499 0.42307692307692274 0.39791456529353719
decision_type=2 2 2 2 2
left_child=1 2 3 -1 -5
right_child=-2 -3 -4 4 -6
leaf_value=-0.045954176641873859 0.059019113321695994 -0.027300342688645014 -0.054858948335527992 -0.044910164230503341 -0.045389120539346947
leaf_weight=1.9844928011298195 7.0454541742801657 2.0181850045919409 1.9173685759305952 1.5768212005496023 2.5213188752532005
leaf_count=20 27 18 11 20 28
internal_value=-0.00122582 -0.0435941 -0.0477045 -0.0454493 -0.0452048
internal_weight=17.0636 10.0182 8 6.08263 4.09814
internal_count=124 97 79 68 48
is_linear=0
shrinkage=0.05


Tree=79
num_leaves=6
num_cat=0
split_feature=4 105 41 71 125
split_gain=11.2309 6.14728 0.330011 0.0146147 0.000917289
threshold=0.51520509193776542 0.65423268879149044 0.076086932295708801 0.082863868841343724 0.76445084372214411
decision_type=2 2 2 2 2
left_child=1 -1 3 4 -2
right_child=2 -3 -4 -5 -6
leaf_value=0.0801908368671123 -0.046542187204616295 -0.00233340273688949 -0.024131284487732094 -0.050943545118105796 -0.045105367320432334
leaf_weight=4.4235827326774615 2.3004525154829008 4.6066347137093544 1.9763051867485044 2.0587322935461998 2.1480263583362103
leaf_count=15 21 28 19 15 26
internal_value=-0.000716229 0.0380923 -0.0420257 -0.0474604 -0.0458484
internal_weight=17.5137 9.03022 8.48352 6.50721 4.44848
internal_count=124 43 81 62 47
is_linear=0
shrinkage=0.05


Tree=80
num_leaves=5
num_cat=0
split_feature=110 71 86 137
split_gain=6.9801 7.7007 6.13787 0.00888674
threshold=0.56710369643429881 0.2873582553281151 0.8256445040708893 0.42132553018179125
decision_type=2 2 2 2
left_child=1 2 -1 -2
right_child=3 -3 -4 -5
leaf_value=0.0058557119286203278 -0.049796468126500286 -0.035857628649167597 0.087378632012984195 -0.045673087756148735
leaf_weight=4.722135968506338 2.7596179619431487 4.2119871303439131 4.5178288891911507 2.4818968027830124
leaf_count=25 19 35 18 27
internal_value=0.00110232 0.0201741 0.0457159 -0.047844
internal_weight=18.6935 13.452 9.23996 5.24151
internal_count=124 78 43 46
is_linear=0
shrinkage=0.05


Tree=81
num_leaves=5
num_cat=0
split_feature=76 74 97 81
split_gain=6.13306 5.55173 4.01122 0.00143501
threshold=0.19283854446834722 0.10568843746326047 0.3397173064339436 0.64470092583903504
decision_type=2 2 2 2
left_child=1 2 -1 -2
right_child=3 -3 -4 -5
leaf_value=0.034278574998846713 -0.046992923568081581 0.058259531596852515 -0.03935984960419768 -0.045274331287055172
leaf_weight=3.2088985741138476 2.1452287808060637 5.3818897753953934 4.3646838217973709 2.8000774905085564
leaf_count=15 19 27 31 32
internal_value=0.00135007 0.0194319 -0.00815952 -0.0460198
internal_weight=17.9008 12.9555 7.57358 4.94531
internal_count=124 73 46 51
is_linear=0
shrinkage=0.05


Tree=82
num_leaves=5
num_cat=0
split_feature=125 33 101 129
split_gain=13.6615 0.432572 0.000166199 4.60356e-05
threshold=0.99505851060951478 0.042931895193158466 0.3691997629694565 0.10029417983629983
decision_type=2 2 2 2
left_child=1 2 -1 -4
right_child=-2 -3 3 -5
leaf_value=-0.045921530269066285 0.050595090269558697 -0.018670099810199622 -0.045623319739813872 -0.045283661032910386
leaf_weight=3.3532452285289782 7.5227279663085929 1.8596346229314802 1.8929276391863821 2.1090763360261917
leaf_count=34 26 20 20 24
internal_value=0.000599789 -0.0402147 -0.0456619 -0.0454443
internal_weight=16.7376 9.21488 7.35525 4.002
internal_count=124 98 78 44
is_linear=0
shrinkage=0.05


Tree=83
num_leaves=5
num_cat=0
split_feature=2 83 70 114
split_gain=17.3957 0.000209348 0.000222965 0.000118896
threshold=0.091007472357460303 0.7281792423409853 0.064462968009524238 0.40625000000000006
decision_type=2 2 2 2
left_child=-1 2 -2 -4
right_child=1 -3 3 -5
leaf_value=0.058460042159520914 -0.045403634053285839 -0.045263872499106295 -0.046255921648429607 -0.045749037556480208
leaf_weight=6.9890633225441006 2.3401065319776517 2.4479694440960884 2.3140729516744614 2.3134732991456985
leaf_count=24 26 28 22 24
internal_value=-0.00130156 -0.0456616 -0.0458014 -0.0460025
internal_weight=16.4047 9.41562 6.96765 4.62755
internal_count=124 100 72 46
is_linear=0
shrinkage=0.05


Tree=84
num_leaves=5
num_cat=0
split_feature=2 101 61 5
split_gain=16.2767 0.0263734 0.00104774 0.00017748
threshold=0.43838862559241709 0.47272908284716936 0.36863702287596312 0.83097094259390503
decision_type=2 2 2 2
left_child=1 2 3 -1
right_child=-2 -3 -4 -5
leaf_value=-0.045407749410048985 0.052508512914271735 -0.052309372139175907 -0.046551997563157137 -0.044838978368415501
leaf_weight=2.9490806534886378 7.6119282320141783 1.7564697563648222 1.7352013960480688 2.5640545226633549
leaf_count=33 30 12 16 33
internal_value=-0.00131473 -0.0468125 -0.0454805 -0.0451432
internal_weight=16.6167 9.00481 7.24834 5.51314
internal_count=124 94 82 66
is_linear=0
shrinkage=0.05


Tree=85
num_leaves=5
num_cat=0
split_feature=4 56 106 97
split_gain=10.3436 4.33709 0.00104957 0.000474099
threshold=0.57223945495336814 0.88378621131792534 0.47168301207052915 0.40872337712822943
decision_type=2 2 2 2
left_child=1 -1 -2 -4
right_child=2 -3 3 -5
leaf_value=-0.00051999032162179746 -0.046687604802859703 0.066143370057859391 -0.045014423644432824 -0.046014401777755648
leaf_weight=4.8703553676605242 2.254858821630477 4.8891046643257141 3.1533768773078918 1.899161711335182
leaf_count=29 20 17 39 19
internal_value=-0.000806292 0.0328757 -0.0457906 -0.0453903
internal_weight=17.0669 9.75946 7.3074 5.05254
internal_count=124 46 78 58
is_linear=0
shrinkage=0.05


Tree=86
num_leaves=5
num_cat=0
split_feature=91 109 29 121
split_gain=6.52519 6.21004 3.16012 0.00493102
threshold=0.51395998902349394 0.22920188046022558 0.39822565171146007 0.32373596551398515
decision_type=2 2 2 2
left_child=3 -2 -3 -1
right_child=1 2 -4 -5
leaf_value=-0.045115916206538834 0.053223433253607191 0.01976833561240585 -0.049863512194833023 -0.048261352973716476
leaf_weight=2.1639586463570621 6.7504195347428304 3.244544506072998 3.2731905654072762 2.9372256025671959
leaf_count=26 34 18 23 23
internal_value=0.0011336 0.0196114 -0.0152006 -0.046927
internal_weight=18.3693 13.2682 6.51774 5.10118
internal_count=124 75 41 49
is_linear=0
shrinkage=0.05


Tree=87
num_leaves=5
num_cat=0
split_feature=8 57 106 26
split_gain=5.88529 3.91867 2.03469 0.00111825
threshold=0.57569391186602048 0.04693286171039926 0.47168301207052915 0.34456932543590463
decision_type=2 2 2 2
left_child=1 -1 -2 -4
right_child=2 -3 3 -5
leaf_value=-0.0067049074081483376 0.0048290226999916051 0.059655897895827141 -0.045011928482830296 -0.04645734504853978
leaf_weight=4.0399528816342372 3.0615874752402288 4.9508075639605522 2.2201712802052498 3.3681152537465096
leaf_count=25 17 23 27 32
internal_value=0.00150981 0.029837 -0.0279337 -0.0458831
internal_weight=17.6406 8.99076 8.64987 5.58829
internal_count=124 48 76 59
is_linear=0
shrinkage=0.05


Tree=88
num_leaves=5
num_cat=0
split_feature=109 4 109 77
split_gain=12.3715 0.475197 0.00222041 0.000113241
threshold=0.76885775228062292 0.88265431657547866 0.39476431026002806 0.63978039356898042
decision_type=2 2 2 2
left_child=1 2 3 -1
right_child=-2 -3 -4 -5
leaf_value=-0.045601738799019631 0.047150120789242592 -0.016852941205375473 -0.047446665859921029 -0.045126020638105974
leaf_weight=3.0672448202967662 7.6004633232951155 1.7588460147380827 1.7989852055907247 2.1125706285238266
leaf_count=33 28 20 18 25
internal_value=0.000499543 -0.0400796 -0.0459333 -0.0454077
internal_weight=16.3381 8.73765 6.9788 5.17982
internal_count=124 96 76 58
is_linear=0
shrinkage=0.05


Tree=89
num_leaves=5
num_cat=0
split_feature=5 138 5 83
split_gain=16.399 0.400695 0.0706034 0.000266044
threshold=0.92029732272603237 0.72619047619047616 0.78206945428773933 0.7281792423409853
decision_type=2 2 2 2
left_child=1 2 3 -1
right_child=-2 -3 -4 -5
leaf_value=-0.045731148406794646 0.060310419589318293 -0.022188658141893206 -0.056572492001229796 -0.045036372493558109
leaf_weight=3.4008505269885045 6.4344013929367074 1.8332825005054472 1.9011309444904325 2.316315196454525
leaf_count=36 27 18 15 28
internal_value=-0.0012597 -0.0431751 -0.0482253 -0.0454497
internal_weight=15.886 9.45158 7.6183 5.71717
internal_count=124 97 79 64
is_linear=0
shrinkage=0.05


Tree=90
num_leaves=5
num_cat=0
split_feature=83 102 5 106
split_gain=15.2223 0.0101869 0.000381385 0.000105249
threshold=0.7281792423409853 0.50643434399162046 0.83097094259390503 0.47168301207052915
decision_type=2 2 2 2
left_child=1 2 3 -1
right_child=-2 -3 -4 -5
leaf_value=-0.045634876318348644 0.051293237647397454 -0.049258832259030418 -0.044629235091798856 -0.04514114012567385
leaf_weight=2.3198803067207354 7.4419425800442687 1.9024335518479345 2.4941314794123173 2.0184945166110992
leaf_count=25 28 13 34 24
internal_value=-0.00125402 -0.0460229 -0.0451219 -0.0454052
internal_weight=16.1769 8.73494 6.83251 4.33837
internal_count=124 96 83 49
is_linear=0
shrinkage=0.05


Tree=91
num_leaves=5
num_cat=0
split_feature=56 69 77 110
split_gain=9.69387 4.67942 0.00309932 0.000321084
threshold=0.7294703619825279 0.33259736999219097 0.51341380172924456 0.34851934832957771
decision_type=2 2 2 2
left_child=2 -2 3 -1
right_child=1 -3 -4 -5
leaf_value=-0.045808035963030118 -0.0070499769753410522 0.062614921916550978 -0.047569624494896004 -0.044962708282602307
leaf_weight=1.8395532891154314 4.3661857992410642 5.3814951851963997 2.1836124733090401 2.8851818814873695
leaf_count=19 30 22 17 36
internal_value=-0.000701557 0.0314106 -0.0460118 -0.0452918
internal_weight=16.656 9.74768 6.90835 4.72474
internal_count=124 52 72 55
is_linear=0
shrinkage=0.05


Tree=92
num_leaves=5
num_cat=0
split_feature=110 69 4 137
split_gain=6.06556 6.66365 4.94428 0.00720639
threshold=0.56710369643429881 0.29478595669035429 0.76845883357248501 0.42132553018179125
decision_type=2 2 2 2
left_child=1 2 -1 -2
right_child=3 -3 -4 -5
leaf_value=0.076506867449041061 -0.049071254249683838 -0.035222670397860062 0.0035390267954990757 -0.045173456136845487
leaf_weight=4.8688405603170413 2.5526580065488806 4.0344709753990164 4.4374094679951668 2.2145954519510269
leaf_count=20 19 35 23 27
internal_value=0.00114844 0.0184472 0.0417143 -0.0472606
internal_weight=18.108 13.3407 9.30625 4.76725
internal_count=124 78 43 46
is_linear=0
shrinkage=0.05


Tree=93
num_leaves=5
num_cat=0
split_feature=4 22 20 22
split_gain=5.5063 4.08352 3.38798 0.00119343
threshold=0.61916548797736926 0.78382743703279423 0.37341001821703163 0.42814868499531894
decision_type=2 2 2 2
left_child=3 -2 -3 -1
right_child=1 2 -4 -5
leaf_value=-0.044912132109240201 0.050024685319324073 0.03133765013065045 -0.037786586554108076 -0.046578500898846111
leaf_weight=2.8688713833689716 5.6633489280939084 3.2143225222826004 3.9522075951099396 1.7178476005792616
leaf_count=36 28 14 30 16
internal_value=0.00148331 0.0182929 -0.00678308 -0.0455362
internal_weight=17.4166 12.8299 7.16653 4.58672
internal_count=124 72 44 52
is_linear=0
shrinkage=0.05


Tree=94
num_leaves=5
num_cat=0
split_feature=109 41 109 101
split_gain=11.2308 0.485579 0.00179374 9.20941e-05
threshold=0.76885775228062292 0.38796042848032392 0.52567123448378716 0.38542562859172719
decision_type=2 2 2 2
left_child=1 2 3 -1
right_child=-2 -3 -4 -5
leaf_value=-0.045454299903422091 0.044339220047216799 -0.015751251863798214 -0.047095542883210745 -0.04502044274011488
leaf_weight=2.2329848259687406 7.6240530014038095 1.6994379609823225 1.7102474123239515 2.7046556398272514
leaf_count=25 28 20 18 33
internal_value=0.000467568 -0.0396027 -0.0457 -0.0452166
internal_weight=15.9714 8.34733 6.64789 4.93764
internal_count=124 96 76 58
is_linear=0
shrinkage=0.05


Tree=95
num_leaves=5
num_cat=0
split_feature=5 25 21 9
split_gain=14.9835 0.411433 0.0696559 0.000246008
threshold=0.92029732272603237 0.63971962966971874 0.82362435781150001 0.68642121287446034
decision_type=2 2 2 2
left_child=1 2 3 -1
right_child=-2 -3 -4 -5
leaf_value=-0.045511839193259324 0.057444144357054229 -0.021166295564313358 -0.056558027061801658 -0.044839789436979964
leaf_weight=2.9717715382575971 6.3505951091647157 1.7773785032331941 1.7921351864933965 2.5133969336748123
leaf_count=33 27 18 14 32
internal_value=-0.0014363 -0.0427327 -0.048 -0.0452039
internal_weight=15.4053 9.05468 7.2773 5.48517
internal_count=124 97 79 65
is_linear=0
shrinkage=0.05


Tree=96
num_leaves=6
num_cat=0
split_feature=105 37 70 106 99
split_gain=14.2069 0.271342 0.0539831 0.00031504 8.53437e-05
threshold=0.82418866106097977 0.027936162936843603 0.37692887566146499 0.47168301207052915 0.39791456529353719
decision_type=2 2 2 2 2
left_child=1 2 3 -1 -5
right_child=-2 -3 -4 4 -6
leaf_value=-0.045407687314876509 0.05292754908375729 -0.026040118310884514 -0.054928132546198175 -0.044334858045744857 -0.044870999224178754
leaf_weight=2.2045619860291463 6.8125004544854173 1.8499166518449781 1.8375890329480169 1.3990301340818407 1.5811163187026975
leaf_count=25 27 20 11 21 20
internal_value=-0.00137807 -0.0430765 -0.0475644 -0.0449545 -0.0446193
internal_weight=15.6847 8.87221 7.0223 5.18471 2.98015
internal_count=124 97 77 66 41
is_linear=0
shrinkage=0.05


Tree=97
num_leaves=5
num_cat=0
split_feature=4 106 106 97
split_gain=9.09459 3.90945 0.000981645 0.000453027
threshold=0.57223945495336814 0.66627977270814986 0.47168301207052915 0.40872337712822943
decision_type=2 2 2 2
left_child=1 -1 -2 -4
right_child=2 -3 3 -5
leaf_value=0.060538799903774136 -0.046311080780733864 -0.0035413714212220401 -0.044615967949968492 -0.045639128943484333
leaf_weight=5.093032509088518 2.1057884171605101 4.4684616029262543 2.8317041657865047 1.7507632598280904
leaf_count=18 20 28 39 19
internal_value=-0.000693074 0.0305916 -0.0454175 -0.0450069
internal_weight=16.2497 9.56149 6.68826 4.58247
internal_count=124 46 78 58
is_linear=0
shrinkage=0.05


Tree=98
num_leaves=4
num_cat=0
split_feature=91 8 109
split_gain=5.84746 6.25743 0.0051429
threshold=0.51395998902349394 0.71793623503644133 0.52567123448378716
decision_type=2 2 2
left_child=2 -2 -1
right_child=1 -3 -4
leaf_value=-0.048040329201577005 0.044243002550716927 -0.027731466940796791 -0.044676233319156877
leaf_weight=2.7815590947866466 8.3873550519347173 4.7187587693333617 1.9204785190522669
leaf_count=23 36 39 26
internal_value=0.00116783 0.0183291 -0.0466663
internal_weight=17.8082 13.1061 4.70204
internal_count=124 75 49
is_linear=0
shrinkage=0.05


Tree=99
num_leaves=5
num_cat=0
split_feature=8 57 106 58
split_gain=5.21659 3.41087 1.80189 0.00124491
threshold=0.57569391186602048 0.04693286171039926 0.47168301207052915 0.29677930329291896
decision_type=2 2 2 2
left_child=1 -1 -2 -4
right_child=2 -3 3 -5
leaf_value=-0.006836834866159696 0.0029585494790134786 0.055200024596259605 -0.046245778996467965 -0.044675562786447687
leaf_weight=3.9589334502816218 3.0676449835300428 5.0317847654223442 2.8012310639023781 2.2976646907627583
leaf_count=25 17 23 28 31
internal_value=0.00160686 0.027883 -0.0273211 -0.0455382
internal_weight=17.1573 8.99072 8.16654 5.0989
internal_count=124 48 76 59
is_linear=0
shrinkage=0.05


Tree=100
num_leaves=5
num_cat=0
split_feature=125 91 7 53
split_gain=10.1638 0.48955 0.000100095 2.51358e-05
threshold=0.99505851060951478 0.91353732405380483 0.65621266347728935 0.81997914575728847
decision_type=2 2 2 2
left_child=1 2 3 -1
right_child=-2 -3 -4 -5
leaf_value=-0.044802769804644725 0.041940340580272961 -0.014339318071715599 -0.045354991763015502 -0.045041590351024251
leaf_weight=2.1036608293652517 7.5573135465383539 1.6258815377950666 1.9891943447291849 2.3133517131209373
leaf_count=27 26 20 23 28
internal_value=0.00031916 -0.0388418 -0.0450605 -0.0449278
internal_weight=15.5894 8.03209 6.40621 4.41701
internal_count=124 98 78 55
is_linear=0
shrinkage=0.05


Tree=101
num_leaves=5
num_cat=0
split_feature=2 83 70 114
split_gain=14.1352 0.000292045 0.000137151 5.5453e-05
threshold=0.091007472357460303 0.66615158162434407 0.072713941495823553 0.39424360037001932
decision_type=2 2 2 2
left_child=-1 2 -2 -4
right_child=1 -3 3 -5
leaf_value=0.052670416604252625 -0.045009942953606996 -0.044642943431180984 -0.045697437015164294 -0.045305104119486295
leaf_weight=6.6869047284126291 2.3581501096487028 2.2983235865831375 1.7935851290822031 1.80907941237092
leaf_count=24 29 31 19 21
internal_value=-0.00136925 -0.0451218 -0.0453064 -0.0455004
internal_weight=14.946 8.25914 5.96081 3.60266
internal_count=124 100 69 40
is_linear=0
shrinkage=0.05


Tree=102
num_leaves=5
num_cat=0
split_feature=26 101 125 5
split_gain=13.4443 0.0527903 0.000682343 0.000166457
threshold=0.34456932543590463 0.56243674029486301 0.52937037740693149 0.83097094259390503
decision_type=2 2 2 2
left_child=-1 2 -2 -4
right_child=1 -3 3 -5
leaf_value=0.046600599417664229 -0.045738900483191812 -0.054327809712984725 -0.044919955761446959 -0.044270422692037424
leaf_weight=7.4367579743266106 1.8068503215909002 2.0169539600610733 1.8154681175947192 2.1598313637077808
leaf_count=37 20 11 23 33
internal_value=-0.00149844 -0.0473628 -0.0449332 -0.0445671
internal_weight=15.2359 7.7991 5.78215 3.9753
internal_count=124 87 76 56
is_linear=0
shrinkage=0.05


Tree=103
num_leaves=6
num_cat=0
split_feature=4 105 41 101 125
split_gain=8.4137 4.65285 0.358003 0.0201941 0.000628963
threshold=0.51520509193776542 0.65423268879149044 0.076086932295708801 0.31989425660155163 0.76445084372214411
decision_type=2 2 2 2 2
left_child=1 -1 3 -2 -5
right_child=2 -3 -4 4 -6
leaf_value=0.069976947975117498 -0.051666999481866364 -0.0034462943143017941 -0.020648213492761709 -0.045692552405595263 -0.044412527158400661
leaf_weight=4.2149128764867765 1.6561188772320754 4.4208098202943802 1.6750882938504217 1.9465051591396332 1.8929748795926571
leaf_count=15 13 28 19 21 28
internal_value=-0.000851271 0.03239 -0.0408841 -0.0470521 -0.0450615
internal_weight=15.8064 8.63572 7.17069 5.4956 3.83948
internal_count=124 43 81 62 49
is_linear=0
shrinkage=0.05


Tree=104
num_leaves=5
num_cat=0
split_feature=110 8 62 137
split_gain=5.51287 5.666 0.836973 0.00717776
threshold=0.56710369643429881 0.71793623503644133 0.52311126662051211 0.42132553018179125
decision_type=2 2 2 2
left_child=1 -1 -3 -2
right_child=3 2 -4 -5
leaf_value=0.041826219630542415 -0.048863793738006422 -0.047042357929976693 -0.0043581924740098334 -0.04481322206518408
leaf_weight=8.4736191332340258 2.4294509738683692 2.4511040002107611 2.1610058099031448 1.9891963750123975
leaf_count=38 19 24 16 27
internal_value=0.00124776 0.0175531 -0.0270427 -0.0470403
internal_weight=17.5044 13.0857 4.61211 4.41865
internal_count=124 78 40 46
is_linear=0
shrinkage=0.05


Tree=105
num_leaves=5
num_cat=0
split_feature=23 74 97 22
split_gain=5.03467 4.46249 3.1494 0.00135868
threshold=0.68010801919471964 0.10568843746326047 0.3397173064339436 0.42814868499531894
decision_type=2 2 2 2
left_child=3 2 -2 -1
right_child=1 -3 -4 -5
leaf_value=-0.044558373513133354 0.027934172829836457 0.052026873628099601 -0.038150863515786754 -0.046387269254662009
leaf_weight=2.5823971256613758 3.3159922584891302 5.3961231559514999 3.950913280248642 1.6736477240920065
leaf_count=36 15 26 31 16
internal_value=0.00176953 0.0175821 -0.00799532 -0.0452776
internal_weight=16.9191 12.663 7.26691 4.25604
internal_count=124 72 46 52
is_linear=0
shrinkage=0.05


Tree=106
num_leaves=5
num_cat=0
split_feature=109 4 74 81
split_gain=9.40485 0.548307 0.00214008 0.000102632
threshold=0.76885775228062292 0.88265431657547866 0.13264038797504515 0.72751176813662222
decision_type=2 2 2 2
left_child=1 2 -1 -4
right_child=-2 -3 3 -5
leaf_value=-0.046870730886161033 0.039926342696720712 -0.011838254421568169 -0.044997969080493333 -0.044500500690151788
leaf_weight=1.7563219517469404 7.585918553173542 1.5202278047800062 2.6414657384157181 1.7066659107804296
leaf_count=19 28 20 33 24
internal_value=0.000509708 -0.0387065 -0.0453977 -0.0448027
internal_weight=15.2106 7.62468 6.10445 4.34813
internal_count=124 96 76 57
is_linear=0
shrinkage=0.05


Tree=107
num_leaves=5
num_cat=0
split_feature=2 81 70 70
split_gain=12.9352 0.000269877 0.000127739 9.05057e-05
threshold=0.091007472357460303 0.7002123328516402 0.072713941495823553 0.21288129060257258
decision_type=2 2 2 2
left_child=-1 2 -2 -4
right_child=1 -3 3 -5
leaf_value=0.050203013604077307 -0.044811190890391761 -0.044443757831141455 -0.045538264410708865 -0.045030815200105878
leaf_weight=6.5601452589035034 2.234803132712841 2.0924737192690372 1.8293930888175967 1.6907854340970514
leaf_count=24 29 30 20 21
internal_value=-0.00161355 -0.04493 -0.0451068 -0.0452945
internal_weight=14.4076 7.84746 5.75498 3.52018
internal_count=124 100 70 41
is_linear=0
shrinkage=0.05


end of trees

feature_importances:
Column_2=33
Column_4=33
Column_105=20
Column_125=19
Column_109=18
Column_5=17
Column_106=15
Column_83=12
Column_8=11
Column_70=10
Column_91=10
Column_41=8
Column_56=8
Column_86=8
Column_22=7
Column_81=7
Column_101=7
Column_21=6
Column_33=6
Column_58=6
Column_74=6
Column_97=6
Column_110=6
Column_64=5
Column_69=5
Column_77=5
Column_108=5
Column_9=4
Column_10=4
Column_59=4
Column_71=4
Column_75=4
Column_76=4
Column_90=4
Column_114=4
Column_15=3
Column_20=3
Column_23=3
Column_57=3
Column_61=3
Column_68=3
Column_72=3
Column_73=3
Column_89=3
Column_99=3
Column_102=3
Column_137=3
Column_146=3
Column_3=2
Column_7=2
Column_24=2
Column_25=2
Column_26=2
Column_37=2
Column_44=2
Column_45=2
Column_53=2
Column_55=2
Column_62=2
Column_85=2
Column_88=2
Column_115=2
Column_116=2
Column_129=2
Column_130=2
Column_136=2
Column_0=1
Column_6=1
Column_29=1
Column_34=1
Column_42=1
Column_46=1
Column_63=1
Column_65=1
Column_66=1
Column_78=1
Column_79=1
Column_87=1
Column_100=1
Column_107=1
Column_119=1
Column_120=1
Column_121=1
Column_122=1
Column_131=1
Column_138=1
Column_141=1
Column_143=1

parameters:
[boosting: gbdt]
[objective: multiclass]
[metric: custom]
[tree_learner: serial]
[device_type: cpu]
[data_sample_strategy: bagging]
[data: ]
[valid: ]
[num_iterations: 10000]
[learning_rate: 0.05]
[num_leaves: 63]
[num_threads: 0]
[seed: 1237]
[deterministic: 0]
[force_col_wise: 0]
[force_row_wise: 0]
[histogram_pool_size: -1]
[max_depth: -1]
[min_data_in_leaf: 20]
[min_sum_hessian_in_leaf: 0.001]
[bagging_fraction: 1]
[pos_bagging_fraction: 1]
[neg_bagging_fraction: 1]
[bagging_freq: 0]
[bagging_seed: 32458]
[bagging_by_query: 0]
[feature_fraction: 0.9]
[feature_fraction_bynode: 1]
[feature_fraction_seed: 15412]
[extra_trees: 0]
[extra_seed: 19498]
[early_stopping_round: 0]
[early_stopping_min_delta: 0]
[first_metric_only: 0]
[max_delta_step: 0]
[lambda_l1: 0]
[lambda_l2: 0]
[linear_lambda: 0]
[min_gain_to_split: 0]
[drop_rate: 0.1]
[max_drop: 50]
[skip_drop: 0.5]
[xgboost_dart_mode: 0]
[uniform_drop: 0]
[drop_seed: 818]
[top_rate: 0.2]
[other_rate: 0.1]
[min_data_per_group: 100]
[max_cat_threshold: 32]
[cat_l2: 10]
[cat_smooth: 10]
[max_cat_to_onehot: 4]
[top_k: 20]
[monotone_constraints: ]
[monotone_constraints_method: basic]
[monotone_penalty: 0]
[feature_contri: ]
[forcedsplits_filename: ]
[refit_decay_rate: 0.9]
[cegb_tradeoff: 1]
[cegb_penalty_split: 0]
[cegb_penalty_feature_lazy: ]
[cegb_penalty_feature_coupled: ]
[path_smooth: 0]
[interaction_constraints: ]
[verbosity: -1]
[saved_feature_importance_type: 0]
[use_quantized_grad: 0]
[num_grad_quant_bins: 4]
[quant_train_renew_leaf: 0]
[stochastic_rounding: 1]
[linear_tree: 0]
[max_bin: 255]
[max_bin_by_feature: ]
[min_data_in_bin: 3]
[bin_construct_sample_cnt: 200000]
[data_random_seed: 4078]
[is_enable_sparse: 1]
[enable_bundle: 1]
[use_missing: 1]
[zero_as_missing: 0]
[feature_pre_filter: 1]
[pre_partition: 0]
[two_round: 0]
[header: 0]
[label_column: ]
[weight_column: ]
[group_column: ]
[ignore_column: ]
[categorical_feature: ]
[forcedbins_filename: ]
[precise_float_parser: 0]
[parser_config_file: ]
[objective_seed: 21231]
[num_class: 6]
[is_unbalance: 0]
[scale_pos_weight: 1]
[sigmoid: 1]
[boost_from_average: 1]
[reg_sqrt: 0]
[alpha: 0.9]
[fair_c: 1]
[poisson_max_delta_step: 0.7]
[tweedie_variance_power: 1.5]
[lambdarank_truncation_level: 30]
[lambdarank_norm: 1]
[label_gain: ]
[lambdarank_position_bias_regularization: 0]
[eval_at: ]
[multi_error_top_k: 1]
[auc_mu_weights: ]
[num_machines: 1]
[local_listen_port: 12400]
[time_out: 120]
[machine_list_filename: ]
[machines: ]
[gpu_platform_id: -1]
[gpu_device_id: -1]
[gpu_use_dp: 0]
[num_gpu: 1]

end of parameters

pandas_categorical:null
