tree
version=v4
num_class=6
num_tree_per_iteration=6
label_index=0
max_feature_idx=147
objective=multiclass num_class:6
feature_names=Column_0 Column_1 Column_2 Column_3 Column_4 Column_5 Column_6 Column_7 Column_8 Column_9 Column_10 Column_11 Column_12 Column_13 Column_14 Column_15 Column_16 Column_17 Column_18 Column_19 Column_20 Column_21 Column_22 Column_23 Column_24 Column_25 Column_26 Column_27 Column_28 Column_29 Column_30 Column_31 Column_32 Column_33 Column_34 Column_35 Column_36 Column_37 Column_38 Column_39 Column_40 Column_41 Column_42 Column_43 Column_44 Column_45 Column_46 Column_47 Column_48 Column_49 Column_50 Column_51 Column_52 Column_53 Column_54 Column_55 Column_56 Column_57 Column_58 Column_59 Column_60 Column_61 Column_62 Column_63 Column_64 Column_65 Column_66 Column_67 Column_68 Column_69 Column_70 Column_71 Column_72 Column_73 Column_74 Column_75 Column_76 Column_77 Column_78 Column_79 Column_80 Column_81 Column_82 Column_83 Column_84 Column_85 Column_86 Column_87 Column_88 Column_89 Column_90 Column_91 Column_92 Column_93 Column_94 Column_95 Column_96 Column_97 Column_98 Column_99 Column_100 Column_101 Column_102 Column_103 Column_104 Column_105 Column_106 Column_107 Column_108 Column_109 Column_110 Column_111 Column_112 Column_113 Column_114 Column_115 Column_116 Column_117 Column_118 Column_119 Column_120 Column_121 Column_122 Column_123 Column_124 Column_125 Column_126 Column_127 Column_128 Column_129 Column_130 Column_131 Column_132 Column_133 Column_134 Column_135 Column_136 Column_137 Column_138 Column_139 Column_140 Column_141 Column_142 Column_143 Column_144 Column_145 Column_146 Column_147
feature_infos=[0.050955414012738898:1.0000000000000002] [0:1] [0:1] [0.038562434417628522:1] [0:0.99717114568599707] [0.05138199858256557:1] [0:1] [0.087333799860040529:1] [0:1] [0:0.92452556859336532] [0.19290499390986604:1] [0.050955414012738898:1.0000000000000002] [0.050955414012738898:1.0000000000000002] [0:1] [0:1] [0:1] [0:1] [0:1] [0:1] [0:1] [0:1] [0:1] [0:0.99774094757444476] [0:1] [0:1] [0:0.82781462549888496] [0:0.95880156994768317] [0:0.8366248059758461] [0.057718122094139922:0.94161073667969908] [0.04824367622772377:1] [0.014023172479806945:0.99999999999999989] [0.057130380803128919:0.99999999999999989] [0.046672441896413203:1] [0:1] [0:1] [0:0.38775510204081626] [0:0.99999999999999989] [0:1] [0:1] [0:0.38775510204081626] [0:1] [0:1] [0:1] [0:1] [0:1] [0.18241042345276526:0.9804560260586257] [0.17607973421926459:0.97674418604650981] [0.1842105263157876:0.98519736842104066] [0.19269102990033105:0.97729789590254512] [0.18411444602512717:0.98699880951196661] [0.1787704762421356:0.97995769147320289] [0.18586690836107778:0.99197348956352016] [0.19316541325511594:0.98422632734649085] [0:1] [0:1] [0:1] [0:1] [0:1] [0:1] [0:1] [0:0.99166666666666692] [0:1] [0:1] [0:1] [0:1] [0:1] [0:1] [0:1] [0:1] [0:1] [0:1] [0:1] [0:1] [0:1] [0:1] [0:0.99999999999999989] [0:0.99999999999999989] [0:1] [0.0057619047021364288:0.99999999999999978] [0.0002565139268069806:1] [0.00023869731002838489:0.99999999999999989] [0:1] [0.041577459290350872:1] [0.01329418961442369:1] [0:1] [0:1] [0:0.9682405789503622] [0:0.99700573707146556] [0:0.98850766983490368] [0:1] [0.051590550036289928:1] [0:0.99437482553764811] [0:0.99113526471316593] [0:1] [0:0.99999999999999989] [0.00024635798357577139:1] [0:1] [0:0.99999999999999989] [0:1.0000000000000002] [0:1] [0:0.99999999999999989] [0:1] [0:1] [0:1] [0:0.99999999999999989] [0:1] [0:1] [0:1] [0:0.99999999999999956] [0:1] [0:1] [0:1] [0:1] [0:0.88365650969529086] [0:1] [0:0.86424731182795722] [0:0.97004493260109859] [0.039682539682539764:1] [0.016000000000000014:1] [0.031872509960159334:0.99999999999999978] [0.025299600532623367:0.99999999999999978] [0:0.90909090909090828] [0:0.90909090909090828] [0:0.90909090909090828] [0:0.90909090909090828] [0:1] [0:1] [0:1] [0:1] [0:1] [0:1] [0:1] [0:0.99999999999999989] [0:0.84085000507382768] [0:0.94334263929180118] [0:0.79246117192919807] [0:0.81619198117178238] [0:0.72650282256289112] [0.065476190476190466:0.99961559177417991] [0:0.78582254535092455] [0.030042918454935563:0.94919710485641462] [0:0.83333333333333326] [0:0.88888888888888884] [0:0.8333334166666666] [0:0.66666666666666663] [0:0.70208871798177075] [0:0.1069137109783363] [0:1]
tree_sizes=452 557 551 552 558 454 683 677 682 675 681 688 684 681 685 778 682 683 683 679 683 671 786 684

Tree=0
num_leaves=3
num_cat=0
split_feature=83 0
split_gain=78.6923 1.77636e-15
threshold=0.7281792423409853 0.44246782152824687
decision_type=2 2
left_child=1 -1
right_child=-2 -3
leaf_value=-1.8742287761412793 -1.627818535053722 -1.8742287761412793
leaf_weight=12.174818292260175 4.0582727640867224 3.8959418535232535
leaf_count=75 25 24
internal_value=-1.82455 -1.87423
internal_weight=20.129 16.0708
internal_count=124 99
is_linear=0
shrinkage=1


Tree=1
num_leaves=4
num_cat=0
split_feature=5 59 0
split_gain=37.0397 11.6953 1.77636e-15
threshold=0.32437975008879888 1.0000000180025095e-35 0.45167044968043868
decision_type=2 2 2
left_child=-1 -2 -3
right_child=1 2 -4
leaf_value=-1.6284585733269221 -1.722253197642887 -1.8259209403079006 -1.8259209403079006
leaf_weight=3.5449792295694378 3.3761706948280361 9.9597035497426969 4.0514048337936392
leaf_count=21 20 59 24
internal_value=-1.77576 -1.80579 -1.82592
internal_weight=20.9323 17.3873 14.0111
internal_count=124 103 83
is_linear=0
shrinkage=1


Tree=2
num_leaves=4
num_cat=0
split_feature=64 105 3
split_gain=21.0323 10.5093 0.230035
threshold=0.023829973483118678 0.42307692307692274 0.3418066524042469
decision_type=2 2 2
left_child=-1 -2 -3
right_child=1 2 -4
leaf_value=-1.720222375461556 -1.7715578423547971 -1.858828136073307 -1.8742287761412793
leaf_weight=3.8959418535232571 3.4089491218328503 3.2466182112693778 9.5775237232446653
leaf_count=24 21 20 59
internal_value=-1.82455 -1.84959 -1.87033
internal_weight=20.129 16.2331 12.8241
internal_count=124 100 79
is_linear=0
shrinkage=1


Tree=3
num_leaves=4
num_cat=0
split_feature=43 68 109
split_gain=16.6374 5.95135 1.62564
threshold=0.02835098523710031 0.65288036534378546 0.57631626807643366
decision_type=2 2 2
left_child=-1 2 -2
right_child=1 -3 -4
leaf_value=-1.6892162247056848 -1.8259209403079006 -1.7412942116017669 -1.787286998942057
leaf_weight=4.3890219032764461 9.1156608760356921 3.5449792295694342 3.8825962990522376
leaf_count=26 54 21 23
internal_value=-1.77576 -1.79872 -1.81438
internal_weight=20.9323 16.5432 12.9983
internal_count=124 98 77
is_linear=0
shrinkage=1


Tree=4
num_leaves=4
num_cat=0
split_feature=125 105 0
split_gain=62.9092 2.13787 1.77636e-15
threshold=0.99983854854515564 0.26375463832100765 0.41308308378276698
decision_type=2 2 2
left_child=1 -1 -3
right_child=-2 2 -4
leaf_value=-1.7814919077371805 -1.5941172921128386 -1.8259209403079006 -1.8259209403079006
leaf_weight=3.3761706948280397 3.8825962990522376 5.5706816464662543 8.1028096675872785
leaf_count=20 23 33 48
internal_value=-1.77576 -1.81712 -1.82592
internal_weight=20.9323 17.0497 13.6735
internal_count=124 101 81
is_linear=0
shrinkage=1


Tree=5
num_leaves=3
num_cat=0
split_feature=2 3
split_gain=83.4291 3.55271e-15
threshold=0.091007472357460303 0.29669464847848903
decision_type=2 2
left_child=-1 -2
right_child=1 -3
leaf_value=-1.5771183579118677 -1.8259209403079006 -1.8259209403079006
leaf_weight=4.2202133685350445 4.2202133685350445 12.491831570863722
leaf_count=25 25 74
internal_value=-1.77576 -1.82592
internal_weight=20.9323 16.712
internal_count=124 99
is_linear=0
shrinkage=1


Tree=6
num_leaves=5
num_cat=0
split_feature=83 77 105 64
split_gain=63.6502 4.94562e-05 1.72399e-05 8.46139e-06
threshold=0.7281792423409853 0.13574078686924412 0.61414479426186797 0.16500000000000004
decision_type=2 2 2 2
left_child=1 -1 3 -3
right_child=-2 2 -4 -5
leaf_value=-0.049053317738135975 0.16095697147065038 -0.04916236473648989 -0.049360107650354243 -0.04926446854775484
leaf_weight=3.8362559676170376 4.7015514969825736 3.4111148566007596 3.1570812612771979 5.0081096738576889
leaf_count=25 25 22 20 32
internal_value=-8.39111e-05 -0.0492089 -0.0492605 -0.0492231
internal_weight=20.1141 15.4126 11.5763 8.41922
internal_count=124 99 74 54
is_linear=0
shrinkage=0.05


Tree=7
num_leaves=5
num_cat=0
split_feature=56 129 60 70
split_gain=37.307 5.99296 0.000267948 3.13916e-05
threshold=0.88378621131792534 0.29794296566847706 0.027500000000000004 0.012631934439564188
decision_type=2 2 2 2
left_child=1 2 -1 -4
right_child=-2 -3 3 -5
leaf_value=-0.050157255649412348 0.13812763766714029 0.018301898764504901 -0.04951434580453129 -0.049706070594959684
leaf_weight=3.3688633143901887 3.963051661849021 4.3502119630575171 3.359898239374159 5.8562498241662979
leaf_count=20 22 25 21 36
internal_value=2.8559e-05 -0.0322883 -0.0497757 -0.0496362
internal_weight=20.8983 16.9352 12.585 9.21615
internal_count=124 102 77 57
is_linear=0
shrinkage=0.05


Tree=8
num_leaves=5
num_cat=0
split_feature=42 105 79 35
split_gain=22.1343 5.89602 0.951478 0.000116433
threshold=1.0000000180025095e-35 0.42307692307692274 0.12831151403526317 1.0000000180025095e-35
decision_type=2 2 2 2
left_child=-1 -2 -3 -4
right_child=1 2 3 -5
leaf_value=0.10959441777145643 0.030105629443957255 -0.01762958569434557 -0.049590632816987529 -0.049224397311051035
leaf_weight=3.7513255923986462 3.7339687943458584 3.1507861316204062 3.3742060214281064 6.0817996710538864
leaf_count=22 22 20 21 39
internal_value=6.41464e-05 -0.0250806 -0.041426 -0.0493551
internal_weight=20.0921 16.3408 12.6068 9.45601
internal_count=124 102 80 60
is_linear=0
shrinkage=0.05


Tree=9
num_leaves=5
num_cat=0
split_feature=8 43 108 79
split_gain=15.9828 4.19008 0.215886 0.000121921
threshold=0.43570219966159057 0.047679778085838988 0.51434636993620708 0.63440918825298998
decision_type=2 2 2 2
left_child=-1 -2 -3 -4
right_child=1 2 3 -5
leaf_value=0.065459686217661503 0.01627054029377786 -0.034432344784074365 -0.050078791422632857 -0.049672667819479203
leaf_weight=6.459951430559161 3.7535009384155265 3.2639946192502958 3.5178890079259872 3.8930885046720505
leaf_count=37 22 20 21 24
internal_value=9.57072e-05 -0.0291692 -0.0451466 -0.0498654
internal_weight=20.8884 14.4285 10.675 7.41098
internal_count=124 87 65 45
is_linear=0
shrinkage=0.05


Tree=10
num_leaves=5
num_cat=0
split_feature=125 4 69 22
split_gain=51.647 2.21338 9.8551e-05 2.19695e-05
threshold=0.99983854854515564 0.90621810392706514 0.2309432696128777 0.36783141200503044
decision_type=2 2 2 2
left_child=1 2 -1 -4
right_child=-2 -3 3 -5
leaf_value=-0.049899256504095005 0.15194700060839764 -0.0037829876726412589 -0.049715496211917065 -0.049535550844924364
leaf_weight=6.4439369291067177 4.4113634079694739 3.2635421901941291 3.4191791117191315 3.3660724014043808
leaf_count=39 23 20 21 21
internal_value=-1.56237e-05 -0.0406616 -0.0497592 -0.0496262
internal_weight=20.9041 16.4927 13.2292 6.78525
internal_count=124 101 81 42
is_linear=0
shrinkage=0.05


Tree=11
num_leaves=5
num_cat=0
split_feature=15 142 101 25
split_gain=67.4635 3.78919e-05 2.17598e-05 2.15973e-05
threshold=0.091007472357460303 0.33646132931868344 0.30051069477650139 0.58774838602473845
decision_type=2 2 2 2
left_child=-1 2 -2 -4
right_child=1 -3 3 -5
leaf_value=0.16261276174201475 -0.049704915585938765 -0.049764510314129054 -0.049476732810062124 -0.049649060637212153
leaf_weight=4.8835270702838924 3.4153588861227053 5.2309637814760199 4.1467565447092056 3.2377219796180725
leaf_count=25 21 32 26 20
internal_value=-8.9435e-05 -0.0496541 -0.0496006 -0.0495523
internal_weight=20.9143 16.0308 10.7998 7.38448
internal_count=124 99 67 46
is_linear=0
shrinkage=0.05


Tree=12
num_leaves=5
num_cat=0
split_feature=107 84 77 53
split_gain=54.9067 0.00264389 8.3865e-05 2.42638e-05
threshold=0.81318686813186736 0.53498466679981349 0.13574078686924412 0.70805979526500007
decision_type=2 2 2 2
left_child=1 2 -1 -4
right_child=-2 -3 3 -5
leaf_value=-0.048494559355119725 0.14008914096607356 -0.050332434306267083 -0.048719252693980246 -0.048895688660480691
leaf_weight=3.4811806380748775 5.1740536987781516 3.1486526131629935 5.0486171096563321 3.1734768748283386
leaf_count=24 26 19 34 21
internal_value=-0.000179922 -0.0490463 -0.0487003 -0.0487874
internal_weight=20.026 14.8519 11.7033 8.22209
internal_count=124 98 79 55
is_linear=0
shrinkage=0.05


Tree=13
num_leaves=5
num_cat=0
split_feature=56 105 130 103
split_gain=31.1904 5.42796 0.00118201 0.000197775
threshold=0.87003758448507973 0.32043574934394325 0.25801255012744517 0.42380884348751147
decision_type=2 2 2 2
left_child=1 -1 3 -3
right_child=-2 2 -4 -5
leaf_value=0.020866948043156416 0.11014637903585348 -0.049030121067329936 -0.050298921564045362 -0.049519689203875644
leaf_weight=3.5174162536859539 4.9141030609607688 5.8152956366538984 3.3910507559776297 3.197077289223671
leaf_count=21 25 38 20 20
internal_value=3.16431e-05 -0.0339562 -0.0495032 -0.0492038
internal_weight=20.8349 15.9208 12.4034 9.01237
internal_count=124 99 78 58
is_linear=0
shrinkage=0.05


Tree=14
num_leaves=5
num_cat=0
split_feature=42 105 132 41
split_gain=18.9322 5.45135 0.961235 0.000173791
threshold=1.0000000180025095e-35 0.42307692307692274 0.016005733397037748 0.055289593583596613
decision_type=2 2 2 2
left_child=-1 -2 -3 -4
right_child=1 2 3 -5
leaf_value=0.096702415742109554 0.027644744578080693 -0.01656173908607601 -0.049200860665495172 -0.048749317344210757
leaf_weight=4.0490635186433819 3.8339812755584708 3.0718027949333182 3.4171998798847181 5.6611490249633789
leaf_count=22 22 20 22 38
internal_value=0.000127934 -0.0243361 -0.0407386 -0.0489193
internal_weight=20.0332 15.9841 12.1502 9.07835
internal_count=124 102 80 60
is_linear=0
shrinkage=0.05


Tree=15
num_leaves=6
num_cat=0
split_feature=76 22 6 48 61
split_gain=14.7727 26.7615 2.40101 0.203947 0.000532745
threshold=0.15914181984278258 0.80571658110741884 0.019036154993576946 0.77662603580091893 0.51726072008221635
decision_type=2 2 2 2 2
left_child=1 -1 -3 4 -2
right_child=3 2 -4 -5 -6
leaf_value=0.13882124550188102 -0.050203820305062569 -0.050581193129880055 0.008618697658155143 -0.034434048268698426 -0.049298195991581806
leaf_weight=4.2178190499544161 3.3647278994321805 3.4583781063556671 3.3932255506515503 3.2539401203393936 3.1387753635644913
leaf_count=24 20 20 20 20 20
internal_value=0.000198527 0.0397346 -0.0212627 -0.0446536 -0.0497667
internal_weight=20.8269 11.0694 6.8516 9.75744 6.5035
internal_count=124 64 40 60 40
is_linear=0
shrinkage=0.05


Tree=16
num_leaves=5
num_cat=0
split_feature=125 4 77 59
split_gain=43.7543 2.1858 0.000174528 7.84333e-05
threshold=0.99983854854515564 0.90621810392706514 0.64924466330677288 0.052500000000000012
decision_type=2 2 2 2
left_child=1 2 3 -1
right_child=-2 -3 -4 -5
leaf_value=-0.049283216349099539 0.13145513802452546 -0.0032925560322330199 -0.04901690330962763 -0.049575100307013203
leaf_weight=4.5450887978076953 4.8534763008356085 3.2358684241771689 3.5156892836093894 4.6626009047031403
leaf_count=29 23 20 23 29
internal_value=-5.45747e-06 -0.0399848 -0.0493166 -0.049431
internal_weight=20.8127 15.9592 12.7234 9.20769
internal_count=124 101 81 58
is_linear=0
shrinkage=0.05


Tree=17
num_leaves=5
num_cat=0
split_feature=2 109 77 62
split_gain=56.6037 0.000111628 6.91494e-05 3.21158e-05
threshold=0.091007472357460303 0.61025465280705149 0.64924466330677288 0.04165996316800475
decision_type=2 2 2 2
left_child=-1 2 3 -2
right_child=1 -3 -4 -5
leaf_value=0.13853134947107631 -0.049228582911700264 -0.048969604656087851 -0.04907183783846962 -0.049430641029290234
leaf_weight=5.4346114844083813 3.2748410701751691 4.1071229130029669 3.0738181024789801 4.9225819557905197
leaf_count=25 21 27 20 31
internal_value=-0.0001749 -0.0491928 -0.0492741 -0.0493499
internal_weight=20.813 15.3784 11.2712 8.19742
internal_count=124 99 72 52
is_linear=0
shrinkage=0.05


Tree=18
num_leaves=5
num_cat=0
split_feature=72 108 87 31
split_gain=46.8773 0.00200358 0.000168348 5.82639e-05
threshold=0.50443102489074276 0.59639758319906278 0.76534979509625789 0.48402688828200935
decision_type=2 2 2 2
left_child=1 2 3 -1
right_child=-2 -3 -4 -5
leaf_value=-0.048296057753524177 0.12159294356219071 -0.049591401861574277 -0.04858627936320864 -0.048013314122267711
leaf_weight=3.2649751901626605 5.6469835937023154 3.93592844903469 2.9279700815677643 4.1227051541209221
leaf_count=23 26 25 20 30
internal_value=-0.000323852 -0.0486316 -0.0482654 -0.0481383
internal_weight=19.8986 14.2516 10.3157 7.38768
internal_count=124 98 73 53
is_linear=0
shrinkage=0.05


Tree=19
num_leaves=5
num_cat=0
split_feature=4 106 105 108
split_gain=27.9005 24.7352 0.00170668 0.000520007
threshold=0.58921258083738515 0.80581863656196373 0.47746535358280978 0.56327204222228378
decision_type=2 2 2 2
left_child=1 -1 -2 -4
right_child=2 -3 3 -5
leaf_value=0.13673050203937323 -0.050220477636783695 -0.035649295352040082 -0.048544525578272046 -0.049322281472401579
leaf_weight=5.240777939558031 3.3474072366952887 3.4516583830118179 4.812666177749632 3.8831959217786789
leaf_count=25 20 21 33 25
internal_value=1.25359e-05 0.0682806 -0.0492611 -0.0488918
internal_weight=20.7357 8.69244 12.0433 8.69586
internal_count=124 46 78 58
is_linear=0
shrinkage=0.05


Tree=20
num_leaves=5
num_cat=0
split_feature=42 105 48 33
split_gain=16.2828 5.05688 0.991491 0.000199394
threshold=1.0000000180025095e-35 0.42307692307692274 0.59292206772821177 0.0026981614703945468
decision_type=2 2 2 2
left_child=-1 -2 -3 -4
right_child=1 2 3 -5
leaf_value=0.086049811395852938 0.025563571722662101 -0.015088810055329895 -0.048770705442938378 -0.04829260122990725
leaf_weight=4.3254528343677547 3.9213873445987693 2.9692311137914649 4.4676547050476056 4.2602724581956863
leaf_count=22 22 20 30 30
internal_value=0.000201394 -0.0235738 -0.0400467 -0.0485373
internal_weight=19.944 15.6185 11.6972 8.72793
internal_count=124 102 80 60
is_linear=0
shrinkage=0.05


Tree=21
num_leaves=5
num_cat=0
split_feature=76 22 115 25
split_gain=13.7053 22.1471 2.38183 0.205358
threshold=0.15914181984278258 0.80571658110741884 0.30773253415152263 0.51238281628946014
decision_type=2 2 2 2
left_child=1 -1 -3 -2
right_child=3 2 -4 -5
leaf_value=0.1221254803398113 -0.049484394057674394 -0.050147563577872145 0.0094210214473507622 -0.033989972235447988
leaf_weight=4.5884358286857623 6.1825667619705182 3.3610614240169525 3.3513384163379669 3.2692381739616394
leaf_count=24 39 20 20 21
internal_value=0.000304879 0.0374653 -0.0204064 -0.0441251
internal_weight=20.7526 11.3008 6.7124 9.4518
internal_count=124 64 40 60
is_linear=0
shrinkage=0.05


Tree=22
num_leaves=6
num_cat=0
split_feature=125 105 1 9 68
split_gain=37.4415 2.26481 0.000246385 6.8123e-05 3.86628e-05
threshold=0.99983854854515564 0.26375463832100765 0.10303171281237912 0.7283789201596772 0.33862083187472991
decision_type=2 2 2 2 2
left_child=1 -1 3 4 -3
right_child=-2 2 -4 -5 -6
leaf_value=-0.0012750785786208429 0.1152939240543728 -0.049032537588063696 -0.049316895525786178 -0.048614259155774754 -0.048779727560656072
leaf_weight=3.1248660832643536 5.2523234933614722 3.0632294267415983 3.3012770861387244 2.9376939535140991 2.9870194494724274
leaf_count=20 23 20 21 20 20
internal_value=2.4231e-06 -0.039283 -0.0489475 -0.0488118 -0.0489077
internal_weight=20.6664 15.4141 12.2892 8.98794 6.05025
internal_count=124 101 81 60 40
is_linear=0
shrinkage=0.05


Tree=23
num_leaves=5
num_cat=0
split_feature=2 109 83 59
split_gain=48.9135 0.000149878 5.78552e-05 4.00276e-05
threshold=0.091007472357460303 0.61025465280705149 0.66615158162434407 0.091204298688182805
decision_type=2 2 2 2
left_child=-1 2 3 -2
right_child=1 -3 -4 -5
leaf_value=0.12181714086580542 -0.048827302068121123 -0.048505560076107596 -0.048706174314756927 -0.049064268918153783
leaf_weight=5.8747044354677227 3.4512361139059049 3.9169189482927314 3.7070555537939072 3.6846726387739182
leaf_count=25 23 27 25 24
internal_value=-0.000204 -0.0487707 -0.0488664 -0.0489497
internal_weight=20.6346 14.7599 10.843 7.13591
internal_count=124 99 72 47
is_linear=0
shrinkage=0.05


end of trees

feature_importances:
Column_105=9
Column_77=4
Column_125=4
Column_0=3
Column_2=3
Column_4=3
Column_22=3
Column_42=3
Column_59=3
Column_83=3
Column_108=3
Column_109=3
Column_3=2
Column_25=2
Column_43=2
Column_48=2
Column_56=2
Column_64=2
Column_68=2
Column_76=2
Column_79=2
Column_1=1
Column_5=1
Column_6=1
Column_8=1
Column_9=1
Column_15=1
Column_31=1
Column_33=1
Column_35=1
Column_41=1
Column_53=1
Column_60=1
Column_61=1
Column_62=1
Column_69=1
Column_70=1
Column_72=1
Column_84=1
Column_87=1
Column_101=1
Column_103=1
Column_106=1
Column_107=1
Column_115=1
Column_129=1
Column_130=1
Column_132=1
Column_142=1

parameters:
[boosting: gbdt]
[objective: multiclass]
[metric: custom]
[tree_learner: serial]
[device_type: cpu]
[data_sample_strategy: bagging]
[data: ]
[valid: ]
[num_iterations: 10000]
[learning_rate: 0.05]
[num_leaves: 63]
[num_threads: 0]
[seed: 1237]
[deterministic: 0]
[force_col_wise: 0]
[force_row_wise: 0]
[histogram_pool_size: -1]
[max_depth: -1]
[min_data_in_leaf: 20]
[min_sum_hessian_in_leaf: 0.001]
[bagging_fraction: 1]
[pos_bagging_fraction: 1]
[neg_bagging_fraction: 1]
[bagging_freq: 0]
[bagging_seed: 32458]
[bagging_by_query: 0]
[feature_fraction: 0.9]
[feature_fraction_bynode: 1]
[feature_fraction_seed: 15412]
[extra_trees: 0]
[extra_seed: 19498]
[early_stopping_round: 0]
[early_stopping_min_delta: 0]
[first_metric_only: 0]
[max_delta_step: 0]
[lambda_l1: 0]
[lambda_l2: 0]
[linear_lambda: 0]
[min_gain_to_split: 0]
[drop_rate: 0.1]
[max_drop: 50]
[skip_drop: 0.5]
[xgboost_dart_mode: 0]
[uniform_drop: 0]
[drop_seed: 818]
[top_rate: 0.2]
[other_rate: 0.1]
[min_data_per_group: 100]
[max_cat_threshold: 32]
[cat_l2: 10]
[cat_smooth: 10]
[max_cat_to_onehot: 4]
[top_k: 20]
[monotone_constraints: ]
[monotone_constraints_method: basic]
[monotone_penalty: 0]
[feature_contri: ]
[forcedsplits_filename: ]
[refit_decay_rate: 0.9]
[cegb_tradeoff: 1]
[cegb_penalty_split: 0]
[cegb_penalty_feature_lazy: ]
[cegb_penalty_feature_coupled: ]
[path_smooth: 0]
[interaction_constraints: ]
[verbosity: -1]
[saved_feature_importance_type: 0]
[use_quantized_grad: 0]
[num_grad_quant_bins: 4]
[quant_train_renew_leaf: 0]
[stochastic_rounding: 1]
[linear_tree: 0]
[max_bin: 255]
[max_bin_by_feature: ]
[min_data_in_bin: 3]
[bin_construct_sample_cnt: 200000]
[data_random_seed: 4078]
[is_enable_sparse: 1]
[enable_bundle: 1]
[use_missing: 1]
[zero_as_missing: 0]
[feature_pre_filter: 1]
[pre_partition: 0]
[two_round: 0]
[header: 0]
[label_column: ]
[weight_column: ]
[group_column: ]
[ignore_column: ]
[categorical_feature: ]
[forcedbins_filename: ]
[precise_float_parser: 0]
[parser_config_file: ]
[objective_seed: 21231]
[num_class: 6]
[is_unbalance: 0]
[scale_pos_weight: 1]
[sigmoid: 1]
[boost_from_average: 1]
[reg_sqrt: 0]
[alpha: 0.9]
[fair_c: 1]
[poisson_max_delta_step: 0.7]
[tweedie_variance_power: 1.5]
[lambdarank_truncation_level: 30]
[lambdarank_norm: 1]
[label_gain: ]
[lambdarank_position_bias_regularization: 0]
[eval_at: ]
[multi_error_top_k: 1]
[auc_mu_weights: ]
[num_machines: 1]
[local_listen_port: 12400]
[time_out: 120]
[machine_list_filename: ]
[machines: ]
[gpu_platform_id: -1]
[gpu_device_id: -1]
[gpu_use_dp: 0]
[num_gpu: 1]

end of parameters

pandas_categorical:null
